-3.947101 -0.824909 0.869187 2.216878 0.333444 -4.988117 -3.300000 4.461592 4.076606 -3.436169 -3.217964 0.417459 -1.425715 -3.740443 2.501099 -2.391259 1.339604 -0.457849 -0.775957 2.990770 -4.223259 -1.363660 -0.853227 2.946587 2.919959 2.117936 3.599999 2.306115 -0.280021 -2.087644 1.851398 -3.174777 -4.675607 -0.229296 -1.466376 -1.371043 1.960483 -1.092392 -0.813596 -0.272438 1.188364 -0.043638 -1.934848 -1.686388 4.567670 4.447084 -4.555178 -2.435344 1.493548 -0.339443 -3.007495 1.621743 -3.397613 -0.460022 -3.487583 0.308935 0.886948 -3.872346 -0.831566 -4.890822 3.194409 -1.363751 4.484341 4.619196 -1.343458 0.416930 -2.702006 3.999651 0.785202 0.682517 -3.160280 -1.401890 -1.608275 3.924781 -1.264847 3.546898 2.432062 2.067576 -0.696815 -3.449108 -1.916174 -2.339496 -4.998775 -0.417178 -4.869372 0.146084 0.447860 -3.214456 -1.346268 -2.240082 0.854691 4.603406 -3.072985 -3.746727 -2.407228 1.447980
-3.947101 -0.824909 0.869187 2.216878 0.333444 -4.988117 -3.300000 4.461592 4.076606 -3.436169 -3.217964 0.417459 -1.425715 -3.740443 2.501099 -2.391259 1.339604 -0.457849 -0.775957 2.990770 -4.223259 -1.363660 -0.853227 2.946587 2.919959 2.117936 3.599999 2.306115 4.404245 -2.802505 1.851398 -3.174777 -4.963508 -0.229296 -1.466376 -2.051087 1.125119 -1.092392 -0.813596 -0.272438 1.188364 -0.043638 -1.745758 -1.686388 4.567670 4.447084 -4.555178 -2.435344 1.493548 -0.339443 -2.120464 1.621743 -3.397613 -0.460022 -3.487583 0.308935 0.212158 -1.877103 -0.831566 -4.890822 3.194409 -1.363751 4.484341 4.619196 -1.343458 -0.889654 -2.702006 3.999651 -1.965879 0.682517 -3.160280 -1.401890 -1.608275 1.433102 -4.971025 3.546898 2.432062 -1.074710 -0.696815 -3.449108 -2.621171 -0.557684 -4.998775 -0.417178 -4.869372 4.776900 0.447860 -3.214456 -1.346268 -2.240082 0.854691 4.603406 -3.072985 -3.746727 -2.407228 1.447980
-3.947101 -0.824909 0.869187 2.216878 0.333444 -4.988117 -3.300000 4.461592 4.076606 -3.436169 -3.217964 0.417459 4.185204 1.904631 2.447824 -4.512429 4.185047 -0.457849 -0.775957 -4.471094 -4.223259 -1.363660 -0.853227 2.946587 -3.069255 2.117936 3.599999 -2.505502 -4.364095 -1.415369 1.851398 -3.174777 -4.963508 2.160711 -1.466376 -1.371043 1.960483 -1.092392 -0.813596 -0.272438 1.188364 1.370532 -1.745758 -1.686388 4.567670 4.447084 -4.555178 -2.435344 1.493548 -1.917706 -3.007495 1.621743 -3.397613 -0.460022 -3.487583 0.308935 0.886948 -3.872346 -0.831566 1.723339 3.194409 -0.631400 4.484341 4.619196 -1.343458 -0.889654 -2.702006 3.631412 3.973303 0.682517 -0.613324 -1.401890 -1.608275 1.433102 4.813474 3.546898 -1.339180 2.067576 -0.696815 -3.449108 -4.841873 -2.339496 -4.998775 -0.417178 -3.383469 1.087329 0.447860 -3.214456 -1.346268 -2.240082 0.854691 4.603406 -3.072985 -3.746727 0.932439 1.447980
-3.947101 -1.919713 3.827235 -3.000873 -3.436387 -2.506441 -2.252751 2.513847 -1.211978 -2.444750 0.315167 0.338316 -1.425715 -3.740443 2.501099 -2.391259 2.923282 3.678433 2.757205 -0.707672 -3.151462 -2.028568 -4.421013 -3.731743 1.657410 -2.563983 -1.581724 1.904721 -0.737160 2.720735 -0.155187 -1.985440 -4.963508 3.506470 -1.466376 -1.371043 1.960483 -1.092392 -0.813596 -0.272438 1.188364 4.444537 -1.745758 -1.686388 4.567670 1.425983 -4.555178 -2.435344 1.493548 -2.516895 -2.120464 1.621743 -3.397613 -0.460022 -1.124251 0.308935 0.212158 -4.312949 -0.831566 -4.890822 3.194409 -1.363751 4.484341 4.619196 -1.343458 -0.889654 0.181473 3.999651 0.785202 0.682517 -3.160280 -1.401890 -1.608275 1.433102 0.356730 3.546898 2.432062 2.361250 -0.696815 -3.449108 0.805632 -0.557684 -4.998775 -0.417178 -2.649633 1.087329 -0.097456 -3.214456 -1.346268 -2.240082 0.854691 4.603406 -3.072985 -3.746727 -2.407228 1.447980
-3.947101 -1.919713 3.827235 -3.000873 -3.436387 -2.506441 -2.252751 2.513847 -1.211978 -2.444750 1.803051 -2.014120 -1.425715 -1.488727 2.501099 -2.391259 1.339604 3.678433 2.757205 -0.707672 -3.151462 -2.028568 -4.421013 -3.731743 1.657410 -2.563983 -1.581724 1.904721 -0.737160 2.720735 -0.155187 4.955743 -4.163227 3.506470 -0.293039 -1.371043 4.153595 -1.092392 -0.813596 0.762204 1.188364 4.444537 -1.745758 -1.686388 4.567670 2.698050 -4.555178 4.803014 4.444534 4.341175 -1.459604 1.621743 -3.397613 -0.460022 -3.487583 0.308935 0.212158 -4.312949 -0.831566 -3.536759 3.194409 -1.363751 4.484341 4.619196 -1.343458 -0.889654 -2.702006 3.999651 -1.965879 0.682517 -3.160280 -1.401890 -1.608275 1.433102 0.356730 3.546898 -3.788228 -1.074710 -0.696815 -3.449108 -2.621171 -0.557684 -4.998775 -0.417178 -4.869372 1.087329 0.447860 -3.214456 -1.346268 -2.240082 0.854691 4.603406 -3.072985 -3.746727 0.932439 1.447980
-3.947101 -0.824909 0.869187 2.216878 0.333444 -4.988117 -3.300000 4.461592 4.076606 3.151270 -3.217964 0.417459 4.185204 1.904631 2.447824 -4.512429 4.185047 -0.457849 -0.775957 -4.471094 -4.223259 -1.363660 -0.853227 2.946587 -3.069255 2.117936 3.599999 2.306115 4.404245 -2.087644 1.851398 -3.174777 -4.963508 -0.229296 -1.466376 -1.371043 1.960483 -1.092392 -0.813596 -1.390128 1.188364 -0.043638 -1.745758 -1.686388 4.567670 4.447084 -2.005882 -2.435344 1.493548 -0.339443 -2.120464 1.621743 -3.397613 -0.460022 -3.487583 0.308935 3.650671 -0.021207 -0.831566 -4.890822 3.194409 -1.363751 4.484341 4.619196 -1.343458 0.416930 -2.702006 3.999651 0.785202 0.682517 -3.160280 -1.401890 -1.608275 3.924781 0.356730 3.546898 2.432062 2.067576 -0.696815 -3.449108 -1.916174 2.212456 -4.998775 -0.417178 -4.869372 0.146084 0.447860 -3.214456 -2.338908 -2.240082 0.854691 4.603406 -3.072985 -3.746727 -2.407228 -1.657097
-3.947101 -1.919713 3.827235 -3.000873 -3.436387 -2.506441 -2.252751 2.513847 -1.211978 -2.444750 0.315167 -2.014120 -1.425715 -3.740443 2.501099 -2.391259 1.339604 3.678433 2.757205 2.678541 -3.151462 -2.028568 -4.421013 -3.731743 1.657410 -2.563983 -1.581724 -0.958367 -0.737160 2.720735 -0.155187 -1.985440 -4.963508 -0.229296 -2.097683 -1.371043 1.960483 -1.092392 -0.813596 -0.272438 1.188364 -0.043638 -1.745758 -1.686388 4.567670 4.447084 -4.555178 -2.435344 1.493548 -0.339443 -2.120464 1.621743 -3.397613 -0.460022 -3.487583 3.703525 0.886948 -2.586909 -0.831566 -4.890822 3.194409 -1.363751 4.484341 4.619196 -1.343458 -0.889654 -2.702006 3.999651 0.785202 0.682517 -3.160280 -1.401890 -1.608275 1.433102 0.356730 3.546898 2.432062 -1.074710 -0.696815 -3.449108 0.805632 -0.557684 1.203888 -0.417178 -3.383469 1.087329 -0.097456 -3.214456 -1.346268 -2.240082 0.854691 4.603406 -3.072985 -3.746727 0.932439 1.447980
-3.947101 -1.919713 0.869187 2.216878 0.333444 -4.988117 -3.300000 4.461592 4.076606 -3.436169 -3.217964 0.417459 4.185204 1.904631 2.447824 -4.512429 0.760808 4.367152 -0.775957 -0.260718 -4.223259 -1.363660 -0.853227 2.946587 -0.711699 -1.971901 3.599999 2.306115 4.404245 -2.087644 1.851398 -3.174777 -4.963508 -0.229296 -1.466376 -1.371043 1.960483 -1.092392 -0.813596 -0.272438 1.188364 -0.043638 -1.311784 -1.686388 3.160465 4.447084 -4.555178 -2.435344 1.493548 -0.339443 -3.007495 1.621743 -3.397613 -0.460022 -3.487583 0.308935 0.937262 -3.872346 -0.831566 -4.890822 3.194409 -1.363751 4.484341 4.619196 -1.343458 -0.889654 -2.702006 3.999651 -1.965879 0.682517 -3.160280 -1.401890 -1.608275 1.433102 0.356730 3.546898 2.432062 2.067576 -0.696815 -4.606919 0.805632 4.965316 -4.998775 1.437206 -3.383469 1.087329 -0.097456 -3.214456 -1.346268 -2.240082 0.854691 4.603406 -3.072985 -3.746727 0.932439 1.447980
-3.947101 -0.824909 0.869187 2.216878 0.333444 -4.988117 -3.300000 4.461592 4.076606 -3.436169 -3.217964 0.417459 4.185204 1.904631 2.447824 -4.512429 4.185047 -0.457849 -0.775957 -4.471094 2.188204 -1.363660 -0.853227 2.946587 -3.069255 2.117936 3.599999 2.306115 -0.280021 -2.087644 1.851398 -3.174777 -4.963508 -0.229296 -1.466376 -1.371043 1.960483 -1.092392 -0.813596 -0.272438 1.188364 -0.043638 -1.745758 -1.686388 4.567670 4.447084 -4.555178 -2.435344 1.493548 -0.339443 -2.120464 1.621743 -3.397613 -0.460022 -3.487583 0.308935 0.886948 -2.586909 -4.854232 -4.890822 3.194409 -1.363751 4.484341 4.619196 -1.343458 0.416930 -2.702006 3.999651 0.785202 0.682517 -3.160280 -1.401890 -1.608275 3.924781 0.356730 3.546898 2.432062 2.067576 -0.696815 -3.449108 -1.916174 -2.339496 -4.998775 -0.417178 -4.869372 0.146084 0.447860 -3.214456 -1.346268 -2.240082 0.854691 4.603406 -3.072985 -3.746727 -2.407228 1.447980
-3.947101 -0.824909 0.869187 2.216878 0.333444 -4.988117 -3.300000 4.461592 4.076606 -3.436169 -3.217964 0.417459 4.185204 1.904631 2.447824 -4.512429 4.185047 -0.457849 -0.775957 2.990770 -4.223259 -1.363660 -0.853227 2.946587 2.919959 4.904190 3.599999 2.306115 4.404245 -2.087644 1.851398 -3.174777 -4.963508 -0.229296 -1.466376 -2.051087 -4.295446 -1.092392 -0.813596 -0.272438 1.188364 -0.043638 -1.447931 -1.686388 4.567670 4.447084 -4.555178 -2.435344 1.493548 -0.339443 -2.120464 1.621743 -3.397613 4.983939 -3.487583 0.308935 0.212158 -4.312949 -0.831566 -4.890822 3.194409 -1.363751 4.484341 4.619196 -1.343458 -0.889654 -2.702006 3.999651 0.785202 0.682517 -0.803850 -1.401890 -1.608275 1.433102 0.356730 3.546898 2.432062 2.067576 -0.696815 -3.449108 -1.916174 -2.339496 -4.998775 -0.417178 -3.383469 1.087329 0.447860 -3.214456 -1.346268 -2.240082 0.854691 4.603406 -2.460744 -3.746727 0.932439 1.447980
-3.947101 -0.824909 0.869187 2.216878 0.333444 -4.988117 -3.300000 4.461592 4.076606 -3.436169 -3.217964 0.417459 -1.425715 -3.740443 2.501099 -2.391259 1.339604 -0.457849 -0.775957 2.990770 -4.223259 -1.363660 -0.853227 2.946587 2.919959 2.117936 3.599999 2.306115 4.404245 -2.802505 1.851398 -3.174777 -4.963508 -0.229296 -1.466376 -2.051087 1.125119 -1.092392 -0.813596 -0.272438 1.188364 -0.043638 -1.745758 -1.686388 4.567670 4.447084 -4.555178 -2.435344 1.493548 -0.339443 -3.007495 1.621743 -3.397613 -0.460022 -3.487583 0.308935 0.886948 -3.872346 -0.831566 -4.890822 3.194409 -1.363751 4.484341 4.619196 -1.343458 0.416930 -2.702006 3.999651 0.785202 0.682517 -3.160280 -1.401890 -1.608275 3.924781 0.356730 3.546898 2.432062 2.067576 -0.696815 -3.449108 -1.916174 -2.339496 -4.998775 -0.417178 -4.869372 0.146084 -0.097456 -3.214456 -1.346268 -2.240082 0.854691 4.603406 -3.072985 -3.746727 0.932439 1.447980
-3.947101 -0.824909 0.869187 2.216878 0.333444 -4.988117 -3.300000 4.461592 4.076606 3.151270 -3.217964 0.417459 4.185204 1.904631 2.447824 -4.512429 4.185047 -0.457849 -0.775957 -4.471094 -4.223259 -1.363660 -0.853227 2.946587 -3.069255 2.117936 3.599999 2.306115 4.404245 -2.087644 1.851398 -3.174777 -4.963508 -0.229296 -1.466376 -1.371043 1.960483 -1.092392 -0.813596 -1.390128 1.188364 -0.043638 -1.745758 -1.686388 4.567670 4.447084 -2.005882 -2.435344 1.493548 -0.339443 -2.120464 1.621743 -3.397613 -0.460022 -3.487583 0.308935 3.650671 -0.021207 -0.831566 -4.890822 3.194409 -1.363751 4.484341 2.582423 -1.343458 -0.889654 -2.702006 3.999651 0.785202 0.682517 -3.160280 -1.401890 -1.608275 1.433102 0.356730 3.546898 2.432062 2.067576 -0.696815 -3.449108 -1.916174 -2.339496 -4.998775 -0.417178 -4.869372 0.146084 0.447860 -3.214456 -1.346268 -2.240082 0.854691 4.603406 -3.072985 -3.746727 -2.407228 1.447980
-3.947101 -1.919713 -4.619367 2.216878 0.333444 -4.988117 -3.300000 4.461592 4.076606 -3.436169 -3.217964 0.417459 4.185204 1.904631 2.447824 -4.512429 -2.986353 4.367152 -0.775957 -4.471094 -4.223259 -1.363660 -0.853227 2.946587 2.919959 -1.971901 -2.613998 2.306115 4.404245 -2.087644 1.851398 -3.174777 -0.809719 -0.229296 -2.097683 -1.371043 1.960483 -1.092392 -0.813596 -0.272438 1.188364 -0.043638 -1.745758 -1.686388 -3.298893 4.447084 -4.555178 -2.435344 1.493548 -2.516895 -2.120464 1.621743 -3.397613 -0.460022 -3.487583 0.308935 0.886948 -3.872346 -0.831566 -4.890822 1.239125 -1.363751 4.484341 4.619196 -1.343458 -0.889654 -2.702006 3.999651 0.536049 0.682517 -3.160280 -1.401890 -1.608275 1.433102 0.356730 -0.898838 -1.339180 2.067576 -0.696815 -3.449108 -4.841873 -2.339496 -4.998775 -0.417178 -3.383469 1.087329 0.447860 -3.214456 -1.346268 -2.240082 0.854691 4.603406 -3.072985 -3.746727 0.932439 1.447980
-3.947101 -1.919713 0.869187 2.216878 0.333444 -4.988117 -3.300000 4.461592 4.076606 -3.436169 -3.217964 0.417459 4.185204 1.904631 2.447824 -4.512429 0.760808 4.367152 -0.775957 -4.471094 -4.223259 -1.363660 -0.853227 2.946587 2.919959 -1.971901 -2.613998 2.306115 4.404245 -2.087644 1.851398 -3.174777 -4.963508 -0.229296 -1.466376 -1.371043 1.960483 -1.092392 -0.813596 -0.272438 1.188364 -0.043638 -1.311784 0.575625 3.160465 4.447084 -4.555178 -2.435344 0.387393 -0.339443 2.579675 4.838364 -3.397613 -0.460022 -3.487583 0.308935 0.886948 -3.872346 -0.831566 -4.890822 3.928932 -1.614541 4.484341 4.619196 -2.931083 0.416930 -2.702006 3.999651 0.785202 0.682517 -3.160280 -1.401890 -1.608275 1.433102 0.356730 3.546898 2.432062 2.067576 -0.696815 -3.449108 0.805632 4.965316 -4.998775 -0.417178 -3.383469 1.087329 -0.097456 -3.214456 -1.346268 -2.240082 0.854691 4.603406 -2.460744 -3.746727 0.932439 1.447980
-3.947101 -0.824909 1.248436 2.216878 0.333444 -4.988117 -3.300000 4.461592 4.076606 -3.436169 -3.217964 0.417459 4.185204 1.904631 2.447824 -4.512429 4.185047 -0.457849 -0.775957 -4.471094 -4.223259 -1.363660 -0.853227 2.946587 -3.069255 2.117936 3.599999 -2.525942 4.404245 -2.087644 1.851398 -3.174777 -4.963508 -0.229296 -2.526207 -2.051087 -4.295446 -1.092392 -0.813596 -0.272438 1.188364 -0.043638 -1.745758 -1.686388 4.567670 4.447084 -4.555178 -2.435344 1.493548 -0.339443 -3.007495 1.621743 -3.397613 -0.460022 -3.487583 0.308935 0.886948 -3.872346 -0.831566 -2.831260 3.194409 -1.363751 4.484341 4.619196 -1.343458 0.416930 -2.702006 3.999651 0.785202 0.682517 -3.160280 -1.401890 -1.608275 3.924781 0.356730 3.546898 2.432062 2.067576 -0.696815 -3.449108 -1.916174 2.212456 -4.998775 -0.417178 -4.869372 0.146084 0.447860 -3.214456 -1.346268 -2.240082 0.854691 4.603406 -3.072985 -3.746727 -2.407228 1.447980
-3.947101 -0.824909 0.869187 2.216878 0.333444 -4.988117 -3.300000 4.461592 4.076606 -3.436169 -3.217964 0.417459 4.185204 1.904631 2.447824 -4.512429 4.185047 -0.457849 -0.775957 -4.471094 -4.223259 -1.363660 -0.853227 2.946587 -3.069255 2.117936 3.599999 2.306115 4.404245 -2.087644 1.851398 -3.174777 -4.963508 -0.229296 -1.466376 -1.371043 1.960483 -1.092392 -0.813596 -0.272438 1.188364 -0.043638 -1.745758 -1.686388 4.567670 4.447084 -2.005882 -2.435344 1.493548 -0.339443 -2.120464 1.621743 -3.397613 -2.064438 -3.487583 0.308935 0.886948 -3.872346 -0.831566 -4.890822 3.194409 -1.363751 4.484341 4.619196 -1.343458 -0.889654 -2.702006 3.999651 -1.965879 0.682517 -3.160280 -1.401890 -1.608275 1.433102 0.356730 3.546898 2.432062 2.067576 -0.696815 -3.449108 2.376002 4.965316 -4.998775 -0.417178 -3.383469 1.087329 -2.569317 -3.214456 -1.346268 -2.240082 0.854691 4.603406 -3.072985 -3.746727 -2.407228 1.447980
-3.947101 -1.919713 3.827235 -3.000873 -3.436387 -2.506441 -2.252751 2.513847 -1.211978 -2.444750 1.803051 -2.014120 -1.425715 -1.488727 2.501099 -2.391259 1.339604 3.678433 2.757205 -0.707672 -3.151462 -2.028568 -4.421013 -3.731743 1.657410 -2.563983 -1.581724 1.904721 -0.737160 2.720735 -0.155187 4.955743 -4.163227 3.506470 -0.293039 -1.371043 -4.402274 -1.092392 -0.813596 -0.272438 1.188364 4.444537 -1.745758 -1.686388 4.567670 2.698050 -4.555178 4.803014 4.444534 4.341175 -1.459604 1.621743 -3.397613 -0.460022 -3.487583 0.308935 0.212158 -4.312949 -0.831566 -3.536759 3.194409 -1.363751 4.484341 4.619196 -1.343458 -0.889654 -2.702006 3.999651 -1.965879 0.682517 -3.160280 -1.401890 -1.608275 1.433102 -4.971025 3.546898 2.432062 -1.074710 -0.696815 -3.449108 -2.621171 -0.557684 -4.998775 -0.417178 -3.383469 1.087329 0.447860 -4.196638 -1.346268 -2.240082 0.854691 1.770960 -3.072985 -3.746727 -2.407228 1.447980
-3.947101 -1.919713 3.827235 -3.000873 -3.436387 -2.506441 -2.252751 2.513847 -1.211978 -2.444750 0.315167 1.514086 -1.425715 -3.740443 2.501099 -2.391259 1.339604 3.678433 2.757205 -0.707672 -3.151462 -2.028568 -4.421013 -3.731743 1.657410 -2.563983 -1.581724 -0.958367 -0.737160 2.720735 -0.155187 -1.985440 -4.963508 3.506470 -1.466376 -1.371043 -4.402274 -1.092392 -0.813596 -0.272438 1.188364 4.444537 -1.745758 -1.686388 4.567670 1.425983 -4.555178 -2.435344 1.493548 -2.516895 -2.120464 1.621743 -3.397613 -0.460022 -3.487583 0.308935 0.212158 -4.312949 -3.110141 -3.536759 3.194409 -1.363751 4.484341 4.619196 -1.343458 -0.889654 -2.702006 3.999651 -1.965879 0.682517 2.417401 -1.401890 -1.608275 1.433102 -4.971025 3.546898 2.432062 -1.074710 -0.696815 -3.449108 -2.621171 -0.557684 -4.998775 -3.441274 -3.383469 1.087329 -0.097456 -3.214456 -1.346268 -2.240082 0.854691 4.603406 -1.725098 -3.746727 0.932439 1.447980
-3.947101 -0.824909 0.869187 2.216878 0.333444 -4.988117 -3.300000 4.111496 4.076606 -3.436169 -3.217964 0.417459 4.185204 1.904631 2.447824 -4.512429 -2.064849 -0.457849 -0.775957 -4.471094 -4.223259 -1.363660 -0.853227 2.946587 -3.069255 2.117936 3.599999 2.306115 4.404245 -2.087644 1.851398 -3.174777 -4.963508 -0.229296 -1.466376 -1.371043 1.960483 -1.092392 -0.813596 -0.272438 1.188364 -0.043638 -1.745758 -1.686388 4.567670 4.447084 -2.005882 -2.435344 1.493548 -0.339443 -2.120464 1.621743 -3.397613 -0.460022 -3.487583 0.308935 0.886948 -2.586909 -0.831566 -4.890822 3.194409 -1.363751 4.484341 4.224849 -1.343458 -0.889654 -2.702006 3.999651 0.785202 0.682517 -3.160280 -1.401890 -1.608275 1.526926 0.356730 3.546898 2.432062 2.067576 -0.696815 -4.606919 0.805632 -0.557684 -4.998775 3.351812 -3.268099 1.087329 0.447860 -3.214456 -1.346268 -2.240082 0.854691 1.770960 -3.072985 -3.746727 -2.407228 1.447980
-3.947101 -1.919713 3.827235 -3.000873 -3.436387 -2.506441 -2.252751 2.513847 -1.211978 -2.444750 0.315167 -2.014120 -1.425715 -3.740443 -4.381770 -2.391259 1.339604 -0.457849 -0.775957 -4.471094 -4.223259 -1.363660 -0.853227 2.946587 2.919959 2.117936 3.599999 2.306115 4.404245 -2.087644 1.851398 -0.961920 -4.963508 -0.229296 -1.466376 -1.371043 1.960483 -1.092392 -0.813596 -0.272438 1.188364 -0.043638 -3.642596 -1.686388 4.567670 4.447084 -4.555178 -2.435344 1.493548 -0.339443 -2.120464 1.621743 -3.397613 -0.460022 -3.487583 0.308935 0.212158 -4.312949 -0.831566 -4.890822 3.194409 0.950842 4.484341 4.619196 -1.343458 -0.889654 -2.702006 3.999651 -1.965879 0.682517 -3.160280 -1.094177 -1.608275 1.433102 -4.971025 3.546898 2.432062 -1.074710 -0.696815 -3.449108 -2.621171 -0.557684 -4.998775 -0.417178 -0.518459 4.776900 0.447860 -3.214456 -1.346268 -2.240082 0.854691 4.603406 -3.072985 -3.746727 -2.407228 1.447980
-3.947101 -1.919713 0.869187 2.216878 0.333444 -4.988117 -3.300000 4.461592 4.076606 -3.436169 -3.217964 0.417459 4.185204 1.904631 2.447824 -4.512429 0.760808 4.367152 -0.775957 -4.471094 -4.223259 -1.363660 -0.853227 2.946587 2.919959 -1.971901 -2.613998 2.306115 -3.815616 -2.087644 1.851398 -3.174777 -0.809719 1.228074 -2.097683 -1.371043 1.960483 -1.092392 -0.813596 -0.272438 1.188364 -0.043638 -1.745758 -1.686388 -3.298893 4.447084 -4.555178 -2.435344 1.493548 -2.516895 -2.120464 1.621743 -3.397613 -0.460022 -3.487583 0.308935 0.886948 -3.872346 -0.831566 1.723339 3.194409 -0.631400 4.484341 4.619196 -1.343458 -0.889654 -2.702006 3.999651 3.973303 0.682517 -0.613324 -1.401890 -1.608275 1.433102 4.813474 3.546898 -1.339180 2.067576 -0.696815 -3.449108 -4.841873 -2.339496 -4.998775 -0.417178 -3.383469 1.087329 0.447860 -3.214456 -1.346268 -2.240082 0.854691 4.603406 -3.072985 -3.746727 0.932439 1.447980
-3.947101 -1.919713 3.827235 -3.000873 -3.436387 -2.506441 -2.252751 2.513847 -1.211978 -2.444750 0.315167 -2.014120 -1.425715 -3.740443 2.501099 -2.391259 1.339604 3.678433 2.757205 -0.707672 -3.151462 -2.028568 -4.421013 -3.731743 1.657410 -2.563983 -1.581724 -0.958367 -0.737160 2.720735 -0.155187 -1.985440 -4.963508 3.506470 -1.466376 -1.371043 -4.402274 -1.092392 -0.813596 -0.272438 1.188364 4.444537 -1.745758 -1.686388 4.567670 1.425983 -4.555178 -2.435344 1.493548 -2.516895 -2.120464 1.621743 -3.397613 -0.460022 -3.487583 0.308935 0.212158 -4.312949 -0.831566 -4.890822 3.194409 -1.363751 4.484341 4.619196 -1.343458 -0.889654 -2.702006 3.999651 -1.965879 0.682517 -3.160280 -1.401890 -1.608275 1.433102 -4.971025 3.546898 2.432062 -1.074710 -0.696815 -3.449108 -2.621171 -0.557684 -4.998775 -0.417178 -3.383469 1.087329 4.178488 -3.214456 -1.346268 -2.240082 0.854691 4.603406 -3.072985 -3.746727 0.932439 1.447980
-3.947101 -0.824909 0.869187 2.216878 0.333444 -4.988117 -3.300000 4.461592 4.076606 -3.436169 -3.217964 0.417459 -1.425715 -3.740443 2.501099 -2.391259 1.339604 -0.457849 -0.775957 2.990770 -4.223259 -1.363660 -0.853227 2.946587 2.919959 2.117936 3.599999 -2.505502 -4.364095 -2.087644 1.851398 -3.174777 -4.963508 -0.229296 -1.466376 -1.371043 1.960483 -1.092392 -0.813596 -0.272438 1.188364 1.370532 -1.745758 -1.686388 4.567670 4.447084 -4.555178 -2.435344 1.493548 -0.339443 -3.007495 1.621743 -3.397613 -0.460022 -3.487583 0.308935 0.886948 -3.872346 -0.831566 1.723339 3.194409 -0.631400 4.484341 4.619196 -1.343458 -0.889654 -2.702006 3.999651 3.973303 0.682517 -0.613324 -1.401890 -1.608275 1.433102 4.813474 3.546898 -1.339180 2.067576 -0.696815 -3.449108 -4.841873 -2.339496 -4.998775 -0.417178 -3.383469 1.087329 0.447860 -3.214456 -1.346268 -2.240082 0.854691 4.603406 -3.072985 -3.746727 0.932439 1.447980
-3.947101 -1.919713 0.969483 2.216878 0.333444 -4.988117 -3.300000 4.461592 4.076606 -3.436169 -3.217964 0.417459 4.185204 1.904631 2.447824 -4.512429 4.185047 -0.457849 -0.775957 -4.471094 -4.223259 -1.363660 -0.853227 2.946587 -3.069255 2.117936 3.599999 -2.505502 -4.364095 -2.087644 1.851398 -3.174777 -4.963508 -0.229296 -1.466376 -1.371043 1.960483 -1.092392 -0.813596 -0.272438 1.188364 1.370532 -1.745758 -1.686388 4.567670 4.447084 -4.555178 -2.435344 1.493548 -0.339443 -3.007495 1.621743 -3.397613 -0.460022 -3.487583 0.308935 0.886948 -3.872346 -0.831566 1.723339 3.194409 -0.631400 4.484341 4.619196 -1.343458 -0.889654 -2.702006 3.999651 3.973303 0.682517 -0.613324 -1.401890 -1.608275 1.433102 0.356730 3.546898 2.432062 2.067576 -0.696815 -3.449108 -1.916174 -2.339496 -4.998775 -0.417178 -3.383469 1.087329 0.447860 -3.214456 -1.346268 -2.240082 0.854691 4.603406 -2.460744 -3.746727 0.932439 1.447980
-3.947101 -1.919713 3.827235 -3.000873 -3.436387 -2.506441 -2.252751 2.513847 -1.211978 -2.444750 0.315167 -2.014120 -1.425715 -3.740443 2.501099 -2.391259 2.923282 3.678433 2.757205 -0.707672 -3.151462 -2.028568 -4.421013 -3.731743 -3.069255 2.117936 3.599999 2.306115 4.404245 -2.087644 1.851398 -3.174777 -4.963508 -0.229296 -1.466376 -1.371043 1.960483 -1.092392 -0.813596 -0.272438 1.188364 -0.043638 -1.745758 -1.686388 4.567670 4.447084 -2.005882 -2.435344 1.493548 -2.516895 -2.120464 1.621743 -3.397613 -0.460022 -3.487583 0.308935 0.212158 -4.312949 -0.831566 -4.890822 3.194409 -1.363751 4.484341 4.619196 -1.343458 -0.889654 -2.702006 3.999651 0.785202 0.682517 -3.160280 -1.401890 -1.608275 1.433102 0.356730 3.546898 2.432062 -1.074710 -0.696815 -3.449108 0.805632 -0.557684 -4.998775 -0.417178 -3.383469 1.087329 -0.097456 -3.214456 -1.346268 -2.240082 0.854691 4.603406 -3.072985 -3.746727 0.932439 1.447980
-3.947101 -1.919713 0.969483 2.216878 0.333444 -4.988117 -3.300000 4.461592 4.076606 -3.436169 -3.217964 0.417459 4.185204 1.904631 2.447824 -4.512429 4.185047 -0.457849 -0.775957 -4.471094 -4.223259 -1.363660 -0.853227 2.946587 -3.069255 2.117936 3.599999 -2.505502 -4.364095 -2.087644 1.851398 -3.174777 -4.963508 -0.229296 -1.466376 -1.371043 1.960483 -1.092392 -0.813596 -0.272438 1.188364 -0.043638 -1.745758 -1.686388 4.567670 4.447084 -4.555178 -2.435344 1.493548 -0.339443 -3.007495 1.621743 -3.397613 -0.460022 -3.487583 0.308935 0.886948 -3.872346 -0.831566 -4.890822 3.194409 -1.363751 4.484341 4.619196 -1.343458 0.416930 -2.702006 3.999651 0.785202 0.682517 -0.613324 -1.401890 -1.608275 1.433102 4.813474 3.546898 -1.339180 2.067576 -0.696815 -3.449108 -4.841873 -2.339496 -4.998775 -0.417178 -3.383469 1.087329 0.447860 -3.214456 -1.346268 -2.240082 0.854691 4.603406 -3.072985 -3.746727 0.932439 1.447980
-3.947101 -1.919713 0.869187 2.216878 0.333444 -4.988117 -3.300000 4.461592 4.076606 -3.436169 -3.217964 0.417459 4.185204 1.904631 2.447824 -4.512429 0.760808 4.367152 -0.775957 2.730673 -4.223259 -1.363660 -0.853227 2.946587 2.919959 -1.971901 -2.613998 2.306115 4.404245 -2.087644 1.851398 -3.174777 -0.809719 -0.229296 -2.097683 -1.371043 1.960483 -1.092392 -0.813596 -0.272438 1.188364 -0.043638 -1.745758 -1.686388 -3.298893 4.447084 -4.555178 -2.435344 1.493548 -2.516895 -2.120464 1.621743 -3.397613 -0.460022 -3.487583 0.308935 0.886948 -3.872346 -0.831566 -4.890822 3.194409 -1.363751 4.484341 4.619196 -1.343458 -0.889654 -2.702006 3.999651 3.973303 0.682517 -3.233860 -1.401890 -1.608275 1.433102 4.813474 3.546898 -1.339180 2.067576 -0.696815 -3.449108 -4.841873 -2.339496 -4.998775 -0.417178 -3.383469 1.087329 0.447860 -3.214456 -1.346268 -2.240082 0.854691 4.603406 -3.072985 -3.746727 0.932439 1.447980
-3.947101 -0.824909 0.869187 2.216878 0.333444 -4.988117 -3.300000 4.461592 4.076606 -3.436169 -3.217964 0.417459 -1.425715 -3.740443 2.501099 -2.391259 1.339604 -0.457849 -0.775957 2.990770 -4.223259 -1.363660 -0.853227 2.946587 2.919959 4.904190 3.599999 2.306115 4.404245 -2.087644 1.851398 -3.174777 -4.963508 -0.229296 -1.466376 -2.051087 -4.295446 -1.092392 -0.813596 -0.272438 1.188364 -0.043638 -1.745758 -1.686388 4.567670 4.447084 -4.555178 -2.435344 1.493548 -0.339443 -3.007495 1.621743 -3.397613 -0.460022 -3.487583 0.308935 0.886948 -3.872346 -0.831566 -4.890822 3.194409 -1.363751 4.484341 4.619196 -1.343458 0.416930 -2.702006 3.999651 0.785202 0.682517 -3.160280 -1.401890 -1.608275 3.924781 0.356730 3.546898 2.432062 2.067576 -0.696815 -3.449108 -1.916174 2.212456 -4.998775 -0.417178 -4.869372 0.146084 0.447860 -3.214456 -1.346268 -2.240082 0.854691 4.603406 -3.072985 -3.746727 0.932439 1.447980
-3.947101 -0.824909 0.869187 2.216878 0.333444 -4.988117 -3.300000 4.461592 4.076606 -3.436169 -3.217964 0.417459 -1.425715 -3.740443 2.501099 -2.391259 1.339604 -0.457849 -0.775957 2.990770 -4.223259 -1.363660 -0.853227 2.946587 2.919959 2.117936 3.599999 2.306115 4.404245 -2.802505 1.851398 -3.174777 -4.963508 -0.229296 -1.466376 -2.051087 1.125119 -1.092392 -0.813596 -0.272438 1.188364 -0.043638 -1.745758 -1.686388 4.567670 4.447084 -4.555178 -2.435344 1.493548 -0.339443 -3.007495 1.621743 -3.397613 -0.460022 -3.487583 0.308935 0.886948 -3.872346 -0.831566 -4.890822 3.194409 -1.363751 4.484341 4.619196 -1.343458 0.416930 -2.702006 3.999651 0.785202 0.682517 -3.160280 -1.401890 -1.608275 3.924781 0.356730 3.546898 2.432062 2.067576 -0.696815 -3.449108 -1.916174 -2.339496 -4.998775 -0.417178 -3.383469 1.087329 0.447860 -3.214456 -1.346268 -2.240082 0.854691 4.603406 3.563029 -3.746727 0.932439 1.447980
-3.947101 -1.919713 3.827235 -3.000873 -3.436387 -2.506441 -2.252751 2.513847 -1.211978 -2.444750 0.315167 -2.014120 -1.425715 1.904631 2.447824 -4.512429 0.760808 4.367152 -0.775957 -4.471094 -4.223259 -1.363660 -0.853227 2.946587 2.919959 -1.971901 -2.613998 2.306115 4.404245 -2.087644 1.851398 -3.174777 -0.809719 -0.229296 -2.097683 -1.371043 1.960483 -1.092392 -0.813596 -0.272438 1.188364 -0.043638 -1.745758 -1.686388 4.567670 1.425983 -4.555178 -2.435344 1.493548 -2.516895 -2.120464 1.621743 -3.397613 -0.460022 -3.487583 0.308935 0.212158 -4.312949 -0.831566 -4.890822 3.194409 -1.363751 4.484341 4.619196 -1.343458 -0.889654 -2.702006 3.999651 0.785202 0.682517 -3.160280 -1.401890 -1.608275 1.433102 0.356730 3.546898 2.432062 -1.074710 -0.696815 -3.449108 0.805632 -0.557684 -4.998775 -0.201872 -3.383469 1.087329 -0.097456 -3.214456 -1.346268 -2.240082 0.854691 4.603406 -3.072985 -3.746727 0.932439 1.447980
-3.947101 -0.824909 0.869187 2.216878 0.333444 -4.988117 -3.300000 4.461592 4.076606 -3.436169 -3.217964 0.417459 -1.425715 -3.740443 2.501099 -2.391259 1.339604 -0.457849 -0.775957 2.990770 -4.223259 -1.363660 -0.853227 2.946587 2.919959 4.904190 3.599999 2.306115 4.404245 -2.087644 1.851398 -3.174777 -4.963508 -0.229296 -1.466376 -2.051087 -4.295446 -1.092392 -0.813596 -0.272438 1.188364 -0.043638 -1.745758 -1.686388 4.567670 4.447084 -4.555178 -2.435344 1.493548 -0.339443 -2.120464 -4.246881 -3.397613 -0.460022 -3.487583 0.308935 0.886948 -2.586909 -0.831566 -4.890822 3.194409 -1.363751 4.484341 4.619196 -1.343458 4.515474 -2.702006 3.999651 -4.770955 0.682517 -3.160280 -1.401890 1.369329 1.526926 2.858194 3.546898 2.432062 2.067576 -0.696815 -4.606919 0.805632 -0.557684 -4.998775 -0.417178 -3.383469 1.087329 0.447860 -4.196638 -1.346268 -2.240082 0.854691 1.770960 -3.072985 -3.746727 -2.407228 1.447980
-3.947101 -1.919713 0.869187 2.216878 0.333444 -4.988117 -3.300000 4.461592 4.076606 -3.436169 -3.217964 0.417459 4.185204 1.904631 2.447824 -4.512429 0.760808 4.367152 -0.775957 -4.471094 -4.223259 -1.363660 -0.853227 2.946587 -3.069255 2.117936 3.599999 2.306115 4.404245 -2.087644 1.851398 -3.174777 -4.963508 -0.229296 -1.466376 -1.371043 1.960483 -1.092392 -0.813596 -1.390128 1.188364 -0.043638 -1.745758 -1.686388 4.567670 4.447084 -2.005882 -2.435344 1.493548 -0.339443 -2.120464 1.621743 -3.397613 -0.460022 -3.487583 0.308935 3.650671 -0.021207 -0.831566 -4.890822 3.194409 -1.363751 4.484341 4.619196 -1.343458 -0.889654 -2.702006 3.999651 0.785202 0.682517 -3.160280 -1.401890 -1.608275 1.433102 0.356730 3.546898 2.432062 2.067576 -0.696815 -3.449108 -1.916174 -2.339496 -4.998775 -0.417178 -4.869372 0.146084 0.447860 -3.214456 -1.346268 -2.240082 0.854691 4.603406 -3.072985 -3.746727 -2.407228 1.447980
-3.947101 -1.919713 0.869187 2.216878 0.333444 -4.988117 -3.300000 4.461592 4.076606 -3.436169 -3.217964 0.417459 4.185204 1.904631 2.447824 -4.512429 0.760808 4.367152 -0.775957 -4.471094 -4.223259 -1.363660 -0.853227 2.946587 2.919959 -1.971901 -2.613998 2.306115 4.404245 -2.087644 1.851398 -3.174777 -0.809719 -0.229296 -2.097683 -1.371043 1.960483 -1.092392 -0.813596 -0.272438 1.188364 -0.043638 -1.745758 -1.686388 -3.298893 4.447084 -4.555178 -2.435344 1.493548 -2.516895 -2.120464 1.621743 -3.397613 -0.460022 -3.487583 0.308935 0.886948 -3.872346 -0.831566 -4.890822 3.194409 -1.363751 4.484341 4.619196 -1.343458 -0.889654 -2.702006 3.999651 -1.965879 0.682517 -3.160280 -1.401890 -1.608275 1.433102 0.356730 3.546898 2.432062 2.067576 -0.696815 -4.606919 0.805632 4.965316 -4.998775 -0.417178 -3.383469 1.087329 -0.097456 -3.214456 -1.346268 -2.240082 0.854691 4.603406 -3.072985 -3.746727 0.932439 1.447980
-3.947101 -0.824909 0.869187 2.216878 0.333444 -4.988117 -3.300000 4.461592 4.076606 -2.444750 0.315167 -2.014120 4.185204 1.904631 2.447824 -4.512429 4.185047 -0.457849 -0.775957 -4.471094 -4.223259 -1.363660 -0.853227 2.946587 -3.069255 2.117936 3.599999 2.306115 4.404245 -2.087644 1.851398 -3.174777 -4.963508 -0.229296 -1.466376 -1.371043 1.960483 -1.092392 -0.813596 -0.272438 1.188364 -0.043638 -1.745758 -1.686388 4.567670 4.447084 -4.555178 -2.435344 1.493548 -0.339443 -2.120464 1.621743 -3.397613 -0.460022 -3.487583 0.308935 0.886948 -2.586909 -0.831566 -3.671368 3.194409 -1.363751 3.973568 4.619196 -1.343458 4.515474 -2.702006 3.999651 -4.770955 0.682517 -3.160280 -1.401890 -1.608275 1.526926 2.858194 3.546898 2.432062 2.067576 -0.696815 -4.606919 0.805632 -0.557684 -4.998775 -0.417178 -3.383469 1.087329 0.447860 -4.196638 -1.346268 -2.240082 0.854691 1.770960 -3.072985 -3.746727 -2.407228 1.447980
-3.947101 -0.824909 0.869187 2.216878 0.333444 -4.988117 -3.300000 0.330236 4.076606 -3.436169 -3.217964 0.417459 4.185204 1.904631 2.447824 -4.512429 4.185047 -0.457849 -0.775957 -4.471094 -4.223259 -1.363660 -0.853227 2.946587 -3.069255 2.117936 3.599999 2.306115 4.404245 -2.087644 1.851398 -3.174777 -4.963508 -0.229296 -1.466376 -1.371043 1.960483 -1.092392 -0.813596 -0.272438 1.188364 -0.043638 -1.745758 -1.686388 4.567670 4.447084 -2.005882 -2.435344 1.493548 -0.339443 -2.120464 1.621743 -3.397613 -2.064438 -3.487583 0.308935 0.886948 -3.872346 -0.831566 -4.890822 3.194409 -1.363751 4.484341 4.619196 -1.343458 -0.889654 -2.702006 3.999651 -1.965879 0.682517 -3.160280 -1.401890 -1.608275 1.433102 0.356730 3.546898 2.432062 2.067576 -0.696815 -3.449108 0.805632 4.965316 -4.998775 -0.417178 -3.383469 1.087329 -0.097456 -3.214456 -1.346268 -2.240082 0.854691 4.603406 -2.460744 -3.150465 0.932439 1.447980
-3.947101 -1.919713 3.827235 -3.000873 -3.436387 -2.506441 -2.252751 2.513847 -1.211978 -2.444750 0.315167 -2.014120 -1.425715 -3.740443 2.501099 -2.391259 2.923282 3.678433 2.757205 -0.707672 -3.151462 -2.028568 -4.421013 -3.731743 1.657410 -2.563983 -1.581724 1.904721 -0.737160 2.720735 -0.155187 -1.985440 -4.963508 3.506470 -1.466376 -1.371043 1.960483 -1.092392 -0.813596 -0.272438 1.188364 4.444537 -1.745758 -1.686388 4.567670 1.425983 -4.555178 -2.435344 1.493548 -0.339443 -3.007495 1.621743 -3.397613 -0.460022 -3.487583 0.308935 0.212158 -4.312949 -3.055615 -4.890822 3.194409 -1.363751 4.484341 4.619196 -1.343458 -0.889654 -2.702006 3.999651 0.785202 0.682517 -3.160280 -1.401890 -1.608275 1.433102 0.356730 3.546898 2.432062 -1.074710 -0.696815 -3.449108 0.805632 -0.557684 -4.998775 -0.417178 -3.383469 1.087329 -0.097456 -3.214456 -1.346268 -2.240082 0.854691 4.603406 -3.072985 -3.746727 0.932439 1.447980
-3.947101 -1.919713 0.869187 2.216878 0.333444 -4.988117 -3.300000 4.461592 4.076606 -3.436169 -3.217964 0.417459 4.185204 1.904631 2.447824 -4.512429 0.760808 4.367152 -0.775957 -4.471094 -4.223259 -1.363660 -0.853227 2.946587 2.919959 2.117936 3.599999 2.306115 4.404245 -2.802505 1.851398 -3.174777 -4.963508 -0.229296 -1.466376 -2.051087 1.125119 -1.092392 -0.813596 -0.272438 1.188364 -0.043638 -1.745758 -1.686388 4.567670 4.447084 -4.555178 -2.435344 1.493548 -0.339443 -3.007495 1.621743 -4.435004 -0.460022 -3.487583 0.308935 0.886948 -3.872346 -0.831566 -4.890822 3.194409 -0.015710 4.484341 4.619196 -1.343458 0.416930 -2.702006 3.999651 0.785202 0.682517 -3.160280 -1.401890 -1.608275 3.924781 0.356730 3.546898 2.432062 2.067576 -0.696815 -3.449108 -1.916174 -2.339496 -4.998775 -0.417178 -4.869372 0.146084 0.447860 -3.214456 -1.346268 -2.240082 0.854691 4.603406 -3.072985 -3.746727 -2.407228 1.447980
-3.947101 -0.824909 0.869187 2.216878 0.333444 -4.988117 -3.300000 4.461592 4.076606 -3.436169 -3.217964 0.417459 -1.425715 -3.740443 2.501099 -2.391259 1.339604 -0.457849 -0.775957 2.990770 -4.223259 -1.363660 -0.853227 2.946587 -3.069255 2.117936 3.599999 2.306115 4.404245 -2.087644 1.851398 -3.174777 -4.963508 -0.229296 -1.466376 -1.371043 1.960483 -1.092392 -0.813596 -1.390128 1.188364 -0.043638 -1.745758 -1.686388 4.567670 4.447084 -2.005882 -2.435344 1.493548 -0.339443 -2.120464 1.621743 -3.397613 -0.460022 -3.487583 0.308935 3.650671 -0.021207 -0.831566 -4.890822 3.194409 -1.363751 4.484341 4.619196 -1.343458 0.416930 -2.702006 3.999651 0.785202 0.682517 -3.160280 -1.401890 -1.608275 3.924781 0.356730 3.546898 2.432062 2.067576 -0.696815 2.709513 -1.916174 -2.339496 -4.998775 -0.417178 -4.869372 0.146084 0.447860 -3.214456 -1.346268 -2.240082 0.854691 4.603406 -3.072985 -3.746727 -2.407228 1.447980
-3.947101 -1.919713 0.869187 2.216878 0.333444 -4.988117 -3.300000 4.461592 4.076606 -3.436169 -3.217964 0.417459 4.185204 1.904631 2.447824 -4.512429 2.461189 4.367152 -0.775957 -4.471094 -4.223259 -1.363660 4.394582 2.946587 2.919959 -1.971901 -2.613998 2.306115 4.404245 -2.087644 1.851398 -3.174777 -0.809719 -0.229296 -2.097683 -1.371043 1.960483 -1.092392 -0.813596 -0.272438 -3.932968 -0.043638 -1.745758 -1.686388 -3.298893 4.447084 -4.555178 -2.435344 1.493548 -2.516895 -2.120464 1.621743 -3.397613 -0.460022 -3.487583 0.308935 0.886948 -3.872346 2.752076 -4.890822 3.194409 -1.363751 4.484341 4.619196 -1.343458 -0.889654 -2.702006 3.999651 -1.965879 0.682517 -3.160280 -1.401890 -1.608275 1.433102 0.356730 -0.898838 2.432062 2.067576 -0.696815 -3.449108 0.805632 4.965316 -4.998775 -0.417178 -3.383469 1.087329 -0.097456 -3.214456 -1.346268 -2.240082 0.854691 4.603406 -3.072985 -3.746727 0.932439 1.447980
-3.947101 -0.824909 0.869187 2.216878 0.333444 -4.988117 -3.300000 4.461592 4.076606 3.151270 -3.217964 0.417459 4.185204 1.904631 2.447824 -4.512429 4.185047 -0.457849 -0.775957 -4.471094 -4.223259 -1.363660 -0.853227 2.946587 -3.069255 2.117936 3.599999 2.306115 4.404245 -2.087644 1.851398 -3.174777 -4.963508 -0.229296 -1.466376 -1.371043 1.960483 -1.092392 -0.813596 -1.390128 1.188364 -0.043638 -1.745758 -1.686388 4.567670 4.447084 -2.005882 -2.435344 1.493548 -0.339443 -2.120464 1.621743 -3.397613 -0.460022 -3.487583 0.308935 3.650671 -0.021207 -0.831566 -4.890822 3.194409 -1.363751 4.484341 4.619196 -1.343458 -0.889654 -2.702006 3.999651 0.785202 0.682517 -3.160280 -1.401890 -1.608275 1.433102 0.356730 3.546898 2.432062 2.067576 -0.696815 -3.449108 -1.916174 -2.339496 -4.998775 -0.417178 -4.869372 0.146084 0.447860 -3.214456 -1.346268 -2.240082 0.854691 4.603406 -3.072985 -3.746727 4.031262 1.447980
-3.947101 -1.919713 0.869187 2.216878 0.333444 -4.988117 -3.300000 4.461592 4.076606 -3.436169 -3.217964 0.417459 4.185204 1.904631 2.447824 -4.512429 0.760808 4.367152 -0.775957 -4.471094 -4.223259 -1.363660 -0.853227 2.946587 2.919959 -1.971901 -2.613998 2.306115 4.404245 -2.087644 1.851398 3.275516 -0.809719 -0.229296 -2.097683 -1.371043 1.960483 -1.092392 -0.813596 -0.272438 1.188364 -0.043638 -1.745758 -1.686388 -3.298893 4.447084 -4.555178 -2.435344 1.493548 -2.516895 -2.120464 1.621743 -3.397613 -0.460022 -3.487583 1.307406 0.886948 -3.872346 -0.831566 -4.890822 3.194409 -1.363751 4.484341 4.619196 -1.343458 -0.889654 -2.702006 3.999651 -1.965879 0.682517 -3.160280 -1.401890 -1.608275 1.433102 0.356730 3.546898 2.432062 2.067576 -0.696815 -3.449108 0.805632 4.965316 -4.998775 -0.417178 -3.383469 1.087329 -0.097456 -3.214456 -1.346268 -2.240082 0.854691 4.603406 -3.072985 -3.746727 0.932439 1.447980
-3.947101 -1.919713 1.714516 -3.000873 -3.436387 -2.506441 -2.252751 2.513847 -1.211978 -2.444750 0.315167 -2.014120 -1.425715 -3.740443 2.501099 -2.391259 1.339604 3.678433 2.757205 -0.707672 -3.151462 -2.028568 -4.421013 -3.731743 1.657410 -2.563983 -1.581724 -0.958367 -0.737160 2.720735 -0.155187 -1.985440 -4.963508 3.506470 -1.466376 -1.371043 -4.402274 -1.092392 -0.813596 -0.272438 1.188364 4.444537 -1.745758 2.625954 4.567670 1.425983 -4.555178 -2.435344 1.493548 -2.516895 -2.120464 1.621743 -3.397613 -0.460022 -3.487583 0.308935 0.212158 -4.312949 -0.831566 -4.890822 3.194409 -1.363751 4.484341 4.619196 -1.343458 -0.889654 -2.702006 3.999651 0.785202 0.682517 -3.160280 -1.401890 -1.608275 1.433102 0.356730 3.546898 -3.788228 -1.074710 -0.696815 -3.449108 -2.621171 -0.557684 -4.998775 -0.417178 -4.869372 1.087329 -0.097456 -3.214456 -1.346268 -2.240082 0.854691 4.603406 -2.460744 -3.746727 0.932439 1.447980
-3.947101 -1.919713 3.827235 -3.000873 -3.436387 -2.506441 -2.252751 2.513847 -1.211978 -2.444750 0.315167 -2.014120 -1.425715 -3.740443 2.501099 -2.391259 1.339604 3.678433 2.757205 -0.707672 -3.151462 -2.028568 -4.421013 -3.731743 1.657410 -2.563983 -1.581724 -0.958367 -0.737160 2.720735 -0.155187 -1.985440 -4.963508 3.506470 -1.466376 -1.371043 -4.402274 -1.092392 -0.813596 -0.272438 1.188364 4.444537 -1.745758 -2.257886 4.567670 1.425983 -4.555178 -2.435344 1.493548 -2.516895 -2.120464 1.621743 -3.397613 -0.460022 -3.487583 0.308935 0.212158 -4.312949 -0.831566 -4.890822 3.194409 -4.306724 4.484341 3.128424 -1.343458 -0.889654 -2.702006 3.999651 0.785202 0.682517 -3.160280 -1.401890 -1.608275 1.433102 0.356730 3.546898 -3.788228 -1.074710 -0.696815 -3.449108 -2.621171 -0.557684 -4.998775 -0.417178 -4.869372 1.087329 0.447860 -3.214456 -1.346268 -2.240082 2.561069 4.603406 -3.072985 -3.746727 0.932439 1.447980
-3.947101 -1.919713 0.869187 2.216878 0.333444 -4.988117 -3.300000 4.461592 4.076606 -3.436169 -3.217964 0.417459 4.185204 1.904631 2.447824 -4.512429 0.760808 4.367152 -0.775957 -4.471094 -4.223259 -1.363660 -0.853227 2.946587 2.919959 -1.971901 -2.613998 2.306115 4.404245 -2.087644 1.851398 -3.174777 -0.809719 -0.229296 -2.097683 -1.371043 1.960483 -1.092392 -0.813596 -0.272438 1.188364 -0.043638 -1.745758 -1.686388 -3.298893 4.447084 -4.555178 -2.435344 1.493548 -2.516895 3.212454 1.621743 -3.397613 -0.460022 -3.487583 0.308935 0.886948 -3.872346 -0.831566 -4.890822 3.194409 -1.363751 4.484341 4.619196 -1.343458 -0.889654 -2.702006 3.999651 -1.965879 0.682517 -3.160280 -1.401890 -1.608275 3.924781 0.356730 3.546898 2.432062 2.067576 -0.696815 -3.449108 -1.916174 2.212456 -4.998775 -0.417178 -3.383469 1.087329 -0.097456 -3.214456 -1.346268 -2.240082 0.854691 4.603406 -3.072985 -3.746727 0.932439 1.447980
-3.947101 -1.919713 0.869187 2.216878 0.333444 -4.988117 -3.300000 4.461592 4.076606 -3.436169 -3.217964 0.417459 4.185204 1.904631 2.447824 -4.512429 0.760808 4.367152 -0.775957 -4.471094 -4.223259 -1.363660 -0.853227 2.946587 2.919959 -1.971901 -2.613998 2.306115 4.404245 -2.087644 1.851398 -3.174777 -0.809719 -0.229296 -2.097683 -1.371043 1.960483 -1.092392 -0.813596 -0.272438 1.188364 -0.043638 -1.745758 -1.686388 -3.298893 4.447084 -4.555178 -2.435344 1.493548 -0.339443 -2.120464 1.621743 -3.397613 -0.460022 -3.487583 0.308935 0.886948 -2.586909 -4.854232 -4.890822 3.194409 -1.363751 4.484341 4.619196 -1.343458 -0.889654 -2.702006 3.999651 0.785202 0.682517 -3.160280 -1.401890 -1.608275 1.526926 0.356730 3.546898 2.432062 2.067576 -0.696815 -3.683412 0.805632 -0.557684 -4.998775 2.112204 -3.383469 1.087329 -0.097456 -3.214456 -1.346268 -2.240082 0.854691 4.603406 -4.500066 -3.746727 0.932439 1.447980
-3.947101 -1.919713 0.869187 2.216878 0.333444 -4.988117 -3.300000 4.461592 4.076606 -3.436169 -3.217964 0.417459 4.185204 1.904631 -2.670561 -4.512429 4.185047 -0.457849 -0.775957 -4.471094 -4.223259 -1.363660 -0.853227 2.946587 -3.069255 2.117936 3.599999 2.306115 4.404245 -2.087644 1.851398 -3.174777 -4.963508 -0.229296 -2.097683 -1.371043 1.960483 -1.092392 -0.813596 -0.272438 1.188364 -0.043638 -1.745758 -1.686388 4.567670 4.447084 -4.555178 -2.435344 1.493548 -0.339443 -2.120464 1.621743 -3.397613 -0.460022 -3.487583 0.308935 0.886948 -2.586909 -0.831566 -4.890822 3.194409 -1.363751 4.484341 4.619196 -1.343458 -0.889654 -2.702006 3.999651 0.785202 0.682517 -3.160280 -1.401890 -1.608275 1.433102 0.356730 3.546898 2.432062 -1.074710 -0.696815 -3.449108 0.805632 -0.557684 1.203888 -0.417178 -4.869372 0.146084 0.447860 -3.214456 -1.346268 -2.240082 0.854691 4.603406 -3.072985 -3.746727 -2.407228 1.447980
-3.947101 -1.919713 3.827235 -3.590463 -3.436387 -2.506441 -2.252751 2.513847 -1.211978 -2.444750 0.315167 -2.014120 4.185204 1.904631 2.447824 -4.512429 4.185047 -0.457849 -0.775957 -4.471094 -4.223259 -1.363660 -0.853227 2.946587 4.389967 2.117936 3.599999 2.306115 4.404245 -2.087644 1.851398 -3.174777 -4.963508 -0.229296 -1.466376 -1.371043 1.960483 -1.092392 -0.813596 -0.272438 1.188364 -0.043638 -1.745758 -1.686388 4.567670 4.447084 -4.555178 -2.435344 1.493548 -0.339443 -2.120464 1.621743 -3.397613 -0.460022 -3.487583 0.308935 0.886948 -2.586909 -0.831566 -4.890822 3.194409 -1.363751 4.484341 4.619196 -1.343458 4.515474 -2.702006 3.999651 -4.770955 0.682517 -3.160280 -1.401890 -1.608275 1.526926 2.858194 3.546898 2.432062 2.067576 -0.696815 -4.606919 0.805632 -0.557684 -4.998775 -0.417178 -3.383469 1.087329 0.447860 -4.196638 -1.346268 -2.240082 0.854691 4.603406 -3.072985 -3.746727 0.932439 1.447980
-3.947101 -0.824909 0.869187 2.216878 0.333444 -4.988117 -3.300000 4.461592 4.076606 -3.436169 -3.217964 0.417459 4.185204 1.904631 -4.137064 -4.512429 4.185047 -0.457849 -0.775957 -4.471094 -1.587035 -1.363660 -0.853227 2.946587 -3.069255 2.117936 3.599999 2.306115 1.322642 -2.087644 1.851398 -3.174777 -4.963508 -0.229296 -1.466376 -1.371043 -4.402274 -1.092392 -0.813596 -0.272438 1.188364 -0.043638 -1.745758 -1.686388 4.567670 4.447084 -4.555178 -2.435344 1.493548 -0.339443 -2.120464 1.621743 -3.397613 -0.460022 -3.487583 0.308935 0.886948 -2.586909 -0.831566 -3.316595 3.194409 -1.363751 4.484341 4.224849 -1.343458 -0.889654 -2.702006 3.999651 0.785202 0.682517 -3.160280 -1.401890 -1.608275 1.526926 0.356730 3.546898 2.432062 2.067576 -0.696815 -4.606919 0.805632 -0.557684 -4.998775 3.351812 -3.268099 1.087329 0.447860 -3.214456 -1.346268 -2.240082 0.854691 1.770960 -3.072985 -3.746727 -2.407228 1.447980
-3.947101 -1.919713 3.827235 -3.000873 -3.436387 -2.506441 -2.252751 2.513847 -1.211978 -2.444750 0.315167 -2.014120 -1.425715 -3.740443 -4.381770 -2.391259 1.339604 -0.457849 -0.775957 -4.471094 -4.223259 -1.363660 -0.853227 2.946587 2.919959 2.117936 3.599999 2.306115 4.404245 -2.087644 1.851398 -0.961920 -4.963508 -0.229296 -1.466376 -1.371043 1.960483 -1.092392 -0.813596 -0.272438 1.188364 -0.043638 -3.642596 -1.686388 0.509443 4.447084 -4.555178 -2.435344 1.493548 -0.339443 -2.120464 1.621743 -3.397613 -0.460022 -3.487583 0.308935 0.212158 -4.312949 -0.831566 -4.890822 3.194409 -1.363751 4.484341 4.619196 -1.343458 -0.889654 -2.702006 3.999651 -1.965879 0.682517 -3.160280 -1.401890 -1.608275 1.433102 -4.971025 3.546898 2.432062 -1.074710 -0.696815 -3.449108 -2.621171 -0.557684 -4.998775 -0.417178 -4.869372 4.776900 0.447860 -3.214456 -1.346268 -2.240082 0.854691 4.603406 -3.072985 -3.746727 -2.407228 1.447980
-3.947101 -1.919713 3.827235 -3.000873 -3.436387 -2.506441 -2.252751 2.513847 -1.211978 -2.444750 0.315167 -2.014120 -1.425715 -3.740443 -4.381770 -2.391259 1.339604 -0.457849 -0.775957 -4.471094 -4.223259 -1.363660 -0.853227 2.946587 2.919959 2.117936 3.599999 2.306115 4.404245 -2.087644 1.851398 -0.961920 -4.963508 -0.229296 -1.466376 -1.371043 1.960483 -1.092392 -0.813596 -0.272438 1.188364 -0.043638 -3.642596 -1.686388 4.567670 4.447084 -4.555178 -2.435344 1.493548 -0.339443 -2.120464 1.621743 -3.397613 -4.145721 -3.487583 0.308935 0.886948 1.051831 -0.831566 -4.890822 3.194409 -1.363751 4.484341 4.619196 -1.343458 -0.889654 -2.702006 3.999651 -4.770955 0.682517 -3.160280 -1.401890 -1.608275 1.526926 2.858194 3.546898 2.432062 2.067576 -0.696815 -4.606919 0.805632 -0.557684 -4.998775 -0.417178 -3.383469 1.087329 0.447860 -4.196638 -1.346268 -2.240082 0.854691 4.603406 -3.072985 -3.746727 0.932439 1.447980
