-2.380518 -0.297965 -3.294530 3.605050 1.556578 -2.785884 1.419325 -0.018774 -2.155717 1.272281 1.553588 -3.986285 3.053465 -4.833930 0.279393 4.558091 0.159737 2.329635 -2.414301 -3.066509 1.531541 -3.224096 0.228874 0.610570 4.245879 0.525322 -1.783436 -3.501594 4.044654 4.268215 -4.838938 0.225434 3.848490 -3.815962 -0.876057 4.359711 -4.941831 -1.782444 4.037680 -4.121520 0.841460 0.769267 -2.317733 3.274617 4.521550 4.829305 -1.218879 -4.552978 -1.524846 4.670845 -1.596295 -1.319186 2.844288 1.569613 1.764772 -4.520108 0.743763 -3.221887 1.495759 -1.406499 -0.664439 -4.542600 -1.637382 2.212664 -1.271277 0.971685 2.913726 -0.938742 1.696867 3.253030 -0.637906 -3.024302 -3.461427 -1.937655 -2.813218 -1.932537 -4.456377 0.298740 -4.619598 -0.478245 -3.679405 -4.480075 -4.896809 -1.586514 -3.106754 0.597058 4.736920 2.238022 1.772879 3.112120 -4.742887 -4.820277 -0.632300 -4.771524 3.184544 -3.226901
-2.380518 1.856037 -3.294530 3.605050 1.556578 -2.785884 -2.365074 -0.018774 -2.155717 1.272281 1.553588 2.703810 3.053465 -3.019558 0.279393 -0.902542 0.159737 2.329635 -4.647047 -0.285716 -0.929316 -3.224096 2.118609 0.610570 4.245879 0.525322 -1.783436 -2.419195 0.834587 4.268215 -4.838938 0.225434 -4.161234 -3.815962 -1.771504 4.359711 -4.941831 -1.782444 4.037680 -4.121520 0.841460 0.769267 -2.317733 3.274617 4.521550 4.829305 -1.218879 -4.552978 -1.524846 4.670845 -1.596295 -1.319186 0.974969 3.429918 1.764772 -4.520108 0.743763 -3.221887 1.495759 -4.833860 1.272574 -4.868788 -1.637382 2.212664 -1.271277 0.971685 0.209527 -0.938742 -1.594553 3.752866 -0.382039 4.246098 -3.461427 -1.937655 -4.935013 -2.775058 -2.136378 2.322905 2.232746 -2.999376 -0.203449 -4.480075 -4.896809 -1.586514 -4.525118 0.597058 3.353855 2.238022 1.772879 3.112120 -4.742887 -4.322769 -1.666518 -3.586077 3.184544 -3.226901
-2.380518 -0.297965 -3.294530 3.605050 1.556578 -2.785884 1.419325 -0.018774 -2.155717 1.272281 1.553588 -3.986285 3.053465 -4.833930 0.279393 4.558091 0.159737 2.329635 -2.414301 -3.066509 1.531541 -3.224096 2.118609 0.610570 4.245879 0.525322 -1.783436 -3.501594 4.044654 4.268215 -4.838938 0.225434 3.848490 -3.815962 -1.771504 4.359711 -4.941831 3.379162 4.037680 -3.441193 0.841460 -3.253313 -2.317733 3.274617 4.521550 4.829305 -1.218879 1.884679 0.743202 4.670845 -1.596295 -1.319186 0.974969 3.429918 1.764772 -4.520108 0.743763 -3.221887 1.495759 -1.406499 1.272574 -4.868788 -1.637382 2.212664 -1.271277 0.971685 0.209527 -0.938742 -1.594553 3.752866 -0.382039 4.246098 -3.461427 -1.937655 -4.935013 -2.775058 -2.136378 2.322905 2.232746 -2.999376 -0.203449 -4.480075 -1.354466 -1.586514 -3.106754 0.597058 4.736920 2.238022 1.772879 3.112120 -4.742887 -4.731130 4.031392 -1.221368 3.106249 3.616206
-2.380518 -0.297965 -3.294530 3.605050 1.556578 -2.785884 -1.662376 -1.800390 -2.155717 1.272281 1.553588 2.703810 3.053465 -3.019558 0.279393 4.558091 0.159737 2.329635 -2.414301 -0.285716 1.531541 -3.224096 2.118609 -4.053665 4.245879 0.525322 -3.923413 -2.419195 4.044654 4.268215 -4.838938 0.225434 1.420417 -3.815962 -0.876057 4.359711 -4.941831 -1.782444 4.037680 -4.121520 0.841460 2.706174 -2.317733 3.274617 4.521550 4.829305 -1.218879 -4.552978 -1.524846 4.670845 -1.596295 -1.319186 -4.883051 3.429918 1.764772 -0.182374 0.743763 -3.221887 1.495759 -1.406499 1.845067 -4.868788 0.246887 2.212664 4.267879 1.525584 0.625422 2.628466 -1.594553 3.752866 -0.382039 -0.174304 -3.461427 -1.937655 3.702418 -2.775058 -2.136378 4.271708 2.232746 -2.999376 -0.203449 -4.480075 -1.354466 -1.586514 -3.106754 0.597058 4.736920 2.238022 1.772879 3.112120 -4.742887 -4.731130 -0.967922 -1.221368 3.106249 3.616206
-2.380518 -0.297965 -3.294530 3.605050 1.556578 2.731382 1.419325 4.439744 -2.155717 1.272281 1.553588 3.186099 3.053465 -3.781394 0.279393 4.558091 0.159737 2.329635 -2.414301 -0.285716 1.531541 -3.224096 2.118609 -4.053665 4.245879 0.525322 -3.923413 -2.419195 -2.575903 4.268215 -4.838938 4.296686 3.848490 -3.815962 -0.876057 4.359711 -4.941831 -1.782444 4.037680 -4.121520 0.841460 0.769267 -2.317733 3.274617 4.521550 4.829305 -1.218879 -4.552978 -1.524846 4.670845 -1.596295 -1.319186 0.974969 2.482487 1.764772 -4.520108 0.743763 -3.221887 1.495759 -1.406499 1.272574 -4.868788 -1.637382 3.395982 -1.271277 0.971685 2.913726 2.628466 -1.594553 3.752866 -0.382039 -0.174304 -3.461427 -1.937655 -2.813218 -1.932537 -4.456377 0.298740 -4.619598 -0.478245 -3.679405 -4.480075 -1.354466 -1.586514 -4.117691 0.597058 4.736920 2.238022 1.772879 3.112120 -4.742887 -4.731130 -0.967922 -1.221368 3.106249 3.616206
-2.380518 1.856037 -3.294530 3.605050 1.556578 -2.785884 3.786869 -0.018774 -2.155717 1.272281 1.553588 2.703810 3.053465 -3.019558 0.279393 4.558091 0.159737 2.329635 -4.647047 -0.285716 -0.929316 -3.224096 2.118609 0.610570 4.245879 -3.383010 -1.783436 -2.419195 4.044654 4.268215 -4.838938 0.225434 3.848490 -3.815962 -0.876057 4.359711 -4.941831 -1.782444 4.037680 -4.121520 0.841460 4.289103 -2.317733 1.597088 4.521550 4.829305 -1.218879 -4.552978 -1.524846 4.670845 -1.596295 3.978052 -4.280165 -0.007650 1.764772 -4.520108 0.743763 -3.221887 1.495759 -1.406499 1.272574 -4.868788 0.246887 2.212664 4.267879 1.525584 0.625422 2.628466 -1.594553 3.752866 -0.382039 -0.174304 -3.461427 -1.937655 3.702418 -2.775058 -2.136378 0.437231 2.232746 1.448741 -4.401920 -4.480075 -4.896809 -1.586514 -3.106754 -2.518882 4.736920 2.238022 1.772879 3.112120 -4.742887 -4.322769 -0.967922 -1.221368 3.106249 3.616206
-2.380518 -0.297965 -3.294530 3.605050 1.556578 -4.201156 1.419325 -0.018774 -2.155717 1.272281 1.553588 -3.986285 3.053465 -4.833930 0.279393 4.558091 0.159737 2.329635 -2.414301 -3.066509 1.531541 -3.224096 2.118609 0.610570 4.245879 0.525322 -1.783436 -3.501594 4.044654 4.268215 -4.838938 0.225434 3.848490 -3.815962 -1.771504 4.359711 -4.941831 -3.545708 4.037680 -3.441193 0.841460 0.769267 -2.317733 3.274617 4.521550 4.829305 -1.218879 1.884679 -1.524846 4.670845 -1.596295 -1.319186 -4.883051 3.429918 1.764772 -4.520108 0.743763 -3.221887 1.495759 -1.406499 1.272574 -4.868788 -1.637382 2.212664 -1.271277 4.648185 2.913726 2.628466 -1.594553 3.752866 -0.382039 -0.174304 -3.461427 -1.937655 -2.813218 -1.932537 -4.456377 0.298740 -4.619598 -0.478245 -3.679405 -4.480075 -1.354466 -1.586514 -3.106754 0.597058 4.736920 2.238022 1.772879 3.112120 -4.742887 -4.731130 -0.967922 -1.221368 3.106249 3.616206
-2.380518 -0.297965 -3.294530 3.605050 1.556578 -2.785884 1.419325 -0.018774 -2.155717 1.272281 1.553588 -3.986285 3.053465 -4.833930 0.279393 4.558091 0.159737 2.329635 -2.414301 -3.066509 1.531541 -3.224096 0.228874 0.610570 4.245879 0.525322 -1.783436 -3.501594 4.044654 4.268215 -4.838938 0.225434 3.848490 -3.815962 -0.876057 4.359711 -4.941831 -1.782444 4.037680 -4.121520 0.841460 0.769267 -2.317733 3.274617 4.817311 4.829305 -1.218879 -4.552978 -1.524846 4.670845 -1.596295 -1.319186 -4.883051 1.569613 1.764772 -4.520108 0.743763 -3.221887 1.495759 -1.406499 -0.664439 -4.542600 -1.637382 2.212664 -1.271277 0.971685 2.913726 2.229807 1.696867 3.253030 -4.454253 -3.024302 -3.461427 -1.937655 -4.935013 -2.775058 -2.136378 2.322905 2.232746 1.448741 -4.401920 -4.480075 -4.896809 -1.586514 -3.106754 0.597058 3.353855 2.238022 1.772879 3.112120 -4.742887 -4.322769 -1.666518 -1.221368 3.106249 3.616206
-2.380518 1.856037 -3.294530 3.605050 1.556578 -2.785884 1.419325 -0.018774 -2.155717 1.272281 1.553588 2.703810 3.053465 -3.019558 0.279393 4.558091 0.159737 2.329635 -4.647047 -0.285716 -0.929316 -3.224096 2.118609 0.610570 4.245879 -3.383010 -1.783436 -2.419195 4.044654 4.268215 -4.838938 0.225434 3.848490 -3.815962 -1.771504 4.359711 -4.941831 -1.782444 4.037680 -4.121520 0.841460 0.769267 -2.317733 3.274617 4.521550 4.829305 -1.218879 -4.552978 0.634517 4.670845 -1.596295 -1.319186 0.974969 3.429918 1.764772 -4.520108 0.743763 -3.221887 1.495759 -1.406499 1.272574 -4.868788 -1.637382 2.212664 -1.271277 0.971685 0.209527 -0.938742 -1.594553 3.752866 -0.382039 4.246098 -3.461427 -1.937655 -4.935013 -2.775058 -2.136378 2.322905 2.232746 -2.999376 -0.203449 -4.480075 -1.354466 -1.586514 -3.106754 0.597058 4.736920 2.238022 1.772879 3.112120 -4.742887 -4.731130 -0.967922 -1.221368 3.106249 3.616206
-2.380518 1.856037 -3.294530 3.605050 1.556578 -2.785884 -0.765359 -0.018774 -2.155717 1.272281 1.553588 2.703810 3.053465 -3.019558 0.279393 -0.902542 0.159737 2.329635 -4.647047 -0.285716 -0.929316 -3.224096 2.118609 2.108946 3.650931 -3.383010 -1.783436 -2.419195 4.044654 4.268215 -4.838938 0.225434 3.848490 -3.815962 -1.771504 4.359711 -4.941831 -1.782444 4.037680 -4.121520 0.841460 0.769267 -2.317733 3.274617 4.521550 4.829305 -4.222844 -4.552978 -1.524846 4.670845 -1.596295 -1.319186 -4.883051 3.429918 4.000948 -4.520108 0.743763 1.083332 1.495759 -1.406499 1.272574 -4.868788 -1.637382 2.212664 -1.271277 -0.985918 2.913726 2.628466 -1.594553 3.752866 -0.382039 -0.174304 -3.461427 -1.937655 -2.813218 -1.932537 -4.456377 0.298740 -4.619598 -0.478245 -3.679405 -4.480075 -1.354466 -1.586514 -4.117691 0.597058 4.736920 2.238022 1.772879 3.112120 -4.742887 -4.731130 -0.967922 -1.221368 3.106249 3.616206
-2.380518 -0.297965 -3.294530 3.605050 1.556578 -2.785884 1.419325 -0.018774 -2.155717 1.272281 1.553588 -3.986285 3.053465 -4.833930 0.279393 4.558091 0.159737 2.329635 -2.426486 -3.066509 1.531541 -3.224096 0.228874 0.610570 4.245879 0.525322 -1.783436 -3.501594 4.044654 4.268215 0.659708 0.225434 -4.161234 -3.815962 -1.771504 4.359711 -4.941831 -1.782444 4.037680 -4.121520 0.841460 0.769267 -2.317733 3.274617 4.521550 4.829305 -1.218879 -4.552978 -1.524846 4.670845 -1.596295 -1.319186 0.974969 3.429918 1.764772 -4.520108 0.743763 -3.221887 1.495759 -1.406499 1.272574 -4.868788 -1.637382 2.212664 -1.271277 0.971685 0.209527 -0.938742 -1.594553 3.752866 -0.382039 4.246098 -3.461427 -1.937655 -4.935013 -2.775058 1.349208 2.322905 2.232746 1.448741 -0.203449 -4.480075 -1.354466 -1.586514 -4.117691 0.597058 4.736920 2.238022 1.772879 3.112120 -4.742887 -4.731130 -0.967922 -1.221368 3.106249 3.616206
-2.380518 -0.297965 -3.294530 3.605050 1.556578 -2.785884 1.419325 -0.018774 -2.155717 0.778166 1.553588 2.703810 3.053465 -1.398374 0.279393 4.558091 0.159737 2.329635 0.240265 -0.285716 1.531541 -3.224096 2.118609 0.610570 2.674494 0.525322 -1.783436 -2.419195 0.834587 4.268215 -4.838938 0.225434 -4.161234 -3.815962 -1.771504 4.359711 -4.941831 -1.782444 4.037680 -4.121520 0.841460 0.769267 -2.317733 3.274617 4.521550 4.829305 -1.218879 -4.552978 -1.524846 4.670845 -1.596295 -1.319186 0.974969 3.429918 1.764772 -4.520108 0.743763 -3.221887 1.495759 -1.406499 1.272574 -4.868788 -1.637382 2.212664 -1.271277 0.971685 0.209527 -0.938742 -1.594553 3.752866 -0.382039 4.246098 -3.461427 -1.937655 -4.935013 -2.775058 -2.136378 2.322905 2.232746 1.448741 -0.203449 -4.480075 -1.354466 -1.586514 -4.117691 0.597058 4.736920 2.238022 1.772879 3.112120 -4.742887 -4.322769 -1.666518 -3.586077 3.184544 -3.226901
-2.380518 1.856037 -3.294530 3.605050 1.556578 -2.785884 3.786869 -0.018774 -2.155717 1.272281 1.553588 2.703810 3.053465 -3.019558 0.279393 4.558091 0.159737 2.329635 -4.647047 -0.285716 -0.929316 -3.224096 2.118609 0.610570 4.245879 -3.383010 -1.783436 -2.419195 4.044654 4.268215 -4.838938 0.225434 3.848490 -3.815962 -3.203473 4.359711 -4.941831 -1.782444 4.037680 -4.121520 0.841460 0.769267 -2.317733 3.274617 4.521550 4.829305 -1.218879 -4.552978 -1.524846 4.670845 -1.596295 -1.319186 -4.280165 -0.007650 1.764772 -4.520108 0.743763 -3.221887 1.495759 -1.406499 1.272574 -4.868788 -0.310099 2.212664 -1.271277 0.971685 0.209527 -0.938742 -1.594553 3.752866 -0.382039 4.246098 -3.461427 -1.937655 -4.935013 -3.576567 -2.136378 2.322905 2.232746 1.448741 -0.203449 -4.480075 -1.354466 -1.586514 -4.117691 0.597058 4.736920 2.238022 1.772879 3.112120 -4.742887 -4.731130 -0.967922 -1.221368 3.106249 3.616206
-2.380518 -0.297965 -3.294530 3.605050 1.556578 -2.785884 1.419325 4.439744 -2.155717 1.272281 1.553588 2.703810 4.273904 -3.781394 0.279393 4.558091 0.159737 2.329635 -2.414301 -0.285716 1.531541 -3.224096 2.118609 -4.053665 4.245879 0.525322 -3.923413 -2.419195 -2.575903 4.268215 -4.838938 4.296686 3.848490 -3.815962 -0.876057 4.359711 -4.941831 -1.782444 -2.806495 -4.121520 0.841460 0.769267 -2.317733 3.274617 4.521550 4.829305 -1.218879 -4.552978 -1.524846 4.670845 -1.596295 -1.319186 0.974969 2.482487 1.764772 -4.520108 0.743763 -3.221887 1.495759 -1.406499 1.272574 -4.868788 -1.637382 2.212664 -1.271277 4.648185 2.913726 2.628466 -1.594553 3.752866 4.401400 -0.174304 -0.116373 -1.937655 3.702418 -2.775058 -2.136378 0.298740 -4.619598 -0.478245 -3.679405 -0.178823 4.984697 -4.014018 -2.682777 -4.969194 3.244012 2.922335 0.820152 0.706664 -3.221143 -4.731130 -0.967922 -1.221368 3.106249 3.616206
-2.380518 1.856037 -3.294530 3.605050 1.556578 -2.785884 3.786869 -0.018774 -2.155717 1.272281 1.553588 2.703810 3.053465 -3.019558 0.279393 4.558091 -0.011583 2.329635 -4.647047 -0.285716 -0.929316 -3.224096 2.118609 0.610570 4.245879 -3.383010 -1.783436 -2.419195 4.044654 4.268215 -4.838938 0.225434 3.848490 -3.815962 -3.203473 4.359711 -4.941831 -1.782444 4.037680 -4.121520 0.841460 0.769267 -2.317733 3.274617 4.521550 4.829305 -1.218879 -4.552978 -1.524846 4.670845 -1.596295 -1.319186 -4.280165 -0.007650 1.764772 -4.520108 0.743763 -3.221887 1.495759 -1.406499 1.272574 -4.868788 -1.637382 1.962296 -1.271277 4.648185 2.913726 2.628466 -1.594553 3.752866 -0.382039 -0.174304 -3.461427 -1.937655 3.702418 -2.775058 -2.136378 0.298740 2.232746 1.448741 -4.798309 -4.480075 -4.896809 -1.586514 -4.525118 0.597058 3.353855 2.238022 1.772879 3.112120 -4.742887 -4.322769 -1.666518 -1.221368 3.106249 3.616206
-2.380518 1.856037 -3.294530 3.605050 1.556578 -2.785884 1.419325 -0.018774 -2.155717 1.272281 1.268480 2.703810 3.053465 -3.019558 0.279393 4.558091 0.159737 2.329635 -4.647047 -0.285716 -0.929316 -3.224096 2.118609 0.610570 4.245879 -3.383010 -1.783436 -2.419195 4.044654 4.268215 -4.838938 0.225434 3.848490 -3.815962 -1.771504 4.359711 -4.941831 -1.782444 4.037680 -4.121520 0.841460 0.769267 -2.317733 3.274617 4.521550 4.829305 -1.218879 -4.552978 -1.524846 4.670845 -1.596295 -1.319186 0.974969 3.429918 1.764772 -4.520108 0.743763 -3.221887 1.495759 -1.406499 1.272574 -4.868788 -1.637382 2.212664 -1.271277 0.971685 0.209527 -0.938742 -1.594553 3.752866 -0.382039 4.246098 -3.461427 -1.937655 -4.935013 -2.775058 -2.136378 2.322905 2.232746 -2.999376 -0.203449 -4.480075 -1.354466 -1.586514 -3.106754 0.597058 3.353855 2.238022 1.772879 3.112120 -4.742887 -4.322769 -1.666518 -3.586077 3.184544 -3.226901
-2.380518 1.856037 0.278172 3.605050 1.556578 -2.785884 1.419325 -0.018774 -3.061294 1.272281 1.553588 -4.413709 3.053465 -3.019558 0.279393 4.558091 0.159737 2.329635 -4.647047 -0.285716 -0.929316 -3.224096 2.118609 0.610570 4.245879 0.525322 -1.783436 -2.419195 0.834587 4.268215 -4.838938 0.225434 -4.161234 -3.815962 -1.771504 4.359711 -4.941831 -1.782444 4.037680 -4.121520 0.841460 0.769267 -2.317733 3.274617 4.521550 4.829305 -1.218879 -4.552978 -1.524846 4.670845 -1.596295 -1.319186 -1.542918 3.429918 1.764772 -4.520108 0.743763 -3.221887 1.495759 -1.406499 1.272574 -4.868788 -1.637382 2.212664 -1.271277 0.971685 0.209527 2.628466 -1.594553 3.752866 4.173114 -0.174304 -3.461427 -1.937655 -4.935013 -2.775058 -2.136378 2.322905 2.232746 -2.999376 -0.203449 -4.480075 -1.354466 -1.586514 -3.106754 0.597058 4.736920 2.238022 1.772879 -2.047221 -4.742887 -4.731130 -0.967922 -1.221368 3.106249 3.616206
-2.380518 -0.297965 -3.294530 3.605050 1.556578 -2.785884 1.419325 4.439744 -2.155717 1.272281 1.553588 2.703810 3.053465 -3.781394 0.279393 4.558091 0.159737 2.329635 -2.414301 -0.285716 1.531541 -3.224096 2.118609 -4.053665 4.245879 0.525322 -3.923413 -2.419195 -2.575903 4.268215 -4.838938 4.296686 3.848490 -4.482794 -0.876057 4.359711 -4.941831 -1.782444 4.037680 -4.121520 0.841460 0.769267 -2.317733 2.997724 4.521550 4.829305 -1.218879 -4.552978 -1.524846 4.670845 -1.596295 -1.319186 0.974969 2.482487 1.764772 -4.520108 0.743763 -3.221887 1.495759 -1.406499 1.272574 -4.868788 -1.637382 2.212664 -1.271277 0.971685 2.913726 2.628466 -1.594553 3.752866 -0.382039 -0.174304 -3.461427 -1.937655 -4.935013 -2.775058 -2.136378 2.322905 -4.619598 -0.478245 -3.679405 -4.480075 -1.354466 -1.586514 -4.117691 0.597058 4.736920 2.238022 1.772879 3.112120 -4.742887 -4.731130 -0.967922 -1.221368 3.106249 3.616206
-2.380518 -0.297965 -3.294530 3.605050 1.556578 -2.785884 1.419325 -0.018774 -2.155717 1.272281 -4.307531 2.703810 3.053465 -0.987403 0.279393 4.558091 0.159737 2.329635 -2.414301 -0.285716 1.531541 -3.224096 2.118609 0.610570 4.245879 0.525322 -1.783436 -2.419195 0.834587 4.268215 -4.838938 0.225434 -4.161234 -3.815962 -1.771504 4.359711 -4.941831 -1.782444 4.037680 -4.121520 0.841460 0.769267 -2.317733 3.274617 4.521550 4.829305 0.357083 -4.552978 -1.524846 4.670845 -1.596295 -1.319186 -4.280165 -0.007650 1.764772 -4.520108 -4.878848 -3.221887 1.495759 -1.406499 1.272574 -4.868788 -1.637382 2.212664 -1.271277 4.648185 2.913726 2.628466 -1.594553 3.752866 4.401400 -0.174304 -3.461427 -1.937655 3.702418 -2.775058 -2.136378 0.298740 -4.619598 -0.478245 -3.679405 -0.178823 4.984697 -4.014018 -2.682777 -4.969194 3.244012 2.922335 0.820152 0.706664 -3.221143 -4.731130 -0.967922 -1.221368 3.106249 3.616206
-2.380518 -0.297965 -3.294530 3.605050 1.556578 -2.785884 1.419325 -0.018774 -2.155717 1.272281 1.553588 -3.986285 3.053465 -4.833930 0.279393 4.558091 0.159737 2.329635 -2.414301 -3.066509 1.531541 -3.224096 2.118609 0.610570 4.245879 0.525322 -1.783436 -3.501594 4.044654 4.268215 -4.838938 0.225434 3.848490 -3.815962 -1.771504 4.359711 -4.941831 -1.782444 2.790003 -3.441193 0.841460 0.769267 -2.317733 3.274617 4.521550 4.829305 -1.218879 1.884679 -1.524846 4.670845 -1.596295 -1.319186 -4.883051 3.429918 1.764772 -4.520108 0.743763 -3.221887 1.495759 -1.406499 1.272574 -4.868788 -1.637382 2.212664 -1.271277 4.648185 2.913726 2.628466 -1.594553 3.752866 -0.382039 -0.174304 -3.461427 -1.937655 -2.813218 -1.932537 -4.456377 0.298740 -4.619598 -0.478245 -3.679405 -4.480075 -1.354466 -1.586514 -3.106754 0.597058 4.736920 2.238022 1.772879 3.112120 -4.742887 -4.731130 -0.967922 -1.221368 3.106249 3.616206
-2.380518 -0.297965 -3.294530 3.605050 1.556578 -2.785884 1.419325 -0.018774 -2.155717 1.272281 1.553588 2.703810 3.053465 -3.019558 0.279393 4.558091 0.159737 2.329635 -2.414301 -0.285716 1.531541 -3.224096 2.118609 -4.053665 4.245879 0.525322 -1.783436 -2.419195 4.044654 4.268215 -4.838938 0.225434 3.848490 -3.815962 -1.771504 4.359711 -4.941831 -1.782444 4.037680 -4.121520 0.841460 0.769267 -2.317733 3.274617 4.521550 4.829305 -1.218879 -4.552978 -1.524846 4.670845 -1.596295 -1.319186 -4.883051 1.569613 1.764772 -4.520108 0.743763 -3.221887 1.495759 -1.406499 -0.664439 -4.542600 -1.637382 2.212664 -1.271277 0.971685 2.913726 2.229807 1.696867 3.253030 -4.454253 -3.024302 -3.461427 -1.937655 -4.935013 -2.775058 -3.277727 2.322905 2.232746 1.448741 -4.401920 -4.480075 -4.896809 -1.586514 -3.106754 0.597058 4.736920 2.238022 1.772879 3.112120 -4.742887 -4.731130 -0.967922 -1.221368 3.106249 3.616206
-2.380518 1.856037 -3.294530 3.605050 1.556578 -2.785884 1.419325 -0.018774 -2.155717 1.272281 1.553588 -0.427852 3.053465 -3.019558 0.279393 -4.317253 0.159737 2.329635 -2.414301 -3.066509 1.531541 -3.224096 2.118609 0.610570 4.245879 0.525322 -1.783436 -3.501594 4.044654 4.268215 -4.838938 0.225434 3.848490 -3.815962 -1.771504 4.359711 -4.941831 -1.782444 4.037680 -3.441193 0.841460 0.769267 -2.317733 3.274617 4.521550 4.829305 -1.218879 1.884679 -1.524846 4.670845 -1.596295 -1.319186 -4.883051 3.429918 1.764772 -4.520108 0.743763 -3.221887 1.495759 -1.406499 1.272574 -4.868788 -1.637382 2.212664 -1.271277 4.648185 2.913726 2.628466 -1.594553 3.752866 -0.382039 -0.174304 -3.461427 -1.937655 -2.813218 -1.932537 -4.456377 0.298740 -4.619598 -0.478245 -3.679405 -4.480075 -1.354466 -1.586514 -3.106754 0.597058 4.736920 2.238022 1.772879 3.112120 -4.742887 -4.731130 -0.967922 -1.221368 3.106249 3.616206
-2.380518 1.856037 -3.294530 3.605050 1.556578 -2.785884 1.419325 -0.018774 -2.155717 1.272281 1.553588 2.703810 3.053465 -3.019558 0.279393 -0.902542 0.159737 2.329635 -4.647047 -0.285716 -0.929316 -3.224096 2.118609 0.610570 3.650931 -3.383010 -1.783436 -2.419195 4.044654 4.268215 -4.838938 0.225434 3.848490 -3.815962 -1.771504 4.359711 -4.941831 -1.782444 4.037680 -4.121520 0.841460 0.769267 -2.317733 3.274617 4.521550 4.829305 -4.222844 -4.552978 -1.524846 4.670845 -1.596295 -1.319186 -4.883051 3.429918 4.000948 -4.520108 0.743763 1.083332 1.495759 -1.406499 1.272574 -4.215640 0.246887 2.212664 4.267879 1.525584 0.625422 2.628466 -1.594553 3.752866 -0.382039 -0.174304 -3.461427 -1.937655 3.702418 -2.775058 -2.136378 4.271708 2.232746 1.448741 0.809305 -4.480075 -4.896809 -1.586514 -4.525118 0.597058 4.736920 2.238022 1.772879 3.112120 -4.742887 -4.731130 -0.967922 -1.221368 3.106249 3.616206
-2.380518 1.856037 -3.294530 3.605050 1.556578 -2.785884 1.419325 -0.018774 -2.155717 1.272281 1.553588 2.703810 3.053465 -3.019558 0.279393 -0.902542 0.159737 2.329635 -4.647047 -0.285716 -0.929316 -3.224096 2.118609 2.108946 3.650931 -3.383010 -1.783436 -2.419195 4.044654 4.268215 -4.838938 0.225434 3.848490 -3.815962 -1.771504 4.359711 -4.941831 -1.782444 4.037680 -4.121520 0.841460 0.769267 -2.317733 3.274617 4.521550 4.829305 -4.222844 -4.552978 -1.524846 4.670845 -1.596295 -1.319186 -4.883051 3.429918 4.000948 -4.520108 0.743763 1.083332 1.495759 -1.406499 1.272574 -4.868788 0.246887 2.212664 -1.271277 4.648185 2.913726 2.628466 -1.594553 3.752866 -0.382039 -0.174304 -3.461427 -1.937655 -2.813218 -1.932537 -4.456377 0.298740 -4.619598 -0.478245 -3.679405 -4.480075 -1.354466 -1.586514 -3.106754 0.597058 4.736920 2.238022 1.772879 3.112120 -4.742887 -4.731130 -0.967922 -1.221368 3.106249 3.616206
-2.380518 -0.297965 -3.294530 3.605050 1.556578 -2.785884 -1.662376 4.068779 -2.155717 1.272281 1.553588 2.703810 3.053465 -3.019558 0.279393 4.558091 0.159737 2.329635 -2.414301 -0.285716 1.531541 -3.224096 2.118609 -4.053665 4.245879 0.525322 -3.923413 -2.419195 4.044654 4.268215 -4.838938 0.225434 1.420417 -3.815962 -0.876057 4.359711 -4.941831 -1.782444 4.037680 -4.121520 0.841460 2.706174 -2.317733 3.274617 4.521550 4.829305 -1.218879 -4.552978 -1.524846 4.670845 -1.596295 -1.319186 -4.883051 3.429918 1.764772 -0.182374 0.743763 -3.221887 1.495759 -1.406499 1.845067 -4.868788 0.246887 -2.294367 4.267879 1.525584 0.625422 2.628466 -1.594553 3.752866 -0.382039 -0.174304 -3.461427 -1.937655 -2.813218 -1.932537 -4.456377 0.298740 -4.619598 -0.478245 -3.679405 -4.480075 -1.354466 -1.586514 -3.106754 0.597058 4.736920 2.238022 1.772879 3.112120 -4.742887 -4.731130 -0.967922 -1.221368 3.106249 3.616206
-2.380518 -0.297965 -3.294530 3.605050 1.556578 -2.785884 1.419325 -0.018774 -2.155717 1.272281 1.553588 -3.986285 3.053465 -4.833930 0.279393 4.558091 0.159737 2.329635 -2.414301 -3.066509 1.531541 -3.224096 2.118609 0.610570 4.245879 0.525322 -1.783436 -0.239826 4.044654 4.268215 -4.838938 0.225434 3.848490 -3.815962 -0.876057 4.359711 -4.941831 3.396535 4.037680 -4.121520 0.841460 0.769267 -2.317733 3.274617 4.521550 4.829305 -1.218879 -4.552978 -1.524846 4.670845 -1.596295 -1.319186 -4.883051 1.569613 1.764772 -4.520108 0.743763 -3.221887 1.495759 -1.406499 -0.664439 -4.542600 -1.637382 2.212664 -1.271277 0.971685 2.913726 2.229807 1.696867 3.253030 -4.454253 -3.024302 -3.461427 -1.937655 -4.935013 -2.775058 -2.136378 2.322905 2.232746 1.448741 -4.401920 -4.480075 -4.896809 -1.586514 -3.106754 0.597058 4.736920 2.238022 1.772879 3.112120 -4.742887 -4.731130 -0.967922 -1.221368 3.106249 3.616206
-2.380518 1.856037 -3.294530 3.605050 1.556578 -2.785884 1.419325 -0.018774 -2.155717 1.272281 1.553588 2.703810 3.053465 -3.019558 0.279393 -0.902542 0.159737 2.329635 -4.647047 -0.285716 -0.929316 -3.224096 2.118609 0.610570 3.650931 -3.383010 -1.783436 -2.419195 4.044654 4.268215 -4.838938 0.225434 3.848490 -3.815962 -1.771504 4.359711 -4.941831 -1.782444 4.037680 -4.121520 0.841460 0.769267 -2.317733 3.274617 4.521550 4.829305 -4.222844 0.096818 -1.524846 4.670845 -1.596295 -1.319186 -4.883051 3.429918 4.000948 -4.520108 0.743763 1.083332 1.495759 -1.406499 1.272574 -4.868788 0.246887 2.212664 4.267879 1.525584 0.625422 2.628466 -1.594553 3.752866 -0.382039 -0.174304 -3.461427 -1.937655 3.702418 -2.775058 -2.136378 0.437231 2.232746 1.448741 -4.401920 -4.480075 -4.896809 -1.586514 -3.106754 -2.518882 4.736920 2.238022 1.772879 3.112120 -4.742887 -4.322769 -0.967922 -1.221368 -0.888915 3.616206
-2.380518 1.856037 -3.294530 3.605050 1.556578 -2.785884 1.419325 -0.018774 -2.155717 1.272281 1.553588 2.703810 3.053465 -3.019558 0.279393 -0.902542 0.159737 2.329635 -4.647047 -0.285716 -0.929316 -3.224096 2.118609 0.610570 3.650931 -3.383010 -1.783436 -2.419195 4.044654 4.268215 -4.838938 0.225434 3.848490 -3.815962 -1.771504 4.359711 -4.941831 -1.782444 4.037680 -4.121520 0.841460 0.769267 -2.317733 3.274617 4.521550 4.829305 -4.222844 -4.552978 -1.524846 4.670845 -1.596295 -1.319186 -4.883051 3.429918 4.000948 -4.520108 0.743763 -3.221887 1.495759 -1.406499 -0.664439 -4.542600 -1.637382 2.212664 -1.271277 0.971685 2.913726 2.229807 1.696867 3.253030 -4.454253 -3.024302 4.925847 -1.937655 -4.935013 -2.775058 -2.136378 2.322905 2.232746 1.448741 -4.401920 -4.480075 -4.896809 -1.586514 -3.106754 0.597058 4.736920 2.238022 1.772879 3.112120 -4.742887 -4.731130 -0.967922 -1.221368 3.106249 3.616206
-2.380518 -0.297965 -3.294530 4.615643 1.556578 -2.785884 1.419325 -0.018774 -2.155717 1.272281 1.553588 -3.986285 3.053465 -4.833930 0.279393 4.558091 0.159737 2.329635 -2.414301 -3.066509 1.531541 -3.224096 2.118609 0.610570 4.245879 0.525322 -1.783436 -3.501594 4.044654 4.268215 -4.838938 0.225434 3.848490 -3.815962 -0.876057 4.359711 -4.941831 -1.782444 4.875668 -4.121520 0.841460 0.769267 -2.317733 3.274617 4.521550 4.829305 -1.218879 -4.552978 -1.524846 4.670845 -3.590816 -1.319186 -4.883051 4.391244 1.764772 -4.520108 0.743763 -3.221887 1.495759 -1.406499 1.272574 -4.868788 -1.637382 2.212664 -1.271277 0.971685 0.209527 2.628466 -1.594553 3.752866 -0.382039 -0.174304 -3.461427 -1.937655 -4.935013 -2.775058 -2.136378 2.322905 -4.619598 -0.478245 -3.679405 -4.480075 -1.354466 -1.586514 -4.117691 0.597058 4.736920 2.238022 1.772879 3.112120 -4.742887 -4.731130 -0.967922 -1.221368 3.106249 3.616206
-2.380518 -0.297965 -3.294530 3.605050 1.556578 -2.785884 1.419325 4.439744 -2.155717 1.272281 1.553588 2.703810 3.053465 -3.781394 0.279393 4.558091 0.159737 2.329635 -2.414301 -0.285716 1.531541 -3.224096 2.118609 -4.053665 4.245879 0.525322 -3.923413 -2.419195 -2.575903 4.268215 -4.838938 4.296686 3.848490 -3.815962 -0.876057 4.359711 -4.941831 -1.782444 4.037680 -4.121520 0.841460 0.769267 -2.317733 3.274617 4.521550 4.829305 -1.218879 -4.552978 -1.524846 4.670845 -1.596295 -1.319186 0.974969 2.482487 1.764772 -4.520108 0.743763 -3.221887 -0.038708 -1.406499 1.272574 -4.868788 -1.637382 2.212664 -1.271277 0.971685 2.913726 2.628466 -1.594553 3.752866 -0.382039 -0.174304 -3.461427 -1.937655 -2.813218 -1.932537 -1.584399 0.298740 -4.619598 -0.478245 -3.679405 -4.480075 -1.354466 -1.586514 -4.525118 0.597058 3.353855 2.238022 1.772879 3.112120 -4.742887 -4.731130 -0.967922 -1.221368 3.106249 3.616206
-2.380518 1.856037 -3.294530 3.605050 1.556578 -2.785884 1.419325 -0.018774 -2.155717 1.272281 1.553588 2.703810 3.053465 -3.019558 0.279393 -0.902542 0.159737 2.329635 -4.647047 -0.285716 -0.929316 -3.224096 2.118609 0.610570 3.650931 -3.383010 -1.783436 -2.419195 4.044654 4.268215 -4.838938 0.225434 3.848490 -3.815962 -1.771504 4.359711 -4.941831 -1.782444 4.037680 -4.121520 0.841460 0.769267 -2.317733 3.274617 4.521550 4.829305 -4.222844 -4.552978 -1.524846 4.670845 -1.596295 -1.319186 -4.883051 3.429918 4.000948 -4.520108 0.743763 1.083332 1.495759 -1.406499 1.272574 -4.868788 0.246887 2.212664 4.267879 1.525584 0.625422 2.628466 -2.281445 3.752866 -0.382039 -0.174304 -3.461427 -1.937655 3.702418 -2.775058 -2.136378 4.271708 2.232746 1.448741 -4.798309 -4.480075 -3.427938 -1.586514 -4.525118 0.597058 3.353855 2.238022 1.772879 3.112120 -4.742887 -4.322769 -1.666518 -1.221368 3.106249 3.616206
-2.380518 1.856037 -3.294530 3.605050 1.556578 -2.785884 1.419325 -0.018774 -2.445578 1.272281 1.553588 -3.986285 3.053465 -4.833930 0.279393 4.558091 -2.945780 2.329635 -2.414301 -0.285716 1.531541 -3.224096 -3.642516 0.610570 4.245879 0.525322 -1.783436 -2.419195 4.044654 4.268215 -4.838938 0.225434 3.848490 -3.815962 -0.876057 4.359711 -4.941831 -1.782444 4.037680 -4.121520 0.841460 0.769267 -2.317733 3.274617 4.521550 4.829305 -1.218879 -4.552978 -1.524846 4.670845 -3.590816 -1.319186 -4.883051 4.391244 1.764772 -4.520108 0.743763 -3.221887 1.495759 -1.406499 1.272574 -4.718239 -1.637382 2.212664 -1.271277 0.971685 0.209527 2.628466 -1.594553 3.752866 -0.382039 -0.174304 -3.461427 -1.937655 -4.935013 -2.775058 -2.136378 2.322905 -4.619598 -0.478245 -3.679405 -4.480075 -1.354466 -1.586514 -4.117691 0.597058 4.736920 2.238022 1.772879 3.112120 -4.742887 -4.731130 -0.967922 -1.221368 3.106249 3.616206
-2.380518 1.856037 -3.294530 3.605050 1.556578 -2.785884 1.419325 -0.018774 -2.155717 1.272281 1.553588 2.703810 3.053465 -3.019558 0.279393 -0.902542 0.159737 2.329635 -4.647047 -0.285716 -0.929316 -3.224096 2.118609 2.108946 3.650931 -3.383010 -1.783436 -2.419195 4.044654 4.268215 -4.838938 0.225434 3.848490 -1.024384 -1.771504 4.359711 -4.941831 -1.782444 4.037680 -4.639055 0.841460 0.769267 -2.317733 3.274617 4.521550 3.285777 -4.454574 -4.552978 -1.524846 4.670845 -1.596295 -0.720278 -4.883051 3.429918 1.764772 -4.520108 0.743763 -3.221887 -1.578020 -1.406499 1.272574 -4.868788 -1.637382 2.212664 -1.271277 4.648185 2.913726 2.628466 -1.594553 3.752866 -0.382039 -0.174304 -3.461427 -1.937655 -2.813218 -1.932537 -4.456377 0.298740 -4.619598 -0.478245 -3.679405 -4.480075 -1.354466 -1.586514 -3.106754 0.597058 4.736920 2.238022 1.772879 3.112120 -4.742887 -4.731130 -0.967922 -1.221368 3.106249 3.616206
-2.380518 1.856037 -3.294530 3.605050 1.556578 -2.785884 1.419325 -0.018774 -2.155717 1.272281 1.553588 2.703810 3.053465 -3.019558 0.279393 4.558091 0.159737 2.329635 -4.647047 -0.285716 -0.929316 -3.224096 2.118609 0.610570 4.245879 0.525322 -1.783436 -2.419195 0.834587 4.268215 -4.838938 0.225434 -4.161234 -3.815962 -1.771504 4.359711 -4.941831 -1.782444 4.037680 -4.121520 0.841460 0.769267 -2.317733 3.274617 4.521550 4.829305 -1.218879 -4.552978 -1.524846 0.075839 -1.596295 -1.319186 0.974969 3.429918 1.764772 -4.520108 0.743763 -3.221887 1.495759 -1.406499 1.272574 -4.868788 -1.637382 2.212664 -1.271277 0.971685 0.209527 -0.938742 -1.594553 3.752866 -0.382039 -0.174304 -3.461427 -1.937655 3.702418 -2.775058 -2.136378 4.271708 2.232746 1.448741 -1.401119 -4.480075 -4.896809 -1.586514 -3.106754 0.597058 3.353855 2.238022 1.772879 3.112120 -4.742887 -4.322769 -1.666518 -1.221368 3.106249 3.616206
-2.380518 -0.297965 -3.294530 3.605050 1.556578 -2.785884 1.419325 -0.018774 -2.155717 1.272281 1.553588 -3.986285 3.053465 -4.833930 0.279393 4.558091 0.159737 2.329635 -2.414301 -3.066509 1.531541 -3.224096 2.118609 0.610570 4.245879 0.525322 -1.783436 -3.501594 4.044654 4.268215 -4.838938 0.225434 3.848490 -3.815962 -0.876057 4.359711 -4.941831 -1.782444 4.875668 -4.121520 0.841460 0.769267 -2.317733 3.274617 4.521550 4.829305 -1.218879 -4.552978 -1.524846 4.670845 -3.590816 -1.319186 -4.883051 4.391244 1.764772 -4.520108 0.743763 -3.221887 1.495759 -1.406499 1.272574 -4.868788 -1.637382 2.212664 -1.271277 -0.172433 0.209527 2.628466 -1.594553 3.752866 -0.382039 -0.174304 -3.461427 -1.937655 -4.935013 -2.775058 -2.136378 2.322905 4.111911 -0.478245 -3.679405 -4.480075 -1.354466 -1.586514 -4.117691 0.597058 4.736920 2.238022 1.772879 0.170142 -4.742887 -4.731130 -0.967922 -1.221368 3.106249 3.616206
-2.380518 -0.297965 -3.294530 3.605050 1.556578 -2.785884 -1.662376 -1.800390 -2.155717 1.272281 1.553588 2.703810 3.053465 -3.019558 0.279393 4.558091 0.159737 2.329635 -2.414301 -0.285716 1.531541 -3.224096 2.118609 -1.509034 4.245879 0.525322 -3.923413 -2.419195 4.044654 4.268215 -4.838938 0.225434 1.420417 -3.815962 -0.876057 4.359711 -4.941831 -1.782444 4.037680 -4.121520 0.841460 2.706174 -2.317733 3.274617 4.521550 4.829305 -1.218879 -4.552978 -1.524846 4.670845 -1.596295 -1.319186 -4.280165 -0.007650 1.764772 -3.575633 0.743763 -3.221887 3.717991 -1.406499 1.272574 -4.868788 4.553124 2.212664 4.267879 1.525584 0.625422 2.628466 -1.594553 3.752866 -0.382039 -0.174304 -3.461427 -1.937655 3.702418 -2.775058 -2.136378 0.437231 2.232746 1.448741 -4.401920 -4.480075 -4.896809 -1.586514 -3.106754 -2.518882 4.736920 2.238022 1.772879 3.112120 -4.742887 -4.322769 -0.967922 -1.221368 3.106249 3.616206
-2.380518 -0.297965 -3.294530 3.605050 1.556578 -2.785884 1.419325 -0.018774 -2.155717 4.849523 1.553588 -3.986285 3.053465 -4.833930 0.279393 4.558091 0.159737 2.329635 -2.414301 -3.066509 1.531541 -3.224096 2.118609 0.610570 4.245879 0.525322 -1.783436 -3.501594 4.044654 4.268215 -4.838938 0.225434 3.848490 -3.815962 -1.771504 4.359711 -4.941831 -1.782444 4.037680 -3.441193 0.841460 0.769267 -1.364810 3.274617 4.521550 4.829305 -1.218879 1.884679 -1.524846 4.670845 -1.596295 -1.319186 -4.883051 3.429918 1.764772 -4.520108 0.743763 -3.221887 1.495759 -1.406499 1.272574 -4.868788 -1.637382 2.212664 -1.271277 4.648185 2.913726 2.628466 -1.594553 3.752866 -0.382039 -0.174304 -3.461427 -1.937655 -2.813218 -1.932537 -4.456377 0.298740 -4.619598 -0.478245 -3.679405 -4.480075 -1.354466 -1.586514 -3.106754 0.597058 4.736920 2.238022 1.772879 3.112120 -4.742887 -4.731130 -0.967922 -1.221368 3.106249 3.616206
-2.380518 -0.297965 -3.294530 3.605050 1.556578 0.956085 1.419325 -0.018774 -2.155717 1.272281 1.553588 2.703810 3.053465 1.714451 0.279393 4.558091 0.159737 1.857615 -2.414301 -0.285716 1.531541 -3.224096 2.118609 -4.053665 4.245879 0.525322 -1.783436 -2.419195 4.044654 4.268215 -4.838938 0.225434 3.848490 -3.815962 -1.771504 4.359711 -4.941831 -1.782444 4.037680 -4.121520 0.841460 0.769267 -2.317733 3.274617 4.521550 -1.612541 -1.218879 -4.552978 -1.524846 4.670845 -1.596295 -1.319186 -4.883051 3.429918 1.764772 -0.182374 0.743763 -3.221887 1.495759 -1.406499 1.845067 -4.868788 0.246887 2.212664 4.267879 1.525584 0.625422 2.628466 -1.594553 3.752866 -0.382039 -0.174304 -3.461427 -1.937655 3.702418 -2.775058 -2.136378 2.322905 2.232746 1.448741 -0.203449 -4.480075 -1.354466 -1.586514 -3.106754 0.597058 4.736920 2.238022 1.772879 3.112120 -4.742887 -4.731130 -0.967922 -1.221368 3.106249 3.616206
-2.380518 1.856037 -3.294530 3.605050 1.556578 -2.785884 1.419325 -0.018774 -2.155717 1.272281 1.553588 2.703810 3.053465 -3.019558 0.279393 4.558091 0.159737 2.329635 -4.647047 -0.285716 -0.929316 -3.224096 2.118609 0.610570 4.245879 -3.383010 -1.783436 -2.419195 4.044654 4.268215 -4.838938 0.225434 3.848490 -3.815962 -1.771504 4.359711 -4.941831 -1.782444 4.037680 -4.121520 0.841460 0.769267 -2.317733 3.274617 4.521550 4.829305 -1.218879 -4.552978 -1.524846 4.670845 -1.596295 -1.319186 -4.883051 1.569613 1.764772 -4.520108 0.743763 -3.221887 1.495759 -1.406499 -0.664439 -4.542600 -1.637382 2.212664 -1.271277 0.971685 2.913726 2.229807 1.696867 3.253030 -4.454253 -3.024302 -3.461427 -1.937655 -4.935013 -2.775058 -2.136378 2.322905 2.232746 1.448741 -4.401920 -4.480075 -4.896809 -1.586514 -3.106754 0.597058 4.736920 2.238022 1.772879 3.112120 -4.742887 -4.731130 -0.967922 -1.221368 3.106249 3.616206
-2.380518 1.856037 -3.294530 3.605050 1.556578 -2.785884 1.419325 -0.018774 -2.445578 1.272281 1.553588 2.703810 3.053465 -3.019558 0.279393 4.558091 1.052302 2.329635 -4.647047 -0.285716 -0.929316 -3.224096 2.118609 2.579322 4.245879 -3.383010 -1.783436 -2.419195 4.044654 4.268215 -4.838938 0.225434 3.848490 -3.815962 -1.771504 4.359711 -4.941831 -1.782444 4.037680 -4.121520 0.841460 0.769267 -2.317733 3.274617 4.521550 4.829305 -1.218879 -4.552978 -1.524846 4.670845 -1.596295 -1.319186 0.974969 3.429918 1.764772 -4.520108 0.743763 -3.221887 1.495759 -1.406499 1.272574 -4.868788 -1.637382 2.212664 -1.271277 0.971685 0.209527 -0.938742 -1.594553 3.752866 -0.382039 4.246098 -3.461427 -1.937655 -4.935013 -2.775058 -2.136378 2.322905 2.232746 -2.999376 -0.203449 -4.480075 -1.574249 -1.586514 -3.106754 0.597058 4.736920 2.238022 1.772879 3.112120 -4.742887 -4.731130 -0.967922 -1.221368 3.106249 3.616206
-2.380518 -0.297965 -3.294530 3.605050 1.556578 -2.785884 1.419325 -0.018774 -2.155717 1.272281 1.553588 -3.986285 3.053465 -4.833930 0.279393 4.558091 0.159737 2.329635 -2.414301 -3.066509 1.531541 -3.224096 2.118609 0.610570 4.245879 0.525322 -1.783436 -3.501594 4.044654 4.268215 -4.838938 0.225434 1.077121 -3.815962 -0.876057 4.359711 -4.941831 -1.782444 4.037680 -4.121520 0.841460 0.769267 -2.317733 3.274617 4.521550 4.829305 -4.222844 -4.552978 -1.524846 4.670845 -1.596295 -1.319186 -4.883051 4.391244 1.764772 -4.520108 -3.182605 -3.221887 1.495759 -1.406499 1.272574 -4.868788 -1.637382 2.212664 -1.271277 0.971685 0.209527 2.628466 1.809996 3.752866 -0.382039 -0.174304 -3.461427 -1.937655 -4.935013 -2.775058 -2.136378 2.322905 -4.619598 -0.478245 -3.679405 -4.480075 -1.354466 -1.586514 -4.117691 0.597058 4.736920 2.238022 1.772879 3.112120 -4.742887 -4.731130 -0.967922 -1.221368 3.106249 3.616206
-2.380518 -0.297965 -3.294530 3.605050 1.556578 -2.785884 -1.662376 -1.800390 -2.155717 1.272281 1.553588 2.703810 3.053465 -3.019558 0.279393 4.558091 0.159737 2.329635 -2.414301 -0.285716 1.531541 -3.224096 2.118609 -4.053665 4.245879 0.525322 -3.923413 -2.419195 4.044654 4.268215 -4.838938 0.225434 1.420417 -3.815962 -0.876057 4.359711 -4.941831 -1.782444 4.037680 -4.121520 0.841460 2.706174 -2.317733 3.274617 4.521550 4.829305 -1.218879 -4.552978 -1.524846 4.670845 -1.596295 -1.319186 -4.883051 3.429918 1.764772 -0.182374 0.743763 -3.221887 -1.211382 -1.406499 1.845067 -4.868788 0.246887 2.212664 4.267879 1.525584 0.625422 2.628466 -1.594553 3.752866 -0.382039 -0.174304 -3.461427 -1.937655 3.702418 -2.775058 -2.136378 -4.633234 2.232746 1.448741 -4.401920 -4.480075 -4.896809 -1.586514 -3.106754 0.597058 3.353855 2.238022 1.772879 3.112120 -4.742887 1.263310 -1.666518 -1.221368 3.106249 3.616206
-2.380518 -0.297965 -3.294530 3.605050 1.556578 -3.137903 1.419325 -0.018774 -2.155717 1.272281 1.553588 -3.986285 3.053465 -4.833930 0.279393 4.558091 0.159737 2.329635 -2.414301 -3.066509 1.531541 -3.224096 2.118609 0.610570 4.245879 0.525322 -1.783436 -3.501594 4.044654 4.268215 -4.838938 0.225434 3.848490 -3.815962 -1.771504 4.359711 -4.941831 -1.782444 4.037680 -3.441193 0.841460 0.769267 -2.317733 3.274617 4.521550 4.829305 -1.218879 1.884679 -1.524846 -0.262614 -1.596295 -1.319186 -4.883051 3.429918 1.764772 -4.520108 0.743763 -3.221887 1.495759 -1.406499 1.272574 -4.868788 -1.637382 2.212664 -1.271277 4.648185 2.913726 2.628466 -1.594553 3.752866 -0.382039 -0.174304 -3.461427 -1.937655 -2.813218 -1.932537 -4.456377 0.298740 -4.619598 -0.478245 -3.679405 -4.480075 -1.354466 -1.586514 -4.525118 0.597058 3.353855 2.238022 1.772879 3.112120 -4.742887 -4.322769 -1.666518 -3.586077 3.184544 -3.226901
-2.380518 -0.297965 -3.294530 3.605050 1.556578 -2.785884 1.419325 -0.018774 -2.155717 0.778166 1.553588 2.703810 3.053465 -1.398374 0.279393 4.558091 0.159737 2.329635 0.240265 -0.285716 1.531541 -3.224096 2.118609 0.610570 2.674494 0.525322 -1.783436 -2.419195 0.834587 4.268215 -4.838938 0.225434 -4.161234 -3.815962 -1.771504 4.359711 -4.941831 -1.782444 4.037680 -4.121520 0.841460 0.769267 -2.317733 3.274617 4.521550 4.829305 -1.218879 -4.552978 -1.524846 4.670845 -3.590816 -1.319186 -4.883051 4.391244 1.764772 -0.015673 0.743763 -3.221887 1.495759 -1.406499 1.272574 -4.868788 -4.995051 2.212664 -1.271277 0.971685 0.209527 2.628466 -1.594553 3.752866 -0.382039 -0.174304 -3.461427 -1.937655 -4.935013 -2.775058 -2.136378 2.322905 2.232746 1.448741 -0.203449 -4.480075 -1.354466 -1.586514 -4.117691 0.597058 4.736920 2.238022 4.626835 3.112120 -4.742887 -4.731130 -0.967922 -1.221368 3.106249 3.616206
-2.380518 1.856037 -3.294530 3.605050 1.556578 -2.785884 1.419325 -0.018774 -2.155717 1.272281 -3.497449 2.703810 3.053465 -3.019558 0.279393 -0.902542 0.159737 2.329635 -4.647047 -0.285716 -0.929316 -3.224096 2.118609 0.610570 3.650931 -3.383010 -1.783436 -2.419195 4.044654 4.268215 -4.838938 0.225434 3.848490 -3.815962 -3.203473 4.359711 -4.941831 -1.782444 4.037680 -4.121520 0.841460 0.769267 -2.317733 3.274617 4.521550 4.829305 -1.218879 -4.552978 -1.524846 4.670845 -1.596295 -1.319186 0.974969 3.429918 1.764772 -4.520108 0.743763 -3.221887 1.495759 -1.406499 1.272574 -4.868788 -1.637382 2.212664 -1.271277 0.971685 0.209527 -0.938742 -1.594553 3.752866 -0.382039 4.246098 -3.461427 -1.937655 -4.935013 -3.576567 -2.136378 2.322905 2.232746 1.448741 -0.203449 -4.480075 -1.354466 -1.586514 -4.117691 0.597058 4.736920 2.238022 1.772879 3.112120 -4.742887 -4.731130 -0.967922 -1.221368 -4.321053 3.616206
-2.380518 -0.297965 -3.294530 3.605050 1.556578 -2.785884 1.419325 -0.018774 -2.155717 1.272281 -4.307531 2.703810 3.053465 -0.987403 0.279393 4.558091 0.159737 2.329635 -2.414301 -0.285716 1.531541 -3.224096 2.118609 0.610570 -4.423640 0.525322 -1.783436 4.752122 0.834587 4.268215 -4.838938 0.225434 -4.161234 -3.815962 -1.771504 4.359711 -4.941831 -1.782444 4.037680 -4.121520 0.841460 0.769267 -2.317733 3.274617 4.521550 4.829305 0.357083 -4.552978 -1.524846 4.670845 -1.596295 -1.319186 -4.280165 -0.007650 1.764772 -4.520108 -4.878848 -3.221887 1.495759 -1.406499 1.272574 -4.868788 -1.637382 2.212664 -1.271277 4.648185 2.913726 2.628466 -1.594553 3.752866 4.401400 -0.174304 -3.461427 -1.937655 -4.935013 -2.775058 -2.136378 2.322905 2.232746 -2.999376 -0.203449 -4.480075 -1.354466 -1.586514 -3.106754 0.597058 4.736920 2.922335 0.820152 0.706664 -3.221143 -4.731130 -0.967922 -1.221368 3.106249 3.616206
-2.380518 -0.297965 -3.294530 3.605050 1.556578 -2.785884 1.419325 -0.018774 -2.155717 1.272281 1.553588 -3.986285 3.053465 -4.833930 0.279393 4.558091 0.159737 2.329635 -2.414301 -3.066509 1.531541 -3.224096 0.228874 0.610570 4.245879 0.525322 -1.783436 -3.501594 4.044654 4.268215 -4.838938 0.225434 3.848490 -3.815962 -0.876057 4.359711 -4.941831 -1.782444 4.037680 -4.121520 0.841460 0.769267 -2.317733 3.274617 4.521550 4.829305 -1.218879 -4.552978 -1.524846 4.670845 -1.596295 -1.319186 -4.883051 1.569613 1.764772 -4.520108 0.743763 -3.221887 1.495759 -1.406499 1.845067 -4.868788 0.246887 2.212664 4.267879 1.525584 0.625422 2.628466 -1.594553 3.752866 -0.382039 -0.174304 -3.461427 -1.937655 3.702418 -2.775058 -2.136378 4.271708 2.232746 1.448741 -4.401920 -4.480075 -4.896809 -1.586514 -3.106754 0.597058 3.353855 2.238022 1.772879 3.112120 -4.742887 -4.322769 -1.666518 -1.221368 3.106249 3.616206
-2.380518 -0.297965 -3.294530 3.605050 1.556578 -2.785884 1.419325 -0.018774 -2.155717 1.272281 1.553588 -3.986285 3.053465 -4.833930 0.279393 4.558091 0.159737 2.329635 -2.414301 -3.066509 1.531541 -3.224096 0.228874 0.610570 4.245879 0.525322 -1.783436 -3.501594 4.044654 4.268215 -4.838938 0.225434 -1.051071 -3.815962 -0.876057 4.359711 -4.941831 -1.782444 4.037680 -4.121520 0.841460 0.769267 -2.317733 3.274617 4.521550 4.829305 -1.218879 -4.552978 -1.524846 4.670845 -1.596295 -1.319186 -4.883051 1.569613 1.764772 -4.520108 0.743763 -3.221887 1.495759 -1.406499 -0.664439 -4.542600 -1.637382 2.212664 -1.271277 0.971685 2.913726 2.229807 1.696867 3.253030 -4.454253 -3.024302 -3.461427 -1.937655 -4.935013 -2.775058 -2.136378 2.322905 2.232746 1.448741 -4.401920 -4.480075 0.373697 -2.145034 2.892229 0.597058 4.736920 2.238022 1.772879 3.112120 -4.742887 -4.731130 -0.967922 -1.221368 3.106249 3.616206
-2.380518 -0.297965 -3.294530 3.605050 1.556578 -2.785884 1.419325 -0.018774 -2.155717 1.272281 1.553588 -3.986285 3.053465 -4.833930 0.279393 4.558091 0.159737 2.329635 -2.414301 -3.066509 1.531541 -3.224096 0.228874 0.610570 4.245879 0.525322 -1.783436 -3.501594 4.044654 4.268215 -4.838938 0.225434 3.848490 -3.815962 -0.876057 4.359711 -4.941831 -1.782444 4.037680 -4.121520 0.841460 0.769267 -2.317733 3.274617 4.521550 4.829305 -1.218879 -4.552978 -1.524846 4.670845 -1.596295 -1.319186 -4.883051 1.569613 1.764772 -4.520108 0.743763 -3.221887 1.495759 -1.406499 -0.664439 -4.542600 -1.637382 2.212664 -1.271277 0.971685 2.913726 -0.938742 1.696867 3.253030 -0.637906 -3.024302 -3.461427 -1.937655 -4.935013 -2.775058 -2.136378 2.322905 2.232746 1.448741 -4.401920 -4.480075 -4.896809 -1.586514 -3.106754 0.597058 4.736920 2.238022 1.772879 3.112120 -4.742887 -4.820277 -0.632300 -4.771524 3.184544 -3.226901
-2.380518 4.792785 -3.294530 3.605050 -3.579666 -2.785884 3.786869 -0.018774 -2.155717 3.076191 1.553588 2.703810 3.053465 -3.019558 0.279393 4.558091 0.159737 2.329635 -4.647047 -0.285716 -4.127346 -3.224096 2.118609 0.610570 4.245879 -3.383010 -1.783436 -2.419195 4.044654 4.268215 -4.838938 0.225434 3.848490 -3.815962 -3.203473 4.359711 -4.941831 -1.782444 4.037680 -4.121520 0.841460 0.769267 -2.317733 3.274617 4.521550 4.829305 -1.218879 -4.552978 -1.524846 4.670845 -1.596295 -1.319186 0.974969 3.429918 1.764772 -4.520108 0.743763 -3.221887 1.495759 -1.406499 1.839602 -4.868788 -1.637382 2.212664 -1.271277 0.971685 0.209527 -0.938742 -1.594553 3.752866 -0.382039 4.246098 -3.461427 -1.937655 -4.935013 -3.576567 -2.136378 2.322905 2.232746 1.448741 -0.203449 -4.480075 -2.603083 -1.586514 -4.117691 0.597058 4.736920 2.238022 1.772879 3.112120 -4.742887 -4.731130 -0.967922 -1.221368 3.106249 3.616206
