2.632817 -4.157626 2.622958 3.951789 4.915701 -1.537831 -3.595521 -3.771897 -0.482399 0.003603 1.286543 -3.014902 -4.225994 -4.369637 -3.992805 2.115152 -1.016155 -4.976343 1.736529 -2.705955 -1.919306 -2.122343 2.211957 3.882310 -0.688792 1.707313 2.045099 -1.781191 -2.496236 -1.879484 3.211192 -1.297272 0.581451 -4.622451 0.738422 1.521123 3.626101 1.086913 -3.717589 3.272828 4.268164 2.748368 0.988589 3.379864 -4.041648 -4.687157 -2.943388 1.998233 0.331286 -0.714480 -2.111301 -4.989015 -2.988199 4.268048 -4.998130 -3.040617 3.988115 3.823193 0.921688 -0.886559 2.108758 -0.970708 -3.246943 -0.042191 3.488215 3.705172 0.428902 -3.780161 3.299149 -0.730827 -2.693665 2.550250 0.903270 2.419993 -1.457766 2.371315 -1.103680 3.733747 -0.620120 -3.626517 -2.779689 -4.918224 2.555292 -3.220275 -3.504813 0.980179 4.310662 2.973786 0.538573 -3.284853 -3.182354 -1.073474 -1.772537 -1.635631 0.979162 4.925579
2.632817 -4.157626 2.622958 1.237620 4.915701 -1.537831 -4.957325 -3.771897 -0.482399 0.003603 2.880729 -3.014902 -4.225994 -4.369637 -3.992805 2.565535 -1.016155 -4.976343 1.736529 -2.705955 4.983280 4.326214 -3.787230 4.929354 -3.200854 4.828062 0.170024 2.711399 3.661437 1.405460 -3.684385 0.461160 3.776622 -2.228995 -0.910330 1.697196 -2.277399 -2.712152 -4.287697 -1.340264 -1.314455 -4.779425 2.711731 4.161458 3.142197 -2.744796 -1.406590 -0.802888 2.352707 3.249124 1.672875 -4.989015 -2.988199 4.268048 -4.998130 -3.040617 3.988115 3.823193 0.921688 -0.886559 2.108758 -0.970708 3.065249 -0.042191 3.488215 3.705172 0.428902 -3.780161 3.299149 -4.060471 0.651031 -1.404481 0.800010 4.244218 0.393216 2.161130 -3.682680 -4.568580 -4.635641 -4.755785 3.968728 2.624047 -1.753599 2.103620 1.473766 0.980179 4.310662 2.973786 0.538573 -3.284853 -3.182354 -1.073474 -1.772537 -0.519368 0.979162 4.925579
2.632817 3.098575 2.622958 1.237620 4.915701 -1.537831 -4.957325 -3.771897 -0.482399 1.212847 1.222208 -3.014902 -4.225994 -4.369637 -3.992805 2.115152 -1.016155 -4.976343 1.736529 -2.705955 4.983280 -2.548665 -3.787230 4.929354 -3.200854 4.801137 1.694633 2.224545 -2.488705 3.985168 3.534499 1.183668 -0.395320 1.404917 4.888188 1.348415 0.020040 2.641879 -4.285315 -1.340264 -1.314455 -4.779425 -0.332656 4.161458 3.142197 0.439696 -1.406590 -0.802888 -4.620682 3.249124 1.672875 -4.989015 -2.988199 4.268048 -4.998130 -3.040617 0.792102 3.823193 0.921688 -0.886559 2.108758 -0.970708 3.065249 -0.042191 3.488215 3.705172 0.428902 -3.780161 3.299149 -4.060471 0.651031 -1.404481 0.800010 4.244218 0.393216 -0.632756 -3.682680 0.587824 -0.620120 -3.626517 -2.779689 -4.918224 0.230870 -0.874925 -3.504813 0.980179 4.310662 2.896144 0.538573 -3.284853 4.845678 -1.073474 -1.772537 -1.635631 0.979162 4.925579
2.632817 -4.320379 2.271010 -3.536249 4.915701 -1.537831 -4.957325 -3.771897 -0.482399 0.003603 1.222208 -3.014902 -4.225994 -4.369637 -3.992805 2.115152 -1.016155 -4.976343 -1.399066 -2.705955 4.983280 -2.122343 -0.042177 3.232648 -0.160924 -0.100479 2.579278 -3.725675 2.440802 1.278505 -4.308781 1.920349 -1.670133 -0.284093 4.221125 -2.303165 4.038367 -3.988631 0.751332 2.714200 -4.635801 4.653355 3.364300 -2.663739 -3.156937 4.878101 -4.619133 1.613741 -1.185520 2.157273 -4.680570 0.651334 -3.214510 2.155735 -0.405078 2.377128 -0.270726 0.127591 -2.097018 2.342134 -0.103337 -4.230856 -1.717047 -4.006804 -3.852914 0.585132 2.695928 4.668279 1.855667 -0.730827 -2.693665 2.550250 0.903270 2.419993 4.863828 2.371315 -2.945694 3.733747 -4.635641 -4.755785 3.968728 2.624047 -1.753599 -3.484889 1.473766 0.469565 1.287975 3.363572 3.729525 -0.036143 2.483722 4.681240 0.730040 -2.121786 -4.446289 -0.973533
-2.137290 -3.278186 0.374536 4.411653 4.560339 0.020472 1.327462 3.103417 1.412244 -2.888533 -3.762961 -1.926422 -3.027234 1.952743 0.337642 -4.397903 -0.434308 -1.983195 1.812428 3.678157 -4.135784 -2.274981 1.965872 3.726849 -2.722414 1.032548 4.002741 -0.316578 -0.354825 4.146864 -3.614283 1.523328 -4.940681 -1.424657 1.204818 1.348415 0.020040 2.641879 -4.285315 -1.340264 -1.314455 -4.779425 -0.332656 4.161458 3.142197 0.439696 -1.406590 -0.802888 2.352707 3.249124 1.672875 -4.989015 -2.988199 4.268048 -4.998130 -3.040617 3.988115 3.823193 -1.052364 -4.071943 -4.286127 -1.642034 -4.854986 -4.889534 2.502618 4.717908 0.428902 -3.780161 3.299149 -4.718104 0.651031 -1.404481 0.800010 -3.691454 0.393216 -0.632756 -3.682680 0.587824 -0.620120 -3.626517 -2.779689 -4.918224 2.555292 -3.315037 -3.504813 2.776766 4.310662 2.896144 0.538573 -3.284853 -3.182354 -1.073474 -1.772537 -1.635631 0.979162 4.147982
2.632817 3.098575 2.622958 1.237620 4.915701 -1.537831 -4.957325 -3.771897 -0.482399 0.003603 1.222208 -3.014902 -4.225994 -4.369637 -3.992805 2.115152 -3.700746 -4.976343 1.736529 -2.705955 4.983280 -2.548665 -3.787230 4.929354 -1.656674 4.801137 1.694633 2.224545 -2.488705 3.985168 3.534499 1.183668 -0.395320 1.404917 4.888188 4.587206 0.020040 2.641879 -4.285315 -1.340264 -1.314455 -4.779425 -0.332656 4.161458 3.142197 0.439696 -1.406590 -0.802888 2.352707 3.249124 1.672875 -4.989015 -2.988199 4.268048 -4.998130 -3.040617 0.792102 3.823193 0.921688 -0.886559 2.108758 -0.970708 3.065249 -0.042191 3.488215 3.705172 1.903163 -3.780161 3.299149 -4.060471 0.651031 -1.404481 0.800010 4.244218 0.393216 -0.632756 -3.682680 0.587824 -0.620120 -3.626517 -2.779689 -4.918224 0.230870 -0.874925 -3.504813 0.980179 4.310662 2.896144 0.538573 -3.284853 -3.182354 -1.073474 -1.772537 -1.635631 0.979162 4.925579
2.632817 -4.157626 2.622958 1.237620 4.915701 -1.537831 -4.957325 -3.771897 -0.482399 0.003603 1.286543 -3.014902 -4.225994 -4.369637 -3.992805 2.565535 -1.016155 -4.976343 1.736529 -2.705955 4.983280 -2.548665 -3.787230 4.929354 -3.200854 4.801137 1.694633 2.224545 -2.488705 3.985168 3.534499 1.183668 -0.395320 1.404917 4.888188 1.348415 0.020040 2.641879 -4.285315 -1.340264 -1.314455 -4.779425 -0.332656 4.161458 3.142197 0.439696 -1.406590 -0.802888 2.352707 3.249124 1.672875 -4.989015 -2.988199 4.268048 -4.998130 -3.040617 0.792102 3.823193 0.921688 -0.886559 -1.838199 -0.970708 3.065249 -0.042191 3.488215 3.705172 0.428902 -3.780161 3.299149 -4.060471 0.651031 -1.404481 0.800010 4.244218 0.393216 -0.632756 -3.682680 0.587824 -0.620120 -3.626517 -2.779689 -4.918224 0.230870 -0.874925 -3.504813 0.980179 4.310662 2.896144 0.538573 -3.284853 -3.182354 -1.073474 -1.772537 -1.635631 0.979162 4.925579
2.632817 3.098575 2.622958 1.237620 4.915701 -1.537831 -4.957325 -3.771897 -0.482399 0.003603 1.222208 -3.014902 -4.225994 -4.369637 -3.992805 2.115152 -1.016155 -4.976343 1.736529 -2.705955 -1.919306 -2.122343 2.211957 3.882310 -0.688792 1.707313 2.045099 -1.781191 -2.496236 -1.879484 3.211192 -1.297272 0.581451 -4.622451 0.738422 -4.989640 3.626101 1.086913 -3.717589 3.272828 4.268164 2.748368 0.988589 3.379864 -4.041648 -4.687157 -2.943388 -2.527752 0.331286 2.616619 4.123208 -4.989015 -2.988199 4.268048 -4.998130 -3.040617 3.988115 3.823193 0.921688 -0.886559 2.108758 -0.970708 -3.246943 -0.042191 3.488215 3.705172 0.428902 -3.780161 3.299149 -0.730827 -2.693665 -1.404481 -0.684062 4.244218 0.393216 2.371315 -1.103680 3.733747 -4.635641 -4.755785 3.968728 2.624047 -1.753599 -3.484889 1.473766 1.145718 4.310662 2.973786 0.538573 -3.284853 -3.182354 -1.073474 -1.772537 -1.635631 0.979162 4.925579
2.632817 -4.157626 2.622958 1.237620 -4.998030 -1.537831 -4.957325 -3.771897 -0.482399 0.003603 1.286543 -3.014902 -4.225994 -4.369637 -3.992805 2.115152 -1.016155 -4.976343 1.736529 -2.705955 4.983280 -2.122343 -3.787230 4.929354 -3.200854 4.801137 1.694633 2.224545 -2.488705 3.985168 3.534499 1.183668 -0.395320 1.404917 4.888188 1.348415 0.020040 2.641879 -4.285315 4.582521 -1.314455 4.895751 -0.332656 4.161458 3.142197 0.439696 -1.406590 -0.802888 2.352707 3.249124 1.672875 -4.989015 -2.988199 4.268048 -4.998130 -3.040617 3.988115 3.823193 0.921688 2.342134 2.108758 -0.970708 -3.246943 -0.042191 3.488215 3.705172 0.428902 -3.780161 3.299149 -4.718104 0.651031 -1.404481 -0.684062 4.244218 0.393216 2.161130 -3.682680 -4.568580 -4.635641 -4.755785 -2.779689 -4.918224 2.555292 -3.220275 -3.504813 0.980179 4.310662 2.973786 0.538573 -3.284853 -3.182354 -3.595692 -1.772537 -1.635631 0.979162 4.925579
-2.137290 -3.278186 0.374536 4.411653 4.560339 0.020472 1.327462 3.103417 1.412244 -2.888533 -3.762961 -1.926422 -3.027234 1.952743 0.337642 -4.397903 -0.434308 -1.983195 1.812428 3.678157 -4.135784 -2.274981 1.965872 3.726849 -2.722414 1.032548 4.002741 -0.316578 -0.354825 4.146864 -3.614283 1.523328 -4.940681 -1.424657 2.216820 1.348415 0.020040 2.641879 -4.285315 -1.340264 -1.314455 -4.779425 -0.332656 4.161458 3.142197 0.439696 -1.406590 -0.802888 2.352707 3.249124 1.672875 -4.989015 -2.988199 4.268048 -4.998130 -3.040617 3.988115 3.823193 -1.052364 -4.071943 -4.286127 -1.642034 -4.854986 -4.889534 2.502618 4.717908 0.428902 -3.780161 3.299149 -4.060471 0.651031 -1.404481 0.800010 4.244218 0.393216 -0.632756 -3.682680 0.587824 -0.620120 -3.626517 -2.779689 -4.918224 0.230870 -0.874925 -3.504813 0.980179 4.310662 2.896144 0.538573 -3.284853 -3.182354 -1.073474 -1.772537 -1.635631 0.979162 4.925579
-2.137290 -3.278186 -4.765216 4.411653 -1.429396 -0.028986 1.327462 1.969008 1.412244 -2.888533 -3.762961 -1.926422 -3.027234 -1.100686 0.337642 -4.397903 -0.434308 -1.915940 1.812428 3.678157 -2.651271 -3.927355 -4.089186 3.232648 -0.160924 -0.100479 2.579278 -3.725675 2.440802 -0.649368 -4.308781 1.920349 -1.670133 -0.284093 4.221125 -2.303165 4.038367 -3.988631 0.751332 2.714200 -4.635801 4.653355 3.364300 -2.663739 -3.156937 4.878101 -4.619133 1.613741 -1.185520 2.157273 2.185591 0.651334 -3.214510 2.155735 -0.405078 2.377128 -0.270726 0.127591 -2.097018 2.342134 -0.103337 -4.230856 3.130660 -3.923868 -3.852914 -3.401401 2.695928 -1.900684 1.855667 -1.395706 -2.693665 2.550250 0.903270 2.419993 -1.457766 2.371315 -1.103680 3.733747 -4.635641 -0.043580 3.968728 2.624047 -1.753599 -3.484889 -4.534738 0.469565 1.287975 3.363572 3.729525 3.533817 2.483722 4.681240 4.093070 -2.121786 1.207368 -0.973533
2.632817 -4.157626 2.622958 1.237620 4.915701 -1.537831 -2.482666 -3.771897 -0.482399 0.003603 1.286543 -3.014902 -4.225994 -4.369637 -3.992805 2.115152 -1.016155 -4.976343 1.736529 -2.705955 -1.919306 -2.122343 2.211957 3.882310 -0.688792 1.707313 2.045099 -0.316578 -0.354825 4.146864 -3.614283 1.523328 -4.940681 -1.424657 2.216820 1.348415 0.695773 2.641879 -4.285315 -1.340264 -1.314455 -4.779425 -0.332656 4.161458 3.142197 0.439696 -1.406590 -0.802888 2.352707 3.249124 -0.687220 -4.989015 -2.988199 4.268048 -4.998130 -3.040617 3.988115 3.823193 -1.052364 -4.071943 -4.286127 -1.642034 -4.854986 -4.889534 2.502618 4.717908 0.428902 -3.780161 3.299149 -4.718104 0.651031 -1.404481 0.800010 -3.691454 0.393216 -0.632756 -3.682680 0.587824 -0.620120 -3.626517 -2.779689 -4.918224 2.555292 -3.315037 -3.504813 2.776766 4.310662 2.896144 0.538573 -3.284853 -3.182354 -1.073474 -1.772537 -1.635631 0.979162 4.925579
-2.137290 -3.278186 0.374536 4.411653 4.560339 0.020472 1.327462 3.103417 1.412244 -2.888533 -3.762961 -1.926422 -3.027234 1.952743 0.337642 -4.397903 -0.434308 -1.983195 1.812428 3.678157 -4.135784 -2.274981 1.965872 3.726849 -2.722414 1.032548 4.002741 -0.316578 -0.354825 4.146864 -3.614283 1.523328 -4.940681 -1.424657 2.216820 1.348415 0.020040 2.641879 -4.285315 -1.340264 -1.314455 -4.779425 -0.332656 4.161458 3.142197 0.439696 -1.406590 -0.802888 2.352707 3.249124 1.672875 -4.989015 -2.988199 4.268048 -4.998130 -3.040617 3.988115 3.823193 -1.052364 -4.071943 -4.286127 -1.642034 -4.854986 -4.889534 2.502618 4.717908 0.428902 -3.780161 3.299149 -4.718104 0.651031 -1.404481 0.800010 -3.691454 0.393216 -0.632756 -3.682680 0.587824 -0.620120 -3.626517 -2.779689 2.624047 -1.753599 -3.484889 4.291252 2.776766 4.310662 2.896144 0.538573 -3.284853 -3.182354 -1.073474 -1.772537 -1.635631 0.979162 4.925579
-2.137290 -3.278186 -4.765216 4.411653 -1.429396 -0.028986 -4.957325 -3.771897 1.412244 -2.888533 -3.762961 -1.926422 -3.027234 1.952743 0.337642 -4.397903 -0.434308 -1.915940 1.812428 3.678157 -2.651271 -3.927355 -0.042177 -1.322688 -0.160924 -0.100479 -2.369424 2.224545 -2.488705 3.985168 3.534499 1.183668 -0.395320 0.697491 0.949168 -3.173559 0.020040 2.641879 -4.285315 -1.788642 -1.314455 -4.779425 2.711731 4.161458 3.142197 -2.744796 -1.406590 -0.802888 2.352707 3.249124 1.672875 -4.989015 -2.988199 4.268048 -4.998130 -3.040617 0.792102 3.823193 0.921688 -0.886559 2.108758 -0.970708 3.065249 -0.042191 3.488215 3.705172 0.428902 -3.780161 3.299149 -4.060471 0.651031 -1.404481 0.800010 4.244218 0.393216 -0.632756 -3.682680 0.587824 -0.620120 -3.626517 -2.779689 -4.918224 0.230870 -0.874925 -3.504813 0.980179 4.310662 2.896144 0.538573 4.111465 -3.182354 -1.073474 -1.772537 -1.635631 0.979162 4.925579
2.632817 -4.157626 2.622958 1.237620 4.915701 -1.537831 -4.957325 -3.771897 -0.482399 0.003603 1.222208 -3.014902 -4.225994 -4.369637 -3.992805 2.115152 -1.016155 -4.976343 -1.399066 -2.705955 4.983280 -2.122343 -3.787230 4.929354 -3.200854 4.801137 -2.369424 2.224545 -2.488705 3.985168 3.534499 1.183668 -0.395320 -1.923333 4.888188 -4.629938 0.020040 2.641879 -4.285315 -1.340264 -1.314455 -4.779425 2.711731 4.161458 3.142197 0.439696 -1.406590 -0.802888 2.352707 3.249124 1.672875 -4.989015 -2.988199 4.268048 -4.998130 -3.040617 0.792102 3.823193 0.921688 -0.886559 2.108758 -0.970708 3.065249 -0.042191 3.488215 3.705172 0.428902 -3.780161 3.299149 -4.060471 0.651031 -1.404481 0.800010 4.244218 0.393216 -0.632756 -3.682680 0.587824 -0.620120 0.069523 -2.779689 -4.918224 2.555292 -0.874925 -3.504813 0.980179 4.310662 2.896144 0.538573 -3.284853 -3.182354 -1.073474 -1.772537 -1.635631 0.979162 4.925579
-2.137290 -3.278186 -4.765216 4.411653 -1.429396 -0.028986 -4.957325 -3.771897 1.412244 -2.888533 -3.762961 -1.926422 -3.027234 1.952743 -3.992805 2.115152 -1.016155 -4.976343 -1.399066 -2.705955 4.983280 -2.122343 -3.787230 2.198938 -4.134853 0.787867 -4.350395 -4.783655 -4.187617 3.811676 4.935622 1.171893 2.029923 2.882210 3.259986 -3.575652 0.020040 2.641879 -4.285315 -1.788642 -1.314455 -4.779425 2.711731 4.161458 3.142197 -2.744796 -1.406590 -0.802888 2.352707 3.249124 -3.370257 -4.989015 -2.988199 4.268048 -4.998130 -3.040617 3.988115 3.823193 0.921688 -0.886559 2.108758 -0.970708 3.065249 -0.042191 3.488215 3.705172 0.428902 -3.780161 3.299149 -4.060471 0.651031 -1.404481 0.800010 4.244218 0.393216 -0.632756 -3.682680 0.587824 -0.620120 -3.626517 -2.779689 -4.918224 0.230870 -0.874925 -3.504813 0.980179 4.310662 2.896144 0.538573 4.111465 -3.182354 -1.073474 -1.772537 -1.635631 0.979162 4.925579
2.632817 -4.157626 2.622958 1.237620 4.915701 -1.537831 -4.957325 -3.771897 -0.482399 0.003603 1.286543 -3.014902 -4.225994 -4.369637 -3.992805 2.115152 -1.016155 -4.976343 2.728907 0.912965 4.983280 -2.122343 2.211957 -3.819890 -0.688792 1.707313 2.045099 -1.781191 -2.496236 -1.879484 3.211192 -1.297272 0.581451 0.784380 0.738422 -3.824600 0.717923 1.086913 1.188305 -1.340264 -1.314455 -1.173025 -0.332656 4.161458 3.142197 4.878101 -4.619133 1.613741 -1.185520 2.157273 -4.680570 0.651334 -3.214510 2.155735 -0.405078 2.377128 -0.270726 0.127591 -2.097018 2.342134 -0.103337 -4.230856 3.691975 -4.006804 -3.852914 0.585132 2.695928 4.668279 1.855667 -0.730827 -2.693665 2.550250 0.903270 2.419993 -1.457766 2.371315 -2.945694 3.733747 -4.635641 -4.755785 3.968728 2.624047 -1.753599 -3.484889 1.473766 0.469565 1.287975 3.363572 3.729525 -0.036143 2.483722 4.681240 0.730040 -2.121786 1.207368 -0.973533
2.632817 -4.157626 2.622958 1.237620 4.915701 -1.537831 -4.957325 -3.771897 -0.482399 0.003603 1.286543 -3.014902 -4.225994 -4.369637 -3.992805 2.115152 -1.016155 -4.976343 2.728907 0.912965 4.983280 -2.122343 2.211957 -3.819890 -0.688792 1.707313 2.045099 -1.781191 -2.496236 -1.879484 3.211192 -1.297272 0.581451 -4.622451 0.738422 -3.824600 0.717923 1.086913 1.188305 -1.340264 -1.314455 -4.779425 -0.332656 4.161458 3.142197 0.439696 3.952302 -0.802888 4.151051 3.249124 1.672875 -4.989015 -2.988199 -1.128358 -4.998130 0.263573 3.988115 3.823193 0.921688 -0.886559 2.108758 -0.970708 -3.246943 -0.042191 3.488215 3.705172 0.428902 -3.780161 3.299149 -4.060471 0.651031 -1.404481 0.800010 4.244218 0.393216 -0.632756 -3.682680 0.587824 -0.620120 -3.626517 -2.779689 -4.918224 2.555292 -0.874925 -1.024618 -3.874960 4.310662 2.896144 0.538573 -3.284853 -3.182354 -1.073474 -1.772537 -1.635631 0.979162 4.925579
2.632817 -4.157626 2.622958 1.237620 4.915701 -1.537831 -4.957325 -3.771897 -0.482399 0.003603 1.286543 -3.014902 -4.225994 -4.369637 -3.992805 2.957776 -1.016155 -4.976343 1.736529 -2.705955 4.983280 -2.122343 -3.787230 4.929354 -3.200854 4.801137 -2.369424 2.224545 -2.488705 3.985168 3.534499 1.183668 -0.395320 1.404917 3.882695 1.348415 0.020040 2.641879 -4.285315 -1.340264 -1.314455 -4.779425 2.711731 4.161458 3.142197 0.439696 -1.406590 -0.802888 2.352707 2.157273 -4.680570 0.651334 -3.214510 2.155735 -0.405078 2.377128 -0.270726 0.127591 -2.097018 2.342134 -0.103337 1.568937 -1.717047 -4.006804 -3.852914 0.585132 2.695928 4.668279 3.299149 -4.060471 0.651031 -1.404481 0.800010 4.244218 0.393216 -0.632756 -3.682680 0.587824 -0.620120 0.069523 -2.779689 -4.918224 2.555292 -0.874925 -3.504813 0.980179 4.310662 2.896144 0.538573 -3.284853 -3.182354 -1.073474 -1.772537 -1.635631 0.979162 4.925579
2.632817 -4.157626 2.622958 1.237620 4.915701 -1.537831 -4.957325 -3.771897 -0.482399 0.003603 1.286543 -1.926422 -3.027234 -1.100686 0.337642 -4.397903 -0.434308 -1.915940 1.812428 3.678157 -2.651271 -3.927355 -0.042177 3.232648 -0.160924 -0.100479 2.579278 -3.725675 2.440802 -0.649368 -4.308781 1.920349 -1.670133 -0.284093 4.221125 -2.303165 4.038367 -3.988631 0.751332 2.714200 -4.635801 4.653355 3.364300 4.826217 0.166200 2.031980 0.959913 -3.551358 1.987128 1.421019 -1.273972 -0.507538 -3.772459 3.769657 2.921640 4.164781 -4.954686 -4.891257 4.015859 2.648765 -0.092164 -4.230856 3.130660 -4.006804 3.992279 -3.401401 2.695928 -1.900684 1.855667 -1.395706 -2.693665 2.550250 0.903270 2.419993 -1.457766 2.371315 -1.103680 3.733747 -4.635641 -0.043580 3.681300 2.624047 -1.753599 -3.484889 -4.534738 0.469565 -0.611113 3.363572 3.729525 3.533817 2.483722 4.681240 0.730040 -2.121786 1.207368 -0.973533
2.632817 -4.157626 2.622958 1.237620 4.915701 -1.537831 -4.957325 -3.771897 -0.482399 0.003603 1.286543 -3.014902 -4.225994 -4.369637 -3.992805 2.115152 -1.016155 -4.976343 2.728907 0.912965 4.983280 -2.122343 2.211957 -3.819890 -0.688792 1.707313 2.045099 -1.781191 -2.496236 -1.879484 3.211192 -1.297272 0.581451 -4.622451 0.738422 -3.824600 0.717923 1.086913 1.188305 -1.340264 -1.314455 -4.779425 -0.332656 4.161458 3.142197 0.439696 -4.619133 1.613741 -1.439332 1.421019 -1.273972 -0.507538 -3.772459 3.769657 2.921640 4.164781 -4.954686 -4.891257 4.015859 2.648765 -0.092164 -3.885279 -4.854986 3.015440 2.502618 -2.971331 0.428902 -3.780161 3.299149 -4.718104 0.651031 -1.404481 0.800010 4.244218 0.393216 -0.632756 -3.682680 0.587824 -0.620120 -3.626517 -2.779689 -4.918224 2.555292 -3.220275 -3.504813 0.980179 4.310662 2.973786 0.538573 -3.284853 -1.785408 -3.510569 -1.772537 -1.635631 0.979162 4.925579
2.632817 -4.157626 2.622958 1.237620 4.915701 -1.537831 -4.957325 -3.771897 -0.482399 0.003603 1.286543 -3.014902 -4.225994 4.262221 -3.992805 2.115152 -1.016155 -4.976343 2.728907 0.912965 4.983280 3.352536 2.211957 -3.819890 -0.688792 1.707313 2.045099 -1.781191 -2.496236 -1.879484 3.211192 -1.297272 0.581451 -4.622451 0.738422 -3.824600 0.717923 1.086913 1.188305 -1.340264 0.873238 -4.779425 -0.332656 4.161458 3.142197 0.439696 -1.406590 -0.802888 2.352707 3.249124 1.672875 -4.989015 -2.988199 -1.128358 -4.998130 -3.040617 3.988115 3.823193 0.921688 -0.886559 2.108758 -0.970708 3.065249 -0.042191 3.488215 3.705172 0.428902 -3.780161 3.299149 -4.060471 0.651031 -1.404481 0.800010 4.244218 0.393216 -0.632756 -3.682680 0.587824 -0.620120 -3.626517 -4.818389 -4.918224 2.555292 -0.874925 -1.024618 0.980179 4.310662 2.896144 0.538573 -3.284853 -3.182354 -1.073474 -1.772537 -1.635631 4.433602 2.740559
2.632817 -4.157626 2.622958 -4.097293 4.915701 -1.537831 -4.957325 -3.771897 -0.482399 0.003603 1.286543 -3.014902 -4.225994 -4.369637 -3.992805 2.115152 -1.016155 -4.976343 2.728907 0.912965 4.983280 -2.122343 2.211957 -3.819890 -0.688792 1.707313 2.045099 -1.781191 -2.496236 -1.879484 3.211192 -1.297272 0.581451 -4.622451 0.738422 -3.824600 0.717923 1.086913 1.188305 -1.340264 -1.314455 -4.779425 -0.332656 4.161458 3.142197 0.439696 -1.406590 -0.802888 2.352707 3.249124 1.672875 -4.989015 -2.988199 -1.128358 -4.998130 -3.040617 3.988115 3.823193 0.921688 -0.886559 2.108758 -0.970708 3.065249 -0.042191 3.488215 3.705172 0.428902 -3.780161 3.299149 -4.060471 0.651031 -1.404481 0.800010 4.244218 0.393216 -0.632756 -3.682680 0.587824 -0.620120 -3.626517 -2.779689 -4.918224 2.555292 -0.874925 -1.024618 0.980179 4.310662 2.896144 0.538573 -3.284853 -3.182354 -1.073474 -1.772537 -1.635631 1.207368 -0.973533
-2.137290 -3.278186 -4.765216 4.411653 -1.429396 3.345662 1.327462 3.103417 1.412244 2.332357 -3.762961 -1.926422 -3.027234 -1.100686 0.337642 -4.397903 -0.434308 -1.915940 1.812428 3.678157 -2.651271 -3.927355 -0.042177 3.232648 -0.160924 4.707919 2.579278 -3.725675 2.440802 -0.649368 -4.308781 1.920349 -1.670133 -0.284093 4.221125 -2.303165 4.038367 -3.988631 0.751332 2.714200 -4.635801 4.653355 3.364300 -2.663739 -3.156937 4.878101 -4.619133 -0.802888 2.352707 3.249124 1.672875 -4.989015 -1.988861 -1.907549 -4.998130 -3.040617 3.988115 3.823193 0.921688 -0.886559 2.108758 -0.970708 3.065249 -0.042191 3.488215 3.705172 0.428902 -3.780161 3.299149 -4.060471 0.651031 -1.404481 0.800010 -4.789588 0.393216 1.518170 -3.682680 0.587824 -0.620120 -3.626517 -2.779689 -4.918224 2.555292 -3.220275 -3.504813 0.980179 4.310662 2.973786 0.538573 0.732625 -3.182354 -1.073474 -1.772537 -1.635631 -2.918965 4.925579
2.632817 -4.157626 2.622958 1.237620 4.915701 -1.537831 -4.957325 -3.771897 -1.941378 0.003603 1.286543 -3.014902 -4.225994 -4.369637 -3.992805 2.115152 -1.016155 -4.976343 2.728907 0.912965 4.983280 -2.122343 2.211957 -3.819890 -0.688792 1.707313 2.045099 -1.781191 -2.496236 -1.879484 3.211192 0.259297 0.581451 -4.622451 0.738422 -3.824600 0.717923 1.086913 1.188305 -1.340264 -1.314455 -4.779425 -0.332656 4.161458 3.142197 0.439696 -1.406590 -0.802888 2.352707 3.249124 1.672875 -0.507538 -3.772459 3.769657 2.921640 4.164781 -4.954686 -4.891257 4.015859 2.648765 -0.092164 -4.230856 3.130660 -4.006804 3.992279 0.585132 2.695928 4.668279 1.855667 -0.730827 -2.693665 -1.404481 0.800010 4.244218 0.393216 -0.632756 -3.682680 0.587824 -0.620120 -3.626517 -2.779689 -4.918224 2.555292 -0.874925 -1.024618 0.980179 4.310662 2.896144 0.538573 -3.284853 -3.182354 -1.073474 -1.772537 -1.635631 0.979162 4.925579
2.632817 -4.157626 2.622958 1.237620 4.915701 -1.537831 -4.957325 -3.771897 -0.482399 0.003603 1.286543 0.349787 -4.225994 -4.369637 -3.992805 2.115152 -1.016155 -4.976343 1.736529 -2.705955 4.983280 -2.122343 -3.787230 4.929354 -3.200854 4.801137 1.694633 2.224545 -2.488705 3.985168 3.534499 1.183668 -0.395320 1.404917 4.888188 1.348415 0.020040 2.641879 -4.285315 4.582521 -1.314455 4.895751 -0.332656 4.161458 3.142197 0.439696 -1.406590 -0.802888 2.352707 3.249124 1.672875 -4.989015 -2.988199 4.268048 -4.998130 -3.040617 3.988115 3.823193 0.921688 2.342134 -0.103337 -4.230856 3.130660 3.898973 -3.852914 0.585132 2.695928 4.668279 1.855667 -0.730827 -2.693665 4.888796 0.800010 4.244218 0.393216 -0.632756 -3.682680 0.587824 -0.620120 -3.626517 -2.779689 -4.918224 2.555292 -3.220275 -3.504813 0.980179 4.310662 2.973786 0.538573 -3.284853 -3.182354 -1.073474 -1.772537 -1.635631 0.979162 4.925579
2.632817 -4.157626 2.622958 1.237620 4.915701 -1.537831 -4.957325 -3.771897 -0.482399 2.790129 1.286543 -3.014902 -4.225994 -4.369637 -3.992805 2.565535 -1.016155 -4.976343 1.736529 -2.705955 4.983280 -2.122343 -3.787230 4.929354 -3.200854 4.801137 0.170024 2.711399 3.661437 1.405460 -3.684385 0.461160 3.776622 -2.228995 -0.910330 1.697196 -2.277399 -2.712152 -4.287697 -1.291413 0.124300 2.920982 0.645706 4.826217 0.166200 2.031980 4.746514 -3.551358 -1.439332 1.421019 -1.273972 -0.507538 -3.772459 3.769657 2.921640 4.164781 -4.954686 -4.891257 4.015859 2.648765 -0.092164 -4.230856 3.130660 -4.006804 3.992279 0.585132 2.695928 4.668279 1.855667 -0.730827 -2.693665 2.550250 0.903270 2.419993 -1.457766 -0.632756 -3.682680 0.587824 -0.620120 -3.626517 -2.779689 -4.918224 2.555292 -3.220275 -3.504813 -0.047102 4.310662 2.973786 0.538573 -3.284853 -3.182354 -3.595692 -1.772537 -1.635631 0.979162 4.925579
-2.048607 -4.320379 2.271010 -3.536249 2.542566 0.117020 -3.740947 -3.771897 -0.482399 0.003603 1.222208 -4.981968 -4.225994 -4.369637 -3.992805 2.115152 -1.016155 -4.976343 1.736529 -2.705955 4.983280 -2.122343 -3.787230 4.929354 -3.200854 4.801137 0.170024 2.711399 3.661437 1.405460 -3.684385 0.461160 3.776622 -2.228995 -0.910330 1.697196 -2.277399 0.926751 4.429802 -1.340264 -1.314455 -4.779425 2.711731 4.161458 3.142197 -2.744796 -1.406590 -0.802888 2.352707 3.249124 -3.370257 -4.989015 -2.988199 4.268048 -4.998130 -3.040617 3.988115 3.823193 0.921688 -0.886559 2.108758 -0.970708 3.065249 -0.042191 3.488215 3.705172 0.428902 -3.780161 3.299149 -4.060471 0.651031 -1.404481 -4.350621 4.244218 0.393216 -0.632756 -3.682680 0.587824 -0.620120 -3.626517 -2.779689 -4.918224 0.230870 -0.874925 -3.504813 0.980179 -4.860203 2.896144 0.538573 4.111465 -3.182354 -1.073474 -1.772537 -1.635631 0.979162 4.925579
-2.137290 -3.278186 -4.765216 4.411653 -1.429396 -0.028986 1.327462 3.103417 1.412244 -2.888533 -3.762961 -1.926422 -3.027234 -1.100686 0.337642 2.395696 -0.434308 -1.915940 1.812428 3.678157 -2.651271 -3.927355 -0.042177 3.232648 -0.160924 -0.100479 2.579278 -2.025311 2.440802 -0.649368 -4.308781 1.920349 -1.670133 -0.284093 4.221125 -2.303165 4.038367 -3.988631 0.751332 2.714200 -4.635801 4.653355 3.364300 -2.663739 -3.156937 4.878101 -4.619133 1.613741 -1.185520 2.157273 -4.680570 0.651334 -3.214510 2.155735 -0.405078 2.377128 -0.270726 0.127591 -2.097018 2.342134 -0.103337 -4.230856 -1.717047 -4.006804 -3.852914 0.585132 2.695928 4.668279 1.855667 1.250880 0.099036 1.209698 -0.958899 3.103101 1.481328 -0.102684 4.778960 3.538380 -2.063094 -4.830985 3.968728 -3.870951 -1.753599 -3.484889 4.291252 0.188965 -1.602660 1.879242 -4.698046 -3.166487 3.222339 2.915888 4.093070 -0.491518 4.433602 2.740559
2.632817 3.098575 2.622958 1.237620 4.915701 -1.537831 -4.957325 -3.771897 -0.482399 0.003603 1.222208 -3.014902 -4.225994 -4.369637 -3.992805 2.115152 -1.016155 -4.976343 1.736529 -2.705955 4.983280 -2.548665 -3.787230 4.929354 -3.200854 4.801137 1.694633 2.224545 -2.488705 3.985168 3.534499 1.183668 -0.395320 1.404917 4.888188 1.348415 0.020040 2.641879 -4.285315 -1.340264 -0.864312 -4.779425 -0.332656 4.161458 3.142197 0.439696 -1.406590 -0.802888 2.352707 3.249124 1.672875 -4.989015 -2.988199 4.268048 -4.998130 -3.040617 0.792102 3.823193 0.921688 -0.886559 2.108758 -0.970708 3.065249 -0.042191 3.488215 3.705172 0.428902 -3.780161 3.299149 -4.060471 0.651031 -1.404481 0.800010 4.244218 0.393216 -0.632756 -3.682680 0.587824 -0.620120 -3.626517 -2.779689 -4.918224 0.230870 -0.874925 -3.504813 0.980179 4.310662 2.896144 0.538573 -3.284853 -3.182354 -1.073474 -1.772537 -1.635631 0.979162 4.925579
-2.048607 -4.320379 2.271010 -3.536249 2.542566 0.117020 -3.740947 -3.771897 -0.482399 0.003603 1.222208 -1.926422 -3.027234 -1.100686 0.337642 -4.397903 -0.434308 -1.915940 1.812428 3.678157 -2.651271 -3.927355 -0.042177 3.232648 -0.160924 -0.100479 2.579278 -3.725675 2.440802 -0.649368 -4.308781 1.920349 -1.670133 -0.284093 4.221125 -2.303165 4.038367 -3.988631 0.751332 2.714200 -4.635801 4.653355 3.364300 -2.663739 -3.156937 4.878101 -4.619133 1.613741 -1.185520 2.157273 2.185591 0.651334 -3.214510 2.155735 -0.405078 2.377128 -0.270726 0.127591 -2.097018 2.342134 -0.103337 -4.230856 3.130660 -3.923868 -3.852914 -3.401401 2.695928 -1.900684 1.855667 -1.395706 -2.693665 2.550250 0.903270 2.419993 -1.457766 2.371315 -1.103680 3.733747 -4.635641 -0.043580 3.968728 2.624047 -1.753599 -3.484889 -4.534738 0.469565 1.287975 3.363572 3.729525 3.533817 2.483722 4.681240 0.730040 -2.121786 1.207368 -0.973533
2.632817 -4.157626 2.622958 1.237620 4.915701 -1.537831 -4.957325 -3.771897 -0.482399 0.003603 1.286543 -3.014902 -4.225994 -4.369637 -3.992805 2.115152 -1.016155 4.359854 1.736529 -2.705955 4.983280 -2.122343 -3.787230 4.929354 -3.200854 4.801137 1.694633 2.224545 -2.488705 3.985168 3.534499 1.183668 -0.395320 1.404917 4.888188 -2.303165 4.038367 -3.988631 0.751332 2.714200 -4.635801 4.653355 3.364300 -2.663739 -3.156937 4.878101 -4.619133 1.613741 -1.185520 2.157273 -4.680570 0.651334 -3.214510 2.155735 -0.405078 2.377128 -0.270726 0.127591 -2.097018 2.342134 -0.103337 -4.230856 -1.717047 -4.006804 -3.852914 0.585132 2.695928 4.668279 1.855667 -0.730827 -2.693665 2.550250 0.903270 2.419993 -1.457766 2.371315 -2.945694 3.733747 -4.635641 -4.755785 3.968728 2.624047 -1.753599 -3.484889 1.473766 0.469565 1.287975 3.363572 3.729525 -0.036143 2.483722 4.681240 0.730040 -2.121786 1.207368 -0.973533
-2.137290 -3.278186 -4.765216 4.411653 -1.429396 -0.028986 1.327462 1.969008 1.412244 -2.888533 -3.762961 -1.926422 -3.027234 -1.100686 0.337642 -4.397903 1.682672 -1.915940 1.812428 3.678157 -2.651271 3.335379 -0.042177 3.232648 -0.160924 -0.100479 2.579278 -3.725675 2.440802 -0.649368 -4.308781 1.920349 -1.670133 -0.284093 4.221125 -2.303165 4.038367 -3.988631 0.751332 2.714200 -4.635801 4.653355 3.364300 -2.663739 -3.156937 4.878101 -4.619133 1.613741 -1.185520 2.157273 2.185591 0.651334 -3.214510 2.155735 -0.405078 2.377128 -0.270726 0.127591 -2.097018 2.342134 -0.103337 -4.230856 3.130660 -3.923868 -3.852914 -3.401401 -3.572709 -1.900684 1.855667 -1.395706 -2.693665 2.550250 0.903270 2.419993 -1.457766 2.371315 -1.103680 3.733747 -4.635641 -0.043580 3.968728 2.624047 -1.753599 -3.484889 -4.534738 0.469565 1.287975 3.363572 3.729525 3.533817 2.483722 4.681240 0.730040 -2.121786 0.979162 4.925579
-2.048607 -4.320379 2.271010 -3.536249 2.542566 0.117020 0.909609 -3.771897 -0.482399 0.003603 1.222208 -4.981968 -4.225994 -4.369637 -3.992805 2.115152 -1.016155 -4.976343 1.736529 4.681601 4.983280 -2.122343 -3.787230 4.929354 -3.200854 4.801137 0.170024 2.711399 3.661437 1.405460 -3.684385 0.461160 3.776622 -2.228995 -0.910330 1.697196 -2.277399 -2.712152 -4.287697 -1.340264 -1.314455 -4.779425 2.711731 4.161458 3.142197 -2.744796 -1.406590 -0.802888 2.352707 3.249124 1.672875 -4.989015 -2.988199 4.268048 -4.998130 -3.040617 3.988115 3.823193 0.921688 -0.886559 2.108758 0.492443 3.065249 -0.042191 3.488215 3.705172 0.428902 -3.780161 3.299149 -4.060471 0.651031 -1.404481 -4.464764 -4.789588 0.393216 -0.632756 -3.682680 0.587824 -0.620120 -3.626517 -2.779689 -4.918224 2.555292 -3.315037 -3.504813 2.776766 4.310662 2.896144 0.538573 -3.284853 -3.182354 -1.073474 -1.772537 -1.635631 0.979162 4.925579
2.632817 3.098575 2.622958 1.237620 4.915701 -1.537831 -4.957325 -3.771897 -0.482399 0.003603 1.222208 -3.014902 -4.225994 -4.369637 -3.992805 2.115152 -1.016155 -4.976343 1.736529 -2.705955 -1.919306 -2.122343 2.211957 3.882310 -0.688792 -2.083329 2.045099 -1.781191 -2.496236 -1.879484 3.211192 -1.297272 0.581451 -4.622451 0.738422 -3.824600 3.626101 1.086913 -3.717589 3.272828 4.268164 2.748368 0.988589 3.379864 -4.041648 -4.687157 -2.943388 -2.527752 0.331286 2.616619 -2.111301 -4.989015 -2.988199 4.268048 -1.143336 0.570331 -3.641256 0.719525 1.561462 3.245295 2.235195 -1.642034 4.040056 1.467575 1.971932 2.298308 0.628784 2.746093 -3.951422 1.250880 0.099036 1.209698 -0.958899 3.103101 1.481328 -0.102684 4.778960 3.538380 -2.063094 -4.830985 3.968728 2.624047 -1.753599 -3.484889 4.291252 0.188965 -1.602660 1.879242 -4.698046 -3.166487 3.222339 2.915888 4.093070 -0.491518 4.433602 2.740559
2.632817 -4.157626 2.622958 1.237620 4.915701 -1.537831 -4.957325 -3.771897 -0.482399 0.003603 1.286543 -3.014902 -4.225994 -4.369637 -3.992805 2.565535 -1.016155 -4.976343 -1.399066 -2.705955 4.983280 -2.122343 -3.787230 2.198938 -4.134853 0.787867 -4.350395 -4.783655 -4.187617 3.811676 4.935622 1.171893 2.029923 2.882210 4.665203 -3.037881 -0.885989 -1.016937 -3.117898 4.419169 4.157513 -1.858309 2.129030 -1.956074 2.430198 -2.744796 -1.406590 -0.802888 2.352707 3.249124 1.672875 -4.989015 -2.988199 4.268048 -4.998130 -3.040617 3.988115 3.823193 0.921688 -0.886559 2.108758 -0.970708 3.065249 -0.042191 3.488215 3.705172 0.428902 -3.780161 3.299149 -4.060471 0.651031 -1.404481 0.800010 -4.789588 0.393216 -0.632756 -3.682680 0.587824 -0.620120 -3.626517 -2.779689 -4.918224 2.555292 -3.220275 -3.504813 0.980179 4.310662 2.973786 0.538573 -3.284853 -3.182354 -1.073474 -1.772537 -1.635631 0.979162 4.925579
2.632817 -4.320379 2.271010 -3.536249 4.915701 -1.537831 -4.957325 -3.771897 -0.482399 0.003603 1.222208 -3.014902 -4.225994 -4.369637 -3.992805 2.115152 -1.016155 -4.976343 -1.399066 -2.705955 4.983280 -2.122343 -3.787230 2.198938 -4.134853 0.787867 -4.350395 -4.783655 -4.187617 3.811676 4.935622 1.171893 2.029923 2.882210 4.665203 -3.037881 -0.885989 -1.016937 -3.117898 4.419169 4.157513 -1.858309 2.129030 -1.956074 2.430198 2.400784 -0.971402 -3.923578 4.435245 -0.448571 -3.423807 3.650652 1.425745 -4.604007 -1.143336 0.570331 -3.641256 0.719525 1.561462 3.245295 2.235195 -1.642034 4.040056 1.467575 1.971932 2.298308 0.628784 2.746093 -3.951422 1.250880 0.099036 1.209698 -0.958899 3.103101 1.481328 -0.102684 4.778960 3.538380 -2.063094 -4.830985 3.968728 2.624047 -1.753599 -3.484889 -3.504813 0.980179 4.310662 2.973786 0.538573 -3.284853 -1.785408 -3.510569 -1.772537 -1.635631 0.979162 4.925579
2.632817 3.098575 2.622958 1.237620 4.915701 -1.537831 -4.957325 -3.771897 -0.482399 0.003603 1.222208 -3.014902 -4.225994 -4.369637 -3.992805 2.115152 -1.016155 -4.976343 1.736529 -2.705955 -1.919306 -2.122343 2.211957 3.882310 -0.688792 1.707313 2.045099 -1.781191 -2.496236 -1.879484 3.211192 -1.297272 0.581451 -4.622451 0.738422 -3.824600 3.626101 1.086913 -3.717589 3.272828 4.268164 2.748368 0.988589 3.379864 -4.041648 -4.687157 -2.943388 -2.527752 0.331286 2.616619 -1.273972 -0.507538 -3.772459 3.769657 2.921640 4.164781 -4.954686 -4.891257 4.015859 2.648765 -0.092164 -3.885279 -4.854986 3.015440 2.502618 -2.971331 0.428902 1.987395 3.299149 -4.718104 0.651031 -1.404481 0.800010 4.244218 0.393216 -0.632756 -3.682680 0.587824 -0.620120 -3.626517 -2.779689 -4.918224 2.555292 1.228408 -3.504813 0.980179 4.310662 2.973786 0.538573 -3.284853 -1.785408 -3.510569 -1.772537 -1.635631 0.979162 4.925579
-2.048607 -4.320379 2.271010 -3.536249 2.542566 0.117020 -3.740947 -3.771897 -0.482399 0.003603 1.222208 -4.981968 -4.225994 -4.369637 -3.992805 2.115152 3.127484 -4.976343 1.736529 -2.705955 4.983280 -2.122343 -3.787230 4.929354 -3.200854 4.801137 0.170024 1.782843 3.661437 1.405460 -3.684385 0.461160 3.776622 -2.228995 -0.910330 1.697196 -2.277399 -2.712152 -4.287697 -1.340264 -1.314455 -4.779425 2.711731 4.161458 3.142197 -2.744796 -1.406590 -0.802888 2.352707 3.249124 1.672875 -4.989015 -2.988199 4.268048 -4.998130 -3.040617 3.988115 3.823193 0.921688 -0.886559 2.108758 0.492443 3.065249 -0.042191 3.488215 3.705172 0.428902 -3.780161 3.299149 -4.060471 0.651031 -1.404481 0.800010 -4.789588 0.393216 -0.632756 -3.682680 0.587824 -0.620120 -3.626517 -2.779689 -4.918224 2.555292 -3.220275 -3.504813 0.980179 4.310662 1.515444 0.538573 -3.284853 -3.182354 -1.073474 -1.772537 -1.635631 0.979162 4.925579
-2.048607 -4.320379 2.271010 -3.536249 2.542566 0.117020 -3.740947 -3.771897 -0.482399 0.003603 1.222208 -4.981968 -4.225994 -4.369637 -3.992805 2.115152 -1.016155 -4.976343 1.736529 -2.705955 4.983280 -2.122343 -3.787230 4.929354 -3.200854 4.801137 0.170024 2.711399 3.661437 1.405460 -3.684385 0.461160 3.776622 -2.228995 -0.910330 1.697196 -2.277399 -2.712152 -4.287697 -1.340264 -1.314455 -4.779425 2.711731 4.161458 -4.041648 -4.687157 -2.943388 -2.527752 0.331286 -0.492302 -2.111301 -4.989015 -2.988199 4.268048 -4.998130 -3.040617 3.988115 3.823193 0.921688 -0.886559 2.108758 -0.970708 -3.246943 -0.042191 3.488215 3.705172 0.428902 -3.780161 3.299149 -4.718104 0.651031 -1.404481 0.982662 4.244218 0.393216 2.371315 -1.103680 3.733747 -0.620120 -3.626517 -2.779689 -4.918224 2.555292 -3.220275 -3.504813 0.980179 4.310662 1.515444 0.538573 -3.284853 -3.182354 -1.073474 -1.772537 -1.635631 0.979162 4.925579
2.632817 -4.157626 2.622958 1.237620 4.915701 -1.537831 -4.957325 -3.771897 -0.482399 0.003603 1.286543 -3.014902 -4.225994 -4.369637 -3.992805 2.115152 -1.016155 -4.976343 2.728907 0.912965 4.983280 -2.122343 2.211957 -3.819890 -0.688792 4.801137 -2.369424 2.224545 -2.488705 3.985168 3.534499 1.183668 -0.395320 1.404917 4.888188 1.348415 0.020040 2.641879 -4.285315 -1.340264 -1.314455 -4.779425 2.711731 2.258134 3.142197 0.439696 -1.406590 -0.802888 2.352707 3.249124 1.672875 -4.989015 -2.988199 4.268048 -4.998130 -3.040617 0.792102 3.823193 0.921688 -0.886559 2.108758 -0.970708 3.065249 -0.042191 3.488215 3.705172 0.428902 -3.780161 3.299149 -4.060471 0.651031 -1.404481 0.800010 4.244218 0.393216 -0.632756 -3.682680 0.587824 -0.620120 0.069523 -2.779689 -4.918224 2.555292 -0.874925 -3.504813 0.980179 4.310662 2.896144 0.538573 -3.284853 -3.182354 -1.073474 -1.772537 -1.635631 0.979162 4.925579
-2.048607 -4.320379 2.271010 -3.536249 2.542566 0.117020 -4.957325 -3.771897 -0.482399 0.003603 1.222208 -4.981968 -4.225994 -4.369637 -3.992805 -1.640895 -1.016155 -4.976343 1.736529 -2.705955 4.983280 -2.122343 -3.787230 4.929354 2.146067 4.801137 0.170024 2.711399 3.661437 1.405460 -3.684385 0.461160 3.776622 -2.228995 -0.910330 0.680902 -0.754517 2.607260 -3.302248 3.574326 -0.666712 1.074601 2.277816 2.601574 -3.156937 4.878101 -4.619133 1.613741 -1.439332 1.421019 -1.273972 -0.507538 -2.988199 -1.907549 -4.998130 -3.040617 3.988115 3.823193 0.921688 -0.886559 2.108758 -0.970708 3.065249 -0.042191 3.488215 3.705172 0.428902 -3.780161 3.299149 -4.060471 0.651031 -1.404481 0.800010 -4.789588 0.393216 -0.632756 -3.682680 0.587824 -0.620120 -3.626517 -2.779689 -4.918224 2.555292 -3.220275 -3.504813 0.980179 4.310662 2.973786 0.538573 0.732625 -3.182354 -1.073474 -1.772537 -1.635631 0.979162 4.925579
-2.137290 -3.278186 0.374536 4.411653 4.560339 0.020472 1.327462 3.103417 1.412244 -2.888533 -3.762961 -3.014902 -4.225994 -4.369637 -3.992805 2.565535 -1.016155 -4.976343 1.736529 -2.705955 4.983280 -2.122343 -3.787230 -0.646531 -3.200854 4.801137 0.170024 2.711399 3.661437 1.405460 -3.684385 0.461160 3.776622 -2.228995 -0.910330 1.697196 -2.277399 -2.712152 -4.287697 -1.291413 0.124300 2.920982 0.645706 4.826217 0.166200 2.031980 4.746514 -3.551358 -1.439332 1.421019 -1.273972 -0.507538 -3.772459 3.769657 2.921640 4.164781 -4.954686 -4.891257 4.015859 2.648765 -0.092164 -4.230856 3.130660 -4.006804 3.992279 0.585132 2.695928 4.668279 1.855667 -0.730827 -2.693665 2.550250 0.903270 2.419993 -1.457766 -0.632756 -3.682680 0.587824 -0.620120 -3.626517 -2.779689 -4.918224 2.555292 -3.315037 -3.504813 2.776766 4.310662 2.896144 0.538573 -3.284853 -3.182354 -1.073474 -1.772537 -1.635631 0.979162 4.925579
-3.869809 -4.157626 2.622958 1.237620 4.915701 -1.537831 -4.957325 -3.771897 -0.482399 0.003603 1.286543 -3.014902 -4.225994 -4.369637 -3.992805 2.115152 -1.016155 -4.976343 2.728907 0.912965 4.983280 -2.122343 2.211957 -3.819890 -0.688792 1.707313 2.045099 -1.781191 -2.496236 -1.879484 3.211192 -1.297272 -3.616408 -4.622451 0.738422 -3.824600 0.717923 1.086913 1.188305 -1.340264 -1.314455 -4.779425 2.653246 4.161458 3.142197 0.439696 -1.406590 -0.802888 2.352707 3.249124 1.672875 -4.989015 -2.988199 4.268048 -4.998130 -3.040617 3.988115 3.823193 0.921688 -0.886559 2.108758 -0.970708 -3.246943 -0.042191 3.488215 3.705172 0.428902 -3.780161 3.299149 -0.730827 -2.693665 2.848197 0.903270 2.419993 -1.457766 2.371315 -1.103680 3.733747 -0.620120 -3.626517 -2.779689 -4.918224 2.555292 -0.874925 -1.024618 0.980179 4.310662 2.896144 0.538573 -3.284853 -3.182354 -1.073474 -1.772537 -1.635631 0.979162 4.925579
-2.137290 -3.278186 0.374536 4.083694 4.560339 0.020472 1.327462 -4.521949 1.412244 -2.888533 -3.762961 3.818077 -3.027234 1.952743 0.337642 3.371365 -0.434308 -1.983195 1.812428 3.678157 -4.135784 -2.274981 1.965872 3.726849 -2.722414 1.032548 4.002741 -0.316578 -0.354825 4.146864 -3.614283 1.523328 -4.940681 -1.424657 2.216820 0.575009 0.020040 2.641879 -4.285315 -1.340264 -1.314455 -4.779425 -0.332656 4.161458 3.142197 0.439696 -1.406590 -0.802888 2.352707 3.249124 1.672875 -4.989015 -2.988199 4.268048 -4.998130 -3.040617 3.988115 3.823193 -1.052364 -4.071943 -4.286127 -1.642034 -4.854986 -4.889534 2.502618 4.717908 0.428902 -3.780161 3.299149 -4.718104 0.651031 -1.404481 -0.684062 4.244218 0.393216 2.161130 -3.682680 -4.568580 -4.635641 -4.755785 3.968728 2.624047 -1.753599 2.103620 1.473766 0.980179 4.310662 2.973786 0.538573 -3.284853 -3.182354 -1.073474 -1.772537 -0.519368 0.979162 4.925579
-2.137290 -3.278186 -4.765216 4.411653 -1.429396 -0.028986 -4.957325 -3.771897 1.412244 2.964623 -3.762961 -1.926422 -3.027234 1.952743 0.337642 -4.397903 -0.434308 -1.915940 1.812428 3.678157 -2.651271 -3.927355 -0.042177 -1.322688 -0.160924 -0.100479 -2.369424 2.224545 -2.488705 3.985168 3.534499 1.183668 -0.395320 0.697491 4.888188 1.348415 0.020040 2.641879 -4.285315 -1.788642 -1.314455 -4.779425 2.711731 4.161458 3.142197 -2.744796 -1.406590 -0.802888 2.352707 3.249124 -3.370257 -4.989015 -2.988199 4.268048 -4.998130 -3.040617 3.988115 3.823193 0.921688 -0.886559 2.108758 -0.970708 3.065249 -0.042191 3.488215 3.705172 0.428902 -3.780161 3.299149 -4.060471 0.651031 -1.404481 0.800010 4.244218 0.393216 -0.632756 -3.682680 0.587824 -0.620120 -3.626517 -2.779689 -4.918224 0.230870 -0.874925 -3.504813 0.980179 4.310662 2.896144 0.538573 4.111465 -3.182354 -1.073474 -1.772537 -1.635631 0.979162 -1.114114
2.632817 -4.157626 2.622958 1.237620 4.915701 -1.537831 -4.957325 -3.771897 -0.482399 0.003603 1.286543 -3.014902 -4.225994 -4.369637 -3.992805 2.565535 -1.016155 -4.976343 1.736529 -2.705955 4.983280 -2.122343 -3.787230 4.929354 -3.200854 4.801137 0.170024 2.711399 3.661437 1.405460 3.211192 -1.297272 0.581451 -4.622451 0.738422 -3.824600 3.626101 1.086913 -3.717589 3.272828 4.268164 2.748368 0.988589 3.379864 -4.041648 -4.687157 -2.943388 -2.527752 0.331286 2.616619 4.123208 -4.989015 -2.988199 4.268048 -4.998130 -3.040617 3.988115 3.823193 0.921688 -0.886559 2.108758 -0.970708 -3.246943 -0.042191 3.488215 3.705172 0.428902 -3.780161 3.299149 -0.730827 -2.693665 2.550250 0.903270 2.419993 -1.457766 2.371315 -1.103680 3.733747 -0.620120 2.229351 -2.779689 -4.918224 2.555292 -3.220275 -3.504813 0.980179 4.310662 2.973786 0.538573 -3.284853 -3.182354 -1.073474 -1.772537 -1.635631 0.979162 4.925579
2.632817 -4.157626 2.622958 1.237620 4.915701 -1.537831 -4.957325 -3.771897 -0.482399 0.003603 1.286543 -3.014902 -4.225994 -4.369637 -3.992805 2.115152 -1.016155 -4.976343 2.728907 0.912965 4.983280 -2.122343 2.211957 -3.819890 -0.688792 1.707313 2.045099 -1.781191 -2.496236 -1.879484 3.211192 -1.297272 0.581451 -4.622451 0.738422 -3.824600 0.717923 1.086913 1.188305 -1.340264 -1.314455 -4.779425 -0.332656 4.161458 3.142197 0.439696 -1.406590 -0.802888 2.352707 3.249124 1.672875 -4.989015 -2.988199 -1.128358 -4.998130 -3.040617 3.988115 3.823193 0.921688 -0.886559 2.108758 -0.970708 3.065249 -0.042191 3.488215 3.705172 0.428902 -3.780161 3.299149 -4.060471 0.651031 -1.404481 0.800010 4.244218 0.393216 -0.632756 -3.682680 0.587824 -0.620120 -3.626517 -2.779689 -4.918224 2.555292 -0.874925 -1.024618 0.980179 4.310662 2.896144 0.538573 -3.284853 -3.182354 -1.073474 -1.772537 -1.635631 0.979162 4.925579
-2.137290 -3.278186 -4.765216 4.411653 -1.429396 -0.028986 1.327462 3.103417 1.412244 -2.888533 -3.762961 -1.926422 -3.027234 -1.100686 0.337642 2.395696 -0.434308 -1.915940 1.812428 3.678157 -2.651271 -3.927355 -0.042177 3.232648 -0.160924 -0.100479 2.579278 -3.725675 2.440802 -0.649368 -4.308781 1.920349 -1.670133 -0.284093 4.221125 -2.303165 4.038367 -3.988631 0.751332 2.714200 -4.635801 4.653355 3.364300 -2.663739 -3.156937 4.878101 -4.619133 1.613741 -1.185520 2.157273 -4.680570 0.651334 -3.214510 2.155735 -0.405078 2.377128 -0.270726 0.127591 -2.097018 2.342134 -0.103337 -4.230856 -1.717047 -4.006804 -3.852914 0.585132 2.695928 4.668279 1.855667 -0.730827 -2.693665 2.550250 0.903270 2.419993 -4.050560 2.371315 -2.945694 3.733747 -4.635641 -4.755785 3.968728 2.624047 -1.753599 -3.484889 1.473766 0.469565 1.287975 3.363572 3.729525 -0.036143 2.483722 4.681240 0.730040 -2.121786 1.207368 -0.973533
2.632817 3.098575 2.622958 1.237620 4.915701 -1.537831 -4.957325 -3.771897 -0.482399 0.003603 1.222208 -3.014902 -4.225994 -4.369637 -3.992805 2.115152 -1.016155 -4.976343 1.736529 3.937834 4.983280 -2.548665 -3.787230 4.929354 -3.200854 3.865379 1.694633 2.224545 -2.488705 3.985168 3.534499 1.183668 -0.395320 1.404917 4.888188 1.348415 0.020040 2.641879 -4.285315 -1.340264 -1.314455 -4.779425 -0.332656 4.161458 3.142197 0.439696 -1.406590 -0.802888 2.352707 3.249124 1.672875 -4.989015 -2.988199 4.268048 -4.998130 -3.040617 0.792102 3.823193 0.921688 -0.886559 2.108758 -0.970708 3.065249 -0.042191 3.488215 3.705172 0.428902 -3.780161 3.299149 -4.060471 0.651031 -1.404481 0.800010 4.244218 0.393216 -0.632756 -3.682680 0.587824 -0.620120 -3.626517 -2.779689 -4.918224 0.230870 0.881407 -3.504813 0.980179 4.310662 2.896144 0.538573 -3.284853 -3.182354 -1.073474 -1.772537 -1.635631 0.979162 4.925579
