2.454168302673868318e+00 3.577702880455841949e+00 3.101859088480976467e+00 -3.798614808083291550e-01 2.984094817899917373e+00 2.554318453503785946e+00 4.091168855629756962e+00 4.102167604049254734e+00 3.191424405757842919e+00 4.425074117614391511e+00 -3.529075006352972999e+00 -2.898549296641182771e+00 -2.737516579300185438e+00 -2.657465224832611383e-01 -4.173890781392599614e+00 1.661621224018615450e+00 3.346017804367848569e+00 -1.800264752575999605e+00 1.012529841458297497e+00 4.245177923554660282e+00 -3.179161447863409151e+00 -9.500722430215704506e-01 1.466180409721141942e+00 -3.830881401093040317e+00 1.586627845384604996e-01 -3.753197295813688328e-01 -4.799340361098542118e+00 1.310113804532267778e+00 -1.426435667584598832e+00 3.917146031837022591e+00 -3.181020955396096639e-01 9.096801358576129815e-01 -2.345210162611019999e+00 2.084867403902447514e+00 -2.057591153788216332e+00 -4.102246293962208412e-01 3.055285779751290676e+00 -1.241700310882251301e+00 3.492927713165723702e+00 -1.090195180710481715e+00 3.679424402403160599e+00 -4.855819640137504223e-02 4.395055311895436745e+00 -3.383090674532844844e+00 6.665596043261645676e-01 3.689335006285235252e+00 1.010718699606627524e-01 2.076634105093235760e+00 3.991717133209998991e+00 3.909619667496311735e+00 2.031491998891646666e+00 1.149862154089111854e-01 4.298590708087886014e+00 4.348313819880898379e+00 4.811196057331020626e+00 -2.120124843102325407e+00 4.263901090977098463e+00 4.057196665244161338e+00 -4.437845920247020182e+00 4.721016532085279493e+00 -1.747399965803389854e+00 3.116985444805386862e-02 2.143395138019732471e-01 3.199864363009156776e+00 1.386635295396684953e+00 3.158717893035287716e-01 -6.848697530149507884e-01 1.970657909868256397e-01 1.563793016883364473e+00 -7.143869758069323339e-01 3.030609920127245616e+00 1.124339311751373138e+00 4.928645272486459561e+00 -1.921210000520389372e+00 1.963020818362412712e+00 5.776401730515914323e-01 1.302561624268909313e+00 4.003028333707623787e+00 4.815505137572635874e+00 3.608307045927894308e-02 -4.441579787085109032e+00 -4.363159054693339201e+00 -4.491001012904716205e-01 -4.623141917901493869e+00 1.383369090074965335e+00 4.104797127111455168e+00 3.007659587845301630e-01 -2.976288182307367247e+00 -3.202207061216075790e+00 -4.026696074180597051e+00 3.455415780357078859e+00 4.969631395501215465e+00 -3.269716013168413316e+00 -4.673628639759730419e-02 -3.802585619918069426e+00 -3.060709867154148611e+00
2.454168302673868318e+00 2.163690645003715218e+00 3.101859088480976467e+00 -3.798614808083291550e-01 2.984094817899917373e+00 2.554318453503785946e+00 4.091168855629756962e+00 1.765070501490959565e+00 3.191424405757842919e+00 3.306957487922142391e+00 -3.529075006352972999e+00 -2.898549296641182771e+00 -2.737516579300185438e+00 -2.657465224832611383e-01 1.157284815189155935e+00 1.661621224018615450e+00 3.346017804367848569e+00 -1.800264752575999605e+00 1.012529841458297497e+00 4.509386023541367194e+00 -3.179161447863409151e+00 -9.500722430215704506e-01 1.466180409721141942e+00 -3.830881401093040317e+00 1.586627845384604996e-01 -3.753197295813688328e-01 -4.799340361098542118e+00 1.310113804532267778e+00 -1.426435667584598832e+00 3.917146031837022591e+00 -3.181020955396096639e-01 -2.151621518902386843e+00 -2.345210162611019999e+00 2.084867403902447514e+00 -2.057591153788216332e+00 -4.102246293962208412e-01 3.055285779751290676e+00 -1.241700310882251301e+00 3.492927713165723702e+00 -1.090195180710481715e+00 3.679424402403160599e+00 -4.855819640137504223e-02 4.395055311895436745e+00 -3.383090674532844844e+00 6.665596043261645676e-01 3.689335006285235252e+00 1.010718699606627524e-01 8.715126601112288540e-03 3.991717133209998991e+00 3.909619667496311735e+00 2.031491998891646666e+00 1.149862154089111854e-01 4.298590708087886014e+00 4.348313819880898379e+00 3.515857200652979131e+00 1.167496366995527168e+00 4.263901090977098463e+00 -6.681474050292743883e-01 -4.437845920247020182e+00 4.721016532085279493e+00 -1.747399965803389854e+00 -1.928396135393937172e-01 2.143395138019732471e-01 2.729278302625627539e+00 1.386635295396684953e+00 3.158717893035287716e-01 -6.848697530149507884e-01 9.979960919454473611e-01 3.030136138441880789e+00 3.067802485909750132e+00 3.030609920127245616e+00 4.442100285259886761e-01 3.389432934945638465e+00 3.368135945765578398e+00 3.029505127967279776e+00 5.776401730515914323e-01 1.302561624268909313e+00 -6.124414708911825045e-01 1.486243556889629502e+00 5.413605576910516248e-01 1.135573516607637501e-01 -4.363159054693339201e+00 -4.491001012904716205e-01 -4.623141917901493869e+00 1.383369090074965335e+00 4.104797127111455168e+00 -4.445743860395507951e+00 -1.398058229202919556e+00 -3.202207061216075790e+00 -4.026696074180597051e+00 3.455415780357078859e+00 4.969631395501215465e+00 -3.269716013168413316e+00 -4.673628639759730419e-02 -3.802585619918069426e+00 -3.060709867154148611e+00
-6.598388682767817315e-01 3.577702880455841949e+00 3.101859088480976467e+00 -3.798614808083291550e-01 2.984094817899917373e+00 2.554318453503785946e+00 1.108223023780533723e+00 4.102167604049254734e+00 4.245894523692342659e+00 -3.353751832434812563e+00 -3.529075006352972999e+00 -2.898549296641182771e+00 -2.737516579300185438e+00 -2.657465224832611383e-01 -2.075401165014605365e+00 1.661621224018615450e+00 3.346017804367848569e+00 -1.324676357093844459e+00 1.012529841458297497e+00 4.509386023541367194e+00 1.483420081515238742e+00 -9.500722430215704506e-01 1.466180409721141942e+00 -3.830881401093040317e+00 1.586627845384604996e-01 -3.753197295813688328e-01 -4.799340361098542118e+00 1.310113804532267778e+00 -1.426435667584598832e+00 3.917146031837022591e+00 -3.181020955396096639e-01 9.096801358576129815e-01 -2.345210162611019999e+00 2.084867403902447514e+00 -2.057591153788216332e+00 1.289558552366890432e+00 3.055285779751290676e+00 -1.241700310882251301e+00 3.492927713165723702e+00 -1.090195180710481715e+00 3.679424402403160599e+00 -4.855819640137504223e-02 4.395055311895436745e+00 -3.383090674532844844e+00 6.665596043261645676e-01 3.689335006285235252e+00 1.010718699606627524e-01 2.076634105093235760e+00 3.991717133209998991e+00 3.909619667496311735e+00 2.031491998891646666e+00 1.149862154089111854e-01 4.298590708087886014e+00 4.348313819880898379e+00 4.298859790499470535e+00 -2.120124843102325407e+00 -3.151216759681345625e+00 4.057196665244161338e+00 -2.537153752463422229e+00 4.721016532085279493e+00 -1.747399965803389854e+00 -1.928396135393937172e-01 2.143395138019732471e-01 3.199864363009156776e+00 1.386635295396684953e+00 1.077210623870560546e+00 -3.999547224720030325e+00 9.979960919454473611e-01 3.030136138441880789e+00 -7.143869758069323339e-01 3.030609920127245616e+00 -3.382305302657151458e+00 4.928645272486459561e+00 -1.921210000520389372e+00 -4.850833468342788279e+00 5.776401730515914323e-01 3.133706282804835652e+00 -8.706483613428463997e-01 1.075098654372686369e+00 5.413605576910516248e-01 4.406798387162355723e+00 -4.363159054693339201e+00 -4.491001012904716205e-01 -4.623141917901493869e+00 1.383369090074965335e+00 4.104797127111455168e+00 -4.445743860395507951e+00 -2.976288182307367247e+00 -3.202207061216075790e+00 -4.026696074180597051e+00 3.455415780357078859e+00 4.969631395501215465e+00 -3.269716013168413316e+00 -4.673628639759730419e-02 -3.802585619918069426e+00 -3.060709867154148611e+00
-6.598388682767817315e-01 3.577702880455841949e+00 3.101859088480976467e+00 -3.798614808083291550e-01 2.984094817899917373e+00 2.554318453503785946e+00 1.108223023780533723e+00 4.102167604049254734e+00 3.191424405757842919e+00 -1.081596650687826067e+00 -3.529075006352972999e+00 -3.745500122185393188e+00 -2.737516579300185438e+00 -2.657465224832611383e-01 -2.075401165014605365e+00 1.661621224018615450e+00 3.346017804367848569e+00 -1.324676357093844459e+00 1.012529841458297497e+00 4.509386023541367194e+00 1.483420081515238742e+00 -9.500722430215704506e-01 3.757599277587651443e+00 -3.830881401093040317e+00 1.586627845384604996e-01 -3.753197295813688328e-01 -4.799340361098542118e+00 1.310113804532267778e+00 -1.426435667584598832e+00 3.917146031837022591e+00 -3.181020955396096639e-01 9.096801358576129815e-01 -2.345210162611019999e+00 2.084867403902447514e+00 -2.057591153788216332e+00 1.289558552366890432e+00 3.055285779751290676e+00 -1.241700310882251301e+00 3.492927713165723702e+00 -1.090195180710481715e+00 3.679424402403160599e+00 -4.855819640137504223e-02 4.395055311895436745e+00 -3.383090674532844844e+00 6.665596043261645676e-01 3.689335006285235252e+00 1.010718699606627524e-01 2.076634105093235760e+00 3.991717133209998991e+00 3.909619667496311735e+00 3.539400110102359776e+00 1.149862154089111854e-01 4.298590708087886014e+00 4.348313819880898379e+00 3.515857200652979131e+00 -2.120124843102325407e+00 4.263901090977098463e+00 4.057196665244161338e+00 -4.437845920247020182e+00 4.721016532085279493e+00 -1.747399965803389854e+00 -1.928396135393937172e-01 2.143395138019732471e-01 3.199864363009156776e+00 1.386635295396684953e+00 3.158717893035287716e-01 -6.848697530149507884e-01 9.979960919454473611e-01 3.030136138441880789e+00 3.067802485909750132e+00 3.030609920127245616e+00 1.110198822319148348e-01 4.928645272486459561e+00 -1.921210000520389372e+00 -4.850833468342788279e+00 5.776401730515914323e-01 3.133706282804835652e+00 4.659055732490324786e+00 1.075098654372686369e+00 5.413605576910516248e-01 4.406798387162355723e+00 2.500152276208920554e+00 3.312906304223300680e+00 -4.623141917901493869e+00 1.383369090074965335e+00 4.104797127111455168e+00 -3.111992865005964504e+00 -2.976288182307367247e+00 -3.202207061216075790e+00 -4.026696074180597051e+00 3.455415780357078859e+00 4.969631395501215465e+00 -3.269716013168413316e+00 -4.673628639759730419e-02 -3.577338119566516816e+00 -3.060709867154148611e+00
-6.598388682767817315e-01 3.577702880455841949e+00 3.101859088480976467e+00 -3.798614808083291550e-01 2.984094817899917373e+00 2.554318453503785946e+00 1.108223023780533723e+00 4.102167604049254734e+00 3.191424405757842919e+00 4.651693476904824820e+00 -3.529075006352972999e+00 -2.898549296641182771e+00 -2.737516579300185438e+00 -2.657465224832611383e-01 -2.075401165014605365e+00 1.661621224018615450e+00 -1.614805466815471213e+00 -1.324676357093844459e+00 1.012529841458297497e+00 4.509386023541367194e+00 -3.179161447863409151e+00 -1.207277904088830400e+00 1.466180409721141942e+00 -3.830881401093040317e+00 -3.630487446128480844e+00 -3.753197295813688328e-01 -4.799340361098542118e+00 1.310113804532267778e+00 7.319688993984634351e-01 3.917146031837022591e+00 -3.181020955396096639e-01 -2.151621518902386843e+00 -2.345210162611019999e+00 2.084867403902447514e+00 -2.057591153788216332e+00 -1.814545040321252856e+00 3.055285779751290676e+00 -1.241700310882251301e+00 3.492927713165723702e+00 4.525316107307249425e+00 3.679424402403160599e+00 -4.967562704721056654e+00 4.395055311895436745e+00 -3.383090674532844844e+00 6.665596043261645676e-01 3.689335006285235252e+00 1.010718699606627524e-01 2.076634105093235760e+00 3.991717133209998991e+00 3.909619667496311735e+00 2.031491998891646666e+00 1.149862154089111854e-01 4.298590708087886014e+00 4.348313819880898379e+00 4.298859790499470535e+00 -2.120124843102325407e+00 4.263901090977098463e+00 4.057196665244161338e+00 -2.537153752463422229e+00 2.006493177800829031e+00 -1.747399965803389854e+00 4.743438600987147424e+00 1.076345998789237868e+00 3.859260171595671807e+00 1.386635295396684953e+00 3.158717893035287716e-01 -6.848697530149507884e-01 9.979960919454473611e-01 3.030136138441880789e+00 3.067802485909750132e+00 3.030609920127245616e+00 1.124339311751373138e+00 4.928645272486459561e+00 -1.921210000520389372e+00 3.029505127967279776e+00 5.776401730515914323e-01 -4.709788207798547788e+00 -6.124414708911825045e-01 1.486243556889629502e+00 2.739992642929314215e-01 1.135573516607637501e-01 -4.363159054693339201e+00 -4.491001012904716205e-01 2.895034909768186004e+00 1.383369090074965335e+00 4.104797127111455168e+00 -2.895729246771959531e+00 -2.976288182307367247e+00 -3.202207061216075790e+00 -4.026696074180597051e+00 3.455415780357078859e+00 4.969631395501215465e+00 -3.269716013168413316e+00 -4.673628639759730419e-02 -3.802585619918069426e+00 -2.523414498029585840e+00
-6.598388682767817315e-01 3.577702880455841949e+00 3.101859088480976467e+00 -2.758078488931410277e+00 2.984094817899917373e+00 2.554318453503785946e+00 1.108223023780533723e+00 4.102167604049254734e+00 3.191424405757842919e+00 4.651693476904824820e+00 -3.529075006352972999e+00 -2.898549296641182771e+00 -2.737516579300185438e+00 -2.657465224832611383e-01 -2.075401165014605365e+00 1.661621224018615450e+00 -1.614805466815471213e+00 -1.324676357093844459e+00 1.012529841458297497e+00 4.509386023541367194e+00 1.483420081515238742e+00 -9.500722430215704506e-01 1.466180409721141942e+00 -3.830881401093040317e+00 1.586627845384604996e-01 -3.753197295813688328e-01 -4.799340361098542118e+00 1.310113804532267778e+00 -5.659313890554251714e-01 3.917146031837022591e+00 -3.181020955396096639e-01 -2.151621518902386843e+00 -2.345210162611019999e+00 -4.269820692234481463e+00 -2.057591153788216332e+00 -4.102246293962208412e-01 3.895150433376972643e-01 -1.241700310882251301e+00 3.492927713165723702e+00 4.525316107307249425e+00 3.679424402403160599e+00 -4.855819640137504223e-02 4.395055311895436745e+00 -3.383090674532844844e+00 6.665596043261645676e-01 3.689335006285235252e+00 1.010718699606627524e-01 2.076634105093235760e+00 3.991717133209998991e+00 3.909619667496311735e+00 2.031491998891646666e+00 1.104022576874278627e+00 4.298590708087886014e+00 4.348313819880898379e+00 3.515857200652979131e+00 -2.120124843102325407e+00 4.263901090977098463e+00 4.057196665244161338e+00 -4.437845920247020182e+00 4.721016532085279493e+00 -1.747399965803389854e+00 -1.928396135393937172e-01 2.143395138019732471e-01 3.199864363009156776e+00 1.386635295396684953e+00 3.158717893035287716e-01 -6.848697530149507884e-01 9.979960919454473611e-01 3.030136138441880789e+00 3.067802485909750132e+00 3.030609920127245616e+00 1.110198822319148348e-01 4.928645272486459561e+00 -1.921210000520389372e+00 -4.850833468342788279e+00 5.776401730515914323e-01 3.133706282804835652e+00 -8.706483613428463997e-01 1.075098654372686369e+00 5.413605576910516248e-01 4.406798387162355723e+00 -4.363159054693339201e+00 3.312906304223300680e+00 4.914908439912990090e+00 1.383369090074965335e+00 4.104797127111455168e+00 -4.445743860395507951e+00 -2.976288182307367247e+00 -3.202207061216075790e+00 -4.026696074180597051e+00 3.455415780357078859e+00 4.969631395501215465e+00 -3.269716013168413316e+00 -4.673628639759730419e-02 -3.802585619918069426e+00 -3.060709867154148611e+00
2.454168302673868318e+00 2.163690645003715218e+00 3.101859088480976467e+00 -3.798614808083291550e-01 2.984094817899917373e+00 2.554318453503785946e+00 4.091168855629756962e+00 4.102167604049254734e+00 3.191424405757842919e+00 3.306957487922142391e+00 -3.529075006352972999e+00 -2.898549296641182771e+00 -2.737516579300185438e+00 -2.657465224832611383e-01 1.157284815189155935e+00 1.661621224018615450e+00 3.346017804367848569e+00 -1.800264752575999605e+00 1.012529841458297497e+00 4.509386023541367194e+00 -3.179161447863409151e+00 -9.500722430215704506e-01 1.466180409721141942e+00 -3.830881401093040317e+00 1.586627845384604996e-01 -3.753197295813688328e-01 -4.799340361098542118e+00 1.310113804532267778e+00 2.670671755874543862e+00 3.917146031837022591e+00 -3.181020955396096639e-01 -2.151621518902386843e+00 -2.345210162611019999e+00 2.084867403902447514e+00 -2.057591153788216332e+00 -4.102246293962208412e-01 3.055285779751290676e+00 -1.241700310882251301e+00 3.492927713165723702e+00 4.525316107307249425e+00 3.679424402403160599e+00 -4.855819640137504223e-02 4.395055311895436745e+00 -3.383090674532844844e+00 6.665596043261645676e-01 3.689335006285235252e+00 1.010718699606627524e-01 2.076634105093235760e+00 3.991717133209998991e+00 3.909619667496311735e+00 2.031491998891646666e+00 2.842965750935118052e-01 4.298590708087886014e+00 4.348313819880898379e+00 4.298859790499470535e+00 -2.120124843102325407e+00 4.263901090977098463e+00 4.057196665244161338e+00 -2.537153752463422229e+00 2.006493177800829031e+00 -1.747399965803389854e+00 4.743438600987147424e+00 2.143395138019732471e-01 3.199864363009156776e+00 1.386635295396684953e+00 3.158717893035287716e-01 2.439634271503297924e+00 9.979960919454473611e-01 3.030136138441880789e+00 4.381102847373838927e+00 3.030609920127245616e+00 1.110198822319148348e-01 4.928645272486459561e+00 -1.921210000520389372e+00 -4.850833468342788279e+00 5.776401730515914323e-01 1.302561624268909313e+00 -6.124414708911825045e-01 1.590065876253666133e+00 5.413605576910516248e-01 1.135573516607637501e-01 -4.363159054693339201e+00 -4.491001012904716205e-01 2.895034909768186004e+00 1.383369090074965335e+00 4.104797127111455168e+00 -2.895729246771959531e+00 -2.976288182307367247e+00 -3.202207061216075790e+00 -4.026696074180597051e+00 3.455415780357078859e+00 4.969631395501215465e+00 -3.269716013168413316e+00 -4.673628639759730419e-02 -3.802585619918069426e+00 -3.060709867154148611e+00
2.454168302673868318e+00 3.577702880455841949e+00 3.101859088480976467e+00 -3.798614808083291550e-01 2.984094817899917373e+00 2.554318453503785946e+00 4.091168855629756962e+00 4.102167604049254734e+00 3.191424405757842919e+00 3.306957487922142391e+00 -3.529075006352972999e+00 -2.898549296641182771e+00 -2.737516579300185438e+00 -2.657465224832611383e-01 1.157284815189155935e+00 2.075233564734166869e+00 3.346017804367848569e+00 -1.800264752575999605e+00 1.012529841458297497e+00 4.509386023541367194e+00 -3.179161447863409151e+00 -9.500722430215704506e-01 1.466180409721141942e+00 -3.830881401093040317e+00 1.586627845384604996e-01 -3.753197295813688328e-01 -4.799340361098542118e+00 3.745034137359105841e+00 -1.426435667584598832e+00 3.917146031837022591e+00 4.882942630827914243e+00 -2.151621518902386843e+00 -2.345210162611019999e+00 2.084867403902447514e+00 3.345355286326247679e+00 -4.102246293962208412e-01 3.055285779751290676e+00 -3.663175077594182927e+00 3.492927713165723702e+00 3.763524751294649917e+00 3.679424402403160599e+00 -4.855819640137504223e-02 4.395055311895436745e+00 -3.383090674532844844e+00 6.665596043261645676e-01 3.689335006285235252e+00 1.010718699606627524e-01 2.076634105093235760e+00 3.991717133209998991e+00 3.909619667496311735e+00 2.031491998891646666e+00 1.149862154089111854e-01 4.298590708087886014e+00 4.348313819880898379e+00 4.298859790499470535e+00 -2.120124843102325407e+00 -3.151216759681345625e+00 4.057196665244161338e+00 -2.537153752463422229e+00 4.721016532085279493e+00 -1.747399965803389854e+00 -1.928396135393937172e-01 2.143395138019732471e-01 3.199864363009156776e+00 1.386635295396684953e+00 1.077210623870560546e+00 -6.848697530149507884e-01 9.979960919454473611e-01 -3.696328484627127153e+00 -7.143869758069323339e-01 3.030609920127245616e+00 -3.382305302657151458e+00 4.928645272486459561e+00 -1.921210000520389372e+00 -4.850833468342788279e+00 5.776401730515914323e-01 3.133706282804835652e+00 -8.706483613428463997e-01 3.445205817264973547e-01 5.413605576910516248e-01 4.406798387162355723e+00 -4.363159054693339201e+00 -4.491001012904716205e-01 -4.623141917901493869e+00 1.383369090074965335e+00 4.104797127111455168e+00 -4.445743860395507951e+00 -2.976288182307367247e+00 -3.202207061216075790e+00 -4.026696074180597051e+00 -1.520780551434852690e+00 3.943132351416977599e+00 -3.269716013168413316e+00 -4.673628639759730419e-02 -3.802585619918069426e+00 -3.060709867154148611e+00
-6.598388682767817315e-01 3.577702880455841949e+00 3.101859088480976467e+00 -3.798614808083291550e-01 2.984094817899917373e+00 2.554318453503785946e+00 1.108223023780533723e+00 4.102167604049254734e+00 3.191424405757842919e+00 -3.353751832434812563e+00 -3.529075006352972999e+00 -2.898549296641182771e+00 -2.737516579300185438e+00 -2.657465224832611383e-01 -2.075401165014605365e+00 1.661621224018615450e+00 3.346017804367848569e+00 -1.324676357093844459e+00 1.012529841458297497e+00 4.509386023541367194e+00 1.483420081515238742e+00 -9.500722430215704506e-01 1.466180409721141942e+00 -3.830881401093040317e+00 1.586627845384604996e-01 -3.753197295813688328e-01 -4.799340361098542118e+00 1.310113804532267778e+00 -1.426435667584598832e+00 3.917146031837022591e+00 -3.181020955396096639e-01 9.096801358576129815e-01 -2.345210162611019999e+00 2.084867403902447514e+00 -2.057591153788216332e+00 1.289558552366890432e+00 3.055285779751290676e+00 -1.241700310882251301e+00 3.492927713165723702e+00 -1.090195180710481715e+00 3.679424402403160599e+00 -4.855819640137504223e-02 4.395055311895436745e+00 -3.383090674532844844e+00 6.665596043261645676e-01 3.689335006285235252e+00 1.010718699606627524e-01 8.715126601112288540e-03 3.991717133209998991e+00 3.909619667496311735e+00 2.031491998891646666e+00 1.149862154089111854e-01 4.298590708087886014e+00 4.348313819880898379e+00 3.515857200652979131e+00 -2.120124843102325407e+00 4.263901090977098463e+00 -6.681474050292743883e-01 -4.437845920247020182e+00 4.721016532085279493e+00 -1.747399965803389854e+00 -1.928396135393937172e-01 2.143395138019732471e-01 2.729278302625627539e+00 1.386635295396684953e+00 3.158717893035287716e-01 -6.848697530149507884e-01 9.979960919454473611e-01 3.030136138441880789e+00 -7.143869758069323339e-01 3.030609920127245616e+00 -2.522353290745730447e+00 4.928645272486459561e+00 -1.921210000520389372e+00 -4.850833468342788279e+00 5.776401730515914323e-01 3.133706282804835652e+00 -8.706483613428463997e-01 1.075098654372686369e+00 5.413605576910516248e-01 4.406798387162355723e+00 -4.363159054693339201e+00 -4.491001012904716205e-01 -4.623141917901493869e+00 1.383369090074965335e+00 4.104797127111455168e+00 1.484505759044285611e+00 -2.976288182307367247e+00 -3.202207061216075790e+00 -4.026696074180597051e+00 3.455415780357078859e+00 4.969631395501215465e+00 -3.269716013168413316e+00 -4.673628639759730419e-02 -3.802585619918069426e+00 -3.060709867154148611e+00
-6.598388682767817315e-01 3.577702880455841949e+00 3.101859088480976467e+00 -3.798614808083291550e-01 2.984094817899917373e+00 2.554318453503785946e+00 1.108223023780533723e+00 -3.705081182269652551e+00 3.191424405757842919e+00 4.651693476904824820e+00 -3.529075006352972999e+00 -2.898549296641182771e+00 -2.737516579300185438e+00 -2.657465224832611383e-01 -2.075401165014605365e+00 1.661621224018615450e+00 -3.676270698961465744e+00 -1.324676357093844459e+00 1.012529841458297497e+00 4.509386023541367194e+00 1.483420081515238742e+00 -9.500722430215704506e-01 1.466180409721141942e+00 -3.830881401093040317e+00 1.586627845384604996e-01 -3.753197295813688328e-01 -4.799340361098542118e+00 1.310113804532267778e+00 -1.426435667584598832e+00 3.917146031837022591e+00 -3.181020955396096639e-01 9.096801358576129815e-01 -2.345210162611019999e+00 2.084867403902447514e+00 -2.057591153788216332e+00 1.289558552366890432e+00 3.055285779751290676e+00 -1.241700310882251301e+00 3.492927713165723702e+00 -1.090195180710481715e+00 3.679424402403160599e+00 -4.855819640137504223e-02 4.395055311895436745e+00 -3.383090674532844844e+00 6.665596043261645676e-01 3.689335006285235252e+00 1.010718699606627524e-01 2.076634105093235760e+00 3.991717133209998991e+00 3.909619667496311735e+00 2.031491998891646666e+00 1.149862154089111854e-01 -1.840413378993741578e+00 4.348313819880898379e+00 3.515857200652979131e+00 -2.120124843102325407e+00 4.263901090977098463e+00 4.057196665244161338e+00 -4.437845920247020182e+00 4.721016532085279493e+00 -1.747399965803389854e+00 -1.928396135393937172e-01 2.143395138019732471e-01 3.199864363009156776e+00 1.386635295396684953e+00 3.158717893035287716e-01 -6.848697530149507884e-01 9.979960919454473611e-01 3.030136138441880789e+00 3.067802485909750132e+00 3.030609920127245616e+00 1.110198822319148348e-01 4.928645272486459561e+00 -1.921210000520389372e+00 -5.474396503276857118e-02 5.776401730515914323e-01 3.133706282804835652e+00 -8.706483613428463997e-01 -1.572556758177916514e+00 5.413605576910516248e-01 4.406798387162355723e+00 -4.363159054693339201e+00 3.312906304223300680e+00 -4.623141917901493869e+00 1.383369090074965335e+00 4.104797127111455168e+00 -4.445743860395507951e+00 -2.976288182307367247e+00 -3.202207061216075790e+00 -4.026696074180597051e+00 3.455415780357078859e+00 4.969631395501215465e+00 -3.269716013168413316e+00 -6.510405996421120278e-01 -3.802585619918069426e+00 -2.523414498029585840e+00
2.454168302673868318e+00 3.577702880455841949e+00 3.101859088480976467e+00 -3.798614808083291550e-01 -4.908365058844807116e+00 2.554318453503785946e+00 4.091168855629756962e+00 4.102167604049254734e+00 3.191424405757842919e+00 3.306957487922142391e+00 -3.529075006352972999e+00 -2.898549296641182771e+00 -2.737516579300185438e+00 -2.657465224832611383e-01 4.015444217406084704e+00 1.661621224018615450e+00 3.346017804367848569e+00 -1.800264752575999605e+00 1.012529841458297497e+00 4.509386023541367194e+00 -3.179161447863409151e+00 -9.500722430215704506e-01 1.466180409721141942e+00 -3.830881401093040317e+00 1.586627845384604996e-01 -3.753197295813688328e-01 -4.799340361098542118e+00 1.310113804532267778e+00 -1.426435667584598832e+00 3.917146031837022591e+00 -3.181020955396096639e-01 -2.151621518902386843e+00 -2.345210162611019999e+00 1.303245053865000003e+00 -2.057591153788216332e+00 -4.102246293962208412e-01 3.055285779751290676e+00 -1.241700310882251301e+00 3.492927713165723702e+00 3.763524751294649917e+00 3.679424402403160599e+00 -4.855819640137504223e-02 -3.539964573171274775e+00 -3.383090674532844844e+00 6.665596043261645676e-01 3.689335006285235252e+00 1.010718699606627524e-01 2.076634105093235760e+00 -2.796670550456354043e+00 3.909619667496311735e+00 2.031491998891646666e+00 1.104022576874278627e+00 4.298590708087886014e+00 4.348313819880898379e+00 3.515857200652979131e+00 -2.120124843102325407e+00 4.263901090977098463e+00 4.057196665244161338e+00 -4.437845920247020182e+00 -3.327784517275258480e-01 -1.747399965803389854e+00 -1.928396135393937172e-01 2.143395138019732471e-01 3.199864363009156776e+00 1.386635295396684953e+00 9.958742104198181622e-01 -6.848697530149507884e-01 9.979960919454473611e-01 3.030136138441880789e+00 3.067802485909750132e+00 3.030609920127245616e+00 1.121275390720263943e+00 3.389432934945638465e+00 -2.782094750030360331e+00 3.029505127967279776e+00 5.776401730515914323e-01 1.302561624268909313e+00 -8.706483613428463997e-01 1.486243556889629502e+00 5.413605576910516248e-01 4.406798387162355723e+00 -4.363159054693339201e+00 -4.491001012904716205e-01 -4.623141917901493869e+00 1.383369090074965335e+00 4.104797127111455168e+00 -4.445743860395507951e+00 -2.976288182307367247e+00 -3.202207061216075790e+00 -4.026696074180597051e+00 3.455415780357078859e+00 4.969631395501215465e+00 -3.269716013168413316e+00 -4.673628639759730419e-02 -3.802585619918069426e+00 -3.060709867154148611e+00
2.454168302673868318e+00 3.577702880455841949e+00 3.101859088480976467e+00 -3.798614808083291550e-01 -4.908365058844807116e+00 2.554318453503785946e+00 4.091168855629756962e+00 4.102167604049254734e+00 3.191424405757842919e+00 3.306957487922142391e+00 -3.529075006352972999e+00 -2.898549296641182771e+00 -2.737516579300185438e+00 -2.657465224832611383e-01 1.157284815189155935e+00 2.075233564734166869e+00 3.346017804367848569e+00 -1.800264752575999605e+00 1.012529841458297497e+00 4.509386023541367194e+00 -3.179161447863409151e+00 -9.500722430215704506e-01 1.466180409721141942e+00 -3.830881401093040317e+00 1.586627845384604996e-01 -3.753197295813688328e-01 -4.799340361098542118e+00 1.310113804532267778e+00 -1.426435667584598832e+00 3.917146031837022591e+00 -3.181020955396096639e-01 -2.309649418470528737e+00 -2.345210162611019999e+00 -4.269820692234481463e+00 -2.057591153788216332e+00 -4.102246293962208412e-01 3.055285779751290676e+00 -1.241700310882251301e+00 3.492927713165723702e+00 3.763524751294649917e+00 3.679424402403160599e+00 -4.855819640137504223e-02 4.395055311895436745e+00 -3.383090674532844844e+00 6.665596043261645676e-01 3.689335006285235252e+00 1.010718699606627524e-01 2.076634105093235760e+00 3.991717133209998991e+00 3.909619667496311735e+00 2.031491998891646666e+00 1.104022576874278627e+00 -1.695713530174671746e-01 4.348313819880898379e+00 3.515857200652979131e+00 -2.120124843102325407e+00 4.263901090977098463e+00 4.057196665244161338e+00 -2.537153752463422229e+00 2.006493177800829031e+00 -1.747399965803389854e+00 -1.928396135393937172e-01 2.143395138019732471e-01 3.199864363009156776e+00 1.386635295396684953e+00 9.958742104198181622e-01 -6.848697530149507884e-01 9.979960919454473611e-01 3.030136138441880789e+00 3.067802485909750132e+00 3.030609920127245616e+00 1.121275390720263943e+00 3.389432934945638465e+00 -2.782094750030360331e+00 3.029505127967279776e+00 5.776401730515914323e-01 1.302561624268909313e+00 -8.706483613428463997e-01 1.486243556889629502e+00 5.413605576910516248e-01 4.406798387162355723e+00 -4.363159054693339201e+00 -4.491001012904716205e-01 -4.623141917901493869e+00 -1.756650923792959507e+00 4.104797127111455168e+00 -4.445743860395507951e+00 -2.976288182307367247e+00 -3.202207061216075790e+00 -4.026696074180597051e+00 3.455415780357078859e+00 4.969631395501215465e+00 -3.269716013168413316e+00 -4.673628639759730419e-02 -3.802585619918069426e+00 -3.060709867154148611e+00
2.454168302673868318e+00 2.163690645003715218e+00 3.101859088480976467e+00 -3.798614808083291550e-01 2.984094817899917373e+00 2.554318453503785946e+00 4.091168855629756962e+00 4.102167604049254734e+00 3.191424405757842919e+00 3.306957487922142391e+00 -3.529075006352972999e+00 -2.898549296641182771e+00 -2.737516579300185438e+00 -2.657465224832611383e-01 1.157284815189155935e+00 1.661621224018615450e+00 3.346017804367848569e+00 -1.800264752575999605e+00 1.012529841458297497e+00 4.509386023541367194e+00 -3.179161447863409151e+00 -9.500722430215704506e-01 1.466180409721141942e+00 -3.830881401093040317e+00 1.586627845384604996e-01 -3.753197295813688328e-01 -4.799340361098542118e+00 1.310113804532267778e+00 -1.426435667584598832e+00 3.917146031837022591e+00 -3.181020955396096639e-01 -2.151621518902386843e+00 -2.345210162611019999e+00 2.084867403902447514e+00 -2.057591153788216332e+00 -4.102246293962208412e-01 3.055285779751290676e+00 -1.241700310882251301e+00 3.492927713165723702e+00 4.525316107307249425e+00 3.679424402403160599e+00 -4.855819640137504223e-02 4.395055311895436745e+00 -3.383090674532844844e+00 6.665596043261645676e-01 3.689335006285235252e+00 1.010718699606627524e-01 2.076634105093235760e+00 3.991717133209998991e+00 3.909619667496311735e+00 2.031491998891646666e+00 1.149862154089111854e-01 4.298590708087886014e+00 4.348313819880898379e+00 4.298859790499470535e+00 -2.120124843102325407e+00 4.263901090977098463e+00 4.057196665244161338e+00 -2.537153752463422229e+00 2.006493177800829031e+00 -1.747399965803389854e+00 4.743438600987147424e+00 1.076345998789237868e+00 3.199864363009156776e+00 1.386635295396684953e+00 3.158717893035287716e-01 -6.848697530149507884e-01 9.979960919454473611e-01 3.030136138441880789e+00 3.067802485909750132e+00 3.030609920127245616e+00 1.110198822319148348e-01 4.928645272486459561e+00 -4.054545101418629116e+00 -4.850833468342788279e+00 5.776401730515914323e-01 3.133706282804835652e+00 -8.706483613428463997e-01 1.075098654372686369e+00 5.413605576910516248e-01 4.406798387162355723e+00 -4.363159054693339201e+00 3.312906304223300680e+00 -4.623141917901493869e+00 1.383369090074965335e+00 4.104797127111455168e+00 -4.445743860395507951e+00 -2.976288182307367247e+00 -3.202207061216075790e+00 -4.026696074180597051e+00 3.455415780357078859e+00 4.969631395501215465e+00 -3.269716013168413316e+00 -4.673628639759730419e-02 -3.577338119566516816e+00 -3.060709867154148611e+00
2.454168302673868318e+00 3.577702880455841949e+00 -2.196355164702815443e+00 -3.798614808083291550e-01 2.984094817899917373e+00 2.554318453503785946e+00 4.091168855629756962e+00 4.102167604049254734e+00 3.191424405757842919e+00 4.425074117614391511e+00 -3.529075006352972999e+00 -2.898549296641182771e+00 5.846801813587827468e-01 -2.657465224832611383e-01 1.157284815189155935e+00 1.661621224018615450e+00 3.346017804367848569e+00 -1.800264752575999605e+00 -3.438263484499204381e+00 4.509386023541367194e+00 -3.179161447863409151e+00 -9.500722430215704506e-01 1.466180409721141942e+00 -3.830881401093040317e+00 1.586627845384604996e-01 -3.753197295813688328e-01 -4.799340361098542118e+00 1.310113804532267778e+00 -1.426435667584598832e+00 3.917146031837022591e+00 -3.181020955396096639e-01 -2.309649418470528737e+00 -2.345210162611019999e+00 4.136249239819550283e+00 -2.057591153788216332e+00 -7.742153814232395348e-01 3.055285779751290676e+00 -1.241700310882251301e+00 3.492927713165723702e+00 3.763524751294649917e+00 3.679424402403160599e+00 -4.855819640137504223e-02 4.395055311895436745e+00 -3.383090674532844844e+00 6.665596043261645676e-01 3.689335006285235252e+00 1.010718699606627524e-01 2.076634105093235760e+00 3.991717133209998991e+00 3.909619667496311735e+00 2.031491998891646666e+00 1.104022576874278627e+00 -1.695713530174671746e-01 4.348313819880898379e+00 3.515857200652979131e+00 -2.120124843102325407e+00 4.263901090977098463e+00 4.057196665244161338e+00 -2.537153752463422229e+00 2.006493177800829031e+00 -1.747399965803389854e+00 -1.928396135393937172e-01 2.143395138019732471e-01 3.199864363009156776e+00 1.386635295396684953e+00 9.958742104198181622e-01 -6.848697530149507884e-01 9.979960919454473611e-01 3.030136138441880789e+00 3.067802485909750132e+00 3.030609920127245616e+00 1.121275390720263943e+00 3.389432934945638465e+00 -2.782094750030360331e+00 3.029505127967279776e+00 5.776401730515914323e-01 1.302561624268909313e+00 -8.706483613428463997e-01 1.486243556889629502e+00 5.413605576910516248e-01 4.406798387162355723e+00 -4.363159054693339201e+00 -4.491001012904716205e-01 -4.623141917901493869e+00 3.664018248937217948e+00 4.104797127111455168e+00 -4.445743860395507951e+00 -2.976288182307367247e+00 -3.202207061216075790e+00 -4.026696074180597051e+00 3.455415780357078859e+00 4.969631395501215465e+00 -3.269716013168413316e+00 -4.673628639759730419e-02 -3.802585619918069426e+00 -3.060709867154148611e+00
2.454168302673868318e+00 3.577702880455841949e+00 3.101859088480976467e+00 -3.798614808083291550e-01 -4.908365058844807116e+00 2.554318453503785946e+00 4.091168855629756962e+00 4.102167604049254734e+00 3.191424405757842919e+00 3.306957487922142391e+00 -3.529075006352972999e+00 -2.898549296641182771e+00 -2.737516579300185438e+00 -2.657465224832611383e-01 4.015444217406084704e+00 1.661621224018615450e+00 3.346017804367848569e+00 -1.800264752575999605e+00 1.012529841458297497e+00 4.509386023541367194e+00 -3.179161447863409151e+00 -9.500722430215704506e-01 1.466180409721141942e+00 -3.830881401093040317e+00 1.586627845384604996e-01 -3.753197295813688328e-01 -4.799340361098542118e+00 1.310113804532267778e+00 -1.426435667584598832e+00 3.917146031837022591e+00 -3.181020955396096639e-01 -2.151621518902386843e+00 -2.345210162611019999e+00 1.303245053865000003e+00 -2.057591153788216332e+00 -4.102246293962208412e-01 3.055285779751290676e+00 -1.241700310882251301e+00 3.492927713165723702e+00 3.763524751294649917e+00 3.679424402403160599e+00 -4.855819640137504223e-02 4.395055311895436745e+00 -3.383090674532844844e+00 6.665596043261645676e-01 3.689335006285235252e+00 1.010718699606627524e-01 2.076634105093235760e+00 -2.796670550456354043e+00 3.909619667496311735e+00 2.031491998891646666e+00 1.104022576874278627e+00 4.298590708087886014e+00 4.348313819880898379e+00 3.515857200652979131e+00 -2.120124843102325407e+00 4.263901090977098463e+00 4.057196665244161338e+00 -4.437845920247020182e+00 4.721016532085279493e+00 -1.747399965803389854e+00 -1.928396135393937172e-01 2.143395138019732471e-01 3.199864363009156776e+00 1.386635295396684953e+00 3.158717893035287716e-01 -6.848697530149507884e-01 9.979960919454473611e-01 3.030136138441880789e+00 3.067802485909750132e+00 3.030609920127245616e+00 1.110198822319148348e-01 4.928645272486459561e+00 -1.921210000520389372e+00 -5.474396503276857118e-02 5.776401730515914323e-01 3.133706282804835652e+00 -8.706483613428463997e-01 1.075098654372686369e+00 5.413605576910516248e-01 4.406798387162355723e+00 -4.363159054693339201e+00 2.909196929229293183e+00 -4.623141917901493869e+00 1.383369090074965335e+00 4.104797127111455168e+00 -4.445743860395507951e+00 -2.976288182307367247e+00 -3.202207061216075790e+00 -4.026696074180597051e+00 3.455415780357078859e+00 4.969631395501215465e+00 -3.269716013168413316e+00 -4.673628639759730419e-02 -3.802585619918069426e+00 -3.060709867154148611e+00
2.454168302673868318e+00 3.577702880455841949e+00 3.101859088480976467e+00 -3.798614808083291550e-01 2.984094817899917373e+00 2.554318453503785946e+00 4.091168855629756962e+00 4.102167604049254734e+00 3.191424405757842919e+00 4.425074117614391511e+00 -3.529075006352972999e+00 -2.898549296641182771e+00 -2.737516579300185438e+00 -2.657465224832611383e-01 -4.173890781392599614e+00 1.661621224018615450e+00 3.346017804367848569e+00 -1.800264752575999605e+00 1.012529841458297497e+00 4.245177923554660282e+00 -3.179161447863409151e+00 -9.500722430215704506e-01 1.466180409721141942e+00 -3.830881401093040317e+00 1.586627845384604996e-01 -3.753197295813688328e-01 -4.799340361098542118e+00 1.310113804532267778e+00 -1.426435667584598832e+00 3.917146031837022591e+00 -3.181020955396096639e-01 9.096801358576129815e-01 -2.345210162611019999e+00 2.084867403902447514e+00 -2.057591153788216332e+00 -4.102246293962208412e-01 3.055285779751290676e+00 -1.241700310882251301e+00 3.492927713165723702e+00 -1.090195180710481715e+00 3.679424402403160599e+00 -4.855819640137504223e-02 4.395055311895436745e+00 -3.383090674532844844e+00 6.665596043261645676e-01 3.689335006285235252e+00 1.010718699606627524e-01 2.076634105093235760e+00 4.020260941247572717e+00 3.909619667496311735e+00 2.031491998891646666e+00 1.149862154089111854e-01 4.298590708087886014e+00 4.348313819880898379e+00 4.298859790499470535e+00 -2.120124843102325407e+00 -3.151216759681345625e+00 4.057196665244161338e+00 -2.537153752463422229e+00 4.721016532085279493e+00 -1.747399965803389854e+00 -1.928396135393937172e-01 2.143395138019732471e-01 3.199864363009156776e+00 1.386635295396684953e+00 1.077210623870560546e+00 -6.848697530149507884e-01 9.979960919454473611e-01 3.030136138441880789e+00 -7.143869758069323339e-01 3.030609920127245616e+00 -3.382305302657151458e+00 4.928645272486459561e+00 -1.921210000520389372e+00 -4.850833468342788279e+00 5.776401730515914323e-01 3.133706282804835652e+00 -8.706483613428463997e-01 1.075098654372686369e+00 5.413605576910516248e-01 4.406798387162355723e+00 -4.363159054693339201e+00 -4.491001012904716205e-01 -4.623141917901493869e+00 1.383369090074965335e+00 4.104797127111455168e+00 -4.445743860395507951e+00 -2.976288182307367247e+00 -3.202207061216075790e+00 -4.026696074180597051e+00 -1.520780551434852690e+00 4.969631395501215465e+00 -3.269716013168413316e+00 -4.673628639759730419e-02 -3.802585619918069426e+00 -3.060709867154148611e+00
2.454168302673868318e+00 3.577702880455841949e+00 3.101859088480976467e+00 -3.798614808083291550e-01 -4.908365058844807116e+00 2.554318453503785946e+00 4.091168855629756962e+00 4.102167604049254734e+00 3.191424405757842919e+00 3.306957487922142391e+00 -3.529075006352972999e+00 -2.898549296641182771e+00 -2.737516579300185438e+00 -2.657465224832611383e-01 1.157284815189155935e+00 2.075233564734166869e+00 3.346017804367848569e+00 -1.800264752575999605e+00 -2.018326000216722704e+00 4.509386023541367194e+00 -3.179161447863409151e+00 -9.500722430215704506e-01 1.466180409721141942e+00 -3.830881401093040317e+00 1.586627845384604996e-01 -3.753197295813688328e-01 -4.799340361098542118e+00 1.310113804532267778e+00 -1.426435667584598832e+00 3.917146031837022591e+00 -3.181020955396096639e-01 9.096801358576129815e-01 -2.345210162611019999e+00 2.084867403902447514e+00 -2.057591153788216332e+00 1.289558552366890432e+00 3.055285779751290676e+00 -3.440357976802514095e+00 3.492927713165723702e+00 -1.090195180710481715e+00 3.679424402403160599e+00 -4.855819640137504223e-02 4.395055311895436745e+00 -3.383090674532844844e+00 6.665596043261645676e-01 3.689335006285235252e+00 1.010718699606627524e-01 8.715126601112288540e-03 3.991717133209998991e+00 3.909619667496311735e+00 2.031491998891646666e+00 1.149862154089111854e-01 4.298590708087886014e+00 4.348313819880898379e+00 3.515857200652979131e+00 -2.120124843102325407e+00 4.263901090977098463e+00 -6.681474050292743883e-01 -4.437845920247020182e+00 4.721016532085279493e+00 -1.747399965803389854e+00 -1.928396135393937172e-01 2.143395138019732471e-01 2.729278302625627539e+00 1.386635295396684953e+00 3.158717893035287716e-01 -6.848697530149507884e-01 9.979960919454473611e-01 3.030136138441880789e+00 -7.143869758069323339e-01 3.030609920127245616e+00 -3.382305302657151458e+00 4.928645272486459561e+00 -1.921210000520389372e+00 -4.850833468342788279e+00 5.776401730515914323e-01 3.133706282804835652e+00 -8.706483613428463997e-01 1.075098654372686369e+00 5.413605576910516248e-01 4.406798387162355723e+00 -4.363159054693339201e+00 -4.491001012904716205e-01 -4.623141917901493869e+00 1.383369090074965335e+00 4.104797127111455168e+00 -4.445743860395507951e+00 -4.962923544966426626e+00 -3.202207061216075790e+00 -4.026696074180597051e+00 -1.520780551434852690e+00 4.969631395501215465e+00 -3.269716013168413316e+00 4.001220225330762048e+00 -3.802585619918069426e+00 -3.060709867154148611e+00
-6.598388682767817315e-01 3.577702880455841949e+00 3.101859088480976467e+00 -3.798614808083291550e-01 2.984094817899917373e+00 2.554318453503785946e+00 1.108223023780533723e+00 4.102167604049254734e+00 9.115966549904284122e-01 -1.081596650687826067e+00 -3.529075006352972999e+00 -3.745500122185393188e+00 -2.737516579300185438e+00 -2.657465224832611383e-01 -2.075401165014605365e+00 1.661621224018615450e+00 3.346017804367848569e+00 -1.324676357093844459e+00 1.012529841458297497e+00 4.509386023541367194e+00 1.483420081515238742e+00 -9.500722430215704506e-01 1.466180409721141942e+00 -3.830881401093040317e+00 1.586627845384604996e-01 -3.753197295813688328e-01 -4.799340361098542118e+00 1.310113804532267778e+00 -1.426435667584598832e+00 3.917146031837022591e+00 -3.181020955396096639e-01 -4.333320560761953821e+00 -2.345210162611019999e+00 2.084867403902447514e+00 -2.057591153788216332e+00 1.289558552366890432e+00 3.055285779751290676e+00 -1.241700310882251301e+00 3.492927713165723702e+00 -1.090195180710481715e+00 3.679424402403160599e+00 -4.855819640137504223e-02 4.395055311895436745e+00 -3.383090674532844844e+00 6.665596043261645676e-01 3.689335006285235252e+00 1.010718699606627524e-01 2.076634105093235760e+00 3.991717133209998991e+00 3.909619667496311735e+00 2.031491998891646666e+00 1.149862154089111854e-01 4.298590708087886014e+00 4.348313819880898379e+00 3.515857200652979131e+00 -2.120124843102325407e+00 4.263901090977098463e+00 4.057196665244161338e+00 -4.437845920247020182e+00 4.721016532085279493e+00 -1.747399965803389854e+00 -1.928396135393937172e-01 2.143395138019732471e-01 3.199864363009156776e+00 1.386635295396684953e+00 3.158717893035287716e-01 -6.848697530149507884e-01 9.979960919454473611e-01 3.030136138441880789e+00 3.067802485909750132e+00 3.030609920127245616e+00 1.110198822319148348e-01 4.928645272486459561e+00 -1.921210000520389372e+00 -4.850833468342788279e+00 5.776401730515914323e-01 3.133706282804835652e+00 4.659055732490324786e+00 1.075098654372686369e+00 5.413605576910516248e-01 4.406798387162355723e+00 -4.363159054693339201e+00 3.312906304223300680e+00 -4.623141917901493869e+00 1.383369090074965335e+00 4.104797127111455168e+00 -4.445743860395507951e+00 -2.976288182307367247e+00 -3.202207061216075790e+00 -4.026696074180597051e+00 3.455415780357078859e+00 4.969631395501215465e+00 -3.269716013168413316e+00 -4.673628639759730419e-02 -3.802585619918069426e+00 -3.060709867154148611e+00
2.454168302673868318e+00 3.577702880455841949e+00 3.101859088480976467e+00 -3.798614808083291550e-01 -4.908365058844807116e+00 2.554318453503785946e+00 4.091168855629756962e+00 4.102167604049254734e+00 3.191424405757842919e+00 3.306957487922142391e+00 -3.529075006352972999e+00 -2.898549296641182771e+00 -2.737516579300185438e+00 -2.657465224832611383e-01 4.015444217406084704e+00 1.661621224018615450e+00 3.346017804367848569e+00 -1.800264752575999605e+00 1.012529841458297497e+00 4.509386023541367194e+00 4.406307035630232960e+00 -9.500722430215704506e-01 1.466180409721141942e+00 4.419887953169673978e+00 1.586627845384604996e-01 -3.753197295813688328e-01 -1.870424557755677952e+00 1.310113804532267778e+00 -1.426435667584598832e+00 3.917146031837022591e+00 -3.181020955396096639e-01 -2.151621518902386843e+00 -2.345210162611019999e+00 1.303245053865000003e+00 -2.057591153788216332e+00 -4.102246293962208412e-01 3.055285779751290676e+00 -1.241700310882251301e+00 3.492927713165723702e+00 3.763524751294649917e+00 3.679424402403160599e+00 -4.855819640137504223e-02 4.395055311895436745e+00 -3.383090674532844844e+00 6.665596043261645676e-01 3.689335006285235252e+00 1.010718699606627524e-01 2.076634105093235760e+00 -2.796670550456354043e+00 3.909619667496311735e+00 2.031491998891646666e+00 1.104022576874278627e+00 4.298590708087886014e+00 4.348313819880898379e+00 3.515857200652979131e+00 -2.120124843102325407e+00 4.263901090977098463e+00 4.057196665244161338e+00 -4.437845920247020182e+00 -3.327784517275258480e-01 -1.747399965803389854e+00 -1.928396135393937172e-01 2.143395138019732471e-01 3.199864363009156776e+00 1.386635295396684953e+00 1.077210623870560546e+00 -6.848697530149507884e-01 9.979960919454473611e-01 3.030136138441880789e+00 -7.143869758069323339e-01 3.030609920127245616e+00 -3.382305302657151458e+00 4.928645272486459561e+00 -1.921210000520389372e+00 -4.850833468342788279e+00 5.776401730515914323e-01 3.133706282804835652e+00 -8.706483613428463997e-01 1.075098654372686369e+00 5.413605576910516248e-01 4.406798387162355723e+00 -4.363159054693339201e+00 -4.491001012904716205e-01 -4.623141917901493869e+00 1.383369090074965335e+00 4.104797127111455168e+00 -4.445743860395507951e+00 -2.976288182307367247e+00 -3.202207061216075790e+00 -4.026696074180597051e+00 -1.520780551434852690e+00 4.969631395501215465e+00 -3.269716013168413316e+00 -4.673628639759730419e-02 -3.802585619918069426e+00 -3.060709867154148611e+00
2.454168302673868318e+00 3.577702880455841949e+00 3.101859088480976467e+00 -3.798614808083291550e-01 2.984094817899917373e+00 2.554318453503785946e+00 4.091168855629756962e+00 4.102167604049254734e+00 3.191424405757842919e+00 3.306957487922142391e+00 4.591807816851146029e+00 -2.898549296641182771e+00 -2.737516579300185438e+00 -2.657465224832611383e-01 1.157284815189155935e+00 1.661621224018615450e+00 3.346017804367848569e+00 -1.800264752575999605e+00 1.012529841458297497e+00 4.509386023541367194e+00 -3.179161447863409151e+00 -9.500722430215704506e-01 1.466180409721141942e+00 -3.830881401093040317e+00 1.586627845384604996e-01 -3.753197295813688328e-01 -4.799340361098542118e+00 1.310113804532267778e+00 -1.426435667584598832e+00 3.917146031837022591e+00 -3.181020955396096639e-01 -2.151621518902386843e+00 -2.345210162611019999e+00 2.084867403902447514e+00 -2.057591153788216332e+00 1.289558552366890432e+00 3.055285779751290676e+00 -1.241700310882251301e+00 3.492927713165723702e+00 -1.090195180710481715e+00 3.679424402403160599e+00 -4.855819640137504223e-02 4.395055311895436745e+00 -3.383090674532844844e+00 6.665596043261645676e-01 3.689335006285235252e+00 1.010718699606627524e-01 2.076634105093235760e+00 3.991717133209998991e+00 3.909619667496311735e+00 2.031491998891646666e+00 1.149862154089111854e-01 4.298590708087886014e+00 4.348313819880898379e+00 3.515857200652979131e+00 -2.120124843102325407e+00 4.263901090977098463e+00 4.057196665244161338e+00 -4.437845920247020182e+00 4.721016532085279493e+00 -1.747399965803389854e+00 -1.928396135393937172e-01 2.143395138019732471e-01 3.199864363009156776e+00 1.386635295396684953e+00 3.158717893035287716e-01 -6.848697530149507884e-01 9.979960919454473611e-01 3.030136138441880789e+00 3.067802485909750132e+00 3.030609920127245616e+00 1.124339311751373138e+00 4.928645272486459561e+00 -1.921210000520389372e+00 3.029505127967279776e+00 5.776401730515914323e-01 -4.709788207798547788e+00 -6.124414708911825045e-01 1.486243556889629502e+00 5.413605576910516248e-01 1.135573516607637501e-01 -4.363159054693339201e+00 -4.491001012904716205e-01 2.895034909768186004e+00 1.383369090074965335e+00 4.104797127111455168e+00 -2.895729246771959531e+00 -2.976288182307367247e+00 -3.202207061216075790e+00 -4.026696074180597051e+00 3.455415780357078859e+00 4.969631395501215465e+00 -3.269716013168413316e+00 -4.673628639759730419e-02 -3.802585619918069426e+00 -3.060709867154148611e+00
-6.598388682767817315e-01 3.577702880455841949e+00 3.101859088480976467e+00 -3.798614808083291550e-01 2.984094817899917373e+00 2.554318453503785946e+00 1.108223023780533723e+00 4.102167604049254734e+00 3.191424405757842919e+00 -3.353751832434812563e+00 -3.529075006352972999e+00 -2.898549296641182771e+00 -2.737516579300185438e+00 -2.657465224832611383e-01 -2.075401165014605365e+00 1.661621224018615450e+00 3.346017804367848569e+00 -1.324676357093844459e+00 1.012529841458297497e+00 4.509386023541367194e+00 1.483420081515238742e+00 -9.500722430215704506e-01 1.466180409721141942e+00 -3.830881401093040317e+00 1.586627845384604996e-01 -3.753197295813688328e-01 -4.799340361098542118e+00 1.310113804532267778e+00 -1.426435667584598832e+00 3.917146031837022591e+00 -3.181020955396096639e-01 9.096801358576129815e-01 -2.345210162611019999e+00 2.084867403902447514e+00 -2.057591153788216332e+00 1.289558552366890432e+00 3.055285779751290676e+00 -1.241700310882251301e+00 3.492927713165723702e+00 3.763524751294649917e+00 3.679424402403160599e+00 -4.855819640137504223e-02 4.395055311895436745e+00 -3.383090674532844844e+00 6.665596043261645676e-01 3.689335006285235252e+00 1.010718699606627524e-01 2.076634105093235760e+00 3.991717133209998991e+00 3.909619667496311735e+00 2.031491998891646666e+00 1.149862154089111854e-01 4.298590708087886014e+00 4.348313819880898379e+00 4.298859790499470535e+00 -2.120124843102325407e+00 -3.151216759681345625e+00 4.057196665244161338e+00 -2.537153752463422229e+00 4.721016532085279493e+00 -1.747399965803389854e+00 -1.928396135393937172e-01 2.143395138019732471e-01 3.199864363009156776e+00 1.386635295396684953e+00 1.077210623870560546e+00 -6.848697530149507884e-01 -4.254786829113921698e+00 3.030136138441880789e+00 -7.143869758069323339e-01 3.030609920127245616e+00 -3.382305302657151458e+00 4.928645272486459561e+00 -1.921210000520389372e+00 -4.850833468342788279e+00 5.776401730515914323e-01 3.133706282804835652e+00 -8.706483613428463997e-01 1.075098654372686369e+00 5.413605576910516248e-01 4.406798387162355723e+00 -4.363159054693339201e+00 -4.491001012904716205e-01 -4.623141917901493869e+00 1.383369090074965335e+00 4.104797127111455168e+00 -4.445743860395507951e+00 -2.976288182307367247e+00 -3.202207061216075790e+00 -4.026696074180597051e+00 3.455415780357078859e+00 4.969631395501215465e+00 -3.269716013168413316e+00 -4.673628639759730419e-02 -3.802585619918069426e+00 -3.060709867154148611e+00
-6.598388682767817315e-01 3.577702880455841949e+00 3.101859088480976467e+00 -3.798614808083291550e-01 2.984094817899917373e+00 2.554318453503785946e+00 1.108223023780533723e+00 4.102167604049254734e+00 3.191424405757842919e+00 4.651693476904824820e+00 -3.529075006352972999e+00 -2.898549296641182771e+00 -2.737516579300185438e+00 -2.657465224832611383e-01 -2.075401165014605365e+00 1.661621224018615450e+00 -3.676270698961465744e+00 -1.324676357093844459e+00 1.012529841458297497e+00 4.509386023541367194e+00 1.483420081515238742e+00 -9.500722430215704506e-01 1.466180409721141942e+00 -3.830881401093040317e+00 1.586627845384604996e-01 -3.753197295813688328e-01 -4.799340361098542118e+00 1.310113804532267778e+00 -1.426435667584598832e+00 3.917146031837022591e+00 -3.181020955396096639e-01 9.096801358576129815e-01 -2.345210162611019999e+00 2.084867403902447514e+00 -2.057591153788216332e+00 1.289558552366890432e+00 3.055285779751290676e+00 -1.241700310882251301e+00 3.492927713165723702e+00 -1.090195180710481715e+00 3.679424402403160599e+00 -4.855819640137504223e-02 4.395055311895436745e+00 -3.658258634774425033e+00 6.665596043261645676e-01 3.689335006285235252e+00 -4.437525271322658504e+00 2.076634105093235760e+00 3.991717133209998991e+00 3.909619667496311735e+00 2.031491998891646666e+00 1.149862154089111854e-01 -1.840413378993741578e+00 4.348313819880898379e+00 3.515857200652979131e+00 -2.120124843102325407e+00 4.263901090977098463e+00 4.057196665244161338e+00 -4.437845920247020182e+00 4.721016532085279493e+00 -1.747399965803389854e+00 -1.928396135393937172e-01 2.143395138019732471e-01 3.199864363009156776e+00 1.386635295396684953e+00 9.958742104198181622e-01 -6.848697530149507884e-01 9.979960919454473611e-01 3.030136138441880789e+00 3.067802485909750132e+00 3.030609920127245616e+00 1.121275390720263943e+00 3.389432934945638465e+00 -2.782094750030360331e+00 3.029505127967279776e+00 5.776401730515914323e-01 1.302561624268909313e+00 -8.706483613428463997e-01 1.486243556889629502e+00 5.413605576910516248e-01 4.406798387162355723e+00 -4.363159054693339201e+00 -4.491001012904716205e-01 -4.623141917901493869e+00 -1.756650923792959507e+00 4.104797127111455168e+00 -4.445743860395507951e+00 -2.976288182307367247e+00 -3.202207061216075790e+00 -4.026696074180597051e+00 3.455415780357078859e+00 4.969631395501215465e+00 -3.269716013168413316e+00 -4.673628639759730419e-02 -3.802585619918069426e+00 -3.060709867154148611e+00
2.454168302673868318e+00 3.577702880455841949e+00 3.101859088480976467e+00 -3.798614808083291550e-01 2.984094817899917373e+00 2.554318453503785946e+00 4.091168855629756962e+00 4.102167604049254734e+00 3.191424405757842919e+00 4.425074117614391511e+00 -3.529075006352972999e+00 -2.898549296641182771e+00 5.846801813587827468e-01 -2.657465224832611383e-01 1.157284815189155935e+00 1.661621224018615450e+00 3.346017804367848569e+00 -1.800264752575999605e+00 -3.438263484499204381e+00 4.509386023541367194e+00 -3.179161447863409151e+00 -9.500722430215704506e-01 1.466180409721141942e+00 -3.830881401093040317e+00 1.586627845384604996e-01 -3.753197295813688328e-01 -4.799340361098542118e+00 1.310113804532267778e+00 -1.426435667584598832e+00 3.917146031837022591e+00 -3.181020955396096639e-01 -2.309649418470528737e+00 -2.345210162611019999e+00 -4.269820692234481463e+00 -2.057591153788216332e+00 -4.102246293962208412e-01 3.055285779751290676e+00 -1.241700310882251301e+00 3.492927713165723702e+00 3.763524751294649917e+00 3.679424402403160599e+00 -4.855819640137504223e-02 4.395055311895436745e+00 -3.383090674532844844e+00 6.665596043261645676e-01 3.689335006285235252e+00 1.010718699606627524e-01 2.076634105093235760e+00 3.991717133209998991e+00 3.909619667496311735e+00 2.031491998891646666e+00 1.104022576874278627e+00 -1.695713530174671746e-01 4.348313819880898379e+00 3.515857200652979131e+00 -2.120124843102325407e+00 4.263901090977098463e+00 4.057196665244161338e+00 -2.537153752463422229e+00 2.006493177800829031e+00 -1.747399965803389854e+00 -1.928396135393937172e-01 2.143395138019732471e-01 3.199864363009156776e+00 1.386635295396684953e+00 9.958742104198181622e-01 -6.848697530149507884e-01 9.979960919454473611e-01 3.030136138441880789e+00 3.067802485909750132e+00 2.442027794127611173e+00 1.121275390720263943e+00 3.389432934945638465e+00 -2.782094750030360331e+00 3.029505127967279776e+00 5.776401730515914323e-01 1.302561624268909313e+00 3.865926240556794014e-01 1.486243556889629502e+00 5.413605576910516248e-01 4.406798387162355723e+00 -4.363159054693339201e+00 -4.491001012904716205e-01 -4.623141917901493869e+00 1.383369090074965335e+00 4.104797127111455168e+00 -2.895729246771959531e+00 -2.976288182307367247e+00 -3.202207061216075790e+00 -4.026696074180597051e+00 3.455415780357078859e+00 4.969631395501215465e+00 -3.269716013168413316e+00 -4.673628639759730419e-02 -3.802585619918069426e+00 -3.060709867154148611e+00
2.454168302673868318e+00 3.577702880455841949e+00 3.101859088480976467e+00 -3.798614808083291550e-01 2.984094817899917373e+00 -4.376725969050951903e-01 4.091168855629756962e+00 4.102167604049254734e+00 3.191424405757842919e+00 3.306957487922142391e+00 -3.529075006352972999e+00 -2.898549296641182771e+00 -2.737516579300185438e+00 -2.300225507846302975e-01 1.157284815189155935e+00 1.661621224018615450e+00 3.346017804367848569e+00 -1.800264752575999605e+00 1.012529841458297497e+00 4.509386023541367194e+00 -3.179161447863409151e+00 -9.500722430215704506e-01 1.466180409721141942e+00 -3.830881401093040317e+00 1.586627845384604996e-01 -3.753197295813688328e-01 -4.799340361098542118e+00 1.310113804532267778e+00 7.319688993984634351e-01 3.917146031837022591e+00 -3.181020955396096639e-01 -2.151621518902386843e+00 -4.379895421058469296e+00 2.278254781918770178e+00 -2.057591153788216332e+00 1.289558552366890432e+00 3.055285779751290676e+00 -1.241700310882251301e+00 3.492927713165723702e+00 -1.090195180710481715e+00 3.679424402403160599e+00 2.455864383961619879e+00 4.395055311895436745e+00 -3.383090674532844844e+00 -4.393219550766054304e+00 3.689335006285235252e+00 1.010718699606627524e-01 2.076634105093235760e+00 3.991717133209998991e+00 3.909619667496311735e+00 2.031491998891646666e+00 1.149862154089111854e-01 4.298590708087886014e+00 4.348313819880898379e+00 3.515857200652979131e+00 -2.120124843102325407e+00 4.263901090977098463e+00 4.057196665244161338e+00 -4.437845920247020182e+00 4.721016532085279493e+00 -1.747399965803389854e+00 -1.928396135393937172e-01 1.076345998789237868e+00 3.199864363009156776e+00 1.386635295396684953e+00 3.158717893035287716e-01 -6.848697530149507884e-01 9.979960919454473611e-01 3.030136138441880789e+00 3.067802485909750132e+00 -2.116414703180722334e+00 1.124339311751373138e+00 4.928645272486459561e+00 -1.921210000520389372e+00 3.029505127967279776e+00 5.776401730515914323e-01 -4.709788207798547788e+00 -6.124414708911825045e-01 1.486243556889629502e+00 2.739992642929314215e-01 1.135573516607637501e-01 -4.363159054693339201e+00 -4.491001012904716205e-01 2.895034909768186004e+00 1.383369090074965335e+00 1.594428683600696672e+00 -2.895729246771959531e+00 -2.976288182307367247e+00 -3.202207061216075790e+00 -4.026696074180597051e+00 3.455415780357078859e+00 4.969631395501215465e+00 -3.269716013168413316e+00 -4.673628639759730419e-02 -3.802585619918069426e+00 -3.060709867154148611e+00
-6.598388682767817315e-01 3.577702880455841949e+00 3.101859088480976467e+00 -3.798614808083291550e-01 2.984094817899917373e+00 2.554318453503785946e+00 1.108223023780533723e+00 4.102167604049254734e+00 3.191424405757842919e+00 3.306957487922142391e+00 -3.529075006352972999e+00 -2.898549296641182771e+00 -2.737516579300185438e+00 -2.657465224832611383e-01 1.157284815189155935e+00 1.661621224018615450e+00 3.346017804367848569e+00 -1.800264752575999605e+00 1.012529841458297497e+00 4.509386023541367194e+00 -3.179161447863409151e+00 -9.500722430215704506e-01 1.466180409721141942e+00 -3.830881401093040317e+00 1.586627845384604996e-01 -3.753197295813688328e-01 -4.799340361098542118e+00 1.310113804532267778e+00 -2.969749813480053735e+00 3.917146031837022591e+00 -3.181020955396096639e-01 -2.151621518902386843e+00 -2.345210162611019999e+00 2.084867403902447514e+00 -2.057591153788216332e+00 -4.102246293962208412e-01 3.055285779751290676e+00 -1.241700310882251301e+00 3.492927713165723702e+00 4.525316107307249425e+00 3.679424402403160599e+00 -4.855819640137504223e-02 4.395055311895436745e+00 -3.383090674532844844e+00 6.665596043261645676e-01 3.689335006285235252e+00 1.010718699606627524e-01 2.076634105093235760e+00 3.991717133209998991e+00 3.909619667496311735e+00 2.031491998891646666e+00 1.149862154089111854e-01 4.298590708087886014e+00 4.348313819880898379e+00 4.298859790499470535e+00 -2.120124843102325407e+00 4.263901090977098463e+00 4.057196665244161338e+00 -2.796053688260023762e+00 2.006493177800829031e+00 -1.747399965803389854e+00 4.743438600987147424e+00 1.076345998789237868e+00 3.199864363009156776e+00 1.386635295396684953e+00 3.158717893035287716e-01 -6.848697530149507884e-01 9.979960919454473611e-01 3.030136138441880789e+00 3.067802485909750132e+00 3.030609920127245616e+00 1.124339311751373138e+00 4.928645272486459561e+00 -1.921210000520389372e+00 3.029505127967279776e+00 5.776401730515914323e-01 1.302561624268909313e+00 -6.124414708911825045e-01 1.486243556889629502e+00 5.413605576910516248e-01 1.135573516607637501e-01 -4.363159054693339201e+00 -4.491001012904716205e-01 2.895034909768186004e+00 1.383369090074965335e+00 4.104797127111455168e+00 -2.895729246771959531e+00 -2.976288182307367247e+00 -3.202207061216075790e+00 -4.026696074180597051e+00 3.455415780357078859e+00 4.969631395501215465e+00 -3.269716013168413316e+00 -4.673628639759730419e-02 -3.802585619918069426e+00 -3.060709867154148611e+00
2.454168302673868318e+00 3.577702880455841949e+00 3.101859088480976467e+00 -3.798614808083291550e-01 2.984094817899917373e+00 2.554318453503785946e+00 4.091168855629756962e+00 4.102167604049254734e+00 3.191424405757842919e+00 4.425074117614391511e+00 -3.529075006352972999e+00 -2.898549296641182771e+00 5.846801813587827468e-01 -2.657465224832611383e-01 1.157284815189155935e+00 1.661621224018615450e+00 3.346017804367848569e+00 -1.800264752575999605e+00 -3.438263484499204381e+00 4.509386023541367194e+00 -3.179161447863409151e+00 -9.500722430215704506e-01 1.466180409721141942e+00 -3.830881401093040317e+00 1.586627845384604996e-01 -3.753197295813688328e-01 -4.799340361098542118e+00 1.310113804532267778e+00 -1.426435667584598832e+00 3.917146031837022591e+00 -3.181020955396096639e-01 -2.309649418470528737e+00 -2.345210162611019999e+00 -4.269820692234481463e+00 -2.057591153788216332e+00 -4.102246293962208412e-01 3.055285779751290676e+00 -1.241700310882251301e+00 3.492927713165723702e+00 -1.090195180710481715e+00 3.679424402403160599e+00 -4.855819640137504223e-02 4.395055311895436745e+00 -3.383090674532844844e+00 -4.938675345479644818e+00 3.689335006285235252e+00 4.356943451876702511e-01 2.076634105093235760e+00 3.991717133209998991e+00 3.909619667496311735e+00 -1.170769209802235977e+00 1.149862154089111854e-01 4.298590708087886014e+00 4.348313819880898379e+00 4.298859790499470535e+00 -2.120124843102325407e+00 4.263901090977098463e+00 4.057196665244161338e+00 -2.537153752463422229e+00 2.006493177800829031e+00 -1.747399965803389854e+00 4.743438600987147424e+00 1.076345998789237868e+00 3.199864363009156776e+00 1.386635295396684953e+00 3.158717893035287716e-01 -6.848697530149507884e-01 9.979960919454473611e-01 3.030136138441880789e+00 3.067802485909750132e+00 3.030609920127245616e+00 1.124339311751373138e+00 4.928645272486459561e+00 -1.921210000520389372e+00 3.029505127967279776e+00 5.776401730515914323e-01 -4.709788207798547788e+00 -6.124414708911825045e-01 1.486243556889629502e+00 5.413605576910516248e-01 1.135573516607637501e-01 -4.363159054693339201e+00 -4.491001012904716205e-01 2.895034909768186004e+00 -1.878801742823151599e+00 4.104797127111455168e+00 -2.895729246771959531e+00 -2.976288182307367247e+00 -3.202207061216075790e+00 -4.026696074180597051e+00 3.455415780357078859e+00 4.969631395501215465e+00 -3.269716013168413316e+00 -4.673628639759730419e-02 -3.802585619918069426e+00 -3.060709867154148611e+00
-6.598388682767817315e-01 3.577702880455841949e+00 3.101859088480976467e+00 1.275925529488929122e+00 2.984094817899917373e+00 2.554318453503785946e+00 1.108223023780533723e+00 2.142885504284436138e+00 3.191424405757842919e+00 -3.353751832434812563e+00 -3.529075006352972999e+00 -2.898549296641182771e+00 -2.737516579300185438e+00 -2.657465224832611383e-01 -2.075401165014605365e+00 1.661621224018615450e+00 3.346017804367848569e+00 -1.324676357093844459e+00 1.012529841458297497e+00 4.509386023541367194e+00 1.483420081515238742e+00 -9.500722430215704506e-01 1.466180409721141942e+00 -3.830881401093040317e+00 1.586627845384604996e-01 -3.753197295813688328e-01 -4.799340361098542118e+00 1.310113804532267778e+00 -1.426435667584598832e+00 3.917146031837022591e+00 -3.181020955396096639e-01 9.096801358576129815e-01 -2.345210162611019999e+00 2.084867403902447514e+00 -2.057591153788216332e+00 1.289558552366890432e+00 3.055285779751290676e+00 -1.241700310882251301e+00 3.492927713165723702e+00 -1.090195180710481715e+00 3.679424402403160599e+00 -4.855819640137504223e-02 4.395055311895436745e+00 -3.383090674532844844e+00 -4.938675345479644818e+00 3.689335006285235252e+00 4.356943451876702511e-01 2.076634105093235760e+00 3.991717133209998991e+00 3.909619667496311735e+00 -1.170769209802235977e+00 1.149862154089111854e-01 4.298590708087886014e+00 4.348313819880898379e+00 4.298859790499470535e+00 -2.120124843102325407e+00 4.263901090977098463e+00 4.057196665244161338e+00 -2.537153752463422229e+00 2.006493177800829031e+00 -1.747399965803389854e+00 4.743438600987147424e+00 1.076345998789237868e+00 3.199864363009156776e+00 1.386635295396684953e+00 3.158717893035287716e-01 -6.848697530149507884e-01 9.979960919454473611e-01 3.030136138441880789e+00 3.067802485909750132e+00 3.030609920127245616e+00 1.124339311751373138e+00 4.928645272486459561e+00 -1.921210000520389372e+00 3.029505127967279776e+00 5.776401730515914323e-01 -4.709788207798547788e+00 -6.124414708911825045e-01 1.486243556889629502e+00 5.413605576910516248e-01 1.135573516607637501e-01 -4.363159054693339201e+00 -4.491001012904716205e-01 4.914908439912990090e+00 1.383369090074965335e+00 4.104797127111455168e+00 -4.445743860395507951e+00 -2.976288182307367247e+00 -3.202207061216075790e+00 -4.026696074180597051e+00 3.455415780357078859e+00 4.969631395501215465e+00 -3.269716013168413316e+00 -4.673628639759730419e-02 -3.802585619918069426e+00 -3.060709867154148611e+00
2.454168302673868318e+00 3.577702880455841949e+00 3.101859088480976467e+00 -3.798614808083291550e-01 -4.908365058844807116e+00 2.554318453503785946e+00 4.091168855629756962e+00 4.102167604049254734e+00 3.191424405757842919e+00 3.306957487922142391e+00 -3.702587786373923162e+00 -2.898549296641182771e+00 5.846801813587827468e-01 -2.657465224832611383e-01 1.157284815189155935e+00 1.661621224018615450e+00 3.346017804367848569e+00 -1.800264752575999605e+00 -3.438263484499204381e+00 4.509386023541367194e+00 -3.179161447863409151e+00 -9.500722430215704506e-01 1.466180409721141942e+00 -3.830881401093040317e+00 1.586627845384604996e-01 -3.753197295813688328e-01 -4.799340361098542118e+00 1.310113804532267778e+00 -1.426435667584598832e+00 3.917146031837022591e+00 -3.181020955396096639e-01 -2.309649418470528737e+00 -2.345210162611019999e+00 -4.269820692234481463e+00 -2.057591153788216332e+00 -4.102246293962208412e-01 3.055285779751290676e+00 -1.241700310882251301e+00 3.492927713165723702e+00 3.763524751294649917e+00 3.679424402403160599e+00 1.890053960215447582e+00 4.395055311895436745e+00 -3.383090674532844844e+00 6.665596043261645676e-01 3.689335006285235252e+00 1.010718699606627524e-01 2.076634105093235760e+00 3.991717133209998991e+00 3.909619667496311735e+00 2.031491998891646666e+00 4.101266090753684423e+00 -1.695713530174671746e-01 4.348313819880898379e+00 3.515857200652979131e+00 -2.120124843102325407e+00 4.263901090977098463e+00 4.057196665244161338e+00 -2.537153752463422229e+00 2.006493177800829031e+00 -1.747399965803389854e+00 -1.928396135393937172e-01 2.143395138019732471e-01 3.199864363009156776e+00 1.386635295396684953e+00 9.958742104198181622e-01 -6.848697530149507884e-01 9.979960919454473611e-01 3.030136138441880789e+00 3.067802485909750132e+00 3.030609920127245616e+00 -1.544617947089173882e+00 3.389432934945638465e+00 -2.782094750030360331e+00 3.029505127967279776e+00 5.776401730515914323e-01 1.302561624268909313e+00 -8.706483613428463997e-01 1.486243556889629502e+00 5.413605576910516248e-01 4.406798387162355723e+00 -4.363159054693339201e+00 -4.491001012904716205e-01 -4.623141917901493869e+00 -1.756650923792959507e+00 4.104797127111455168e+00 -4.445743860395507951e+00 -2.976288182307367247e+00 -3.202207061216075790e+00 -4.026696074180597051e+00 3.455415780357078859e+00 4.969631395501215465e+00 -3.269716013168413316e+00 -4.673628639759730419e-02 -3.802585619918069426e+00 -3.060709867154148611e+00
-6.598388682767817315e-01 1.656806261320599383e+00 3.101859088480976467e+00 -3.798614808083291550e-01 2.984094817899917373e+00 2.554318453503785946e+00 1.108223023780533723e+00 4.102167604049254734e+00 3.191424405757842919e+00 -3.353751832434812563e+00 -3.529075006352972999e+00 -2.898549296641182771e+00 -2.737516579300185438e+00 -2.657465224832611383e-01 -2.075401165014605365e+00 1.661621224018615450e+00 3.346017804367848569e+00 -1.324676357093844459e+00 1.736192563357407792e+00 4.509386023541367194e+00 1.483420081515238742e+00 -9.500722430215704506e-01 1.466180409721141942e+00 -3.830881401093040317e+00 1.586627845384604996e-01 2.758025908148522554e+00 -1.056704197809810175e+00 1.310113804532267778e+00 -1.763677390763316311e+00 3.917146031837022591e+00 -3.181020955396096639e-01 9.096801358576129815e-01 -3.310459305439054312e+00 2.278254781918770178e+00 -2.057591153788216332e+00 1.289558552366890432e+00 3.055285779751290676e+00 -1.241700310882251301e+00 3.492927713165723702e+00 -1.090195180710481715e+00 3.679424402403160599e+00 2.455864383961619879e+00 4.395055311895436745e+00 -3.383090674532844844e+00 6.665596043261645676e-01 3.689335006285235252e+00 1.010718699606627524e-01 2.076634105093235760e+00 3.991717133209998991e+00 3.909619667496311735e+00 2.031491998891646666e+00 1.149862154089111854e-01 4.298590708087886014e+00 4.348313819880898379e+00 3.515857200652979131e+00 -2.120124843102325407e+00 4.263901090977098463e+00 4.057196665244161338e+00 -4.437845920247020182e+00 4.721016532085279493e+00 -1.747399965803389854e+00 -1.928396135393937172e-01 2.143395138019732471e-01 3.199864363009156776e+00 1.386635295396684953e+00 3.158717893035287716e-01 -6.848697530149507884e-01 9.979960919454473611e-01 3.030136138441880789e+00 3.067802485909750132e+00 3.030609920127245616e+00 1.110198822319148348e-01 4.928645272486459561e+00 -1.921210000520389372e+00 -4.850833468342788279e+00 5.776401730515914323e-01 1.302561624268909313e+00 -6.124414708911825045e-01 1.486243556889629502e+00 5.413605576910516248e-01 1.135573516607637501e-01 -4.363159054693339201e+00 -4.491001012904716205e-01 2.895034909768186004e+00 1.383369090074965335e+00 4.104797127111455168e+00 -2.895729246771959531e+00 -2.976288182307367247e+00 -3.202207061216075790e+00 -4.026696074180597051e+00 3.455415780357078859e+00 4.969631395501215465e+00 -3.269716013168413316e+00 -4.673628639759730419e-02 -3.802585619918069426e+00 -3.060709867154148611e+00
2.454168302673868318e+00 3.577702880455841949e+00 3.101859088480976467e+00 -3.798614808083291550e-01 -4.908365058844807116e+00 2.554318453503785946e+00 4.091168855629756962e+00 4.102167604049254734e+00 3.191424405757842919e+00 3.306957487922142391e+00 -3.529075006352972999e+00 -2.898549296641182771e+00 -2.737516579300185438e+00 -2.657465224832611383e-01 1.157284815189155935e+00 2.075233564734166869e+00 3.346017804367848569e+00 -1.800264752575999605e+00 1.012529841458297497e+00 4.509386023541367194e+00 -3.179161447863409151e+00 -9.500722430215704506e-01 1.466180409721141942e+00 -3.830881401093040317e+00 1.586627845384604996e-01 -3.753197295813688328e-01 -4.799340361098542118e+00 1.310113804532267778e+00 -1.426435667584598832e+00 3.917146031837022591e+00 4.882942630827914243e+00 -2.151621518902386843e+00 -2.345210162611019999e+00 2.084867403902447514e+00 3.345355286326247679e+00 -4.102246293962208412e-01 3.055285779751290676e+00 -3.663175077594182927e+00 3.492927713165723702e+00 3.763524751294649917e+00 3.679424402403160599e+00 -4.855819640137504223e-02 4.395055311895436745e+00 -3.383090674532844844e+00 6.665596043261645676e-01 3.689335006285235252e+00 1.010718699606627524e-01 2.076634105093235760e+00 3.991717133209998991e+00 3.909619667496311735e+00 2.031491998891646666e+00 1.149862154089111854e-01 4.298590708087886014e+00 4.348313819880898379e+00 4.298859790499470535e+00 -2.120124843102325407e+00 -3.151216759681345625e+00 4.057196665244161338e+00 -2.537153752463422229e+00 4.721016532085279493e+00 -1.747399965803389854e+00 -1.928396135393937172e-01 2.143395138019732471e-01 3.199864363009156776e+00 1.386635295396684953e+00 1.077210623870560546e+00 -6.848697530149507884e-01 9.979960919454473611e-01 3.030136138441880789e+00 -7.143869758069323339e-01 -4.333567472372591212e+00 -3.382305302657151458e+00 4.928645272486459561e+00 -1.921210000520389372e+00 -4.850833468342788279e+00 5.776401730515914323e-01 3.133706282804835652e+00 -8.706483613428463997e-01 1.075098654372686369e+00 5.413605576910516248e-01 4.406798387162355723e+00 -4.363159054693339201e+00 -4.491001012904716205e-01 -4.623141917901493869e+00 1.383369090074965335e+00 4.104797127111455168e+00 -4.445743860395507951e+00 -2.976288182307367247e+00 -3.202207061216075790e+00 -4.026696074180597051e+00 -1.520780551434852690e+00 4.969631395501215465e+00 -3.269716013168413316e+00 -4.673628639759730419e-02 -3.802585619918069426e+00 -3.060709867154148611e+00
