4.789804 2.129499 2.004475 -4.278907 -3.611465 -0.222533 -1.448317 -4.695334 1.202660 -2.596576 2.166729 1.278522 0.979338 1.197318 -1.353970 4.703039 4.430051 -2.753504 3.992819 -1.697287 0.372617 1.593120 1.526664 1.773233 -0.536229 1.933056 -0.095604 -2.517689 3.492877 2.209866 -2.710998 2.640435 -0.895602 4.517066 3.777241 -3.433226 1.115796 -0.859993 4.185310 -4.360462 2.075941 2.763506 3.930837 3.902383 -4.635269 -0.625897 -4.542138 1.573298 -0.271876 -2.486531 -3.741758 -2.278244 -0.055374 -0.946521 -2.659913 -1.617119 -3.072738 2.138982 -2.150098 0.925064 -3.561635 -2.176317 0.926396 -1.782526 -0.717286 -4.436092 -3.075671 1.354780 4.384147 1.157884 -2.141003 -4.991900 1.730532 -3.180761 4.003435 -0.190942 2.215401 1.565161 -0.410686 3.511295 4.618848 -0.421466 4.133855 0.046557 3.130273 -2.495122 0.542815 1.214145 3.979355 1.609050 -2.019934 -3.934239 -0.781156 4.808705 -3.500096 -2.907027
-2.338284 0.608905 -3.394360 2.634265 -4.355535 -2.620882 -1.682470 -2.448651 -3.288451 0.990774 1.182184 -1.977474 0.030263 -2.483290 -2.237127 -0.878955 -0.087220 -4.138149 -4.657541 2.452846 3.252648 -1.022744 4.035034 -3.812664 -1.048437 -4.741725 -2.221507 0.228374 4.221192 3.348049 0.849224 1.416135 2.639200 3.318514 3.590001 -2.714118 -2.237398 3.837331 1.862118 -3.837671 -3.950270 -2.151643 1.068935 -4.290819 0.104548 -2.314649 1.244546 -3.804123 2.389521 -3.741977 -3.266261 4.709203 -3.818876 -2.257242 4.006161 1.718925 0.471787 1.698662 -1.645204 1.008309 -2.897532 -3.543157 -2.968550 0.802269 -4.321672 -3.517351 -1.682378 2.715079 0.284186 0.032809 0.340463 2.616383 0.364721 2.320167 0.636851 3.289206 -2.975379 -1.420360 -2.740883 -2.232365 -4.141201 -0.846535 0.297723 -3.210538 -3.142986 1.389674 2.010583 -2.382801 -0.534154 0.046722 0.539792 -3.152992 0.984499 -1.486181 -4.162593 -4.536065
1.135361 -0.448438 3.514886 -2.606797 3.806594 2.761217 2.605778 -4.751535 -3.669733 -2.694168 0.630466 -3.429577 1.593108 2.241984 4.490329 -4.333867 2.152152 4.708179 -4.835143 0.852945 0.451065 1.305120 3.281444 -4.084565 4.897083 -4.018187 0.770939 1.219444 2.354918 4.105981 -0.023084 4.604835 4.390397 0.376742 -2.422047 -0.696332 0.193887 -1.429551 -4.999247 4.025731 -0.243348 1.642962 4.535719 -4.274136 -3.410519 -0.303259 -4.587690 -4.592075 -0.502544 -4.956378 -0.589334 -4.715953 0.463777 -1.972839 1.752275 1.461915 4.833466 -0.239987 1.860935 1.851784 -3.248312 1.240209 0.015295 0.593959 -4.792838 -1.719715 -2.286334 3.697726 0.399838 4.309437 -4.524971 -4.111178 -0.191037 0.557818 4.729756 4.695440 0.813292 -0.958503 -0.336499 -0.491109 -1.210113 -4.865599 4.300019 -1.641795 -1.747746 1.686908 4.012123 -2.382801 -0.534154 0.046722 0.539792 -3.152992 0.984499 -1.486181 -4.162593 -4.536065
-1.137868 -2.857388 1.226009 -2.740834 3.344779 4.161239 -2.901841 4.622835 -3.897869 4.529015 -3.530949 0.957725 -1.989522 0.864426 3.096339 0.882272 -4.114176 2.334008 2.393082 3.908105 0.687435 4.087866 -2.638913 -3.958121 1.740439 -4.727223 4.768498 -2.515731 1.301746 2.761103 -4.958699 -4.998925 -4.459260 3.632613 2.535248 -0.696332 0.193887 -1.429551 -1.789218 4.025731 -0.243348 1.642962 4.535719 -4.274136 -3.410519 -0.052581 -3.218187 3.514703 0.399186 3.977266 -0.383785 -4.001427 3.599640 3.120335 -2.266200 2.639312 4.470621 -2.402791 -1.880243 0.376397 0.495997 2.588538 -4.594799 3.859478 -4.648085 -3.443511 4.057726 2.888872 -0.897822 3.451797 -4.402112 -3.616153 -3.567758 3.671146 3.278107 -0.145713 2.177191 1.553244 -3.668886 -3.129510 0.694627 -4.609292 2.646358 -2.298082 4.166924 2.992612 -3.438714 -3.805537 1.558348 1.609050 0.728209 -2.114279 -1.363969 -1.617047 -3.538082 -1.436405
-4.760614 2.129499 2.004475 -4.278907 -3.611465 -0.222533 -1.448317 -4.695334 1.202660 -2.596576 -3.530949 1.997556 -1.989522 0.864426 3.096339 3.169450 -4.114176 2.334008 2.393082 3.908105 0.687435 4.087866 -2.638913 -3.958121 -0.015548 -4.727223 4.768498 -2.515731 1.301746 2.761103 -4.958699 -4.998925 -4.459260 3.632613 2.535248 -0.696332 0.193887 -1.429551 -4.999247 4.025731 -0.243348 1.642962 4.535719 -4.274136 -3.410519 -0.303259 -4.587690 -4.592075 4.528759 1.024230 4.135015 0.471912 -0.572171 3.120335 -2.266200 2.639312 4.470621 -2.402791 -1.880243 0.376397 0.495997 2.588538 -4.594799 3.859478 -4.648085 -3.443511 4.057726 -3.631557 4.265772 2.917025 -2.467420 1.003233 2.173831 -2.191400 -2.264000 -2.751948 -3.585384 -4.954224 -2.427391 1.365481 -1.986671 4.886057 -0.177840 -1.113165 1.012645 2.499578 -3.608347 -1.966086 -3.189817 2.715598 -0.492258 1.872123 -4.031643 3.506697 -3.831571 2.674611
4.789804 2.129499 2.004475 -4.278907 -3.611465 -0.222533 2.591986 -4.695334 1.202660 -2.596576 2.166729 1.278522 0.979338 1.197318 -1.353970 4.703039 4.430051 -2.753504 1.002614 -1.132792 -2.518703 -2.068240 2.277143 -1.187785 -3.629637 0.097602 -3.785312 1.048221 -4.904690 -4.389496 -1.149630 3.254174 1.284422 3.696635 -4.913730 -0.562473 -4.986296 -0.144398 1.528560 -0.606910 -0.096461 -2.239155 4.212716 2.538181 2.292319 3.025724 -3.180609 4.936882 -2.172668 2.481579 0.428415 3.808280 2.846720 2.083626 -3.694471 3.531679 1.917534 -4.464500 0.618454 2.929227 0.922523 0.826344 -1.421747 0.873645 -2.959140 -2.854327 -2.439699 -4.623009 0.284186 0.032809 0.340463 2.616383 0.364721 2.320167 0.636851 3.289206 -2.975379 -1.420360 -2.740883 -2.232365 -4.318377 1.241144 -4.587830 0.797508 1.157832 1.808102 3.379886 4.531590 4.618836 0.046722 0.539792 -3.152992 0.984499 -1.486181 -4.162593 -0.777224
1.135361 -0.448438 3.514886 -2.606797 3.806594 2.761217 2.605778 -4.751535 -3.669733 -2.694168 0.630466 -3.429577 1.593108 2.241984 4.490329 -4.333867 2.152152 4.708179 -4.835143 0.852945 0.451065 1.305120 3.281444 -4.084565 4.897083 -4.018187 3.720493 -4.216727 0.144988 -4.697148 -2.534138 3.019549 4.361647 0.924447 0.083109 -3.137307 -3.873471 -2.847230 -1.032905 4.112080 -4.750191 2.354138 -3.835537 -2.974140 -1.482413 -2.501681 3.631454 -3.180730 1.470442 3.585256 -4.081398 -2.154912 -3.540605 -0.033849 1.529037 -1.471382 0.483695 1.342018 1.160908 -2.979016 -3.248312 2.554020 0.015295 2.144034 -4.792838 -1.719715 -2.286334 3.697726 0.399838 4.309437 -4.524971 -4.111178 3.483845 -4.415354 4.729756 4.695440 0.813292 -0.958503 -0.336499 -0.491109 -1.210113 -4.865599 4.300019 -1.641795 -1.747746 -0.026723 3.632160 -2.382801 -0.534154 0.046722 0.539792 1.872123 -4.031643 3.506697 -3.831571 2.674611
1.429412 4.059315 3.762353 -2.493428 3.531243 3.260560 -0.796660 -2.448651 -3.288451 0.990774 1.182184 -1.977474 0.030263 -0.791688 -2.237127 -0.878955 -0.087220 1.624241 0.916628 0.124571 -0.628685 -1.786969 -3.907367 -2.966038 -3.855794 -0.896909 -0.806320 -4.684056 -3.342630 0.289004 -2.906906 1.391084 1.710142 4.299799 -0.777293 -0.142200 3.253350 -3.154210 1.853186 4.185610 -0.044750 0.773531 3.074644 -1.968479 -0.464671 -2.480527 1.836126 2.617407 -0.130906 1.061349 2.258977 1.853180 -0.755750 2.692735 4.365937 0.898296 -0.796327 -1.784519 4.448813 1.757184 -0.286633 4.727224 3.632355 2.429698 -2.428424 4.381169 -2.167389 4.169708 0.092932 1.435709 -4.375449 -4.501818 -3.567758 3.671146 3.278107 -0.145713 2.177191 1.553244 -3.668886 -3.129510 0.694627 -1.885417 2.646358 -2.298082 4.166924 2.992612 -3.438714 -3.805537 3.525632 -0.639899 -0.515711 0.046192 4.617958 1.610025 -1.004295 2.979989
-0.537418 4.857662 -2.781604 4.883199 -2.254726 2.761217 2.605778 -4.751535 -3.669733 -1.137263 0.630466 -3.429577 1.593108 4.067276 4.490329 -4.333867 2.152152 4.708179 -4.835143 0.852945 0.451065 1.305120 3.281444 -4.084565 4.897083 -4.018187 0.770939 1.219444 2.354918 4.105981 -0.023084 4.604835 4.390397 0.376742 -2.422047 -0.696332 0.193887 -2.284120 -4.999247 4.025731 -0.243348 1.642962 4.535719 -4.274136 -3.410519 -0.303259 -4.587690 -4.592075 -0.502544 -4.956378 -0.589334 4.986556 -0.930058 -0.747815 4.990893 4.138217 1.670281 -1.392253 4.503449 0.937433 4.206297 -2.519534 0.318068 -1.735249 3.705604 3.133298 1.722369 -1.039556 -2.131687 4.736209 2.274823 0.841129 -1.182290 3.134644 -4.516096 3.738106 -4.469643 -0.925225 -0.152909 -0.011044 -1.059902 -2.725306 -0.674387 2.033248 -1.275581 -1.859307 3.612706 -0.274995 -2.177006 -4.205164 0.296210 0.633614 -2.532310 -1.352361 0.173962 2.714472
1.135361 -0.448438 3.514886 -2.606797 3.806594 2.761217 2.605778 -4.751535 -3.669733 -2.694168 0.630466 -3.429577 1.593108 2.241984 4.490329 -4.333867 2.152152 4.708179 -4.835143 0.852945 0.451065 1.305120 3.281444 -4.084565 4.897083 -4.018187 3.720493 1.219444 2.354918 4.105981 -0.023084 4.604835 4.390397 0.376742 -2.422047 -0.696332 0.193887 -1.429551 -4.999247 4.025731 -0.243348 1.642962 4.535719 -4.274136 -3.410519 -0.303259 -4.587690 -4.592075 4.528759 1.024230 4.135015 0.471912 -0.572171 3.120335 -2.266200 2.639312 4.470621 1.698662 -1.645204 1.677764 -2.897532 -3.543157 -2.968550 0.802269 -3.178832 -3.517351 -1.682378 2.715079 -4.544036 0.573795 2.293911 2.787282 -3.179855 4.579983 -4.310061 -4.373429 -3.478889 -0.188252 -0.515750 -0.319242 -3.892551 4.886057 -0.177840 -1.113165 1.012645 -0.026723 3.632160 -2.382801 -0.534154 0.046722 0.539792 -3.152992 0.984499 -1.486181 -4.162593 -4.536065
1.135361 -0.448438 3.514886 0.468532 3.806594 2.761217 2.605778 -4.751535 -3.669733 -2.694168 0.630466 -3.429577 1.593108 2.241984 4.490329 -4.333867 2.152152 4.708179 -4.835143 0.852945 0.451065 1.305120 3.281444 -4.084565 4.897083 -4.018187 3.720493 1.219444 2.354918 4.105981 -0.023084 4.604835 4.390397 0.376742 -2.422047 -0.696332 0.193887 -1.429551 -4.999247 4.025731 -0.243348 1.642962 4.535719 -4.274136 -3.410519 -0.303259 -4.587690 -4.592075 4.528759 1.024230 -2.036889 -4.715953 0.463777 -1.972839 1.752275 1.461915 4.833466 -0.239987 1.860935 1.851784 -1.725849 3.301559 4.568672 2.095530 -0.309626 2.332322 -0.112286 -4.312238 1.354314 1.329364 3.024487 4.679263 3.780260 -1.771793 1.348961 0.037898 1.986734 -3.507435 -2.713499 -3.144211 -4.850083 -1.753699 2.767554 -3.759189 -1.936272 4.373343 1.895695 -2.244041 -0.492047 -4.647288 2.782233 -2.103187 0.248805 -0.692942 4.737157 1.419863
4.184295 0.366894 2.106374 -1.985400 -3.498518 -4.172457 2.589800 -4.300673 -2.151210 4.961158 3.324551 -2.340292 -3.134529 0.338162 0.089838 -2.376420 -3.694543 1.624241 0.916628 0.124571 -0.628685 0.475344 -3.907367 -2.966038 -3.855794 -0.896909 -0.806320 -4.684056 -3.342630 0.289004 -2.906906 1.391084 1.710142 4.299799 -0.777293 -0.142200 3.253350 -3.154210 1.853186 4.185610 -0.044750 0.773531 3.074644 -2.974140 -1.482413 -2.501681 3.631454 -3.180730 1.470442 3.585256 -4.081398 -2.154912 -3.540605 -0.033849 1.529037 -1.471382 0.483695 1.342018 1.160908 -2.979016 -3.248312 2.554020 0.015295 0.593959 -4.792838 -1.719715 -2.286334 3.697726 0.399838 4.309437 -4.524971 -4.111178 3.483845 -4.415354 4.729756 4.695440 0.813292 -0.958503 -0.336499 -0.491109 -1.210113 -4.865599 4.300019 -1.641795 -1.747746 -0.026723 3.632160 -2.382801 -0.534154 0.046722 0.539792 -3.152992 0.984499 -1.486181 -4.162593 -4.536065
-3.828362 -0.156249 1.822687 4.083587 2.058430 -2.045281 -4.524005 -1.351733 -3.318884 -1.142765 4.273092 0.727916 4.149494 0.482365 1.756727 -2.196302 -1.055049 -1.659067 2.597669 -4.477732 0.480426 1.614718 1.892970 4.373503 -2.492103 -3.258749 2.288866 3.366102 0.190295 1.481252 -2.079670 2.850392 -3.010542 -2.241488 2.915996 -4.726487 3.183548 -1.596616 0.715700 -3.997791 -2.431030 -4.300755 -4.929649 3.969028 -3.986680 -0.052581 -3.218187 3.514703 -0.502544 -4.956378 -0.589334 4.986556 -0.930058 -0.747815 4.990893 4.138217 1.670281 -1.392253 0.976718 0.937433 4.206297 -2.519534 0.318068 -1.735249 3.705604 -2.919208 1.722369 -1.039556 -2.131687 -2.713304 2.274823 0.841129 -1.182290 3.134644 -4.516096 3.738106 -4.469643 -0.925225 -0.152909 -0.011044 -1.059902 -2.725306 -0.986691 2.033248 -1.275581 -1.859307 3.612706 -0.274995 -2.177006 -4.205164 0.296210 0.633614 -2.532310 -1.352361 0.173962 -0.315924
1.135361 -0.448438 3.514886 -2.606797 3.806594 2.761217 2.605778 -4.751535 -3.669733 -2.694168 0.630466 -3.429577 1.593108 2.241984 4.490329 -4.333867 2.152152 4.708179 -4.835143 0.852945 0.451065 1.305120 3.281444 -4.084565 4.897083 -4.018187 3.720493 -4.216727 0.144988 -4.697148 -2.534138 -2.938027 4.361647 0.924447 0.083109 -3.137307 -3.873471 -2.847230 -1.032905 4.112080 -4.750191 2.354138 -3.835537 -2.243620 -1.482413 -2.501681 3.631454 -3.180730 1.470442 3.585256 -4.081398 -2.154912 -3.540605 -0.033849 1.529037 -1.471382 0.483695 -1.495656 1.160908 -2.979016 -3.248312 2.554020 0.015295 2.144034 -4.792838 -1.719715 -2.286334 3.697726 0.399838 4.309437 -4.524971 -4.111178 3.483845 3.671146 3.278107 4.110374 4.813227 -4.812932 -2.485427 3.708594 -3.356530 -1.215965 0.137038 -2.262348 -1.732052 -3.590011 -2.586205 3.298490 -0.534154 0.046722 0.539792 -3.152992 0.984499 -1.486181 -4.162593 -4.536065
1.429412 4.059315 3.762353 -2.493428 3.531243 3.260560 -0.796660 0.865373 -2.926196 3.922231 -0.171702 -3.434633 4.048950 1.939237 -4.200395 -2.376420 -3.694543 1.624241 0.916628 0.124571 -0.628685 0.475344 -3.907367 -2.966038 -4.125850 -3.582021 1.099238 0.157598 -1.088920 -4.976945 -2.092954 0.964021 -2.000961 2.825839 1.178676 -1.299380 4.717136 1.535818 -3.726810 -4.285269 -4.194109 -2.992086 -3.261180 0.957130 2.201146 2.689759 4.108428 -1.335115 0.644892 -1.711931 -2.542662 -2.196616 -4.485700 2.474612 -4.216788 -0.057075 0.898022 -4.947203 -1.880243 0.376397 0.495997 2.588538 -4.594799 3.859478 -2.428424 4.381169 -2.167389 4.169708 0.092932 1.435709 -4.375449 -4.501818 -1.209491 3.671146 3.278107 -0.145713 2.177191 1.553244 -3.668886 -3.129510 0.694627 -1.885417 2.646358 -2.298082 4.166924 2.992612 -3.438714 -3.805537 3.525632 -0.639899 -0.515711 0.046192 4.617958 1.610025 -1.004295 2.979989
-1.133573 -0.156249 1.822687 4.083587 2.058430 -2.045281 -4.524005 -1.351733 -3.318884 -1.142765 4.273092 0.727916 4.149494 0.482365 1.756727 -2.196302 -1.055049 -1.659067 2.597669 -4.477732 0.480426 1.614718 1.892970 2.527875 -1.651846 -3.258749 2.288866 3.366102 0.190295 1.748874 3.168028 -1.893634 1.832626 -2.442032 1.015953 -4.726487 3.183548 -1.596616 0.715700 -3.997791 -2.431030 -4.300755 -4.929649 3.969028 -3.986680 -0.052581 -3.218187 3.514703 -0.111884 3.977266 -0.383785 0.217088 3.599640 3.120335 -2.266200 2.639312 4.470621 -2.402791 -1.880243 0.376397 0.495997 2.588538 -4.594799 3.859478 -4.648085 -3.443511 4.057726 2.888872 -0.897822 3.451797 -4.402112 -3.616153 -3.567758 3.671146 3.278107 0.037898 4.813227 -4.812932 -2.485427 3.708594 -3.356530 -1.215965 0.137038 -2.262348 -1.732052 -3.590011 -2.586205 3.298490 1.716309 2.576946 2.519855 2.503454 1.507400 1.528025 -2.863048 -0.546446
1.135361 -0.448438 3.514886 -2.606797 3.806594 2.761217 2.605778 -4.751535 -3.669733 -2.694168 0.630466 -3.429577 1.593108 2.241984 1.526115 -4.333867 2.152152 4.708179 -4.835143 0.852945 0.451065 1.305120 3.281444 -4.084565 4.897083 -4.018187 3.720493 -4.216727 0.144988 -4.697148 -2.534138 3.019549 4.361647 0.924447 0.083109 -3.137307 -3.873471 -2.847230 -1.032905 4.112080 -4.750191 2.354138 -3.835537 -2.974140 -1.482413 -2.501681 3.631454 -3.180730 1.470442 3.585256 -4.081398 -2.154912 -3.540605 -0.033849 1.529037 -1.471382 0.483695 1.342018 1.160908 -2.979016 0.758081 2.554020 2.789216 2.144034 -4.792838 4.149743 -2.286334 3.697726 0.399838 4.309437 -4.524971 -4.111178 3.483845 -4.415354 4.729756 4.695440 0.813292 -0.958503 -0.336499 -0.491109 -1.210113 -4.865599 4.300019 -1.641795 -1.747746 -0.026723 3.632160 -2.382801 -0.534154 0.046722 0.539792 -3.152992 0.984499 -1.486181 -4.162593 -4.536065
-1.137868 -2.857388 -4.381240 -3.931318 -2.878720 -2.702276 -4.856125 -0.682638 -2.563929 2.145869 4.565689 3.840639 -2.185019 4.530505 -4.159571 -0.093293 3.290817 2.110073 3.992819 -1.697287 0.372617 1.593120 1.526664 1.773233 -0.536229 1.933056 -0.095604 -2.517689 3.492877 2.209866 -2.710998 2.640435 -0.895602 4.517066 3.777241 -3.433226 1.115796 -0.859993 4.185310 -4.360462 2.075941 2.763506 3.930837 -4.290819 0.104548 -2.314649 1.244546 -3.804123 2.389521 -3.741977 -3.266261 4.709203 -3.818876 -2.257242 4.006161 1.718925 0.471787 1.698662 -1.645204 1.008309 -2.897532 -3.543157 -2.968550 0.802269 -4.321672 -3.517351 -1.682378 2.715079 0.284186 0.032809 0.340463 2.616383 0.364721 2.320167 0.636851 3.289206 -2.975379 -1.420360 -2.740883 -2.232365 -4.141201 -0.421466 4.133855 0.046557 3.130273 -2.495122 0.542815 1.214145 3.979355 1.609050 -2.019934 -3.934239 -0.781156 4.808705 -3.500096 -2.907027
4.789804 2.129499 2.004475 -4.278907 -3.611465 -0.222533 2.591986 -4.695334 1.202660 -2.596576 2.166729 1.278522 0.979338 1.197318 -1.353970 4.703039 4.430051 -2.753504 1.002614 -1.132792 4.306561 -2.068240 2.277143 -1.187785 -3.629637 0.097602 -3.785312 1.048221 -4.904690 -4.389496 -1.149630 3.254174 -3.623961 3.696635 -4.913730 -0.562473 -4.223130 -0.144398 1.528560 -0.606910 -0.096461 -2.239155 4.212716 2.538181 2.292319 3.025724 -3.180609 4.936882 -2.172668 2.481579 0.428415 3.808280 2.846720 2.083626 -3.694471 3.531679 1.917534 -4.464500 0.618454 2.929227 0.922523 0.826344 -1.421747 0.873645 -2.959140 -2.854327 -2.439699 -4.623009 0.284186 0.032809 0.340463 2.616383 0.364721 2.320167 0.636851 3.289206 -2.975379 -1.420360 -2.740883 0.296971 -4.318377 -4.865599 4.300019 -1.641795 -1.747746 1.808102 3.379886 4.531590 4.618836 1.592310 1.412782 2.454625 4.641315 1.877329 0.611399 0.937188
4.789804 2.129499 2.004475 -4.278907 -3.611465 -0.222533 -1.448317 -4.695334 1.202660 -2.596576 2.166729 1.278522 0.979338 1.197318 -1.353970 4.703039 4.430051 -2.753504 1.002614 -1.132792 -2.518703 -1.528078 2.277143 -1.187785 -3.629637 0.097602 -3.785312 1.048221 -4.904690 -4.389496 -1.149630 3.254174 -3.623961 3.696635 -4.913730 -0.562473 -4.986296 -0.144398 1.528560 4.025731 -0.243348 1.642962 4.535719 -4.274136 -3.410519 -0.303259 -4.587690 -4.592075 4.528759 1.024230 4.135015 0.471912 -0.572171 3.120335 -2.266200 2.639312 4.470621 -2.402791 -1.880243 0.376397 0.495997 2.588538 -4.594799 3.859478 -4.648085 -3.443511 4.057726 2.888872 -0.897822 3.451797 -4.402112 -3.616153 -3.567758 3.671146 3.278107 -0.145713 2.177191 1.553244 -3.668886 -3.129510 0.694627 -1.885417 2.646358 -2.298082 4.166924 2.992612 -3.438714 -3.805537 1.558348 1.609050 -2.019934 -3.934239 -0.781156 1.610025 -1.004295 2.979989
1.135361 -0.448438 3.514886 -2.606797 3.806594 2.761217 2.605778 -4.751535 -3.669733 -2.694168 0.630466 -3.429577 1.593108 2.241984 4.490329 -4.333867 2.152152 4.708179 -4.835143 3.908105 0.687435 4.087866 -2.638913 -3.958121 1.740439 -4.727223 4.768498 -2.515731 1.301746 2.761103 -4.958699 -4.998925 -4.459260 3.632613 2.535248 -0.696332 0.193887 -1.429551 -4.999247 4.025731 -0.243348 1.642962 4.535719 -4.274136 -3.410519 -0.303259 -4.587690 -4.592075 -0.502544 -4.956378 -0.589334 4.986556 -0.930058 -0.747815 4.990893 4.138217 1.670281 -1.392253 4.503449 0.937433 4.206297 -2.519534 0.318068 -1.735249 3.705604 3.133298 1.722369 -1.039556 -2.131687 4.736209 2.274823 0.841129 -1.182290 3.134644 -4.516096 3.738106 -4.469643 -0.925225 -0.152909 -0.011044 -1.059902 -2.306406 -0.986691 2.033248 -1.275581 -1.859307 3.612706 -0.274995 -2.177006 -4.205164 -0.721960 0.633614 -2.532310 -1.352361 0.173962 2.714472
-0.537418 4.857662 3.754338 4.883199 -2.254726 -0.460492 4.687578 4.166155 4.693607 3.635564 2.815977 -2.367454 -1.673849 0.161171 -2.270896 -3.497288 4.143237 -4.138234 -0.439488 2.066043 1.465014 -0.035169 4.080413 -4.573215 -4.125850 -3.582021 1.099238 0.157598 -1.088920 4.105981 -0.023084 4.604835 4.390397 -4.478312 -2.422047 -1.353825 -3.232542 -2.188196 -4.234216 0.681838 -0.906210 3.673300 -4.723765 0.549650 3.030204 4.430423 -0.235809 1.797382 -4.206721 4.867892 -2.036889 -4.715953 0.463777 -1.972839 1.752275 1.461915 4.833466 -0.239987 1.860935 1.851784 -3.248312 1.240209 0.015295 0.593959 -4.792838 -1.719715 -2.286334 3.697726 0.399838 4.309437 -4.524971 -4.111178 -0.191037 0.557818 4.729756 4.695440 0.813292 -0.958503 -0.336499 -0.491109 -1.210113 -4.865599 4.300019 -1.641795 -1.747746 1.686908 4.012123 -2.382801 -0.534154 0.046722 0.539792 -3.152992 0.984499 -1.486181 -4.162593 -4.536065
4.789804 2.129499 2.004475 -4.278907 -3.611465 -0.222533 2.591986 -4.695334 -4.423275 -2.596576 2.166729 1.278522 0.979338 1.197318 -1.353970 4.703039 4.430051 -1.382671 1.002614 -1.132792 -2.518703 -2.068240 2.277143 -1.187785 -3.629637 0.097602 -3.785312 1.048221 -4.904690 -4.389496 -1.149630 3.254174 -3.623961 3.696635 -4.913730 -0.562473 -4.986296 -0.144398 1.528560 -0.606910 -0.096461 -2.239155 4.212716 2.538181 2.292319 3.025724 2.160913 4.936882 -2.172668 2.481579 0.428415 3.808280 2.846720 2.083626 -3.694471 3.531679 0.483695 1.342018 1.160908 -2.979016 -3.248312 2.554020 0.015295 0.593959 -4.792838 -1.719715 -2.286334 3.697726 0.399838 4.309437 -4.524971 -4.111178 3.483845 -4.415354 4.729756 4.695440 0.813292 -0.958503 -0.336499 -0.491109 -1.210113 -4.865599 4.300019 -1.641795 -1.747746 -0.026723 3.632160 -2.382801 -0.534154 0.046722 0.539792 -3.152992 0.984499 -1.486181 -4.162593 -4.536065
-1.137868 -2.857388 -4.381240 -3.931318 -2.878720 -2.702276 -4.856125 -0.682638 -2.563929 2.145869 4.565689 3.840639 -2.185019 4.530505 -4.159571 -0.093293 3.290817 2.110073 3.992819 -1.697287 0.372617 1.593120 1.526664 1.773233 -0.536229 1.933056 -0.095604 -2.517689 3.492877 2.209866 -2.710998 2.640435 -0.895602 4.517066 3.777241 -3.433226 1.115796 -0.859993 4.185310 -4.360462 2.075941 2.763506 3.930837 3.902383 -4.635269 -0.625897 -4.542138 1.573298 -0.271876 -2.486531 -3.741758 -2.278244 -0.055374 -0.946521 -2.659913 -1.617119 -3.072738 2.138982 -2.150098 0.925064 -3.561635 -2.176317 0.926396 -1.782526 -0.717286 -4.436092 4.236002 1.354780 4.384147 1.157884 -2.141003 -4.991900 1.730532 -3.180761 4.003435 -0.190942 2.215401 1.565161 -0.410686 3.511295 4.618848 -0.421466 4.133855 0.046557 3.130273 -2.495122 0.542815 1.214145 3.979355 1.609050 -2.019934 -3.152992 0.984499 -1.486181 -4.162593 -4.536065
1.135361 -0.448438 3.514886 -2.606797 3.806594 2.761217 2.605778 -4.751535 -3.669733 -2.694168 0.630466 0.727916 4.149494 0.482365 1.756727 -2.196302 -1.055049 -1.659067 2.597669 -4.477732 0.480426 1.614718 1.892970 2.527875 -1.651846 -3.258749 2.288866 3.366102 0.190295 1.748874 3.168028 -1.893634 1.832626 -2.442032 1.015953 -4.726487 3.183548 -1.596616 -0.414458 -3.997791 -2.431030 -4.300755 -4.929649 3.969028 -3.986680 -0.052581 -3.218187 3.514703 -0.111884 3.977266 -0.383785 -4.001427 3.599640 3.120335 -2.266200 2.639312 4.470621 -2.402791 -4.876186 0.376397 0.495997 2.588538 -4.594799 3.859478 -4.648085 -3.443511 4.057726 2.888872 -0.897822 3.451797 -4.402112 -3.616153 -3.567758 3.671146 3.278107 -0.145713 2.177191 1.553244 -3.668886 -3.129510 0.694627 -1.885417 2.646358 -2.298082 4.166924 2.992612 -3.438714 -3.805537 1.558348 1.609050 0.728209 -2.114279 -1.363969 -1.617047 -3.538082 -1.436405
-2.338284 0.608905 -3.394360 2.634265 0.423641 -2.620882 -3.563341 -2.448651 -3.288451 3.921652 1.182184 -1.977474 4.995380 -0.791688 -2.237127 -0.878955 -3.638629 -4.138149 -4.657541 2.452846 3.252648 -1.022744 4.035034 -3.812664 -1.048437 -4.741725 -2.221507 2.186705 4.221192 3.348049 -0.023084 4.604835 4.390397 0.376742 -2.422047 -1.353825 -3.232542 -2.188196 -4.234216 0.681838 -0.906210 3.673300 -4.723765 0.549650 3.030204 4.430423 -0.235809 1.797382 -4.206721 4.867892 -2.036889 -4.715953 0.463777 -1.972839 1.752275 1.461915 4.833466 -0.239987 1.860935 1.851784 -1.725849 3.301559 4.568672 2.095530 -0.309626 2.332322 -0.112286 -4.312238 1.354314 1.329364 3.024487 -0.988108 3.780260 -1.771793 1.348961 0.037898 1.986734 -3.507435 -2.713499 -3.144211 -4.850083 -1.753699 2.767554 -3.759189 -1.936272 4.373343 1.895695 -2.244041 -0.492047 -4.647288 2.782233 -2.103187 0.248805 -0.692942 4.737157 1.419863
-1.133573 -0.156249 1.822687 4.083587 2.058430 -2.045281 -4.524005 -1.351733 -3.318884 -1.142765 4.273092 0.727916 4.149494 -0.058020 1.756727 -2.196302 -1.055049 -1.659067 2.597669 -4.477732 0.480426 1.614718 1.892970 2.527875 -1.651846 -3.258749 2.288866 3.366102 0.190295 1.748874 3.168028 -1.893634 1.832626 -2.442032 1.015953 -4.726487 3.183548 -1.596616 0.715700 -3.997791 -2.431030 -4.300755 -4.929649 3.969028 -3.986680 -0.052581 -3.218187 3.514703 -0.111884 3.977266 -0.383785 -4.001427 3.599640 3.120335 -2.266200 2.639312 4.470621 -2.402791 -1.880243 0.376397 0.495997 2.588538 -4.594799 3.859478 -4.648085 -1.719715 -2.286334 3.697726 0.399838 4.309437 -4.524971 -4.111178 3.483845 -1.327914 4.729756 4.695440 0.813292 -0.958503 -0.336499 -0.491109 -2.729846 -4.865599 4.300019 -1.641795 -1.747746 -0.026723 3.632160 -2.382801 -0.534154 0.046722 0.539792 -3.152992 0.071056 -1.486181 -4.162593 -4.536065
-0.537418 4.857662 -2.781604 4.883199 -2.254726 -0.460492 0.820561 4.166155 4.693607 3.635564 2.815977 -2.367454 -1.673849 -0.110620 -2.270896 -3.497288 4.143237 -4.138234 -0.439488 2.066043 1.465014 -0.035169 4.080413 -4.573215 -4.125850 -3.582021 1.099238 0.157598 -1.088920 -4.976945 -2.092954 0.964021 -2.000961 2.825839 1.178676 -1.299380 4.717136 1.535818 -3.726810 -4.285269 -4.194109 -2.992086 -3.261180 0.957130 2.201146 -0.052581 -3.218187 3.514703 0.644892 3.271809 -2.542662 -2.196616 -4.485700 2.474612 -4.216788 -0.057075 0.898022 -4.947203 -1.880243 0.376397 0.495997 2.588538 -4.594799 3.859478 3.837579 -3.443511 4.057726 2.888872 4.357620 2.917025 -2.467420 1.003233 2.173831 -2.191400 -2.264000 -2.751948 -3.585384 -4.954224 -2.427391 -0.319242 -3.892551 4.886057 -0.177840 -1.113165 1.012645 -0.026723 3.632160 -2.382801 -0.534154 0.046722 0.539792 -3.152992 0.984499 -1.486181 -4.162593 -4.536065
1.135361 -0.448438 3.514886 -3.105654 3.806594 2.761217 -4.870466 -4.751535 -3.669733 -2.694168 0.630466 -3.429577 1.593108 2.241984 4.490329 -4.333867 2.152152 3.395269 -4.835143 0.852945 0.451065 1.305120 3.281444 -4.084565 4.897083 -4.018187 3.720493 1.219444 2.354918 4.105981 -0.023084 4.604835 4.390397 -4.478312 -2.422047 -1.353825 -3.232542 -2.188196 -4.234216 0.681838 -0.519886 3.673300 -4.723765 0.549650 3.030204 4.430423 -0.235809 1.797382 -4.206721 4.867892 -2.036889 -4.715953 0.463777 -1.972839 1.752275 1.461915 4.833466 -0.239987 1.860935 -1.541205 -3.248312 1.240209 0.015295 0.593959 -4.792838 -1.719715 -2.286334 3.697726 0.399838 4.309437 -4.524971 -4.111178 3.483845 -4.415354 4.729756 4.695440 0.813292 -0.958503 -0.336499 -0.491109 -1.210113 -4.865599 4.300019 -1.641795 -1.747746 -0.026723 3.632160 -2.382801 -0.534154 0.046722 0.539792 -3.152992 0.984499 -1.486181 -4.162593 -4.536065
4.184295 0.366894 4.472806 -1.985400 -3.498518 -4.172457 2.589800 -4.300673 -2.151210 4.961158 3.324551 -2.340292 -3.134529 0.338162 0.089838 1.233825 -3.721306 3.247574 -2.764257 -0.882805 -1.946442 0.848008 4.269943 -0.603832 -1.623190 2.234318 2.323929 -4.216727 0.144988 -4.697148 -2.534138 3.019549 4.361647 0.924447 0.083109 -3.137307 -3.873471 -2.847230 -1.032905 4.112080 -4.750191 -2.438643 -3.835537 -2.974140 -1.482413 -2.501681 3.631454 -3.180730 1.470442 3.585256 -4.081398 -2.154912 -3.540605 -0.033849 1.529037 -1.471382 0.483695 1.342018 1.160908 -2.979016 -3.248312 2.554020 0.015295 0.593959 -4.792838 -1.719715 -2.286334 3.697726 0.399838 4.309437 -4.524971 -4.111178 3.483845 -4.415354 4.729756 4.695440 0.813292 -0.958503 -0.336499 -0.491109 -1.210113 -4.865599 2.646358 -2.298082 4.166924 2.992612 -3.438714 -3.805537 1.558348 1.609050 -2.019934 -3.934239 -0.781156 1.610025 -1.004295 2.979989
-4.760614 2.129499 1.659814 -4.278907 -3.611465 -0.222533 -1.448317 -4.695334 1.202660 -2.596576 2.166729 1.278522 0.979338 1.197318 -1.353970 4.703039 4.430051 -2.753504 2.544882 -1.132792 -2.518703 -1.528078 2.277143 -1.187785 -3.629637 0.097602 -3.785312 1.048221 -4.904690 -4.389496 -1.149630 3.254174 -3.623961 3.696635 -4.913730 -0.562473 -4.986296 -0.144398 1.528560 -0.606910 -0.096461 -2.239155 4.212716 2.538181 2.292319 3.025724 -3.180609 4.936882 2.972552 2.481579 -1.976484 -3.525571 -2.437512 1.119145 -4.327007 -3.539079 2.526116 -0.663470 4.496752 1.022878 -1.227558 -0.566039 -3.517779 -1.995118 -3.673165 -4.971166 3.747516 3.697726 0.399838 4.309437 -4.524971 -4.111178 3.483845 -4.415354 4.729756 4.695440 0.813292 -0.958503 -0.336499 -0.491109 -1.210113 -4.865599 4.300019 -1.641795 -1.747746 -0.026723 3.632160 -2.382801 -0.534154 0.046722 0.539792 -3.152992 0.984499 -1.486181 -4.162593 -4.536065
-2.338284 0.608905 -3.394360 2.634265 -4.355535 -2.620882 -1.682470 -2.448651 -3.288451 0.990774 1.182184 -1.977474 0.030263 -0.791688 -2.237127 -0.878955 -0.087220 -4.138149 -4.657541 2.452846 3.252648 -1.022744 4.035034 -3.812664 -1.048437 -4.741725 -2.221507 0.228374 4.221192 3.348049 0.849224 1.416135 2.639200 3.318514 3.590001 -2.714118 -2.237398 3.837331 1.862118 -3.837671 -3.950270 -2.151643 1.068935 -4.290819 0.104548 -2.314649 1.244546 -3.804123 2.389521 -3.741977 -3.266261 4.709203 -3.818876 -2.257242 4.006161 1.718925 0.471787 1.698662 -1.880243 0.376397 0.495997 2.588538 -4.594799 3.859478 -4.648085 -3.443511 4.057726 2.888872 -0.897822 3.451797 -4.402112 -3.616153 -3.567758 3.671146 3.278107 -0.145713 2.177191 1.553244 -3.668886 4.730099 -4.141201 -0.846535 0.297723 -3.210538 -3.142986 1.389674 2.010583 1.489371 4.053385 -2.841598 3.728105 -4.228724 -1.915810 1.316549 1.158717 0.907498
-1.133573 -0.156249 1.822687 4.083587 2.058430 0.984353 -4.524005 -1.351733 -3.318884 -1.142765 4.273092 0.727916 4.149494 0.482365 1.756727 4.703039 4.430051 -4.387369 1.002614 -1.132792 -2.518703 -1.528078 2.277143 -1.187785 -3.629637 0.097602 -3.785312 2.835549 -4.904690 1.748874 3.168028 -1.893634 1.832626 -2.442032 1.015953 -4.726487 3.183548 -1.596616 0.715700 -3.997791 -2.431030 -4.300755 -4.929649 3.969028 -3.986680 -0.052581 -3.218187 3.514703 -0.111884 3.977266 -0.383785 -4.001427 3.599640 1.610134 -2.529843 3.635677 -4.533476 -0.399522 2.397035 2.079630 1.017765 0.609862 -3.704280 -2.146056 4.948757 2.830904 -2.607646 -0.852058 -1.141406 -4.014065 -1.503452 3.718891 2.256384 -1.783117 -4.302033 -1.448209 -1.192045 -4.812932 -2.485427 3.708594 -3.356530 3.429197 0.137038 -2.262348 -4.806245 -3.590011 3.612706 -0.274995 -2.177006 -4.205164 0.296210 0.633614 -2.532310 -1.352361 0.173962 -0.315924
1.135361 -0.448438 3.514886 -2.606797 3.806594 2.761217 2.605778 -4.751535 -3.669733 -2.694168 0.630466 -3.429577 1.593108 2.241984 4.490329 -4.333867 2.152152 4.708179 -4.835143 0.852945 0.451065 1.305120 3.281444 -4.084565 4.897083 -4.018187 3.720493 -4.216727 0.144988 -4.697148 -2.534138 3.019549 4.361647 0.924447 0.083109 -3.137307 -3.873471 -2.847230 -1.032905 4.112080 -4.750191 2.354138 -3.835537 -2.974140 -1.482413 -2.501681 3.631454 -3.180730 1.470442 3.585256 -0.589334 4.986556 -0.930058 -0.747815 4.990893 4.138217 1.670281 -1.392253 0.976718 0.937433 4.206297 -2.519534 0.318068 -1.735249 3.705604 3.133298 1.722369 -1.039556 -2.131687 -2.713304 2.274823 0.841129 -1.182290 3.134644 -4.516096 3.738106 -4.469643 -0.925225 -0.152909 -0.011044 -1.059902 -2.725306 -0.986691 2.033248 -1.275581 -1.859307 3.612706 -0.274995 -2.177006 -4.205164 0.296210 0.633614 -2.532310 -1.352361 0.173962 -0.315924
1.135361 -0.448438 3.514886 -2.606797 3.806594 2.761217 2.605778 -4.751535 -3.669733 -2.694168 0.630466 -3.429577 1.593108 2.241984 4.490329 -4.333867 2.152152 4.708179 -4.835143 0.852945 0.480426 1.614718 1.892970 4.373503 -2.492103 -3.258749 2.288866 3.366102 0.190295 1.481252 -2.079670 2.850392 -3.010542 -2.241488 2.915996 -4.726487 3.183548 -1.596616 0.715700 -3.997791 -2.431030 -4.300755 -4.929649 3.969028 -3.986680 -0.052581 -3.218187 3.514703 -0.502544 -4.956378 -0.589334 4.986556 -0.930058 -0.747815 4.990893 4.138217 1.670281 -1.392253 0.976718 0.937433 4.206297 -2.519534 0.318068 -1.735249 3.705604 -2.919208 1.722369 -1.039556 -2.131687 -2.713304 2.274823 0.841129 -1.182290 3.134644 -4.516096 3.738106 -4.469643 -0.925225 -0.152909 -0.011044 -1.059902 -2.725306 -0.986691 2.033248 -1.275581 -1.859307 3.612706 -0.274995 -2.177006 -4.205164 0.296210 0.633614 -2.532310 -1.352361 0.173962 -0.315924
1.429412 4.059315 3.762353 -2.493428 3.531243 3.260560 -0.796660 0.865373 -2.926196 3.922231 -0.698428 -3.434633 4.048950 1.939237 -4.200395 -2.376420 -3.694543 1.624241 0.916628 0.124571 -0.628685 0.475344 -3.907367 -2.966038 -3.855794 -0.896909 -0.806320 -4.684056 -3.342630 0.289004 -2.906906 1.391084 1.710142 4.299799 -0.777293 -0.142200 3.253350 -3.154210 1.853186 4.185610 -0.044750 0.773531 3.074644 -1.968479 -0.464671 -2.480527 1.836126 2.617407 -0.130906 1.061349 2.258977 1.853180 -0.755750 2.692735 4.365937 0.898296 -0.796327 -1.784519 4.448813 1.757184 -0.286633 4.727224 3.632355 2.429698 -2.428424 4.381169 -2.167389 4.169708 0.092932 1.435709 -4.375449 -4.501818 -3.567758 3.671146 3.278107 -0.145713 2.177191 1.553244 -3.668886 -3.129510 0.694627 -1.885417 2.646358 -2.298082 4.166924 2.992612 -3.438714 -3.805537 3.525632 -0.639899 -0.515711 0.046192 4.617958 1.610025 -2.863048 -0.546446
4.789804 2.129499 2.004475 -4.278907 -3.611465 -0.222533 -1.448317 -4.695334 1.202660 -2.596576 1.660874 1.278522 0.979338 1.197318 -1.353970 4.703039 4.430051 -2.753504 1.002614 -1.132792 -2.518703 -1.528078 2.277143 -1.187785 -3.629637 0.097602 -3.785312 1.048221 -4.904690 -4.389496 -1.149630 3.254174 -3.623961 3.696635 -4.913730 -0.562473 -4.986296 -0.144398 1.528560 -3.616994 -0.096461 -2.239155 4.212716 2.538181 2.292319 3.025724 -3.180609 4.936882 -2.172668 2.481579 0.428415 1.499868 2.846720 2.083626 -3.694471 3.531679 1.917534 -4.464500 0.618454 2.929227 0.922523 0.826344 -1.421747 0.873645 -3.909984 -2.854327 -2.439699 3.697726 0.399838 4.309437 -4.524971 -4.111178 -0.191037 0.557818 4.729756 4.695440 0.813292 -0.958503 -0.336499 -0.491109 -1.210113 -4.865599 4.300019 -1.641795 -1.747746 1.686908 4.012123 -2.382801 -0.534154 0.046722 0.539792 -3.152992 0.984499 -1.486181 -4.162593 -4.536065
-0.537418 4.857662 -2.781604 4.883199 3.344779 4.161239 -2.901841 4.622835 -3.897869 4.529015 -3.530949 0.957725 -1.989522 4.107648 3.096339 3.169450 -4.114176 2.334008 2.393082 3.908105 0.687435 4.087866 -2.638913 -3.958121 -0.015548 -4.727223 4.768498 -2.515731 1.301746 2.761103 -4.958699 -4.998925 -4.459260 3.632613 2.535248 -0.696332 0.193887 -1.429551 -4.999247 4.025731 -0.243348 1.642962 4.535719 -4.274136 -3.410519 -0.393056 -0.088860 -4.592075 4.528759 -3.527779 4.135015 0.471912 -0.572171 3.120335 -2.266200 2.639312 4.470621 -2.402791 -1.880243 0.376397 0.495997 2.588538 -4.594799 3.859478 4.987391 -3.443511 4.057726 -3.631557 4.265772 2.917025 -2.467420 1.003233 2.173831 -2.191400 -2.264000 -2.751948 -3.585384 -4.954224 -3.668886 -3.129510 0.694627 4.886057 -0.177840 -1.113165 1.012645 2.499578 -3.608347 -1.966086 -3.189817 2.715598 -0.492258 1.872123 -4.031643 3.506697 -3.831571 2.674611
4.789804 2.129499 2.004475 -4.278907 -3.611465 -0.222533 2.591986 -4.695334 1.202660 -2.596576 2.166729 -1.241636 0.979338 1.197318 -1.353970 4.703039 4.430051 -2.753504 1.002614 -1.132792 -2.518703 -2.068240 2.277143 -1.187785 -3.629637 0.097602 -3.785312 1.048221 -4.904690 -4.389496 -1.149630 3.254174 -3.623961 3.696635 -4.913730 -0.562473 -4.986296 -0.144398 1.528560 -0.606910 -0.096461 -2.239155 4.212716 2.538181 2.292319 3.025724 -3.180609 4.936882 2.972552 2.481579 -1.976484 -3.525571 -2.437512 1.119145 -4.327007 -3.539079 2.526116 -0.663470 4.496752 1.022878 -1.227558 -0.566039 -3.517779 -1.995118 -3.673165 -4.971166 3.747516 -4.312402 -3.103193 0.576017 3.616291 -0.374535 0.523646 -3.309609 0.556806 2.446705 -4.240683 -3.904514 0.011889 -2.232365 -4.318377 1.241144 -4.587830 0.797508 1.157832 1.808102 3.379886 4.531590 4.618836 1.592310 1.412782 2.454625 4.641315 -0.524978 0.611399 0.937188
0.890188 -2.857388 1.226009 -2.740834 3.344779 4.161239 -2.901841 4.622835 -3.897869 4.529015 -3.530949 0.957725 -1.989522 0.864426 3.096339 0.882272 -4.114176 2.334008 2.393082 3.908105 0.687435 4.087866 -2.638913 -3.958121 1.740439 -4.727223 4.768498 -2.515731 1.301746 2.761103 -4.958699 -4.998925 -4.459260 3.632613 2.535248 -0.696332 0.193887 -1.429551 -1.789218 4.025731 -0.243348 1.642962 4.535719 -4.274136 -3.410519 -0.303259 -4.587690 -4.592075 4.528759 2.982761 4.135015 0.471912 -0.572171 3.120335 -2.266200 2.639312 4.470621 -2.402791 -1.880243 0.376397 0.495997 2.588538 -4.594799 3.859478 -4.648085 -3.443511 4.057726 2.888872 -0.897822 3.451797 -4.402112 -3.616153 -3.567758 3.671146 3.278107 0.037898 4.813227 -4.812932 -2.485427 3.708594 -3.356530 -1.215965 0.137038 -2.262348 -1.732052 -3.590011 -2.586205 3.298490 1.716309 2.576946 2.519855 3.615704 1.507400 1.528025 -2.863048 -0.546446
4.789804 2.129499 2.004475 -4.278907 -3.611465 -0.222533 -1.448317 -4.695334 1.202660 -0.599591 2.166729 1.278522 0.979338 1.197318 -1.353970 4.703039 4.430051 -2.753504 1.002614 -1.132792 -2.518703 -1.528078 2.277143 -1.187785 -3.629637 0.097602 -3.785312 1.048221 -4.904690 -4.389496 -1.149630 3.254174 -3.623961 3.696635 -4.913730 -0.562473 -4.986296 -0.144398 1.528560 -3.616994 -0.096461 -2.239155 4.212716 2.538181 -3.410519 -0.303259 -4.587690 -4.592075 4.528759 2.982761 4.135015 0.471912 -0.572171 3.120335 -2.266200 2.639312 4.470621 -2.402791 -1.880243 0.376397 0.495997 2.588538 -4.594799 3.859478 -4.648085 -3.443511 4.057726 2.888872 -0.897822 3.451797 -4.402112 -3.616153 -3.567758 3.671146 3.278107 0.037898 4.813227 -4.812932 -2.485427 3.708594 -0.334995 -1.215965 0.137038 -2.262348 -1.732052 -3.590011 -2.586205 3.298490 1.716309 2.576946 2.519855 3.615704 1.507400 1.528025 -2.863048 -0.546446
1.135361 -0.448438 3.514886 -2.606797 3.806594 2.761217 2.605778 -4.751535 -3.669733 -2.694168 0.122660 -3.429577 1.593108 2.241984 4.490329 -4.333867 2.152152 4.708179 -4.835143 0.852945 0.451065 1.305120 3.281444 -4.084565 4.897083 -4.018187 3.720493 1.219444 2.354918 4.105981 -0.023084 4.604835 4.390397 0.376742 -2.422047 -0.696332 0.193887 -1.429551 -4.999247 4.025731 -4.194109 -2.992086 4.535719 -4.274136 -3.410519 -0.303259 -4.587690 -4.592075 4.528759 1.024230 4.135015 0.471912 -0.572171 3.120335 -2.266200 2.639312 4.470621 -2.402791 -1.880243 0.376397 0.495997 2.588538 -4.594799 3.859478 -4.648085 -3.443511 4.057726 2.888872 -0.897822 3.451797 -4.402112 -3.616153 -3.567758 3.671146 3.278107 -0.145713 2.177191 1.553244 -3.668886 -3.129510 0.694627 -1.885417 2.646358 -2.298082 4.166924 2.992612 -3.438714 -3.805537 1.558348 1.609050 -2.019934 -1.149163 4.726576 1.610025 -1.004295 2.979989
-1.137868 -2.857388 -4.381240 -3.931318 -2.878720 -2.702276 -4.856125 -0.682638 -2.563929 2.145869 4.565689 3.840639 -2.185019 4.530505 -4.159571 -0.093293 3.290817 2.110073 3.992819 -1.697287 0.372617 1.593120 1.526664 -1.646732 -0.536229 1.933056 -0.095604 -2.517689 3.492877 2.209866 -2.710998 2.640435 -0.895602 4.517066 3.777241 -3.433226 1.115796 -0.859993 4.185310 -4.360462 2.075941 2.763506 3.930837 3.902383 -4.635269 -0.625897 -4.542138 1.573298 -0.271876 -2.486531 -3.741758 -2.278244 -0.055374 -0.946521 -2.659913 -1.617119 -3.072738 2.138982 -2.150098 0.925064 -3.561635 -2.176317 0.926396 -1.782526 -0.717286 -4.436092 -2.286334 3.697726 0.399838 4.309437 -4.524971 -4.111178 -0.191037 0.557818 4.729756 4.695440 0.813292 -0.958503 -0.336499 -0.491109 -1.210113 -4.865599 4.300019 -1.641795 -1.747746 1.686908 4.012123 -2.382801 -0.534154 0.046722 0.539792 -3.152992 0.984499 -1.486181 -4.162593 -4.536065
-1.133573 -0.156249 1.822687 4.083587 2.058430 -2.045281 -4.524005 -1.351733 -3.318884 -1.142765 4.273092 0.727916 4.149494 0.482365 1.756727 -2.196302 -1.055049 -1.659067 2.597669 -4.477732 0.480426 1.614718 1.892970 2.527875 -1.651846 -3.258749 2.288866 3.366102 0.190295 1.748874 -2.534138 3.019549 4.361647 0.924447 0.083109 -3.137307 -3.873471 -2.847230 -1.032905 4.112080 -4.750191 2.354138 -3.835537 -2.974140 -1.482413 -2.501681 3.631454 -3.180730 1.470442 3.585256 -4.081398 -2.154912 -3.540605 -0.033849 1.529037 -1.471382 0.483695 1.342018 1.160908 -2.979016 -3.248312 2.554020 0.015295 2.144034 -4.792838 -1.719715 -2.286334 3.697726 0.399838 4.309437 -4.402112 -3.616153 -3.567758 3.671146 3.278107 -0.145713 2.177191 1.553244 -3.668886 -3.129510 0.694627 -1.885417 2.646358 -2.298082 4.166924 2.992612 -3.438714 -3.805537 1.558348 1.609050 0.728209 -2.114279 -1.363969 -1.617047 -3.538082 -1.436405
-1.133573 -0.156249 1.822687 4.083587 -0.815546 -2.045281 -4.524005 -1.351733 -3.318884 -1.142765 4.273092 0.727916 4.149494 0.482365 1.756727 4.703039 4.430051 0.368189 1.002614 -1.132792 -2.518703 -1.528078 2.277143 -1.187785 -3.629637 0.097602 -3.785312 1.048221 -4.904690 1.748874 3.168028 -1.893634 1.832626 -2.442032 1.015953 -4.726487 3.183548 -1.596616 0.715700 -0.619589 2.349905 -4.300755 -4.929649 3.969028 -3.986680 -0.052581 -3.218187 3.514703 -0.111884 3.977266 -0.383785 -4.001427 3.599640 1.610134 -2.529843 3.635677 -4.533476 -0.399522 2.397035 2.079630 1.017765 0.609862 -3.704280 2.095530 -0.309626 2.332322 -0.112286 -4.312238 1.354314 1.329364 3.024487 -0.988108 3.780260 -1.771793 1.348961 -1.448209 -1.192045 -4.812932 -2.485427 3.708594 -3.356530 -1.215965 0.137038 -2.262348 -4.806245 -3.590011 -2.586205 3.298490 1.716309 2.576946 2.519855 3.615704 1.507400 1.528025 -2.863048 -0.546446
-0.537418 4.857662 -2.781604 4.883199 -2.254726 -0.460492 0.820561 4.166155 4.693607 3.635564 2.815977 -2.367454 -1.673849 0.161171 -2.270896 -3.497288 4.143237 -4.138234 -0.439488 2.066043 1.465014 -0.035169 4.080413 -4.573215 -4.125850 -3.582021 1.099238 0.157598 -1.088920 -4.976945 -2.826829 0.964021 -2.000961 2.825839 1.178676 -1.299380 4.717136 1.535818 -3.726810 -4.285269 -4.194109 -2.992086 -3.261180 0.957130 2.201146 2.689759 4.108428 -1.335115 0.644892 -1.711931 -2.542662 -2.196616 -4.485700 2.474612 -4.216788 -0.057075 0.898022 -4.947203 -1.880243 0.376397 0.495997 2.588538 -4.594799 3.859478 -4.648085 -3.443511 4.057726 2.888872 4.357620 2.917025 -2.467420 1.003233 2.173831 -2.191400 -2.264000 -2.751948 -3.585384 -4.954224 -2.427391 -0.319242 -3.892551 4.886057 -0.177840 -1.113165 1.012645 -0.026723 3.632160 -2.382801 1.716309 2.576946 2.519855 3.615704 1.507400 1.528025 -2.863048 -0.546446
1.429412 4.059315 3.762353 -2.493428 -2.596332 3.260560 -0.796660 0.865373 -2.926196 3.922231 -0.171702 -3.434633 4.048950 1.939237 -4.200395 -2.376420 -3.694543 1.624241 0.916628 0.124571 -0.628685 0.475344 -3.907367 -2.966038 -3.855794 -0.896909 -0.806320 -4.684056 -3.342630 0.289004 -2.906906 1.391084 1.710142 4.299799 -0.777293 -0.142200 3.253350 -3.154210 1.853186 4.185610 -0.044750 0.773531 3.074644 -1.968479 -0.464671 -2.480527 1.836126 2.617407 -0.130906 1.061349 2.258977 1.853180 -0.755750 2.692735 4.365937 0.898296 -0.796327 -1.784519 4.448813 1.757184 -0.286633 4.727224 3.632355 2.429698 -2.428424 4.381169 -2.167389 4.169708 0.092932 1.435709 -4.375449 -4.501818 -3.567758 3.671146 3.278107 -0.145713 2.177191 1.553244 -3.668886 -3.129510 0.694627 -1.885417 2.646358 -2.298082 4.166924 -4.524065 -3.438714 -3.805537 3.525632 -0.639899 -0.515711 3.615704 1.507400 1.528025 -2.863048 -0.546446
1.135361 -0.448438 3.514886 -0.808982 3.806594 2.761217 2.605778 -4.751535 -3.669733 -2.694168 0.630466 -3.429577 1.593108 2.241984 4.490329 -4.333867 2.152152 4.708179 -4.835143 0.852945 0.451065 1.305120 3.281444 -4.084565 4.897083 -4.018187 0.770939 1.219444 2.354918 4.105981 -0.023084 4.604835 4.390397 -1.351296 -2.422047 -0.696332 0.193887 -1.429551 -4.999247 4.025731 -0.243348 1.642962 4.535719 -4.274136 -3.410519 -0.303259 -4.587690 -4.592075 -0.502544 -4.956378 -0.589334 4.986556 -0.930058 -0.747815 4.990893 4.138217 1.670281 -1.392253 4.503449 0.937433 4.206297 -2.519534 0.318068 -1.735249 3.705604 3.133298 1.722369 -1.039556 -2.131687 4.736209 2.274823 0.841129 -1.182290 3.134644 -4.516096 3.738106 -4.469643 -0.925225 -0.152909 -0.011044 -1.059902 -2.725306 -0.986691 2.033248 -1.275581 -1.859307 3.612706 -0.274995 -2.177006 -4.205164 0.296210 0.633614 -2.532310 -1.352361 0.173962 2.714472
-1.137868 -2.857388 1.226009 -2.740834 3.344779 4.161239 -2.901841 4.622835 -3.897869 4.529015 -3.530949 0.957725 -1.989522 0.864426 3.096339 -3.285775 -4.114176 2.334008 2.466761 3.908105 0.687435 4.087866 -2.638913 -3.958121 1.740439 -4.727223 4.768498 -2.515731 1.301746 2.761103 -4.958699 -4.998925 -4.459260 3.632613 2.535248 -0.696332 0.193887 -1.429551 -1.789218 4.025731 -0.243348 1.642962 4.535719 -4.274136 -3.410519 -0.303259 -4.587690 -4.592075 4.528759 2.982761 4.135015 0.471912 -0.572171 3.120335 -2.266200 2.639312 4.470621 -2.402791 -1.880243 0.376397 0.495997 2.588538 1.384796 3.859478 -4.648085 -3.443511 4.057726 2.888872 -2.157811 3.451797 -4.402112 -3.616153 -3.567758 3.671146 3.278107 0.037898 4.813227 3.259822 -2.485427 3.708594 -3.356530 -1.215965 0.137038 -2.262348 -1.732052 -3.590011 -2.586205 3.298490 1.716309 2.576946 2.519855 3.615704 1.507400 1.528025 -2.863048 -0.546446
4.184295 0.366894 2.106374 -1.985400 -3.498518 -4.172457 2.589800 -4.300673 -2.151210 4.961158 3.324551 -2.340292 -3.134529 0.338162 0.089838 1.233825 -3.721306 3.247574 -2.764257 -0.882805 -1.946442 0.848008 4.269943 -0.603832 -1.623190 2.234318 2.323929 -4.216727 0.144988 -4.697148 -2.534138 3.019549 4.361647 0.924447 0.083109 -3.137307 -3.873471 -2.847230 -1.032905 4.112080 -4.750191 -2.438643 -3.835537 -2.974140 -1.482413 -2.501681 3.631454 -3.180730 1.470442 3.585256 -4.081398 -2.154912 -3.540605 -0.033849 1.529037 -1.471382 0.483695 1.342018 1.160908 -2.979016 -3.248312 2.554020 0.015295 0.593959 -4.792838 -1.719715 -2.286334 3.697726 0.399838 4.309437 -4.524971 -4.111178 3.483845 -4.415354 4.729756 4.695440 0.813292 -0.958503 -0.336499 -0.491109 -1.210113 -4.865599 4.300019 -1.641795 -1.747746 -0.026723 3.632160 -2.382801 -0.534154 0.046722 0.539792 -3.152992 0.984499 -1.486181 -4.162593 -4.536065
