3.677977 0.900798 3.689687 -2.336877 -3.845836 -0.442037 4.027266 2.513847 -0.794851 -2.808291 -2.710049 -2.014120 -1.425715 -3.740443 -1.858165 2.907868 -4.878324 3.678433 1.058578 -0.707672 -3.151462 -2.028568 -4.421013 4.113566 1.657410 -2.563983 4.759092 1.904721 -0.737160 2.720735 -3.746165 -1.985440 1.087167 0.247979 -0.484186 -1.259669 -2.329279 2.685509 -1.816220 -0.272438 1.188364 -0.043638 -1.840456 -1.686388 -3.195668 -0.876637 -4.555178 -2.435344 -2.573525 -0.286984 -2.120464 1.621743 -3.397613 -2.595109 0.435468 -0.414164 3.655598 4.411046 -0.824325 -0.225467 3.950001 -1.363751 4.484341 4.619196 -4.354643 -0.779209 0.190154 -1.253368 0.014630 -3.938057 3.006586 -0.382256 -4.540416 2.517187 -2.188072 3.546898 -0.703721 1.864437 -2.597255 4.607880 2.668486 -4.383621 -4.998775 -0.417178 -3.383469 -0.659792 1.395097 4.276924 2.148294 0.378822 4.308241 1.713804 -1.296380 -4.714039 -2.407228 1.447980
-1.394636 0.681039 3.827235 -3.000873 -3.436387 -1.954227 4.027266 2.513847 2.852820 -2.444750 -2.710049 -2.014120 -1.425715 -3.740443 2.501099 -2.391259 1.339604 3.678433 2.757205 2.330629 -3.151462 -2.028568 -4.421013 4.113566 1.657410 -2.563983 -1.581724 1.904721 -0.737160 2.720735 2.904757 -1.985440 -1.466605 0.247979 -0.484186 -1.259669 -2.329279 2.685509 -1.816220 2.849738 1.188364 -0.043638 -1.840456 -1.686388 -3.195668 4.447084 -4.555178 -2.435344 -2.573525 -2.516895 -2.120464 1.621743 -3.397613 -2.595109 0.435468 -0.414164 3.655598 4.411046 -0.824325 -0.225467 3.950001 -1.363751 4.484341 4.619196 -4.354643 -0.779209 0.190154 3.999651 0.785202 0.682517 -3.160280 -1.401890 -1.608275 1.433102 4.813474 3.546898 2.432062 2.067576 -0.696815 -3.449108 -2.621171 -0.557684 4.030853 -2.330267 -3.738864 -0.428390 -4.515285 -4.107282 0.025636 -2.240082 4.128645 4.264750 -3.072985 -3.746727 -2.407228 1.447980
-3.947101 -1.919713 0.869187 2.216878 0.333444 -4.988117 -3.300000 4.461592 4.076606 -3.436169 -0.586169 0.417459 4.185204 1.904631 2.447824 -4.512429 4.185047 -2.340699 -0.775957 -4.471094 -4.223259 -1.363660 -1.558793 2.946587 -3.069255 2.117936 3.599999 2.306115 4.404245 -2.087644 1.851398 -3.174777 -3.301114 -0.229296 -1.466376 -1.371043 -4.402274 -1.092392 -0.813596 -0.272438 1.188364 -0.043638 -1.745758 -1.686388 4.567670 4.447084 -4.555178 -2.435344 1.493548 4.410424 -2.120464 1.621743 -3.397613 -0.460022 -3.487583 0.308935 0.886948 -3.872346 -0.831566 -4.890822 3.194409 -1.363751 4.484341 4.619196 -1.343458 -0.889654 -2.702006 3.999651 0.785202 0.682517 -3.160280 -1.401890 -1.608275 1.433102 4.813474 3.546898 2.432062 2.067576 -0.696815 -3.449108 -4.841873 -2.339496 -2.819191 -2.330267 -3.383469 1.087329 0.447860 -3.214456 -1.346268 -2.240082 4.128645 4.603406 -3.072985 -3.746727 -2.407228 1.447980
3.677977 0.900798 3.689687 -2.336877 -3.845836 -0.442037 4.027266 2.513847 -0.794851 -2.444750 -2.710049 -2.014120 -1.928771 -3.740443 -1.858165 2.907868 -4.878324 3.678433 1.058578 -0.707672 -3.151462 -2.028568 -4.421013 4.113566 1.657410 -2.563983 -1.581724 1.904721 -0.737160 -1.543718 -3.746165 -1.985440 1.087167 0.247979 -2.264244 3.566089 -2.829456 -1.994479 -1.425163 3.627092 2.948605 -3.649304 -1.793005 0.140566 -3.195668 4.447084 -4.555178 -2.435344 -2.573525 -2.516895 -2.120464 1.621743 -3.397613 -2.595109 0.435468 1.824136 0.266860 3.946527 4.088169 3.515369 -1.899820 1.506639 3.073613 0.129379 -1.306784 -3.174821 0.565764 4.374207 1.141283 -4.468438 1.163689 1.335355 2.487232 2.517187 -2.188072 3.546898 2.432062 2.067576 0.181054 -3.449108 -4.841873 -2.339496 -4.998775 -0.417178 -2.567386 1.087329 0.447860 -3.214456 -1.346268 2.740103 4.128645 4.603406 -3.072985 -3.746727 0.756262 -2.804920
3.677977 2.297087 3.827235 -3.000873 -3.436387 -1.954227 0.686426 2.513847 2.852820 -2.444750 -2.710049 -2.014120 -1.425715 -3.740443 2.501099 -2.391259 1.339604 3.678433 2.757205 -0.707672 -3.151462 -2.028568 -4.421013 4.113566 1.657410 -2.563983 -1.581724 1.904721 -0.737160 2.720735 -3.746165 -1.985440 -4.963508 -0.229296 -1.466376 -1.371043 -4.402274 -1.092392 -0.813596 -0.272438 1.188364 -0.043638 -1.745758 -1.686388 4.567670 4.447084 -4.555178 -2.435344 1.493548 -2.516895 -2.120464 1.621743 -3.397613 -0.460022 -3.487583 0.308935 0.886948 -3.872346 -0.831566 -4.890822 3.194409 -1.363751 4.820840 4.619196 -1.343458 -0.889654 -2.702006 3.999651 0.785202 0.682517 -3.160280 -1.401890 -1.608275 1.433102 4.813474 3.546898 2.432062 2.067576 -0.696815 -3.449108 -4.841873 -2.339496 -4.998775 -0.417178 -3.383469 1.087329 0.447860 -3.214456 -1.346268 -2.240082 4.128645 4.603406 -3.072985 -3.746727 -2.407228 1.447980
3.677977 0.900798 3.689687 -2.336877 -3.845836 -0.442037 4.027266 2.513847 -0.794851 -2.444750 -2.710049 -2.014120 -1.928771 1.904631 2.447824 -4.512429 4.185047 -2.340699 -0.775957 -4.471094 -4.223259 -1.363660 -1.558793 2.946587 -3.656293 2.117936 3.599999 2.306115 4.404245 -2.087644 1.851398 -3.174777 -3.301114 -0.229296 -1.466376 -1.371043 -4.402274 -1.092392 -0.813596 -0.272438 1.188364 -0.043638 -1.745758 4.247490 4.567670 4.447084 -4.555178 -2.435344 2.586127 -2.516895 -1.299108 1.621743 -3.397613 -0.460022 -3.487583 0.308935 0.886948 -3.872346 -0.831566 -4.890822 3.194409 -1.363751 4.484341 4.619196 -1.343458 -0.889654 -2.702006 3.999651 0.785202 0.682517 -3.160280 -1.401890 -1.608275 1.433102 4.813474 3.546898 2.432062 2.067576 -0.696815 -3.449108 -4.841873 -2.339496 -4.998775 -0.417178 -3.383469 1.087329 0.788021 4.276924 -0.277784 -2.240082 4.128645 1.778621 -3.072985 -3.746727 -2.407228 1.447980
-1.394636 2.297087 3.827235 -3.000873 -3.436387 -1.954227 0.686426 2.513847 2.852820 -2.444750 -2.710049 -2.014120 -1.425715 -3.740443 2.501099 -2.391259 1.339604 3.678433 2.757205 -0.707672 -3.151462 -2.028568 -4.421013 4.113566 1.657410 -2.563983 -1.581724 1.904721 -0.737160 2.720735 -3.746165 -1.985440 -4.963508 -0.229296 -1.466376 -1.371043 -4.402274 -1.092392 -0.813596 -0.272438 1.188364 -0.043638 -1.745758 -1.686388 4.567670 4.447084 -4.555178 -2.435344 -2.573525 -2.516895 -2.120464 1.621743 -3.397613 -2.595109 -0.505779 1.824136 0.266860 3.946527 4.088169 3.515369 -1.899820 1.506639 3.073613 0.129379 -1.306784 -3.174821 0.565764 -0.153804 0.014630 1.439511 3.006586 -0.382256 -0.139356 -3.648126 0.628385 -3.086236 -0.703721 1.864437 -2.759995 4.374946 -2.621171 -0.557684 4.030853 -2.330267 -3.738864 -0.428390 -4.515285 -4.107282 0.025636 -2.240082 4.128645 4.264750 -3.072985 -3.746727 -2.407228 1.447980
-1.394636 0.681039 3.827235 -3.568502 3.519896 -1.954227 4.027266 2.513847 2.852820 -2.444750 -2.710049 -2.014120 -1.425715 -3.740443 2.501099 -2.391259 1.339604 3.678433 2.757205 -0.707672 -3.151462 -2.028568 -4.421013 4.113566 1.657410 -2.563983 -1.581724 1.904721 -0.737160 2.720735 -3.746165 -1.985440 1.087167 0.247979 -0.484186 -1.259669 -2.329279 2.685509 -1.816220 -0.272438 1.188364 -0.043638 -1.840456 -1.686388 -3.195668 -0.876637 -4.555178 -2.435344 -2.573525 -0.286984 -2.120464 1.621743 -3.397613 -2.595109 0.435468 -0.414164 3.655598 4.411046 -0.824325 -0.225467 3.950001 -1.363751 4.484341 4.619196 -4.354643 -0.779209 0.190154 -1.253368 0.014630 -3.938057 3.006586 -0.382256 2.487232 2.517187 -2.188072 3.546898 2.432062 2.067576 -3.342095 -3.449108 -4.841873 -2.339496 -4.998775 -0.417178 -2.567386 1.087329 -4.515285 -4.107282 0.025636 -2.240082 -0.694569 3.614214 -3.072985 -3.746727 -2.407228 1.447980
-3.947101 -1.919713 0.869187 2.216878 0.333444 -4.988117 -3.300000 4.461592 4.076606 -3.436169 -0.586169 0.417459 4.185204 1.904631 2.447824 -4.512429 4.185047 -2.340699 -0.775957 -4.471094 -4.223259 -1.363660 -1.558793 2.946587 -3.069255 2.117936 3.599999 2.306115 4.404245 -2.087644 1.851398 -3.174777 -3.301114 -0.229296 -1.466376 -1.371043 -4.402274 -1.092392 -0.813596 -0.272438 1.188364 -0.043638 -1.745758 -1.686388 4.567670 4.447084 -4.555178 -2.435344 1.493548 -2.516895 -2.120464 1.621743 -3.397613 -0.460022 -3.487583 0.308935 0.886948 -3.872346 -0.831566 -4.890822 3.950001 -1.363751 4.484341 4.619196 -4.354643 -0.779209 0.190154 -1.253368 0.014630 -3.938057 3.006586 -0.382256 -4.540416 2.517187 -2.188072 3.546898 -0.703721 2.067576 -0.696815 -3.449108 -2.621171 -0.557684 4.030853 -2.330267 -3.738864 -0.428390 -4.515285 -4.107282 0.025636 -2.240082 4.128645 4.264750 -3.072985 -3.746727 -2.407228 1.447980
-1.394636 0.681039 3.827235 -3.000873 -4.401120 -1.954227 4.027266 2.513847 2.852820 -2.444750 -2.710049 -2.014120 -1.425715 -3.740443 2.501099 -2.391259 1.339604 3.678433 2.757205 -0.707672 -3.151462 -2.028568 -4.421013 4.113566 1.657410 -2.563983 -1.581724 1.904721 -0.737160 2.487340 4.716136 2.233857 -0.947016 0.247979 -0.484186 -3.031355 4.351154 -2.859996 3.080166 -4.549009 1.310883 -0.043638 3.935196 2.778204 -2.655006 4.447084 -4.555178 -2.435344 1.493548 -2.516895 -2.120464 1.621743 -3.397613 -2.595109 0.435468 1.824136 0.266860 3.946527 4.088169 3.515369 -1.899820 1.506639 3.073613 0.129379 -1.306784 -3.174821 0.565764 -0.153804 0.014630 1.439511 3.006586 -0.382256 -0.139356 -3.648126 0.628385 -3.086236 -0.703721 1.864437 -2.759995 4.374946 -2.621171 -0.557684 4.030853 -2.330267 -3.738864 -0.428390 -4.515285 -4.107282 0.025636 -2.240082 4.128645 4.264750 -3.072985 -3.746727 -2.407228 1.447980
-1.394636 0.681039 3.827235 -3.000873 -3.436387 -1.954227 4.027266 2.513847 2.852820 -2.444750 -2.710049 -2.014120 -1.425715 -3.740443 2.501099 -2.391259 1.339604 -2.340699 -0.775957 -4.471094 -4.223259 0.568113 -1.558793 2.946587 -3.069255 2.117936 -0.921148 2.306115 4.404245 -2.087644 1.851398 -3.174777 -4.963508 -0.229296 -3.883461 -1.371043 -4.402274 -1.092392 -0.813596 -0.272438 1.188364 -0.043638 -1.745758 -1.686388 4.567670 4.447084 -4.555178 -2.435344 -2.176791 -2.516895 -2.120464 1.621743 -3.397613 -0.460022 -3.487583 0.308935 0.886948 -3.872346 -0.831566 -4.890822 3.194409 -1.363751 4.484341 4.619196 -1.343458 -0.889654 -2.702006 3.999651 3.735679 0.682517 -3.160280 -1.401890 -1.608275 1.433102 4.813474 3.546898 2.432062 2.067576 -0.696815 -3.449108 -2.621171 -0.557684 4.030853 -2.330267 -3.738864 -0.428390 -2.779765 -4.107282 0.025636 -2.240082 4.128645 4.264750 -3.072985 -3.746727 -2.407228 1.447980
-3.947101 -1.919713 0.869187 2.216878 0.333444 -4.988117 -3.300000 4.461592 4.076606 -3.436169 -0.586169 0.417459 4.185204 1.904631 2.447824 -4.512429 2.881153 -2.340699 -0.775957 -4.471094 -4.223259 -1.363660 -1.558793 2.946587 -3.069255 2.117936 3.599999 2.306115 4.404245 -2.087644 1.851398 -3.174777 2.112626 -0.229296 -1.466376 -1.371043 -4.402274 -1.092392 -0.813596 -0.272438 1.188364 -0.043638 -1.745758 -1.686388 4.567670 4.447084 -4.555178 -2.435344 1.493548 4.410424 -2.120464 1.621743 1.265284 -0.460022 -3.487583 0.308935 0.886948 -3.872346 -0.831566 -4.890822 3.194409 -1.363751 4.484341 4.619196 -1.343458 -0.889654 -2.702006 3.999651 0.785202 0.682517 -3.160280 -1.401890 -1.608275 1.433102 4.813474 3.546898 2.432062 2.067576 -0.696815 -3.449108 -4.841873 -2.339496 -4.998775 -0.417178 -3.383469 1.087329 0.447860 -4.107282 0.025636 -2.240082 4.128645 3.614214 -3.072985 -3.746727 -2.407228 1.447980
-0.274220 1.188941 0.236084 -2.499626 -2.632296 -0.901388 -0.165703 -0.271082 4.948895 -4.306218 -1.704752 4.590171 4.884395 3.128397 1.079328 -4.955508 -1.445625 -3.741840 -1.874522 1.008150 -1.373688 -2.723537 -3.844358 2.476803 3.829345 -2.870845 -1.581724 1.904721 -0.737160 -1.543718 -3.746165 -1.985440 1.087167 0.247979 -0.484186 -1.259669 4.888837 2.685509 -1.816220 -0.272438 1.188364 -0.043638 -1.840456 -1.686388 -3.195668 -0.876637 -4.555178 -2.435344 -2.573525 -0.286984 -2.120464 1.621743 -3.397613 -2.595109 0.435468 1.824136 0.266860 3.946527 4.088169 3.515369 -1.899820 1.506639 3.073613 0.129379 -1.306784 -3.174821 0.565764 -2.487345 -2.072695 -4.468438 1.163689 1.335355 2.487232 2.517187 -2.188072 3.546898 2.432062 2.067576 0.181054 -3.449108 -4.841873 -2.339496 -2.426450 -0.417178 -3.383469 1.087329 0.447860 -3.214456 -1.346268 -2.240082 4.128645 2.273880 -3.072985 -3.746727 -2.407228 1.447980
-1.394636 0.681039 3.827235 -3.000873 -3.436387 -1.954227 4.027266 2.513847 2.852820 -2.444750 -2.710049 -2.014120 -1.425715 -3.740443 2.501099 -2.391259 1.339604 3.678433 2.757205 -0.707672 -3.151462 -2.028568 -4.421013 4.113566 1.657410 2.117936 3.599999 2.306115 4.404245 -2.087644 1.851398 -3.174777 -3.301114 -0.229296 -1.466376 -1.371043 -4.402274 -1.092392 -0.813596 -0.272438 1.188364 -0.043638 -1.745758 -1.686388 4.567670 4.447084 -4.555178 -2.435344 1.493548 -2.516895 -2.120464 1.621743 -3.397613 -0.460022 -3.487583 0.308935 0.886948 -3.872346 -0.831566 -4.890822 3.194409 -1.363751 4.484341 4.619196 -1.343458 -0.889654 -2.702006 3.999651 0.785202 0.682517 -3.160280 -1.401890 -1.608275 1.433102 4.813474 3.546898 2.432062 2.067576 -0.696815 -3.449108 -2.621171 -0.557684 4.030853 -2.330267 -3.738864 -0.428390 -4.515285 -4.107282 0.025636 -2.240082 4.128645 4.264750 -3.072985 -3.746727 -2.407228 1.447980
-3.947101 -1.919713 0.869187 2.216878 0.333444 -4.988117 -3.300000 4.461592 4.076606 -3.436169 -0.586169 0.417459 4.185204 1.904631 2.447824 -4.512429 4.185047 -2.340699 -0.775957 -4.471094 -4.223259 -1.363660 -1.558793 2.946587 -3.069255 2.117936 3.599999 2.306115 4.404245 -1.543718 -3.746165 0.853999 -0.947016 0.247979 -1.466376 -1.371043 -4.402274 -1.092392 -0.813596 -0.272438 1.188364 -0.043638 -1.745758 -1.686388 4.567670 4.447084 -4.555178 -2.435344 1.493548 -2.516895 -2.120464 1.621743 -3.397613 -0.460022 -3.487583 0.308935 0.886948 -3.872346 -0.831566 -4.890822 3.194409 -1.363751 4.484341 4.619196 -1.343458 -0.889654 -2.702006 3.999651 0.785202 0.682517 -3.160280 -1.401890 -1.608275 1.433102 4.813474 3.546898 2.432062 2.067576 -0.696815 -3.449108 -2.621171 -0.557684 4.030853 -2.330267 -3.738864 -0.428390 -4.515285 -4.107282 0.025636 -2.240082 4.128645 4.264750 -3.072985 -3.746727 -2.407228 1.447980
-3.947101 -1.919713 0.869187 2.216878 0.333444 -4.988117 -3.300000 4.461592 4.076606 -3.436169 -0.586169 0.417459 4.185204 1.904631 2.447824 -4.512429 4.185047 -2.340699 -0.775957 -4.471094 -4.223259 -1.363660 -1.558793 2.946587 -3.069255 2.117936 3.599999 2.306115 4.404245 -2.087644 1.851398 -3.174777 -4.963508 -0.229296 -1.466376 -1.371043 -4.402274 -1.092392 -0.813596 -0.272438 1.188364 -0.043638 -1.745758 -1.686388 4.567670 4.447084 -4.555178 -2.435344 1.493548 -0.339443 -2.120464 1.621743 -3.397613 -0.460022 -3.487583 0.308935 0.886948 -3.872346 -0.831566 -4.890822 3.194409 -1.363751 4.484341 4.619196 -1.343458 -0.889654 -2.702006 3.999651 0.785202 0.682517 -3.160280 -1.401890 -1.608275 1.433102 4.813474 3.546898 2.432062 2.067576 -0.696815 -3.449108 -4.841873 -2.339496 -4.998775 -0.417178 -3.383469 1.087329 0.447860 -3.214456 -1.346268 -2.240082 4.128645 4.603406 -3.072985 -3.746727 -2.407228 1.447980
3.677977 0.900798 3.689687 -2.336877 -3.845836 -0.442037 4.027266 2.513847 -0.794851 -2.444750 -2.710049 -2.014120 -1.928771 -3.740443 -1.858165 2.907868 -4.878324 3.678433 1.058578 -0.707672 -3.151462 -2.028568 -4.421013 4.113566 1.657410 -2.563983 -1.581724 1.904721 -0.737160 -1.543718 -3.746165 -1.985440 1.087167 0.247979 -4.718534 3.566089 -2.829456 -1.994479 -1.425163 3.627092 2.948605 -3.649304 -1.793005 0.140566 -3.195668 4.447084 -4.555178 -2.435344 -2.573525 -2.516895 -2.120464 1.621743 -3.397613 -0.460022 -3.487583 0.308935 0.886948 -3.872346 -0.831566 -4.890822 3.194409 -1.363751 4.484341 4.619196 -1.343458 -0.889654 -2.702006 3.999651 0.785202 0.682517 -3.160280 -1.401890 -1.608275 2.517187 -2.188072 3.546898 2.432062 2.067576 0.181054 -3.449108 -4.841873 -2.339496 -4.998775 -0.417178 -2.567386 1.087329 0.447860 -3.214456 -1.346268 1.539915 4.128645 3.614214 1.073922 2.949287 -0.821470 -0.691714
-3.947101 -1.919713 0.869187 2.216878 0.333444 -4.988117 -3.300000 2.767696 4.076606 -3.436169 -0.586169 0.417459 4.185204 1.904631 2.447824 -4.512429 4.185047 -2.340699 -0.775957 -4.471094 -4.223259 -1.363660 -1.558793 2.946587 -3.069255 2.117936 3.599999 2.306115 4.404245 -2.087644 1.851398 -3.174777 -3.301114 -0.229296 -1.466376 -1.371043 -4.402274 -1.092392 -0.813596 -0.272438 1.188364 -0.043638 -1.745758 -1.686388 4.567670 4.447084 -4.555178 -2.435344 1.493548 -2.516895 -2.120464 1.621743 -3.397613 -0.460022 -3.487583 0.308935 0.886948 -3.872346 -0.831566 -4.890822 3.194409 -1.363751 4.484341 4.619196 -1.343458 -3.174821 0.565764 -2.487345 1.141283 2.626441 1.163689 1.335355 2.487232 2.517187 -2.188072 3.546898 2.432062 2.067576 0.181054 -3.449108 -4.841873 -2.339496 -4.998775 -0.417178 -2.567386 -0.428390 -4.515285 -4.107282 0.025636 -2.240082 0.539816 4.264750 0.950584 -3.746727 -2.407228 1.447980
3.677977 0.900798 3.689687 -2.336877 -3.845836 -0.442037 4.027266 2.513847 -0.794851 -2.444750 -2.710049 -2.014120 -1.928771 -3.740443 -1.858165 2.907868 -4.878324 3.678433 2.757205 -0.707672 -3.151462 -2.028568 -4.421013 4.113566 1.657410 -2.563983 -1.581724 1.904721 -0.737160 2.487340 4.716136 2.233857 -0.947016 0.247979 -0.484186 -1.259669 -2.329279 2.685509 -2.966246 3.627092 2.948605 -3.649304 0.341114 0.140566 -3.195668 4.447084 -4.555178 -2.435344 -2.573525 -2.516895 -2.120464 1.621743 -3.397613 -2.595109 0.435468 1.824136 0.266860 3.946527 4.088169 3.515369 -1.899820 1.506639 3.073613 0.129379 -1.306784 -3.174821 0.565764 -0.153804 0.014630 1.439511 3.006586 -0.382256 -0.139356 -3.648126 0.628385 -3.086236 -0.703721 1.864437 -2.759995 4.374946 -2.621171 -0.557684 4.030853 -2.330267 -3.738864 -0.428390 -4.515285 -4.107282 0.025636 -2.240082 4.128645 4.264750 -3.072985 -3.746727 -2.407228 1.447980
3.677977 0.900798 3.689687 -2.336877 -3.845836 -0.442037 4.027266 2.513847 -0.794851 -2.444750 -2.710049 -2.014120 -1.425715 -3.740443 -1.858165 2.907868 -4.878324 3.678433 1.058578 -0.707672 -3.151462 -2.028568 -4.421013 4.113566 1.657410 -2.563983 4.759092 1.904721 -0.737160 2.720735 -3.746165 -1.985440 1.087167 0.247979 -0.484186 -1.259669 -2.329279 2.685509 -1.816220 -0.272438 1.188364 -0.043638 -1.840456 2.778204 -2.655006 4.447084 -4.555178 -2.435344 1.493548 -2.516895 -2.120464 1.621743 -3.583035 -2.595109 0.435468 -0.414164 3.655598 4.411046 2.474567 -0.225467 3.950001 -1.363751 -4.369454 4.619196 -4.354643 -0.779209 0.190154 1.351601 0.014630 -3.938057 3.006586 -0.382256 -4.540416 2.517187 -2.188072 3.546898 -0.703721 1.864437 -2.597255 4.607880 2.668486 -4.383621 -4.998775 -0.417178 -3.383469 -0.659792 1.395097 4.276924 2.148294 0.378822 4.308241 1.713804 -1.296380 -4.714039 -2.407228 1.447980
-1.394636 0.681039 3.827235 -3.000873 -3.436387 -1.954227 4.027266 2.513847 2.852820 -3.472530 -2.710049 -2.014120 -1.425715 -3.740443 2.501099 -2.391259 1.339604 3.678433 2.757205 -0.707672 -3.151462 -2.028568 -4.421013 4.113566 1.657410 -2.563983 -1.581724 1.904721 -0.737160 2.720735 -3.746165 -1.985440 1.087167 0.247979 -0.484186 -1.259669 -2.329279 2.685509 -1.816220 -0.272438 1.188364 -0.043638 -1.840456 -1.686388 -3.195668 -0.876637 -4.555178 -2.435344 -2.573525 -0.286984 -2.120464 1.621743 -3.397613 -2.595109 0.435468 -0.414164 3.655598 4.411046 -0.831566 -4.890822 -2.676777 -1.363751 4.484341 4.619196 -1.343458 -0.889654 -2.702006 3.999651 0.785202 0.682517 3.006586 -0.382256 2.487232 2.517187 -2.188072 3.546898 2.432062 2.067576 0.181054 -3.449108 -4.841873 -2.339496 -4.998775 -0.417178 -3.383469 -0.659792 1.395097 4.276924 2.148294 -3.344186 4.308241 1.713804 -1.296380 -4.714039 -2.407228 1.447980
-1.394636 0.681039 3.827235 -3.000873 -3.436387 -1.954227 4.027266 2.513847 2.852820 -2.444750 -2.710049 -2.014120 -1.425715 -3.740443 2.501099 -2.391259 1.339604 3.678433 2.757205 -0.707672 -3.151462 -2.028568 -4.421013 4.113566 1.657410 -2.563983 -1.581724 1.904721 -0.737160 2.720735 -3.746165 -1.985440 1.087167 0.247979 -0.484186 -1.259669 -2.742529 2.685509 -1.816220 -0.272438 1.188364 -0.043638 -1.840456 -1.686388 -3.195668 -0.876637 -4.555178 -2.435344 -2.573525 -0.286984 -2.120464 1.621743 -3.397613 -2.595109 0.435468 -0.414164 3.655598 4.411046 -0.824325 -0.225467 3.950001 -1.363751 4.484341 4.619196 -4.354643 -0.779209 0.190154 -1.253368 0.014630 -3.938057 3.006586 -0.382256 2.487232 2.517187 -2.188072 3.546898 2.432062 2.067576 0.181054 -3.449108 -4.841873 -2.339496 -4.998775 -0.417178 -3.383469 -0.659792 1.395097 4.276924 -1.346268 1.539915 4.128645 -4.569020 1.073922 2.949287 -4.882692 1.447980
-1.394636 0.681039 3.827235 -3.000873 -4.401120 -1.954227 4.027266 2.513847 2.852820 -2.444750 -2.710049 -2.014120 -1.425715 -3.740443 2.501099 -2.391259 1.339604 3.678433 2.757205 -0.707672 -3.151462 -1.363660 -1.558793 2.946587 -3.656293 2.117936 3.599999 2.306115 4.404245 -2.087644 1.851398 -3.174777 -3.301114 -0.229296 -1.466376 -1.371043 -4.402274 -1.092392 -0.813596 -0.272438 1.188364 -0.043638 -1.745758 4.247490 4.567670 4.447084 -4.555178 -2.435344 2.586127 -2.516895 -2.120464 -2.992918 -3.397613 -2.595109 0.435468 1.824136 0.266860 3.946527 4.088169 3.515369 -1.899820 1.506639 3.073613 0.129379 -1.306784 -3.174821 0.565764 -2.487345 1.141283 2.626441 1.163689 1.335355 2.487232 2.517187 -2.188072 3.546898 2.432062 2.067576 0.181054 -3.449108 -4.841873 -2.339496 -4.998775 -0.417178 -2.567386 1.087329 0.447860 -3.214456 -1.346268 1.539915 4.128645 3.614214 1.073922 2.949287 -0.821470 -0.691714
-1.394636 0.681039 3.827235 -3.000873 -3.436387 -1.954227 4.027266 2.513847 2.852820 -2.444750 -2.710049 -2.014120 -1.425715 -3.740443 2.501099 -2.391259 1.339604 3.678433 2.757205 -0.707672 -3.151462 -2.028568 -4.421013 4.113566 1.657410 -2.563983 -1.581724 1.904721 3.380009 2.720735 -3.746165 -1.985440 -0.947016 0.247979 -0.484186 -1.259669 -2.329279 2.685509 -1.816220 -0.272438 1.188364 3.304289 -1.745758 -1.686388 4.567670 4.447084 -4.555178 -2.435344 1.493548 -2.516895 -2.120464 1.621743 -3.397613 -0.460022 -3.487583 0.308935 0.886948 -3.872346 -0.831566 -4.890822 3.194409 -1.363751 4.484341 4.619196 -1.343458 0.112427 -2.702006 3.999651 0.785202 0.682517 -3.160280 -1.401890 -1.608275 1.433102 4.813474 3.546898 2.432062 2.067576 -0.696815 -3.449108 -4.841873 -2.339496 -4.998775 -0.417178 -3.383469 1.087329 0.447860 -3.214456 -1.346268 -2.240082 4.128645 4.603406 -3.072985 -3.746727 -2.407228 -0.045080
-3.947101 -1.919713 0.869187 2.216878 0.333444 -4.988117 -3.300000 4.461592 4.076606 -3.436169 -0.586169 0.417459 4.185204 1.904631 2.447824 -4.512429 4.185047 -2.340699 -0.775957 -4.471094 -3.344171 -1.363660 -1.558793 2.946587 -3.069255 2.117936 3.599999 2.306115 4.404245 -2.087644 1.851398 -3.174777 -3.301114 0.868568 -1.466376 -1.371043 -4.402274 -1.092392 -0.813596 -0.272438 1.188364 -0.043638 -1.745758 -1.686388 4.567670 4.447084 -4.555178 -2.435344 1.493548 -2.516895 -2.120464 1.621743 -3.397613 -0.460022 -3.487583 0.308935 0.886948 -3.872346 -0.831566 -4.890822 3.194409 -1.363751 4.484341 4.619196 -1.343458 -0.889654 -2.702006 3.999651 0.785202 0.682517 -3.160280 -1.401890 -1.608275 1.433102 4.813474 3.546898 2.432062 2.067576 -0.696815 -3.449108 -2.621171 -0.557684 4.030853 -2.330267 -3.738864 -0.428390 -4.515285 -4.107282 0.025636 -2.240082 4.128645 4.264750 -3.072985 -3.746727 -2.407228 1.447980
-1.394636 2.297087 3.827235 -3.000873 -3.436387 -1.954227 0.686426 2.513847 2.852820 -2.444750 -2.710049 -2.014120 -1.425715 -3.740443 2.501099 -2.391259 1.339604 0.540593 2.757205 -0.707672 -3.151462 -2.028568 -4.421013 4.113566 1.657410 2.117936 3.599999 2.306115 4.404245 -2.087644 1.851398 -3.174777 -4.963508 -0.229296 -3.883461 -1.371043 -4.402274 -1.092392 -0.813596 -0.272438 1.188364 -0.043638 -1.745758 -1.686388 4.567670 4.447084 -4.555178 -2.435344 -2.176791 -2.516895 -2.120464 1.621743 -3.397613 -0.460022 -3.487583 0.308935 0.886948 -3.872346 -0.831566 -4.890822 3.194409 -1.363751 4.484341 4.619196 -1.343458 -0.889654 -2.702006 3.999651 0.785202 0.682517 -3.160280 -1.401890 -1.608275 1.433102 4.813474 3.546898 2.432062 2.067576 -0.696815 -3.449108 -4.841873 -2.339496 -4.998775 -0.417178 4.256526 1.087329 0.447860 -3.214456 -1.346268 -2.240082 4.128645 4.603406 -3.072985 -3.746727 -2.407228 1.237941
-1.394636 0.681039 3.827235 -3.000873 -3.436387 -1.954227 -2.075303 2.513847 2.852820 -2.444750 -2.710049 -2.014120 -1.425715 -3.740443 2.501099 -2.391259 1.339604 3.678433 2.757205 -0.707672 -3.151462 -2.028568 -4.421013 4.113566 1.657410 -2.563983 -1.581724 1.904721 -0.737160 2.720735 -3.746165 -1.985440 -4.963508 0.247979 -0.484186 -1.259669 -2.329279 2.685509 -1.816220 2.849738 1.188364 -0.043638 -1.840456 -1.686388 -3.195668 4.447084 -4.555178 -2.435344 -2.573525 -2.516895 -2.120464 1.621743 -3.397613 -2.595109 0.435468 -0.414164 3.655598 4.411046 -0.824325 -0.225467 3.950001 -1.363751 4.484341 4.619196 -4.354643 -0.779209 0.190154 -1.253368 4.832352 -4.468438 1.163689 1.335355 2.487232 2.517187 -2.188072 3.546898 2.432062 2.067576 -0.696815 -3.449108 -4.841873 -2.339496 -4.998775 0.089694 -3.223284 1.087329 0.447860 -3.214456 -1.346268 -2.240082 4.128645 4.603406 -3.072985 -3.746727 0.756262 -2.804920
3.677977 0.900798 3.689687 -2.336877 -3.845836 -0.442037 4.027266 2.513847 -0.794851 -2.444750 -2.710049 -2.014120 -1.425715 -3.740443 -1.858165 2.907868 -4.878324 3.678433 1.058578 -0.707672 -3.151462 -2.028568 -4.421013 4.113566 1.657410 2.117936 -1.581724 1.904721 -0.737160 -1.543718 -3.746165 -1.985440 -0.947016 0.247979 -0.484186 -3.031355 4.351154 -2.859996 3.080166 -4.549009 1.310883 -0.043638 3.935196 -2.413636 -2.655006 4.447084 -4.555178 -2.435344 1.493548 -2.516895 -2.120464 1.621743 -3.583035 -2.595109 0.435468 -0.414164 3.655598 4.411046 2.474567 -0.225467 3.950001 -1.363751 4.484341 4.619196 -4.354643 -0.779209 0.190154 -1.253368 0.014630 -3.938057 3.006586 -0.382256 -4.540416 2.517187 3.699693 3.546898 -0.703721 1.864437 -2.597255 4.607880 2.668486 -4.383621 -4.998775 -0.417178 -3.383469 -0.659792 1.395097 4.276924 2.148294 0.378822 4.128645 4.603406 -3.072985 -3.746727 -2.407228 1.447980
2.054058 0.681039 3.827235 -3.000873 -3.436387 -1.954227 4.027266 2.513847 2.852820 -2.444750 -2.710049 -2.014120 -1.425715 -3.740443 2.501099 -2.391259 2.938774 3.678433 2.757205 -0.707672 -3.151462 -2.028568 -4.421013 4.113566 1.657410 -2.563983 -1.581724 1.904721 -0.737160 2.720735 -3.746165 -1.985440 -4.963508 -0.229296 -1.466376 -1.371043 -4.402274 -1.092392 -0.813596 -0.272438 1.188364 -0.043638 -1.745758 -1.686388 4.567670 4.447084 -4.555178 -2.435344 1.493548 -2.516895 -2.120464 1.621743 -3.397613 -0.460022 -3.487583 0.308935 0.886948 -3.872346 -0.831566 -4.890822 3.194409 -1.363751 4.484341 4.619196 -1.343458 -0.889654 -2.702006 3.999651 0.785202 0.682517 -3.160280 -1.401890 -1.608275 1.433102 4.813474 3.546898 2.432062 2.067576 -0.696815 -3.449108 -2.621171 -0.557684 4.030853 -2.330267 -3.738864 -0.428390 -4.515285 -4.107282 0.025636 -2.240082 4.128645 4.264750 -3.072985 -3.746727 -2.407228 1.447980
-1.394636 0.681039 3.827235 -3.000873 -3.436387 -1.954227 4.027266 2.513847 2.852820 -2.444750 -2.710049 -2.014120 -1.425715 -3.740443 2.501099 -2.391259 1.339604 3.678433 2.757205 -0.707672 -3.151462 -2.028568 -4.421013 4.113566 1.657410 -2.563983 -1.581724 1.904721 -0.737160 2.720735 -3.746165 -1.985440 -4.963508 -0.229296 -1.466376 -1.371043 -4.402274 -1.092392 -0.813596 -0.272438 1.188364 -0.043638 -1.745758 -1.686388 4.567670 4.447084 -4.555178 -2.435344 1.493548 -2.516895 -2.120464 1.621743 -3.397613 -0.460022 -3.487583 0.308935 0.886948 -3.872346 -0.831566 -4.890822 3.194409 -1.363751 4.484341 4.619196 -1.343458 -0.889654 -2.702006 3.999651 0.785202 0.682517 -3.160280 -1.401890 -1.608275 1.433102 4.813474 3.546898 2.432062 2.067576 -0.696815 -3.449108 -4.841873 -2.339496 2.497932 -0.417178 -3.383469 1.087329 0.447860 -3.214456 -1.346268 -2.240082 4.128645 4.603406 -3.072985 -3.746727 -2.407228 1.447980
-3.947101 -1.919713 0.869187 2.216878 0.333444 -4.988117 -3.300000 4.461592 4.076606 -3.436169 -0.586169 0.417459 4.185204 1.904631 2.447824 -4.512429 4.185047 -2.340699 -0.775957 -4.471094 -4.223259 -1.363660 -4.421013 4.113566 1.657410 -2.563983 -1.581724 1.904721 -0.737160 -1.543718 -3.746165 -1.985440 1.087167 0.247979 -4.718534 3.566089 -2.829456 -1.994479 -1.425163 3.627092 2.948605 -3.649304 -1.793005 0.140566 -3.195668 4.447084 -4.555178 -2.435344 -2.573525 -2.516895 -2.120464 1.621743 -3.397613 -2.595109 0.435468 1.824136 0.266860 3.946527 4.088169 3.515369 -1.899820 1.506639 3.073613 0.129379 -1.306784 -3.174821 0.565764 4.374207 1.141283 -4.468438 1.163689 1.335355 2.487232 2.517187 -2.188072 3.546898 2.432062 2.067576 0.181054 -3.449108 -4.841873 -2.339496 -4.998775 -0.417178 -2.567386 1.087329 0.447860 -3.214456 -1.346268 1.539915 4.128645 3.614214 1.073922 2.949287 -0.821470 -0.691714
2.054058 0.681039 1.650498 -3.000873 -3.436387 -1.954227 4.027266 2.513847 2.852820 -2.444750 -2.710049 -2.014120 -1.425715 -3.740443 2.501099 -2.391259 2.938774 3.678433 2.757205 -0.707672 -3.151462 -2.028568 -4.421013 4.113566 1.657410 -2.563983 -1.581724 1.904721 -0.737160 2.720735 -3.746165 -1.985440 -4.963508 -0.229296 -1.466376 -1.371043 -4.402274 -1.092392 -0.813596 -0.272438 1.188364 -0.043638 -1.745758 -1.686388 4.567670 4.447084 -4.555178 -2.435344 1.493548 -2.516895 -2.120464 1.621743 -1.503972 -0.460022 -3.487583 0.308935 0.886948 -3.872346 -0.831566 -4.890822 3.194409 -1.363751 -1.825421 4.619196 -1.343458 -0.889654 -2.702006 3.999651 0.785202 0.682517 -3.160280 -1.401890 -1.608275 1.433102 4.813474 3.546898 2.432062 2.067576 -0.696815 -3.449108 -4.841873 -2.339496 -4.998775 -0.417178 -3.383469 1.087329 0.447860 -3.214456 -1.346268 -2.240082 4.128645 4.603406 -3.072985 -3.746727 -2.407228 1.447980
3.677977 0.900798 3.689687 -2.336877 -3.845836 -0.442037 4.027266 2.513847 -0.794851 -2.444750 -2.710049 -2.014120 -1.425715 -3.740443 -1.858165 2.907868 -4.878324 3.678433 1.058578 -0.707672 -3.151462 -2.028568 -4.421013 4.113566 1.657410 2.117936 4.302505 1.904721 -0.737160 -1.543718 -3.746165 0.853999 -0.947016 0.247979 -0.484186 -1.259669 -2.329279 2.685509 -1.816220 -0.272438 1.188364 -0.043638 -1.840456 -1.686388 -3.195668 -0.876637 -4.555178 -2.435344 -2.573525 -2.516895 -2.120464 -1.152312 -3.397613 -2.595109 0.435468 1.824136 0.266860 -2.455973 4.088169 3.465762 1.770775 1.506639 -0.284274 -2.706251 -2.145693 0.670482 -2.666798 4.670282 4.832352 -4.468438 1.163689 3.854253 2.487232 2.517187 -2.412290 3.546898 0.239914 2.067576 -0.696815 -3.449108 -4.523110 -4.383621 -4.998775 -0.417178 -2.567386 1.087329 -4.515285 -4.107282 -2.553507 -2.240082 4.128645 3.614214 -3.072985 -3.746727 -2.407228 1.447980
-1.394636 0.681039 3.827235 -3.000873 -3.436387 -1.954227 4.027266 2.513847 2.852820 -2.444750 -2.710049 -2.014120 -1.425715 -3.740443 2.501099 -2.391259 1.339604 3.678433 2.757205 -0.707672 -3.151462 -2.028568 -4.421013 4.113566 1.657410 -2.563983 -1.581724 1.904721 -0.737160 2.720735 -3.746165 -1.985440 -4.963508 -0.229296 -1.466376 -1.371043 -4.402274 -1.092392 -0.813596 -0.272438 1.188364 -0.043638 -1.840456 -1.686388 -3.195668 4.447084 -4.555178 -2.435344 -2.573525 -2.516895 -2.120464 1.621743 -3.397613 -2.595109 0.435468 -0.414164 3.655598 4.411046 -0.824325 -0.225467 3.950001 -1.363751 4.484341 4.619196 -4.354643 -0.779209 0.190154 -1.253368 4.832352 -4.468438 1.163689 1.335355 2.487232 2.517187 -2.188072 3.546898 2.432062 2.067576 -0.696815 -3.449108 -4.841873 -2.339496 -4.998775 0.089694 -3.383469 1.087329 0.447860 -3.214456 -1.346268 -2.240082 4.128645 4.603406 -3.072985 -3.746727 0.756262 -2.804920
-3.947101 -1.919713 0.869187 2.216878 0.333444 -4.988117 -3.300000 4.461592 4.076606 -3.436169 -0.586169 0.417459 4.185204 1.904631 2.447824 -4.512429 4.185047 -2.340699 -0.775957 -4.471094 -4.223259 -1.363660 -1.558793 2.946587 -3.069255 2.117936 3.599999 2.306115 4.404245 -2.087644 1.851398 -3.174777 -3.301114 -0.229296 -1.466376 -1.371043 -4.402274 -1.092392 -0.813596 -0.272438 1.188364 -0.043638 -1.745758 -1.686388 4.567670 4.447084 -4.555178 -2.435344 1.493548 -2.516895 -2.120464 1.621743 -3.397613 -0.460022 -3.487583 0.308935 0.886948 -3.872346 -0.831566 -4.890822 3.194409 -1.363751 4.484341 4.619196 -1.343458 -0.889654 -2.702006 3.999651 0.785202 0.682517 -3.160280 -1.401890 -1.608275 1.433102 4.813474 3.546898 2.432062 2.067576 -0.696815 -3.449108 -2.621171 -0.557684 -4.998775 -0.417178 -3.383469 1.087329 0.447860 -3.214456 -1.346268 -2.240082 0.854691 4.603406 -3.072985 -3.746727 -2.407228 1.447980
-1.394636 0.681039 3.827235 -3.000873 -3.436387 -1.954227 4.027266 2.513847 2.852820 -2.444750 -2.710049 -2.014120 -1.425715 -3.740443 2.501099 -2.391259 1.339604 3.678433 2.757205 -0.707672 -3.151462 -2.028568 -4.421013 4.113566 1.657410 -2.563983 -1.581724 1.904721 -0.737160 2.720735 2.904757 -1.985440 1.087167 0.247979 -0.484186 -1.259669 -2.329279 2.685509 -1.816220 2.849738 1.188364 -0.043638 -1.840456 -1.686388 -3.195668 4.447084 -4.555178 -2.435344 -2.573525 -2.516895 -2.120464 1.621743 -3.397613 -2.595109 0.435468 -0.414164 3.655598 4.411046 -0.824325 -0.225467 3.950001 -1.363751 4.484341 4.619196 -4.354643 -0.779209 0.190154 -1.253368 4.832352 -4.468438 1.163689 1.335355 2.487232 2.517187 -2.188072 3.546898 2.432062 2.067576 -0.696815 -3.449108 -4.841873 -2.339496 -4.998775 0.089694 -3.383469 1.087329 0.447860 -3.214456 -1.346268 -2.240082 4.308241 1.713804 -1.296380 -4.714039 -2.407228 1.447980
-1.394636 0.681039 3.827235 -3.000873 -4.401120 -1.954227 4.027266 2.513847 2.852820 -2.444750 -2.710049 -2.014120 -1.425715 -3.740443 -1.175432 -2.391259 1.339604 3.678433 2.757205 -0.707672 -3.151462 -2.028568 -4.421013 4.113566 1.657410 -2.563983 -1.581724 1.904721 -0.737160 2.487340 4.716136 2.233857 -0.947016 0.247979 -0.484186 -1.259669 -2.329279 2.685509 -2.966246 3.627092 2.948605 -3.649304 0.341114 0.140566 -3.195668 4.447084 -4.555178 -2.435344 -2.573525 -2.516895 -2.120464 1.621743 -3.397613 -2.595109 0.435468 1.824136 0.266860 3.946527 4.088169 3.515369 -1.899820 1.506639 3.073613 0.129379 -1.306784 -3.174821 0.565764 -0.153804 0.014630 1.439511 3.006586 -0.382256 -0.139356 -3.648126 0.628385 -3.086236 -0.703721 1.864437 -2.759995 4.374946 -2.621171 -2.339496 -4.998775 -0.417178 -3.383469 1.087329 0.447860 -3.214456 -1.346268 -2.240082 4.128645 4.603406 -3.072985 -3.746727 -2.407228 1.447980
3.677977 0.900798 3.689687 -2.336877 -3.845836 -0.442037 4.027266 2.513847 -0.794851 -2.444750 -2.710049 -2.014120 -1.425715 -3.740443 -1.858165 2.907868 -4.878324 3.678433 1.058578 -0.707672 -3.151462 -2.028568 -4.421013 4.113566 1.657410 2.117936 -1.581724 1.904721 -0.737160 -1.543718 -3.746165 -1.985440 -4.963508 -0.229296 -1.466376 -1.371043 -4.402274 -1.092392 -0.813596 -0.272438 1.188364 -0.043638 -1.745758 -1.686388 4.567670 4.447084 -4.555178 -2.435344 1.493548 -2.516895 2.106183 1.621743 -3.397613 -0.460022 -3.487583 0.308935 0.886948 -3.872346 -0.831566 -4.890822 3.194409 -1.363751 4.484341 4.619196 -1.343458 -0.889654 -2.702006 3.999651 0.785202 0.682517 -3.160280 -1.401890 -1.608275 1.433102 4.813474 3.546898 2.432062 2.067576 -0.696815 -3.449108 -4.841873 -2.339496 -4.998775 -0.417178 -3.383469 -0.659792 1.395097 4.276924 2.148294 0.378822 4.308241 1.713804 -1.296380 -4.714039 -2.407228 1.447980
-3.947101 -1.919713 0.869187 2.216878 0.333444 -4.988117 -3.300000 4.461592 4.076606 -3.436169 -0.586169 0.417459 4.185204 1.904631 2.447824 -4.512429 4.185047 -2.340699 -0.775957 -4.471094 -4.223259 -1.363660 -1.558793 2.946587 -3.069255 2.117936 3.599999 2.306115 4.404245 -2.087644 1.851398 -3.174777 -3.301114 -0.229296 -1.466376 -1.371043 -4.402274 -1.092392 -0.813596 -0.272438 1.188364 -0.043638 -1.745758 -1.686388 -3.195668 4.447084 -4.555178 -2.435344 -2.573525 -2.516895 -2.120464 -2.992918 -3.397613 -2.595109 0.435468 1.824136 0.266860 3.946527 4.088169 3.515369 -1.899820 1.506639 3.073613 0.129379 -1.306784 -3.174821 0.565764 -2.487345 1.141283 2.626441 1.163689 1.335355 2.487232 2.517187 -2.188072 3.546898 2.432062 2.067576 0.181054 -3.449108 -4.841873 -2.339496 -4.998775 -0.417178 -2.567386 2.996502 0.447860 -3.214456 -1.346268 1.539915 4.128645 3.614214 1.073922 2.949287 -0.821470 -0.691714
3.677977 0.900798 3.689687 -2.336877 -3.845836 -1.061601 4.027266 2.513847 -0.794851 -2.444750 -2.710049 -2.014120 -1.928771 -3.740443 -1.858165 2.907868 -4.878324 3.678433 1.058578 -0.707672 -3.151462 -2.028568 -4.421013 -4.987599 1.657410 -2.563983 -1.581724 1.904721 -0.737160 -1.543718 -3.746165 -1.985440 1.087167 0.247979 -4.718534 3.566089 -2.829456 -1.994479 -1.425163 3.627092 2.948605 -3.649304 -1.793005 0.140566 -3.195668 4.447084 -4.555178 -2.435344 -2.573525 -2.516895 -2.120464 1.621743 -3.397613 -2.595109 0.435468 1.824136 0.266860 -3.872346 -0.831566 -4.890822 3.194409 -1.363751 4.484341 4.619196 -1.343458 -0.889654 -2.702006 3.999651 0.785202 0.682517 -3.160280 -1.401890 -1.608275 1.433102 4.813474 3.546898 2.432062 2.067576 0.181054 -3.449108 -4.841873 -2.339496 -4.998775 -0.417178 -2.567386 1.087329 0.447860 -3.214456 -1.346268 1.539915 4.128645 3.614214 1.073922 2.949287 -0.821470 -0.691714
3.677977 0.900798 3.689687 -2.336877 -3.845836 -0.442037 4.027266 2.513847 -0.794851 -2.444750 -2.710049 -2.014120 -1.425715 -3.740443 -1.858165 2.907868 -4.878324 3.678433 1.058578 -0.707672 -3.151462 -2.028568 -4.421013 4.113566 1.657410 2.117936 -1.581724 1.904721 -0.737160 -1.543718 -3.746165 0.853999 -0.947016 0.247979 -0.484186 -1.259669 -2.329279 2.685509 -1.816220 -0.272438 1.188364 -0.043638 -1.840456 -1.686388 -3.195668 -0.876637 -4.555178 -2.435344 -2.573525 -2.516895 -2.120464 -1.152312 -3.397613 -2.595109 0.435468 1.824136 0.266860 -2.455973 4.088169 3.465762 1.770775 1.506639 -0.284274 1.278314 -2.145693 0.670482 -2.666798 4.670282 4.832352 -4.468438 1.163689 3.854253 2.487232 2.517187 -2.412290 3.546898 0.239914 2.067576 -0.696815 -3.449108 -4.523110 -4.383621 -4.998775 -0.417178 -2.567386 1.087329 -4.515285 -4.107282 0.025636 -2.240082 4.128645 4.822644 -3.072985 -3.746727 -2.407228 1.447980
-1.394636 0.681039 3.827235 -3.000873 -3.436387 -1.954227 4.027266 2.513847 2.852820 -2.444750 -2.710049 -2.014120 -1.425715 -3.740443 2.501099 -2.391259 1.339604 3.678433 2.757205 -0.707672 -3.151462 -2.028568 -4.421013 4.113566 1.657410 -2.563983 -1.581724 1.904721 -0.737160 2.720735 2.904757 -1.985440 1.087167 0.247979 -0.484186 -1.259669 -2.329279 2.685509 -1.816220 2.849738 1.188364 -0.043638 -1.840456 -1.686388 -3.195668 4.447084 -4.555178 -2.435344 -2.573525 -2.516895 -2.120464 1.621743 -3.397613 -2.595109 0.435468 -0.414164 3.655598 4.411046 -0.824325 -0.225467 3.950001 -1.363751 4.484341 4.619196 -4.354643 -0.779209 0.190154 -1.253368 0.014630 -3.938057 3.006586 -0.382256 2.487232 2.517187 -2.188072 3.546898 2.432062 2.067576 0.181054 -3.449108 -4.841873 -2.339496 -4.998775 -0.417178 -3.383469 -0.659792 1.395097 4.276924 2.148294 0.378822 4.308241 1.713804 -1.296380 -4.714039 -2.407228 1.447980
-3.947101 -1.919713 0.869187 2.216878 0.333444 -4.988117 -3.300000 4.461592 4.076606 -3.436169 -0.586169 0.417459 4.185204 1.904631 2.447824 -4.512429 4.185047 -2.340699 -0.775957 -4.471094 -4.223259 -1.363660 -1.558793 2.946587 -3.069255 2.117936 3.599999 1.933844 4.404245 -2.087644 1.851398 -3.174777 -3.301114 -0.229296 -1.466376 -1.371043 -4.402274 -1.092392 -0.813596 -0.272438 1.188364 -0.043638 -1.745758 -1.686388 4.567670 -4.303506 -4.555178 -2.435344 1.493548 -2.516895 -2.120464 1.621743 -3.397613 -0.460022 -3.487583 0.308935 0.886948 -3.872346 -0.831566 -4.890822 3.194409 -1.363751 4.484341 4.619196 -1.343458 -0.889654 -2.702006 3.999651 0.785202 1.439511 3.006586 -0.382256 -0.139356 -3.648126 0.628385 -3.086236 -0.703721 1.864437 -2.759995 4.374946 -2.621171 -0.557684 4.030853 -2.330267 -3.738864 -0.428390 -4.515285 -4.107282 0.025636 -2.240082 4.128645 4.264750 -3.072985 -3.746727 -2.407228 1.947978
-1.394636 0.681039 3.827235 -3.000873 -3.436387 -1.954227 4.027266 2.513847 2.852820 -2.444750 -2.710049 -2.014120 -1.425715 -3.740443 2.501099 -2.391259 1.339604 3.678433 2.757205 -0.707672 -3.151462 -2.028568 -4.421013 4.113566 1.657410 -2.563983 -1.581724 1.904721 -0.737160 2.720735 2.904757 -1.985440 1.087167 0.247979 -0.484186 -1.259669 -2.329279 2.685509 -1.816220 -0.272438 1.188364 -0.043638 -1.840456 -1.686388 -3.195668 -0.876637 -4.555178 -2.435344 -2.573525 -0.286984 -2.120464 1.621743 -3.397613 -4.702523 0.435468 -0.414164 3.655598 4.411046 -0.824325 -0.225467 3.950001 -1.363751 4.484341 4.619196 -4.354643 -0.779209 0.190154 -1.253368 0.014630 -3.938057 3.006586 -0.382256 -4.540416 0.421591 -2.188072 3.546898 -1.966607 1.864437 -2.597255 4.607880 2.668486 -4.383621 -4.998775 -0.417178 -3.383469 -0.659792 1.395097 4.276924 2.148294 0.378822 4.308241 1.713804 -1.296380 -4.714039 -2.407228 1.447980
-1.394636 0.681039 3.827235 -3.000873 -3.436387 -1.954227 4.027266 2.513847 2.852820 -2.444750 -2.710049 -2.014120 -1.425715 -3.740443 2.501099 -2.391259 2.938774 3.678433 2.757205 -0.707672 -3.151462 -2.028568 -4.421013 4.113566 1.657410 -2.563983 4.759092 1.904721 -0.737160 2.720735 -3.746165 -1.985440 1.087167 0.247979 -0.484186 -1.259669 -2.329279 2.685509 -1.816220 -0.272438 1.188364 -0.043638 -1.840456 -1.686388 -3.195668 -0.876637 -4.555178 -2.435344 -2.573525 -0.286984 -2.120464 1.621743 -3.397613 -2.595109 0.435468 -0.414164 3.655598 4.411046 -0.824325 -0.225467 3.950001 -1.363751 4.484341 4.619196 -4.354643 -0.779209 0.190154 -1.253368 0.014630 -3.938057 0.185932 -0.382256 -4.540416 2.517187 -2.188072 3.546898 -0.703721 1.864437 -2.597255 4.607880 2.668486 -4.383621 -4.998775 -0.417178 -3.383469 -0.659792 1.395097 4.276924 2.148294 0.378822 4.308241 -1.689700 -1.296380 -4.714039 -2.407228 1.447980
-1.394636 0.681039 3.827235 -3.000873 -4.401120 -1.954227 4.027266 2.513847 2.852820 -2.444750 -2.710049 -2.014120 -1.425715 -3.740443 2.501099 -2.391259 1.339604 3.678433 2.757205 -0.707672 -3.151462 -2.028568 -4.421013 4.113566 1.657410 -2.563983 -1.581724 1.904721 -0.737160 2.487340 4.716136 2.233857 1.087167 0.247979 -4.718534 3.566089 -2.829456 -1.994479 -1.425163 3.627092 2.948605 -3.649304 0.341114 0.140566 -3.195668 4.447084 -4.555178 -2.435344 -2.573525 -2.516895 -2.120464 -2.992918 -3.397613 -0.460022 -3.487583 0.308935 0.886948 -3.872346 -0.831566 -4.890822 3.194409 -1.363751 4.484341 4.619196 -1.343458 -0.889654 -2.702006 3.999651 0.785202 0.682517 -3.160280 -1.401890 -1.608275 1.433102 4.813474 3.546898 2.432062 2.067576 -0.696815 -3.449108 -4.841873 -2.339496 -4.998775 -0.417178 -3.383469 1.087329 0.447860 -3.214456 -1.346268 -2.240082 4.128645 4.603406 -2.780193 -3.746727 -0.821470 3.272933
1.767000 0.681039 3.827235 -3.000873 -3.436387 -1.954227 4.027266 2.513847 2.852820 -2.444750 -2.710049 -2.014120 -0.553307 -3.740443 2.501099 -2.391259 1.339604 3.678433 2.757205 -0.707672 -3.151462 -2.028568 -4.421013 4.113566 1.657410 -2.563983 -1.581724 1.904721 -0.737160 2.720735 -3.746165 -1.985440 1.087167 0.247979 -0.484186 -1.259669 -2.329279 -4.035787 -1.816220 -0.272438 1.188364 -0.043638 -1.840456 -1.686388 -3.195668 -0.876637 -4.555178 -2.435344 -2.573525 -0.286984 -2.120464 1.621743 -3.397613 -2.595109 0.435468 -0.414164 3.655598 4.411046 -0.824325 -0.225467 3.950001 -1.363751 4.484341 4.619196 -4.354643 -0.779209 0.190154 -1.253368 0.014630 -3.938057 3.006586 -0.382256 2.487232 2.517187 -2.188072 3.546898 2.432062 0.014626 0.181054 -3.449108 -4.841873 -2.339496 -4.998775 -0.417178 -3.383469 -0.659792 0.447860 -3.214456 -1.346268 1.539915 4.128645 3.614214 1.073922 -4.714039 -2.407228 1.447980
-1.394636 0.681039 3.827235 -3.000873 -3.436387 -1.954227 4.027266 2.513847 2.852820 -2.444750 -2.710049 -2.014120 -1.425715 -3.740443 2.501099 -2.391259 1.339604 -2.340699 -0.775957 -4.471094 -4.223259 -1.363660 -1.558793 2.946587 -3.069255 2.117936 3.599999 2.306115 4.404245 -2.087644 1.851398 -3.174777 -4.963508 -0.229296 -3.883461 -1.371043 0.317122 -1.092392 -0.813596 -0.272438 1.188364 -0.043638 -1.745758 -1.686388 4.567670 4.447084 -4.555178 -2.435344 -2.176791 -2.516895 -2.120464 1.621743 -3.397613 -0.460022 -0.721685 0.308935 -3.930302 -3.872346 -0.831566 -4.890822 3.194409 -1.363751 4.484341 4.619196 -1.343458 -0.889654 -2.702006 3.999651 0.785202 0.682517 -3.160280 -1.401890 -1.608275 1.433102 4.813474 3.546898 2.432062 2.067576 -0.696815 -3.449108 -4.841873 -2.339496 -3.126471 -0.417178 -3.383469 1.087329 0.447860 -3.214456 -1.346268 -2.240082 4.128645 4.603406 -3.072985 -3.746727 -2.407228 1.447980
-1.394636 2.297087 3.827235 -3.000873 -3.436387 -1.954227 0.686426 2.513847 2.852820 -2.444750 -2.115288 -2.014120 -1.425715 -3.740443 2.501099 -2.391259 1.339604 3.678433 2.757205 -0.707672 -3.151462 -2.028568 -4.421013 -3.731743 1.657410 -2.563983 -1.581724 1.904721 -0.737160 2.720735 -3.746165 -1.985440 -4.963508 -0.229296 -1.466376 -1.371043 -4.402274 -1.092392 -0.813596 -0.272438 1.188364 -0.043638 -1.745758 -1.686388 4.567670 4.447084 -4.555178 -2.435344 1.493548 -2.516895 -2.120464 1.621743 -3.397613 -0.460022 -3.487583 0.308935 0.886948 -0.882892 -0.831566 -4.890822 3.194409 -1.363751 4.820840 4.619196 -1.343458 0.854822 -2.702006 3.999651 0.785202 0.682517 -3.160280 -1.401890 -1.608275 1.433102 4.813474 3.546898 2.432062 2.067576 -0.696815 -3.449108 -4.841873 -2.339496 -4.998775 -0.417178 -3.383469 1.087329 0.447860 -3.214456 -1.346268 -2.240082 4.128645 4.603406 -3.072985 -3.746727 -2.407228 1.447980
-3.947101 -1.919713 0.869187 2.216878 0.333444 -4.988117 -3.300000 4.461592 4.076606 -3.436169 -0.586169 0.417459 4.185204 1.904631 2.447824 -4.512429 4.185047 -2.340699 -0.775957 -4.471094 -4.223259 -1.363660 -1.558793 2.946587 -3.069255 2.117936 3.599999 2.306115 4.404245 -2.087644 1.851398 -3.174777 -4.963508 -0.229296 -1.466376 -1.371043 -4.402274 -1.092392 -0.813596 -0.272438 1.188364 -0.043638 -1.745758 -1.686388 4.567670 4.447084 -4.555178 -2.435344 1.493548 -2.516895 -2.120464 1.621743 -3.397613 -0.460022 -3.487583 0.308935 0.886948 -3.872346 -0.831566 -4.890822 3.194409 -1.363751 4.484341 4.619196 -1.343458 -0.889654 -2.702006 3.999651 0.785202 0.682517 -3.160280 -1.401890 -1.608275 1.433102 4.813474 3.546898 2.432062 2.067576 -0.696815 -3.449108 -4.841873 -2.339496 -4.998775 -0.417178 -3.383469 1.087329 0.447860 -3.214456 -1.346268 -2.240082 4.128645 4.603406 -2.780193 -3.746727 -0.821470 3.272933
