-4.483234 -3.986577 -0.826314 -3.188987 -0.476039 4.679570 -4.327524 4.166834 -0.395215 -3.817613 1.253297 -2.298103 4.344845 -3.205520 -1.850210 -0.030587 0.912290 0.053857 -4.990509 -2.984967 2.630448 4.408767 -3.429025 -0.943335 3.204269 2.430656 4.824371 0.083649 -0.963375 2.729026 -1.199168 0.755846 -1.840478 -4.956937 2.548795 0.246753 1.506247 -4.650266 -0.925126 -3.385969 -2.345474 -4.279583 -3.078105 4.022184 1.499887 -3.139536 -2.800128 -3.534873 -2.469165 -0.393460 3.356357 -0.342615 0.281383 -4.162056 -0.615968 3.670387 4.056067 -0.859729 -1.240774 2.469182 -2.418391 -0.371211 3.578763 2.957921 -4.646459 -3.991175 -2.330464 -2.854008 3.460735 4.673520 -3.468757 -1.431215 -2.132235 4.176635 1.929655 -3.254217 -0.926258 -2.397909 2.850033 -0.421582 -2.967698 -1.207696 -3.514911 -1.004939 0.337556 3.375934 -4.397400 3.109873 -1.923755 -3.900999 -4.842259 -3.405507 -0.912412 -2.597618 1.739433 -1.485774
-4.483234 -3.986577 -0.826314 -3.188987 -0.476039 4.679570 -4.327524 4.166834 -0.395215 -3.817613 1.253297 -2.298103 4.344845 -3.205520 -1.850210 -0.030587 0.912290 0.053857 -4.990509 -2.984967 2.630448 4.408767 -3.429025 -0.943335 -1.897355 2.430656 4.824371 0.083649 -0.963375 2.729026 -1.199168 0.755846 -1.840478 -4.956937 2.548795 0.246753 1.506247 -4.650266 -0.925126 -3.385969 -2.345474 -4.279583 -3.078105 4.022184 1.499887 -3.139536 -2.800128 -3.534873 -2.469165 -0.393460 3.356357 -0.009735 -4.745035 -4.655355 0.679969 -2.547611 -4.879422 -2.618911 1.947334 1.822079 -2.032150 0.361233 1.569358 2.957921 -4.646459 -3.991175 -2.330464 -2.854008 3.460735 4.673520 -3.468757 -1.431215 -2.132235 4.176635 1.929655 -3.254217 2.675792 -2.397909 2.850033 0.797305 -2.967698 -1.207696 -3.514911 -1.004939 0.337556 3.375934 -4.397400 3.109873 0.425436 1.198036 1.346970 4.253305 -1.116747 -1.001217 3.956914 -4.005323
-0.400309 -0.280361 4.217263 -3.607392 4.523640 -4.870848 -3.949154 2.044648 3.951513 -2.688163 -4.985989 -1.406247 -2.958679 2.106256 1.693973 -2.605841 0.816345 -3.509515 -1.165753 -0.911236 -1.569348 -2.724411 -2.107335 1.833204 4.240184 0.438218 -4.228042 -4.932013 4.785449 -3.124615 -2.067632 4.453391 -3.665727 1.607796 -1.338423 3.341078 3.488038 1.545089 -4.437439 0.882069 0.771323 0.981420 2.913442 -2.746617 -3.898140 2.349821 -1.884908 2.214269 4.236244 -3.970569 1.291540 -2.137946 -4.898721 -3.048242 0.279612 3.826938 -1.189984 -2.748675 0.705921 -2.502703 -2.767208 4.701898 1.291076 -3.110720 -2.971231 -0.144699 -2.078164 -3.644337 0.107000 -4.261238 2.229364 4.025331 -0.139139 -1.068772 2.598782 2.855569 3.607079 -0.492529 4.685193 1.964212 -0.136649 -4.916154 -0.077102 2.056972 0.913110 3.566179 0.634138 -3.808265 2.691555 1.994391 -1.412013 -4.712726 -3.597262 -2.375313 -0.446750 0.515397
2.514347 -2.666958 -4.868654 1.468477 -4.750341 2.430397 1.101727 0.511199 -4.267071 3.585932 -4.089517 2.619151 -3.198902 -4.158088 -3.070618 -0.536130 2.695552 -2.629238 -4.745876 2.292152 1.464994 4.063713 -1.437799 2.049045 -1.459276 2.032063 1.872283 -3.103873 -0.842077 -2.733228 3.869472 -2.069187 3.040633 4.431526 -1.739314 4.266469 -2.229069 0.381738 0.573951 -3.882924 4.221835 2.420852 1.672924 0.519954 -3.540873 -3.008761 -1.103608 0.276867 1.470339 2.489925 2.883169 -0.664053 -0.562876 -2.116597 2.055919 0.024596 -4.399024 -1.975332 1.096559 -2.093744 0.512127 1.161138 2.677425 0.229463 4.827518 2.653786 -4.037376 -3.114370 -0.360778 -1.001661 1.346417 -1.628092 -3.582369 -2.833208 -0.799557 -2.699045 -0.432526 0.448307 2.916435 3.635864 1.178897 -2.650193 -0.689074 -3.805969 4.383874 4.506852 0.589395 -2.113646 -0.127410 1.468068 -1.036245 4.161881 3.968449 0.391780 -4.305857 -4.442348
-4.069835 -2.907018 1.563451 4.287209 -4.907797 3.952497 4.919984 3.015969 3.012392 1.937480 -1.731069 -2.271416 4.494207 -4.374395 2.447769 -3.199147 4.114976 -0.880615 2.053757 -1.570513 -2.457875 -3.333340 2.289632 3.594936 3.239583 3.398043 2.884308 -1.693154 0.432834 3.046560 -1.410698 -0.661502 2.868071 3.732184 2.456349 0.299258 -3.124953 -3.502526 -1.980855 0.933681 2.049650 0.565165 -0.359972 -2.813934 -1.657004 -3.008761 -1.103608 0.276867 1.470339 2.489925 2.883169 -0.664053 -0.646159 -2.116597 2.055919 0.024596 -4.399024 -1.975332 3.863273 -2.093744 0.512127 1.161138 2.677425 0.229463 4.827518 -3.473331 -4.037376 -3.114370 -0.360778 -1.001661 1.346417 -1.628092 -3.582369 -0.717287 -0.799557 -2.699045 -0.432526 0.448307 2.916435 3.635864 1.178897 -4.127435 -0.627355 2.984032 -0.737472 4.437181 -1.773717 -2.788851 -4.257450 0.867051 -2.451713 -3.815905 -1.691773 -4.530966 -2.666172 -0.640843
2.514347 -2.666958 -4.868654 1.468477 -4.750341 2.430397 1.101727 0.511199 -4.267071 3.585932 -4.089517 2.619151 -3.198902 -4.158088 -3.070618 -0.536130 2.695552 -2.629238 -4.745876 2.292152 1.464994 4.063713 -1.437799 2.049045 -1.459276 2.032063 1.872283 -3.103873 -0.842077 -2.733228 3.869472 -2.069187 3.040633 4.431526 -1.739314 4.266469 -2.229069 0.381738 0.573951 -3.882924 4.221835 2.420852 1.672924 0.519954 -3.540873 1.877909 -1.505597 2.110297 2.970083 4.374568 0.271078 4.640238 -2.870105 1.748174 1.020306 -3.252793 -1.640119 0.953647 -3.694983 2.142526 4.896593 -2.870494 3.875939 -3.617970 -2.164741 -2.550448 -2.376386 0.705280 4.639731 -2.051497 -4.901902 1.277923 -4.257452 -1.541454 1.413838 0.144380 -4.940520 3.387618 2.418090 3.635864 1.178897 -1.750953 -4.288335 4.734587 0.838555 4.844990 -0.769692 -1.548146 -1.923755 -3.900999 -4.842259 -3.405507 -0.912412 -2.597618 1.739433 -1.485774
-3.868171 1.988398 -4.467129 -2.532071 0.815640 1.057299 -3.419546 3.186798 -2.507110 -1.527795 2.602801 -1.501852 0.603986 -1.599925 -3.539014 4.470284 4.252363 -0.243687 -3.430840 -1.643374 1.613134 3.748205 4.363742 3.107596 4.818518 0.331085 -1.691828 -3.008103 -0.117564 -0.034949 2.578785 1.772545 -4.818985 2.910729 0.216631 -0.962353 0.602180 -2.293716 0.171157 2.929833 0.880050 4.457294 3.434511 -4.594605 1.755085 -2.556063 3.434063 -2.847135 -1.762694 2.201795 0.475064 4.440021 -3.852975 3.963854 -2.286366 -2.400321 -1.189984 -2.748675 3.914149 -4.932632 -3.734977 4.948691 2.508799 -1.780697 4.503911 0.021362 -0.161656 -1.769682 2.930497 -1.216525 -3.823255 -3.103232 4.658422 -1.711202 -3.565673 0.011540 1.789536 1.306555 2.105417 3.070121 1.534657 1.473659 0.227059 0.381272 0.075885 2.115166 -0.765087 3.669997 -0.355254 2.365887 1.039982 -2.446976 4.566087 4.758038 -3.642497 0.713643
-2.951885 1.357080 3.155839 -3.708911 0.373368 -3.747573 4.156270 -0.837378 -4.767048 -0.948515 2.464013 -0.990883 -1.865804 -0.286269 -3.244561 0.416734 0.466073 -2.458882 -1.301035 -2.981217 -3.686622 0.961059 -4.660299 -3.505744 -1.907055 -2.019066 -0.676250 -0.341093 4.178297 2.708860 3.916604 2.841999 2.839256 -4.015543 3.141008 0.786565 -4.206741 -4.212640 -1.729025 3.086317 3.860072 3.945587 -2.911982 -4.274921 0.426704 2.861075 -0.631489 -2.619922 -4.719460 -2.733101 -1.161419 -4.234387 1.767503 3.577721 -3.008706 -4.482624 2.504652 -3.944022 0.815639 -0.850595 -2.411111 -3.063073 1.372314 2.557641 -4.821725 2.687392 -2.840683 2.866116 -2.170452 -3.590814 2.065808 2.438612 -0.414290 3.993531 3.742808 -1.419889 1.683131 -4.556355 0.236959 -2.961920 -1.852784 -3.249481 -4.077368 3.451393 -2.268191 0.155336 -4.376965 -1.491565 -1.727377 -3.879359 1.786271 1.422889 1.945628 4.884024 -0.252141 -1.284035
-3.868171 1.988398 -4.467129 -2.532071 0.815640 1.057299 -3.419546 3.186798 -2.507110 -1.527795 2.602801 -1.501852 0.603986 -1.599925 -3.539014 4.470284 4.252363 -0.243687 -3.430840 -1.643374 1.613134 3.748205 4.363742 3.107596 4.818518 0.331085 -1.691828 -3.008103 -0.117564 -0.034949 2.578785 1.772545 -4.818985 2.910729 0.216631 -0.962353 0.602180 -4.650266 -0.925126 -3.385969 -2.345474 -4.279583 -3.078105 4.022184 1.499887 -3.139536 -2.800128 -3.534873 -2.469165 0.741655 3.356357 -0.342615 0.281383 -4.162056 -0.615968 3.670387 4.056067 -0.859729 -1.240774 2.469182 -2.418391 -0.371211 3.578763 2.957921 -4.646459 -3.991175 1.720026 -1.577847 3.460735 4.673520 -3.468757 -1.431215 -2.132235 4.176635 1.929655 -3.254217 2.675792 -2.397909 2.850033 -0.421582 -2.967698 -1.207696 -3.514911 -1.004939 0.337556 3.375934 -4.397400 3.109873 0.425436 1.198036 1.346970 4.253305 -1.116747 -1.001217 3.956914 -4.005323
-2.951885 1.357080 3.155839 4.080477 0.373368 -3.747573 4.156270 -0.837378 -4.767048 -0.948515 2.464013 -0.990883 -1.865804 -0.286269 -3.244561 0.416734 0.466073 -2.458882 -1.301035 -2.981217 -3.686622 0.961059 -4.660299 -3.505744 -1.907055 -2.019066 -0.676250 -0.341093 4.178297 2.708860 -0.972937 2.841999 2.839256 -4.015543 3.141008 -0.962353 0.602180 -2.293716 3.827957 -0.443978 4.643253 1.068642 3.153125 -2.815423 -4.682205 2.935352 2.261783 4.819931 2.970083 4.374568 0.271078 -4.234387 1.767503 3.577721 4.362811 -4.482624 2.504652 -3.944022 0.815639 -0.850595 -2.411111 -3.063073 1.372314 2.557641 -4.821725 2.687392 -2.840683 2.866116 -2.170452 -3.590814 2.065808 2.438612 -0.414290 3.993531 3.742808 -1.419889 1.683131 -4.556355 0.236959 -2.961920 -1.852784 -3.249481 -4.077368 3.451393 0.200519 0.155336 -4.376965 -1.491565 -1.727377 -3.879359 1.786271 -1.831154 3.828135 1.658617 3.314474 4.903913
-0.400309 -0.280361 4.217263 -3.607392 4.523640 -4.870848 -3.949154 2.044648 3.951513 -2.688163 2.029205 -1.406247 -2.958679 2.106256 1.693973 1.545935 0.816345 -3.509515 -1.165753 -0.911236 -1.569348 -2.724411 -2.107335 1.833204 4.240184 0.438218 -1.204786 2.216798 -0.822390 4.933870 4.315072 -2.513892 -2.890617 -4.305399 -1.992696 -2.407338 -1.606493 0.307225 2.070416 -2.893971 3.289836 2.091585 -2.676386 -3.602050 -1.413279 -1.075537 -4.305174 -1.231731 1.073612 4.566915 -4.224024 3.150367 3.014430 4.848057 4.505256 2.379837 -4.446288 -2.133774 -2.357776 -0.393305 2.697881 3.203461 -0.298984 -1.442082 4.157064 3.480137 -1.089026 -3.079727 1.616039 -3.867778 -2.662861 0.029453 -3.896571 3.993531 3.742808 -0.643761 1.683131 -4.556355 0.236959 -2.961920 -1.852784 -3.249481 -4.077368 3.451393 -2.268191 0.155336 -4.376965 -1.491565 -1.727377 -3.879359 1.786271 1.559467 1.047166 -2.827002 2.865571 -2.839580
2.514347 -2.666958 -4.868654 1.468477 -4.750341 2.430397 1.101727 -1.074569 -4.267071 3.585932 -4.089517 2.619151 -3.198902 -4.158088 -3.070618 -0.536130 2.695552 -2.629238 -4.745876 2.292152 -4.631165 4.063713 -1.437799 2.049045 -1.459276 2.032063 1.872283 -3.103873 -0.842077 -2.733228 3.869472 -2.216255 3.040633 4.431526 -1.739314 4.266469 -2.229069 0.381738 0.573951 -3.882924 4.221835 2.420852 1.672924 0.519954 -3.540873 1.877909 -1.505597 2.110297 -3.713579 -3.163261 -2.327211 1.354978 -4.397941 -4.812872 0.345461 1.246086 -4.399024 -1.975332 1.096559 -2.093744 0.512127 1.161138 2.677425 0.229463 4.827518 2.508927 -4.037376 -3.114370 -0.360778 -1.001661 1.346417 -1.628092 -3.582369 -0.717287 -0.799557 -2.699045 -0.432526 0.448307 2.916435 3.635864 1.178897 -2.650193 -0.689074 -3.805969 4.383874 4.506852 0.589395 -2.113646 -0.127410 1.468068 -1.036245 4.161881 3.968449 0.391780 -4.305857 -4.442348
-4.483234 -3.986577 -0.826314 -3.188987 -0.476039 4.679570 -4.055140 4.166834 -0.395215 4.039400 -4.511884 2.722490 -0.100304 -3.085180 3.517219 0.725984 -1.670468 0.986893 0.984179 -3.286594 -3.023939 -4.533685 2.790225 4.424924 -2.295191 -1.299082 -3.789097 -2.410070 -3.502714 3.688315 1.411073 -0.826491 4.981371 1.475197 4.159707 -2.399525 -2.128979 -4.018840 0.171157 2.929833 0.880050 4.457294 3.434511 -4.594605 1.755085 -2.556063 3.434063 -2.847135 -1.762694 2.201795 0.475064 4.297724 -3.852975 3.963854 -2.286366 3.670387 4.056067 -0.859729 -1.240774 2.469182 -2.418391 -0.371211 3.578763 2.957921 -4.646459 -3.991175 -2.330464 -2.854008 3.498736 2.277213 1.076583 4.365099 3.849209 1.514964 0.349475 -0.164472 -1.702008 -0.377146 1.076898 4.525419 1.827946 -0.084261 3.477319 2.189434 -1.530765 -1.828490 3.990847 4.707614 1.777809 -1.330207 1.786271 1.559467 1.047166 -1.756695 -0.483213 -2.513604
-0.400309 -0.280361 4.217263 -3.607392 4.523640 -4.870848 -3.949154 2.044648 3.951513 -2.688163 2.029205 -1.406247 -2.958679 2.106256 1.693973 1.545935 0.816345 -3.509515 -1.165753 -0.911236 1.161960 -2.724411 -2.107335 1.833204 4.240184 0.438218 -1.204786 2.216798 -0.822390 4.933870 -3.761640 -2.513892 -2.890617 -4.305399 -1.992696 -2.407338 -1.606493 0.307225 1.793301 -2.912750 2.248351 -2.006308 2.300714 -3.678848 1.464485 3.339401 -1.384380 -4.097535 4.878854 -0.973594 -3.216140 -0.009735 -4.745035 -4.655355 0.679969 -2.547611 -0.385859 -2.618911 1.947334 1.822079 -2.032150 -1.954150 1.569358 4.770939 -2.000460 2.368132 0.267611 -2.186659 -1.264823 -3.325538 -0.031320 1.506214 -0.844569 4.132209 -2.592345 3.736365 -0.217042 4.637963 2.270356 -1.444592 -4.717323 -0.464397 -0.627355 2.984032 -0.737472 4.437181 -1.773717 -2.788851 -4.257450 0.867051 -2.451713 -3.815905 -1.691773 -4.530966 -2.666172 -0.640843
2.442756 1.172520 -3.811273 -2.127668 -2.079967 -0.258897 -1.034993 4.191977 -1.911117 4.039400 0.141399 2.722490 -1.865804 -0.286269 -3.244561 0.416734 0.466073 -2.458882 -1.301035 -2.981217 -3.686622 0.961059 -4.660299 -3.505744 -1.907055 -2.019066 -0.676250 -0.341093 4.178297 2.708860 -0.972937 2.841999 2.839256 -4.015543 3.141008 0.786565 -4.206741 -4.212640 -1.729025 3.086317 3.860072 3.945587 -2.911982 -4.274921 0.426704 2.861075 -0.631489 -2.619922 -4.719460 -2.733101 -1.161419 -4.234387 1.767503 3.577721 -3.008706 -4.482624 2.504652 -3.944022 0.815639 -0.850595 3.083120 -1.806602 1.372314 2.557641 -4.821725 2.687392 -2.840683 2.866116 -2.170452 -3.590814 2.065808 2.438612 -0.414290 3.993531 3.742808 -1.419889 1.683131 -4.556355 0.236959 -2.064643 -1.852784 -3.249481 -4.077368 3.451393 0.200519 0.155336 -4.376965 -1.491565 -1.727377 -3.879359 1.786271 -1.831154 3.828135 1.658617 3.314474 4.903913
-3.868171 1.988398 -4.467129 -2.532071 0.815640 1.057299 -3.419546 3.186798 -2.507110 -1.527795 2.602801 -1.501852 0.603986 -1.599925 -3.539014 4.470284 4.252363 -0.243687 -3.430840 -1.643374 1.613134 3.748205 4.363742 3.107596 3.698155 0.331085 1.445087 -3.008103 -0.117564 -0.034949 2.578785 1.772545 -4.818985 2.910729 0.216631 -0.962353 0.602180 -2.293716 3.827957 -0.443978 4.643253 1.068642 3.153125 -2.815423 -4.682205 2.935352 2.261783 4.819931 2.970083 4.374568 0.271078 4.640238 -2.049529 -4.162056 -0.615968 3.670387 4.056067 -0.859729 -1.240774 2.469182 -2.418391 -0.371211 3.578763 2.957921 -4.646459 -3.991175 -2.330464 -2.854008 3.498736 2.277213 1.076583 4.365099 3.849209 1.596945 0.349475 -0.164472 -1.702008 -0.377146 1.076898 4.525419 -3.182117 -0.084261 3.477319 2.189434 -1.530765 -1.725526 3.990847 4.707614 1.777809 -1.330207 1.786271 1.559467 1.047166 -1.756695 -0.483213 -2.513604
-4.069835 -2.907018 1.563451 4.287209 2.992589 3.952497 4.919984 3.015969 3.012392 1.937480 -1.731069 -2.271416 4.494207 -4.374395 2.447769 -3.199147 4.114976 2.012129 2.890483 -0.527159 -4.120127 1.308848 -1.597006 -3.030354 3.806256 3.754935 -1.875483 2.221139 -2.074307 4.387285 -2.766231 -3.182912 0.615803 -4.013482 -1.159423 1.787339 0.632441 -1.943026 -3.117548 1.802815 1.771993 -1.734139 -2.676386 -3.602050 -1.413279 -1.075537 -4.305174 -1.231731 1.073612 4.566915 -4.224024 3.150367 3.014430 4.848057 4.505256 2.379837 -0.385859 -2.618911 -3.085651 -2.291031 1.263759 -4.017971 2.874617 3.541030 2.582696 1.409146 -4.518057 -3.197330 2.767896 -4.742749 1.005210 3.840207 -1.131211 -2.249440 -2.593097 0.548884 2.595486 -4.744095 4.360873 1.111386 -2.987776 -0.306924 4.857448 -1.591866 -0.782554 3.566179 0.634138 -2.534116 2.691555 1.994391 -1.412013 4.343193 -3.597262 -2.375313 -0.446750 -4.555794
-0.400309 -0.280361 4.217263 -3.607392 4.523640 -4.870848 -3.949154 2.044648 3.951513 -2.688163 -4.985989 -1.406247 -2.958679 2.106256 1.693973 -2.605841 0.816345 -3.509515 -1.165753 -0.911236 -1.569348 -2.724411 -2.107335 1.833204 4.240184 0.438218 -4.228042 -4.932013 4.785449 -3.124615 -2.067632 4.453391 -3.665727 1.607796 -1.338423 3.341078 3.488038 1.545089 -4.437439 0.882069 0.771323 0.981420 2.913442 -2.746617 -3.898140 2.349821 -1.884908 2.214269 4.236244 -3.970569 1.291540 -2.137946 -4.898721 -3.048242 0.279612 3.826938 -0.528992 0.023490 0.705921 -2.502703 -2.767208 4.701898 1.291076 -3.110720 -2.971231 -0.144699 -2.078164 -3.644337 0.107000 -4.261238 2.229364 4.025331 -0.139139 4.107161 -2.513587 4.246192 -2.877445 -3.081859 -1.964618 -3.151225 -4.784708 -4.127435 -0.627355 2.984032 -0.737472 4.437181 -1.773717 -2.788851 -4.257450 0.867051 -2.451713 -3.815905 -1.691773 -4.530966 2.109003 -0.640843
-0.400309 -0.280361 4.217263 -3.607392 4.523640 -4.870848 -3.949154 2.044648 3.951513 -2.104758 2.029205 -1.406247 -2.958679 2.106256 1.693973 1.545935 0.816345 -3.509515 -1.165753 -0.911236 1.161960 -2.724411 -2.107335 1.833204 4.240184 0.438218 -1.204786 2.216798 -0.822390 4.933870 -3.761640 0.755846 -1.840478 -4.956937 2.548795 0.246753 1.506247 -4.650266 -0.925126 -3.385969 -2.345474 -4.279583 1.173850 4.022184 1.499887 -3.139536 -2.800128 -3.534873 -2.469165 -0.393460 3.356357 -0.342615 -2.049529 -4.162056 -3.212853 3.670387 4.056067 -0.859729 -1.240774 2.469182 -0.591053 2.327781 -4.993921 -1.182798 -2.641533 -4.572403 -3.952339 3.585101 -1.172623 1.790640 -0.090559 -4.492111 0.510996 4.107161 -2.513587 4.246192 -2.877445 -3.081859 -1.964618 -3.151225 -4.784708 -4.127435 -0.627355 2.984032 -0.737472 4.437181 -1.773717 -2.788851 -4.257450 0.867051 -2.451713 -3.815905 -1.691773 -4.530966 -2.666172 -0.640843
1.581679 -2.221836 -2.168784 4.025302 4.364835 0.631569 3.745549 2.878362 -3.442782 1.978178 -4.820519 4.479646 2.668802 -1.407355 -2.849653 -0.971770 1.131174 -3.767114 0.544770 -2.802462 -0.469600 0.612621 -1.403066 -4.858127 -3.219935 -2.890455 -4.190119 -3.247228 -4.715476 2.553825 1.123853 -3.470516 -3.293800 -4.084180 4.023621 -0.798134 1.506247 -4.650266 -0.925126 -3.385969 -2.345474 -4.279583 -3.078105 4.022184 1.499887 -3.139536 -2.800128 -3.534873 -2.469165 -0.393460 3.356357 -0.342615 -2.049529 -4.162056 -0.615968 3.670387 4.056067 -0.859729 -1.240774 2.469182 -2.418391 -0.371211 3.578763 2.957921 -4.646459 3.669644 -2.330464 -2.854008 3.498736 2.277213 1.076583 4.365099 3.849209 1.596945 0.349475 -0.164472 -1.702008 -0.377146 1.076898 4.525419 1.827946 -0.084261 3.477319 2.189434 -1.530765 -1.725526 0.634138 -3.808265 2.691555 1.994391 -1.412013 4.343193 -3.597262 -2.375313 -0.446750 -4.555794
-3.868171 1.988398 -4.467129 -2.532071 0.815640 1.057299 -3.419546 3.186798 -2.507110 -1.527795 2.602801 -1.501852 0.603986 -1.599925 -3.539014 4.470284 4.252363 -0.243687 -3.430840 -1.643374 1.613134 3.748205 4.363742 3.107596 4.818518 0.331085 -1.691828 -3.008103 -0.117564 -0.034949 2.578785 1.772545 -4.818985 2.910729 0.216631 -0.962353 0.602180 -2.293716 3.827957 -0.443978 4.643253 1.068642 3.153125 -2.815423 -4.682205 2.935352 2.261783 4.819931 2.970083 4.374568 0.271078 4.640238 -2.870105 1.748174 0.345461 1.246086 1.589110 -0.370707 -1.146683 0.777443 -3.222412 -4.958399 -3.025188 4.084995 -3.629878 -4.950771 -4.546907 0.821176 0.382430 3.572314 -0.025288 -0.821375 0.426516 -0.322237 0.441960 -2.843789 -4.580203 1.808672 -3.287547 1.210847 4.408893 -1.750953 3.011758 4.734587 0.838555 4.844990 -0.769692 -1.548146 -1.923755 -3.900999 -4.842259 -3.405507 -0.912412 -2.597618 1.739433 -1.485774
-4.483234 -3.986577 -0.826314 -3.188987 -0.476039 4.679570 -4.327524 4.166834 -0.395215 -3.817613 1.253297 -2.298103 4.344845 -3.205520 -1.850210 -0.030587 0.912290 0.053857 -4.990509 -2.984967 2.630448 4.408767 -3.429025 -0.943335 3.204269 2.430656 4.824371 0.083649 -0.963375 2.729026 -1.199168 0.755846 -1.840478 -4.956937 2.548795 0.246753 1.506247 -4.650266 -0.925126 -3.385969 -2.345474 -4.279583 -3.078105 4.022184 1.499887 -3.139536 -2.800128 -3.534873 -2.469165 -0.393460 3.356357 -0.342615 0.281383 -4.162056 -0.615968 3.670387 4.056067 -0.859729 -1.240774 2.469182 -2.418391 -0.371211 3.578763 2.957921 -4.646459 0.021362 -0.161656 -1.769682 2.930497 -1.216525 -3.823255 -3.103232 4.658422 -1.711202 -3.565673 0.011540 1.789536 1.306555 2.105417 3.070121 1.534657 1.473659 0.227059 0.381272 0.075885 2.115166 -0.765087 3.669997 -0.355254 2.365887 1.039982 -2.446976 4.566087 4.758038 -3.642497 0.713643
-2.951885 1.357080 3.155839 -3.708911 0.373368 -3.747573 4.156270 -0.837378 -4.767048 -0.948515 2.464013 -0.990883 -1.865804 -0.286269 -3.244561 0.416734 0.466073 0.948703 -1.301035 -2.981217 -3.686622 0.961059 -4.660299 -3.505744 -1.907055 -2.019066 -0.676250 -0.341093 4.178297 2.708860 -0.972937 -0.826491 4.981371 1.475197 4.159707 -2.399525 -2.128979 -4.018840 0.171157 2.929833 0.880050 4.457294 3.434511 -2.583572 1.755085 -2.556063 3.434063 -2.847135 -1.762694 2.201795 0.475064 4.440021 -3.457345 3.963854 -2.286366 -2.400321 -1.189984 -2.748675 3.914149 -4.932632 -3.734977 4.948691 2.508799 -1.780697 4.503911 0.021362 -0.161656 -1.769682 2.930497 -1.216525 -3.823255 -3.103232 4.658422 -1.711202 -3.565673 0.011540 1.789536 1.306555 2.105417 3.070121 1.534657 1.473659 -4.077368 3.451393 0.200519 0.155336 -4.376965 -1.491565 -1.727377 -3.879359 1.786271 -1.831154 3.828135 1.658617 3.314474 4.903913
-0.400309 -0.280361 4.217263 -3.607392 4.523640 -4.870848 -3.949154 2.044648 3.951513 -2.688163 2.029205 -1.406247 -2.958679 2.106256 1.693973 1.545935 0.816345 -3.509515 -1.165753 -0.911236 -1.569348 -2.724411 -2.107335 1.833204 4.240184 0.438218 -1.204786 2.216798 -0.822390 4.933870 -3.761640 -2.513892 -2.890617 -4.305399 -1.992696 -2.407338 -1.606493 0.307225 2.070416 -2.893971 3.289836 2.091585 -2.676386 -3.602050 -1.413279 -1.075537 -4.305174 -1.231731 1.073612 4.566915 -4.224024 3.150367 3.014430 4.848057 4.505256 2.379837 -4.446288 -2.133774 -2.357776 -0.393305 2.697881 3.203461 -0.298984 0.229463 4.827518 -3.473331 -4.037376 -3.114370 -0.360778 -1.001661 1.346417 -1.628092 -3.582369 -1.306894 3.350780 -4.198827 0.683066 -1.477195 4.066316 -1.439288 0.107441 -1.806296 1.973012 -4.295070 1.955274 0.901002 4.680285 0.609576 3.054503 2.485167 -3.802200 3.266986 -3.022358 -2.820671 4.383053 3.191766
-0.400309 -0.280361 4.217263 -3.607392 4.523640 -4.870848 -3.949154 2.044648 3.951513 -2.688163 2.029205 -1.406247 -2.958679 2.106256 1.693973 1.545935 0.816345 -3.509515 -1.165753 -0.911236 1.161960 -2.724411 -2.107335 1.833204 4.240184 0.438218 -1.204786 2.216798 -0.822390 4.933870 -3.761640 -2.513892 -2.890617 -4.305399 -1.992696 -4.598383 -1.606493 0.307225 1.793301 -2.912750 2.248351 -2.006308 2.300714 0.285570 1.464485 3.339401 -1.384380 -4.097535 4.878854 -0.973594 -3.216140 -0.342615 -2.049529 -4.162056 -0.615968 3.670387 4.056067 -0.859729 -1.240774 2.469182 -2.418391 -0.371211 3.578763 2.957921 -4.646459 -3.991175 -2.330464 -2.854008 3.498736 2.277213 1.076583 4.365099 3.849209 1.596945 0.349475 -0.164472 -1.702008 -0.377146 1.076898 4.525419 1.827946 -0.084261 3.477319 2.189434 -1.530765 -1.725526 3.990847 4.707614 1.777809 -1.330207 1.786271 1.559467 1.047166 -1.756695 -0.483213 -2.513604
-0.400309 -0.280361 4.217263 -3.607392 4.523640 -4.870848 -3.949154 2.044648 3.951513 -2.688163 -4.985989 -1.406247 -2.958679 2.106256 1.693973 -2.605841 0.816345 -3.509515 -1.165753 -0.911236 -1.569348 -2.724411 -2.107335 1.833204 4.240184 0.438218 -4.228042 -4.932013 4.785449 -3.124615 -2.067632 4.453391 -3.665727 1.607796 -1.338423 3.341078 3.488038 1.545089 -4.437439 0.882069 0.771323 0.981420 2.913442 -2.746617 -3.898140 3.339401 -1.384380 -4.097535 4.878854 -0.973594 -3.216140 -0.009735 -4.745035 -4.655355 0.679969 -2.547611 -0.385859 -2.618911 1.947334 1.822079 -2.032150 0.361233 1.569358 4.770939 -2.000460 2.368132 0.267611 -2.186659 -1.264823 -3.325538 -0.031320 1.506214 -0.844569 4.132209 -2.592345 3.736365 4.748070 4.637963 2.270356 -1.444592 -4.717323 -0.464397 0.794269 -2.036219 3.195557 -3.772280 -0.442782 3.444904 -4.783890 -1.056126 3.154777 -2.242513 -4.846870 -2.984721 -2.340929 -1.309159
-4.069835 -2.907018 1.563451 4.287209 -4.907797 3.952497 4.919984 3.015969 3.012392 1.937480 -1.731069 -2.271416 4.494207 -4.374395 2.447769 -3.199147 4.114976 -0.880615 2.053757 -1.570513 -2.457875 -3.333340 2.289632 3.594936 3.239583 3.398043 2.884308 -1.693154 0.432834 3.046560 -0.412044 -0.661502 2.868071 3.732184 2.456349 -2.346869 -3.124953 -3.502526 -1.980855 0.933681 2.049650 0.565165 -0.359972 -2.813934 1.410925 -3.008761 -1.103608 0.276867 1.470339 2.489925 2.883169 -0.664053 -0.646159 -2.116597 2.055919 0.024596 -4.399024 -1.975332 -0.958978 -2.093744 0.512127 1.161138 2.677425 0.229463 4.827518 -3.473331 -4.037376 -3.114370 -0.360778 -1.001661 1.346417 -1.628092 -3.582369 -0.717287 -2.513587 4.246192 -2.877445 -3.081859 -1.964618 -3.151225 -4.784708 -4.127435 -0.627355 2.984032 -0.737472 4.437181 -1.773717 -2.788851 -4.257450 0.867051 -2.451713 -3.815905 -1.691773 -4.530966 -2.666172 -0.640843
2.442756 1.172520 -3.811273 -2.127668 -2.079967 3.122376 -1.034993 4.191977 -1.911117 4.039400 0.141399 2.722490 -0.100304 -3.085180 3.517219 0.725984 -1.670468 0.986893 0.984179 -3.286594 -3.023939 -4.533685 2.790225 4.424924 -2.295191 -1.299082 -3.789097 -2.410070 -3.502714 3.688315 1.411073 -0.826491 4.981371 1.475197 4.159707 -2.399525 -3.999208 -4.018840 0.171157 2.929833 0.880050 4.457294 -3.078105 4.022184 1.499887 -3.139536 -2.800128 -3.534873 -2.469165 -0.393460 3.356357 -0.342615 -2.049529 -4.162056 -0.615968 3.670387 4.056067 -0.859729 -1.341221 2.469182 -2.418391 -0.371211 3.578763 2.957921 4.503911 0.021362 -0.161656 -1.769682 2.930497 -1.216525 -3.823255 -3.103232 4.658422 -1.711202 -3.565673 0.011540 1.789536 1.306555 2.105417 3.070121 1.534657 1.473659 0.227059 0.381272 0.075885 2.115166 -0.765087 3.669997 -0.355254 2.365887 1.039982 -2.446976 4.566087 4.758038 -3.642497 0.713643
-2.951885 1.357080 3.155839 -3.708911 0.373368 -3.747573 4.156270 -0.837378 -4.767048 -0.948515 2.464013 -0.990883 -1.865804 -0.286269 -3.244561 0.416734 0.466073 -2.458882 -1.301035 -2.981217 -3.686622 0.961059 -4.660299 -3.505744 3.129842 -2.019066 -0.676250 -0.341093 4.178297 2.708860 3.916604 2.841999 2.839256 -4.015543 -1.428933 0.786565 2.029875 -4.212640 -1.729025 3.086317 3.860072 3.945587 -2.911982 -4.274921 0.426704 2.861075 -0.631489 -2.619922 -4.719460 2.201795 0.475064 4.440021 -3.852975 3.963854 -2.286366 -2.400321 -1.189984 -2.748675 3.914149 -4.932632 -3.734977 4.948691 2.508799 -1.780697 4.503911 0.021362 -0.161656 -1.769682 -3.675403 -1.216525 -3.823255 -3.103232 4.658422 -1.711202 -3.565673 0.011540 1.789536 1.306555 2.105417 3.070121 -0.136649 -4.916154 -0.077102 2.056972 0.913110 3.566179 0.634138 -3.808265 2.691555 1.994391 -1.412013 4.343193 -3.597262 -2.375313 -0.446750 -4.555794
-1.209003 -3.970802 -2.637085 -1.299850 -4.836472 -3.927473 0.441454 3.660005 1.363072 1.836218 3.016968 2.796977 1.780016 -3.085180 3.517219 0.725984 -1.670468 0.986893 0.984179 -3.286594 -3.023939 -4.533685 2.790225 4.424924 -2.295191 -1.299082 -3.789097 -2.410070 -3.502714 3.688315 1.411073 -0.826491 4.981371 1.475197 4.159707 -2.399525 -2.128979 -4.018840 0.171157 2.929833 0.880050 4.457294 3.434511 -4.594605 1.755085 -2.556063 3.434063 -2.847135 -1.762694 2.201795 0.475064 4.440021 -3.852975 3.963854 -2.286366 -2.400321 -1.189984 -2.748675 3.914149 -4.932632 -3.734977 4.948691 2.508799 -1.780697 4.503911 0.021362 -0.161656 -4.303434 -3.675403 -1.216525 -3.823255 -3.103232 4.658422 -1.711202 -3.565673 0.011540 1.789536 1.306555 2.105417 3.070121 -0.136649 -4.916154 -0.077102 2.056972 0.913110 3.566179 0.634138 -3.808265 2.691555 1.994391 -1.412013 4.343193 -3.597262 -2.375313 -0.446750 -4.555794
-4.483234 -3.986577 -0.826314 -3.188987 -0.476039 4.679570 -4.055140 4.166834 -0.395215 -3.817613 1.253297 -2.298103 4.344845 -3.205520 -1.850210 -0.030587 0.912290 0.053857 -4.990509 -2.984967 2.630448 4.408767 -3.429025 -0.943335 3.204269 2.430656 4.824371 0.083649 -0.963375 2.729026 -1.199168 0.755846 -1.840478 -4.956937 2.548795 0.246753 1.506247 -4.650266 -0.925126 -3.385969 -2.345474 -4.279583 -2.316465 4.022184 1.499887 -3.139536 -2.800128 -3.534873 -2.469165 -0.393460 -4.224024 3.150367 3.014430 4.848057 4.505256 2.379837 -4.446288 -2.133774 -2.357776 -0.393305 2.697881 3.203461 -0.298984 -1.442082 4.157064 3.480137 -1.089026 -3.079727 1.616039 -3.867778 -2.662861 0.029453 -3.896571 -1.306894 3.350780 -4.198827 0.683066 -1.477195 4.066316 -1.439288 0.107441 -1.806296 1.973012 -4.295070 1.955274 0.901002 4.680285 0.609576 3.054503 2.485167 -3.802200 3.266986 -3.022358 -2.820671 4.383053 3.191766
-0.400309 -0.280361 4.217263 -3.188987 -0.476039 4.679570 -4.327524 4.166834 -0.395215 -3.817613 1.253297 -2.298103 4.344845 -3.205520 -1.850210 -0.030587 -1.308568 1.537327 -4.990509 -2.984967 2.630448 4.408767 -2.576314 -0.943335 3.204269 2.430656 4.824371 0.083649 -0.963375 2.729026 -1.199168 0.755846 -1.840478 -4.956937 2.548795 0.246753 1.506247 -4.650266 -0.925126 -3.385969 -2.345474 -4.279583 -3.078105 4.022184 1.499887 -3.139536 -2.800128 -3.534873 -2.469165 -0.393460 3.356357 -0.342615 0.281383 -4.162056 -0.615968 3.670387 4.056067 -0.859729 -1.240774 2.469182 -2.418391 -0.371211 3.578763 2.957921 -4.646459 -3.991175 -2.330464 -2.854008 3.460735 4.673520 -3.468757 -1.431215 -2.132235 4.176635 1.929655 -3.254217 2.675792 -2.397909 2.850033 -0.421582 -2.967698 -1.207696 -3.514911 -1.004939 0.337556 3.375934 -4.397400 3.109873 0.425436 1.198036 1.346970 4.253305 -1.116747 -1.001217 3.956914 -4.005323
2.514347 -2.666958 -4.868654 1.468477 -4.750341 2.430397 1.101727 0.511199 -4.267071 3.585932 -4.089517 2.619151 -3.198902 -4.158088 -3.070618 -0.536130 2.695552 -2.629238 -4.745876 2.292152 1.464994 4.290592 -1.437799 2.049045 2.462451 2.032063 1.872283 -3.103873 -0.842077 -2.733228 3.869472 -2.069187 3.040633 4.431526 -1.739314 4.266469 -2.229069 0.381738 0.573951 -3.882924 4.221835 2.420852 1.672924 0.519954 -3.540873 1.877909 -1.505597 2.110297 -3.713579 -3.163261 -2.327211 -3.908421 -4.397941 -4.812872 0.345461 1.246086 1.589110 -0.370707 -1.146683 0.777443 -3.222412 -4.958399 -3.025188 4.084995 -3.629878 -4.950771 -4.546907 0.821176 0.382430 3.572314 -0.025288 -0.821375 0.426516 -0.322237 -1.816933 -2.843789 -4.580203 1.808672 -3.287547 1.210847 4.408893 -1.750953 -4.288335 4.734587 0.838555 4.844990 3.033647 -1.548146 -1.923755 -3.900999 -4.842259 -3.405507 -0.912412 -2.597618 2.907722 -1.485774
-4.483234 -3.986577 -0.826314 -3.188987 -0.476039 4.679570 -4.055140 4.166834 -0.395215 -3.817613 1.253297 -2.298103 4.344845 -3.205520 -1.850210 -0.030587 0.912290 0.053857 -4.990509 -2.984967 2.630448 4.408767 -3.429025 -0.943335 3.204269 2.430656 4.824371 0.083649 -0.963375 2.729026 -1.199168 0.755846 -1.840478 -4.956937 2.548795 0.246753 1.506247 -4.650266 -0.925126 -3.385969 -2.345474 -4.279583 -3.078105 4.022184 1.499887 3.168479 -2.800128 -3.534873 -2.469165 -0.393460 3.356357 -0.342615 -2.049529 -4.162056 0.679969 -2.547611 -4.691985 -2.618911 -3.085651 -2.291031 -0.523211 -4.017971 2.874617 3.541030 2.582696 1.409146 -4.518057 -3.197330 2.767896 -4.742749 1.005210 3.840207 -1.131211 -2.249440 -2.593097 0.548884 2.595486 -4.744095 4.360873 1.111386 -2.987776 -0.306924 3.477319 2.189434 -1.530765 -1.725526 3.990847 4.707614 1.777809 -1.330207 1.786271 1.559467 1.047166 -1.756695 -0.483213 -2.513604
-0.400309 -0.280361 4.217263 -3.607392 4.523640 -4.870848 -3.949154 2.044648 3.951513 -2.688163 2.029205 -1.406247 -2.958679 2.106256 1.693973 1.545935 0.816345 -3.509515 -1.165753 -0.911236 1.161960 -2.724411 -2.107335 1.833204 4.240184 0.438218 -1.204786 2.216798 -0.822390 4.933870 -3.761640 -2.513892 -2.890617 -4.305399 -1.992696 -2.407338 -1.606493 0.307225 1.793301 -2.912750 2.248351 -2.006308 2.300714 -3.678848 1.464485 3.339401 -1.384380 -4.097535 4.878854 -0.973594 -3.216140 -0.009735 -4.745035 -4.655355 0.679969 -2.547611 -0.385859 -2.618911 1.947334 1.822079 -2.032150 0.361233 1.569358 4.770939 -2.000460 2.368132 0.267611 -2.186659 -1.264823 -3.325538 -0.031320 1.506214 -0.844569 4.132209 -2.592345 3.736365 -0.217042 4.637963 2.270356 -1.444592 -4.717323 -0.464397 0.794269 -2.036219 3.195557 -3.772280 -0.442782 3.444904 -4.783890 -1.056126 3.154777 -2.242513 -4.846870 -2.984721 3.956914 -4.005323
-4.403238 -4.794471 4.625545 2.390832 2.619879 4.725006 1.996610 4.681687 4.155059 3.541677 -4.338488 -1.763611 4.911162 0.771639 -3.443332 4.847889 3.200550 -2.526410 0.145252 0.639278 -1.534844 -4.061034 2.272257 -2.761513 -3.553552 -4.301476 2.009730 2.359372 0.866123 2.245245 1.316531 -3.248971 4.315132 -1.980230 0.383014 -3.783265 0.170366 -2.678957 -2.646550 3.325822 0.551472 2.926152 -3.798112 -3.696696 -1.470317 3.121218 0.204844 4.602625 -1.581567 -2.755437 1.184696 -3.894105 -2.333682 -4.483081 -1.327706 -4.579585 4.620091 -1.692362 -4.734344 3.786026 0.272564 3.878772 -1.135094 1.561122 -3.732396 -3.679183 -2.172004 -2.283822 4.339143 -2.894609 -2.177310 -0.538465 4.712953 4.132209 -2.592345 3.736365 -0.217042 4.637963 2.270356 -1.444592 -4.717323 -0.464397 0.794269 -2.036219 3.195557 -3.772280 -0.442782 3.444904 -3.992752 -1.056126 3.154777 4.161881 0.118714 -4.043251 -4.305857 -4.442348
-3.868171 1.988398 -4.467129 -2.532071 0.815640 1.057299 -3.419546 3.186798 -2.507110 -1.527795 2.602801 -1.501852 0.603986 -1.599925 -3.539014 4.470284 4.252363 3.948184 -3.430840 -1.643374 1.613134 3.748205 4.363742 3.107596 4.818518 0.331085 -1.691828 -3.008103 -0.117564 -0.034949 2.578785 1.772545 -4.818985 2.910729 0.216631 -0.962353 0.602180 -2.293716 3.827957 -0.443978 4.643253 1.068642 3.153125 -2.815423 -4.682205 2.935352 2.261783 4.819931 2.970083 4.374568 0.271078 4.640238 -2.870105 1.748174 1.020306 -3.252793 -1.640119 0.953647 -3.694983 2.142526 4.896593 -2.870494 3.875939 -3.617970 -2.164741 -2.550448 -2.376386 0.705280 4.639731 -2.051497 -4.901902 1.277923 -4.257452 -1.541454 1.413838 2.168285 -4.940520 3.387618 2.418090 -2.760467 -0.434035 0.790471 4.976177 -2.151024 0.027123 0.155336 -4.376965 -1.491565 -1.727377 -3.879359 1.786271 -1.831154 3.828135 1.658617 -0.252141 -1.284035
-4.483234 -3.986577 -0.826314 -3.188987 -0.476039 4.679570 -4.327524 4.166834 -0.395215 -3.817613 1.253297 -2.298103 4.344845 -3.205520 -1.850210 -0.030587 0.912290 0.053857 -4.990509 -2.984967 2.630448 4.408767 -3.429025 -0.943335 3.204269 2.430656 4.824371 0.083649 3.306054 2.729026 -1.199168 0.755846 -1.840478 -4.956937 2.548795 0.246753 1.506247 -4.650266 -0.925126 -3.385969 -2.345474 -4.279583 1.076547 4.022184 1.499887 -3.139536 -2.800128 -3.534873 -2.469165 -0.393460 3.356357 -0.342615 0.281383 -4.162056 -0.615968 3.670387 4.056067 -0.859729 -1.240774 2.469182 -2.418391 -0.371211 3.578763 2.957921 -4.646459 -3.991175 -4.518057 -3.197330 2.767896 -4.742749 1.005210 3.840207 -1.131211 -2.249440 -2.593097 0.548884 2.675792 -2.397909 2.850033 -0.421582 -2.967698 -1.207696 -3.514911 -1.004939 0.337556 3.375934 -4.397400 3.109873 0.425436 1.198036 1.346970 4.253305 -1.116747 -1.001217 3.956914 -4.005323
1.581679 -0.126907 -2.168784 4.025302 4.364835 0.631569 3.745549 2.878362 -3.442782 1.978178 -4.820519 4.479646 2.668802 -1.407355 -2.849653 -0.971770 1.131174 -3.767114 0.544770 -2.802462 -0.469600 0.612621 -1.403066 -4.858127 -3.219935 -2.890455 -4.190119 -3.247228 -4.715476 2.553825 1.123853 -3.470516 -3.293800 -4.084180 4.023621 -2.699784 4.876471 2.943991 1.793301 -2.912750 4.324461 -2.006308 2.300714 -3.678848 1.464485 3.339401 -1.384380 -4.097535 4.878854 -0.973594 -3.216140 -0.009735 -4.745035 -4.655355 0.679969 -2.547611 -0.385859 -2.618911 -3.085651 -2.291031 1.263759 -4.017971 2.874617 3.541030 2.582696 1.409146 -4.518057 -3.197330 2.767896 -4.742749 1.005210 3.840207 -1.131211 -2.249440 -2.593097 0.548884 2.595486 -4.744095 4.360873 1.111386 -2.987776 -0.306924 4.857448 -1.591866 -0.782554 3.566179 -4.376965 -1.491565 -1.727377 -3.879359 1.786271 1.559467 1.047166 -2.827002 2.865571 -1.210887
-2.951885 1.357080 3.155839 -3.708911 0.373368 -3.747573 4.156270 -0.837378 -4.767048 -0.948515 2.464013 -0.990883 -4.586841 -0.286269 -3.244561 0.416734 0.466073 -2.458882 -1.301035 -2.981217 -3.686622 0.961059 -4.660299 -3.505744 -1.907055 -2.019066 -0.676250 -0.341093 4.178297 2.708860 -0.972937 2.841999 2.839256 -4.015543 3.141008 0.786565 -4.206741 -4.212640 -1.729025 3.086317 3.860072 3.945587 -2.911982 -4.274921 0.426704 2.861075 -0.631489 -2.619922 -4.719460 -2.733101 -1.161419 -4.234387 1.241365 3.577721 -3.008706 -4.482624 2.504652 -3.418323 0.815639 -0.850595 -2.411111 -3.063073 1.372314 2.557641 -4.821725 2.687392 -2.840683 2.866116 -2.170452 -3.590814 2.065808 2.438612 -0.414290 3.993531 3.742808 -1.419889 1.683131 -4.556355 0.236959 -2.961920 -1.852784 -3.249481 -4.077368 3.451393 0.200519 0.155336 -4.376965 -1.491565 -1.727377 -1.056126 3.154777 -2.242513 -4.846870 -2.984721 -2.340929 -1.309159
-0.400309 -0.280361 4.217263 -3.607392 4.523640 -4.870848 -3.949154 2.044648 3.951513 -2.688163 2.029205 -1.406247 -2.958679 2.106256 1.693973 1.545935 0.816345 -3.509515 -1.165753 -0.911236 -1.569348 -2.724411 -2.107335 1.833204 4.240184 0.438218 -1.204786 2.216798 -0.822390 4.933870 -3.761640 -2.513892 -2.890617 -4.305399 -1.992696 -2.407338 -1.606493 0.307225 2.070416 -2.893971 3.289836 2.091585 -2.676386 -3.602050 -1.413279 -1.075537 -4.305174 -1.231731 1.073612 4.566915 -4.224024 3.150367 3.014430 4.848057 4.505256 2.379837 -4.446288 -2.133774 -2.357776 -0.393305 2.697881 3.203461 -0.298984 -1.442082 4.157064 3.480137 -1.089026 -3.079727 1.616039 -3.867778 -2.662861 0.029453 -3.896571 -1.306894 -2.592345 3.736365 -0.217042 4.637963 2.270356 -1.444592 -4.717323 -0.464397 0.794269 -2.036219 3.195557 -3.772280 -0.442782 3.444904 -3.992752 -1.056126 4.006149 -2.242513 -4.846870 -2.984721 -2.340929 -1.309159
-2.951885 1.357080 3.155839 -3.708911 0.373368 -3.747573 4.156270 -0.837378 -4.767048 -0.948515 2.464013 -0.990883 -1.865804 -0.286269 -3.244561 0.416734 0.466073 -2.458882 -1.301035 -2.981217 -3.686622 0.961059 -4.660299 -3.505744 -1.907055 -2.019066 -0.676250 -0.341093 4.178297 2.708860 3.916604 2.841999 2.839256 -4.015543 3.141008 0.786565 -4.206741 -4.212640 0.171157 2.929833 0.880050 4.457294 3.434511 -4.594605 1.755085 -2.556063 3.434063 -2.847135 -1.762694 2.201795 0.475064 4.440021 -3.852975 3.963854 -2.286366 -2.400321 -1.189984 -2.748675 -3.774089 -4.932632 -3.734977 4.948691 2.508799 -1.780697 4.503911 0.021362 -0.161656 -1.769682 -3.675403 -1.216525 -3.823255 2.438612 -0.414290 3.993531 3.742808 -1.419889 1.683131 -4.556355 0.236959 -2.961920 -1.852784 -3.249481 -4.077368 3.451393 -2.268191 0.155336 -4.376965 -1.491565 -1.727377 -3.879359 1.786271 1.559467 1.047166 -2.827002 2.865571 -2.839580
-2.951885 1.357080 3.155839 -3.708911 0.373368 -3.747573 4.156270 -0.837378 -4.767048 -0.948515 2.464013 -0.990883 -1.865804 -0.286269 -3.244561 0.416734 0.466073 -2.458882 -1.301035 -2.981217 -3.686622 0.961059 -4.660299 -3.505744 -1.907055 -2.019066 -0.676250 -0.341093 -4.679665 2.708860 3.916604 2.841999 2.839256 -4.015543 3.141008 0.786565 -4.206741 -4.212640 -1.729025 3.086317 3.860072 3.945587 -2.911982 -4.274921 0.426704 2.861075 -4.706915 -2.619922 -4.719460 -2.733101 0.475064 4.440021 -3.852975 3.577721 -3.008706 -4.482624 2.504652 -3.944022 0.815639 -0.850595 -2.411111 -3.063073 1.372314 2.557641 -4.821725 2.687392 -3.614069 2.866116 -2.170452 -3.590814 2.065808 2.438612 -0.414290 3.993531 3.742808 -1.419889 1.683131 -4.556355 0.236959 -2.961920 -1.852784 -3.249481 -4.077368 3.451393 -2.268191 0.155336 -4.376965 -1.491565 -1.727377 -3.879359 1.786271 1.559467 1.047166 -2.827002 2.865571 -2.839580
-3.868171 1.988398 -4.467129 -2.532071 0.815640 1.057299 -3.419546 3.186798 -2.507110 -1.527795 2.602801 -1.501852 0.603986 -1.599925 -3.539014 4.470284 4.252363 -0.243687 -3.430840 -1.643374 1.613134 3.748205 4.363742 3.107596 4.818518 0.331085 -1.691828 -3.008103 -0.117564 -0.034949 2.578785 1.772545 -4.818985 2.910729 0.216631 -0.962353 0.602180 -2.293716 3.827957 -0.443978 4.643253 1.068642 3.153125 -2.815423 -4.682205 2.935352 2.261783 4.819931 2.970083 4.374568 0.271078 4.640238 -2.870105 1.748174 1.020306 -3.252793 -1.640119 0.953647 -3.694983 2.142526 4.896593 -2.870494 3.875939 -3.617970 -2.164741 -2.550448 -2.376386 0.705280 4.639731 -2.051497 -4.901902 1.277923 -1.131211 -2.249440 -2.593097 0.548884 2.595486 3.387618 2.418090 3.635864 1.178897 -2.650193 -0.689074 -3.805969 3.377175 4.506852 0.589395 -2.113646 -0.127410 1.468068 -1.036245 4.161881 0.118714 -4.043251 -4.305857 2.687248
-3.868171 1.988398 -4.467129 -2.532071 0.815640 1.057299 -3.419546 3.186798 -2.507110 -1.527795 2.602801 -1.501852 0.603986 -1.599925 -3.539014 4.470284 4.252363 -0.243687 -3.430840 -1.643374 1.613134 3.748205 4.363742 3.107596 4.818518 0.331085 -1.691828 -3.008103 -0.117564 -0.034949 2.578785 1.772545 -4.818985 2.910729 0.216631 -0.962353 0.602180 -2.293716 3.827957 -0.443978 4.643253 1.068642 3.153125 -2.815423 -4.682205 2.935352 2.261783 4.819931 2.970083 4.374568 1.252555 4.640238 -2.870105 1.748174 1.020306 -3.252793 -1.640119 0.953647 -3.694983 2.142526 4.896593 -2.870494 3.875939 -3.617970 -2.164741 -2.550448 -2.376386 0.705280 4.639731 -2.051497 -4.901902 1.277923 -4.257452 -1.541454 1.413838 0.144380 -4.940520 3.387618 2.418090 3.635864 1.178897 -2.650193 -0.689074 -3.805969 3.377175 4.506852 0.589395 3.444904 -4.783890 3.124851 3.154777 -2.242513 -4.846870 -2.984721 -2.340929 -1.309159
1.581679 -0.126907 -2.168784 4.025302 4.364835 0.631569 3.745549 2.878362 -3.442782 1.978178 -4.820519 4.479646 2.668802 -1.407355 -2.849653 -0.971770 1.131174 -3.767114 0.544770 -2.802462 -0.469600 0.612621 -1.403066 -4.858127 -3.219935 -2.890455 -4.190119 -3.247228 -0.926362 2.553825 1.123853 -3.470516 -3.293800 -4.084180 4.023621 -2.699784 4.876471 2.943991 1.793301 -2.912750 4.324461 -2.006308 2.300714 -3.678848 1.464485 3.339401 -1.384380 -4.097535 4.878854 -0.973594 -3.216140 -0.009735 -4.745035 -4.655355 0.679969 -2.547611 -0.385859 -2.618911 -3.085651 -2.291031 1.263759 -4.017971 2.874617 3.541030 2.582696 1.409146 -4.518057 -3.197330 2.767896 -4.742749 1.005210 3.840207 -1.131211 -2.249440 -2.593097 0.548884 2.595486 -2.750554 4.360873 1.111386 -3.005186 -0.306924 4.857448 -1.591866 -0.782554 0.155336 -4.376965 -3.808265 2.691555 1.994391 -1.412013 4.343193 -3.597262 -2.375313 -0.446750 -4.761903
-0.400309 -0.280361 4.217263 -3.607392 4.523640 -4.870848 -3.949154 2.044648 3.951513 -3.807027 -4.985989 -1.406247 -2.958679 2.106256 1.693973 -2.605841 0.816345 -3.509515 -1.165753 -0.911236 -1.569348 -2.724411 -2.107335 1.833204 4.240184 0.438218 -4.228042 -4.932013 4.785449 -3.124615 -2.067632 4.453391 -3.665727 1.607796 -1.338423 3.341078 3.488038 1.545089 -4.437439 0.882069 0.771323 0.981420 2.913442 -2.746617 -3.898140 2.349821 2.567659 -4.204097 4.236244 -3.970569 1.291540 -2.137946 -4.898721 -2.825154 0.279612 3.826938 -0.528992 0.023490 0.705921 -2.093744 0.512127 1.161138 2.677425 0.229463 4.827518 -3.473331 -4.037376 -3.114370 -0.360778 -1.001661 1.346417 -1.628092 -3.582369 -0.717287 -0.799557 -2.699045 -0.432526 0.448307 2.916435 3.635864 1.178897 -2.650193 -0.689074 -3.805969 4.383874 4.506852 0.589395 -2.113646 -0.127410 1.468068 -1.036245 4.161881 3.968449 0.391780 -4.305857 -4.442348
2.442756 1.172520 -3.811273 -2.127668 -2.079967 -0.258897 -1.034993 4.191977 -1.911117 4.039400 0.141399 2.722490 -0.100304 -1.828797 3.517219 0.725984 -1.670468 0.986893 0.984179 -3.286594 -3.023939 -4.533685 2.790225 4.424924 -2.295191 -1.299082 -3.789097 -2.410070 -3.502714 3.688315 1.411073 -0.826491 4.981371 1.475197 4.159707 -2.399525 -3.999208 -4.018840 0.171157 2.929833 0.880050 4.457294 3.434511 -4.594605 1.755085 -2.556063 3.434063 -2.847135 -1.762694 2.201795 0.475064 4.440021 -3.852975 3.963854 -2.286366 -2.400321 -1.189984 -2.748675 3.914149 -4.932632 -3.734977 4.948691 2.508799 -1.780697 4.503911 0.021362 -0.161656 -1.769682 2.930497 -1.216525 -3.823255 -3.103232 4.658422 -1.711202 -3.565673 0.011540 1.789536 1.306555 2.105417 3.070121 1.534657 1.473659 0.227059 0.381272 0.075885 2.115166 -0.765087 3.669997 -0.355254 2.365887 1.039982 -2.446976 4.566087 4.758038 -3.642497 0.713643
-0.400309 -0.280361 4.217263 -3.607392 4.523640 -4.870848 -3.949154 2.044648 3.951513 -2.688163 2.029205 -1.406247 -2.958679 2.106256 1.693973 1.545935 0.816345 -3.509515 -1.165753 -0.911236 -1.569348 -2.724411 -2.107335 1.833204 4.240184 0.438218 -1.204786 2.216798 -0.822390 4.933870 -3.761640 -2.513892 -2.890617 -4.305399 -1.992696 -2.407338 -1.606493 0.307225 2.070416 -2.893971 3.289836 2.091585 -2.676386 -3.602050 -1.413279 -1.075537 -4.305174 -1.231731 1.073612 4.566915 -4.224024 3.150367 3.014430 4.848057 4.505256 2.379837 -4.446288 -2.133774 -2.357776 -0.393305 2.697881 3.203461 -0.298984 -1.442082 4.157064 3.205455 -1.089026 -3.079727 1.616039 -3.867778 -2.662861 0.029453 -3.896571 -1.306894 3.350780 -4.198827 0.683066 -1.477195 4.066316 -1.439288 0.107441 -1.806296 1.973012 -4.295070 1.955274 0.901002 4.680285 0.609576 3.054503 2.485167 -3.802200 3.266986 -3.022358 -2.820671 4.383053 3.191766
1.581679 -0.126907 -2.168784 4.025302 4.364835 0.631569 3.745549 2.878362 -3.442782 1.978178 -4.820519 4.479646 2.668802 -1.407355 -2.849653 -0.971770 2.239576 -3.767114 0.544770 -2.802462 -0.469600 0.612621 -1.403066 -4.858127 -3.219935 -2.890455 -4.190119 -3.247228 -4.715476 2.553825 1.123853 -3.470516 -3.293800 -4.084180 4.023621 -2.699784 4.876471 2.943991 1.793301 -2.912750 4.324461 -2.006308 2.300714 -3.678848 1.464485 3.339401 -1.384380 -4.097535 4.878854 -0.973594 -3.216140 -0.009735 -4.745035 -4.655355 0.679969 -2.547611 -0.385859 2.826920 -3.085651 -2.291031 1.263759 -4.017971 2.874617 3.541030 2.582696 1.409146 -4.518057 -3.197330 2.767896 0.117143 1.005210 3.840207 -1.131211 -2.249440 -2.593097 0.548884 2.595486 -4.744095 4.360873 1.111386 -2.987776 -0.306924 4.857448 -1.591866 -0.782554 3.566179 0.634138 -3.808265 2.691555 1.994391 -1.412013 4.343193 -3.597262 -2.375313 -0.446750 -4.555794
