-0.274220 1.188941 0.236084 -2.499626 3.716761 4.674555 3.356808 -0.660748 1.815262 4.591868 4.358510 1.701998 0.452137 -1.650756 3.466941 2.483125 1.195816 -2.987910 0.092646 0.609584 2.519217 3.851529 4.764846 -0.200527 -4.879214 4.472318 -1.172148 1.615094 -4.703948 4.658305 -3.214675 2.233857 -1.922128 3.170321 -1.616905 -4.713825 -3.286158 4.698526 -2.806981 -1.238708 4.562367 -2.780450 4.918269 -3.814147 3.873010 -2.899035 -4.162653 2.462390 1.666656 -4.472049 -0.686552 3.178774 -1.262629 1.289945 2.472916 3.823162 -2.311825 -1.279224 2.014268 -3.962883 -4.968723 4.247641 -0.894867 4.926875 -4.201178 0.708781 2.969835 -0.975289 3.258294 1.413618 -2.342868 -3.708345 1.351161 0.277632 1.266740 4.153567 -4.091254 -1.562640 3.687338 -4.907180 -4.739964 0.910032 -2.144735 1.692807 3.839840 2.870809 -4.662054 -1.743376 3.732064 4.726849 0.447022 -4.880783 0.488610 2.866959 -0.821470 3.272933
4.920004 -1.943262 -3.683622 -4.939492 0.846699 -2.766191 -3.197447 -0.599899 -4.478250 1.334547 -0.040494 4.998061 1.024339 -3.522567 3.739965 -3.144308 0.097314 3.492044 4.530510 -3.226693 3.418847 -3.333316 -3.028237 1.989712 2.601654 -1.122413 -3.467966 3.093480 0.555522 0.056772 -0.063233 2.741683 -1.948107 4.677281 1.891394 2.608219 -0.648056 -2.669871 -1.816220 -0.272438 1.188364 -0.043638 3.509652 -1.686388 -3.195668 4.447084 -1.760908 -2.435344 -2.573525 -2.516895 -2.120464 1.621743 -3.397613 -2.595109 0.435468 1.824136 0.266860 -2.455973 4.088169 3.515369 -1.899820 1.506639 -0.284274 1.278314 -2.145693 0.670482 -2.666798 -1.976093 4.832352 -4.468438 1.470293 -1.655843 -1.236988 -3.766067 -4.916003 0.033985 2.432062 2.067576 -0.696815 0.817307 -4.841873 -4.383621 -4.998775 -0.417178 -3.383469 0.636106 2.262808 0.382336 -4.815684 1.949059 -1.560255 1.246398 -3.818402 1.628564 2.792167 -1.622467
0.484828 0.674246 1.430030 -1.192333 3.749503 -1.439656 -2.036863 -0.271082 4.948895 -4.306218 -1.704752 4.590171 1.404765 -3.009550 1.079328 -4.955508 -1.445625 -3.741840 -1.874522 -1.614633 -1.373688 -2.723537 -3.844358 2.476803 3.829345 -2.870845 2.910250 -2.082023 -0.824286 4.382195 -0.008695 -2.023979 -2.252750 0.621431 -4.718534 2.871984 1.778212 0.696608 1.504847 4.307509 2.486341 -4.496845 2.365595 -3.213333 -2.730358 4.415687 -1.422740 2.700200 -4.977069 4.896188 0.694065 3.184730 -1.187678 -2.879716 0.929774 3.125935 0.161400 -4.503691 -2.467866 -1.242026 3.728936 -4.103549 -1.352523 1.096757 -3.761134 3.221607 1.919201 0.676185 1.525672 1.401269 -0.643249 -2.950660 3.055768 3.345071 -3.252186 -0.511214 1.125814 3.600536 -1.344348 2.995362 -4.597074 -2.690475 -4.910129 2.836630 -2.522585 -0.789211 1.766545 4.027009 -0.145402 1.452627 0.132004 -4.632382 2.359650 2.168640 -3.929514 -3.720638
-1.394636 0.681039 3.827235 -3.000873 -3.436387 -1.954227 4.027266 2.264719 2.852820 -2.444750 -2.710049 -2.014120 -1.425715 -3.740443 -1.663419 2.907868 1.339604 3.678433 2.757205 -0.707672 -3.151462 -2.028568 -4.421013 4.113566 1.657410 -2.563983 -1.126462 1.904721 -0.737160 -1.543718 -3.746165 -1.985440 -0.947016 0.247979 -0.484186 -1.259669 -2.329279 2.685509 0.694004 -4.549095 -0.844355 -4.371695 1.905084 4.339926 2.298651 3.136380 -2.722357 2.901158 1.309470 0.483446 -2.120464 1.621743 -3.397613 -2.595109 0.435468 1.824136 0.266860 -2.455973 4.088169 3.515369 -1.899820 1.506639 -0.284274 1.278314 -2.145693 0.670482 -2.666798 -1.976093 4.832352 -4.468438 1.470293 -1.655843 -1.236988 -3.766067 -4.916003 0.033985 2.432062 2.067576 -0.696815 0.817307 -4.841873 -4.383621 -4.998775 -0.417178 -3.383469 1.087329 -0.802018 -3.214456 -2.472716 -2.240082 4.128645 3.614214 -3.072985 -3.746727 -3.988429 -4.356821
-0.238823 -3.936952 -3.205323 -2.274064 3.034752 0.391112 -1.525863 -3.793785 0.139333 -3.197825 -2.068689 -2.770027 2.885542 2.416893 -3.850623 -4.858461 -2.466322 -3.984485 -2.013682 2.963600 -0.946190 2.483232 4.099356 -3.284105 -4.532075 3.710760 0.797902 -4.566553 -0.125489 1.342998 2.553210 2.182372 -2.628185 4.161237 3.384741 1.661907 -4.954774 1.570255 -1.375801 4.680427 -4.265348 -0.596385 -1.042572 -4.562244 -1.231198 -2.390547 4.228866 4.576103 3.956495 -2.074941 -0.960790 3.357032 3.550435 1.415771 -4.725166 4.088883 0.067927 3.512464 -1.240166 2.080736 -4.230707 2.098160 1.122601 -1.981097 -1.300514 -4.272549 3.240202 3.085964 0.941794 -4.857303 -1.873288 4.653764 0.683659 0.373212 -1.605929 4.563034 0.413653 3.981489 2.800117 3.901657 -1.662859 -1.017951 1.618024 4.712349 2.554555 4.272505 -1.839718 -1.334706 4.073538 -1.436171 -2.618835 -4.268975 2.451477 0.412673 3.402757 4.930224
-0.274220 1.188941 0.236084 -2.499626 3.716761 4.674555 3.356808 -0.660748 1.815262 4.591868 4.358510 1.701998 0.452137 -1.650756 3.466941 2.483125 1.195816 -2.987910 0.092646 0.609584 2.519217 3.851529 4.764846 -0.200527 -4.879214 4.472318 -1.172148 1.615094 -4.703948 -1.675863 -3.214675 2.233857 -1.922128 3.170321 -1.616905 -4.713825 -3.286158 -0.694292 1.407565 -0.995774 2.082684 -2.596871 -0.355047 1.562593 -0.702745 -4.972724 -1.777835 0.028188 2.763934 -3.400371 -3.868761 4.934166 3.180987 3.544124 -4.554541 2.653308 -4.172421 -4.380596 -2.061338 0.890895 -0.783164 -1.578837 -3.357345 -4.459409 -3.907763 3.253412 -2.742693 3.896032 -3.384060 2.152505 -3.257487 -4.676661 -1.475231 3.964378 -1.776969 -3.241655 -2.368640 1.682498 -4.898193 -1.651995 3.434037 0.714423 -2.641467 3.264585 2.532254 0.953951 -2.111126 2.242006 2.873661 4.340373 -1.041418 -2.322315 1.658195 -4.231773 1.017458 4.689549
-0.180798 -4.800089 -4.603815 1.345876 -0.343556 3.902425 2.457623 4.895853 4.806000 -2.818928 4.864717 -1.047560 -3.388083 -1.009900 -2.187708 -3.218974 -1.624808 -0.854612 -0.422376 3.458992 -1.816862 2.974093 3.968545 -0.618951 -2.459943 0.015370 -4.133856 -1.460109 -2.041842 0.790871 -4.982533 2.051743 2.803038 0.158132 4.590354 3.959802 4.351154 -2.859996 -0.716373 3.367358 1.310883 3.799361 2.297805 -3.215832 2.865776 0.385643 2.500127 -0.507963 -2.391031 3.728835 4.123798 3.668299 -3.731853 -0.460022 -3.487583 0.308935 0.886948 -3.872346 -0.831566 -4.890822 3.194409 -0.690348 0.138679 -1.600110 -0.859859 -0.889654 -2.702006 3.999651 -4.579929 -3.177235 4.143300 1.335355 -4.080832 3.223201 -2.188072 3.546898 4.955105 4.742346 -2.211672 3.327846 3.807631 -0.849336 -4.458887 4.126951 -1.666063 -2.037641 1.661658 -1.120033 -3.625405 -2.113311 1.957890 3.054540 -0.916013 3.142656 2.025790 -4.098082
-3.947101 -1.919713 0.869187 2.216878 0.333444 -4.988117 3.349671 4.461592 4.076606 -3.436169 -0.586169 0.417459 4.185204 1.904631 -1.782337 -4.512429 -4.297690 -2.340699 -0.775957 -4.471094 -4.223259 -1.363660 -1.558793 2.946587 -3.069255 2.117936 3.599999 2.306115 4.404245 -2.087644 1.851398 2.089604 -1.170554 1.262971 3.209426 -2.740099 1.745705 -0.387205 1.974456 -0.007349 -4.423617 -3.762573 4.026697 -1.711990 2.497696 -4.780616 0.051555 -3.048243 -4.546798 -1.566045 0.203809 -2.627771 2.064848 -3.415226 1.289167 0.210797 2.943295 1.183617 -2.704457 -4.871666 0.813599 -1.654855 0.323013 -0.684639 3.427698 -0.585130 -2.846087 -4.867064 -4.016198 -0.105827 3.052963 -3.432319 -4.291312 3.857559 -3.135174 1.614122 2.948866 -2.097454 -1.858593 -4.907180 -4.739964 0.910032 -2.144735 1.692807 3.839840 2.870809 -4.662054 -1.743376 3.732064 4.726849 0.447022 -4.880783 0.488610 2.866959 -0.821470 3.272933
-0.336914 -3.780248 4.012296 1.471279 -2.096700 0.565923 -4.048609 -3.295507 2.068502 -4.147676 -4.081589 3.539653 -0.810244 0.546377 3.896581 4.936313 -4.525259 1.816671 3.228258 -3.557847 3.286881 1.616751 -3.537423 -3.778194 -0.648589 3.725877 0.001444 -0.696541 -4.770787 0.792820 -3.477925 -2.402193 -2.816623 -1.318440 2.839602 1.051061 -3.500060 -4.170412 -1.906585 -4.107119 1.673852 -1.727352 -1.199850 -3.667799 1.083373 0.135521 1.177025 4.322174 2.874410 2.389220 2.314096 -0.593623 -0.427568 2.593054 4.449527 0.816798 -0.028597 -2.675616 -1.703016 -3.152580 1.304283 -2.848759 3.959956 -2.035726 1.322788 -2.661468 0.086972 2.446032 1.291674 0.292096 2.147672 4.640081 -1.588009 -0.300774 4.843246 -1.766208 4.769480 3.516778 2.009546 -0.330904 3.807631 -0.849336 -4.458887 4.126951 -1.666063 -2.037641 -4.814246 -1.120033 -3.625405 -2.113311 1.957890 3.054540 -0.916013 3.142656 2.025790 -4.098082
-0.238823 -3.936952 -3.205323 -2.274064 3.034752 0.391112 -1.525863 -3.793785 0.139333 -3.197825 -2.068689 -1.475590 -0.435904 1.876699 -2.052732 4.396675 3.187855 4.471627 -2.798076 -2.568188 -2.233441 -0.129518 -4.991117 2.628867 -3.956147 -4.266226 2.225651 -3.512252 1.184894 -3.362170 -3.861232 0.130988 -3.179369 1.442151 -3.259736 1.966594 1.292747 -1.818471 1.475485 -4.642423 1.220345 -3.264133 -1.037431 1.379074 0.909315 -0.837639 2.540899 1.439377 3.009427 -0.863726 2.840321 0.944140 0.501563 2.747373 2.543380 0.859889 3.655598 4.411046 -0.824325 -3.790284 3.950001 -1.363751 4.484341 4.619196 -1.343458 -0.779209 2.607811 -1.253368 0.014630 -3.938057 3.006586 -0.382256 -4.540416 -3.648126 0.628385 -3.086236 -4.934311 1.864437 -2.667066 4.607880 -0.787784 -2.498675 -3.134123 -3.179635 3.969650 -3.246194 4.504142 4.600810 1.730244 0.598483 -0.639628 -4.025650 1.073922 2.141816 2.885421 1.963240
-3.947101 -1.919713 0.869187 2.216878 0.333444 -4.988117 3.349671 4.461592 4.076606 -3.436169 -0.586169 0.417459 4.185204 1.904631 -1.782337 -4.512429 -4.297690 -2.340699 -0.775957 -4.471094 -4.223259 -1.363660 -1.558793 2.946587 -3.069255 2.117936 3.599999 2.306115 4.404245 -2.087644 1.851398 -3.174777 -4.963508 -1.040452 -1.466376 -1.371043 -4.402274 -1.092392 3.767489 4.650049 -0.422123 2.845700 -1.374506 -3.274850 3.699888 -0.931495 3.680511 -3.738357 -2.396429 2.956731 -4.302397 4.121431 -0.369142 -2.896435 1.644617 1.589137 0.936092 -0.280684 4.576433 -2.977438 1.116854 -4.349590 -0.894867 4.926875 -4.201178 0.708781 2.969835 -0.975289 3.258294 1.413618 -2.342868 -3.708345 1.351161 0.277632 -2.547449 4.153567 -4.091254 -1.562640 -4.898193 -1.651995 -4.739964 0.910032 -2.144735 1.692807 3.839840 2.870809 -4.662054 -1.743376 3.732064 4.726849 0.447022 -4.880783 0.488610 2.866959 -0.821470 3.272933
4.920004 -1.943262 -3.683622 -4.939492 -1.124638 -2.766191 -3.197447 -0.599899 -4.478250 1.334547 -0.040494 4.998061 1.024339 -3.522567 3.739965 -3.144308 0.097314 3.492044 4.530510 -3.226693 3.418847 -3.333316 -3.028237 1.989712 2.601654 -1.122413 -3.467966 3.093480 0.555522 0.056772 -0.063233 2.741683 -1.948107 4.677281 1.891394 2.608219 -0.648056 -4.992665 -1.816220 -0.272438 1.188364 -0.043638 3.509652 -1.686388 -3.195668 4.447084 -1.760908 -2.435344 -2.573525 -2.516895 -2.120464 1.621743 -3.397613 -2.595109 0.435468 1.824136 0.266860 -2.455973 4.088169 3.515369 -1.899820 1.506639 -0.284274 1.278314 -2.145693 0.670482 -2.666798 -1.976093 4.832352 -4.468438 1.470293 -1.655843 -1.236988 0.892977 1.705113 -3.994393 0.743759 1.072291 -1.684380 3.279800 2.668486 -2.048139 1.042969 -1.209592 2.764484 -0.452104 -1.560182 -3.828773 -1.166575 -2.788948 4.495113 0.396468 -2.511650 3.033658 -3.054719 4.626990
-0.238823 -3.936952 -3.205323 -2.274064 3.034752 0.391112 -1.525863 -3.793785 0.139333 -3.197825 -2.068689 -2.770027 2.885542 2.416893 -3.850623 -4.858461 -2.466322 -3.984485 0.962317 2.963600 -0.946190 2.483232 4.099356 -3.284105 -4.532075 3.710760 0.797902 -4.566553 -0.125489 1.342998 2.553210 2.182372 -2.628185 4.161237 3.384741 1.661907 -4.954774 1.570255 -1.375801 -4.595947 -4.265348 -0.596385 -1.042572 -4.562244 -3.921404 0.503863 -2.135145 -4.747471 1.910374 3.356360 2.706802 0.445558 4.503775 -3.809471 -0.521460 -0.702598 -1.389587 -1.921996 3.665226 -3.334982 1.791442 0.131040 0.921791 -2.097421 -4.617366 -1.828062 -0.459589 -4.385328 -1.809646 0.878115 2.576250 -4.686687 3.362624 0.383534 -2.400189 4.082888 -3.098624 -2.037080 1.700296 -3.308592 0.009251 3.086792 -3.937379 3.045345 2.549452 4.832957 -1.925260 -4.178824 3.769416 -1.751153 1.052918 -4.298672 -0.303690 -2.052659 3.771577 -3.171115
4.920004 -1.943262 1.530506 -4.939492 0.846699 -2.766191 -3.197447 -0.599899 -4.478250 1.334547 -0.040494 4.998061 1.024339 -3.522567 3.739965 -3.144308 0.097314 3.492044 4.530510 -3.226693 3.418847 -3.333316 -3.028237 1.989712 2.601654 -1.122413 -3.467966 3.093480 0.555522 0.056772 -0.063233 2.741683 -1.948107 4.677281 1.891394 2.608219 -0.648056 -1.301547 -1.816220 -0.272438 1.188364 -0.043638 3.509652 -1.686388 -3.195668 3.136380 -2.722357 2.901158 1.309470 0.483446 -1.320404 -2.503147 -3.701931 1.490215 2.813873 3.577500 0.489092 4.495876 -1.261801 4.402424 3.928135 2.318609 0.466249 3.602154 0.967089 -4.104108 -3.592600 0.053287 -3.938694 1.040066 -4.402999 -3.543153 -2.499962 3.101383 -0.174549 -4.355471 3.971692 4.180683 3.576159 -3.291766 1.681499 -0.498257 4.207837 1.213034 0.380932 2.988898 -0.495360 1.981800 3.417688 3.169866 4.470807 2.240590 -1.625496 4.740103 -0.638209 3.451548
0.549295 4.419582 -3.238538 -2.108395 -0.863083 1.375488 2.449790 0.524920 -2.346925 -0.762942 3.177553 1.370667 2.038455 -3.788104 2.936138 0.840538 -1.120704 -2.099330 1.449062 3.599369 1.450142 2.677074 -4.189171 -3.639128 0.010223 0.714852 -2.096229 -4.128066 3.947748 3.126196 3.446659 3.230109 -0.272429 -0.941293 -0.478523 -2.938962 4.106609 1.535525 -2.317918 3.978687 -2.606609 -1.166887 -1.298875 4.316708 -3.397223 1.227210 4.089150 -0.629562 -1.575123 -0.968651 3.005750 -2.418081 -2.169006 3.035631 3.929843 -1.846471 2.827422 -1.694913 3.423136 3.385938 2.091328 1.243788 0.371109 -4.442907 -0.623980 1.973071 -1.810675 2.124692 0.393592 4.411213 1.996815 -2.564081 2.440965 0.409809 -1.802883 -0.412213 0.120521 -3.184467 0.702598 -2.098894 2.640431 2.968880 -2.352180 -0.603516 0.971182 -2.735023 4.475960 0.315005 -3.403053 1.825808 0.837756 4.451989 -1.702159 -3.831572 -2.595840 4.018388
0.549295 4.419582 -3.238538 -2.108395 -0.863083 1.375488 2.449790 0.524920 -2.346925 -0.762942 3.177553 1.370667 2.038455 -3.788104 2.936138 0.840538 -1.120704 -2.099330 1.449062 3.599369 1.450142 2.677074 -4.189171 -3.639128 0.010223 0.714852 -2.096229 3.932438 3.947748 3.126196 3.446659 3.230109 -0.272429 -0.941293 -0.478523 -2.938962 4.106609 1.535525 -2.317918 3.978687 -2.606609 -1.166887 -1.298875 4.316708 -3.397223 1.227210 4.089150 -0.629562 -1.575123 -0.968651 3.005750 -2.418081 -2.169006 3.035631 3.929843 -1.846471 2.827422 -1.694913 3.423136 3.385938 2.091328 1.243788 0.371109 -4.442907 -0.623980 -1.561270 -4.679635 -0.104045 -1.969745 -1.030860 -0.595992 1.755231 -0.774984 4.383689 -3.414073 4.323849 0.719225 -0.535581 0.998471 2.055406 -4.597074 -2.690475 -4.910129 2.836630 -2.522585 -0.789211 1.766545 4.027009 -0.145402 3.872880 -4.953184 -1.907433 4.681408 1.451648 4.227090 0.892584
0.484828 0.674246 1.430030 -1.192333 3.749503 -1.439656 -2.036863 -0.271082 4.948895 -4.306218 -1.704752 4.590171 1.404765 -3.009550 1.079328 -4.955508 -1.445625 -3.741840 -1.874522 -1.614633 -1.373688 -2.723537 -3.844358 2.476803 3.829345 -2.870845 2.910250 -2.082023 -0.824286 4.382195 -0.008695 -2.023979 -2.252750 0.621431 -4.718534 2.871984 -2.829456 -1.994479 -3.824362 3.627092 2.948605 1.138798 -1.110110 0.140566 2.543524 4.596848 -1.780376 -1.260070 -4.621200 0.948300 -0.305986 -4.728691 -0.504313 2.571715 -4.087698 -1.236706 -0.851405 2.124164 4.173420 2.199830 3.498779 -4.195969 0.921791 -2.097421 -4.617366 -1.828062 -0.459589 -4.385328 1.525672 1.401269 -0.643249 -2.950660 3.055768 3.345071 -3.252186 -0.511214 1.125814 3.600536 -1.344348 2.995362 4.913663 -3.108638 0.478856 -3.092159 0.746848 -2.137221 2.031412 -3.742327 1.561074 -2.007445 3.990692 0.334546 2.998755 2.183001 -4.322489 -4.157998
2.647152 -3.780248 4.012296 1.471279 -2.096700 0.565923 -4.048609 -3.295507 2.068502 -4.147676 -4.081589 3.539653 -0.242242 0.911506 -4.772039 0.848742 -2.212530 0.638453 -0.944373 -4.724995 4.779893 -0.588395 -2.127111 -0.149440 -4.263750 -2.593563 -3.699100 4.593475 1.893228 3.125129 -0.300251 1.164488 -2.635753 3.805194 0.668285 0.575856 -4.730942 -0.108767 0.869198 -4.989349 -0.209216 -4.104486 4.202203 -4.486373 -1.231198 -2.390547 4.228866 4.576103 3.956495 -2.074941 -0.960790 3.357032 3.550435 1.415771 -4.725166 4.088883 0.067927 3.512464 -1.240166 2.080736 -4.230707 2.098160 1.122601 -1.981097 -1.300514 -4.272549 3.240202 3.085964 0.941794 -4.857303 -1.873288 4.653764 0.683659 0.373212 -1.605929 -4.862125 0.413653 3.981489 2.800117 3.901657 -1.662859 -1.017951 1.618024 4.712349 2.554555 4.272505 -1.839718 -1.334706 4.073538 -1.436171 -2.618835 -4.268975 2.451477 0.412673 3.402757 4.930224
1.963389 -1.869401 -1.752931 -0.749558 0.733579 1.607170 -3.664686 0.851632 -0.154153 0.430326 2.491056 1.445979 -3.787726 -1.379756 -4.151966 1.776094 0.294591 3.330439 4.080353 -3.437373 -4.918070 -1.546334 -3.116434 1.408371 -3.910847 3.104494 4.055820 1.615094 -4.703948 -1.675863 -3.214675 2.233857 -1.922128 3.170321 -1.616905 -4.713825 -3.286158 4.698526 -2.806981 -1.238708 4.562367 -2.780450 4.918269 -3.814147 3.873010 -2.899035 -4.162653 2.462390 1.666656 -4.472049 -0.686552 3.178774 -1.262629 1.289945 2.472916 3.823162 -2.311825 -1.279224 -2.269393 -3.962883 -4.968723 4.247641 3.073613 0.129379 2.664865 -3.174821 0.565764 -0.153804 0.785202 0.682517 -3.160280 2.810993 -2.393577 1.433102 4.813474 -3.579796 -0.267379 -4.803282 -2.759995 4.374946 -3.304250 -0.557684 4.030853 -2.330267 -3.738864 -2.558899 -0.267481 4.276924 -0.277784 0.378822 4.308241 1.713804 -2.564384 -4.714039 -2.407228 1.447980
-2.637190 -2.199682 3.689687 -2.336877 -3.845836 -4.940130 4.396196 4.175295 -3.564838 4.728518 2.586001 -1.475590 -0.435904 1.876699 -2.052732 4.396675 3.187855 4.471627 -2.798076 -2.568188 -2.233441 -0.129518 -4.991117 2.628867 -3.956147 -4.266226 2.225651 -3.512252 1.184894 -3.362170 -3.861232 0.130988 -3.179369 1.442151 -3.374207 1.966594 1.292747 -1.818471 1.475485 -4.642423 1.220345 -3.264133 -1.037431 1.379074 0.909315 -0.837639 2.540899 1.439377 -2.396429 2.956731 -4.302397 4.121431 -0.369142 -2.896435 1.644617 1.589137 0.936092 -0.280684 4.576433 -2.977438 1.116854 -4.349590 -0.894867 4.926875 -4.201178 0.708781 2.969835 -0.975289 3.258294 1.413618 -2.342868 -3.708345 1.351161 0.277632 1.266740 4.153567 -4.091254 -1.562640 3.687338 -4.907180 -4.739964 0.910032 -2.144735 1.692807 3.839840 2.870809 -4.662054 -1.071279 3.732064 4.726849 0.447022 -4.880783 0.488610 2.866959 0.893365 3.272933
-4.013422 0.025935 -3.855679 2.619039 4.596769 3.087786 2.411953 2.762550 2.043266 -2.254217 3.830227 -4.084749 -1.301400 -4.618498 -3.288436 0.498604 -2.230924 -1.077111 0.260607 2.084549 -1.830810 1.807471 4.379433 1.292745 3.125912 -4.830005 -3.131054 -0.277170 -2.033195 -1.811494 2.920652 2.089604 -1.170554 1.262971 3.209426 -2.740099 1.745705 -0.387205 1.974456 -0.007349 -4.423617 -3.762573 4.026697 -1.711990 2.497696 -4.780616 0.051555 -3.048243 -4.546798 -1.566045 0.203809 -2.627771 2.064848 -3.415226 0.302534 0.210797 2.943295 1.183617 -2.704457 -3.152580 1.304283 -2.848759 3.959956 -2.035726 1.322788 -2.661468 0.086972 2.446032 1.291674 0.292096 2.147672 4.640081 -1.588009 -0.300774 4.843246 -1.766208 4.769480 3.516778 2.009546 -0.330904 -3.124654 -2.631310 -0.612079 4.457845 2.155542 0.636106 2.262808 0.382336 -4.815684 1.949059 -1.560255 1.246398 -3.818402 1.628564 2.792167 -1.622467
-0.180798 -4.800089 -4.603815 1.345876 -0.343556 3.902425 2.457623 4.895853 4.806000 0.473336 1.714374 -1.608685 3.785867 3.995614 -4.157417 4.202028 -3.213372 -3.460667 -1.466361 -0.422229 0.598362 -2.652191 -1.381892 3.583083 3.657264 -4.711650 2.732394 1.518930 0.128526 3.475881 -3.338091 -0.377487 -3.079176 4.666102 4.730213 -4.142936 -2.299921 -4.299543 4.916817 -0.869734 -1.286088 0.554216 0.971434 2.852129 1.515526 -4.323508 -0.006778 2.171102 1.592868 3.178728 4.831190 2.359807 0.001174 4.924037 -4.187603 1.775984 -1.499561 4.740741 -2.048721 0.577946 4.358294 4.978557 0.684908 -4.151066 -4.602182 3.451086 -1.341980 1.187477 2.980586 -2.349045 -0.765754 2.585761 -0.805673 -0.300774 4.843246 -1.766208 4.769480 3.516778 2.009546 -0.330904 -3.124654 -2.631310 -0.612079 4.457845 2.155542 0.636106 2.262808 1.326256 -4.815684 1.949059 -1.560255 1.246398 -3.818402 1.628564 2.792167 -1.622467
2.339675 1.827969 -0.830084 -2.366254 4.144819 4.286018 -4.909963 3.287893 2.110100 -2.303913 -3.744418 -0.400387 -1.772559 -4.721708 -4.757248 -4.463063 0.884513 -2.340699 -0.775957 -4.471094 -4.223259 -1.363660 -1.558793 2.946587 -3.069255 2.117936 3.599999 2.306115 4.404245 -2.087644 1.851398 -3.174777 -4.963508 -1.040452 -1.466376 -1.371043 -4.402274 -1.092392 3.767489 4.650049 -0.422123 2.845700 -1.374506 -3.274850 3.699888 -0.931495 3.680511 -3.738357 -2.396429 2.956731 -4.302397 4.121431 -0.369142 -2.896435 1.644617 1.589137 0.936092 -0.280684 4.576433 -2.977438 1.116854 -4.349590 -0.894867 4.926875 -4.201178 0.708781 2.969835 -0.975289 3.258294 1.413618 -2.342868 -3.708345 1.351161 0.277632 1.266740 4.153567 -4.091254 -1.562640 3.687338 -4.907180 -4.739964 0.910032 -2.144735 1.692807 3.839840 2.870809 -4.662054 -1.743376 3.732064 4.726849 0.447022 -4.880783 0.488610 2.866959 -0.821470 3.272933
4.920004 -1.943262 -3.683622 -4.939492 0.846699 -2.766191 -3.197447 -0.599899 -4.478250 1.334547 -0.040494 4.998061 1.024339 -3.522567 3.739965 -3.144308 0.097314 3.492044 4.530510 -2.518390 3.418847 -3.333316 -3.028237 1.989712 2.601654 -1.122413 4.364180 3.093480 0.555522 0.056772 -0.063233 2.741683 -1.948107 4.677281 1.891394 2.608219 -0.648056 -4.992665 -1.816220 -0.272438 1.188364 -0.043638 3.509652 -1.686388 -3.195668 4.447084 -1.760908 -2.435344 -2.573525 -2.516895 4.831190 2.359807 0.001174 4.924037 -4.187603 -2.862197 -1.499561 4.740741 -2.048721 0.577946 4.358294 4.978557 0.684908 -4.151066 -4.602182 3.451086 -1.341980 1.187477 2.980586 -2.349045 -0.765754 2.585761 -0.805673 -2.547114 -2.102146 3.322261 0.921027 4.985741 -0.774436 -2.334526 0.317870 0.484303 3.319572 3.372719 0.383220 -4.990339 4.335069 0.613474 -2.910035 1.538146 -1.535878 -3.738176 3.490244 -4.582855 4.415430 -0.998802
-0.274220 1.188941 0.236084 -2.499626 3.716761 4.674555 3.356808 -0.660748 1.815262 4.591868 3.533516 -2.214780 0.452137 -1.650756 3.466941 2.483125 1.195816 -2.987910 0.092646 0.609584 2.519217 3.851529 4.764846 -0.200527 -4.879214 4.472318 -1.172148 1.615094 -4.703948 -1.675863 -3.214675 2.233857 -1.922128 3.170321 -1.616905 -4.713825 -3.286158 4.698526 -2.806981 -1.238708 4.562367 -2.780450 4.918269 -3.814147 3.873010 -2.899035 -4.162653 2.462390 1.666656 -4.472049 -0.686552 3.178774 -1.262629 1.289945 2.472916 3.823162 -2.311825 -1.279224 3.423136 3.385938 2.091328 1.243788 0.371109 -4.442907 -0.623980 -1.561270 -4.679635 -0.104045 -1.969745 -1.030860 -0.595992 1.755231 -0.774984 4.383689 -3.414073 4.323849 0.719225 -0.535581 0.998471 2.055406 -4.597074 -2.690475 -4.910129 2.836630 -2.522585 -0.789211 1.766545 4.027009 -0.145402 1.452627 0.132004 -4.632382 2.359650 0.526921 -2.407228 1.447980
-3.220493 -4.510572 -3.216756 -3.028044 0.667161 4.305723 -1.934448 -4.426134 -1.979024 -2.576311 2.007563 1.448426 2.134197 -0.760060 4.051879 1.039515 -2.178372 1.580773 -1.783522 -4.162935 0.388241 2.979660 2.163126 0.872311 -3.959525 0.845263 1.306648 -4.608883 3.614486 1.892730 -2.158944 4.221537 2.112926 4.439835 3.361126 2.121809 -2.042357 -0.694292 1.407565 -0.995774 2.082684 -2.596871 -0.355047 1.562593 -0.702745 -4.972724 -1.777835 0.028188 2.763934 -3.400371 -3.868761 4.934166 3.180987 3.544124 -4.554541 2.653308 -4.172421 -4.380596 -2.061338 0.890895 -0.783164 -1.578837 0.049658 -4.459409 -3.907763 -4.661063 -2.742693 3.896032 -3.384060 2.152505 -0.282385 -4.676661 -1.475231 3.964378 -1.776969 -3.241655 -4.996300 1.682498 0.702598 -2.098894 2.640431 2.968880 -2.352180 -0.603516 0.971182 -2.735023 -1.427041 0.315005 -3.403053 1.825808 0.837756 4.451989 -1.702159 -3.831572 -2.595840 4.018388
-0.336914 -3.780248 4.012296 1.471279 -0.738866 0.565923 -4.048609 -3.295507 2.068502 -4.147676 -4.081589 3.539653 -0.810244 0.546377 -2.790744 4.936313 -4.525259 1.816671 -0.951958 -3.557847 -1.807089 1.616751 -3.537423 -3.778194 -0.648589 3.725877 0.001444 -0.696541 -4.770787 0.792820 -3.477925 -2.402193 -2.816623 -1.318440 2.839602 1.051061 -3.500060 -4.170412 -0.716373 3.367358 1.310883 4.373418 2.297805 -3.215832 2.865776 0.385643 2.500127 -0.507963 -2.484546 3.728835 4.123798 3.668299 4.566439 -0.460022 -3.487583 0.308935 0.886948 -3.872346 -0.831566 -4.890822 3.194409 -0.690348 0.138679 -1.600110 -0.859859 -0.889654 -2.702006 3.999651 -4.579929 -3.177235 4.143300 1.335355 -4.080832 3.223201 -2.188072 3.546898 4.955105 4.742346 -2.211672 3.327846 3.807631 -0.849336 -4.458887 4.126951 -1.666063 -2.037641 1.661658 -1.120033 -3.625405 -2.113311 1.957890 3.054540 -0.916013 3.142656 2.025790 -4.098082
-2.637190 -2.199682 3.689687 -2.336877 -3.845836 -4.940130 4.396196 4.175295 -3.564838 4.728518 2.586001 -1.475590 -0.435904 1.876699 -2.052732 4.396675 3.187855 4.471627 -2.798076 -2.568188 -2.233441 -0.129518 -4.991117 2.628867 -3.956147 -4.266226 2.225651 -3.512252 1.184894 -3.362170 -3.861232 0.130988 -3.179369 1.442151 -3.374207 1.966594 1.292747 -1.818471 1.475485 -4.642423 1.220345 -3.264133 -1.037431 1.379074 0.909315 -0.837639 2.540899 1.439377 3.009427 -0.863726 2.840321 0.944140 0.501563 2.747373 2.543380 0.859889 1.253736 4.411046 -0.824325 -3.790284 3.950001 -1.363751 4.484341 4.619196 -1.343458 -0.779209 2.607811 -1.253368 0.014630 -3.938057 -4.294703 -0.382256 -4.540416 -3.648126 0.628385 -3.086236 -4.934311 1.864437 -2.667066 4.607880 -0.787784 -2.498675 -3.134123 -3.179635 3.969650 -3.246194 4.504142 -3.323882 1.730244 0.598483 -0.639628 -4.025650 1.073922 2.141816 2.885421 1.963240
-4.013422 0.025935 -3.855679 2.619039 4.596769 3.087786 2.411953 2.762550 2.043266 -2.254217 3.830227 -4.084749 -1.301400 -4.618498 -3.288436 0.498604 -2.230924 -1.077111 0.260607 2.084549 -1.830810 1.807471 4.379433 1.292745 3.125912 -4.830005 -3.131054 -0.277170 -2.033195 -1.811494 2.920652 2.089604 -1.170554 1.262971 3.209426 -2.740099 1.745705 -0.387205 1.974456 -0.007349 -4.423617 -1.166887 -1.298875 4.316708 -3.397223 1.227210 4.089150 -0.629562 -1.575123 -0.968651 3.005750 -2.418081 -2.169006 3.035631 3.929843 -1.846471 2.827422 -1.694913 3.423136 3.385938 2.091328 1.243788 0.371109 -4.442907 -0.623980 -1.561270 -4.679635 -0.104045 -1.969745 -1.030860 -0.595992 1.755231 -0.774984 4.383689 -3.414073 4.323849 0.719225 -0.535581 0.998471 2.055406 -4.597074 -2.690475 -4.910129 2.836630 2.241099 -0.789211 1.766545 4.027009 -0.145402 1.452627 0.132004 -4.632382 2.359650 2.168640 -3.929514 -3.720638
-3.408183 -0.641579 -3.864360 -4.259533 -1.156284 -0.628947 2.434649 -0.804376 4.691276 -2.818928 4.864717 -1.047560 -3.388083 -1.009900 -2.187708 -3.218974 -1.624808 -0.854612 -0.422376 3.458992 -1.816862 2.974093 3.968545 -0.618951 -2.459943 0.015370 -4.133856 -1.460109 -2.041842 0.790871 -4.982533 2.051743 2.803038 0.158132 4.590354 3.959802 4.351154 -2.859996 -0.716373 3.367358 1.310883 3.799361 2.297805 -3.215832 2.865776 0.385643 2.500127 -0.507963 -2.484546 3.728835 4.123798 3.668299 -3.731853 -0.460022 -3.487583 0.308935 0.886948 -3.872346 -0.831566 -4.890822 3.194409 -0.690348 0.138679 -1.600110 -0.859859 -0.889654 -2.702006 3.999651 -4.579929 -3.177235 4.143300 1.335355 -4.080832 3.223201 -2.188072 3.546898 4.955105 4.742346 -2.211672 3.327846 3.807631 -0.849336 -4.458887 4.126951 -1.666063 -2.037641 1.661658 -1.120033 -3.625405 -2.113311 1.957890 3.054540 0.488610 2.866959 -0.821470 3.272933
-0.238823 -3.936952 -3.205323 -2.274064 3.034752 0.391112 -1.525863 -3.793785 0.139333 -3.197825 -2.068689 -2.770027 2.885542 2.416893 -3.850623 -4.858461 -2.466322 -3.984485 -2.013682 2.963600 -0.946190 2.483232 4.099356 -3.284105 -4.532075 3.710760 0.797902 -4.566553 -0.125489 1.342998 2.553210 2.182372 -2.628185 4.161237 3.384741 1.661907 -4.954774 1.570255 -1.375801 1.583977 -4.265348 -0.596385 -1.042572 -4.562244 -3.708662 0.503863 -2.135145 -4.747471 1.910374 3.356360 2.706802 0.445558 4.503775 -3.809471 -0.521460 -0.702598 3.626790 -2.016409 0.952251 -4.902771 -1.768556 4.149179 -4.247989 -1.228365 0.328006 1.014988 2.407378 3.346166 1.047626 -3.896807 -4.495395 0.500399 1.448506 -1.308234 -3.447714 -3.497544 4.060330 1.785910 1.166294 1.414719 -2.698336 2.655029 0.742933 -4.944707 -3.419099 -3.926593 -1.339477 -4.472894 1.868992 4.431398 4.200167 -3.666183 2.965731 2.947092 -0.038983 -4.211515
-3.676650 2.367121 0.702040 -3.274295 -1.820698 1.034199 2.407032 -3.162847 0.150524 -3.509867 -3.524050 -4.453331 -0.476268 -3.138781 0.923043 2.754810 -4.889353 -1.077111 0.260607 2.084549 -1.830810 1.807471 4.379433 1.292745 3.125912 -4.830005 -3.131054 -0.277170 -2.033195 -1.811494 2.920652 2.089604 -1.170554 1.262971 3.209426 -2.740099 1.745705 -0.387205 1.974456 -0.007349 -4.423617 -3.762573 4.026697 -1.711990 2.497696 1.027557 -2.414901 0.554282 1.119219 -0.711236 1.101194 3.100607 1.099974 -1.289731 -3.563230 -4.082045 2.959633 -2.882458 -1.895750 -3.989190 -4.072080 -4.576366 2.087435 2.887623 1.517178 1.973071 -1.810675 2.124692 0.393592 4.411213 1.996815 -2.564081 2.440965 0.409809 -1.802883 -0.412213 0.120521 -3.184467 0.702598 -2.098894 2.640431 2.968880 -2.352180 -0.603516 0.971182 -2.735023 -1.427041 0.315005 -3.403053 1.825808 0.837756 4.451989 -1.702159 -3.831572 -2.595840 4.018388
-3.947101 -1.919713 0.869187 2.216878 0.333444 -4.988117 3.349671 4.461592 4.076606 -3.436169 -0.586169 0.417459 4.185204 1.904631 -1.782337 -4.512429 -4.297690 -2.340699 -0.775957 -4.471094 -4.223259 -1.363660 -1.558793 2.946587 -3.069255 2.117936 3.599999 2.306115 4.404245 -2.087644 1.851398 -3.174777 -4.963508 -1.040452 -1.466376 -1.371043 -4.402274 -1.092392 3.767489 4.650049 -0.422123 2.845700 -1.374506 -3.274850 3.699888 -0.931495 3.680511 -3.738357 -2.396429 2.956731 4.123798 3.668299 -3.731853 -0.460022 -3.487583 0.308935 0.886948 -3.872346 -0.831566 -2.977438 1.116854 -4.349590 -0.894867 4.926875 -4.201178 0.708781 2.969835 -0.975289 3.258294 1.413618 -2.342868 -3.708345 1.351161 0.277632 1.266740 4.153567 -4.091254 -1.562640 3.687338 -4.907180 -4.739964 0.910032 -2.144735 1.692807 3.839840 2.870809 -4.662054 -1.743376 3.732064 4.726849 0.447022 -4.880783 0.488610 2.866959 -0.821470 3.272933
0.110523 -2.407294 1.499985 4.340345 -0.963049 3.445122 -1.237718 -0.057276 2.852820 -2.444750 -2.710049 -2.014120 -1.425715 -3.740443 -1.663419 2.907868 1.339604 3.678433 2.757205 -0.965121 -3.151462 4.670448 -0.041861 -3.422655 1.381930 -2.330926 2.336484 -0.248241 1.144890 4.684624 -3.652263 4.799342 2.529744 4.667125 2.948064 0.915065 3.027503 -2.442380 2.778863 -4.069620 0.683676 2.116328 -3.721313 -4.248335 -1.351481 -2.185401 -3.973420 0.374385 -0.019504 0.979834 0.969191 -1.952124 2.019950 -0.755791 1.242449 -1.954250 3.626790 -2.016409 0.952251 -4.902771 -1.768556 4.149179 -4.247989 -1.876634 0.328006 1.014988 2.407378 3.346166 1.047626 -3.896807 -4.495395 0.500399 1.448506 -1.308234 -3.447714 -3.497544 4.060330 1.785910 1.166294 1.414719 -2.698336 2.655029 0.742933 -4.944707 -3.419099 -3.926593 -1.339477 -4.472894 1.868992 4.431398 4.200167 -3.666183 2.965731 2.947092 -0.038983 -4.211515
-3.408183 -0.641579 -3.864360 -4.259533 -1.156284 -0.628947 2.434649 -0.804376 4.691276 -2.818928 4.864717 -1.047560 -3.388083 -1.009900 -2.187708 -3.218974 -1.624808 -0.854612 -0.422376 3.458992 -1.816862 2.974093 3.968545 -0.618951 -2.459943 0.015370 -4.133856 -1.460109 -2.041842 0.790871 -4.982533 2.051743 2.803038 0.158132 4.590354 3.959802 4.351154 -2.859996 -2.002374 3.367358 1.310883 3.799361 2.297805 -3.215832 2.865776 0.385643 2.500127 -0.507963 -2.484546 3.728835 4.123798 3.668299 -3.731853 -0.460022 -3.487583 0.308935 0.886948 -3.872346 -0.831566 -4.890822 3.194409 4.343321 0.138679 -1.600110 -0.859859 -0.889654 -2.702006 3.999651 -4.579929 -3.177235 4.143300 1.335355 -4.080832 3.223201 1.266740 4.153567 -4.091254 -1.562640 3.687338 -4.907180 -4.739964 0.910032 -2.144735 1.692807 3.839840 2.870809 -4.662054 -1.743376 3.732064 4.726849 0.447022 -4.880783 0.488610 2.866959 -0.821470 3.272933
-3.947101 -1.919713 0.869187 2.216878 0.333444 -4.988117 3.349671 4.461592 4.076606 -3.436169 -0.586169 0.417459 4.185204 1.904631 -1.782337 -4.512429 -4.297690 -2.340699 -0.775957 -4.471094 -4.223259 2.736023 -1.558793 2.946587 -3.069255 2.117936 3.599999 2.306115 4.404245 -2.087644 1.851398 -3.174777 2.529744 -1.040452 -1.466376 -1.371043 -4.402274 -1.092392 3.767489 4.650049 -0.422123 2.845700 -1.374506 -3.274850 3.699888 -0.931495 3.680511 -3.738357 -2.396429 2.956731 -4.302397 4.121431 -0.369142 -2.896435 1.644617 -4.062760 0.936092 -0.280684 4.576433 -2.977438 1.116854 -4.349590 -0.894867 4.926875 -4.201178 0.708781 2.969835 -0.975289 3.258294 1.413618 -2.342868 -3.708345 1.351161 0.277632 1.266740 4.153567 -4.091254 -1.562640 3.687338 -4.907180 -4.739964 0.910032 -2.144735 1.692807 -3.931177 2.870809 -4.662054 -1.743376 3.732064 4.726849 0.447022 -4.880783 0.488610 2.866959 -0.821470 3.272933
-0.336914 -3.780248 4.012296 -0.934406 -0.863083 1.375488 -1.049658 0.524920 -2.346925 -0.762942 3.177553 1.370667 2.038455 -3.788104 2.936138 0.840538 -1.120704 -2.099330 1.449062 3.599369 1.450142 2.677074 -4.189171 -3.639128 0.010223 0.714852 -2.096229 3.932438 3.947748 3.126196 3.446659 3.230109 -0.272429 -0.941293 -0.478523 -2.938962 4.106609 1.535525 4.803343 3.978687 -2.606609 -1.166887 -1.298875 4.316708 -3.397223 1.227210 4.089150 -0.629562 -1.575123 -0.968651 3.005750 -2.500097 -2.169006 3.035631 3.929843 3.681500 2.827422 -1.694913 3.423136 3.385938 2.091328 1.243788 0.371109 -4.442907 -0.623980 -1.561270 -4.679635 -0.104045 -1.969745 -1.030860 -0.595992 1.755231 -0.774984 4.383689 -3.414073 3.235405 0.719225 -0.535581 0.998471 2.055406 -4.597074 -2.690475 -4.910129 2.836630 -2.522585 -0.789211 1.766545 4.027009 -0.145402 1.452627 0.132004 -4.632382 2.359650 2.168640 -3.929514 -3.720638
-3.408183 -0.641579 -3.864360 -4.259533 -1.156284 -0.628947 2.434649 -0.804376 4.691276 -2.818928 4.864717 -1.047560 -3.388083 -1.009900 -2.187708 -3.218974 -1.624808 -0.854612 -0.422376 3.458992 -1.816862 2.974093 3.968545 -0.618951 -2.459943 0.015370 -4.133856 -1.460109 -2.041842 0.790871 -4.982533 2.051743 2.803038 0.158132 4.590354 3.959802 4.351154 -2.859996 -0.716373 3.367358 1.310883 3.799361 2.297805 -3.215832 2.865776 0.385643 2.500127 -0.507963 -2.484546 3.728835 4.123798 3.668299 -3.731853 -0.460022 -3.487583 0.308935 0.886948 -3.872346 -0.831566 -4.890822 3.194409 -0.690348 0.138679 -1.600110 -0.859859 -0.889654 -2.702006 3.999651 -4.579929 -3.177235 4.143300 1.335355 -4.080832 3.223201 -2.188072 3.546898 4.955105 4.742346 -2.211672 3.327846 3.807631 -0.849336 -4.458887 4.126951 -4.198349 -0.533142 -3.377412 2.912137 -0.508276 4.043153 3.176341 3.702821 2.168062 4.991357 -1.289432 -2.060860
-0.180798 -4.800089 -4.603815 1.345876 -0.343556 3.902425 2.457623 4.895853 4.806000 0.473336 1.714374 -1.608685 3.785867 3.995614 -4.157417 4.202028 -3.213372 -3.460667 -1.466361 -0.422229 0.598362 -2.652191 -1.381892 3.583083 3.657264 -4.711650 2.732394 1.518930 0.253414 3.475881 -3.338091 -0.377487 -3.079176 4.666102 4.730213 -4.142936 -2.299921 -4.299543 4.916817 -0.869734 -1.286088 0.554216 0.971434 2.852129 1.515526 -4.323508 -0.006778 2.171102 1.592868 3.178728 4.831190 2.359807 0.001174 4.924037 -4.187603 3.426013 -1.499561 4.740741 -2.048721 0.577946 4.358294 4.978557 0.684908 1.278314 -2.145693 0.670482 -2.666798 -1.976093 4.832352 -4.468438 1.470293 -1.655843 -1.236988 -3.766067 -4.916003 0.033985 2.432062 2.067576 -0.696815 0.817307 -4.841873 -4.383621 -4.998775 -0.417178 -3.383469 1.087329 -0.802018 -3.214456 -2.472716 -2.240082 4.128645 3.614214 -3.072985 -3.746727 -3.988429 -4.356821
0.484828 0.674246 1.430030 -1.192333 3.749503 -1.439656 -2.036863 -0.271082 4.948895 -4.306218 -1.704752 4.590171 1.404765 -3.009550 1.079328 -4.955508 -1.445625 -3.741840 -1.874522 -1.614633 -1.373688 -2.723537 -3.844358 2.476803 3.829345 -2.870845 2.910250 -2.082023 -0.824286 4.382195 -0.008695 -2.023979 -2.252750 0.621431 -4.718534 2.871984 1.778212 0.696608 1.504847 4.307509 2.486341 -4.496845 2.365595 -3.213333 -2.730358 4.415687 -1.422740 2.700200 -4.977069 3.540048 0.694065 3.184730 -1.187678 -2.879716 0.929774 3.125935 0.161400 -4.503691 -2.467866 -1.242026 3.728936 -4.103549 -1.352523 1.096757 -3.761134 3.221607 1.919201 0.676185 1.525672 1.401269 -0.643249 -2.950660 3.055768 3.345071 -3.252186 1.660542 1.532730 -3.407325 0.362796 -4.730196 -2.777152 1.979707 -3.128888 -1.098257 1.440714 -1.353355 -2.994219 1.731238 -1.846100 3.872880 -4.953184 -1.907433 4.681408 1.451648 4.227090 0.892584
-2.637190 -2.199682 3.689687 -2.336877 -3.845836 -4.940130 4.396196 4.175295 -3.564838 4.728518 2.586001 -1.475590 -0.435904 4.121708 -2.052732 4.396675 3.187855 4.471627 -2.798076 -2.568188 -2.233441 -0.129518 -4.991117 2.628867 -3.956147 -4.266226 4.055820 0.114508 1.872652 3.527750 -4.913925 -1.455276 -1.024828 0.901821 3.165229 1.407615 2.503373 -2.871357 -0.019129 0.911237 -3.151415 -0.777964 -1.368669 0.440671 -2.123485 2.591131 3.103068 -3.339639 -2.351376 4.280478 -1.219321 0.663987 3.296586 -1.294120 -2.163825 -0.743380 3.338234 4.005587 4.275653 3.859509 -2.916666 2.343675 1.705022 -1.317766 -2.489706 -2.955608 -2.373252 -0.467506 -0.526573 4.925626 2.243483 -3.665389 -2.557679 1.140030 -2.399613 -0.516429 1.047733 -0.332700 4.626441 3.179791 -2.390276 -4.335406 -0.827606 4.378901 0.292369 2.081274 -3.917567 2.064436 4.777127 0.598483 -0.639628 -4.025650 1.073922 2.141816 2.885421 1.963240
1.635304 1.817291 -1.922222 -4.968166 2.936165 -0.883312 3.042029 -3.494748 4.515392 -2.023923 -3.352640 -0.796104 3.094457 -3.797889 0.803894 -4.938659 4.908101 -3.615505 -3.663771 -2.540645 0.325281 -1.306411 -3.968722 -2.659024 -3.501928 2.878947 -0.463884 0.114508 1.872652 3.527750 -4.913925 -1.455276 -1.024828 0.901821 3.165229 1.407615 2.503373 -2.871357 -0.019129 0.911237 -3.151415 -0.777964 -1.368669 0.440671 -2.123485 2.591131 3.103068 -3.339639 -2.351376 4.280478 -1.219321 0.663987 3.296586 -1.294120 -4.434263 -0.743380 3.338234 4.005587 4.275653 3.859509 -2.916666 2.343675 1.705022 -1.317766 -2.489706 -2.955608 -2.373252 -0.467506 -0.526573 4.925626 2.243483 -3.665389 -2.557679 1.140030 -2.399613 -0.516429 1.047733 -0.332700 4.626441 3.179791 -2.390276 -4.335406 -0.827606 4.378901 0.292369 2.081274 -3.917567 2.064436 4.777127 4.624639 -2.050990 -1.827053 3.805120 1.847133 -1.489295 -1.820413
-4.013422 0.025935 -3.855679 2.619039 4.596769 3.087786 2.411953 2.762550 2.043266 -2.254217 3.830227 -4.084749 -1.301400 -4.618498 -3.288436 0.498604 -2.230924 -1.077111 0.260607 2.084549 -1.830810 1.807471 4.379433 1.292745 3.125912 -4.830005 -3.131054 -0.277170 -2.033195 -1.811494 2.920652 2.089604 -1.170554 1.262971 3.209426 -2.740099 1.745705 -0.387205 1.974456 -0.007349 -4.423617 -3.762573 -1.110110 0.140566 2.543524 4.596848 -1.780376 -1.260070 -4.621200 0.948300 -0.305986 -4.728691 -0.504313 2.571715 -4.087698 2.764536 -0.851405 2.124164 4.173420 2.199830 3.498779 -4.195969 0.921791 -2.097421 -4.617366 -1.828062 -0.459589 -4.385328 -1.809646 0.878115 2.576250 -4.686687 3.362624 0.383534 -2.400189 4.082888 -3.098624 0.786468 1.700296 -3.308592 0.009251 3.086792 -3.937379 3.045345 2.549452 4.832957 -1.925260 -4.178824 3.769416 -1.751153 1.052918 -4.298672 -0.303690 -2.052659 3.771577 -3.171115
-3.220493 -4.510572 -3.216756 -3.028044 0.667161 4.305723 -1.934448 -4.426134 -1.979024 -2.576311 2.007563 1.448426 2.134197 -0.760060 4.051879 1.039515 -2.178372 1.580773 -1.783522 -4.162935 0.388241 2.979660 2.163126 0.872311 4.910107 0.845263 1.306648 -4.608883 3.614486 1.892730 -2.158944 4.221537 2.112926 4.439835 3.361126 2.121809 -2.042357 -0.694292 1.407565 -0.995774 2.082684 -2.596871 -0.355047 1.562593 -0.702745 -4.972724 -1.777835 0.028188 2.763934 -3.400371 -3.868761 4.934166 3.180987 3.544124 -4.554541 2.653308 -1.631926 -4.380596 -2.061338 0.890895 -0.783164 -1.578837 0.049658 -4.459409 -3.907763 3.253412 -2.742693 3.896032 -0.841634 2.152505 -3.257487 -4.676661 -1.475231 3.964378 -1.776969 -3.241655 -2.368640 1.682498 -4.898193 -1.651995 3.434037 0.714423 -2.641467 3.264585 2.532254 0.953951 -2.111126 -2.168694 2.873661 4.340373 -1.041418 -2.322315 2.451477 0.412673 3.402757 4.930224
2.339675 1.827969 -0.830084 -2.366254 4.144819 4.286018 -4.909963 3.287893 2.110100 -2.303913 -3.744418 -0.400387 -1.772559 -4.721708 -4.757248 -4.463063 0.884513 -0.937658 0.866098 -4.802979 0.943471 2.259810 -2.185699 3.219393 0.109973 -1.368172 2.803210 -4.363517 3.247424 -2.307406 -4.091027 0.879051 4.249214 -0.560689 3.853176 4.228338 2.325802 2.430650 -2.543930 3.588654 0.777875 1.753728 -2.698065 -4.432975 0.624254 -1.268166 -1.866010 -0.472991 0.788797 2.681761 1.427538 -0.030321 -3.197218 0.033364 -2.242127 1.682701 0.430644 -0.873435 -3.962562 -1.288607 -1.143076 4.669401 -0.375286 2.329243 1.681809 -2.819871 4.945937 -4.716152 -4.226595 1.052854 1.243976 -3.694792 -3.809282 4.271916 2.551455 -1.166630 -2.019478 -3.593933 -1.777100 4.286018 0.849148 1.285444 0.601691 -3.620200 -4.198349 -0.533142 -3.377412 2.912137 -0.508276 4.043153 4.200167 -3.666183 2.965731 2.947092 -0.038983 -4.211515
1.635304 1.817291 -1.922222 -4.968166 2.936165 -0.883312 3.042029 -3.494748 4.515392 -2.023923 -3.352640 -0.796104 3.094457 -2.722609 0.803894 -1.378055 1.861462 -3.615505 -3.663771 -2.540645 0.325281 -1.306411 -3.968722 -2.659024 -3.501928 2.878947 -0.463884 -0.185370 -2.321526 -1.036856 2.787334 -0.965607 -0.157001 -3.834981 3.137267 1.339778 3.302318 -1.049958 2.093496 3.248379 3.908392 -2.757989 -2.585943 -2.859672 2.374759 2.747239 3.113345 0.894990 3.358449 1.325235 4.675932 -1.395183 -2.424645 -4.401482 0.919367 3.569260 -1.947294 -4.222720 0.189828 1.461590 0.814523 -2.369510 -4.720626 -2.016741 -2.179688 -4.862221 2.607811 -1.253368 0.014630 -3.938057 -4.294703 -0.382256 -4.540416 -3.648126 0.628385 -3.086236 -4.934311 1.864437 -2.667066 4.607880 -0.787784 -2.498675 -3.134123 -3.179635 3.103803 -3.246194 4.504142 4.600810 1.730244 0.598483 -0.639628 -4.025650 1.073922 1.308905 2.885421 1.963240
2.339675 1.827969 -0.830084 -2.366254 4.144819 4.286018 -4.909963 3.287893 2.110100 -2.303913 -3.744418 -0.400387 -1.772559 -4.721708 -4.757248 -4.463063 0.884513 -0.937658 0.866098 -4.802979 0.943471 2.259810 -2.185699 3.219393 0.109973 -1.368172 2.803210 -4.363517 3.247424 -2.307406 -4.091027 0.879051 4.249214 -0.560689 3.853176 4.228338 2.325802 2.430650 -2.543930 3.588654 0.777875 1.753728 -2.698065 -4.432975 0.909315 -0.837639 2.540899 1.439377 3.009427 -0.863726 2.840321 0.944140 -3.274002 2.747373 2.543380 0.859889 1.755724 4.411046 -0.824325 -3.790284 3.950001 -1.363751 -0.452247 4.619196 -1.343458 -0.779209 2.607811 -1.253368 0.014630 -3.938057 -4.294703 -0.382256 -4.540416 -3.648126 0.628385 -3.086236 -4.934311 1.864437 -2.667066 4.607880 -0.787784 -2.498675 -3.134123 -3.179635 3.969650 -3.246194 4.504142 4.600810 1.730244 0.598483 -0.639628 -4.025650 1.073922 2.141816 2.885421 1.963240
-0.274220 1.188941 0.236084 -2.499626 3.716761 4.674555 3.356808 -0.660748 1.815262 4.591868 4.358510 1.701998 0.452137 -1.650756 3.466941 2.483125 1.195816 -2.987910 0.092646 0.609584 2.519217 1.223095 4.764846 -0.200527 -4.879214 4.472318 -1.172148 1.615094 -4.703948 -1.675863 -3.214675 2.233857 -1.922128 3.170321 -1.616905 -4.713825 -3.286158 4.698526 -2.806981 -1.238708 4.562367 -2.780450 4.918269 -3.814147 3.873010 -2.899035 -4.162653 2.462390 1.666656 -4.472049 -0.686552 3.178774 -1.262629 1.289945 2.472916 3.823162 -2.311825 -1.279224 2.014268 -3.962883 -4.968723 4.247641 3.073613 0.129379 2.664865 -3.174821 0.565764 -0.153804 0.785202 0.682517 -3.160280 2.810993 -2.393577 1.433102 4.813474 -3.579796 -0.267379 -4.803282 -2.759995 4.374946 -3.304250 -0.557684 4.030853 -2.330267 -3.738864 -2.558899 -4.515285 4.276924 -0.277784 0.378822 4.308241 1.713804 -1.296380 -4.714039 -2.407228 1.447980
-1.394636 3.833957 3.827235 -3.000873 -3.436387 -1.954227 4.027266 2.264719 2.852820 -2.444750 -2.710049 -2.014120 -1.425715 -2.744653 -1.663419 2.907868 1.339604 3.678433 2.757205 -0.707672 -3.151462 -2.028568 -4.421013 4.113566 1.657410 -2.563983 -1.126462 1.904721 -0.737160 -1.543718 -3.746165 -1.985440 -0.947016 0.247979 -0.484186 -1.259669 -2.329279 2.685509 0.694004 -4.549095 -0.844355 -4.371695 1.905084 4.339926 2.298651 3.136380 -2.722357 2.901158 1.309470 0.483446 -1.320404 -2.503147 -3.701931 1.490215 2.813873 4.473978 0.489092 4.495876 -1.261801 4.402424 3.928135 2.318609 0.466249 3.602154 0.967089 -4.104108 -3.592600 0.053287 -3.938694 1.040066 -4.402999 -3.543153 -2.499962 3.101383 -0.174549 -4.355471 3.971692 4.180683 3.576159 -3.291766 1.681499 -0.498257 4.207837 1.213034 0.380932 2.988898 -0.495360 1.981800 3.417688 3.169866 4.470807 2.240590 -1.625496 4.740103 -0.638209 2.357174
4.920004 -1.943262 -3.683622 -4.939492 0.846699 -2.766191 -3.197447 -0.599899 -4.478250 1.334547 -0.040494 4.998061 1.024339 -3.522567 3.739965 -3.144308 0.097314 3.492044 4.530510 -3.226693 3.418847 -3.333316 -3.028237 1.989712 2.601654 -1.122413 -3.467966 3.093480 0.555522 0.056772 -0.063233 2.741683 -1.948107 4.677281 1.891394 2.608219 -0.648056 -4.992665 -1.816220 -0.272438 1.188364 -0.043638 3.509652 -1.686388 -3.195668 4.447084 -1.760908 -2.435344 -2.573525 -2.516895 -2.120464 1.621743 -3.397613 -2.595109 0.435468 1.824136 0.266860 -2.455973 4.088169 3.515369 -1.899820 1.506639 -0.284274 1.278314 -2.145693 0.670482 -2.666798 -1.976093 4.832352 -4.468438 1.470293 -1.655843 -1.236988 -3.766067 -4.916003 0.033985 2.432062 2.067576 -0.696815 0.817307 0.196105 -4.383621 -4.998775 -0.417178 -3.383469 1.087329 -0.802018 -3.214456 -2.472716 -2.240082 4.128645 3.614214 -3.072985 -3.746727 -3.988429 -4.356821
