-3.947101 -0.824909 0.869187 2.216878 0.333444 -4.988117 -3.300000 4.111496 4.076606 -3.436169 -3.217964 0.417459 4.185204 1.904631 2.447824 -4.512429 0.760808 4.367152 -0.775957 -4.471094 -4.223259 -1.363660 -0.853227 2.946587 -0.324728 -1.971901 -2.613998 2.306115 4.404245 -2.087644 1.851398 -3.174777 -0.809719 -0.229296 -0.286807 -1.371043 1.960483 -1.092392 -0.813596 -1.390128 1.188364 -0.043638 -1.745758 -1.686388 4.567670 4.447084 -2.005882 -2.435344 1.493548 -0.339443 -2.120464 1.621743 -3.297185 -0.460022 -3.487583 0.308935 0.886948 -3.872346 -0.831566 1.723339 3.194409 -0.631400 4.484341 4.619196 -1.343458 -0.889654 -2.702006 3.999651 0.785202 0.682517 -3.160280 -1.401890 -1.608275 1.526926 0.356730 3.715603 2.432062 2.067576 -0.696815 -4.606919 0.805632 4.206899 -4.998775 3.351812 2.172195 1.087329 0.447860 -3.214456 -1.346268 -2.240082 -0.627098 4.603406 -3.072985 4.137907 -2.407228 1.447980
-3.947101 -1.919713 0.869187 2.216878 0.333444 -4.988117 -3.300000 4.461592 4.076606 -3.436169 -3.217964 0.417459 4.185204 1.904631 2.447824 -4.512429 -2.064849 -0.457849 -0.775957 -4.471094 -1.587035 -1.363660 -2.939447 2.946587 -3.069255 1.690972 3.599999 -0.858206 3.671562 -2.087644 1.851398 -3.174777 -4.963508 -0.229296 -1.466376 -1.371043 -4.402274 -1.092392 -0.813596 -0.272438 1.188364 -0.043638 -1.745758 -1.686388 4.567670 4.447084 -4.555178 0.814750 1.493548 -0.339443 -2.120464 1.621743 -3.397613 -0.460022 -3.487583 0.308935 0.886948 0.054258 -0.831566 -4.890822 3.194409 -1.363751 4.484341 4.619196 -1.343458 -0.889654 -2.702006 3.999651 0.785202 0.978180 -3.160280 -1.401890 -1.608275 1.433102 0.356730 3.546898 2.432062 -1.074710 -0.696815 -3.449108 0.805632 -2.339496 2.641641 -0.417178 -4.869372 1.087329 1.758418 1.731121 -1.346268 -2.240082 0.854691 4.603406 -3.072985 -3.746727 -2.407228 1.447980
-3.947101 -0.824909 0.869187 2.216878 0.333444 -4.988117 -3.300000 4.111496 4.076606 -3.436169 -3.217964 0.417459 4.185204 1.904631 2.447824 -4.512429 0.760808 4.367152 -0.775957 -4.471094 -4.223259 -1.363660 -0.853227 2.946587 -0.324728 -1.971901 -2.613998 2.306115 4.404245 -2.087644 1.851398 -3.174777 -0.809719 -0.229296 -2.097683 -1.371043 3.993552 -1.092392 -0.813596 -0.272438 1.188364 -0.043638 -1.745758 -1.686388 4.567670 4.447084 -4.555178 -2.435344 1.493548 -0.339443 -2.120464 1.621743 -3.297185 -0.460022 -3.487583 0.308935 0.886948 -3.872346 -0.831566 1.723339 3.194409 -0.631400 4.484341 4.619196 -1.343458 -0.889654 -2.702006 3.999651 3.973303 0.682517 -3.160280 -1.401890 -1.608275 1.433102 0.356730 3.546898 2.432062 2.067576 -0.696815 -4.606919 -1.003187 -2.339496 -4.998775 -0.417178 -3.383469 1.087329 0.447860 -4.196638 -1.346268 -2.240082 0.854691 4.826315 -3.072985 -3.746727 -2.407228 1.447980
-3.947101 -0.824909 0.869187 2.216878 0.333444 -4.988117 -3.300000 4.461592 4.076606 -3.436169 -3.217964 0.417459 4.185204 -1.017854 2.447824 -4.512429 0.760808 -0.962072 -0.775957 -4.471094 -4.223259 -3.979323 -0.853227 2.946587 -3.069255 2.117936 3.599999 2.306115 4.404245 -2.087644 1.851398 -3.174777 -4.963508 -0.229296 -1.466376 -1.371043 1.960483 -1.092392 -0.813596 -1.390128 1.188364 -0.043638 -1.745758 4.989248 4.567670 4.447084 -2.005882 -2.435344 1.493548 -0.339443 -2.120464 1.621743 -3.397613 -0.460022 -3.487583 0.308935 3.650671 -0.021207 -0.831566 4.128611 3.194409 -1.363751 4.484341 4.619196 -1.343458 -0.889654 3.085864 3.999651 0.785202 0.682517 -3.160280 -1.401890 2.059668 1.433102 -3.237479 3.546898 2.432062 2.067576 -0.696815 -3.839274 0.805632 4.965316 -4.998775 -0.417178 -3.383469 1.087329 0.447860 -4.196638 -1.346268 -2.240082 0.854691 4.826315 -3.072985 -3.746727 -2.407228 1.447980
-3.947101 -0.824909 0.869187 1.347690 0.333444 -4.988117 -3.300000 4.111496 4.076606 -3.436169 -3.217964 0.417459 4.185204 1.904631 2.447824 -4.512429 0.760808 4.367152 -0.775957 -4.471094 -4.223259 -1.363660 -0.853227 2.946587 -0.324728 -1.971901 -2.613998 2.306115 4.404245 -2.087644 1.851398 -3.174777 -0.809719 -0.229296 -2.097683 -1.371043 3.993552 -1.092392 -0.813596 -0.272438 1.188364 -0.043638 -4.888505 -1.686388 4.567670 4.447084 -4.555178 -2.435344 1.493548 -0.339443 -2.120464 1.621743 -3.297185 -0.460022 -3.487583 0.308935 0.886948 -3.872346 -0.831566 1.723339 3.194409 -0.631400 4.484341 4.619196 -1.343458 -0.889654 -2.702006 3.909249 0.785202 -4.142091 -3.160280 -1.401890 -1.608275 1.433102 0.356730 3.546898 2.432062 1.040407 -3.136386 -3.449108 -1.003187 -2.339496 -4.998775 -0.417178 -3.383469 1.087329 0.447860 -4.196638 -1.346268 -2.240082 0.854691 4.826315 -3.072985 -3.746727 -2.407228 1.447980
-3.947101 -0.824909 0.869187 2.216878 0.333444 -4.988117 -3.300000 4.111496 -1.922669 -3.436169 -3.217964 0.417459 4.185204 1.904631 2.447824 -2.603265 -2.064849 -0.457849 -0.775957 -4.471094 -4.223259 -1.363660 -0.853227 2.946587 -3.069255 2.117936 3.599999 2.306115 -1.014687 -2.087644 1.851398 -3.174777 0.817767 -0.229296 -1.466376 -1.371043 1.960483 -1.092392 -0.813596 -1.390128 1.188364 -3.246820 -1.745758 -1.686388 4.567670 4.447084 -2.005882 -2.435344 1.493548 -0.339443 -2.120464 1.621743 -3.297185 -0.460022 -3.487583 0.308935 0.886948 -3.872346 -0.831566 1.723339 3.194409 -0.631400 4.484341 4.619196 -1.343458 -0.889654 -2.702006 3.999651 0.785202 0.682517 -3.160280 -1.401890 3.160025 1.526926 0.356730 3.715603 2.432062 2.067576 -0.696815 -4.606919 0.805632 -0.557684 -4.998775 3.351812 -3.268099 1.087329 0.447860 -3.214456 -1.346268 -2.240082 -0.627098 4.603406 -3.072985 -3.746727 -2.407228 1.447980
-3.947101 -0.824909 0.869187 2.216878 0.333444 -4.988117 -3.300000 4.111496 4.076606 -3.436169 -3.217964 0.417459 4.185204 1.904631 2.447824 -4.512429 0.760808 4.367152 -0.775957 -4.471094 -4.223259 -1.363660 -0.853227 2.946587 -0.324728 -1.971901 -2.613998 2.306115 4.404245 -2.087644 -2.449253 -3.174777 -0.809719 -0.229296 -2.097683 -1.371043 3.993552 -1.092392 -0.813596 -0.272438 1.188364 -0.043638 -1.745758 -1.686388 4.567670 4.447084 -4.555178 -2.435344 1.493548 -0.339443 -2.120464 1.621743 -3.297185 -0.460022 -3.487583 0.308935 0.886948 -3.872346 -0.831566 1.723339 3.194409 -0.631400 4.484341 4.619196 -1.343458 -0.889654 -2.702006 3.999651 3.973303 0.682517 -3.160280 -1.401890 -1.608275 1.433102 0.356730 3.546898 2.432062 2.067576 -0.696815 -3.449108 -1.003187 -2.339496 -4.998775 -0.417178 -3.383469 1.087329 -0.084706 -3.214456 3.362587 -3.263427 4.380568 4.603406 -3.072985 -3.746727 -2.407228 1.447980
-3.947101 -0.824909 0.869187 -3.520256 0.333444 -4.988117 -3.300000 4.111496 4.076606 -3.436169 -3.217964 0.417459 4.185204 1.904631 2.447824 -4.512429 2.744468 -0.457849 -0.775957 -4.471094 -4.223259 -1.363660 -0.853227 2.946587 -3.069255 2.117936 3.413363 2.306115 4.404245 -2.087644 -0.763753 -3.174777 0.817767 -0.229296 -0.286807 -1.371043 1.960483 -1.092392 -0.813596 -1.390128 1.188364 -0.043638 -1.745758 -1.686388 4.567670 4.447084 -2.005882 -2.435344 1.493548 -0.339443 -2.120464 1.621743 -3.297185 -0.460022 -3.487583 0.308935 0.886948 -3.872346 -0.831566 1.723339 3.194409 -0.631400 4.484341 4.619196 -1.343458 -0.889654 -2.702006 3.999651 0.785202 0.682517 -3.160280 -1.401890 2.059668 1.433102 -3.237479 3.546898 2.432062 2.067576 -0.696815 -3.449108 0.805632 -0.557684 -4.998775 3.351812 -3.268099 1.087329 0.447860 -3.214456 -1.346268 -2.240082 -0.627098 4.603406 -3.072985 -3.746727 -2.407228 1.447980
-3.947101 -1.919713 0.869187 2.216878 0.333444 -4.988117 -3.300000 4.111496 4.076606 -3.436169 -3.217964 0.417459 4.185204 1.904631 2.447824 -4.512429 3.976610 4.367152 -0.775957 -4.471094 -4.223259 -1.363660 -0.853227 2.946587 -0.324728 -1.971901 -2.613998 2.306115 4.404245 -2.087644 1.851398 -3.174777 -0.809719 -0.229296 -2.097683 -1.371043 1.960483 -1.092392 -0.813596 -0.272438 1.188364 -0.043638 -1.745758 -1.686388 4.567670 4.447084 -1.737573 -2.435344 1.493548 -0.339443 -2.120464 1.621743 -3.397613 -0.460022 -3.487583 0.308935 3.650671 -0.021207 -0.831566 -4.890822 3.194409 -1.363751 4.484341 4.619196 -3.912845 -0.889654 -2.702006 3.999651 0.785202 0.682517 -3.160280 -1.401890 -1.608275 1.433102 0.356730 3.546898 2.432062 0.841379 -0.696815 -3.449108 -1.003187 -2.339496 -4.998775 -0.417178 -3.383469 1.087329 0.447860 -4.196638 -1.346268 -2.240082 0.854691 4.826315 -3.072985 -3.746727 -2.407228 1.447980
-3.947101 -0.824909 0.869187 2.909978 0.333444 -4.988117 -3.300000 4.461592 4.076606 -3.436169 -3.217964 0.417459 4.185204 1.904631 -4.137064 -4.512429 4.185047 -0.457849 -0.775957 -4.471094 -1.587035 -1.363660 -0.853227 -4.872133 -3.069255 2.117936 3.599999 0.217451 1.322642 -2.087644 1.851398 -3.174777 -4.963508 -0.229296 -1.466376 -1.371043 -4.402274 -1.092392 -0.813596 -0.272438 1.188364 -0.043638 -1.745758 -1.686388 4.567670 4.447084 -4.555178 -2.435344 1.493548 -0.339443 -2.120464 1.621743 -3.397613 -0.460022 -3.487583 0.308935 3.650671 -0.021207 -0.831566 -4.890822 3.194409 -1.414424 4.484341 4.619196 -1.343458 -0.889654 -2.702006 3.999651 0.785202 0.682517 -3.160280 -1.401890 2.059668 1.433102 -3.237479 3.546898 2.432062 2.067576 -0.696815 -3.449108 -1.003187 -2.339496 -2.106478 -0.417178 -4.869372 0.146084 0.447860 -3.214456 -1.346268 -2.240082 0.854691 4.603406 -3.072985 -3.746727 -2.407228 1.447980
-3.947101 -0.824909 0.869187 2.216878 0.333444 -4.988117 -3.300000 4.111496 4.076606 -3.436169 -3.217964 0.417459 4.185204 1.904631 2.447824 -4.512429 0.760808 4.367152 -0.775957 -4.471094 -4.223259 -1.363660 -0.853227 2.946587 -0.324728 -1.971901 -2.613998 2.306115 4.404245 -2.087644 1.851398 -3.174777 -0.809719 -0.229296 -2.097683 -1.371043 3.993552 -1.092392 -0.813596 -0.272438 1.188364 -0.043638 -1.745758 -1.686388 4.567670 4.447084 -4.555178 -2.435344 1.493548 -0.339443 -2.120464 1.621743 -3.297185 -0.460022 -3.487583 0.308935 0.886948 -3.872346 -0.831566 1.723339 3.194409 -0.631400 4.484341 4.619196 -1.343458 -0.889654 -2.702006 3.999651 3.973303 0.682517 -3.160280 -1.401890 -1.608275 1.433102 0.356730 3.546898 2.432062 2.067576 -0.696815 -4.606919 0.805632 4.965316 -4.998775 -0.417178 -3.383469 1.087329 0.447860 -4.196638 -1.346268 -2.240082 0.854691 4.826315 -3.072985 -3.746727 -2.407228 1.447980
-3.947101 -0.824909 0.869187 2.216878 0.333444 -4.988117 -3.300000 4.111496 4.076606 -3.436169 -3.217964 0.417459 4.185204 1.904631 2.447824 -4.512429 0.760808 4.367152 -0.775957 -4.471094 -4.223259 -1.363660 -0.853227 2.946587 -0.324728 -1.971901 -2.613998 2.306115 4.404245 -2.087644 1.851398 -3.174777 4.200496 -0.229296 -1.466376 -1.371043 1.960483 -1.092392 -0.813596 -1.390128 1.188364 -0.043638 -1.745758 -1.686388 4.567670 4.447084 -2.005882 -2.435344 1.493548 -3.640090 -2.120464 -0.756140 -3.397613 -0.460022 -3.487583 0.308935 3.650671 -0.021207 -0.831566 4.128611 3.194409 -1.363751 4.484341 4.619196 -1.343458 -0.889654 -2.702006 3.999651 0.785202 0.682517 -3.160280 -1.401890 2.059668 1.433102 0.126373 3.546898 2.432062 2.067576 -0.696815 -3.449108 -1.003187 -2.339496 -2.106478 -0.417178 -4.869372 0.146084 0.447860 -3.214456 -1.346268 -2.240082 0.854691 4.603406 -3.072985 -3.746727 -2.407228 1.447980
-3.947101 -0.824909 0.869187 2.216878 0.333444 -4.988117 -3.300000 4.111496 4.076606 -3.436169 -3.217964 0.417459 4.185204 1.904631 2.447824 -4.512429 0.760808 4.367152 -0.775957 -4.471094 -4.223259 -1.363660 -0.853227 2.946587 -0.324728 -1.971901 -2.613998 2.306115 4.404245 -2.087644 1.851398 -3.174777 -0.809719 -0.229296 -2.097683 1.627462 3.993552 -1.092392 -0.813596 -0.272438 1.188364 -0.043638 -1.745758 -1.686388 -2.182477 4.447084 3.497419 1.437407 1.493548 -0.339443 -2.120464 1.621743 -3.397613 -0.460022 -3.487583 0.308935 0.886948 0.054258 -0.831566 -4.890822 3.194409 -1.363751 4.484341 4.619196 -1.343458 -0.889654 -2.702006 3.999651 0.785202 0.978180 -3.160280 -1.401890 -1.608275 1.433102 0.356730 3.546898 2.432062 -1.074710 -0.696815 -3.449108 0.805632 -2.339496 2.641641 -0.417178 -4.869372 0.146084 0.447860 -3.214456 -1.666154 -2.240082 0.854691 4.603406 -3.072985 -3.746727 -2.407228 1.447980
-3.947101 -0.824909 0.869187 0.538746 0.333444 -4.988117 -3.300000 4.111496 4.076606 -3.436169 -3.217964 0.417459 4.185204 1.904631 2.447824 -4.512429 0.760808 4.367152 -0.775957 -4.471094 -4.223259 -1.363660 -0.853227 2.946587 -0.324728 -1.971901 -2.613998 2.306115 4.404245 -2.087644 1.851398 -3.174777 -0.809719 -0.229296 -1.466376 -1.371043 -4.402274 -1.092392 -0.813596 -0.272438 1.188364 -0.043638 -1.745758 -1.686388 4.567670 4.447084 -4.555178 -2.435344 1.493548 -0.339443 -2.120464 1.621743 -3.397613 -0.460022 -3.487583 0.308935 0.886948 0.054258 -0.831566 -4.890822 3.194409 -1.363751 4.484341 4.619196 -1.343458 -0.889654 -2.702006 3.999651 0.785202 0.978180 -3.160280 -1.401890 -1.608275 1.433102 0.356730 3.546898 2.432062 -1.074710 -0.696815 -3.449108 0.805632 -2.339496 2.641641 -0.417178 -4.869372 0.146084 0.447860 -3.214456 -1.346268 -2.240082 0.854691 4.603406 -3.072985 -3.746727 -2.407228 1.447980
-3.947101 -0.824909 0.869187 2.216878 0.333444 -4.988117 -3.300000 4.111496 4.076606 -3.436169 -1.182990 0.417459 4.185204 1.904631 2.447824 -4.512429 2.744468 -0.457849 -0.775957 -4.471094 -4.223259 -1.363660 -0.853227 2.946587 -3.069255 2.117936 3.599999 2.306115 1.322642 4.750495 1.851398 -3.174777 4.200496 -0.229296 -1.466376 -1.371043 1.960483 -1.092392 -0.813596 -1.390128 1.188364 -0.043638 -1.745758 -1.686388 4.567670 4.447084 -2.005882 -2.435344 1.493548 -0.339443 -2.120464 1.621743 -3.397613 -0.460022 -3.487583 0.308935 3.650671 -0.021207 -0.831566 4.128611 3.194409 -1.363751 4.484341 4.619196 -1.343458 -0.889654 -2.702006 3.999651 0.785202 0.682517 -3.160280 -1.401890 2.059668 1.433102 -3.237479 3.546898 2.432062 2.067576 -0.696815 -3.449108 -1.003187 -2.339496 -2.106478 -0.417178 -4.869372 0.146084 0.447860 -3.214456 -1.346268 -2.240082 0.854691 4.603406 -3.072985 -3.746727 -2.407228 1.447980
-3.947101 -0.824909 0.869187 2.216878 0.333444 -4.988117 -3.300000 4.111496 4.076606 0.129901 -3.217964 0.417459 4.185204 1.904631 2.447824 -4.512429 2.744468 -0.457849 -0.775957 -4.471094 -4.223259 -1.363660 -0.853227 2.946587 -3.069255 2.117936 3.599999 2.306115 4.404245 -2.087644 -0.763753 -3.174777 0.817767 -0.229296 -0.286807 -1.371043 1.960483 -1.092392 -0.813596 -1.390128 1.188364 -0.043638 -1.745758 -1.686388 4.567670 4.447084 -2.005882 -2.435344 1.493548 -0.339443 -2.120464 1.621743 -3.297185 -0.460022 -3.487583 0.308935 0.886948 -3.872346 4.592169 1.723339 3.194409 -0.631400 4.484341 4.619196 -1.343458 -0.889654 -2.702006 3.999651 0.785202 0.978180 -3.160280 -1.401890 -1.608275 1.433102 0.356730 3.546898 2.432062 -1.074710 -0.696815 -3.449108 0.805632 -2.339496 2.641641 -0.417178 -4.869372 1.087329 0.447860 -3.214456 -1.346268 -2.240082 -0.627098 4.603406 -3.072985 -3.746727 -2.407228 1.447980
-3.947101 -0.824909 0.869187 2.216878 0.333444 -4.988117 -3.300000 4.111496 4.076606 -3.436169 -3.217964 0.417459 4.185204 1.904631 2.447824 -4.512429 0.760808 4.367152 -0.775957 -4.471094 -4.223259 -1.363660 -0.853227 2.946587 -0.324728 -1.971901 -2.613998 2.306115 4.404245 -2.087644 1.851398 -3.174777 -0.809719 -0.229296 -2.097683 -1.371043 3.993552 -1.092392 -0.813596 -0.272438 1.188364 -0.043638 -1.745758 -1.686388 -2.182477 4.447084 3.497419 1.437407 1.493548 -0.339443 -2.120464 1.621743 -3.397613 -0.460022 -3.487583 0.308935 0.886948 0.054258 -0.831566 -4.890822 3.194409 -1.363751 4.484341 4.619196 -1.343458 -2.752421 -2.702006 3.999651 0.785202 0.978180 -3.160280 -1.401890 -1.608275 1.433102 0.356730 3.546898 2.432062 -1.074710 -0.696815 -3.449108 0.805632 -2.339496 2.641641 -0.417178 -4.869372 0.146084 0.447860 -3.214456 -1.346268 -2.240082 0.854691 4.603406 -3.072985 -3.746727 -2.407228 1.447980
-3.947101 -0.824909 0.869187 2.216878 0.333444 -4.988117 -3.300000 4.111496 4.076606 -3.436169 -3.217964 0.417459 4.185204 1.904631 2.447824 3.234611 2.744468 -0.457849 -0.775957 -4.471094 -4.223259 -1.363660 -0.853227 2.946587 -3.069255 2.117936 3.599999 2.306115 4.404245 -2.087644 -0.763753 -3.174777 -4.963508 -0.229296 -1.466376 -1.371043 1.960483 -1.092392 -0.813596 -1.390128 1.188364 -0.043638 -2.119823 -1.686388 4.567670 4.447084 -2.005882 -2.435344 1.493548 -0.339443 -2.120464 1.621743 -3.397613 -0.460022 -3.487583 0.308935 3.650671 -0.021207 -0.831566 -4.890822 3.194409 -1.363751 4.484341 4.619196 -3.912845 -0.889654 -2.702006 3.999651 0.785202 0.682517 -3.160280 -1.401890 -1.608275 1.433102 0.356730 3.546898 2.432062 0.841379 -0.696815 -3.449108 -1.003187 -2.339496 -4.998775 -0.417178 -3.383469 1.087329 0.447860 -4.196638 -1.346268 -2.240082 0.854691 4.826315 -0.790480 -3.746727 -2.407228 1.447980
-3.947101 -0.824909 0.869187 2.216878 0.333444 -4.988117 -3.300000 4.111496 4.076606 -3.436169 -3.217964 0.417459 4.185204 1.904631 2.447824 -4.512429 0.760808 4.367152 -0.775957 -4.471094 -4.223259 -1.363660 -0.853227 2.946587 1.560438 -1.971901 -2.613998 2.306115 4.404245 -2.087644 1.851398 -3.174777 -0.809719 -0.229296 -3.974209 -1.371043 3.993552 -1.092392 -0.813596 -0.272438 1.188364 -0.043638 -1.745758 -1.686388 4.567670 4.447084 -4.555178 -2.435344 1.493548 -0.339443 -2.120464 1.621743 -3.297185 -0.460022 -3.487583 0.308935 -2.008198 -3.872346 -0.831566 4.128611 3.194409 -1.363751 4.484341 4.619196 -1.343458 -0.889654 -2.702006 3.999651 0.785202 0.682517 -3.160280 -1.401890 2.059668 1.433102 -3.237479 3.546898 2.432062 2.067576 -0.696815 -3.449108 -1.003187 -2.339496 -2.106478 -0.417178 -4.869372 0.146084 0.447860 -3.214456 -1.346268 -2.240082 0.854691 4.603406 -3.072985 -3.746727 -2.407228 1.447980
-3.947101 -0.824909 0.869187 2.216878 0.333444 -2.252109 -3.300000 4.111496 4.076606 -3.436169 -3.217964 0.417459 4.185204 1.904631 2.447824 -4.512429 0.760808 4.367152 -0.775957 -4.471094 -4.223259 -1.363660 -0.853227 2.946587 -0.324728 -1.971901 -2.613998 2.306115 4.404245 -2.087644 1.851398 -3.174777 -0.809719 -0.229296 -2.097683 -1.371043 3.993552 -1.092392 -0.813596 -0.272438 1.188364 -0.043638 -1.745758 -1.686388 4.567670 4.447084 -4.555178 -2.435344 1.493548 -0.339443 -2.120464 1.621743 -3.297185 2.777727 -3.487583 0.308935 3.650671 -0.021207 -0.831566 -4.890822 3.194409 -1.363751 4.484341 4.619196 -1.343458 -0.889654 -2.702006 3.999651 0.785202 0.682517 -3.160280 -1.401890 -1.608275 1.433102 0.356730 3.546898 2.432062 2.067576 -0.696815 -3.449108 -1.003187 -2.339496 -4.998775 -0.417178 -3.383469 1.087329 0.447860 -4.196638 -1.346268 -2.240082 1.579172 4.826315 -3.072985 -3.746727 -0.680560 1.447980
-3.947101 -1.919713 3.827235 -3.000873 -3.436387 -2.506441 -2.252751 2.513847 -3.002520 -2.444750 0.315167 -2.014120 -1.425715 -3.740443 -4.381770 -2.391259 0.760808 4.367152 -3.062828 -4.471094 -4.223259 -2.466594 -2.528676 2.946587 -0.324728 -1.971901 -2.613998 2.306115 4.404245 -2.087644 1.851398 -0.085893 -0.809719 -0.229296 -2.097683 -1.371043 3.993552 -3.021377 1.940633 -0.272438 1.188364 -0.043638 -1.745758 -1.686388 4.567670 4.447084 -4.555178 -2.435344 -4.245901 -0.339443 -2.120464 1.621743 -3.297185 -0.460022 -3.487583 0.308935 0.886948 -3.872346 -0.831566 1.723339 3.194409 -0.631400 4.484341 4.619196 -1.343458 -0.889654 -2.702006 3.999651 3.973303 0.682517 -3.160280 -1.401890 -1.608275 1.433102 4.837192 3.546898 2.432062 2.067576 -0.696815 -4.606919 0.805632 4.965316 -4.998775 -0.417178 -3.383469 1.087329 0.447860 -4.196638 -1.346268 -2.240082 0.854691 4.826315 -3.072985 -3.746727 -2.407228 1.447980
-3.947101 -1.919713 0.869187 2.216878 0.333444 -4.988117 -3.300000 4.461592 4.076606 -3.436169 -3.217964 0.417459 4.185204 1.904631 -4.137064 -4.512429 4.185047 -0.457849 -0.775957 -4.471094 -1.587035 -1.363660 -0.853227 2.946587 -3.069255 1.690972 3.599999 2.306115 1.322642 -2.087644 1.851398 1.132375 -4.963508 -0.229296 -1.466376 -1.371043 -4.402274 -1.092392 -0.813596 -0.272438 1.188364 -0.043638 -1.745758 -1.686388 4.567670 4.447084 -2.005882 -2.435344 1.493548 -0.339443 -2.120464 1.621743 -3.297185 -0.460022 -3.487583 0.308935 0.886948 -3.872346 -0.831566 -2.707510 3.194409 -0.631400 4.484341 4.619196 -1.343458 -0.889654 -2.702006 3.999651 0.785202 0.682517 -3.160280 -1.401890 -1.608275 1.526926 0.356730 3.715603 2.432062 2.067576 -0.696815 -4.606919 0.805632 -0.557684 -4.998775 3.351812 -3.268099 1.087329 0.447860 -3.214456 -1.346268 -2.240082 -0.627098 4.603406 -3.072985 -3.746727 -2.407228 1.447980
-3.947101 -0.824909 0.869187 2.216878 0.333444 -4.988117 -3.300000 4.111496 4.076606 -3.436169 -3.217964 0.417459 4.185204 1.904631 2.447824 -4.512429 0.760808 4.367152 -0.775957 -4.471094 -4.223259 -1.363660 -0.853227 3.299299 -0.324728 -1.971901 -2.613998 2.306115 4.404245 -2.087644 0.645345 -3.174777 -0.809719 -0.229296 -2.097683 -1.371043 3.993552 -1.092392 -0.813596 -0.272438 1.188364 -0.043638 -1.745758 -1.686388 -2.182477 4.447084 3.497419 1.437407 1.493548 -0.339443 -2.120464 1.621743 -3.397613 -0.460022 -3.487583 0.308935 0.886948 0.054258 -0.831566 -4.890822 3.194409 -1.363751 4.484341 4.619196 -1.343458 -0.889654 -2.702006 3.999651 0.785202 0.978180 -3.160280 -1.401890 -1.608275 1.433102 0.356730 3.546898 2.432062 -1.074710 -0.696815 -3.449108 0.805632 -2.339496 2.641641 -0.417178 -4.869372 0.146084 0.447860 -3.214456 -1.346268 -2.240082 0.854691 4.603406 -3.072985 -3.746727 -2.407228 1.447980
-3.947101 3.000379 0.292857 2.216878 0.333444 -4.988117 -3.300000 4.461592 4.076606 4.240611 0.315167 1.845335 4.185204 1.904631 2.447824 -4.512429 4.185047 -1.860427 -0.775957 -4.471094 -1.587035 -1.363660 -0.853227 2.946587 -3.069255 2.117936 3.599999 2.306115 1.322642 -2.087644 1.851398 -3.174777 4.200496 -0.229296 -1.466376 -1.371043 1.960483 -1.092392 -0.813596 -1.390128 1.188364 -0.043638 -1.745758 -1.686388 4.567670 4.447084 -2.005882 -2.435344 1.493548 -0.339443 -2.120464 1.621743 -3.397613 -0.460022 -3.487583 0.308935 3.650671 -0.021207 -0.831566 4.128611 3.194409 -2.421839 4.484341 4.619196 -1.343458 -0.889654 -0.503328 3.999651 0.785202 0.682517 -3.160280 -1.401890 2.059668 1.433102 -3.237479 3.546898 2.432062 2.067576 -0.696815 -3.449108 -1.003187 -2.339496 -2.106478 -0.417178 -4.869372 0.146084 0.447860 -3.214456 -1.346268 -2.240082 0.854691 4.603406 -3.072985 -3.746727 -2.407228 1.447980
-3.947101 -1.919713 3.827235 -3.000873 -3.436387 -2.506441 -2.252751 2.513847 -1.211978 -2.444750 0.315167 -2.014120 -1.425715 -3.740443 -4.381770 -2.391259 0.760808 4.367152 -0.775957 -4.471094 -4.223259 -2.466594 -2.528676 2.946587 -0.324728 -1.971901 -2.613998 2.306115 4.404245 -2.087644 1.851398 -3.174777 -0.809719 -0.229296 -2.097683 -1.371043 3.993552 -3.021377 -0.813596 -0.272438 1.188364 -0.043638 -1.745758 -1.686388 0.039416 4.447084 -4.555178 -2.435344 -4.245901 -0.339443 -2.120464 1.396343 -3.297185 -0.460022 -3.487583 0.308935 0.886948 -3.872346 -0.831566 1.723339 3.194409 -0.631400 4.484341 4.619196 -1.343458 -0.889654 -2.702006 3.999651 3.973303 0.682517 -3.160280 -3.006875 -1.608275 1.433102 -3.237479 3.546898 2.824639 2.067576 -0.696815 -3.449108 -1.003187 -2.339496 -2.106478 -0.417178 -4.869372 0.146084 0.447860 -3.214456 -1.346268 -2.240082 0.854691 4.603406 -3.072985 -3.746727 -2.407228 1.447980
-3.947101 -1.919713 0.869187 2.216878 0.333444 -4.405962 -3.300000 4.461592 -4.047343 -3.436169 -3.217964 0.417459 4.185204 1.904631 2.447824 -4.512429 -2.064849 -0.457849 -0.775957 -4.471094 -1.587035 -1.363660 -2.939447 2.946587 -3.069255 1.690972 3.599999 -0.858206 3.671562 -2.087644 1.851398 -3.174777 -4.963508 -0.229296 -1.466376 -1.371043 -4.402274 -1.092392 -0.813596 -0.272438 1.188364 -0.043638 -1.745758 -1.686388 4.567670 4.447084 -4.555178 -2.435344 1.493548 -0.339443 -2.120464 1.621743 -3.397613 -0.460022 -3.487583 0.308935 0.886948 -3.872346 -0.831566 1.723339 3.194409 -0.631400 4.484341 4.619196 -1.343458 -0.889654 -2.702006 3.999651 3.973303 0.682517 -3.160280 -1.401890 -1.608275 1.433102 0.356730 3.546898 2.432062 2.067576 -0.696815 -4.606919 0.805632 4.965316 -2.225358 -3.038512 -3.383469 1.087329 0.447860 -4.196638 -0.170078 -2.240082 0.854691 0.452778 -3.072985 -3.746727 -2.407228 -2.874480
0.669623 -0.824909 0.869187 -3.638686 0.333444 -4.988117 -3.300000 4.111496 4.076606 -3.436169 -3.217964 0.417459 4.185204 1.904631 2.447824 -4.512429 -2.064849 -0.457849 -0.775957 -4.471094 -1.587035 -1.363660 -0.853227 2.946587 -3.069255 1.690972 3.599999 2.306115 3.671562 -2.087644 1.851398 -3.174777 -4.963508 -0.229296 -1.466376 -1.371043 -4.402274 -1.092392 -0.813596 -0.272438 1.188364 -0.043638 -1.745758 -1.686388 4.567670 2.206855 -2.005882 -2.435344 1.493548 -0.339443 -2.120464 1.621743 -3.397613 -2.635296 -0.767644 0.308935 3.650671 -0.021207 -0.831566 -4.890822 3.194409 -1.363751 4.484341 4.619196 -1.343458 -0.889654 -2.702006 3.999651 0.785202 0.682517 -3.160280 -1.401890 -1.608275 1.526926 0.356730 3.715603 2.432062 2.241966 -0.696815 -4.606919 0.805632 -0.557684 -4.998775 3.351812 -3.268099 1.087329 0.447860 -3.214456 -1.346268 -2.240082 0.854691 4.826315 -3.072985 -3.746727 -2.407228 1.447980
-3.947101 -0.824909 0.869187 2.216878 0.333444 -4.988117 -3.300000 4.111496 4.076606 -3.436169 -3.217964 0.417459 4.185204 1.904631 2.447824 -4.512429 0.760808 4.367152 -0.775957 -4.471094 -4.223259 -1.363660 -0.853227 2.946587 -0.324728 -1.971901 -2.613998 2.306115 4.404245 -2.087644 1.851398 -3.174777 -0.809719 -0.229296 -2.097683 -1.371043 1.960483 -1.092392 -0.813596 -0.272438 1.188364 -0.043638 -1.745758 -1.686388 4.567670 4.447084 -4.555178 -2.435344 1.493548 -0.339443 -2.120464 1.621743 -3.297185 -0.460022 -3.487583 0.308935 0.886948 -3.872346 -0.831566 1.723339 3.194409 -0.631400 4.484341 4.619196 -1.343458 -0.889654 -2.702006 2.349903 3.973303 0.682517 -0.613324 3.067247 -1.608275 1.433102 0.356730 3.546898 2.432062 -1.074710 -0.696815 -3.449108 0.805632 -0.569718 2.641641 -0.417178 -4.869372 0.146084 0.447860 -3.214456 -1.666154 -2.240082 0.854691 4.603406 -3.072985 -3.746727 -2.407228 1.447980
-3.947101 -0.824909 0.869187 2.216878 0.333444 -4.988117 -3.300000 4.111496 4.076606 -3.436169 -3.217964 0.417459 4.185204 1.904631 2.447824 -4.512429 2.744468 -0.457849 -0.775957 -4.471094 -4.223259 -1.363660 -0.853227 2.946587 -3.069255 2.117936 3.599999 2.306115 4.404245 -2.087644 -0.763753 -3.174777 0.817767 -0.229296 -0.286807 -1.371043 1.960483 -1.092392 -0.813596 -1.390128 1.188364 -3.635967 -1.745758 -1.686388 4.567670 4.447084 -2.005882 -2.435344 1.493548 -0.339443 -2.120464 1.621743 -3.297185 -0.460022 -3.487583 0.308935 0.886948 -3.872346 -0.831566 1.723339 3.194409 -0.631400 4.484341 4.619196 -1.343458 -0.889654 -2.702006 3.999651 0.785202 0.682517 -3.160280 -3.361395 -1.608275 1.526926 0.356730 3.715603 2.432062 2.067576 -0.696815 -4.606919 0.805632 -0.557684 -4.998775 3.351812 -3.268099 1.087329 0.447860 -3.214456 -1.346268 -2.240082 -0.627098 4.603406 -3.072985 -3.746727 -2.407228 1.447980
-3.947101 -0.824909 0.869187 2.216878 0.333444 -4.988117 -4.259038 4.111496 4.076606 -3.436169 -3.217964 0.417459 4.185204 1.904631 2.447824 -4.512429 0.760808 4.367152 -0.775957 -4.471094 -4.223259 -1.363660 -0.853227 2.946587 1.560438 -1.971901 -2.613998 2.306115 4.404245 -2.087644 1.851398 -3.174777 -1.723401 -0.229296 -2.097683 -1.371043 3.993552 -1.092392 -0.813596 -0.272438 1.188364 -0.043638 -1.745758 -1.686388 4.567670 4.447084 -4.555178 -2.435344 1.493548 -0.339443 -2.120464 1.621743 -3.297185 -0.460022 -3.487583 0.308935 0.886948 -3.872346 -0.831566 1.723339 3.194409 -1.363751 4.484341 4.619196 -1.343458 -0.889654 -2.702006 3.999651 0.785202 0.682517 -3.160280 -1.401890 2.059668 1.433102 -3.237479 3.546898 2.432062 2.067576 -0.696815 -4.606919 0.805632 4.965316 -4.998775 -0.417178 -3.383469 1.087329 0.447860 -4.196638 -1.346268 -2.240082 0.854691 4.826315 -3.072985 -3.746727 -2.407228 -2.398115
-3.947101 -1.919713 3.827235 -3.000873 -3.436387 -2.506441 -2.252751 2.513847 -1.211978 -2.444750 0.315167 -2.014120 -1.425715 -3.740443 -4.381770 -2.391259 0.760808 -0.457849 -0.775957 -4.471094 -4.223259 -1.363660 -0.853227 2.946587 -3.069255 2.117936 3.599999 2.306115 4.404245 -2.087644 -0.763753 -3.174777 0.817767 -0.229296 -0.286807 -1.371043 1.960483 -1.092392 -0.813596 -1.390128 1.188364 -0.043638 -1.745758 -1.686388 4.567670 4.447084 -2.005882 -2.435344 1.493548 -0.339443 -2.120464 1.621743 -3.297185 -0.460022 -3.487583 0.308935 0.886948 -3.872346 -0.831566 1.723339 3.194409 -0.631400 4.484341 4.619196 -1.343458 -0.889654 -2.702006 3.999651 0.785202 0.682517 -3.160280 -1.401890 -1.608275 1.526926 0.356730 3.715603 2.432062 2.067576 -0.696815 -4.606919 0.805632 -0.557684 -4.998775 3.351812 -3.268099 1.087329 0.447860 -3.214456 -1.346268 -2.240082 -0.627098 4.603406 -3.072985 -3.746727 -2.407228 1.447980
-3.947101 -0.824909 0.869187 2.909978 0.333444 -4.988117 -3.300000 4.461592 4.076606 -3.436169 -3.217964 0.417459 4.185204 1.904631 -4.137064 -4.512429 4.185047 -0.457849 -0.775957 -4.471094 -1.587035 -1.363660 -0.853227 -4.872133 -3.069255 2.117936 3.599999 0.217451 1.322642 -2.087644 1.851398 -3.174777 -4.963508 -0.229296 -1.466376 -1.371043 -4.402274 -1.092392 -0.813596 -0.272438 1.188364 -0.043638 -1.745758 -1.686388 4.567670 4.447084 -4.555178 -2.435344 1.493548 -0.339443 -2.120464 1.621743 -3.397613 -0.460022 -3.487583 0.308935 4.513463 -0.021207 -0.831566 1.723339 3.194409 -0.631400 4.484341 4.619196 -1.343458 -0.889654 -2.702006 3.999651 3.973303 0.682517 -3.160280 -1.401890 -1.608275 1.433102 0.356730 3.546898 2.432062 2.067576 -0.696815 -4.606919 0.805632 4.965316 -4.998775 3.199853 -3.383469 1.087329 0.447860 -4.196638 -1.346268 -2.240082 0.854691 4.826315 -3.072985 -3.746727 -2.407228 1.447980
-3.947101 -0.824909 0.869187 2.216878 0.333444 -4.988117 -3.300000 4.111496 4.076606 -3.436169 -3.217964 0.417459 4.185204 1.904631 2.447824 -4.512429 0.760808 4.367152 -0.775957 -4.471094 -4.223259 -1.363660 -0.853227 2.946587 -0.324728 -1.971901 -2.613998 2.306115 4.404245 -2.087644 1.851398 -3.174777 -0.809719 -0.229296 -1.466376 -1.371043 1.960483 -1.092392 -0.813596 -1.390128 1.188364 -0.043638 0.730555 -1.686388 4.567670 4.447084 -2.005882 -2.435344 1.493548 -0.339443 -2.120464 1.621743 -3.397613 -0.460022 -3.487583 0.308935 3.650671 -0.021207 -0.831566 -4.890822 3.194409 -1.363751 4.484341 4.619196 -3.912845 -0.889654 -2.702006 3.999651 0.785202 0.682517 -3.160280 -1.401890 -1.608275 1.433102 0.356730 3.546898 2.432062 0.841379 -0.696815 -3.449108 -1.003187 -2.339496 -4.998775 -0.417178 -3.383469 1.087329 0.447860 -4.196638 -1.346268 -2.240082 0.854691 4.826315 -3.072985 -3.746727 -2.407228 1.447980
-3.947101 -0.824909 0.869187 2.216878 0.333444 -4.988117 -3.300000 4.111496 4.076606 -3.436169 -3.217964 0.417459 4.185204 1.904631 2.447824 -4.512429 0.760808 -0.457849 -0.775957 -4.471094 -4.223259 -1.363660 -0.853227 2.946587 -0.324728 -1.971901 -2.613998 2.306115 4.404245 -2.087644 1.851398 -3.174777 -0.809719 -0.229296 -2.097683 -1.371043 3.993552 -1.092392 -0.813596 4.901335 1.188364 -0.043638 -1.745758 -1.686388 -2.182477 4.447084 3.497419 1.437407 1.493548 -0.339443 -2.120464 1.621743 -3.397613 -0.460022 -3.487583 0.308935 0.886948 0.054258 -0.831566 -4.890822 3.194409 -1.363751 4.484341 4.619196 -1.343458 -0.889654 -2.702006 3.999651 0.785202 0.978180 -3.160280 -1.401890 -1.608275 1.433102 0.356730 3.546898 2.432062 -1.074710 -1.304681 -3.449108 0.805632 -2.339496 2.641641 -0.417178 -4.869372 0.146084 0.447860 -3.214456 4.250940 -2.240082 0.854691 4.603406 -3.072985 -3.746727 -2.407228 1.447980
-3.947101 -0.824909 0.869187 2.216878 0.333444 -4.988117 -3.300000 4.111496 4.076606 -3.436169 -3.217964 0.417459 4.185204 1.904631 2.447824 -4.512429 0.760808 4.367152 -0.775957 -4.471094 -4.223259 -1.363660 -0.853227 2.946587 -0.324728 -1.971901 -2.613998 2.306115 4.404245 -2.087644 1.851398 -3.174777 -0.809719 -0.229296 -2.097683 -1.371043 3.993552 -1.092392 -0.813596 -0.272438 1.188364 -0.043638 -1.745758 -1.686388 4.567670 4.447084 -4.555178 -2.435344 1.282956 -0.339443 -2.120464 1.621743 -3.297185 -0.460022 -3.487583 0.308935 0.886948 -3.872346 -0.831566 1.723339 3.194409 -0.631400 4.484341 4.619196 -1.343458 -0.889654 -2.702006 3.999651 3.973303 0.682517 -3.160280 -1.401890 -1.608275 1.433102 0.356730 3.546898 2.432062 2.067576 -0.696815 -4.606919 0.805632 4.965316 -4.998775 -0.417178 -3.383469 1.087329 0.447860 -4.196638 -1.346268 -2.240082 0.854691 4.826315 -3.072985 -3.746727 -2.407228 1.447980
-3.947101 -1.919713 0.869187 2.216878 0.333444 -4.988117 -0.144042 4.461592 4.076606 1.346617 -3.217964 0.417459 4.185204 1.904631 2.447824 -4.512429 -2.064849 -0.457849 -0.775957 0.319387 -1.587035 -1.363660 -2.939447 2.946587 -3.069255 1.690972 3.599999 -0.858206 3.671562 -2.087644 1.851398 -3.174777 -4.963508 -0.229296 -1.466376 -1.371043 -4.402274 -1.092392 -0.813596 -0.272438 1.188364 -0.043638 -1.745758 -1.686388 4.567670 4.447084 -4.555178 -2.435344 1.493548 -0.339443 -2.120464 1.621743 -3.397613 -0.460022 -3.487583 0.308935 0.886948 0.054258 -0.831566 -4.890822 3.194409 -1.363751 4.484341 4.619196 -1.343458 -0.889654 -2.702006 3.999651 0.785202 0.978180 -3.160280 -1.401890 -1.608275 1.433102 0.356730 3.546898 2.432062 2.067576 -0.696815 -4.606919 0.805632 4.965316 -4.998775 -0.417178 -3.383469 1.087329 0.447860 -4.196638 -1.346268 -2.240082 0.854691 4.826315 -3.072985 1.823191 -2.407228 1.447980
-3.947101 -0.824909 0.869187 2.216878 0.333444 -4.988117 -3.300000 4.111496 4.076606 -3.436169 -3.217964 0.417459 4.185204 -0.388244 2.447824 -4.512429 0.760808 4.367152 -0.775957 -4.471094 -4.223259 -1.363660 -0.853227 2.946587 -0.324728 -1.971901 -2.613998 2.306115 4.404245 -2.087644 1.851398 -3.174777 -0.809719 -0.229296 -2.097683 -1.371043 3.993552 -1.092392 -0.813596 -0.272438 1.188364 -0.043638 -1.745758 -1.686388 4.567670 4.447084 -4.555178 -2.435344 1.493548 -0.339443 -2.120464 1.621743 -3.297185 -0.460022 -3.487583 0.308935 0.886948 -3.872346 -0.831566 1.723339 3.194409 -0.631400 4.484341 4.619196 -1.343458 -0.889654 -2.702006 3.999651 3.973303 0.682517 -3.160280 -1.401890 -1.608275 1.433102 0.356730 3.546898 2.432062 2.067576 -0.696815 -4.606919 0.805632 4.965316 -4.998775 -0.417178 -3.383469 1.087329 3.438150 -4.196638 -1.346268 -2.240082 0.854691 4.826315 -3.072985 -3.746727 -2.407228 1.447980
-3.947101 -0.824909 0.869187 2.216878 0.333444 -4.988117 -3.300000 4.111496 -1.922669 -3.436169 -3.217964 0.417459 4.185204 1.904631 2.447824 -4.512429 -2.064849 -0.457849 -0.775957 -4.471094 -4.223259 -1.363660 -0.853227 2.946587 -3.069255 2.117936 3.599999 2.306115 -3.366125 -2.087644 1.851398 -3.174777 -2.523377 -0.229296 -1.466376 -1.371043 -4.402274 -1.092392 -0.813596 -0.272438 1.188364 -0.043638 -1.745758 -1.686388 4.567670 2.206855 -2.005882 -2.435344 1.493548 -0.339443 4.534050 1.621743 -3.397613 -2.635296 -3.487583 0.308935 3.650671 -0.021207 -0.831566 -4.890822 3.194409 -1.363751 4.484341 4.619196 -1.343458 -0.889654 -2.702006 3.999651 0.785202 0.682517 -3.160280 -1.401890 -1.608275 1.433102 0.356730 3.546898 2.432062 2.067576 -0.696815 -3.449108 -1.003187 -2.339496 -4.998775 -0.417178 -3.383469 1.087329 0.447860 -4.196638 -1.346268 -2.240082 0.854691 4.603406 -3.072985 -3.746727 -2.407228 1.447980
-3.947101 -0.824909 0.869187 2.216878 0.333444 -4.988117 -3.300000 4.111496 -1.922669 -3.436169 -3.217964 0.417459 4.185204 1.904631 2.447824 -3.374207 -2.064849 -0.457849 -0.775957 -4.471094 -4.223259 -1.363660 -0.853227 2.946587 -3.069255 2.117936 3.599999 2.306115 -3.366125 -2.087644 1.851398 -3.174777 -2.523377 -0.229296 -1.466376 -1.371043 -4.402274 -1.092392 -0.813596 -0.272438 1.188364 -0.043638 -1.745758 -1.686388 -2.730410 2.206855 -2.005882 -2.435344 1.493548 -0.339443 -2.120464 1.621743 -3.397613 -2.635296 -3.487583 0.308935 3.650671 -0.021207 -0.831566 -4.890822 3.194409 -1.363751 4.484341 4.619196 -1.343458 -0.889654 -2.702006 3.999651 0.785202 0.682517 -3.160280 -1.401890 -1.608275 1.433102 0.356730 3.546898 2.432062 2.067576 -0.696815 -3.449108 -1.003187 -2.339496 -4.998775 -0.417178 -3.383469 1.087329 0.447860 -4.196638 -1.346268 -2.240082 1.579172 4.603406 -3.072985 -3.746727 -2.407228 1.447980
-3.947101 -1.919713 0.869187 2.216878 0.333444 -0.683982 -3.300000 4.461592 4.076606 -3.436169 -3.217964 0.417459 4.185204 1.904631 2.447824 -4.512429 0.760808 4.367152 -0.234093 -4.471094 -4.223259 -1.363660 -0.853227 2.946587 -0.324728 -1.971901 -2.613998 2.306115 4.404245 -2.087644 1.851398 -3.174777 -0.809719 -0.229296 -2.097683 -1.371043 3.993552 -1.092392 -0.813596 -0.272438 1.188364 -0.043638 -1.745758 -1.686388 4.567670 4.447084 -4.555178 -2.435344 1.493548 -0.339443 -2.120464 1.621743 -3.297185 -0.460022 -3.487583 0.308935 0.886948 -3.872346 -0.831566 1.723339 3.194409 -0.631400 4.484341 4.619196 -1.343458 -0.889654 1.573367 3.999651 3.973303 0.682517 -3.160280 -1.401890 -1.608275 1.433102 0.356730 3.546898 2.432062 2.067576 -0.696815 -4.606919 0.805632 4.965316 -4.998775 -0.417178 -3.383469 1.087329 0.447860 -4.196638 -1.346268 -2.240082 0.854691 4.826315 -3.072985 -3.746727 -2.407228 1.447980
-3.947101 -0.824909 0.869187 2.216878 0.333444 -4.988117 -3.300000 4.111496 4.076606 -3.436169 -3.217964 0.417459 4.185204 1.904631 2.447824 -4.512429 0.760808 4.367152 -0.775957 -4.471094 -4.223259 -1.363660 -0.853227 2.946587 1.560438 -1.971901 -2.613998 2.306115 4.404245 -2.087644 1.851398 -3.174777 -0.809719 -0.229296 -2.097683 -1.371043 3.993552 -1.092392 -0.813596 -0.272438 1.188364 -0.043638 -1.745758 -1.686388 4.567670 4.447084 -4.555178 -2.435344 1.493548 -0.339443 -2.990753 1.621743 -3.297185 -0.460022 -3.487583 0.308935 0.886948 -3.872346 -0.831566 1.723339 3.194409 -0.631400 -2.666257 4.619196 -1.343458 -0.889654 -2.702006 3.999651 3.973303 0.682517 -3.160280 -1.401890 -1.608275 1.433102 0.356730 3.546898 2.432062 2.067576 -0.696815 -4.606919 0.805632 4.965316 -4.998775 -0.417178 -3.383469 1.087329 0.447860 -4.196638 -1.346268 -2.240082 0.854691 4.826315 -3.072985 -3.746727 -2.407228 1.447980
-3.947101 -0.824909 0.869187 2.216878 0.333444 -4.988117 -3.300000 -3.565483 4.076606 -3.436169 -3.217964 0.417459 4.185204 1.904631 2.447824 -4.512429 0.760808 4.367152 -0.775957 -4.471094 -4.223259 -1.363660 -0.853227 2.946587 1.560438 -1.971901 -2.613998 2.306115 4.404245 -2.087644 1.851398 -3.174777 -0.809719 -0.229296 -2.097683 -1.371043 3.993552 -1.092392 -0.813596 -0.272438 1.188364 -0.043638 -1.745758 -1.686388 4.567670 4.447084 -4.555178 -2.435344 1.493548 -0.339443 -2.120464 1.621743 -3.297185 -0.460022 -3.487583 0.308935 0.886948 -3.872346 -0.831566 1.723339 3.194409 -0.631400 4.484341 4.619196 -0.088073 -0.889654 -2.702006 3.999651 0.785202 0.682517 -3.160280 -1.401890 -1.608275 1.433102 0.356730 3.546898 2.432062 2.067576 -0.696815 -3.449108 -1.003187 -2.339496 -4.998775 -0.417178 -3.383469 1.087329 0.447860 -4.196638 -1.346268 -2.240082 1.579172 4.826315 -3.072985 -3.746727 -2.407228 1.447980
-3.947101 -0.824909 0.869187 2.216878 0.333444 -4.988117 -3.300000 4.111496 4.076606 -3.436169 -2.506341 0.417459 4.185204 1.904631 2.447824 -4.512429 0.760808 4.367152 -0.775957 -4.196201 -4.223259 -1.363660 -0.853227 2.946587 -0.324728 -1.971901 -2.613998 2.306115 4.404245 -2.087644 1.851398 -3.174777 -0.809719 -0.229296 -2.097683 -1.371043 1.960483 -1.092392 -0.813596 -0.272438 1.188364 -0.043638 -1.745758 -1.686388 4.567670 4.447084 -4.555178 -2.435344 1.493548 -0.339443 -2.120464 1.621743 -3.297185 -1.503407 -3.487583 0.308935 0.886948 -3.872346 -0.831566 1.723339 3.194409 -0.631400 4.484341 4.619196 -1.343458 -0.889654 -2.702006 2.349903 3.973303 0.682517 -3.160280 -1.401890 2.059668 1.433102 -3.237479 3.546898 2.432062 2.067576 -0.696815 -3.449108 -1.003187 -2.339496 -2.106478 -0.417178 -4.869372 0.146084 0.447860 -3.214456 -1.346268 -2.240082 0.854691 4.603406 -3.072985 -3.746727 -2.407228 1.447980
-3.947101 -1.919713 0.869187 2.216878 0.333444 -4.988117 -3.300000 4.461592 4.076606 -3.436169 -3.217964 0.417459 4.185204 1.904631 2.447824 -4.512429 -2.064849 -0.457849 -0.775957 -4.471094 -1.587035 -1.363660 -2.939447 2.946587 -3.069255 1.690972 3.599999 -0.858206 3.671562 -2.087644 1.851398 -3.174777 -4.963508 -0.229296 -2.097683 -1.371043 3.993552 -1.092392 -0.813596 -0.272438 4.511043 -0.043638 -1.745758 -1.686388 -2.182477 4.447084 3.497419 1.437407 1.493548 -0.339443 -2.120464 1.621743 -3.397613 -0.460022 -3.487583 0.308935 0.886948 0.054258 -0.831566 -4.890822 3.194409 -1.363751 4.484341 4.619196 -1.343458 -0.889654 -2.702006 3.999651 0.785202 0.978180 -3.160280 -1.401890 -1.608275 1.433102 0.356730 3.546898 2.432062 -1.074710 -0.696815 -3.449108 0.805632 -2.339496 2.641641 -0.417178 -4.869372 0.146084 0.447860 -3.214456 -1.346268 2.943735 0.854691 4.603406 2.109404 -3.746727 -2.407228 1.447980
-3.947101 -0.824909 0.869187 2.216878 0.333444 -4.988117 -3.300000 4.111496 4.076606 -3.436169 -3.217964 0.417459 4.185204 1.904631 2.447824 -4.512429 2.744468 -0.457849 -0.775957 -4.471094 -4.223259 -1.363660 -0.853227 2.946587 -3.069255 2.117936 3.599999 2.306115 4.404245 -2.087644 -0.763753 -3.174777 0.817767 -0.229296 -0.286807 -1.371043 1.960483 -1.092392 -0.813596 -1.390128 1.188364 -0.043638 -1.745758 -1.686388 4.567670 4.447084 -2.005882 -2.435344 1.493548 -0.339443 -2.120464 1.621743 -3.297185 -0.460022 -3.487583 0.308935 0.886948 -3.872346 -0.831566 1.723339 3.194409 -0.631400 4.484341 4.619196 -1.343458 -0.889654 -2.702006 3.999651 0.785202 0.682517 -3.160280 -1.401890 3.160025 1.526926 0.356730 3.715603 2.432062 2.067576 -0.696815 -4.606919 0.805632 -0.557684 -4.998775 3.351812 -3.268099 1.087329 0.447860 -3.214456 -3.666849 -2.240082 -0.627098 4.603406 -3.072985 -3.746727 -2.407228 1.447980
-3.947101 4.574786 0.869187 2.909978 0.333444 -4.988117 -3.300000 4.461592 4.076606 -3.436169 -3.217964 0.417459 4.185204 1.904631 -4.137064 -4.512429 4.185047 -0.457849 -0.775957 -2.334979 -1.587035 -1.363660 -0.853227 2.946587 -3.069255 2.117936 3.599999 0.217451 1.322642 -2.087644 1.851398 -3.174777 -4.963508 -0.229296 -1.466376 -1.371043 -4.402274 -1.092392 -0.813596 -0.272438 1.188364 -0.043638 -1.745758 -1.686388 4.567670 4.447084 -2.005882 -2.435344 1.493548 -0.339443 -2.120464 1.621743 -3.397613 -0.460022 -3.487583 0.308935 3.650671 -0.021207 -0.831566 4.128611 3.194409 -1.363751 4.484341 4.619196 -1.343458 -0.889654 -2.702006 3.999651 0.785202 0.682517 -3.160280 -1.401890 2.059668 1.433102 -3.237479 3.546898 2.432062 2.067576 -0.696815 -3.449108 -1.003187 -2.339496 -2.106478 -0.417178 -4.869372 0.146084 0.447860 -3.214456 -1.346268 -2.240082 0.854691 4.603406 -3.072985 -3.746727 -2.407228 1.978436
-3.947101 -0.824909 0.869187 2.216878 0.333444 -4.988117 -3.300000 4.111496 -1.922669 -3.436169 -3.217964 0.417459 4.185204 1.904631 2.447824 -4.512429 -2.064849 -0.457849 -0.775957 -4.471094 -4.223259 -1.363660 -0.853227 2.946587 -3.069255 2.117936 3.599999 2.306115 4.404245 -2.087644 1.851398 -3.174777 0.817767 -0.229296 -1.466376 -1.371043 1.960483 -1.092392 -0.813596 -1.390128 1.188364 -0.043638 -1.745758 -1.686388 4.567670 4.447084 -2.005882 -2.435344 1.493548 -0.339443 -2.120464 1.621743 -3.397613 3.104986 -3.487583 0.308935 3.650671 -0.021207 -0.831566 -4.890822 3.194409 -1.363751 4.484341 4.619196 -1.343458 1.684948 -2.702006 3.999651 0.785202 0.682517 -3.160280 -1.401890 -1.608275 1.433102 0.356730 3.546898 2.432062 -1.998669 -0.696815 -3.449108 -1.003187 -2.339496 -4.998775 -0.417178 -3.383469 1.087329 0.447860 -4.196638 -1.346268 -2.240082 0.854691 4.826315 -3.072985 -3.746727 -2.407228 1.447980
-3.947101 -0.824909 0.869187 2.216878 0.333444 -4.988117 -3.300000 4.111496 4.076606 -3.436169 -3.217964 0.417459 4.185204 1.904631 2.447824 -4.512429 2.744468 -0.457849 -0.775957 -4.471094 -4.223259 -1.363660 -0.853227 2.946587 -3.069255 2.117936 3.599999 2.306115 4.404245 -2.087644 -0.763753 -3.174777 0.817767 -0.229296 -0.286807 -1.371043 1.960483 -1.092392 -0.813596 -1.390128 1.188364 -0.043638 -1.745758 -1.686388 4.567670 4.447084 -2.005882 -2.435344 1.493548 -0.339443 -2.120464 1.621743 -3.297185 -0.460022 -3.487583 0.308935 0.886948 -3.872346 -0.831566 1.723339 3.194409 -0.631400 4.484341 4.619196 -1.343458 -0.889654 -2.702006 3.999651 0.785202 0.682517 -3.160280 -1.401890 -1.608275 1.526926 0.356730 3.715603 2.432062 2.067576 -0.696815 -4.606919 0.805632 -0.557684 -4.998775 3.351812 -3.268099 1.087329 0.447860 -3.214456 -1.346268 -2.240082 -0.627098 4.603406 -3.072985 -3.746727 -2.407228 1.447980
-3.947101 -0.824909 0.869187 2.216878 0.333444 -4.988117 -3.300000 4.111496 -2.723827 -3.436169 -3.217964 0.417459 4.185204 1.904631 2.447824 -4.512429 0.760808 -3.550524 -0.775957 -4.471094 -4.223259 -1.363660 -0.853227 2.946587 -0.324728 -1.971901 -2.613998 2.306115 4.404245 -2.087644 1.851398 -2.967772 -2.280928 -0.229296 0.344834 -1.371043 3.993552 -1.092392 -0.813596 -0.272438 1.188364 -0.043638 -1.745758 -1.686388 4.567670 4.447084 -4.555178 -2.435344 1.493548 -0.339443 -2.990753 1.621743 -3.297185 -0.460022 -3.487583 0.308935 0.886948 -3.872346 -0.831566 1.723339 3.194409 -0.631400 4.484341 4.619196 -1.343458 -0.889654 -2.702006 3.999651 3.973303 0.682517 -3.160280 -1.401890 -1.608275 1.433102 0.356730 3.546898 2.432062 2.067576 -0.696815 -4.606919 0.805632 4.965316 -4.998775 -0.417178 -3.383469 1.087329 0.447860 -4.196638 -1.346268 -2.240082 0.854691 4.826315 -3.072985 -3.746727 -2.407228 1.447980
-3.947101 -0.824909 0.869187 2.216878 0.333444 -4.988117 -3.300000 4.111496 4.076606 -3.436169 -3.217964 0.417459 4.185204 1.904631 2.447824 -4.512429 0.760808 4.367152 -0.775957 -4.471094 -4.223259 -1.363660 -0.853227 2.946587 1.560438 -1.971901 -2.613998 2.306115 4.404245 -2.087644 1.851398 -3.174777 -0.809719 -0.229296 -2.097683 -1.371043 3.993552 -1.092392 -0.813596 -0.272438 1.188364 -0.043638 -1.745758 -1.686388 4.567670 4.447084 -4.555178 -2.435344 1.493548 -0.339443 -2.120464 1.621743 -3.297185 -0.460022 -3.487583 0.308935 0.886948 -3.872346 -0.831566 1.723339 3.194409 -0.631400 4.484341 4.619196 -1.343458 -0.889654 -2.702006 3.999651 3.973303 0.682517 -3.160280 -1.401890 -1.608275 1.433102 0.356730 3.546898 2.432062 2.067576 -0.696815 -4.606919 0.805632 4.965316 -4.998775 -0.417178 -3.383469 1.087329 0.447860 -4.196638 -1.346268 -2.240082 0.854691 4.826315 -3.072985 -3.746727 -2.407228 1.447980
