-2.749618 0.213602 4.358417 -0.229358 -0.609909 1.317923 -0.731976 1.228168 4.386454 -0.657485 -3.179270 -2.335028 3.416230 -1.146949 4.731330 -0.575301 2.476187 -4.138207 -2.897801 -2.245832 2.559644 3.948205 -3.999816 1.699229 0.863546 -3.255475 2.978794 -3.259855 4.873515 4.249781 -2.561944 4.582842 4.741621 3.330904 -1.642277 2.365101 -2.135776 4.964676 0.592794 2.470649 0.091424 2.382038 4.659831 4.945423 3.204571 1.518184 -0.224713 3.928215 -4.233358 1.022461 3.492437 -0.005965 -3.395418 -2.470867 -4.334696 0.662176 -1.697386 0.559219 -2.355758 -1.335216 0.372871 -4.915493 -0.899307 -4.843289 -4.400236 2.335973 1.530000 4.970238 -1.257806 0.168384 1.822015 -2.949230 -1.742810 3.627026 -1.812902 -4.045910 -2.616442 -3.144985 4.051084 -3.183003 -3.008925 2.560491 3.179993 4.530773 0.983325 -4.732411 1.215703 1.363719 -0.099545 -3.102191 4.905258 -4.728147 2.779297 -2.010942 -0.145772 2.388335
-3.432828 0.705666 0.819853 1.386733 -1.868182 -2.999697 3.385899 -3.271357 2.124958 1.782533 -0.928400 0.757782 -3.932031 0.615654 3.936981 -3.284788 -0.541284 1.033976 -3.798943 -4.334633 0.482490 -4.471541 1.718113 -4.190247 3.120868 -2.665365 -4.029858 0.952204 -4.439352 -4.497619 -1.079045 4.821182 0.868920 -4.870619 2.082772 1.471113 -2.545796 0.269804 3.912675 -3.942698 -2.238685 -3.108792 2.320230 -0.611909 -1.018418 -2.474728 2.870712 4.350766 1.287265 2.810716 -2.840304 4.750102 0.607872 -3.091379 3.389918 1.090842 3.409573 4.919578 2.977458 -1.041551 -4.455515 -2.263976 2.732557 0.744885 3.403234 -0.391058 -3.429731 3.038895 -3.374068 4.655145 -4.207405 -2.367806 -4.986286 4.387113 4.948476 -4.736514 0.561137 3.132626 -3.405718 4.260676 2.317998 4.679225 -1.195716 -3.944972 0.118940 -2.950805 -0.887614 -3.591527 0.799334 0.827276 0.251600 -4.731130 -0.967922 -1.221368 3.106249 3.616206
3.852951 1.644458 1.966464 -1.093262 1.324627 0.827152 -3.752345 -2.409991 2.343305 -3.169323 -1.718097 -0.005343 1.053806 -1.687359 -4.171353 -1.269110 4.681654 1.872739 -0.742359 -3.864869 -3.991280 2.106027 -0.297616 1.590932 1.317812 -1.660901 -0.462996 1.844613 3.489221 2.744078 0.434824 -2.747796 -2.504998 0.186782 0.137699 -3.365987 -0.786609 3.332350 -1.210169 3.187186 -4.747627 -4.216960 2.269031 -3.703055 -3.664204 -2.742565 -0.420005 -4.919224 4.749627 4.467187 -1.657975 -0.444328 4.894108 3.140622 -1.530409 4.585072 2.512530 -4.140419 3.805358 -1.190415 -0.029596 3.492104 2.245338 0.850264 -0.964727 -2.167208 -1.818937 2.764879 -3.047774 -2.574673 -0.652284 0.309607 3.939692 -1.937655 3.702418 -2.775058 -2.136378 2.322905 2.232746 1.448741 -4.401920 -4.480075 -1.354466 -1.586514 -3.106754 0.597058 4.736920 2.238022 1.772879 3.318425 -4.742887 0.078107 2.110962 -3.836477 -3.678163 -1.019378
3.852951 1.644458 2.863485 1.927980 0.930041 2.426564 1.823435 2.970941 3.873488 -0.657485 -3.179270 -2.335028 3.416230 -1.146949 -2.252355 -0.575301 2.476187 -4.138207 4.991950 -2.245832 2.559644 3.948205 -3.999816 1.699229 0.863546 -3.255475 2.978794 -3.259855 -2.376483 -0.185317 1.637772 3.594531 -2.527016 0.026682 2.082772 1.471113 -2.545796 0.269804 3.912675 -3.942698 -2.238685 -3.108792 2.320230 -0.611909 -1.018418 -2.474728 2.870712 4.350766 1.062667 2.627220 -0.654681 -1.717141 -4.666239 -2.093074 0.338185 -4.848601 -4.656601 4.881203 -2.686586 3.255532 -2.297019 -3.666662 0.011767 -1.425973 3.468918 4.148257 -2.966534 4.691212 0.270828 2.033505 -4.877887 -2.530446 -0.916622 1.867279 0.515576 -0.393792 2.082098 -4.590485 0.641891 -1.712910 4.628945 3.848599 2.597107 3.105433 1.379635 -4.075035 -2.967696 2.028755 -3.286658 3.668024 3.332056 -2.910247 -1.244864 -1.459742 -3.796095 -2.958305
1.719351 0.597117 -2.931215 -0.370961 -4.780747 2.413969 2.673012 -3.788301 -0.639629 -3.786053 1.763390 2.194638 2.951633 4.929929 3.862474 -4.098231 4.375729 2.509965 4.330135 -2.173238 -3.438421 2.248246 -4.021913 -1.881980 1.859348 -1.078404 2.196288 1.724149 4.464711 3.161971 -4.158843 -3.712828 3.348320 3.605241 -3.300436 -0.200775 -1.928124 3.493405 -2.387507 -4.776727 1.591781 -0.943747 4.061963 -4.932747 3.813764 -3.687624 3.221700 -1.507633 3.093845 3.081668 2.411645 4.716057 -0.251018 -4.271211 3.086956 0.788001 2.116604 -3.855453 -3.382625 -0.887326 2.551356 -1.101060 1.177503 4.607927 1.265756 -4.634738 2.656383 -2.761084 -3.100520 -2.934782 -4.090990 -4.622421 3.971257 -3.673685 -2.598100 -1.058347 -4.917621 1.515132 1.371338 0.869618 1.332132 -0.839163 -1.453564 1.597217 1.098099 -3.749409 -4.202931 2.158455 2.782612 4.413630 2.972984 1.076700 3.002804 -2.524806 3.184544 -3.226901
-3.432828 0.705666 0.819853 1.386733 -1.868182 -2.473940 3.385899 -3.271357 2.124958 1.782533 -0.928400 0.757782 -3.932031 0.615654 3.936981 -3.284788 -0.541284 1.033976 -3.798943 -4.334633 0.482490 -4.471541 1.718113 -4.190247 3.120868 -2.665365 -4.029858 0.952204 -4.439352 -4.497619 2.255203 4.821182 0.868920 -4.870619 0.828062 1.922557 2.153902 -2.431599 -4.986032 0.532170 3.185514 4.310823 -3.670205 0.109419 -1.581496 -0.710390 -2.456249 -3.227838 1.287265 2.810716 -2.840304 4.750102 0.607872 -3.091379 3.389918 1.090842 3.409573 4.919578 2.977458 -1.041551 -4.455515 -2.263976 2.732557 0.744885 3.403234 -0.391058 -3.429731 3.038895 -3.374068 4.655145 -4.207405 -2.367806 -4.986286 4.387113 4.948476 -4.736514 0.561137 3.132626 -3.405718 4.260676 2.317998 4.679225 -1.195716 -3.944972 0.118940 -2.950805 -0.887614 -3.591527 0.799334 0.827276 0.251600 -4.731130 -0.967922 -1.221368 3.106249 3.616206
1.697002 3.544222 0.122540 -2.987445 -2.092844 1.043242 -2.913604 -0.727593 -1.697798 3.918348 1.778137 -3.763288 3.309393 -0.059713 -2.140917 -3.684091 0.603029 -2.985524 1.392880 -4.578558 -3.163849 2.885047 -1.821369 0.965499 -0.197514 -1.344933 0.254424 -2.849670 2.859309 3.085513 2.866051 1.839893 -1.934846 -3.130454 -4.709525 4.354013 4.537785 -4.696358 -0.050742 -3.804761 0.091424 2.382038 4.659831 4.945423 3.204571 1.518184 -0.224713 3.928215 -4.233358 1.022461 3.492437 -0.005965 -3.395418 -2.470867 -4.334696 0.662176 -1.697386 -0.000102 -2.355758 -1.335216 0.372871 -4.915493 -0.899307 -4.843289 -4.400236 2.335973 1.530000 4.970238 -1.257806 0.168384 1.822015 -2.949230 -1.735374 -2.697262 0.097328 -1.393889 -3.022526 -0.742667 -1.950325 -1.159635 4.416401 -1.167011 4.915807 1.945050 -2.331346 -2.782021 1.542147 -3.580894 1.369547 -2.027065 3.861636 -0.729433 -3.248690 -1.361356 3.339780 -3.554010
-1.470286 -1.638608 2.081464 -2.049665 -0.807488 -3.754977 1.816946 2.610347 -0.922001 -3.908464 -1.412531 -0.520126 -3.916393 2.262283 3.381395 3.842799 -0.325407 1.332988 0.895399 2.255785 3.887460 0.399684 0.198954 2.925293 -1.506797 -3.788119 -2.390517 -2.430055 -2.247677 2.697914 1.660438 2.086151 4.738135 0.132163 0.386782 -1.239367 -2.395313 -1.408628 2.427072 -4.850700 -2.023913 4.378129 2.598489 -4.650967 4.553731 2.959606 4.993191 -4.938498 4.179205 3.032109 3.643014 0.110916 3.748734 0.561760 -4.001758 -0.688341 4.287007 4.881203 -2.686586 3.255532 2.450778 -3.666662 -2.798771 -1.425973 3.468918 4.148257 -2.966534 4.691212 1.759326 2.033505 -4.877887 -2.530446 2.641755 0.335079 -4.005303 2.271994 1.625548 4.798846 2.023672 1.697292 2.970028 0.606792 1.288608 2.997901 2.258273 -2.950805 -0.887614 -3.591527 0.799334 0.827276 0.251600 -4.731130 -0.967922 -1.221368 3.106249 3.616206
-4.096293 -0.024955 -1.148558 -3.919646 -0.568629 -0.954885 -2.122377 -4.275295 -1.590653 0.130279 1.763390 2.194638 2.951633 4.929929 3.862474 -4.098231 -4.229435 2.509965 4.330135 -2.173238 -3.438421 2.248246 -4.021913 -1.881980 1.859348 -1.078404 2.196288 1.724149 4.464711 3.161971 -4.158843 -3.712828 3.348320 3.605241 -3.300436 -0.200775 -1.928124 3.493405 -2.387507 -4.776727 1.591781 -0.943747 4.061963 -4.932747 3.813764 -3.687624 3.221700 -1.507633 3.093845 3.081668 2.411645 4.716057 -0.251018 -4.271211 3.086956 0.788001 2.116604 -3.855453 -3.382625 -0.887326 2.551356 -1.101060 1.177503 4.607927 1.265756 -4.634738 2.656383 -2.761084 -3.100520 -2.934782 -4.090990 -4.622421 3.971257 -3.673685 -2.598100 -1.058347 -4.917621 1.515132 1.371338 0.869618 1.332132 -0.839163 -1.453564 1.597217 1.098099 -3.749409 -4.202931 2.158455 2.782612 4.413630 2.972984 -4.820277 -0.632300 -3.586077 -2.418909 4.569328
-2.749618 0.213602 4.358417 -0.229358 -0.609909 1.317923 -0.731976 1.228168 4.386454 -0.657485 -3.179270 -2.335028 3.416230 -1.146949 -2.124986 -0.575301 2.476187 -4.138207 -2.897801 -2.245832 2.559644 3.948205 -3.999816 1.699229 0.863546 -3.255475 2.978794 -3.259855 -2.376483 -0.185317 1.637772 3.594531 -2.527016 0.026682 2.082772 1.471113 -2.545796 0.269804 3.912675 -3.942698 -2.238685 -3.108792 2.320230 -0.611909 -1.018418 3.090133 2.870712 4.350766 1.062667 2.627220 2.136933 -1.717141 -4.666239 2.166478 0.338312 -3.748333 -0.463312 -3.029656 1.121338 3.977851 -3.505420 -0.384639 4.912662 -2.675624 3.679988 1.676114 1.718976 -2.761084 -3.100520 -2.934782 -4.090990 -4.622421 3.971257 -3.673685 -2.598100 -1.058347 -4.917621 1.515132 1.371338 0.869618 1.332132 -0.839163 -1.453564 1.597217 1.098099 -3.749409 -4.202931 2.158455 2.782612 4.413630 2.972984 1.076700 3.002804 -2.524806 3.184544 -3.226901
3.852951 1.644458 4.211989 -1.093262 1.324627 0.827152 -3.752345 -2.409991 2.343305 -3.169323 -1.718097 1.548999 -3.833392 3.479920 -2.287493 3.739814 -3.978220 4.500959 1.857255 -0.697418 0.683621 -0.607430 1.718113 -1.030785 3.120868 -2.665365 -4.029858 0.952204 -4.439352 -4.497619 -1.079045 4.821182 0.868920 -4.870619 0.828062 1.922557 2.153902 -2.431599 -4.986032 -0.174468 3.185514 4.310823 -3.670205 0.109419 -1.581496 -0.710390 -2.456249 -3.227838 1.287265 2.810716 -2.840304 4.750102 0.607872 -3.091379 3.389918 1.090842 3.409573 4.919578 2.977458 -1.041551 -4.455515 -2.263976 2.732557 0.744885 3.468918 4.148257 -2.966534 4.691212 0.270828 2.033505 -4.877887 -2.530446 -0.916622 1.867279 0.515576 -0.393792 2.082098 -4.590485 0.641891 -1.712910 4.628945 3.848599 2.597107 3.105433 1.379635 -4.075035 -2.967696 2.028755 -3.286658 -4.004498 3.332056 -2.910247 -1.244864 -1.459742 -3.796095 -2.958305
0.040735 -2.909283 -1.461862 -3.371402 -3.323337 -3.551418 4.944721 -4.791349 2.840689 4.908396 3.361666 4.714610 -2.607898 -1.092446 1.365700 4.415982 4.685348 -1.034111 2.957020 -3.741951 3.315650 -2.902760 2.034847 -3.195302 -4.078403 3.545298 -4.188242 -3.630562 4.873515 4.249781 -2.561944 4.582842 4.741621 3.330904 -1.642277 2.365101 -2.135776 4.964676 0.592794 2.470649 0.091424 2.382038 4.659831 4.945423 1.431644 1.518184 -2.730385 3.928215 -4.233358 1.022461 3.492437 -0.005965 -3.395418 -2.470867 -4.334696 0.662176 -1.697386 0.559219 -2.355758 -1.335216 0.372871 -4.915493 -0.899307 -4.843289 -4.400236 2.335973 -2.624368 4.970238 -1.257806 0.168384 1.822015 -2.949230 1.404837 3.627026 -1.812902 -4.045910 -2.616442 -3.144985 4.051084 -3.183003 -3.008925 2.560491 3.179993 4.530773 0.983325 -4.732411 1.215703 1.363719 -3.286658 3.668024 3.332056 -2.910247 -1.244864 -1.459742 -3.796095 -2.958305
-2.749618 0.213602 2.248888 -0.229358 -0.609909 1.317923 -0.731976 1.228168 4.386454 -0.657485 -3.179270 -2.335028 3.416230 -1.146949 -2.124986 -0.575301 2.476187 -4.138207 -2.897801 -2.245832 2.559644 3.948205 -1.008653 3.385084 -4.425762 1.896391 -3.436122 4.551771 0.772973 3.998674 1.637772 3.594531 -2.527016 0.026682 2.082772 1.471113 -2.545796 0.269804 3.912675 -3.942698 -2.238685 -3.108792 2.320230 -0.611909 -1.018418 3.090133 2.870712 4.350766 1.062667 2.627220 2.136933 -1.717141 -4.666239 2.166478 0.338312 -3.748333 -0.463312 -3.029656 1.121338 3.977851 -3.505420 -0.384639 4.912662 -2.675624 3.679988 1.676114 1.718976 0.640477 -2.813167 -3.552391 -1.366330 0.514332 4.301571 -2.456200 0.097328 -1.393889 -3.022526 -0.742667 -1.950325 -1.159635 0.373897 -1.167011 4.915807 1.945050 -2.331346 -2.782021 1.542147 -3.580894 0.820152 0.706664 -4.890071 -4.820277 -0.632300 -3.586077 -2.418909 4.569328
3.852951 1.644458 4.211989 -1.093262 1.324627 0.827152 -3.752345 -2.409991 2.343305 -3.169323 -1.718097 1.548999 -3.833392 3.479920 -2.287493 3.739814 -3.978220 4.500959 1.857255 -0.697418 0.683621 -0.607430 -1.008653 3.385084 -4.425762 1.896391 -3.436122 4.551771 0.772973 3.998674 -0.247364 -2.547935 2.916502 -4.298257 0.828062 1.922557 2.153902 -2.431599 -4.986032 0.532170 3.185514 4.310823 -3.670205 0.109419 -1.581496 -0.710390 -2.456249 -3.227838 -0.725467 2.810716 -2.840304 4.750102 0.607872 3.008250 -4.336576 1.469413 -2.544104 -0.747392 -4.881861 1.990839 2.525227 -3.241697 2.319786 2.451355 -1.463723 4.630301 -0.106142 -2.408729 3.932765 -4.857128 2.974554 2.714575 -0.916622 1.867279 0.515576 -0.393792 2.082098 -4.590485 0.641891 -1.712910 4.628945 3.848599 2.597107 3.105433 0.983325 -4.732411 -0.887614 -3.591527 0.799334 0.827276 0.251600 -4.731130 -0.967922 -1.221368 3.106249 0.291611
-3.432828 0.705666 0.819853 1.386733 -1.868182 -2.999697 3.385899 -3.271357 2.124958 1.782533 -0.928400 0.757782 -3.932031 0.615654 3.936981 -3.284788 -0.541284 1.033976 -3.798943 -4.334633 0.482490 -4.471541 1.718113 -4.190247 3.120868 -2.665365 -4.029858 -1.398552 0.772973 -3.308753 -0.247364 -2.547935 2.916502 -4.298257 0.828062 1.922557 2.153902 -2.431599 -4.986032 0.532170 3.185514 4.310823 -3.670205 0.109419 -1.581496 -0.710390 -2.456249 -3.227838 -0.725467 2.810716 -3.179448 -2.830349 -2.272422 1.861726 4.619202 0.967796 4.121935 -1.028336 1.039891 3.255532 -2.297019 -3.666662 0.011767 -1.425973 3.468918 4.148257 -2.966534 4.691212 0.270828 2.033505 -4.877887 -2.530446 2.641755 0.335079 -4.005303 0.021723 1.625548 4.798846 2.023672 1.697292 2.970028 0.606792 1.288608 2.997901 2.258273 -3.236870 -0.992733 2.293260 4.947396 -4.596302 -4.241787 -2.300994 4.839040 -2.924199 1.253832 -0.218955
3.852951 1.644458 1.966464 -1.093262 1.324627 0.827152 -3.752345 -2.409991 2.343305 -3.169323 -1.718097 -0.005343 1.053806 -1.687359 -4.171353 -1.269110 4.681654 1.872739 -0.742359 2.262234 -3.438421 2.248246 -4.021913 -1.881980 1.859348 -1.078404 2.196288 1.724149 4.464711 3.161971 -4.158843 -3.712828 3.348320 3.605241 -3.300436 -0.200775 -1.928124 3.493405 -2.387507 -4.776727 1.591781 -0.943747 4.061963 -4.932747 3.813764 -3.687624 3.221700 -1.507633 3.093845 3.081668 2.411645 4.716057 -0.251018 -4.271211 3.086956 0.788001 2.116604 -3.855453 -3.382625 -0.887326 2.551356 -1.101060 1.177503 4.607927 1.265756 -4.634738 2.656383 -2.761084 -3.100520 -2.934782 -4.090990 -4.622421 3.971257 -3.673685 -2.598100 -1.058347 -4.917621 1.515132 1.371338 0.869618 1.332132 -0.839163 -1.453564 1.597217 1.098099 -3.749409 -4.202931 2.158455 2.782612 4.413630 2.972984 1.076700 3.002804 -2.524806 3.184544 -3.226901
-2.380518 -0.297965 -3.294530 3.605050 1.556578 -2.785884 -1.202653 -3.573323 -2.155717 1.272281 1.553588 2.703810 3.053465 -3.019558 0.279393 4.558091 0.159737 2.329635 -2.414301 2.709129 1.531541 -3.224096 2.118609 -3.727289 4.245879 0.525322 -1.783436 -2.419195 4.044654 4.268215 -4.838938 0.225434 3.848490 -3.815962 -1.771504 4.142677 -4.941831 -1.782444 4.037680 -4.121520 0.841460 0.769267 -2.317733 3.274617 4.521550 -1.542184 -1.218879 -4.552978 -1.524846 4.670845 -1.596295 -1.319186 -4.883051 3.429918 1.764772 -4.520108 2.912669 -3.221887 1.495759 -1.406499 1.272574 -4.868788 3.742772 2.995027 4.790138 1.610733 -1.196687 -3.235984 -3.743299 3.329977 -3.628194 -3.687521 -0.613814 0.335579 4.386980 -4.045910 -2.616442 -3.144985 4.051084 -3.183003 -3.008925 2.560491 3.179993 4.530773 0.983325 -3.276797 1.215703 1.363719 -0.099545 -3.102191 4.905258 -4.728147 2.779297 -2.010942 -1.887615 2.388335
1.719351 0.597117 -2.931215 -0.370961 -4.780747 2.413969 2.673012 -3.788301 -0.639629 -3.786053 -4.658876 -0.737129 -4.612878 -1.975279 4.370931 -2.753145 0.405387 4.293140 1.110361 1.900496 -4.656714 -3.471960 -4.613450 -3.115920 -2.262610 1.390063 -0.345858 3.786792 -3.607138 -2.769039 -2.922519 0.982542 0.390190 -1.571348 -2.910997 3.410210 -3.770864 -3.718994 -1.767803 -1.083789 -1.240943 1.627283 0.722128 0.787244 4.713410 -4.896138 3.647121 3.484546 1.446304 0.956553 -0.498940 -1.997447 1.370821 3.008250 -4.336576 1.469413 -2.544104 -0.747392 -4.881861 1.990839 4.326572 -2.968416 3.689217 2.995027 4.790138 1.610733 -1.196687 -3.235984 -3.743299 3.329977 -3.437834 0.514332 4.301571 -2.456200 0.097328 -1.393889 -2.616442 -3.144985 4.051084 -3.183003 -3.008925 2.560491 3.179993 4.530773 0.983325 -4.732411 1.215703 1.363719 -0.099545 -3.102191 4.905258 -4.728147 2.779297 -2.010942 -1.887615 2.388335
-4.096293 -0.024955 -1.148558 -3.919646 -0.568629 -0.954885 -2.122377 -4.275295 -1.590653 0.130279 1.763390 2.194638 2.951633 4.929929 3.862474 -4.098231 -4.229435 2.509965 4.330135 -2.173238 -3.438421 2.248246 -4.021913 -1.881980 1.859348 -1.078404 2.196288 1.724149 4.464711 3.161971 -4.158843 -3.712828 3.348320 3.605241 1.866846 -0.200775 -1.928124 3.493405 -2.387507 -4.776727 1.591781 -0.943747 4.061963 -4.932747 3.813764 -3.687624 3.221700 -1.507633 3.093845 3.081668 2.411645 4.716057 -0.251018 -4.271211 3.086956 0.788001 2.116604 -3.855453 -3.382625 -0.887326 2.551356 -1.101060 1.177503 4.607927 1.265756 -4.634738 2.656383 -2.761084 -3.100520 -2.934782 -4.090990 -4.622421 3.971257 -3.673685 -2.598100 -1.058347 -4.917621 1.515132 1.371338 0.869618 1.332132 -0.178823 4.984697 -3.385100 -2.682777 -4.969194 3.244012 2.922335 0.820152 0.706664 -4.890071 -4.820277 -0.632300 -3.586077 -2.418909 4.569328
0.040735 -2.909283 -1.730709 -3.371402 -3.323337 -3.551418 4.944721 -4.791349 2.840689 4.908396 3.361666 4.714610 -2.607898 -1.092446 1.365700 4.415982 4.685348 -1.034111 2.957020 -3.741951 3.315650 -2.902760 2.034847 -3.195302 -4.078403 3.545298 -4.188242 -3.630562 4.873515 4.249781 -2.561944 4.582842 4.741621 3.330904 -1.642277 2.365101 -2.135776 4.964676 0.592794 2.470649 0.091424 2.382038 4.659831 4.945423 3.204571 1.518184 -0.224713 3.928215 -4.233358 1.022461 3.492437 -0.005965 -3.395418 -2.470867 -4.334696 0.967796 4.121935 -1.028336 1.039891 3.255532 -2.297019 -3.666662 0.011767 -1.425973 3.468918 4.148257 -2.966534 4.691212 0.270828 2.033505 -4.877887 -2.530446 2.641755 0.335079 -4.005303 0.021723 1.625548 4.798846 2.023672 1.697292 2.970028 0.606792 1.288608 2.997901 2.258273 -3.236870 -0.992733 2.293260 4.947396 -4.596302 -4.241787 -2.300994 4.839040 -2.924199 1.253832 -0.218955
-1.470286 -1.638608 2.081464 -2.049665 -0.807488 -3.754977 1.816946 2.610347 -0.922001 -3.908464 -1.412531 -0.520126 -3.916393 2.262283 3.381395 3.842799 -0.325407 1.332988 4.177062 2.255785 3.887460 0.399684 0.198954 2.925293 -1.506797 -3.788119 -2.390517 -2.430055 -2.247677 2.697914 1.660438 2.086151 4.738135 0.132163 0.386782 -1.239367 -2.395313 -1.408628 2.427072 -4.850700 -2.023913 4.378129 2.598489 -4.650967 4.553731 2.959606 4.993191 -4.938498 4.179205 3.032109 3.643014 0.110916 3.748734 0.561760 -4.001758 -0.688341 4.287007 4.881203 -2.686586 3.255532 1.272574 -4.868788 -1.637382 2.212664 -1.271277 0.971685 2.913726 2.628466 -1.594553 3.752866 -0.382039 -0.174304 -3.461427 -1.937655 3.702418 -2.775058 -2.136378 2.322905 2.232746 1.448741 -4.401920 -4.480075 -1.354466 -1.586514 -3.106754 0.597058 4.736920 2.238022 1.772879 3.318425 -4.742887 0.078107 2.110962 -2.924199 1.253832 -0.218955
-4.096293 -0.024955 -1.148558 1.175767 -0.568629 -0.954885 -2.122377 -4.275295 -1.590653 0.130279 1.763390 2.194638 2.951633 4.929929 3.862474 -4.098231 -4.229435 2.509965 4.330135 -2.173238 -3.438421 2.248246 -4.021913 -1.881980 1.859348 -1.078404 2.196288 1.724149 4.464711 3.161971 -4.158843 -3.712828 3.348320 3.605241 -3.300436 3.919123 -1.928124 3.493405 -2.387507 -4.776727 1.591781 -0.943747 4.061963 -3.971609 2.148128 -3.687624 3.221700 -1.507633 3.093845 4.165712 -0.443504 2.236152 2.761519 1.088289 -2.342273 3.577603 -0.157836 3.249883 0.294415 -4.486835 -1.534632 -4.386061 0.377181 -2.873665 -2.553139 3.611683 2.501045 -1.898049 -4.729627 3.253030 -0.637906 0.342304 -2.179147 1.167857 -3.303279 2.246210 4.736754 3.828503 0.641891 -1.712910 4.628945 3.848599 2.597107 3.105433 0.983325 -4.732411 1.215703 1.363719 -0.099545 -3.102191 4.905258 -4.728147 2.779297 -1.165875 -1.887615 2.388335
-1.470286 -1.638608 2.081464 -2.049665 -0.807488 -3.754977 1.816946 2.610347 -0.922001 -3.908464 -1.412531 -0.520126 -3.916393 2.262283 3.381395 3.842799 -0.325407 1.332988 0.895399 2.255785 3.887460 0.399684 0.198954 2.925293 -1.506797 -3.788119 -2.390517 -2.430055 -2.247677 2.697914 1.660438 2.086151 4.738135 0.132163 0.386782 -1.239367 -2.395313 -1.408628 2.427072 -4.850700 -2.023913 4.378129 2.598489 -4.650967 4.553731 2.959606 4.993191 -4.938498 4.179205 3.032109 3.643014 0.110916 3.748734 0.561760 -4.001758 -0.688341 4.287007 4.881203 -2.686586 3.255532 -2.297019 -3.666662 0.011767 -1.425973 3.468918 4.148257 -2.966534 4.691212 0.270828 2.033505 -4.877887 -2.530446 2.641755 0.335079 -4.005303 0.021723 1.625548 4.798846 2.023672 4.260676 2.317998 4.679225 -1.195716 -3.944972 0.118940 -2.950805 -0.887614 -3.591527 0.799334 0.827276 0.251600 -4.731130 -0.967922 -1.221368 3.106249 3.616206
-2.749618 0.213602 0.122540 -2.987445 -2.092844 1.043242 -2.913604 -0.727593 -1.697798 3.918348 1.778137 -3.763288 3.309393 -0.059713 -2.140917 -3.684091 0.603029 -2.985524 1.392880 -4.578558 -2.526791 2.885047 -1.821369 0.965499 -0.197514 -1.344933 0.254424 -2.849670 2.859309 1.062095 2.866051 1.839893 -1.934846 -3.130454 -4.709525 4.354013 4.537785 -4.696358 -0.050742 -3.804761 0.607306 -1.509963 -2.367619 -2.371428 0.353260 -2.902199 0.424070 -0.015171 3.659865 -2.701711 1.445371 0.302827 2.536681 -1.463946 2.330609 -0.857396 -2.197727 -1.540700 -2.879004 4.460799 -0.104643 2.524938 -1.906441 3.061382 3.859204 0.016419 -2.201456 -1.393203 3.167667 -1.136987 -3.303295 -3.197481 3.431180 -3.950087 -2.054657 -4.129617 -4.378765 -2.053323 -3.697241 1.477565 -1.913483 -0.536517 -4.105037 2.878319 2.099205 1.102829 -3.634543 -3.815549 3.131321 -4.016232 3.050474 1.459926 4.729112 2.512244 -4.259808 0.140454
3.852951 1.644458 4.211989 -1.093262 1.324627 0.827152 -3.752345 -2.409991 2.343305 1.780598 -1.718097 1.548999 -3.833392 3.479920 -2.287493 3.739814 -3.978220 4.500959 1.857255 -0.697418 0.683621 -0.607430 -1.008653 3.385084 -2.262610 1.390063 -0.345858 3.786792 -3.607138 -2.769039 -2.922519 0.982542 0.390190 -1.571348 -2.910997 3.410210 -3.770864 -3.718994 -1.767803 -1.083789 -1.240943 1.627283 0.722128 0.787244 4.713410 -4.896138 3.647121 3.484546 1.446304 0.956553 -0.498940 -1.997447 1.370821 3.008250 -4.336576 1.469413 -2.544104 -0.747392 -4.881861 1.990839 2.525227 -3.241697 2.319786 2.451355 -1.463723 4.630301 -0.106142 2.832473 3.932765 -4.857128 2.974554 2.714575 -0.916622 1.867279 0.515576 -0.393792 2.082098 -4.590485 0.641891 -1.712910 4.628945 3.848599 -1.341127 3.105433 0.983325 -4.732411 1.215703 1.363719 -0.099545 -3.102191 4.905258 -4.728147 2.779297 -1.165875 -1.887615 2.388335
3.852951 1.644458 4.211989 -1.093262 1.324627 0.827152 -3.752345 -2.409991 2.343305 -3.169323 -1.718097 1.548999 -3.833392 3.479920 -2.287493 3.739814 -3.978220 4.500959 1.857255 -0.697418 0.683621 -0.607430 -1.534678 3.385084 -4.425762 1.896391 -3.436122 4.551771 -4.927987 3.777767 3.771214 0.725129 2.650339 3.066964 1.611890 4.432330 -0.152269 4.598139 2.842952 -1.843074 -3.916143 0.933700 -1.683432 -0.294525 -1.162193 -1.045759 4.520053 3.753565 -0.908055 0.782437 -0.700480 -4.097459 -2.312335 -2.093074 0.338185 -4.848601 3.409573 4.919578 2.977458 -1.041551 -4.455515 -2.263976 2.732557 0.744885 3.403234 -0.391058 -3.429731 3.038895 0.270828 2.033505 -4.877887 -2.530446 -0.916622 1.867279 0.515576 -0.393792 2.082098 -4.590485 0.641891 -1.712910 4.628945 3.848599 2.597107 3.105433 1.379635 -4.075035 -2.967696 2.028755 -3.286658 3.668024 3.332056 -2.910247 -1.244864 -1.459742 -3.796095 -2.958305
-1.217795 3.056544 2.193773 1.927980 -3.477903 2.426564 1.823435 2.970941 3.873488 3.503468 0.637073 1.633377 1.184885 -1.501005 -2.929269 -3.321243 2.321399 4.698363 -4.995446 1.131754 4.133960 -3.152549 1.192980 -3.764773 2.446236 -3.793006 -0.408931 1.082038 -1.461788 3.991644 3.896084 4.710054 0.450825 -1.727380 -0.642902 -4.350515 3.560267 4.089460 3.180748 -1.056814 -2.104309 4.529027 -1.378850 -1.352950 -1.406068 4.165031 -3.928899 2.997861 -1.578597 3.032109 3.643014 0.110916 3.748734 0.561760 -4.001758 -0.688341 4.287007 1.295876 -1.354566 -2.967289 2.699966 0.337086 -3.201227 1.449090 0.940924 3.855928 1.401699 -4.026238 3.167667 -1.136987 -3.303102 -0.510253 4.008262 3.515072 3.438748 0.953713 -4.465582 4.412452 0.930891 -2.810275 -4.385007 1.867156 -2.449701 -0.174786 -3.181791 0.298871 2.212970 -3.141493 -2.548546 -2.548917 -1.370652 -4.808480 -1.567871 2.586211 1.511317 -2.102731
-3.432828 0.705666 0.819853 1.386733 -1.868182 -2.999697 3.385899 -3.271357 2.124958 1.782533 -0.928400 0.757782 -3.932031 0.615654 3.936981 -3.284788 -0.541284 1.033976 -3.798943 -4.334633 0.482490 -4.471541 1.718113 -4.190247 3.120868 -2.665365 -4.029858 0.952204 -4.439352 -4.497619 -1.079045 4.821182 0.868920 -4.870619 2.825410 -2.099297 3.555048 -4.876977 0.713806 -0.510727 -2.660383 -0.514777 -4.285840 1.952701 -1.854601 -1.493637 -1.020327 0.125361 -3.069983 0.777818 -3.179448 -2.830349 -0.597209 1.861726 4.619202 0.967796 4.121935 -3.029656 1.121338 3.977851 -3.505420 -0.384639 4.912662 -2.675624 3.679988 1.676114 1.718976 0.640477 -2.813167 -3.552391 -1.366330 4.530733 1.072422 -3.933834 4.420550 -4.099014 1.236244 -4.411735 -4.768315 -1.640765 2.101193 -0.178823 4.984697 -3.385100 -2.682777 -4.969194 3.244012 2.922335 0.820152 0.706664 -4.890071 -4.820277 -0.632300 -3.586077 -2.418909 -1.846290
3.852951 1.644458 1.966464 -1.093262 1.324627 0.827152 -3.752345 -2.409991 2.343305 -3.169323 -1.718097 4.483486 1.053806 -1.687359 -4.171353 -1.269110 4.681654 1.872739 -0.742359 -3.864869 -3.991280 2.106027 -0.297616 1.590932 1.317812 -3.358071 -0.462996 1.844613 3.489221 2.744078 0.434824 -2.747796 -2.504998 0.186782 0.137699 -3.365987 -0.786609 3.332350 -1.210169 3.187186 -4.747627 -4.216960 2.269031 -3.703055 -3.664204 -2.742565 -0.420005 -4.919224 1.446304 0.956553 -0.498940 -1.997447 1.370821 -3.275834 -4.336576 1.469413 -2.544104 -0.747392 -4.881861 1.990839 4.326572 -2.968416 3.689217 2.995027 4.790138 1.610733 -1.196687 -3.235984 -3.743299 3.329977 -3.628194 -3.687521 -0.613814 0.335579 4.386980 -4.045910 -2.616442 -3.144985 4.051084 -3.183003 -3.008925 2.560491 3.179993 4.530773 0.983325 -4.732411 1.215703 1.363719 -0.099545 -3.102191 4.905258 -4.728147 2.779297 -2.010942 -1.887615 2.388335
0.040735 -2.909283 -1.730709 -3.371402 -3.323337 -3.551418 4.944721 -4.791349 2.840689 4.908396 3.361666 4.714610 -2.607898 -1.092446 1.365700 4.415982 4.685348 -1.034111 2.957020 -3.741951 3.315650 -2.902760 2.034847 -3.195302 -4.078403 3.545298 -4.188242 -3.630562 4.873515 4.249781 -2.561944 4.582842 4.741621 3.330904 -1.642277 2.365101 -2.135776 4.964676 0.592794 2.470649 0.091424 2.382038 4.659831 4.945423 3.204571 1.466307 -0.224713 3.928215 -4.233358 1.022461 3.492437 -0.005965 -3.395418 -2.470867 -4.334696 0.662176 -1.697386 -0.000102 -2.355758 -1.335216 0.372871 -4.915493 -0.899307 -4.843289 -4.400236 2.335973 1.530000 -2.098878 -1.257806 0.168384 1.822015 -2.949230 1.404837 -2.697262 0.097328 -1.393889 -3.022526 -0.742667 -1.950325 -1.159635 0.373897 -1.167011 4.915807 1.945050 -2.331346 -2.782021 1.542147 -3.580894 1.369547 -2.027065 3.861636 -0.729433 -3.248690 -1.361356 3.339780 -3.554010
0.040735 -2.909283 -1.730709 -3.371402 -3.323337 -3.551418 4.944721 -4.791349 2.840689 4.908396 3.361666 4.714610 -2.607898 -1.092446 1.365700 4.415982 4.685348 -1.034111 2.957020 -3.741951 3.315650 -2.902760 2.034847 -3.195302 -4.078403 3.545298 -4.188242 -3.630562 -2.376483 -0.185317 -2.267267 3.594531 -2.527016 0.026682 2.082772 1.471113 -2.545796 0.269804 3.912675 -3.942698 -2.238685 -3.108792 2.320230 -0.611909 -1.018418 3.090133 2.870712 4.350766 1.062667 2.627220 2.136933 -1.717141 -4.666239 2.166478 0.338312 1.214203 -0.463312 -3.029656 1.121338 3.977851 -3.505420 -0.384639 4.912662 -2.675624 3.679988 1.676114 1.718976 0.640477 -2.813167 -4.857128 2.974554 2.714575 -0.916622 1.867279 0.515576 -0.393792 2.082098 -4.590485 0.641891 -1.712910 -3.008925 2.560491 3.179993 4.530773 0.983325 -4.732411 1.215703 1.363719 -0.099545 -3.102191 4.905258 -4.728147 2.779297 -2.010942 -0.145772 2.388335
1.719351 0.597117 -2.931215 -0.370961 -4.780747 2.413969 2.673012 -3.788301 -0.639629 -3.786053 -4.658876 -0.737129 -4.612878 -1.975279 4.370931 -2.753145 0.405387 4.293140 1.110361 1.900496 -4.656714 -3.471960 -4.613450 -3.115920 -2.262610 1.390063 -0.345858 3.786792 -3.607138 -2.769039 -2.922519 0.982542 0.390190 -1.571348 -2.910997 3.410210 -3.770864 -4.696358 -0.050742 -3.804761 0.607306 -1.509963 3.972076 -2.371428 0.353260 -3.361751 0.424070 -3.139042 3.659865 -2.701711 1.445371 0.302827 2.536681 -1.463946 2.330609 -0.857396 -2.197727 -1.540700 -2.879004 4.460799 -0.104643 2.524938 -1.906441 3.061382 3.859204 0.016419 -2.201456 -1.393203 3.167667 -1.136987 -3.303295 -3.197481 -4.334422 -1.849663 -2.054657 -4.129617 -4.378765 -2.053323 1.710464 1.477565 -1.913483 -0.536517 -4.105037 2.878319 2.099205 1.102829 -3.634543 -3.815549 3.131321 -4.016232 3.050474 1.459926 4.729112 2.512244 -4.259808 0.140454
0.040735 -2.909283 -1.730709 -3.371402 -3.323337 -3.551418 4.944721 -4.791349 2.840689 4.908396 3.361666 -2.256424 -2.607898 -1.092446 1.365700 4.415982 4.685348 -1.034111 2.957020 -3.741951 3.315650 -2.902760 2.034847 -3.195302 -4.078403 3.545298 -4.188242 -3.630562 4.873515 4.249781 -2.561944 4.582842 4.741621 3.330904 -1.642277 2.365101 2.153902 -2.431599 -4.986032 0.532170 3.185514 4.310823 -3.670205 0.109419 -1.581496 -0.710390 -2.456249 -3.227838 -0.725467 2.810716 -2.840304 4.750102 0.607872 -3.091379 3.389918 1.090842 3.409573 4.919578 2.977458 -1.041551 -4.455515 -2.263976 2.732557 0.744885 3.403234 -0.391058 -3.429731 3.038895 -3.374068 4.655145 -4.207405 -2.367806 -4.986286 4.387113 4.948476 -4.736514 0.561137 3.132626 -3.405718 4.260676 2.317998 4.679225 -1.195716 -3.944972 0.118940 -2.950805 -0.887614 -3.591527 0.799334 0.827276 0.251600 -4.731130 -0.967922 -1.221368 3.106249 3.616206
-4.096293 -0.024955 -1.148558 1.175767 -0.568629 -0.954885 -2.122377 -4.275295 -1.590653 0.130279 1.763390 2.194638 2.951633 4.929929 -1.190605 -4.098231 -4.229435 2.509965 4.330135 -2.173238 -3.438421 2.248246 -4.021913 -1.881980 1.859348 -1.078404 2.196288 1.724149 4.464711 3.161971 -4.158843 -3.712828 3.348320 3.605241 -3.300436 3.919123 -1.928124 3.493405 -2.387507 -4.776727 1.591781 -0.943747 4.061963 -3.971609 2.148128 -3.687624 3.221700 -1.507633 3.093845 4.165712 -0.443504 2.236152 2.761519 1.088289 -2.342273 3.577603 -0.157836 3.249883 0.294415 -4.486835 -1.534632 -4.386061 0.377181 -2.873665 -2.553139 3.611683 2.501045 1.622319 -4.729627 3.253030 -0.637906 0.342304 -2.179147 1.167857 -1.689107 2.246210 -4.378765 -2.053323 -4.603130 1.477565 -1.913483 -0.536517 -4.105037 2.878319 2.099205 1.102829 -3.634543 -3.815549 3.131321 -4.016232 3.050474 1.459926 -0.142495 2.512244 -4.259808 0.140454
-3.432828 0.705666 0.819853 1.386733 -1.868182 -2.999697 3.385899 -3.271357 2.124958 1.782533 -0.928400 0.757782 -3.932031 0.615654 3.936981 -3.284788 -0.541284 1.033976 -3.798943 -4.334633 0.482490 -4.471541 1.718113 -4.190247 3.120868 1.408938 -4.029858 0.952204 -4.439352 -4.497619 -1.079045 4.821182 0.868920 -4.870619 0.828062 1.922557 2.153902 -2.431599 -4.986032 0.532170 3.185514 4.310823 -3.670205 0.109419 -1.581496 -0.710390 -2.456249 -3.227838 1.287265 2.810716 -2.840304 4.750102 0.607872 -3.091379 3.389918 1.090842 3.409573 4.919578 2.977458 -1.041551 -4.455515 -2.263976 1.200347 0.744885 3.403234 -0.391058 -3.429731 3.038895 -3.374068 4.655145 -4.207405 -2.367806 -4.986286 4.387113 4.948476 3.750786 0.561137 3.132626 -3.405718 4.260676 0.373897 -1.167011 4.915807 1.945050 -2.331346 -2.782021 1.542147 -3.580894 1.369547 -2.027065 3.861636 -0.729433 -3.248690 -1.361356 3.106249 3.616206
3.852951 1.644458 1.966464 -1.093262 1.324627 0.827152 -1.509127 4.182660 0.331646 4.409937 4.222109 4.057687 -2.391426 2.855607 -3.221356 -2.452543 -2.879687 -2.199403 -1.937109 -4.755299 2.481302 2.830346 -3.693780 3.960087 2.510249 3.702820 -0.353520 -1.398552 0.772973 -3.308753 -0.247364 -2.547935 2.916502 -4.298257 0.828062 1.922557 2.153902 -2.431599 -4.986032 0.532170 3.185514 4.310823 -3.670205 3.435585 -1.581496 -0.710390 -2.456249 -3.227838 -0.725467 2.810716 -2.840304 4.750102 0.607872 -3.091379 3.389918 1.090842 3.409573 4.919578 2.977458 -1.041551 -4.455515 -2.263976 2.732557 0.744885 3.403234 -0.391058 -3.429731 3.038895 -3.374068 4.655145 -4.207405 -2.367806 -4.986286 4.387113 4.948476 -4.736514 0.561137 3.132626 -3.405718 4.260676 2.317998 4.679225 -1.195716 -3.944972 0.118940 -2.950805 -0.887614 -3.591527 0.799334 0.827276 0.251600 -4.731130 -0.967922 -1.221368 3.106249 3.616206
-4.096293 -0.024955 -1.148558 -3.919646 -0.568629 -0.954885 1.022989 -3.573323 -2.155717 1.272281 1.553588 2.703810 3.053465 -3.019558 0.279393 4.558091 0.335451 2.329635 -2.414301 2.709129 1.531541 -3.224096 2.118609 0.610570 4.245879 0.525322 -1.783436 -2.419195 4.044654 4.268215 -4.838938 0.225434 3.848490 -3.815962 -1.771504 4.142677 -4.941831 -1.782444 4.037680 -4.121520 0.841460 0.769267 -2.317733 3.274617 4.521550 -1.542184 -1.218879 -4.552978 -1.524846 4.670845 -1.596295 -1.319186 -4.883051 3.429918 1.764772 -4.520108 2.912669 -3.221887 1.495759 -1.406499 1.272574 -4.868788 -1.637382 2.212664 -1.271277 0.971685 2.913726 2.628466 -1.594553 3.752866 -0.382039 -0.174304 -3.461427 -1.937655 3.702418 -2.775058 1.471148 2.322905 2.232746 1.448741 -4.401920 -4.480075 -1.354466 -1.586514 -3.106754 0.597058 4.736920 2.238022 1.772879 3.318425 -4.742887 0.078107 2.110962 -3.836477 -3.678163 -1.019378
1.719351 0.597117 -2.931215 -0.370961 -4.780747 2.413969 2.673012 -3.788301 -0.639629 -3.786053 -4.658876 -0.737129 -4.612878 -1.975279 4.370931 -2.753145 0.405387 4.293140 1.110361 1.900496 -4.656714 -3.471960 -4.613450 -3.115920 -2.262610 1.390063 -0.345858 3.786792 -3.607138 -2.769039 -2.922519 0.982542 0.390190 -1.571348 -2.910997 3.410210 -3.770864 -3.718994 -3.653463 -1.083789 -1.240943 1.627283 0.722128 0.787244 4.713410 -4.896138 -2.456249 -3.227838 -0.725467 2.810716 3.543867 4.750102 0.607872 -3.091379 3.389918 1.090842 3.409573 4.919578 2.977458 -1.041551 -4.455515 -2.263976 2.732557 0.744885 3.403234 -0.391058 -3.429731 3.038895 -3.374068 4.655145 -4.207405 -2.367806 -4.986286 4.387113 4.948476 -4.736514 0.561137 3.132626 -3.405718 4.260676 2.317998 4.679225 -1.195716 -3.944972 0.118940 -2.950805 -0.887614 -3.591527 0.799334 0.827276 0.251600 -4.731130 -0.967922 -1.221368 3.106249 -3.463700
0.040735 -2.909283 -1.730709 -3.371402 -3.323337 -3.551418 4.944721 -4.791349 2.840689 4.908396 3.361666 4.714610 -2.607898 -1.092446 1.365700 4.415982 4.685348 -1.034111 2.957020 -3.741951 3.315650 -2.902760 2.034847 -3.195302 -4.078403 3.545298 -4.188242 -3.630562 4.873515 4.249781 -2.561944 4.582842 4.741621 3.330904 -1.642277 2.365101 -2.135776 4.964676 0.592794 2.470649 0.091424 2.382038 4.659831 4.945423 3.204571 1.518184 -0.224713 4.350766 1.062667 2.627220 2.136933 -1.717141 -4.666239 2.166478 0.338312 -3.748333 -0.463312 -3.029656 1.121338 3.977851 -3.505420 -0.384639 4.912662 -2.675624 3.679988 1.676114 1.530000 4.970238 -1.257806 0.168384 2.880594 -2.949230 1.404837 3.627026 -1.812902 -4.045910 -2.616442 -3.144985 4.051084 -3.183003 -3.008925 2.560491 3.179993 4.530773 0.983325 -4.732411 1.215703 1.363719 -0.099545 -3.102191 4.905258 -4.728147 2.779297 -2.010942 -0.145772 2.388335
3.852951 1.644458 1.966464 -1.093262 1.324627 0.827152 -3.752345 -2.409991 2.343305 -3.169323 -1.718097 -0.005343 1.053806 -1.687359 -4.171353 -1.269110 4.681654 1.872739 -0.742359 -3.864869 -3.991280 2.106027 -0.297616 1.590932 1.317812 -3.358071 -0.462996 1.844613 3.489221 2.744078 0.434824 -2.747796 -2.504998 0.186782 0.137699 -3.365987 -0.786609 3.332350 -1.210169 3.187186 -4.747627 -4.216960 2.269031 -3.703055 -3.664204 -2.742565 -0.420005 -4.919224 4.749627 4.467187 -1.657975 -0.444328 1.370821 3.008250 -4.336576 1.469413 -2.544104 -0.747392 -4.881861 1.990839 2.525227 -3.241697 2.319786 2.451355 -1.463723 4.630301 -0.106142 -2.408729 3.932765 -4.857128 2.974554 2.714575 -0.916622 1.867279 0.515576 -0.393792 2.082098 -4.590485 0.641891 -1.712910 4.628945 3.848599 2.597107 3.105433 0.983325 -4.732411 1.215703 1.363719 -0.099545 -3.102191 4.905258 -4.728147 2.779297 -1.165875 -1.887615 2.388335
-2.380518 -0.297965 -3.294530 3.605050 1.556578 -2.785884 -1.202653 -3.573323 -2.155717 1.272281 1.553588 2.703810 3.053465 -3.019558 0.279393 4.558091 0.159737 2.329635 -2.414301 2.709129 1.531541 -3.224096 2.118609 0.610570 4.245879 0.525322 -1.783436 -2.419195 4.044654 4.268215 -4.838938 0.225434 3.848490 -3.815962 -1.771504 4.142677 -4.941831 -1.782444 4.037680 -4.121520 0.841460 0.769267 -2.317733 3.274617 4.521550 -1.542184 -1.218879 -4.552978 -1.524846 4.670845 -1.596295 -1.319186 -4.883051 3.429918 1.764772 -4.520108 2.912669 -3.221887 1.495759 -1.406499 1.272574 -4.868788 -1.637382 2.212664 -1.271277 0.971685 2.913726 2.628466 -1.594553 3.752866 -0.382039 -0.174304 -3.461427 -1.937655 3.702418 -2.775058 -2.136378 2.322905 2.232746 1.448741 -4.401920 -4.480075 -1.354466 -1.586514 -3.106754 0.597058 4.736920 2.238022 1.772879 3.318425 -4.742887 -4.731130 -0.967922 -1.221368 3.106249 3.616206
-2.749618 0.213602 4.358417 -0.229358 -0.609909 1.317923 -0.731976 1.228168 4.386454 -0.657485 -3.179270 -2.335028 3.416230 -1.146949 -2.124986 -0.575301 2.476187 -4.138207 -2.897801 -2.245832 2.559644 3.948205 -3.999816 1.699229 0.863546 -3.255475 2.978794 -3.259855 -2.376483 -0.185317 1.637772 3.594531 -2.527016 0.026682 2.082772 1.471113 -2.545796 0.269804 3.912675 -3.942698 -2.238685 -3.108792 2.320230 -0.611909 -1.018418 3.090133 2.870712 4.350766 2.465439 2.627220 2.136933 0.278605 -4.666239 2.166478 0.338312 -3.748333 -0.463312 -3.029656 1.121338 3.977851 -2.449865 -0.384639 4.912662 -2.675624 3.679988 1.676114 1.718976 0.640477 -2.813167 -3.552391 -1.366330 0.514332 4.301571 -2.456200 0.097328 -1.393889 -3.022526 -0.742667 -1.950325 -1.159635 0.373897 -1.167011 2.085029 1.597217 1.098099 -3.749409 -4.202931 2.158455 2.782612 4.413630 2.972984 1.076700 3.002804 -2.524806 3.184544 -4.880937
-3.432828 0.705666 0.819853 1.386733 -1.868182 -2.999697 3.385899 -3.271357 2.124958 1.782533 -0.928400 0.757782 -3.932031 1.127049 3.936981 -3.284788 -0.541284 1.033976 -3.798943 -4.334633 0.482490 -4.471541 1.718113 -4.190247 3.120868 -2.665365 -4.029858 0.952204 -4.927987 3.777767 -4.711111 0.725129 2.650339 3.066964 1.611890 4.432330 -0.961051 4.598139 2.842952 -1.843074 -3.916143 0.933700 -1.683432 -0.294525 -1.162193 -1.045759 4.520053 3.753565 -0.908055 0.782437 -0.700480 -4.097459 -2.312335 -2.093074 0.338185 -4.848601 -4.656601 4.881203 -2.686586 3.255532 -2.297019 -3.666662 0.011767 -1.425973 3.468918 4.148257 3.955116 4.691212 0.270828 2.033505 -4.877887 -2.530446 -0.916622 1.867279 0.515576 -0.393792 2.082098 -4.590485 0.641891 -1.712910 4.628945 3.848599 2.597107 3.105433 1.379635 -4.075035 -2.967696 2.028755 -3.286658 -1.856440 3.332056 -2.910247 -1.244864 -1.459742 -3.796095 -2.958305
3.852951 1.644458 4.211989 -1.093262 1.324627 0.827152 -3.752345 -2.409991 2.343305 -3.169323 -1.718097 1.548999 -3.833392 3.479920 -2.287493 3.739814 -3.978220 4.500959 1.857255 -0.697418 0.683621 -0.607430 -1.534678 3.385084 -4.425762 1.896391 -3.436122 4.551771 -4.927987 0.929287 -4.711111 0.725129 2.650339 3.066964 1.611890 4.432330 -0.961051 4.598139 2.842952 -1.843074 -3.916143 0.933700 -1.683432 -0.294525 -1.162193 -1.045759 4.520053 3.753565 -0.908055 3.090641 -0.700480 -4.097459 -2.312335 0.561760 -4.001758 0.096514 4.287007 4.881203 -2.686586 3.255532 -2.297019 -3.666662 0.011767 -1.425973 3.468918 4.148257 -2.966534 4.691212 0.270828 1.061895 -4.877887 -2.530446 2.641755 0.335079 -4.005303 0.021723 2.082098 -4.590485 0.641891 -0.381592 4.628945 3.848599 2.597107 3.105433 1.379635 -4.075035 -2.967696 2.028755 -3.286658 3.668024 3.332056 -2.910247 -1.244864 -1.459742 -3.796095 -2.958305
1.719351 0.597117 -2.931215 -0.370961 -4.780747 2.413969 2.673012 -3.788301 -0.639629 -3.786053 -4.658876 -0.737129 -4.612878 -1.975279 4.370931 -2.753145 0.405387 4.293140 1.110361 1.900496 -4.656714 -3.471960 -4.613450 -3.115920 -2.262610 1.390063 -0.345858 3.786792 -3.607138 -2.769039 4.108199 0.982542 0.390190 -1.571348 -2.910997 3.410210 -3.770864 -3.718994 -1.767803 -1.083789 -1.240943 1.627283 0.722128 0.787244 4.713410 -4.896138 3.647121 3.484546 1.446304 0.956553 -0.498940 -1.997447 1.370821 4.424832 -4.336576 1.469413 -2.544104 -0.747392 -4.881861 1.990839 4.326572 -2.968416 3.689217 2.995027 4.790138 1.610733 -1.196687 -3.235984 -3.743299 3.329977 -3.628194 -3.687521 -0.613814 0.335579 4.386980 2.246210 4.736754 3.828503 4.099097 -1.446443 2.528219 -4.447253 2.085029 1.597217 1.098099 -3.749409 -4.202931 2.158455 2.782612 4.413630 2.972984 1.076700 3.002804 -2.524806 3.184544 -4.880937
1.719351 0.597117 -2.931215 -0.370961 -4.780747 -0.954885 -2.122377 -4.275295 -1.590653 0.130279 1.763390 2.194638 2.951633 4.929929 3.862474 -4.098231 -4.229435 2.509965 4.330135 -2.173238 -3.438421 2.248246 -4.021913 -1.881980 1.859348 -1.078404 2.196288 1.724149 4.464711 3.161971 -4.158843 -3.712828 3.348320 3.605241 -3.300436 -0.200775 -1.928124 3.493405 -2.387507 -4.776727 1.591781 -0.943747 4.061963 -4.932747 3.813764 -3.687624 3.221700 -1.507633 3.093845 3.081668 2.411645 4.716057 -0.251018 -4.271211 3.086956 0.788001 2.116604 -3.855453 -3.382625 -0.887326 2.551356 -1.101060 1.177503 4.607927 1.265756 -4.634738 2.656383 -2.761084 -3.100520 -2.934782 -4.090990 -4.622421 3.971257 -3.673685 -2.598100 -1.058347 -4.917621 1.515132 1.371338 0.869618 1.332132 -0.839163 -1.453564 1.597217 1.098099 -3.749409 -4.202931 2.158455 2.782612 4.413630 2.972984 1.076700 3.002804 -2.524806 3.184544 -3.226901
3.852951 1.644458 4.211989 -1.093262 1.324627 0.827152 -3.752345 -2.409991 2.343305 -3.169323 -1.718097 1.548999 -3.833392 3.479920 -2.287493 3.739814 -3.978220 4.500959 1.857255 -0.697418 0.683621 -0.607430 -1.008653 3.385084 -4.425762 1.896391 -3.436122 4.551771 0.772973 3.998674 -0.247364 -2.547935 2.916502 -4.298257 2.650012 1.922557 2.153902 -2.431599 -4.986032 0.532170 3.185514 4.310823 -3.670205 0.109419 -1.581496 -0.710390 -2.456249 -3.227838 -0.725467 2.810716 -2.840304 4.750102 0.607872 -3.091379 3.389918 1.090842 3.409573 4.919578 2.977458 -1.041551 -4.455515 -2.263976 2.732557 0.744885 3.403234 -0.391058 -3.429731 3.038895 -3.374068 2.050577 -4.207405 -2.367806 -4.986286 4.387113 4.948476 -4.736514 0.561137 3.132626 -3.405718 4.260676 2.317998 4.679225 -1.195716 -3.944972 0.118940 -2.950805 -0.887614 -3.591527 0.799334 0.827276 0.251600 -4.731130 -3.231648 -1.221368 3.106249 3.616206
-0.880578 1.473004 3.030562 -1.847401 -1.813401 -4.602581 1.011826 -4.976999 1.304305 -3.886357 4.070332 2.983887 3.685776 -0.138988 1.222620 3.809511 0.389272 3.852035 -4.744977 0.127630 1.525810 -2.553746 -0.959153 1.925320 2.602609 -1.344933 0.254424 -2.849670 2.859309 3.085513 2.866051 1.839893 -1.934846 -3.130454 -4.709525 4.354013 4.537785 -4.696358 -0.050742 -3.804761 0.607306 -1.509963 3.972076 -2.371428 0.353260 -2.902199 0.424070 2.073068 3.659865 -2.701711 -0.557441 -2.804405 0.625603 -1.334834 4.808451 3.475860 3.308962 3.632877 -2.239850 -3.675121 -3.768892 -3.175018 -4.999515 -1.875947 1.291484 2.911367 0.353531 -4.465697 -2.448864 -2.836587 -3.278849 0.568759 1.056054 -1.116617 -2.813218 -1.932537 -4.456377 0.298740 -4.619598 -0.478245 -3.679405 4.831465 -3.091687 -0.677270 2.879832 1.168077 1.591818 2.830486 0.207646 -0.760152 2.823696 -4.364652 -1.705435 -4.543248 -2.180168 -2.645154
4.295992 3.945953 -4.384767 -1.674560 3.425197 0.300652 -1.509127 4.182660 0.331646 4.409937 4.222109 4.057687 -2.391426 2.855607 -3.221356 -2.452543 -2.879687 -2.199403 -1.937109 -4.755299 2.481302 2.830346 -3.693780 3.960087 2.510249 3.702820 -0.353520 -1.398552 0.772973 -3.308753 -0.247364 -2.547935 2.916502 -4.298257 0.828062 1.922557 -4.674312 -2.431599 -4.986032 0.532170 3.185514 4.310823 -3.670205 0.109419 -1.581496 -0.710390 -2.456249 -3.227838 -0.725467 2.810716 -2.840304 4.750102 0.607872 -3.091379 3.389918 1.090842 3.409573 4.919578 2.977458 -1.041551 -4.455515 -2.263976 2.732557 0.744885 3.403234 -0.391058 -3.429731 3.038895 -4.684748 4.655145 -4.207405 -3.189942 -4.986286 4.387113 4.948476 -4.736514 0.561137 3.132626 -3.405718 4.260676 2.317998 4.679225 -1.195716 -3.944972 0.118940 -2.950805 -0.887614 -3.591527 0.799334 0.827276 0.251600 -4.731130 -0.967922 -1.221368 3.106249 3.616206
-4.096293 -0.024955 -1.148558 -3.919646 -0.568629 -0.954885 -2.122377 -4.275295 -1.590653 0.130279 1.763390 2.194638 2.951633 4.929929 3.862474 -4.098231 -4.229435 2.509965 4.330135 -2.173238 -3.438421 2.248246 -4.021913 -1.881980 1.859348 -1.078404 2.196288 1.724149 4.464711 3.161971 -4.158843 -3.712828 3.348320 3.605241 -3.300436 -0.200775 -1.928124 3.493405 -2.387507 -4.776727 1.591781 -0.943747 4.061963 -4.932747 3.813764 -3.687624 3.221700 -1.507633 3.093845 3.081668 2.411645 -4.796886 -0.251018 -4.271211 3.086956 0.788001 2.116604 -3.855453 -3.382625 -0.887326 2.551356 -1.101060 1.177503 4.607927 1.265756 -4.634738 2.656383 -2.761084 -3.100520 -2.934782 -4.090990 -4.622421 3.971257 -3.673685 -2.598100 -1.058347 -4.917621 1.515132 1.371338 0.869618 1.332132 -0.839163 -1.453564 1.597217 1.098099 -3.749409 -4.202931 2.158455 2.782612 4.413630 2.972984 1.076700 3.002804 -2.524806 3.184544 -3.226901
