2.896428246322715339e-01 2.202120800617116458e+00 3.499654894738020161e+00 -2.651165466751606914e+00 4.182403990359279788e+00 4.167592327646314487e-01 -6.183142775335772612e-01 3.480313105009928520e+00 -3.466484612304357782e+00 -1.711656799556529052e-01 -1.569478702643962720e+00 -3.484610626230341346e+00 -2.492992931940761991e+00 6.852956375802854438e-02 1.174815588674103850e+00 -5.229519491646321683e-01 -6.198545839681104397e-01 1.601871150004737565e+00 4.213104457611452247e+00 -3.338203850410668139e-01 3.055155831040725189e+00 -1.884919819995374279e+00 3.028830394835734907e+00 -1.754774412918549409e+00 -3.251747370276525384e+00 3.826703612686277012e+00 1.745132956933156620e+00 3.556637878451201829e+00 -3.708447778300252295e+00 4.906279407317072128e+00 -2.238105008585905331e+00 -4.294898104894517843e-01 -1.919714661653024734e-01 3.704234590128693938e+00 2.326094424626914403e+00 -4.858002818369242526e+00 1.859442578837215088e+00 -1.553795684772918406e-01 -1.633117518287918735e+00 -2.159593439371381152e+00 4.102429693233721864e+00 2.765853979225726178e+00 3.396230087244367368e+00 3.603149209121491836e+00 -2.598291841336775043e+00 -3.534665959098854948e+00 -2.200438854681182832e+00 3.848424459132804287e-02 -4.534876336989690060e+00 1.979398659444058239e+00 -2.237463464623252740e+00 3.341084604435891947e+00 -7.736266542439231841e-01 2.450434896739067447e+00 -4.966557816893645061e+00 4.012461306397756999e+00 2.859125385259072338e+00 -2.676388419206459979e+00 4.778741350172273528e+00 3.351558711402219615e+00 -1.555232799349960615e+00 -3.214167906589905144e+00 -3.280132957796213500e+00 -1.186496597497406214e-01 -3.469828052826873233e-01 -5.137768986408399741e-01 -5.142659578535235809e-01 3.200884271076457566e+00 4.891279079591246415e-01 1.165314585687866611e-01 -4.087922623112218545e+00 -4.194214692020982405e+00 -3.882974237917059313e+00 1.064149670126504965e+00 -4.934194471774546287e+00 -3.370874518289178390e+00 5.643707908309902876e-01 9.163322296054934313e-01 -2.047272329733316187e+00 5.950882203273719639e-01 -4.359371717891718845e+00 -2.468907166214417970e+00 -3.990006929169637395e+00 4.799971236430449650e+00 -2.115761649987587312e+00 -2.224479118760541496e+00 -2.333008857483052090e+00 3.845420353951388037e+00 -1.969501665409760793e+00 -3.775097980456737723e+00 -4.919790840113043906e+00 3.769805448606520670e+00 3.619039079274013915e+00 2.248475632882295017e+00 1.211967259288338816e+00 3.125044048861841617e+00
2.896428246322715339e-01 -1.697584599057835320e-01 3.499654894738020161e+00 -2.651165466751606914e+00 4.182403990359279788e+00 4.167592327646314487e-01 1.266324248338023040e+00 3.480313105009928520e+00 1.477309350427078449e+00 -8.615456559581700091e-01 -5.726042776474162821e-01 -3.484610626230341346e+00 -2.492992931940761991e+00 6.852956375802854438e-02 1.174815588674103850e+00 -5.229519491646321683e-01 -6.198545839681104397e-01 1.601871150004737565e+00 -3.411608489301042546e+00 -3.338203850410668139e-01 2.133402093188939475e+00 -1.884919819995374279e+00 3.028830394835734907e+00 -4.197869554773381751e+00 -3.251747370276525384e+00 -3.667816042997176229e+00 1.745132956933156620e+00 3.556637878451201829e+00 -3.708447778300252295e+00 4.906279407317072128e+00 1.995777079039430468e+00 1.790605273943891795e+00 -1.919714661653024734e-01 3.704234590128693938e+00 2.326094424626914403e+00 -4.858002818369242526e+00 2.167417397731961515e+00 -1.553795684772918406e-01 -1.633117518287918735e+00 -2.159593439371381152e+00 4.102429693233721864e+00 -1.840147887628083012e+00 1.668626307454070812e+00 3.603149209121491836e+00 -2.598291841336775043e+00 -3.534665959098854948e+00 -2.175920125314789733e+00 3.848424459132804287e-02 -4.534876336989690060e+00 1.979398659444058239e+00 -2.237463464623252740e+00 3.341084604435891947e+00 -4.612913713505010449e+00 2.450434896739067447e+00 -4.966557816893645061e+00 4.012461306397756999e+00 2.859125385259072338e+00 -2.676388419206459979e+00 4.778741350172273528e+00 3.351558711402219615e+00 -4.044631258567786602e+00 -3.214167906589905144e+00 -1.140541257162079880e+00 -1.186496597497406214e-01 -3.469828052826873233e-01 -5.137768986408399741e-01 -5.142659578535235809e-01 3.200884271076457566e+00 4.891279079591246415e-01 -2.365072456608277029e+00 -4.087922623112218545e+00 -4.194214692020982405e+00 -3.882974237917059313e+00 1.064149670126504965e+00 -4.934194471774546287e+00 -3.370874518289178390e+00 5.643707908309902876e-01 2.040049888555443225e+00 -2.047272329733316187e+00 1.452155453229604376e-01 -3.129739340122662306e+00 1.384723047033238785e+00 -3.990006929169637395e+00 4.799971236430449650e+00 3.116787870082308842e+00 8.717065759096600530e-01 -2.333008857483052090e+00 3.845420353951388037e+00 -1.969501665409760793e+00 -3.775097980456737723e+00 3.482378875263007600e+00 3.769805448606520670e+00 3.619039079274013915e+00 2.248475632882295017e+00 1.211967259288338816e+00 3.125044048861841617e+00
2.896428246322715339e-01 2.202120800617116458e+00 3.499654894738020161e+00 -2.651165466751606914e+00 4.182403990359279788e+00 4.167592327646314487e-01 -6.183142775335772612e-01 3.480313105009928520e+00 -3.466484612304357782e+00 -9.792908777900146688e-01 3.862286995276541290e+00 -3.484610626230341346e+00 -2.492992931940761991e+00 6.852956375802854438e-02 1.174815588674103850e+00 -5.229519491646321683e-01 -6.198545839681104397e-01 1.601871150004737565e+00 4.213104457611452247e+00 -3.338203850410668139e-01 2.133402093188939475e+00 -1.884919819995374279e+00 3.028830394835734907e+00 -1.754774412918549409e+00 -3.251747370276525384e+00 3.826703612686277012e+00 3.784248574998782644e+00 3.556637878451201829e+00 -3.708447778300252295e+00 4.906279407317072128e+00 -2.755301840835108429e+00 2.748663816125560544e+00 -1.919714661653024734e-01 3.704234590128693938e+00 4.811408134512358714e+00 -4.858002818369242526e+00 1.859442578837215088e+00 -1.553795684772918406e-01 -1.633117518287918735e+00 -2.159593439371381152e+00 1.612839201453525106e+00 2.765853979225726178e+00 1.668626307454070812e+00 3.603149209121491836e+00 -4.934988934288140783e+00 -3.534665959098854948e+00 -2.175920125314789733e+00 3.848424459132804287e-02 -4.534876336989690060e+00 1.979398659444058239e+00 -2.612244210015034263e+00 3.341084604435891947e+00 -7.736266542439231841e-01 2.450434896739067447e+00 -4.966557816893645061e+00 4.012461306397756999e+00 2.859125385259072338e+00 -2.676388419206459979e+00 4.778741350172273528e+00 3.351558711402219615e+00 2.764670749634939639e+00 -3.214167906589905144e+00 -3.280132957796213500e+00 -1.186496597497406214e-01 -3.469828052826873233e-01 -5.137768986408399741e-01 2.409232831313158130e+00 -3.879354705191389030e-01 4.891279079591246415e-01 -2.365072456608277029e+00 2.527060196100768152e+00 -4.194214692020982405e+00 -3.882974237917059313e+00 1.369207213416317792e+00 -4.934194471774546287e+00 -3.199540629818626858e+00 5.643707908309902876e-01 9.163322296054934313e-01 -2.047272329733316187e+00 5.950882203273719639e-01 -4.359371717891718845e+00 -2.468907166214417970e+00 -3.990006929169637395e+00 4.799971236430449650e+00 -1.409463314481744778e+00 8.717065759096600530e-01 -2.333008857483052090e+00 3.845420353951388037e+00 -1.969501665409760793e+00 -3.775097980456737723e+00 3.482378875263007600e+00 3.769805448606520670e+00 3.619039079274013915e+00 2.248475632882295017e+00 1.211967259288338816e+00 3.051953160779515173e+00
1.216946800995193811e+00 2.424320861111145753e+00 1.788803325125336130e+00 -1.731072350816856620e+00 1.292798752821376240e+00 2.925230570483052794e+00 3.550398763898815702e+00 -8.987012298295606882e-01 -5.515017831638857615e-02 2.086320821510306622e+00 -1.881106717180784038e+00 -4.737252707869087587e+00 -1.555301673346884961e+00 3.239969842170063785e+00 1.174815588674103850e+00 -5.229519491646321683e-01 1.216217454504796791e+00 1.601871150004737565e+00 4.213104457611452247e+00 -3.338203850410668139e-01 2.133402093188939475e+00 -1.884919819995374279e+00 3.028830394835734907e+00 -4.197869554773381751e+00 -3.251747370276525384e+00 3.826703612686277012e+00 1.745132956933156620e+00 3.556637878451201829e+00 -3.708447778300252295e+00 4.906279407317072128e+00 -2.238105008585905331e+00 3.674430446634310954e+00 -1.919714661653024734e-01 3.704234590128693938e+00 2.326094424626914403e+00 -4.858002818369242526e+00 2.167417397731961515e+00 -1.553795684772918406e-01 -1.633117518287918735e+00 -2.159593439371381152e+00 4.102429693233721864e+00 -1.840147887628083012e+00 1.668626307454070812e+00 3.603149209121491836e+00 -2.598291841336775043e+00 -3.534665959098854948e+00 -2.175920125314789733e+00 3.848424459132804287e-02 -4.534876336989690060e+00 1.979398659444058239e+00 -2.237463464623252740e+00 3.341084604435891947e+00 -4.612913713505010449e+00 2.450434896739067447e+00 -4.966557816893645061e+00 4.012461306397756999e+00 2.859125385259072338e+00 -2.676388419206459979e+00 4.778741350172273528e+00 3.351558711402219615e+00 2.764670749634939639e+00 -3.214167906589905144e+00 -3.280132957796213500e+00 -1.186496597497406214e-01 -3.469828052826873233e-01 2.167613316907508469e+00 4.815913643838559466e+00 3.200884271076457566e+00 4.891279079591246415e-01 -2.365072456608277029e+00 -4.087922623112218545e+00 -4.194214692020982405e+00 -3.882974237917059313e+00 1.064149670126504965e+00 -4.934194471774546287e+00 -3.370874518289178390e+00 5.643707908309902876e-01 2.040049888555443225e+00 -2.047272329733316187e+00 1.452155453229604376e-01 -3.129739340122662306e+00 1.384723047033238785e+00 -3.990006929169637395e+00 4.799971236430449650e+00 3.116787870082308842e+00 8.717065759096600530e-01 -2.333008857483052090e+00 3.845420353951388037e+00 9.483491913849171340e-01 -3.775097980456737723e+00 3.482378875263007600e+00 3.769805448606520670e+00 3.619039079274013915e+00 2.248475632882295017e+00 1.211967259288338816e+00 3.125044048861841617e+00
2.896428246322715339e-01 -7.007821500737145826e-01 -5.844811880125142523e-01 6.262441947979517920e-01 -2.766862263562648305e+00 4.167592327646314487e-01 -2.677283186181335317e+00 3.480313105009928520e+00 2.123682709327145091e+00 -9.792908777900146688e-01 -5.726042776474162821e-01 6.081522987226914978e-01 -2.492992931940761991e+00 6.852956375802854438e-02 1.174815588674103850e+00 -5.229519491646321683e-01 -6.198545839681104397e-01 1.601871150004737565e+00 -3.435852085552333346e+00 7.343993279010714303e-01 -3.748180396996902974e+00 -4.595537457667989045e+00 3.028830394835734907e+00 -4.197869554773381751e+00 -3.251747370276525384e+00 3.837386846795132200e+00 1.745132956933156620e+00 3.556637878451201829e+00 -3.979736441439909456e+00 -1.247489274717736851e+00 1.864014706077000483e+00 1.790605273943891795e+00 -1.919714661653024734e-01 3.704234590128693938e+00 2.326094424626914403e+00 -4.858002818369242526e+00 -2.727987666010570855e+00 -1.553795684772918406e-01 -1.633117518287918735e+00 4.112298126574341239e+00 4.102429693233721864e+00 -1.840147887628083012e+00 1.668626307454070812e+00 3.603149209121491836e+00 -2.598291841336775043e+00 5.840574296766787299e-01 -3.946818581650872737e+00 3.848424459132804287e-02 -4.534876336989690060e+00 1.551023181095021464e+00 -2.237463464623252740e+00 3.341084604435891947e+00 -7.736266542439231841e-01 2.450434896739067447e+00 -4.966557816893645061e+00 4.012461306397756999e+00 2.859125385259072338e+00 -2.676388419206459979e+00 4.778741350172273528e+00 3.351558711402219615e+00 -1.555232799349960615e+00 -3.214167906589905144e+00 -3.280132957796213500e+00 -2.324163426558093271e+00 -3.469828052826873233e-01 -5.137768986408399741e-01 -5.142659578535235809e-01 -3.879354705191389030e-01 4.891279079591246415e-01 -2.365072456608277029e+00 -4.661463059405073217e+00 -4.194214692020982405e+00 -3.882974237917059313e+00 1.966793332406132855e+00 -4.934194471774546287e+00 -3.370874518289178390e+00 1.896987417484834459e+00 9.163322296054934313e-01 -2.047272329733316187e+00 5.950882203273719639e-01 -4.359371717891718845e+00 -2.468907166214417970e+00 -3.990006929169637395e+00 4.799971236430449650e+00 -2.115761649987587312e+00 -2.224479118760541496e+00 -2.333008857483052090e+00 3.845420353951388037e+00 -1.969501665409760793e+00 -3.775097980456737723e+00 3.482378875263007600e+00 3.769805448606520670e+00 3.619039079274013915e+00 2.248475632882295017e+00 1.211967259288338816e+00 -1.438101667266360462e+00
1.216946800995193811e+00 2.424320861111145753e+00 1.788803325125336130e+00 -1.731072350816856620e+00 1.292798752821376240e+00 2.925230570483052794e+00 3.550398763898815702e+00 -8.987012298295606882e-01 -5.515017831638857615e-02 2.086320821510306622e+00 -1.881106717180784038e+00 -4.737252707869087587e+00 -1.219107262349836684e+00 3.239969842170063785e+00 1.174815588674103850e+00 -5.229519491646321683e-01 1.216217454504796791e+00 1.601871150004737565e+00 4.213104457611452247e+00 -3.338203850410668139e-01 2.133402093188939475e+00 -1.884919819995374279e+00 3.028830394835734907e+00 -4.197869554773381751e+00 -3.251747370276525384e+00 3.826703612686277012e+00 1.745132956933156620e+00 3.556637878451201829e+00 -3.708447778300252295e+00 4.906279407317072128e+00 -2.238105008585905331e+00 3.674430446634310954e+00 -1.919714661653024734e-01 3.704234590128693938e+00 2.326094424626914403e+00 -4.858002818369242526e+00 1.859442578837215088e+00 -1.553795684772918406e-01 -1.633117518287918735e+00 -2.159593439371381152e+00 4.102429693233721864e+00 2.765853979225726178e+00 3.396230087244367368e+00 3.609607654379225039e+00 -1.834944662326679854e+00 -3.534665959098854948e+00 -2.175920125314789733e+00 3.848424459132804287e-02 -4.534876336989690060e+00 3.984304830460214220e+00 6.222549171230138398e-01 3.341084604435891947e+00 -7.736266542439231841e-01 2.450434896739067447e+00 -4.966557816893645061e+00 -2.397604723855902620e+00 -3.983722436520462651e-01 -2.676388419206459979e+00 4.388136665221752608e+00 3.351558711402219615e+00 2.764670749634939639e+00 -1.189490016815249795e+00 -3.280132957796213500e+00 -1.186496597497406214e-01 -3.469828052826873233e-01 6.918313572446210813e-01 2.409232831313158130e+00 -3.879354705191389030e-01 4.891279079591246415e-01 -2.365072456608277029e+00 4.472820949155483561e+00 -4.194214692020982405e+00 -3.882974237917059313e+00 1.369207213416317792e+00 -4.934194471774546287e+00 -3.370874518289178390e+00 5.643707908309902876e-01 9.163322296054934313e-01 -2.047272329733316187e+00 5.950882203273719639e-01 -4.359371717891718845e+00 3.978917952689194237e+00 -3.990006929169637395e+00 4.799971236430449650e+00 -2.115761649987587312e+00 -2.224479118760541496e+00 -6.832974558038369395e-01 3.845420353951388037e+00 -1.969501665409760793e+00 -3.775097980456737723e+00 3.482378875263007600e+00 3.769805448606520670e+00 3.619039079274013915e+00 2.248475632882295017e+00 1.211967259288338816e+00 3.125044048861841617e+00
2.896428246322715339e-01 3.519033641177932381e+00 3.499654894738020161e+00 -2.651165466751606914e+00 4.182403990359279788e+00 -2.591138537810067088e+00 1.266324248338023040e+00 -1.173069339477911477e+00 -3.466484612304357782e+00 -9.792908777900146688e-01 -5.726042776474162821e-01 -3.484610626230341346e+00 1.894214563251956029e+00 6.852956375802854438e-02 1.174815588674103850e+00 -5.229519491646321683e-01 -6.198545839681104397e-01 1.522574668518071661e+00 -3.411608489301042546e+00 -3.338203850410668139e-01 2.133402093188939475e+00 -1.884919819995374279e+00 3.028830394835734907e+00 -4.197869554773381751e+00 -3.251747370276525384e+00 -3.667816042997176229e+00 1.745132956933156620e+00 3.556637878451201829e+00 -3.708447778300252295e+00 4.906279407317072128e+00 1.995777079039430468e+00 1.790605273943891795e+00 -1.919714661653024734e-01 3.704234590128693938e+00 2.326094424626914403e+00 -4.858002818369242526e+00 -2.727987666010570855e+00 -1.553795684772918406e-01 -1.633117518287918735e+00 -2.159593439371381152e+00 4.102429693233721864e+00 -1.840147887628083012e+00 1.668626307454070812e+00 3.603149209121491836e+00 -2.598291841336775043e+00 -3.534665959098854948e+00 -2.175920125314789733e+00 1.449741692526052894e+00 -4.534876336989690060e+00 1.979398659444058239e+00 -2.237463464623252740e+00 3.341084604435891947e+00 -4.612913713505010449e+00 2.450434896739067447e+00 -4.966557816893645061e+00 4.012461306397756999e+00 2.859125385259072338e+00 -2.676388419206459979e+00 4.778741350172273528e+00 3.351558711402219615e+00 -1.555232799349960615e+00 -3.214167906589905144e+00 1.549361324763989245e-01 -1.186496597497406214e-01 -3.469828052826873233e-01 -5.137768986408399741e-01 -5.142659578535235809e-01 3.200884271076457566e+00 4.891279079591246415e-01 -9.994627919351994905e-02 8.363582535190872136e-01 -2.864787075729760879e+00 -3.882974237917059313e+00 1.369207213416317792e+00 -4.934194471774546287e+00 -3.370874518289178390e+00 5.643707908309902876e-01 9.163322296054934313e-01 -2.047272329733316187e+00 5.950882203273719639e-01 -4.359371717891718845e+00 -2.468907166214417970e+00 -3.990006929169637395e+00 4.799971236430449650e+00 -1.409463314481744778e+00 8.717065759096600530e-01 -2.333008857483052090e+00 3.845420353951388037e+00 -1.969501665409760793e+00 -3.775097980456737723e+00 3.482378875263007600e+00 3.769805448606520670e+00 3.619039079274013915e+00 2.248475632882295017e+00 1.211967259288338816e+00 3.125044048861841617e+00
2.896428246322715339e-01 3.519033641177932381e+00 3.499654894738020161e+00 -2.651165466751606914e+00 4.182403990359279788e+00 -2.591138537810067088e+00 1.266324248338023040e+00 -1.173069339477911477e+00 -3.466484612304357782e+00 -9.792908777900146688e-01 -5.726042776474162821e-01 -3.484610626230341346e+00 1.894214563251956029e+00 6.852956375802854438e-02 1.174815588674103850e+00 -5.229519491646321683e-01 -6.198545839681104397e-01 1.522574668518071661e+00 -3.411608489301042546e+00 -3.338203850410668139e-01 2.133402093188939475e+00 -1.884919819995374279e+00 3.028830394835734907e+00 -4.197869554773381751e+00 -3.251747370276525384e+00 -3.667816042997176229e+00 1.745132956933156620e+00 3.556637878451201829e+00 -3.708447778300252295e+00 4.906279407317072128e+00 1.995777079039430468e+00 1.790605273943891795e+00 -1.919714661653024734e-01 3.704234590128693938e+00 2.326094424626914403e+00 -3.902433208835630829e+00 -2.727987666010570855e+00 -1.553795684772918406e-01 -1.633117518287918735e+00 -2.159593439371381152e+00 4.102429693233721864e+00 -1.840147887628083012e+00 1.668626307454070812e+00 3.603149209121491836e+00 -2.598291841336775043e+00 -3.534665959098854948e+00 -2.097229002267841924e+00 3.848424459132804287e-02 -4.534876336989690060e+00 1.792122439183980731e-01 -2.237463464623252740e+00 3.341084604435891947e+00 -7.736266542439231841e-01 2.450434896739067447e+00 -4.966557816893645061e+00 4.012461306397756999e+00 2.859125385259072338e+00 -2.676388419206459979e+00 4.778741350172273528e+00 3.351558711402219615e+00 -1.555232799349960615e+00 2.241786292910811440e+00 -3.280132957796213500e+00 -1.186496597497406214e-01 -3.469828052826873233e-01 -5.137768986408399741e-01 -5.142659578535235809e-01 -3.879354705191389030e-01 4.891279079591246415e-01 -2.365072456608277029e+00 -4.087922623112218545e+00 -4.194214692020982405e+00 -3.882974237917059313e+00 1.369207213416317792e+00 -4.934194471774546287e+00 -3.370874518289178390e+00 5.643707908309902876e-01 9.163322296054934313e-01 -2.047272329733316187e+00 5.950882203273719639e-01 -4.359371717891718845e+00 -2.468907166214417970e+00 -3.990006929169637395e+00 4.799971236430449650e+00 -2.115761649987587312e+00 -2.224479118760541496e+00 -2.333008857483052090e+00 3.845420353951388037e+00 -1.969501665409760793e+00 -3.775097980456737723e+00 3.482378875263007600e+00 3.769805448606520670e+00 3.619039079274013915e+00 2.248475632882295017e+00 1.211967259288338816e+00 3.125044048861841617e+00
2.896428246322715339e-01 -7.007821500737145826e-01 -5.844811880125142523e-01 2.964322341257240367e+00 -2.766862263562648305e+00 4.167592327646314487e-01 -2.677283186181335317e+00 3.480313105009928520e+00 2.123682709327145091e+00 -9.792908777900146688e-01 -5.726042776474162821e-01 6.081522987226914978e-01 -2.492992931940761991e+00 6.852956375802854438e-02 1.174815588674103850e+00 -5.229519491646321683e-01 -6.198545839681104397e-01 1.601871150004737565e+00 -3.435852085552333346e+00 7.343993279010714303e-01 -3.748180396996902974e+00 -4.595537457667989045e+00 1.835655661240686243e+00 -4.197869554773381751e+00 -3.251747370276525384e+00 3.837386846795132200e+00 1.745132956933156620e+00 3.556637878451201829e+00 -3.979736441439909456e+00 -1.247489274717736851e+00 1.864014706077000483e+00 1.790605273943891795e+00 -1.919714661653024734e-01 3.704234590128693938e+00 2.326094424626914403e+00 -4.858002818369242526e+00 -2.727987666010570855e+00 -1.553795684772918406e-01 -1.633117518287918735e+00 -2.159593439371381152e+00 4.102429693233721864e+00 -1.840147887628083012e+00 1.668626307454070812e+00 3.603149209121491836e+00 -2.598291841336775043e+00 5.840574296766787299e-01 -2.175920125314789733e+00 3.848424459132804287e-02 -4.534876336989690060e+00 1.551023181095021464e+00 -2.237463464623252740e+00 3.341084604435891947e+00 -7.736266542439231841e-01 2.450434896739067447e+00 -4.966557816893645061e+00 4.012461306397756999e+00 2.859125385259072338e+00 -2.676388419206459979e+00 4.778741350172273528e+00 3.351558711402219615e+00 -1.555232799349960615e+00 -3.214167906589905144e+00 -3.280132957796213500e+00 -2.324163426558093271e+00 -3.469828052826873233e-01 -5.137768986408399741e-01 -5.142659578535235809e-01 -3.879354705191389030e-01 4.891279079591246415e-01 -2.365072456608277029e+00 -4.661463059405073217e+00 -4.194214692020982405e+00 -3.882974237917059313e+00 1.966793332406132855e+00 -4.934194471774546287e+00 -3.370874518289178390e+00 5.643707908309902876e-01 9.163322296054934313e-01 -2.047272329733316187e+00 5.950882203273719639e-01 -4.359371717891718845e+00 3.978917952689194237e+00 -3.990006929169637395e+00 4.799971236430449650e+00 -2.115761649987587312e+00 -2.224479118760541496e+00 -6.832974558038369395e-01 2.057381458840583655e+00 -1.969501665409760793e+00 -3.775097980456737723e+00 3.482378875263007600e+00 3.769805448606520670e+00 3.619039079274013915e+00 2.248475632882295017e+00 6.907900668371080855e-02 -1.438101667266360462e+00
2.896428246322715339e-01 3.519033641177932381e+00 3.499654894738020161e+00 -2.651165466751606914e+00 4.619226675403874438e+00 -2.591138537810067088e+00 1.266324248338023040e+00 -1.173069339477911477e+00 -3.466484612304357782e+00 -9.792908777900146688e-01 -5.726042776474162821e-01 -3.484610626230341346e+00 1.894214563251956029e+00 6.852956375802854438e-02 1.174815588674103850e+00 -5.229519491646321683e-01 -6.198545839681104397e-01 1.522574668518071661e+00 -3.411608489301042546e+00 -3.338203850410668139e-01 2.133402093188939475e+00 -1.884919819995374279e+00 3.028830394835734907e+00 -4.197869554773381751e+00 -3.251747370276525384e+00 -3.667816042997176229e+00 1.745132956933156620e+00 3.556637878451201829e+00 -3.708447778300252295e+00 4.906279407317072128e+00 1.995777079039430468e+00 1.790605273943891795e+00 -1.919714661653024734e-01 3.704234590128693938e+00 2.326094424626914403e+00 -4.858002818369242526e+00 -2.727987666010570855e+00 -1.553795684772918406e-01 -1.633117518287918735e+00 -2.159593439371381152e+00 4.102429693233721864e+00 -1.840147887628083012e+00 1.668626307454070812e+00 3.603149209121491836e+00 -2.598291841336775043e+00 -3.534665959098854948e+00 -2.175920125314789733e+00 2.848147819336225517e+00 -4.534876336989690060e+00 1.979398659444058239e+00 -2.237463464623252740e+00 3.341084604435891947e+00 -4.612913713505010449e+00 2.450434896739067447e+00 -4.966557816893645061e+00 4.012461306397756999e+00 2.859125385259072338e+00 -2.676388419206459979e+00 4.778741350172273528e+00 3.351558711402219615e+00 -1.555232799349960615e+00 -3.214167906589905144e+00 1.549361324763989245e-01 -1.186496597497406214e-01 -3.469828052826873233e-01 -5.137768986408399741e-01 2.409232831313158130e+00 -3.879354705191389030e-01 4.891279079591246415e-01 -2.365072456608277029e+00 -4.087922623112218545e+00 -4.194214692020982405e+00 -3.882974237917059313e+00 1.369207213416317792e+00 -4.934194471774546287e+00 -3.370874518289178390e+00 5.643707908309902876e-01 2.040049888555443225e+00 -2.047272329733316187e+00 1.452155453229604376e-01 -3.129739340122662306e+00 1.384723047033238785e+00 -3.990006929169637395e+00 4.799971236430449650e+00 3.116787870082308842e+00 8.717065759096600530e-01 -2.333008857483052090e+00 3.845420353951388037e+00 -1.969501665409760793e+00 -3.775097980456737723e+00 3.482378875263007600e+00 3.769805448606520670e+00 3.619039079274013915e+00 2.248475632882295017e+00 1.211967259288338816e+00 3.125044048861841617e+00
2.896428246322715339e-01 2.202120800617116458e+00 3.499654894738020161e+00 -2.651165466751606914e+00 4.182403990359279788e+00 4.167592327646314487e-01 -6.183142775335772612e-01 3.480313105009928520e+00 2.557510679143923937e-01 -8.615456559581700091e-01 -5.726042776474162821e-01 -3.484610626230341346e+00 -2.492992931940761991e+00 6.852956375802854438e-02 1.174815588674103850e+00 -5.229519491646321683e-01 -6.198545839681104397e-01 1.601871150004737565e+00 -3.411608489301042546e+00 -3.338203850410668139e-01 2.133402093188939475e+00 -1.884919819995374279e+00 3.028830394835734907e+00 -4.197869554773381751e+00 -3.251747370276525384e+00 -3.667816042997176229e+00 1.745132956933156620e+00 3.556637878451201829e+00 -3.708447778300252295e+00 4.906279407317072128e+00 1.995777079039430468e+00 1.790605273943891795e+00 -1.919714661653024734e-01 3.524884662583255945e+00 2.326094424626914403e+00 -4.858002818369242526e+00 -2.727987666010570855e+00 -1.553795684772918406e-01 -1.633117518287918735e+00 -2.159593439371381152e+00 4.102429693233721864e+00 -1.840147887628083012e+00 3.483301726320663150e+00 3.603149209121491836e+00 -2.598291841336775043e+00 -3.534665959098854948e+00 -2.175920125314789733e+00 3.848424459132804287e-02 -4.534876336989690060e+00 1.979398659444058239e+00 -2.237463464623252740e+00 3.341084604435891947e+00 -4.612913713505010449e+00 2.450434896739067447e+00 -4.966557816893645061e+00 4.012461306397756999e+00 2.859125385259072338e+00 -2.676388419206459979e+00 4.778741350172273528e+00 3.351558711402219615e+00 -1.555232799349960615e+00 -3.214167906589905144e+00 1.549361324763989245e-01 -1.186496597497406214e-01 -3.469828052826873233e-01 -5.137768986408399741e-01 2.409232831313158130e+00 -3.879354705191389030e-01 2.808230638369220600e+00 -2.365072456608277029e+00 -4.087922623112218545e+00 -4.194214692020982405e+00 -3.882974237917059313e+00 1.369207213416317792e+00 -4.934194471774546287e+00 -3.370874518289178390e+00 5.643707908309902876e-01 9.163322296054934313e-01 -2.047272329733316187e+00 5.950882203273719639e-01 -4.359371717891718845e+00 -2.468907166214417970e+00 -3.990006929169637395e+00 4.799971236430449650e+00 -1.409463314481744778e+00 8.717065759096600530e-01 -6.832974558038369395e-01 3.845420353951388037e+00 -1.969501665409760793e+00 -3.775097980456737723e+00 3.482378875263007600e+00 3.769805448606520670e+00 3.619039079274013915e+00 2.248475632882295017e+00 1.211967259288338816e+00 -1.438101667266360462e+00
2.896428246322715339e-01 -1.697584599057835320e-01 3.499654894738020161e+00 -2.651165466751606914e+00 4.182403990359279788e+00 4.167592327646314487e-01 1.266324248338023040e+00 3.480313105009928520e+00 -3.466484612304357782e+00 -9.792908777900146688e-01 -5.726042776474162821e-01 -3.484610626230341346e+00 -2.492992931940761991e+00 6.852956375802854438e-02 1.174815588674103850e+00 -5.229519491646321683e-01 -6.198545839681104397e-01 -3.445155001379327508e+00 -3.411608489301042546e+00 -3.338203850410668139e-01 2.133402093188939475e+00 -1.884919819995374279e+00 3.028830394835734907e+00 -4.197869554773381751e+00 -3.251747370276525384e+00 -3.667816042997176229e+00 1.745132956933156620e+00 3.556637878451201829e+00 -3.708447778300252295e+00 4.906279407317072128e+00 -2.432038886150151846e+00 1.790605273943891795e+00 -1.919714661653024734e-01 3.704234590128693938e+00 2.326094424626914403e+00 -4.858002818369242526e+00 -2.727987666010570855e+00 -1.553795684772918406e-01 -1.633117518287918735e+00 -2.159593439371381152e+00 4.102429693233721864e+00 -1.840147887628083012e+00 1.668626307454070812e+00 3.603149209121491836e+00 -2.598291841336775043e+00 -3.534665959098854948e+00 3.173309079303281877e+00 3.848424459132804287e-02 -4.534876336989690060e+00 1.979398659444058239e+00 -2.237463464623252740e+00 3.341084604435891947e+00 -7.736266542439231841e-01 2.450434896739067447e+00 -4.966557816893645061e+00 4.012461306397756999e+00 2.859125385259072338e+00 -2.676388419206459979e+00 4.778741350172273528e+00 3.351558711402219615e+00 -1.555232799349960615e+00 -3.214167906589905144e+00 -1.140541257162079880e+00 -1.186496597497406214e-01 -3.469828052826873233e-01 -5.137768986408399741e-01 -5.142659578535235809e-01 3.200884271076457566e+00 4.891279079591246415e-01 -2.365072456608277029e+00 -4.087922623112218545e+00 -4.194214692020982405e+00 -3.882974237917059313e+00 1.064149670126504965e+00 6.545181177019010477e-02 -3.370874518289178390e+00 5.643707908309902876e-01 2.040049888555443225e+00 -2.047272329733316187e+00 1.452155453229604376e-01 -3.129739340122662306e+00 -2.468907166214417970e+00 -3.990006929169637395e+00 -1.781855391142611822e+00 -2.115761649987587312e+00 -2.224479118760541496e+00 -2.333008857483052090e+00 3.845420353951388037e+00 -1.969501665409760793e+00 -3.775097980456737723e+00 3.482378875263007600e+00 3.769805448606520670e+00 3.619039079274013915e+00 2.248475632882295017e+00 1.211967259288338816e+00 3.125044048861841617e+00
2.896428246322715339e-01 3.519033641177932381e+00 3.499654894738020161e+00 -2.651165466751606914e+00 4.182403990359279788e+00 -2.591138537810067088e+00 1.266324248338023040e+00 -1.173069339477911477e+00 -3.466484612304357782e+00 -9.792908777900146688e-01 -5.726042776474162821e-01 -3.484610626230341346e+00 1.894214563251956029e+00 6.852956375802854438e-02 1.174815588674103850e+00 -5.229519491646321683e-01 -6.198545839681104397e-01 1.522574668518071661e+00 -3.411608489301042546e+00 -3.338203850410668139e-01 2.133402093188939475e+00 -1.884919819995374279e+00 3.028830394835734907e+00 -4.197869554773381751e+00 -3.251747370276525384e+00 -3.667816042997176229e+00 1.745132956933156620e+00 3.556637878451201829e+00 -3.708447778300252295e+00 4.906279407317072128e+00 1.995777079039430468e+00 1.790605273943891795e+00 -1.919714661653024734e-01 3.704234590128693938e+00 2.326094424626914403e+00 -4.858002818369242526e+00 -2.727987666010570855e+00 -1.553795684772918406e-01 -1.633117518287918735e+00 -2.159593439371381152e+00 -2.719297607355367852e+00 2.765853979225726178e+00 1.668626307454070812e+00 3.603149209121491836e+00 -2.598291841336775043e+00 -3.534665959098854948e+00 -2.175920125314789733e+00 3.848424459132804287e-02 -4.534876336989690060e+00 1.979398659444058239e+00 -2.612244210015034263e+00 3.341084604435891947e+00 9.525813209493172451e-01 2.450434896739067447e+00 -4.966557816893645061e+00 4.012461306397756999e+00 2.859125385259072338e+00 -3.713305531594466302e-01 4.235855000435190476e+00 3.351558711402219615e+00 -1.555232799349960615e+00 4.591710884995572783e+00 -3.262046668418789874e+00 -1.186496597497406214e-01 -3.469828052826873233e-01 -5.137768986408399741e-01 -5.142659578535235809e-01 3.200884271076457566e+00 4.891279079591246415e-01 -9.994627919351994905e-02 8.363582535190872136e-01 -2.864787075729760879e+00 -3.882974237917059313e+00 1.369207213416317792e+00 -3.017134658023232774e+00 -3.370874518289178390e+00 5.643707908309902876e-01 2.040049888555443225e+00 -4.459074158357282158e+00 5.950882203273719639e-01 -4.359371717891718845e+00 -2.468907166214417970e+00 -3.990006929169637395e+00 4.799971236430449650e+00 -2.115761649987587312e+00 -2.224479118760541496e+00 -2.333008857483052090e+00 3.845420353951388037e+00 -1.969501665409760793e+00 -3.775097980456737723e+00 3.482378875263007600e+00 3.769805448606520670e+00 3.619039079274013915e+00 2.248475632882295017e+00 1.211967259288338816e+00 3.125044048861841617e+00
2.896428246322715339e-01 2.202120800617116458e+00 3.499654894738020161e+00 -2.651165466751606914e+00 4.182403990359279788e+00 4.167592327646314487e-01 -6.183142775335772612e-01 3.480313105009928520e+00 -3.466484612304357782e+00 -9.792908777900146688e-01 -1.569478702643962720e+00 -3.484610626230341346e+00 -2.492992931940761991e+00 6.852956375802854438e-02 1.174815588674103850e+00 -5.229519491646321683e-01 -6.198545839681104397e-01 1.601871150004737565e+00 -3.411608489301042546e+00 -3.338203850410668139e-01 2.133402093188939475e+00 -1.884919819995374279e+00 3.028830394835734907e+00 -4.197869554773381751e+00 -3.251747370276525384e+00 -6.670861934237457547e-01 -5.024235244555352864e-01 9.548767215134992270e-01 -3.828816394391391320e+00 4.906279407317072128e+00 1.995777079039430468e+00 3.674430446634310954e+00 3.573822679494293553e+00 3.704234590128693938e+00 2.326094424626914403e+00 -4.858002818369242526e+00 -2.727987666010570855e+00 -1.553795684772918406e-01 -1.633117518287918735e+00 -4.226722672667079017e+00 -1.794613754139391393e+00 -4.102939943114202848e+00 1.668626307454070812e+00 3.603149209121491836e+00 -2.598291841336775043e+00 -3.534665959098854948e+00 -2.175920125314789733e+00 3.848424459132804287e-02 -4.534876336989690060e+00 1.979398659444058239e+00 -2.237463464623252740e+00 3.341084604435891947e+00 -4.612913713505010449e+00 2.450434896739067447e+00 -4.966557816893645061e+00 4.012461306397756999e+00 2.859125385259072338e+00 -2.676388419206459979e+00 9.514515603236448626e-01 3.351558711402219615e+00 -1.555232799349960615e+00 4.591710884995572783e+00 -3.262046668418789874e+00 -1.186496597497406214e-01 -3.469828052826873233e-01 -5.137768986408399741e-01 -5.142659578535235809e-01 3.200884271076457566e+00 4.891279079591246415e-01 -9.994627919351994905e-02 8.363582535190872136e-01 -2.864787075729760879e+00 -3.882974237917059313e+00 1.369207213416317792e+00 -3.017134658023232774e+00 -3.370874518289178390e+00 5.643707908309902876e-01 2.040049888555443225e+00 -4.459074158357282158e+00 5.950882203273719639e-01 -4.359371717891718845e+00 -2.468907166214417970e+00 -3.990006929169637395e+00 4.799971236430449650e+00 -1.409463314481744778e+00 8.717065759096600530e-01 -2.333008857483052090e+00 3.845420353951388037e+00 -1.969501665409760793e+00 -3.775097980456737723e+00 3.482378875263007600e+00 3.769805448606520670e+00 3.619039079274013915e+00 2.248475632882295017e+00 1.211967259288338816e+00 3.125044048861841617e+00
2.896428246322715339e-01 3.519033641177932381e+00 3.499654894738020161e+00 -2.651165466751606914e+00 4.182403990359279788e+00 -2.591138537810067088e+00 1.266324248338023040e+00 -1.173069339477911477e+00 -3.466484612304357782e+00 -9.792908777900146688e-01 -5.726042776474162821e-01 -3.484610626230341346e+00 1.894214563251956029e+00 6.852956375802854438e-02 1.174815588674103850e+00 -5.229519491646321683e-01 -6.198545839681104397e-01 1.601871150004737565e+00 -3.411608489301042546e+00 -3.338203850410668139e-01 2.133402093188939475e+00 -1.884919819995374279e+00 3.028830394835734907e+00 -4.197869554773381751e+00 -3.251747370276525384e+00 -6.670861934237457547e-01 -5.024235244555352864e-01 9.548767215134992270e-01 -3.708447778300252295e+00 4.906279407317072128e+00 -3.423591426856530617e+00 3.674430446634310954e+00 3.573822679494293553e+00 3.704234590128693938e+00 2.326094424626914403e+00 -4.858002818369242526e+00 -2.727987666010570855e+00 -1.553795684772918406e-01 -1.633117518287918735e+00 -4.226722672667079017e+00 -2.719297607355367852e+00 2.765853979225726178e+00 1.668626307454070812e+00 3.603149209121491836e+00 -2.598291841336775043e+00 -3.534665959098854948e+00 -2.175920125314789733e+00 3.848424459132804287e-02 -4.534876336989690060e+00 1.979398659444058239e+00 -2.612244210015034263e+00 3.341084604435891947e+00 9.525813209493172451e-01 2.450434896739067447e+00 -4.966557816893645061e+00 4.012461306397756999e+00 2.859125385259072338e+00 -2.676388419206459979e+00 4.235855000435190476e+00 3.351558711402219615e+00 -1.555232799349960615e+00 4.591710884995572783e+00 -3.262046668418789874e+00 -1.186496597497406214e-01 -3.469828052826873233e-01 -5.137768986408399741e-01 -5.142659578535235809e-01 3.200884271076457566e+00 4.891279079591246415e-01 -9.994627919351994905e-02 8.363582535190872136e-01 -2.864787075729760879e+00 -3.882974237917059313e+00 1.369207213416317792e+00 -4.934194471774546287e+00 -3.370874518289178390e+00 5.643707908309902876e-01 9.163322296054934313e-01 -2.047272329733316187e+00 5.950882203273719639e-01 -4.359371717891718845e+00 -2.468907166214417970e+00 -3.990006929169637395e+00 4.799971236430449650e+00 -1.409463314481744778e+00 8.717065759096600530e-01 -2.333008857483052090e+00 3.845420353951388037e+00 -1.969501665409760793e+00 -3.775097980456737723e+00 3.482378875263007600e+00 1.205358732039894853e+00 3.619039079274013915e+00 2.248475632882295017e+00 1.211967259288338816e+00 3.125044048861841617e+00
2.896428246322715339e-01 3.519033641177932381e+00 3.499654894738020161e+00 -2.651165466751606914e+00 4.182403990359279788e+00 -2.591138537810067088e+00 1.266324248338023040e+00 -1.173069339477911477e+00 -3.466484612304357782e+00 -9.792908777900146688e-01 -5.726042776474162821e-01 -3.484610626230341346e+00 1.894214563251956029e+00 6.852956375802854438e-02 -1.164773052455107205e+00 -5.229519491646321683e-01 -6.198545839681104397e-01 1.601871150004737565e+00 -3.411608489301042546e+00 -3.338203850410668139e-01 2.133402093188939475e+00 -1.884919819995374279e+00 3.028830394835734907e+00 -4.197869554773381751e+00 -3.251747370276525384e+00 -6.670861934237457547e-01 -5.024235244555352864e-01 9.548767215134992270e-01 -3.708447778300252295e+00 4.906279407317072128e+00 1.995777079039430468e+00 3.674430446634310954e+00 3.573822679494293553e+00 3.704234590128693938e+00 2.326094424626914403e+00 -4.858002818369242526e+00 -2.727987666010570855e+00 -1.553795684772918406e-01 -1.633117518287918735e+00 -4.171423577359755441e+00 -2.719297607355367852e+00 2.765853979225726178e+00 1.668626307454070812e+00 3.603149209121491836e+00 -2.598291841336775043e+00 -3.534665959098854948e+00 -2.175920125314789733e+00 3.848424459132804287e-02 -4.534876336989690060e+00 1.979398659444058239e+00 -2.612244210015034263e+00 3.341084604435891947e+00 9.525813209493172451e-01 8.249394400878067302e-01 -4.966557816893645061e+00 4.012461306397756999e+00 2.859125385259072338e+00 -2.676388419206459979e+00 4.235855000435190476e+00 3.351558711402219615e+00 -1.555232799349960615e+00 4.591710884995572783e+00 -3.262046668418789874e+00 -1.186496597497406214e-01 -3.469828052826873233e-01 -5.137768986408399741e-01 -5.142659578535235809e-01 -3.879354705191389030e-01 4.891279079591246415e-01 -2.365072456608277029e+00 -4.087922623112218545e+00 -4.194214692020982405e+00 -3.882974237917059313e+00 1.369207213416317792e+00 -4.934194471774546287e+00 -3.370874518289178390e+00 5.643707908309902876e-01 2.040049888555443225e+00 -4.459074158357282158e+00 5.950882203273719639e-01 -4.359371717891718845e+00 -2.468907166214417970e+00 -3.990006929169637395e+00 4.799971236430449650e+00 -1.409463314481744778e+00 8.717065759096600530e-01 -2.333008857483052090e+00 3.845420353951388037e+00 -1.969501665409760793e+00 -3.775097980456737723e+00 3.482378875263007600e+00 3.769805448606520670e+00 3.619039079274013915e+00 -2.127537123729666746e+00 1.211967259288338816e+00 3.125044048861841617e+00
2.896428246322715339e-01 2.202120800617116458e+00 3.499654894738020161e+00 -2.651165466751606914e+00 4.182403990359279788e+00 4.167592327646314487e-01 -6.183142775335772612e-01 3.480313105009928520e+00 -3.466484612304357782e+00 -9.792908777900146688e-01 -1.569478702643962720e+00 -3.484610626230341346e+00 -2.492992931940761991e+00 6.852956375802854438e-02 1.174815588674103850e+00 -5.229519491646321683e-01 -6.198545839681104397e-01 1.601871150004737565e+00 4.213104457611452247e+00 -3.338203850410668139e-01 3.055155831040725189e+00 -1.884919819995374279e+00 3.028830394835734907e+00 -1.754774412918549409e+00 -3.251747370276525384e+00 3.826703612686277012e+00 1.745132956933156620e+00 3.556637878451201829e+00 -3.708447778300252295e+00 4.906279407317072128e+00 -2.238105008585905331e+00 -4.294898104894517843e-01 -1.919714661653024734e-01 3.704234590128693938e+00 2.326094424626914403e+00 -4.858002818369242526e+00 1.859442578837215088e+00 -1.553795684772918406e-01 -1.633117518287918735e+00 -2.159593439371381152e+00 4.102429693233721864e+00 2.765853979225726178e+00 3.396230087244367368e+00 3.603149209121491836e+00 -2.598291841336775043e+00 -4.077220199157801872e+00 -2.175920125314789733e+00 3.848424459132804287e-02 -4.534876336989690060e+00 1.979398659444058239e+00 -2.237463464623252740e+00 3.341084604435891947e+00 -7.736266542439231841e-01 2.450434896739067447e+00 -4.966557816893645061e+00 4.012461306397756999e+00 2.859125385259072338e+00 -2.676388419206459979e+00 4.778741350172273528e+00 3.351558711402219615e+00 -1.555232799349960615e+00 -3.214167906589905144e+00 -3.280132957796213500e+00 -1.186496597497406214e-01 -3.469828052826873233e-01 -5.137768986408399741e-01 -5.142659578535235809e-01 3.200884271076457566e+00 4.891279079591246415e-01 1.165314585687866611e-01 -4.087922623112218545e+00 -4.194214692020982405e+00 -3.882974237917059313e+00 1.064149670126504965e+00 -4.934194471774546287e+00 -3.370874518289178390e+00 5.643707908309902876e-01 9.163322296054934313e-01 -2.047272329733316187e+00 5.950882203273719639e-01 -4.359371717891718845e+00 -2.468907166214417970e+00 -3.990006929169637395e+00 4.799971236430449650e+00 -2.115761649987587312e+00 -2.224479118760541496e+00 -2.333008857483052090e+00 3.845420353951388037e+00 -1.969501665409760793e+00 -3.775097980456737723e+00 -4.919790840113043906e+00 3.769805448606520670e+00 3.619039079274013915e+00 2.248475632882295017e+00 1.211967259288338816e+00 3.125044048861841617e+00
2.896428246322715339e-01 3.519033641177932381e+00 3.499654894738020161e+00 -4.753582999496953398e+00 4.182403990359279788e+00 -2.591138537810067088e+00 1.266324248338023040e+00 -1.173069339477911477e+00 -3.466484612304357782e+00 -9.792908777900146688e-01 -5.726042776474162821e-01 -3.484610626230341346e+00 1.894214563251956029e+00 6.852956375802854438e-02 1.174815588674103850e+00 -5.229519491646321683e-01 -6.198545839681104397e-01 1.601871150004737565e+00 -3.411608489301042546e+00 -3.338203850410668139e-01 2.133402093188939475e+00 -1.884919819995374279e+00 3.028830394835734907e+00 -4.197869554773381751e+00 -3.251747370276525384e+00 -6.670861934237457547e-01 -5.024235244555352864e-01 9.548767215134992270e-01 -3.708447778300252295e+00 4.906279407317072128e+00 -3.423591426856530617e+00 3.674430446634310954e+00 3.573822679494293553e+00 3.704234590128693938e+00 2.326094424626914403e+00 -4.858002818369242526e+00 -2.727987666010570855e+00 -1.553795684772918406e-01 -1.633117518287918735e+00 -4.226722672667079017e+00 -2.719297607355367852e+00 2.765853979225726178e+00 1.668626307454070812e+00 3.603149209121491836e+00 -2.598291841336775043e+00 -1.925477380126610960e+00 -2.175920125314789733e+00 3.848424459132804287e-02 -4.534876336989690060e+00 1.979398659444058239e+00 -2.612244210015034263e+00 3.341084604435891947e+00 9.525813209493172451e-01 2.450434896739067447e+00 -4.966557816893645061e+00 4.012461306397756999e+00 2.859125385259072338e+00 -2.676388419206459979e+00 4.235855000435190476e+00 3.351558711402219615e+00 -1.555232799349960615e+00 4.591710884995572783e+00 -3.262046668418789874e+00 -1.186496597497406214e-01 -3.469828052826873233e-01 -5.137768986408399741e-01 -5.142659578535235809e-01 3.200884271076457566e+00 4.891279079591246415e-01 -9.994627919351994905e-02 8.363582535190872136e-01 -2.213311486378265691e+00 -3.882974237917059313e+00 1.369207213416317792e+00 -4.934194471774546287e+00 -3.370874518289178390e+00 5.643707908309902876e-01 9.163322296054934313e-01 -2.047272329733316187e+00 5.950882203273719639e-01 -4.359371717891718845e+00 -2.468907166214417970e+00 -3.990006929169637395e+00 4.799971236430449650e+00 -1.409463314481744778e+00 8.717065759096600530e-01 -2.333008857483052090e+00 3.845420353951388037e+00 -1.969501665409760793e+00 -3.775097980456737723e+00 3.482378875263007600e+00 3.769805448606520670e+00 3.619039079274013915e+00 2.248475632882295017e+00 1.211967259288338816e+00 3.125044048861841617e+00
2.896428246322715339e-01 3.519033641177932381e+00 3.499654894738020161e+00 -2.651165466751606914e+00 4.182403990359279788e+00 -2.591138537810067088e+00 1.266324248338023040e+00 -1.173069339477911477e+00 -3.466484612304357782e+00 -9.792908777900146688e-01 -5.726042776474162821e-01 -3.484610626230341346e+00 1.894214563251956029e+00 -1.089854399150667064e+00 1.174815588674103850e+00 -5.229519491646321683e-01 -6.198545839681104397e-01 1.601871150004737565e+00 -3.411608489301042546e+00 -3.338203850410668139e-01 2.133402093188939475e+00 -1.884919819995374279e+00 3.028830394835734907e+00 -4.197869554773381751e+00 -3.251747370276525384e+00 -6.670861934237457547e-01 -5.024235244555352864e-01 9.548767215134992270e-01 -3.708447778300252295e+00 4.906279407317072128e+00 -3.423591426856530617e+00 3.674430446634310954e+00 -9.646569093987498178e-01 3.704234590128693938e+00 2.326094424626914403e+00 -4.858002818369242526e+00 -2.727987666010570855e+00 -1.553795684772918406e-01 -1.633117518287918735e+00 -4.226722672667079017e+00 -2.719297607355367852e+00 2.765853979225726178e+00 1.668626307454070812e+00 3.603149209121491836e+00 -2.598291841336775043e+00 -3.534665959098854948e+00 -2.175920125314789733e+00 3.848424459132804287e-02 -4.534876336989690060e+00 1.979398659444058239e+00 -2.612244210015034263e+00 3.341084604435891947e+00 9.525813209493172451e-01 2.450434896739067447e+00 -4.966557816893645061e+00 4.012461306397756999e+00 2.859125385259072338e+00 -2.676388419206459979e+00 4.235855000435190476e+00 3.351558711402219615e+00 -1.555232799349960615e+00 4.591710884995572783e+00 -3.262046668418789874e+00 -1.186496597497406214e-01 -3.469828052826873233e-01 -5.137768986408399741e-01 -5.142659578535235809e-01 3.200884271076457566e+00 4.891279079591246415e-01 -9.994627919351994905e-02 8.363582535190872136e-01 -2.864787075729760879e+00 -3.882974237917059313e+00 1.369207213416317792e+00 -4.934194471774546287e+00 -3.370874518289178390e+00 5.643707908309902876e-01 9.163322296054934313e-01 -2.047272329733316187e+00 5.950882203273719639e-01 -4.359371717891718845e+00 -2.468907166214417970e+00 -3.990006929169637395e+00 4.799971236430449650e+00 -1.409463314481744778e+00 8.717065759096600530e-01 -2.333008857483052090e+00 3.845420353951388037e+00 -1.969501665409760793e+00 -3.775097980456737723e+00 3.482378875263007600e+00 3.769805448606520670e+00 3.619039079274013915e+00 2.248475632882295017e+00 1.211967259288338816e+00 -1.438101667266360462e+00
2.896428246322715339e-01 2.202120800617116458e+00 3.499654894738020161e+00 -2.651165466751606914e+00 4.182403990359279788e+00 4.167592327646314487e-01 -6.183142775335772612e-01 3.480313105009928520e+00 -3.466484612304357782e+00 -1.711656799556529052e-01 -1.569478702643962720e+00 -3.484610626230341346e+00 -2.492992931940761991e+00 6.852956375802854438e-02 1.174815588674103850e+00 -5.229519491646321683e-01 -6.198545839681104397e-01 4.785463036579860940e+00 4.213104457611452247e+00 -3.338203850410668139e-01 3.055155831040725189e+00 -1.884919819995374279e+00 3.028830394835734907e+00 -1.754774412918549409e+00 -3.251747370276525384e+00 3.826703612686277012e+00 1.745132956933156620e+00 3.556637878451201829e+00 -3.708447778300252295e+00 4.906279407317072128e+00 -2.238105008585905331e+00 -4.294898104894517843e-01 -1.919714661653024734e-01 3.704234590128693938e+00 2.326094424626914403e+00 -4.858002818369242526e+00 1.859442578837215088e+00 -1.553795684772918406e-01 -1.633117518287918735e+00 -2.159593439371381152e+00 4.102429693233721864e+00 2.765853979225726178e+00 3.396230087244367368e+00 3.603149209121491836e+00 -2.598291841336775043e+00 -3.534665959098854948e+00 -2.175920125314789733e+00 3.848424459132804287e-02 -4.534876336989690060e+00 1.979398659444058239e+00 -2.237463464623252740e+00 3.341084604435891947e+00 -7.736266542439231841e-01 2.450434896739067447e+00 -4.966557816893645061e+00 4.012461306397756999e+00 2.859125385259072338e+00 -2.676388419206459979e+00 4.778741350172273528e+00 3.351558711402219615e+00 -1.555232799349960615e+00 -3.214167906589905144e+00 2.052354766537488828e+00 -1.186496597497406214e-01 -3.469828052826873233e-01 -5.137768986408399741e-01 -5.142659578535235809e-01 3.200884271076457566e+00 4.891279079591246415e-01 1.165314585687866611e-01 -4.087922623112218545e+00 -4.194214692020982405e+00 -3.882974237917059313e+00 1.064149670126504965e+00 -4.934194471774546287e+00 -3.066748103123462244e-01 5.643707908309902876e-01 9.163322296054934313e-01 -2.047272329733316187e+00 5.950882203273719639e-01 -4.359371717891718845e+00 -2.468907166214417970e+00 -3.990006929169637395e+00 4.799971236430449650e+00 -2.115761649987587312e+00 -2.224479118760541496e+00 -2.333008857483052090e+00 3.845420353951388037e+00 -1.969501665409760793e+00 -3.775097980456737723e+00 -4.919790840113043906e+00 3.769805448606520670e+00 3.619039079274013915e+00 2.248475632882295017e+00 1.211967259288338816e+00 3.125044048861841617e+00
2.896428246322715339e-01 3.519033641177932381e+00 3.499654894738020161e+00 -2.651165466751606914e+00 4.182403990359279788e+00 -2.591138537810067088e+00 1.266324248338023040e+00 -1.173069339477911477e+00 -3.466484612304357782e+00 -9.792908777900146688e-01 -5.726042776474162821e-01 -3.484610626230341346e+00 1.894214563251956029e+00 6.852956375802854438e-02 1.174815588674103850e+00 -5.229519491646321683e-01 -6.198545839681104397e-01 -1.759979326540884514e+00 -3.411608489301042546e+00 -4.068576645598195540e+00 2.133402093188939475e+00 -1.884919819995374279e+00 3.028830394835734907e+00 -4.197869554773381751e+00 -3.251747370276525384e+00 -3.667816042997176229e+00 1.745132956933156620e+00 3.556637878451201829e+00 -3.708447778300252295e+00 4.906279407317072128e+00 1.995777079039430468e+00 1.790605273943891795e+00 -1.919714661653024734e-01 3.704234590128693938e+00 2.326094424626914403e+00 -4.858002818369242526e+00 -2.727987666010570855e+00 -1.553795684772918406e-01 -1.633117518287918735e+00 -2.159593439371381152e+00 4.102429693233721864e+00 -1.840147887628083012e+00 1.668626307454070812e+00 3.603149209121491836e+00 -2.598291841336775043e+00 -3.534665959098854948e+00 -2.175920125314789733e+00 2.848147819336225517e+00 -4.534876336989690060e+00 1.979398659444058239e+00 -2.237463464623252740e+00 3.341084604435891947e+00 -4.612913713505010449e+00 2.450434896739067447e+00 -4.966557816893645061e+00 4.012461306397756999e+00 2.859125385259072338e+00 -2.676388419206459979e+00 4.778741350172273528e+00 3.351558711402219615e+00 -1.555232799349960615e+00 -3.214167906589905144e+00 1.549361324763989245e-01 -1.186496597497406214e-01 -3.469828052826873233e-01 -5.137768986408399741e-01 2.409232831313158130e+00 -3.879354705191389030e-01 4.891279079591246415e-01 -2.365072456608277029e+00 -4.087922623112218545e+00 -4.194214692020982405e+00 -3.882974237917059313e+00 1.369207213416317792e+00 -4.934194471774546287e+00 -3.370874518289178390e+00 5.643707908309902876e-01 9.163322296054934313e-01 -2.047272329733316187e+00 5.950882203273719639e-01 -4.359371717891718845e+00 -2.468907166214417970e+00 -3.990006929169637395e+00 4.799971236430449650e+00 -1.409463314481744778e+00 2.078648141913735259e+00 -2.333008857483052090e+00 3.845420353951388037e+00 -1.969501665409760793e+00 -3.775097980456737723e+00 3.482378875263007600e+00 3.769805448606520670e+00 3.619039079274013915e+00 2.248475632882295017e+00 1.211967259288338816e+00 3.051953160779515173e+00
2.896428246322715339e-01 2.202120800617116458e+00 3.499654894738020161e+00 -2.651165466751606914e+00 4.182403990359279788e+00 4.167592327646314487e-01 -6.183142775335772612e-01 3.480313105009928520e+00 -3.466484612304357782e+00 -1.711656799556529052e-01 -1.569478702643962720e+00 -3.484610626230341346e+00 -2.492992931940761991e+00 6.852956375802854438e-02 1.174815588674103850e+00 -5.229519491646321683e-01 -6.198545839681104397e-01 1.601871150004737565e+00 4.213104457611452247e+00 -3.338203850410668139e-01 3.055155831040725189e+00 -1.884919819995374279e+00 3.028830394835734907e+00 -1.754774412918549409e+00 -3.251747370276525384e+00 3.826703612686277012e+00 1.745132956933156620e+00 3.556637878451201829e+00 -3.708447778300252295e+00 4.906279407317072128e+00 -2.238105008585905331e+00 -4.294898104894517843e-01 -1.919714661653024734e-01 3.704234590128693938e+00 2.326094424626914403e+00 3.074758006072949357e+00 1.859442578837215088e+00 -1.553795684772918406e-01 -1.633117518287918735e+00 -2.159593439371381152e+00 4.102429693233721864e+00 2.765853979225726178e+00 3.396230087244367368e+00 3.609607654379225039e+00 -1.834944662326679854e+00 -3.534665959098854948e+00 -1.268179008864229740e+00 3.848424459132804287e-02 -4.534876336989690060e+00 3.984304830460214220e+00 -2.612244210015034263e+00 3.341084604435891947e+00 -7.736266542439231841e-01 2.450434896739067447e+00 -4.966557816893645061e+00 -2.397604723855902620e+00 -4.422133857134593171e+00 -2.676388419206459979e+00 4.388136665221752608e+00 3.351558711402219615e+00 2.764670749634939639e+00 -3.214167906589905144e+00 -3.280132957796213500e+00 -1.186496597497406214e-01 -3.469828052826873233e-01 -5.137768986408399741e-01 2.409232831313158130e+00 -3.879354705191389030e-01 4.891279079591246415e-01 -2.365072456608277029e+00 -4.087922623112218545e+00 -4.194214692020982405e+00 -3.882974237917059313e+00 1.369207213416317792e+00 -4.934194471774546287e+00 -3.370874518289178390e+00 5.643707908309902876e-01 2.040049888555443225e+00 -4.459074158357282158e+00 5.950882203273719639e-01 -4.359371717891718845e+00 -2.468907166214417970e+00 -3.990006929169637395e+00 4.799971236430449650e+00 -1.409463314481744778e+00 8.717065759096600530e-01 -2.333008857483052090e+00 3.845420353951388037e+00 -1.969501665409760793e+00 -3.775097980456737723e+00 3.482378875263007600e+00 3.769805448606520670e+00 3.619039079274013915e+00 2.248475632882295017e+00 1.211967259288338816e+00 3.125044048861841617e+00
2.896428246322715339e-01 -1.697584599057835320e-01 3.499654894738020161e+00 -2.651165466751606914e+00 4.182403990359279788e+00 4.167592327646314487e-01 1.266324248338023040e+00 3.480313105009928520e+00 1.477309350427078449e+00 -8.615456559581700091e-01 -5.726042776474162821e-01 -3.484610626230341346e+00 -2.492992931940761991e+00 6.852956375802854438e-02 1.174815588674103850e+00 -5.229519491646321683e-01 -6.198545839681104397e-01 1.601871150004737565e+00 -3.411608489301042546e+00 -3.338203850410668139e-01 2.133402093188939475e+00 -1.884919819995374279e+00 3.028830394835734907e+00 -4.197869554773381751e+00 -3.251747370276525384e+00 -3.667816042997176229e+00 1.745132956933156620e+00 3.556637878451201829e+00 -3.832855773716745684e+00 4.906279407317072128e+00 1.995777079039430468e+00 1.790605273943891795e+00 -1.919714661653024734e-01 3.704234590128693938e+00 2.326094424626914403e+00 -4.858002818369242526e+00 2.167417397731961515e+00 -1.553795684772918406e-01 -1.633117518287918735e+00 -2.159593439371381152e+00 4.102429693233721864e+00 -1.840147887628083012e+00 1.668626307454070812e+00 3.603149209121491836e+00 -2.598291841336775043e+00 -3.534665959098854948e+00 -2.175920125314789733e+00 3.848424459132804287e-02 -4.534876336989690060e+00 1.979398659444058239e+00 -2.237463464623252740e+00 3.341084604435891947e+00 -4.612913713505010449e+00 2.450434896739067447e+00 -4.966557816893645061e+00 4.012461306397756999e+00 2.859125385259072338e+00 -2.676388419206459979e+00 4.778741350172273528e+00 3.351558711402219615e+00 2.764670749634939639e+00 -3.214167906589905144e+00 -3.280132957796213500e+00 -1.186496597497406214e-01 -3.469828052826873233e-01 2.167613316907508469e+00 4.815913643838559466e+00 3.200884271076457566e+00 4.891279079591246415e-01 -2.365072456608277029e+00 -4.087922623112218545e+00 -4.194214692020982405e+00 -3.882974237917059313e+00 1.064149670126504965e+00 -4.934194471774546287e+00 -3.370874518289178390e+00 5.643707908309902876e-01 2.040049888555443225e+00 -2.047272329733316187e+00 1.452155453229604376e-01 -3.129739340122662306e+00 3.978917952689194237e+00 -3.990006929169637395e+00 4.799971236430449650e+00 2.053264998234372918e+00 8.717065759096600530e-01 -2.333008857483052090e+00 3.845420353951388037e+00 9.483491913849171340e-01 -3.775097980456737723e+00 3.482378875263007600e+00 3.769805448606520670e+00 3.619039079274013915e+00 2.248475632882295017e+00 1.211967259288338816e+00 3.125044048861841617e+00
1.216946800995193811e+00 2.424320861111145753e+00 1.788803325125336130e+00 -1.731072350816856620e+00 1.292798752821376240e+00 2.925230570483052794e+00 3.550398763898815702e+00 -8.987012298295606882e-01 -5.515017831638857615e-02 2.086320821510306622e+00 -1.881106717180784038e+00 -4.737252707869087587e+00 -1.555301673346884961e+00 3.239969842170063785e+00 1.174815588674103850e+00 -5.229519491646321683e-01 1.216217454504796791e+00 1.601871150004737565e+00 4.213104457611452247e+00 -3.338203850410668139e-01 2.133402093188939475e+00 -1.884919819995374279e+00 3.028830394835734907e+00 -4.197869554773381751e+00 -3.251747370276525384e+00 3.826703612686277012e+00 1.745132956933156620e+00 3.556637878451201829e+00 -3.708447778300252295e+00 4.906279407317072128e+00 -2.238105008585905331e+00 2.808247351757675148e+00 -1.919714661653024734e-01 3.704234590128693938e+00 2.326094424626914403e+00 -4.858002818369242526e+00 1.859442578837215088e+00 -1.828610567356362182e+00 -1.633117518287918735e+00 -2.159593439371381152e+00 4.102429693233721864e+00 2.765853979225726178e+00 3.370516001865413003e+00 3.609607654379225039e+00 -1.834944662326679854e+00 -3.534665959098854948e+00 -2.175920125314789733e+00 3.848424459132804287e-02 -4.534876336989690060e+00 3.984304830460214220e+00 -2.612244210015034263e+00 3.341084604435891947e+00 -7.736266542439231841e-01 2.450434896739067447e+00 -4.966557816893645061e+00 -2.397604723855902620e+00 -3.983722436520462651e-01 -2.676388419206459979e+00 -1.091569315759794101e+00 3.351558711402219615e+00 2.764670749634939639e+00 -3.214167906589905144e+00 -3.280132957796213500e+00 -1.186496597497406214e-01 -3.469828052826873233e-01 -5.137768986408399741e-01 2.409232831313158130e+00 4.496789787444940956e+00 4.891279079591246415e-01 -2.365072456608277029e+00 -4.087922623112218545e+00 -4.194214692020982405e+00 -3.882974237917059313e+00 1.369207213416317792e+00 -4.934194471774546287e+00 -3.370874518289178390e+00 5.643707908309902876e-01 9.163322296054934313e-01 -2.047272329733316187e+00 5.950882203273719639e-01 -4.359371717891718845e+00 -2.468907166214417970e+00 -3.990006929169637395e+00 4.799971236430449650e+00 -2.115761649987587312e+00 -2.224479118760541496e+00 -2.333008857483052090e+00 3.845420353951388037e+00 -1.969501665409760793e+00 -3.775097980456737723e+00 3.482378875263007600e+00 3.769805448606520670e+00 3.619039079274013915e+00 2.248475632882295017e+00 1.211967259288338816e+00 2.121215832831587988e+00
2.896428246322715339e-01 2.202120800617116458e+00 3.499654894738020161e+00 -2.651165466751606914e+00 4.182403990359279788e+00 4.167592327646314487e-01 -6.183142775335772612e-01 3.480313105009928520e+00 -3.466484612304357782e+00 -1.711656799556529052e-01 -1.569478702643962720e+00 -3.484610626230341346e+00 -2.492992931940761991e+00 6.852956375802854438e-02 1.174815588674103850e+00 -5.229519491646321683e-01 -6.198545839681104397e-01 1.601871150004737565e+00 4.213104457611452247e+00 -3.338203850410668139e-01 3.055155831040725189e+00 -1.884919819995374279e+00 3.028830394835734907e+00 -1.754774412918549409e+00 -3.251747370276525384e+00 3.826703612686277012e+00 1.745132956933156620e+00 3.556637878451201829e+00 -3.708447778300252295e+00 4.906279407317072128e+00 -2.238105008585905331e+00 3.674430446634310954e+00 -1.919714661653024734e-01 3.704234590128693938e+00 2.326094424626914403e+00 -4.858002818369242526e+00 1.859442578837215088e+00 -1.553795684772918406e-01 -1.633117518287918735e+00 -2.159593439371381152e+00 4.102429693233721864e+00 2.765853979225726178e+00 3.396230087244367368e+00 3.609607654379225039e+00 -1.834944662326679854e+00 -3.534665959098854948e+00 -2.175920125314789733e+00 3.848424459132804287e-02 -4.534876336989690060e+00 1.979398659444058239e+00 -2.237463464623252740e+00 3.341084604435891947e+00 -7.736266542439231841e-01 2.450434896739067447e+00 -4.966557816893645061e+00 4.012461306397756999e+00 2.859125385259072338e+00 -2.676388419206459979e+00 4.778741350172273528e+00 3.351558711402219615e+00 -1.555232799349960615e+00 -3.214167906589905144e+00 -3.280132957796213500e+00 -1.186496597497406214e-01 -3.469828052826873233e-01 -5.137768986408399741e-01 -5.142659578535235809e-01 3.200884271076457566e+00 4.891279079591246415e-01 1.165314585687866611e-01 -4.087922623112218545e+00 -4.194214692020982405e+00 -3.882974237917059313e+00 1.064149670126504965e+00 -4.934194471774546287e+00 -3.370874518289178390e+00 5.643707908309902876e-01 9.163322296054934313e-01 -2.047272329733316187e+00 5.950882203273719639e-01 -4.359371717891718845e+00 -2.468907166214417970e+00 -3.990006929169637395e+00 4.799971236430449650e+00 -2.115761649987587312e+00 -2.224479118760541496e+00 -2.333008857483052090e+00 3.845420353951388037e+00 -1.969501665409760793e+00 -3.775097980456737723e+00 -4.919790840113043906e+00 3.769805448606520670e+00 3.619039079274013915e+00 2.248475632882295017e+00 1.211967259288338816e+00 3.125044048861841617e+00
2.896428246322715339e-01 2.202120800617116458e+00 3.499654894738020161e+00 -2.651165466751606914e+00 4.182403990359279788e+00 4.167592327646314487e-01 -6.183142775335772612e-01 3.480313105009928520e+00 -3.466484612304357782e+00 -1.711656799556529052e-01 -1.569478702643962720e+00 -3.484610626230341346e+00 -2.492992931940761991e+00 6.852956375802854438e-02 1.174815588674103850e+00 -5.229519491646321683e-01 -6.198545839681104397e-01 1.601871150004737565e+00 4.213104457611452247e+00 -3.338203850410668139e-01 3.055155831040725189e+00 -1.884919819995374279e+00 3.028830394835734907e+00 -1.754774412918549409e+00 -3.251747370276525384e+00 3.826703612686277012e+00 1.745132956933156620e+00 3.556637878451201829e+00 -3.708447778300252295e+00 4.906279407317072128e+00 -2.238105008585905331e+00 -4.294898104894517843e-01 -1.919714661653024734e-01 3.704234590128693938e+00 2.326094424626914403e+00 -4.858002818369242526e+00 1.859442578837215088e+00 -1.553795684772918406e-01 -1.633117518287918735e+00 -2.159593439371381152e+00 4.102429693233721864e+00 2.765853979225726178e+00 3.396230087244367368e+00 3.603149209121491836e+00 -2.598291841336775043e+00 -3.534665959098854948e+00 -2.175920125314789733e+00 3.848424459132804287e-02 -4.534876336989690060e+00 1.979398659444058239e+00 -2.237463464623252740e+00 3.341084604435891947e+00 -7.736266542439231841e-01 2.450434896739067447e+00 -4.966557816893645061e+00 4.012461306397756999e+00 2.859125385259072338e+00 -2.676388419206459979e+00 4.778741350172273528e+00 3.351558711402219615e+00 -1.555232799349960615e+00 -3.214167906589905144e+00 -3.280132957796213500e+00 -1.186496597497406214e-01 4.705557780696462800e+00 -5.137768986408399741e-01 -5.142659578535235809e-01 3.200884271076457566e+00 4.891279079591246415e-01 1.165314585687866611e-01 -4.087922623112218545e+00 -4.194214692020982405e+00 -3.882974237917059313e+00 1.064149670126504965e+00 -4.934194471774546287e+00 -3.370874518289178390e+00 5.643707908309902876e-01 9.163322296054934313e-01 -2.047272329733316187e+00 5.950882203273719639e-01 -4.359371717891718845e+00 -2.468907166214417970e+00 -3.990006929169637395e+00 4.799971236430449650e+00 -2.115761649987587312e+00 -2.224479118760541496e+00 -2.333008857483052090e+00 3.845420353951388037e+00 -1.969501665409760793e+00 -3.775097980456737723e+00 3.482378875263007600e+00 3.769805448606520670e+00 3.619039079274013915e+00 2.248475632882295017e+00 1.211967259288338816e+00 -1.438101667266360462e+00
1.216946800995193811e+00 2.424320861111145753e+00 1.788803325125336130e+00 -1.731072350816856620e+00 1.292798752821376240e+00 2.925230570483052794e+00 3.550398763898815702e+00 -8.987012298295606882e-01 -5.515017831638857615e-02 2.086320821510306622e+00 -1.881106717180784038e+00 -4.737252707869087587e+00 -1.555301673346884961e+00 3.239969842170063785e+00 1.174815588674103850e+00 -5.229519491646321683e-01 1.216217454504796791e+00 1.601871150004737565e+00 4.213104457611452247e+00 -3.338203850410668139e-01 2.133402093188939475e+00 -1.884919819995374279e+00 3.028830394835734907e+00 -4.197869554773381751e+00 -3.251747370276525384e+00 3.826703612686277012e+00 1.745132956933156620e+00 3.556637878451201829e+00 -3.708447778300252295e+00 4.906279407317072128e+00 -2.238105008585905331e+00 3.674430446634310954e+00 -1.919714661653024734e-01 3.704234590128693938e+00 2.326094424626914403e+00 -4.858002818369242526e+00 1.859442578837215088e+00 -1.553795684772918406e-01 -1.633117518287918735e+00 -2.159593439371381152e+00 4.102429693233721864e+00 2.765853979225726178e+00 3.396230087244367368e+00 3.609607654379225039e+00 -1.834944662326679854e+00 -3.534665959098854948e+00 -2.175920125314789733e+00 3.848424459132804287e-02 -4.534876336989690060e+00 3.984304830460214220e+00 6.222549171230138398e-01 3.341084604435891947e+00 -7.736266542439231841e-01 2.450434896739067447e+00 -4.966557816893645061e+00 -2.397604723855902620e+00 -3.983722436520462651e-01 -2.676388419206459979e+00 4.388136665221752608e+00 3.351558711402219615e+00 2.764670749634939639e+00 -3.214167906589905144e+00 -3.280132957796213500e+00 -1.186496597497406214e-01 -3.469828052826873233e-01 -5.137768986408399741e-01 2.409232831313158130e+00 -3.879354705191389030e-01 4.891279079591246415e-01 -2.365072456608277029e+00 4.472820949155483561e+00 -4.194214692020982405e+00 -3.882974237917059313e+00 1.369207213416317792e+00 -4.934194471774546287e+00 -3.370874518289178390e+00 5.643707908309902876e-01 9.163322296054934313e-01 -2.047272329733316187e+00 5.950882203273719639e-01 -4.359371717891718845e+00 3.978917952689194237e+00 -3.990006929169637395e+00 4.799971236430449650e+00 -2.115761649987587312e+00 -2.224479118760541496e+00 -6.832974558038369395e-01 3.845420353951388037e+00 -1.969501665409760793e+00 -3.775097980456737723e+00 -4.919790840113043906e+00 3.769805448606520670e+00 3.619039079274013915e+00 2.248475632882295017e+00 1.211967259288338816e+00 3.125044048861841617e+00
2.896428246322715339e-01 -7.007821500737145826e-01 -5.844811880125142523e-01 2.964322341257240367e+00 -2.766862263562648305e+00 4.167592327646314487e-01 -2.677283186181335317e+00 3.480313105009928520e+00 2.123682709327145091e+00 -9.792908777900146688e-01 -5.726042776474162821e-01 6.081522987226914978e-01 -2.492992931940761991e+00 6.852956375802854438e-02 1.174815588674103850e+00 -5.229519491646321683e-01 -6.198545839681104397e-01 1.601871150004737565e+00 -3.435852085552333346e+00 9.451862706180058638e-02 -3.748180396996902974e+00 -4.595537457667989045e+00 3.028830394835734907e+00 -4.197869554773381751e+00 -3.251747370276525384e+00 3.837386846795132200e+00 7.291215695073196557e-01 3.556637878451201829e+00 -3.979736441439909456e+00 -1.247489274717736851e+00 1.864014706077000483e+00 1.790605273943891795e+00 -1.919714661653024734e-01 3.305192704229151346e+00 2.326094424626914403e+00 -4.858002818369242526e+00 -2.727987666010570855e+00 -1.553795684772918406e-01 -1.633117518287918735e+00 -2.159593439371381152e+00 4.102429693233721864e+00 -1.840147887628083012e+00 1.668626307454070812e+00 3.603149209121491836e+00 -2.598291841336775043e+00 5.840574296766787299e-01 -2.175920125314789733e+00 3.848424459132804287e-02 -4.534876336989690060e+00 1.551023181095021464e+00 -2.237463464623252740e+00 3.341084604435891947e+00 -7.736266542439231841e-01 2.450434896739067447e+00 -4.966557816893645061e+00 4.012461306397756999e+00 2.859125385259072338e+00 -2.676388419206459979e+00 4.778741350172273528e+00 3.351558711402219615e+00 -1.555232799349960615e+00 -3.214167906589905144e+00 -3.280132957796213500e+00 -2.324163426558093271e+00 -3.469828052826873233e-01 -5.137768986408399741e-01 -2.318164491183480891e+00 -3.879354705191389030e-01 4.891279079591246415e-01 -2.365072456608277029e+00 -4.661463059405073217e+00 -4.194214692020982405e+00 -3.882974237917059313e+00 1.966793332406132855e+00 -4.934194471774546287e+00 -3.370874518289178390e+00 1.896987417484834459e+00 9.163322296054934313e-01 -2.047272329733316187e+00 5.950882203273719639e-01 -4.359371717891718845e+00 3.978917952689194237e+00 -3.990006929169637395e+00 4.799971236430449650e+00 -2.115761649987587312e+00 -2.224479118760541496e+00 -6.832974558038369395e-01 2.057381458840583655e+00 -1.969501665409760793e+00 -3.775097980456737723e+00 3.482378875263007600e+00 3.769805448606520670e+00 3.619039079274013915e+00 2.248475632882295017e+00 1.211967259288338816e+00 3.125044048861841617e+00
2.896428246322715339e-01 -1.697584599057835320e-01 3.499654894738020161e+00 -2.651165466751606914e+00 4.182403990359279788e+00 4.167592327646314487e-01 1.266324248338023040e+00 3.480313105009928520e+00 -3.466484612304357782e+00 -9.792908777900146688e-01 -5.726042776474162821e-01 -3.484610626230341346e+00 -2.492992931940761991e+00 6.852956375802854438e-02 1.174815588674103850e+00 -5.229519491646321683e-01 -6.198545839681104397e-01 -3.445155001379327508e+00 -3.411608489301042546e+00 -3.338203850410668139e-01 -4.864499547758644127e+00 -1.884919819995374279e+00 3.028830394835734907e+00 -4.197869554773381751e+00 -3.251747370276525384e+00 -3.667816042997176229e+00 1.745132956933156620e+00 3.556637878451201829e+00 -3.708447778300252295e+00 4.906279407317072128e+00 1.995777079039430468e+00 1.790605273943891795e+00 -1.919714661653024734e-01 3.704234590128693938e+00 2.326094424626914403e+00 -4.858002818369242526e+00 -2.727987666010570855e+00 -1.553795684772918406e-01 -1.633117518287918735e+00 -2.159593439371381152e+00 4.102429693233721864e+00 -1.840147887628083012e+00 1.668626307454070812e+00 3.603149209121491836e+00 -2.598291841336775043e+00 -3.534665959098854948e+00 -2.175920125314789733e+00 3.848424459132804287e-02 -4.534876336989690060e+00 1.979398659444058239e+00 -2.237463464623252740e+00 3.341084604435891947e+00 -7.736266542439231841e-01 2.450434896739067447e+00 -4.966557816893645061e+00 4.012461306397756999e+00 2.859125385259072338e+00 -2.676388419206459979e+00 4.778741350172273528e+00 3.351558711402219615e+00 -1.555232799349960615e+00 -3.214167906589905144e+00 -1.140541257162079880e+00 -1.186496597497406214e-01 -3.469828052826873233e-01 -5.137768986408399741e-01 -5.142659578535235809e-01 3.200884271076457566e+00 4.891279079591246415e-01 -2.365072456608277029e+00 -4.087922623112218545e+00 -4.194214692020982405e+00 -3.882974237917059313e+00 1.064149670126504965e+00 -4.434751677312318563e+00 -3.370874518289178390e+00 5.643707908309902876e-01 2.040049888555443225e+00 -2.047272329733316187e+00 1.452155453229604376e-01 -3.129739340122662306e+00 1.384723047033238785e+00 -3.990006929169637395e+00 4.799971236430449650e+00 3.116787870082308842e+00 8.717065759096600530e-01 -2.333008857483052090e+00 3.845420353951388037e+00 -1.969501665409760793e+00 -3.775097980456737723e+00 3.421305885774412303e+00 3.769805448606520670e+00 3.619039079274013915e+00 1.981967819555881860e+00 1.211967259288338816e+00 -1.438101667266360462e+00
2.896428246322715339e-01 2.202120800617116458e+00 3.499654894738020161e+00 -2.651165466751606914e+00 4.182403990359279788e+00 4.167592327646314487e-01 -6.183142775335772612e-01 3.480313105009928520e+00 -3.466484612304357782e+00 -9.792908777900146688e-01 -1.569478702643962720e+00 -3.484610626230341346e+00 -2.492992931940761991e+00 6.852956375802854438e-02 1.174815588674103850e+00 -5.229519491646321683e-01 -6.198545839681104397e-01 1.601871150004737565e+00 -3.411608489301042546e+00 -3.338203850410668139e-01 2.133402093188939475e+00 1.691487141395717764e+00 3.028830394835734907e+00 -4.197869554773381751e+00 -3.251747370276525384e+00 -6.670861934237457547e-01 -5.024235244555352864e-01 9.548767215134992270e-01 -3.708447778300252295e+00 4.906279407317072128e+00 1.995777079039430468e+00 3.674430446634310954e+00 3.573822679494293553e+00 3.704234590128693938e+00 2.326094424626914403e+00 -4.858002818369242526e+00 -2.727987666010570855e+00 -1.553795684772918406e-01 -1.633117518287918735e+00 -4.226722672667079017e+00 -2.719297607355367852e+00 2.765853979225726178e+00 1.668626307454070812e+00 3.603149209121491836e+00 -2.598291841336775043e+00 -3.534665959098854948e+00 -2.175920125314789733e+00 3.848424459132804287e-02 -4.534876336989690060e+00 1.979398659444058239e+00 -2.612244210015034263e+00 3.341084604435891947e+00 9.525813209493172451e-01 2.450434896739067447e+00 -4.966557816893645061e+00 4.012461306397756999e+00 2.859125385259072338e+00 -5.012562327526577377e-01 4.235855000435190476e+00 3.351558711402219615e+00 -1.555232799349960615e+00 4.591710884995572783e+00 -3.262046668418789874e+00 -1.186496597497406214e-01 -3.469828052826873233e-01 -5.137768986408399741e-01 -5.142659578535235809e-01 3.200884271076457566e+00 4.891279079591246415e-01 -9.994627919351994905e-02 8.363582535190872136e-01 -2.864787075729760879e+00 -3.882974237917059313e+00 1.369207213416317792e+00 -3.017134658023232774e+00 -3.370874518289178390e+00 5.643707908309902876e-01 2.040049888555443225e+00 -4.459074158357282158e+00 5.950882203273719639e-01 -4.359371717891718845e+00 -2.468907166214417970e+00 -3.990006929169637395e+00 4.799971236430449650e+00 -1.409463314481744778e+00 8.717065759096600530e-01 -2.333008857483052090e+00 3.845420353951388037e+00 -1.969501665409760793e+00 -3.775097980456737723e+00 3.482378875263007600e+00 3.769805448606520670e+00 3.619039079274013915e+00 2.248475632882295017e+00 1.211967259288338816e+00 3.125044048861841617e+00
