-3.947101 -0.824909 0.869187 2.216878 0.333444 -4.988117 -3.300000 4.111496 4.076606 -3.436169 -3.217964 0.417459 4.185204 1.904631 2.447824 -4.512429 0.760808 4.367152 -0.775957 -4.471094 -4.223259 -1.363660 -0.853227 2.946587 -0.324728 -1.971901 -2.613998 2.306115 4.404245 -2.087644 1.851398 -3.174777 -0.809719 -0.229296 -2.097683 -1.371043 3.993552 -1.092392 -0.813596 -0.272438 1.188364 -0.043638 -1.745758 -1.686388 1.192354 4.447084 -2.005882 -2.435344 1.493548 -0.339443 -2.120464 1.621743 3.580691 -1.248427 -3.487583 -3.389532 0.886948 -3.872346 -0.831566 1.723339 3.194409 -0.631400 4.484341 4.619196 -1.343458 -0.889654 -2.702006 3.999651 0.785202 3.656802 -0.435252 -1.401890 -1.608275 1.526926 0.356730 -1.968747 2.432062 2.067576 -0.696815 -4.606919 0.805632 4.965316 -4.998775 -0.417178 -3.383469 1.087329 0.447860 -4.196638 -1.346268 -2.240082 0.854691 4.826315 -3.072985 -4.158943 -2.407228 1.447980
-3.947101 -0.824909 0.869187 -0.224962 0.333444 -4.988117 -3.300000 4.659042 4.076606 -3.436169 -3.217964 0.417459 -4.489118 1.904631 -1.776141 -1.637488 0.760808 4.367152 -0.775957 -4.471094 -4.223259 -1.363660 -0.853227 2.946587 -0.324728 -1.971901 -2.613998 3.773090 4.404245 -2.087644 1.851398 -3.174777 0.817767 -0.229296 -0.286807 -1.371043 1.960483 -1.092392 -0.813596 -1.390128 1.188364 -0.043638 -1.745758 -1.686388 1.192354 4.447084 -2.005882 -1.691400 1.493548 -0.339443 -2.120464 1.621743 -3.297185 -0.460022 -3.487583 0.308935 0.886948 -3.872346 -0.831566 1.723339 3.194409 -0.631400 4.484341 4.619196 -1.343458 -0.889654 -2.702006 3.999651 0.785202 3.656802 -0.435252 -1.401890 -1.608275 1.526926 0.356730 -1.968747 2.432062 2.067576 -0.696815 -4.606919 0.805632 4.965316 -4.998775 -0.417178 -3.383469 1.087329 0.447860 -4.196638 -1.346268 -2.240082 0.854691 4.826315 -3.072985 -3.746727 -2.407228 1.447980
-3.947101 -0.824909 0.869187 2.216878 0.333444 -4.988117 -3.300000 4.111496 -1.199398 -3.436169 -3.217964 0.417459 4.185204 1.904631 2.447824 -4.512429 0.760808 4.367152 -0.775957 -4.471094 -4.223259 -0.772768 -0.659561 2.946587 -0.324728 -1.971901 -2.613998 2.306115 4.404245 -2.087644 1.851398 -3.174777 -0.809719 -0.229296 -2.097683 -1.371043 3.993552 -1.092392 -2.699236 -0.272438 1.188364 -0.043638 -1.745758 -1.686388 4.567670 4.447084 -4.555178 -2.435344 -4.245901 -0.339443 2.600277 1.621743 -3.297185 -0.460022 -3.487583 0.308935 0.886948 -3.872346 -0.831566 1.723339 3.194409 -0.631400 4.484341 4.619196 -1.343458 -0.889654 -2.702006 3.999651 0.785202 3.656802 -0.435252 -4.168910 -1.608275 2.282851 0.356730 -1.968747 2.432062 2.067576 -0.696815 -4.606919 0.805632 4.965316 -4.998775 -0.417178 -3.383469 1.087329 0.447860 -4.196638 -1.346268 -2.240082 0.854691 4.826315 -3.072985 -3.746727 -2.407228 1.447980
-3.947101 -0.824909 0.869187 2.216878 0.333444 -4.988117 -3.300000 4.111496 4.076606 -3.436169 -4.930638 0.417459 4.185204 1.904631 2.447824 -4.512429 0.760808 4.367152 -0.775957 -4.471094 -4.223259 -1.363660 -0.853227 2.946587 -0.324728 -1.971901 -2.613998 -0.016043 4.404245 -2.087644 3.565464 -3.174777 0.817767 -0.229296 -0.286807 -1.371043 1.960483 -1.092392 -0.813596 -1.390128 1.188364 -0.043638 -1.745758 -1.686388 1.192354 4.447084 -2.005882 -2.435344 1.493548 -0.339443 -2.120464 1.621743 -3.297185 -0.460022 -3.487583 0.308935 0.886948 -3.872346 -0.831566 1.723339 3.194409 -0.631400 4.484341 4.619196 -1.343458 -0.889654 -2.702006 3.999651 0.785202 3.656802 -0.435252 -1.401890 -1.608275 1.526926 0.356730 -1.968747 -2.884266 2.067576 -0.696815 -4.606919 0.805632 4.965316 -4.998775 -0.417178 -3.383469 1.087329 0.447860 -4.196638 -1.346268 1.395114 0.854691 4.826315 -3.072985 -3.746727 -1.224076 1.447980
-3.947101 -0.824909 0.869187 2.216878 0.333444 -4.988117 -3.300000 4.111496 -1.199398 -3.436169 -3.217964 0.417459 4.185204 -3.954792 2.447824 -4.512429 2.744468 -0.457849 -2.176982 -4.471094 -4.223259 -1.363660 -0.853227 2.946587 -3.069255 2.117936 3.599999 2.306115 -3.213356 -2.087644 -0.763753 -3.174777 0.817767 -0.229296 -0.286807 -1.371043 1.960483 -1.092392 -0.813596 -1.390128 1.188364 -0.043638 -1.745758 -1.686388 1.192354 4.447084 -2.005882 -2.435344 1.493548 -0.339443 -2.120464 1.621743 -3.297185 -0.460022 -3.487583 0.308935 0.886948 -3.872346 -0.831566 1.723339 3.194409 -0.631400 4.484341 4.619196 -1.343458 -0.889654 -2.702006 3.999651 0.785202 3.656802 -0.435252 -1.401890 -1.608275 1.526926 0.356730 -1.968747 2.432062 2.067576 -0.696815 -4.606919 0.805632 4.965316 -4.998775 -0.417178 -3.383469 1.087329 0.447860 -4.196638 -1.346268 -2.240082 0.854691 4.826315 -3.072985 -3.746727 -2.407228 1.447980
-3.947101 -0.824909 0.869187 2.216878 0.333444 -4.988117 -3.300000 4.111496 4.076606 -3.436169 -3.217964 0.417459 4.185204 -3.740443 -4.381770 -2.391259 0.760808 4.367152 -3.062828 -4.471094 -4.223259 -2.466594 -2.528676 2.946587 -0.324728 -2.705785 -2.613998 2.306115 4.404245 -2.087644 1.851398 -0.085893 -0.809719 -0.229296 -2.097683 -1.371043 3.993552 -3.021377 1.940633 -0.272438 -2.656182 -0.043638 -1.745758 -1.686388 4.567670 2.147634 -4.555178 -2.435344 -4.245901 -0.339443 -2.120464 1.621743 -3.297185 -0.460022 -3.487583 0.308935 0.886948 -3.872346 -0.831566 1.723339 3.194409 -0.631400 4.484341 4.619196 -1.343458 -0.889654 -1.263722 3.999651 3.973303 0.682517 -3.160280 -1.401890 -1.608275 1.433102 0.356730 3.546898 2.432062 2.067576 -0.696815 -4.606919 2.036383 4.965316 3.646137 -0.417178 2.250926 1.087329 0.447860 -4.196638 -1.346268 -2.240082 0.854691 4.826315 -3.072985 -3.746727 -2.407228 1.447980
-3.947101 -0.824909 0.869187 2.216878 0.333444 -4.988117 -3.300000 4.111496 -1.199398 -3.436169 -3.217964 0.417459 4.185204 -3.954792 2.447824 -4.512429 2.744468 -0.457849 -2.176982 -4.471094 -4.223259 -1.363660 -0.853227 2.946587 -3.069255 2.117936 3.599999 2.306115 -3.213356 -2.087644 -0.763753 -3.174777 0.817767 -0.229296 -0.286807 -1.371043 1.960483 -1.092392 -0.813596 -1.390128 1.188364 -0.043638 -1.745758 -1.686388 1.192354 4.447084 -2.005882 -2.435344 1.493548 -0.339443 -2.120464 1.621743 -3.297185 -0.460022 -3.487583 0.308935 0.886948 -3.872346 -0.831566 1.723339 3.194409 -0.631400 4.484341 4.619196 -1.343458 -0.889654 -2.702006 3.999651 3.973303 0.682517 -0.435252 -1.401890 -1.608275 1.526926 0.356730 -1.968747 2.432062 2.067576 -0.696815 -4.606919 0.805632 4.965316 -4.998775 -0.417178 -3.383469 1.087329 0.447860 -4.196638 -1.346268 -2.240082 0.854691 4.826315 -3.072985 -3.746727 -2.407228 1.447980
-3.947101 -0.824909 0.869187 2.216878 0.333444 -4.988117 -3.300000 3.403081 4.076606 -3.436169 -3.217964 -1.738948 -4.489118 1.904631 1.402782 -3.610025 0.760808 4.367152 -0.775957 -4.471094 -4.223259 -1.363660 -0.853227 -2.468250 -0.324728 0.448857 3.599999 2.306115 -3.213356 -2.087644 -0.763753 -3.174777 0.817767 -0.229296 -2.097683 -1.371043 3.993552 -1.092392 -0.813596 -0.272438 1.188364 -0.043638 -1.745758 -1.686388 4.567670 4.447084 1.543112 -2.435344 1.493548 -0.339443 -2.120464 1.621743 -3.297185 -0.460022 -3.487583 0.308935 0.886948 -3.872346 -0.831566 1.723339 3.194409 -0.631400 4.131296 4.619196 -1.343458 -0.889654 -2.702006 3.999651 0.785202 0.682517 -3.160280 -1.401890 -1.608275 1.433102 0.356730 3.546898 2.432062 2.067576 -0.696815 -4.606919 0.805632 4.965316 -4.998775 -0.417178 -3.383469 1.087329 0.447860 -4.196638 -1.346268 -2.240082 0.854691 4.826315 -3.072985 -3.746727 -2.407228 1.447980
-3.947101 -4.811650 0.869187 2.216878 0.333444 -4.988117 -3.300000 4.111496 4.076606 -3.436169 -3.217964 0.417459 4.185204 0.471602 2.447824 -4.512429 2.744468 -0.457849 -0.775957 -4.471094 -4.223259 -1.363660 -0.853227 2.946587 -3.069255 2.117936 0.650083 2.306115 4.404245 -3.154873 1.851398 -3.174777 -0.809719 -0.229296 -0.286807 -1.371043 1.960483 -1.092392 -0.813596 -0.272438 1.188364 -0.043638 -1.745758 -1.686388 3.351112 2.978941 -4.555178 -2.435344 1.493548 -0.339443 4.534050 1.621743 -3.397613 -2.635296 -3.487583 0.308935 3.650671 2.298576 -0.831566 -4.890822 3.194409 -1.363751 4.484341 4.619196 -1.343458 -0.889654 -2.702006 3.999651 0.785202 0.682517 -3.160280 -1.401890 -1.608275 1.433102 0.356730 3.546898 -3.099088 2.067576 -0.696815 -3.449108 -1.003187 -2.339496 -4.998775 1.430133 -3.383469 1.087329 2.372382 -4.196638 -1.346268 -2.980206 0.305344 4.826315 -3.072985 -3.746727 -2.407228 1.447980
-3.947101 -1.919713 3.494456 2.216878 0.333444 -4.988117 -3.300000 4.111496 4.076606 4.307734 -3.217964 0.417459 4.185204 1.904631 2.447824 -4.512429 0.760808 4.367152 -0.775957 -4.471094 -4.223259 -0.772768 -0.659561 2.946587 -0.324728 -1.971901 -2.613998 2.306115 4.404245 -3.154873 1.851398 -3.174777 -0.809719 -0.229296 -0.286807 -1.371043 1.960483 -1.092392 -0.813596 -0.272438 1.188364 -0.043638 -1.745758 -1.686388 4.567670 2.978941 -4.555178 -2.435344 1.493548 -0.339443 4.534050 1.621743 -3.397613 -2.635296 -3.487583 0.308935 3.650671 2.298576 -0.831566 -4.890822 3.194409 -1.363751 4.484341 4.619196 -1.343458 -0.889654 -2.702006 3.999651 0.785202 0.682517 -3.160280 -1.401890 -1.608275 1.433102 0.356730 3.546898 -3.099088 2.067576 -0.696815 -3.449108 -1.003187 -2.339496 -4.998775 1.430133 -3.383469 1.087329 2.372382 -4.196638 -1.346268 -2.980206 0.305344 4.826315 -3.072985 -3.746727 -2.407228 1.447980
-3.947101 -0.824909 0.869187 4.263860 0.333444 -4.988117 -3.300000 4.111496 -1.199398 -3.436169 -3.217964 0.417459 4.185204 1.904631 2.447824 -3.884720 0.760808 -2.170985 -0.775957 -4.890193 -4.223259 -1.363660 -0.853227 2.946587 -0.324728 -1.971901 -2.613998 2.306115 4.404245 -2.087644 1.851398 -3.174777 -0.809719 -0.229296 -0.286807 -2.388215 1.960483 -1.092392 -0.813596 -0.272438 1.188364 -0.043638 -1.745758 -1.686388 4.567670 4.447084 -4.555178 -2.435344 1.493548 -0.339443 -2.120464 1.621743 -3.297185 -0.460022 -3.487583 0.308935 0.886948 -3.872346 -0.831566 1.723339 3.194409 -0.631400 4.484341 4.619196 -1.343458 -0.889654 -2.702006 3.999651 0.785202 0.682517 -3.160280 -1.401890 -1.608275 1.433102 0.356730 3.546898 -3.099088 2.067576 -0.696815 -3.449108 -1.003187 -2.339496 -4.998775 1.430133 -3.383469 1.087329 2.372382 -4.196638 -1.346268 -2.980206 0.305344 4.826315 -3.072985 -3.746727 -2.407228 1.447980
-3.947101 -0.824909 0.869187 2.216878 0.333444 -4.988117 -3.300000 4.111496 4.076606 -3.436169 -3.217964 0.417459 4.185204 -3.740443 -4.381770 -2.391259 0.760808 4.367152 -3.062828 -4.471094 -4.223259 -2.466594 -2.528676 2.946587 -0.324728 -2.705785 -2.613998 2.306115 4.404245 -2.087644 1.851398 -0.085893 -0.809719 -0.229296 -2.097683 -1.371043 3.993552 -3.021377 -4.194521 -0.272438 -2.656182 -0.043638 -1.745758 -1.686388 4.567670 2.147634 -4.555178 -2.435344 -4.245901 -0.339443 -2.120464 1.621743 -3.297185 -0.460022 -3.487583 0.308935 0.886948 -3.872346 -0.831566 1.723339 3.194409 -0.631400 4.484341 4.619196 -1.343458 -0.889654 -1.263722 3.999651 3.973303 0.682517 -3.160280 -1.401890 -1.608275 1.433102 0.356730 3.546898 2.432062 2.067576 -0.696815 -4.606919 2.036383 4.965316 3.646137 -0.417178 -3.383469 1.087329 0.447860 -4.196638 -1.346268 -2.240082 0.854691 4.826315 -3.072985 -3.746727 -2.407228 1.447980
-3.947101 -0.824909 0.869187 2.216878 0.333444 -4.988117 -3.300000 4.111496 -1.199398 -3.436169 -3.217964 0.417459 4.185204 1.904631 2.447824 -3.884720 0.760808 -2.170985 -0.775957 -4.890193 -4.223259 -1.363660 -0.853227 2.946587 -0.324728 2.117936 0.650083 2.306115 -3.213356 -2.087644 -0.763753 -3.174777 0.817767 -0.229296 -0.286807 -1.371043 1.960483 -2.050025 -0.813596 -1.390128 1.188364 -0.043638 -1.745758 -1.686388 -2.748790 4.447084 4.470704 -2.435344 1.493548 -0.339443 -2.120464 1.621743 -3.297185 -0.460022 -3.487583 0.308935 3.650671 2.298576 -0.831566 -4.890822 3.194409 -1.363751 4.484341 4.619196 -1.343458 -0.889654 -2.702006 3.999651 0.785202 0.682517 2.106731 -1.401890 -1.608275 1.433102 0.356730 3.546898 -3.099088 2.067576 -0.696815 -3.449108 -1.003187 -2.339496 -4.998775 1.430133 -3.383469 1.087329 2.372382 -4.196638 -1.346268 -2.980206 0.305344 4.826315 -3.072985 -3.746727 -2.407228 1.447980
-3.947101 -1.919713 3.494456 2.216878 0.333444 -4.988117 -3.300000 4.111496 0.558790 -3.436169 -3.217964 0.417459 4.185204 1.904631 2.447824 -4.512429 0.760808 4.367152 -0.775957 -4.471094 -4.223259 -0.772768 -0.659561 2.946587 -0.324728 -1.971901 -2.613998 2.306115 4.404245 -2.087644 1.851398 -3.174777 -0.809719 -0.229296 -2.097683 -1.371043 -2.304171 -1.092392 -0.813596 -2.751098 1.188364 -0.043638 -1.745758 -1.686388 4.567670 2.206855 -2.005882 -2.435344 1.493548 -0.339443 -2.120464 1.621743 -3.297185 -0.460022 -3.487583 0.308935 0.886948 -3.872346 -0.831566 1.723339 -2.777220 -0.631400 4.484341 4.619196 -1.343458 -0.889654 -2.702006 3.999651 0.785202 3.656802 -0.435252 -3.493150 -1.608275 2.282851 0.356730 -1.968747 2.432062 2.067576 -0.696815 -4.606919 0.805632 4.965316 -4.998775 -0.417178 -3.383469 1.087329 0.447860 -4.196638 -1.346268 -2.240082 0.854691 4.826315 -3.072985 -3.746727 -2.407228 1.447980
-3.947101 -0.824909 0.869187 2.216878 0.333444 -4.988117 -3.300000 4.111496 -1.199398 -3.436169 -3.217964 0.417459 4.185204 1.904631 2.447824 -3.884720 -2.064849 -0.457849 -0.775957 -4.471094 -4.223259 -1.363660 -0.853227 2.946587 -2.004036 2.117936 3.599999 2.306115 -3.213356 -2.087644 -0.763753 -3.174777 0.817767 -0.229296 -0.286807 -1.371043 1.960483 -1.092392 -0.813596 -1.390128 1.188364 -0.043638 -1.745758 -1.686388 1.192354 4.447084 -2.005882 -2.435344 1.493548 -0.339443 -2.120464 1.621743 -3.297185 -0.460022 -3.487583 0.308935 0.886948 -3.872346 -1.257368 1.723339 3.194409 -0.631400 4.484341 4.619196 -1.343458 -0.889654 -2.702006 3.999651 0.913379 3.656802 -0.435252 -1.401890 -0.743548 1.526926 0.356730 2.410301 2.432062 3.139302 -0.696815 -4.606919 -2.213130 4.965316 -4.998775 -0.417178 -3.383469 1.087329 0.447860 -4.196638 -1.346268 -2.240082 0.854691 4.826315 -3.072985 -3.746727 -2.407228 1.447980
-3.947101 -0.824909 0.869187 2.216878 0.333444 -4.988117 -3.300000 4.111496 -1.199398 -3.436169 -3.217964 0.417459 4.185204 1.904631 2.447824 -3.884720 0.760808 -2.170985 -0.775957 -4.890193 -4.223259 -1.363660 -0.853227 2.946587 -0.324728 -1.971901 -2.613998 2.306115 4.404245 -2.087644 1.851398 -3.174777 -0.809719 -0.229296 -2.097683 0.983731 3.993552 -1.092392 -0.813596 -1.390128 1.188364 -0.043638 -1.745758 -1.686388 1.192354 4.447084 -2.005882 -2.435344 1.493548 -0.339443 -2.120464 1.621743 -3.297185 -0.460022 -3.487583 0.308935 0.886948 -3.872346 -0.831566 1.723339 3.194409 -0.631400 4.484341 4.619196 -1.343458 -0.889654 -2.702006 3.999651 0.785202 3.656802 -0.435252 -1.401890 -1.608275 1.526926 0.356730 -1.968747 2.432062 2.067576 -0.696815 -4.606919 0.805632 4.965316 -4.998775 -0.417178 -3.383469 1.087329 0.447860 -4.196638 -1.346268 -2.980206 0.305344 4.826315 -3.072985 -3.746727 -2.407228 1.447980
-3.947101 -0.824909 0.869187 2.216878 0.333444 -4.988117 -3.300000 4.111496 4.076606 -3.436169 -3.217964 0.417459 4.185204 0.471602 2.447824 -4.512429 2.744468 -0.457849 -0.775957 -4.471094 -4.223259 -1.363660 -0.853227 2.946587 -3.069255 2.117936 0.650083 2.306115 -3.213356 -2.087644 -0.763753 -3.174777 0.817767 -0.229296 -0.286807 -1.371043 1.960483 -1.092392 -0.813596 -1.390128 1.188364 -0.043638 -1.745758 -1.686388 -2.415411 4.447084 -2.005882 -2.435344 1.493548 -0.339443 -2.120464 1.621743 -3.297185 -0.460022 -3.487583 0.308935 0.886948 -3.872346 -0.831566 1.723339 3.194409 -0.631400 4.484341 4.619196 -1.343458 -0.889654 -2.702006 3.999651 0.785202 3.656802 -0.435252 -1.401890 -3.967887 1.526926 0.356730 2.410301 2.432062 2.067576 -0.696815 -1.747753 0.805632 4.965316 -4.998775 -0.417178 -3.383469 1.087329 0.447860 -4.196638 -1.346268 -2.240082 0.854691 4.826315 -3.072985 -3.746727 -2.407228 1.447980
-3.947101 -0.824909 0.869187 2.216878 0.333444 -4.988117 -3.300000 4.111496 4.076606 -3.436169 -3.217964 0.417459 4.185204 1.904631 2.447824 -3.884720 0.760808 -2.170985 -0.775957 -4.890193 -4.223259 -1.363660 -0.853227 2.946587 -0.324728 -1.971901 -2.613998 2.306115 4.404245 -2.087644 1.851398 -3.174777 -0.809719 -0.229296 -0.286807 -1.371043 1.960483 -1.092392 -0.813596 -0.272438 1.188364 -0.043638 -1.745758 -1.686388 4.567670 2.206855 -2.005882 -1.065421 1.493548 -0.339443 4.534050 1.621743 -3.397613 -2.635296 -3.487583 0.308935 3.650671 2.298576 -0.831566 -4.890822 2.282510 -1.363751 4.484341 4.619196 -1.343458 -0.889654 -2.702006 3.999651 0.785202 0.682517 -3.160280 -1.401890 -1.608275 1.433102 0.356730 -1.968747 2.432062 2.067576 -0.696815 -4.606919 0.805632 4.965316 -4.998775 -0.417178 -3.383469 1.087329 0.447860 -4.196638 -1.346268 -2.240082 0.854691 4.826315 -3.072985 -3.746727 -2.407228 1.447980
-3.947101 -0.824909 0.869187 -2.916718 0.333444 -4.988117 -3.300000 4.111496 -1.199398 -3.436169 -3.217964 0.417459 4.185204 1.904631 -0.360393 -4.512429 2.744468 -0.457849 -0.775957 -4.471094 -4.223259 -1.363660 -0.853227 2.946587 -3.069255 2.117936 0.650083 2.306115 -3.213356 -2.087644 -0.763753 -3.174777 0.817767 -0.229296 -0.286807 -1.371043 1.960483 -1.092392 -0.813596 -1.390128 1.188364 -0.043638 -1.745758 -1.686388 -2.748790 4.447084 -2.005882 -2.435344 1.493548 -0.339443 -2.120464 1.621743 -3.297185 -0.460022 -3.487583 0.308935 0.886948 -3.872346 -0.831566 1.723339 3.194409 -0.631400 4.484341 4.619196 -1.343458 -0.953098 -2.702006 3.999651 0.785202 3.656802 -0.435252 -1.401890 -3.967887 1.526926 0.356730 2.410301 2.432062 -2.897342 -0.696815 -4.606919 -2.213130 4.965316 -4.998775 -0.417178 -3.383469 1.087329 0.447860 -4.196638 -1.346268 -2.240082 3.178840 4.826315 -3.072985 -3.746727 -2.407228 1.447980
-3.947101 -0.824909 0.869187 2.216878 0.333444 -4.988117 -3.300000 4.111496 -1.199398 -3.436169 -3.217964 0.417459 4.185204 1.904631 2.447824 -3.884720 -2.064849 -0.457849 -0.775957 -4.471094 -4.223259 -1.363660 -0.853227 2.946587 -2.004036 -1.971901 1.834691 2.306115 4.404245 -2.087644 1.851398 -2.644290 4.451835 -0.229296 -0.286807 -1.371043 1.960483 -1.092392 -0.813596 -0.272438 1.188364 -0.043638 -1.745758 -1.686388 4.567670 2.206855 -2.005882 -2.435344 1.493548 -0.339443 4.534050 1.621743 -3.397613 -2.635296 -3.487583 0.308935 3.650671 -3.090166 -0.831566 -4.890822 3.194409 -0.631400 4.484341 4.619196 -1.343458 -0.889654 -2.702006 3.999651 3.973303 0.682517 -3.160280 -1.401890 -1.608275 1.433102 0.356730 3.546898 2.432062 2.067576 -0.696815 -4.606919 2.036383 4.965316 3.646137 -0.417178 -3.383469 1.087329 0.447860 -4.196638 -1.346268 -2.240082 0.854691 4.826315 -3.072985 -3.746727 -2.407228 1.447980
-3.947101 -0.824909 0.869187 2.216878 0.333444 -4.988117 -3.300000 4.111496 -1.199398 0.243982 -3.217964 0.417459 4.185204 1.904631 2.447824 -3.884720 -2.000054 4.367152 -0.775957 -4.471094 -4.223259 -1.363660 -0.853227 -2.468250 -0.324728 0.448857 3.599999 2.306115 -0.634413 -2.087644 -0.763753 -3.174777 0.817767 -0.229296 -2.097683 -1.371043 3.993552 -1.092392 -0.813596 -0.272438 1.188364 -0.043638 -1.745758 -1.686388 4.567670 4.447084 -4.555178 -2.435344 1.493548 -0.339443 -2.120464 1.621743 -3.297185 -0.460022 -3.542875 0.308935 0.886948 -3.872346 -0.831566 1.723339 3.194409 -0.631400 4.131296 4.619196 -1.343458 -0.889654 -2.702006 3.999651 4.808570 0.682517 -3.160280 -1.401890 -1.608275 1.433102 0.356730 3.546898 2.432062 2.067576 -0.696815 -4.606919 0.805632 4.965316 3.646137 -4.327313 -3.383469 1.087329 0.447860 -4.196638 -1.346268 -2.240082 0.854691 4.826315 -3.072985 -3.746727 -2.407228 1.447980
-3.947101 -0.824909 0.869187 2.216878 0.333444 -4.988117 -3.300000 4.111496 -1.199398 -3.436169 -3.217964 0.417459 4.185204 1.904631 2.447824 -3.884720 0.760808 4.809968 -0.775957 -4.890193 -4.223259 -1.363660 -0.853227 2.946587 -0.324728 -1.971901 -2.613998 2.306115 4.404245 -3.154873 1.851398 -3.174777 -0.809719 -0.229296 -0.286807 -1.371043 1.960483 -1.092392 -0.813596 -1.390128 1.188364 -0.043638 -1.745758 -1.686388 1.192354 4.447084 -2.005882 -2.435344 1.493548 -0.339443 -2.120464 1.621743 -3.297185 -0.460022 -3.487583 0.308935 0.886948 -3.872346 -0.831566 1.723339 3.194409 -0.631400 4.484341 4.619196 -1.343458 -0.889654 -2.702006 3.999651 0.785202 0.682517 -3.160280 -1.401890 -1.608275 1.433102 0.356730 3.546898 -3.099088 2.067576 -0.696815 -3.449108 -1.003187 -2.339496 -4.998775 1.430133 -3.383469 1.087329 2.372382 -4.196638 -1.346268 -2.980206 0.305344 4.826315 -3.072985 -3.746727 -2.407228 1.447980
-3.947101 -0.824909 0.869187 2.216878 0.333444 -4.988117 -3.300000 4.111496 -1.199398 -3.436169 2.776044 0.417459 4.185204 1.904631 2.447824 -3.884720 -2.064849 -0.457849 -0.775957 -4.471094 0.795845 -1.363660 -0.853227 2.946587 -2.004036 -1.971901 0.769355 2.306115 4.404245 -2.087644 1.851398 -2.644290 4.451835 -0.229296 -2.097683 -1.371043 3.993552 -1.092392 -0.813596 -0.272438 1.188364 -0.043638 -1.745758 -1.686388 4.567670 4.447084 -4.555178 -2.435344 1.493548 -0.339443 -2.120464 1.621743 -3.297185 -0.460022 -3.487583 0.308935 0.886948 -3.872346 -0.831566 1.723339 3.194409 -0.631400 4.484341 4.619196 -1.343458 -0.889654 -2.702006 3.999651 3.973303 0.682517 -3.160280 -1.401890 -1.608275 1.433102 0.356730 3.546898 2.432062 2.067576 -0.696815 -4.606919 2.036383 4.965316 3.646137 -0.417178 -3.383469 1.087329 0.447860 -4.196638 -1.346268 -2.240082 0.854691 4.826315 -3.072985 -3.746727 -2.407228 1.447980
-3.947101 -0.824909 0.869187 2.216878 0.333444 -4.988117 -3.300000 4.111496 -1.199398 -3.436169 -3.217964 0.417459 4.185204 1.904631 2.447824 -3.884720 -2.064849 -0.457849 -0.775957 -4.471094 0.795845 -1.363660 -0.853227 2.946587 -2.004036 3.116540 0.769355 2.306115 4.404245 -2.087644 1.829842 -2.644290 4.451835 -0.229296 -2.097683 -1.371043 3.993552 -1.092392 -0.813596 -0.272438 1.188364 -0.043638 -1.745758 -1.686388 4.567670 4.447084 -4.555178 -2.435344 1.493548 -0.339443 -2.120464 1.621743 -3.297185 -0.460022 -3.487583 0.308935 0.886948 -3.872346 -0.831566 1.723339 3.194409 -0.631400 4.484341 4.619196 -1.343458 -0.889654 -2.702006 3.999651 0.785202 3.656802 -0.435252 -1.401890 -1.608275 1.526926 0.356730 -1.968747 2.432062 2.067576 -0.696815 -4.606919 0.805632 4.965316 -4.998775 -0.417178 -3.383469 1.087329 0.447860 -4.196638 -1.346268 -2.240082 1.579172 4.826315 -3.072985 -3.746727 -1.224076 1.447980
-3.947101 -0.824909 0.869187 2.216878 0.333444 3.597682 -3.300000 1.028615 4.076606 -3.436169 -3.217964 0.417459 4.185204 1.904631 2.447824 2.070143 2.744468 -0.457849 -0.775957 -4.471094 -4.223259 -1.363660 -0.853227 2.946587 -3.069255 2.117936 3.599999 2.306115 -3.213356 -2.087644 -0.763753 -3.174777 0.817767 -0.229296 -0.286807 -1.371043 1.960483 -1.092392 -0.813596 -1.390128 1.188364 -0.043638 -1.745758 -1.686388 1.192354 4.447084 -2.005882 -2.435344 1.493548 -0.339443 -2.120464 1.621743 -3.297185 -0.460022 -3.487583 0.308935 0.886948 -3.872346 -0.831566 1.723339 -1.608733 -0.631400 4.484341 4.619196 -1.343458 -0.889654 -2.702006 3.999651 0.785202 3.656802 -0.435252 -1.401890 -1.608275 1.526926 0.356730 -1.968747 2.432062 2.067576 -0.696815 -4.606919 0.805632 4.965316 -4.998775 -0.417178 -3.383469 1.087329 0.447860 -4.196638 -1.346268 -2.240082 0.854691 4.826315 -3.072985 -3.746727 -2.407228 1.447980
-3.947101 -0.824909 0.869187 2.216878 0.333444 -4.988117 -3.300000 4.111496 -1.199398 -3.436169 -3.217964 0.417459 4.185204 1.904631 2.447824 -3.884720 -2.064849 -0.457849 -0.775957 -4.471094 -4.223259 -1.363660 -0.853227 2.946587 -2.004036 -1.971901 0.769355 2.306115 4.404245 -2.087644 1.851398 -3.174777 1.412617 -0.229296 -2.097683 -1.371043 3.993552 -1.092392 -0.813596 -0.272438 1.188364 -0.043638 -1.745758 -1.686388 4.567670 4.447084 0.288904 -2.435344 1.282956 -0.339443 -2.120464 1.621743 -3.297185 -0.460022 -3.487583 0.308935 1.417465 -3.872346 -0.831566 1.723339 3.194409 -0.369674 4.484341 4.619196 -1.343458 -0.889654 -2.702006 3.999651 3.973303 0.682517 -3.160280 -1.401890 0.545108 -2.004073 0.356730 3.546898 -4.617192 2.067576 -1.461292 -4.606919 0.805632 4.965316 4.803118 1.430133 -3.383469 1.087329 0.447860 -4.196638 2.366846 -2.240082 1.579172 4.826315 -3.072985 -3.746727 -1.224076 1.447980
-3.947101 -2.234367 0.869187 2.216878 -4.687408 -4.988117 -3.300000 4.111496 -1.199398 -3.436169 -3.217964 0.417459 4.185204 -3.954792 2.447824 -4.512429 2.744468 -0.457849 -2.176982 -4.471094 -4.223259 -1.363660 -1.597619 2.214594 -3.069255 2.117936 3.599999 2.306115 -3.213356 -2.087644 1.851398 -3.174777 -0.809719 3.876196 -2.097683 -1.371043 3.993552 -1.092392 -2.340260 -0.272438 1.188364 -2.496582 -1.745758 -1.686388 4.567670 2.206855 -2.005882 -1.065421 1.493548 -0.339443 4.534050 1.621743 -3.397613 -2.635296 -3.487583 0.308935 -3.635149 -0.021207 -0.831566 -4.890822 1.976201 -1.363751 4.484341 4.619196 -1.343458 -4.631807 -2.702006 4.661044 0.785202 0.682517 -3.160280 -1.401890 -1.608275 1.433102 0.356730 3.546898 2.432062 -2.866787 -0.977624 -3.449108 -1.003187 -2.339496 3.646137 -0.417178 -3.383469 1.087329 0.447860 -4.196638 -1.346268 -2.240082 0.854691 4.826315 -3.072985 -3.746727 -2.407228 1.447980
-3.947101 -0.824909 0.869187 2.216878 0.333444 -4.988117 -3.300000 4.111496 4.076606 -3.436169 -3.217964 0.417459 4.185204 1.904631 2.447824 -4.512429 0.760808 4.367152 -0.775957 -4.471094 -4.223259 -1.363660 -0.853227 2.946587 -0.324728 -1.971901 -2.613998 -0.016043 4.404245 -2.087644 1.851398 -3.174777 0.817767 -0.229296 -0.286807 -1.371043 1.960483 -1.092392 -0.813596 -1.390128 -3.717919 -0.043638 -1.745758 -1.686388 1.192354 4.447084 -2.005882 -2.435344 1.493548 -0.339443 -2.120464 1.621743 -3.297185 -0.460022 -3.487583 0.308935 0.886948 -3.872346 -0.831566 1.723339 3.194409 -0.631400 4.484341 4.619196 -1.343458 -0.889654 -2.702006 3.999651 0.785202 3.656802 -0.435252 -1.401890 -1.608275 1.526926 0.356730 -1.968747 2.432062 2.067576 -0.696815 -4.606919 0.805632 4.965316 -4.998775 -0.417178 -3.383469 1.087329 0.447860 -4.196638 -1.346268 -2.240082 0.854691 4.826315 -3.072985 -3.746727 -2.407228 1.447980
-3.947101 -0.824909 0.869187 2.216878 0.333444 -4.988117 -3.300000 4.111496 -1.199398 -3.436169 -3.217964 0.417459 4.014673 1.904631 2.447824 -3.884720 -2.064849 -0.457849 -0.775957 -4.471094 -4.223259 -1.363660 -0.853227 2.946587 -2.004036 -1.971901 0.769355 2.306115 4.404245 -2.087644 1.851398 -2.644290 3.022162 -0.229296 -0.286807 -1.371043 -2.304171 -1.092392 -0.813596 -0.272438 1.188364 -0.043638 -1.745758 -1.686388 4.567670 2.206855 -2.005882 -2.435344 1.493548 -0.339443 -2.120464 1.621743 -3.297185 -0.460022 -3.487583 0.308935 0.886948 -3.872346 -0.831566 1.723339 -2.777220 -0.631400 4.484341 4.619196 -1.343458 -0.889654 -2.702006 3.999651 3.973303 0.682517 -3.160280 -2.596402 2.203904 1.433102 0.356730 3.546898 2.432062 2.067576 -0.696815 -4.606919 2.036383 4.965316 3.646137 -0.417178 -3.383469 1.087329 0.447860 -4.196638 -1.346268 -2.240082 0.854691 4.826315 -3.072985 -3.746727 -2.407228 1.447980
-3.947101 -0.824909 0.869187 2.216878 0.333444 -4.988117 -3.300000 4.111496 -1.199398 -3.436169 -3.217964 0.417459 4.185204 1.904631 2.447824 -3.884720 0.760808 -2.170985 -0.775957 -4.890193 -4.223259 -1.363660 -0.853227 2.946587 -0.324728 -1.971901 -2.613998 2.306115 4.404245 -2.087644 1.851398 -3.174777 -0.809719 -0.229296 -2.097683 -1.371043 3.993552 -1.092392 3.653285 -0.272438 1.188364 -0.043638 -1.745758 -1.686388 4.567670 4.447084 -4.555178 3.618464 1.493548 -0.339443 -2.120464 1.621743 -3.397613 -2.635296 -3.487583 0.308935 3.650671 2.298576 -0.831566 -4.890822 3.194409 -4.661551 4.484341 4.619196 4.662232 -0.889654 -2.702006 3.999651 0.785202 0.682517 -3.160280 -1.401890 -1.608275 1.433102 0.356730 3.546898 -3.099088 2.067576 -0.696815 -3.449108 -1.003187 -2.339496 -4.998775 1.430133 -3.383469 1.087329 2.372382 -4.196638 -3.129717 -2.980206 0.305344 4.826315 -3.072985 -3.746727 -2.407228 1.447980
-3.947101 -2.234367 0.869187 2.216878 -4.687408 -4.988117 -3.300000 4.111496 -1.199398 -3.436169 -3.217964 0.417459 4.185204 -3.954792 2.447824 -4.512429 2.744468 -0.457849 -2.176982 -4.471094 -4.223259 -1.363660 -0.853227 2.214594 -3.069255 2.117936 3.599999 2.306115 -3.213356 -2.087644 1.851398 -3.174777 -0.809719 -0.229296 -2.097683 -1.371043 -2.501367 -1.092392 -0.813596 -0.272438 1.188364 -0.043638 -1.745758 -1.686388 4.567670 4.447084 -4.555178 -2.435344 -4.245901 -0.339443 -2.120464 1.621743 -0.575390 -0.460022 -3.487583 0.308935 0.886948 -3.872346 -0.831566 1.723339 -2.777220 -0.631400 4.484341 4.619196 -1.343458 -0.889654 -2.702006 3.999651 3.973303 0.682517 -3.160280 -2.596402 2.203904 1.433102 0.356730 3.546898 2.432062 2.067576 -0.696815 -4.606919 2.036383 4.965316 3.646137 -0.417178 -3.383469 1.087329 0.447860 -4.196638 -1.346268 -2.240082 0.854691 4.826315 -3.072985 -3.746727 -2.407228 1.447980
-3.947101 -0.824909 0.869187 4.506548 0.333444 -4.988117 -3.300000 4.111496 4.076606 -3.436169 -3.217964 0.417459 4.185204 0.471602 2.447824 -4.512429 2.744468 -0.457849 -0.775957 -4.471094 -4.223259 -1.363660 -0.853227 2.946587 -3.069255 2.117936 0.650083 2.306115 -3.213356 -2.087644 -0.763753 -3.174777 0.817767 -0.229296 -0.286807 -1.371043 1.960483 -1.092392 -0.813596 -1.390128 1.188364 -0.043638 -1.745758 -1.686388 -2.748790 4.447084 -4.555178 -2.435344 -4.245901 -0.339443 -2.120464 1.621743 -3.297185 -0.460022 -3.487583 0.308935 0.886948 -3.872346 -0.831566 1.723339 3.194409 -0.631400 4.484341 4.619196 -1.343458 -0.889654 -2.702006 3.999651 0.785202 3.656802 -0.435252 -1.401890 -1.608275 1.526926 0.356730 -1.968747 2.432062 2.067576 -0.696815 -1.747753 0.805632 4.965316 -4.998775 -0.417178 -3.383469 1.087329 0.447860 -4.196638 -1.346268 -2.240082 4.479355 4.826315 -3.072985 -3.746727 -2.407228 1.447980
-3.947101 -1.919713 3.494456 2.216878 0.333444 -4.988117 -3.300000 4.111496 4.076606 -3.436169 -3.217964 0.417459 4.185204 1.904631 2.447824 -4.512429 0.760808 4.367152 -0.775957 -4.471094 -4.223259 -0.772768 -0.659561 2.946587 -0.324728 -1.971901 -2.613998 2.306115 4.404245 -2.087644 1.851398 -3.174777 -3.364445 -0.229296 -2.097683 -1.371043 3.993552 -1.092392 -2.699236 -0.272438 1.188364 -0.043638 -1.745758 -1.686388 4.567670 4.447084 -4.555178 -2.435344 -4.245901 -0.339443 -2.120464 1.621743 -3.297185 -0.460022 -3.487583 0.308935 0.886948 -3.872346 -0.831566 1.723339 3.194409 -0.631400 4.484341 4.619196 -1.343458 -0.889654 -2.702006 3.999651 0.785202 3.656802 -0.435252 -3.493150 -1.608275 2.282851 0.356730 -1.968747 2.432062 2.067576 -0.696815 -4.606919 0.805632 4.965316 -4.998775 -0.417178 -3.383469 1.087329 0.447860 -4.196638 -1.346268 -2.240082 0.854691 4.826315 -3.072985 -3.746727 -2.407228 1.447980
-3.947101 -0.824909 0.869187 2.216878 0.333444 -4.988117 -3.300000 4.111496 -1.199398 -3.436169 -3.217964 0.417459 4.185204 -3.954792 2.447824 -4.512429 2.744468 -0.457849 -2.176982 -4.471094 -4.223259 -1.363660 -0.853227 2.946587 -3.069255 2.117936 3.599999 2.306115 -3.213356 -2.087644 -0.763753 -3.174777 0.817767 -0.229296 -0.286807 -1.371043 1.960483 -1.092392 -0.813596 -1.390128 1.188364 -0.043638 -1.745758 -1.686388 1.192354 4.447084 -2.005882 -2.435344 1.493548 -0.339443 -2.120464 1.621743 -3.297185 -0.460022 -3.487583 0.308935 0.886948 -3.872346 -0.831566 1.723339 3.194409 -0.631400 4.484341 4.619196 -1.343458 -0.889654 -2.702006 3.999651 0.785202 4.115744 -0.435252 -1.401890 -1.608275 1.526926 0.356730 -1.968747 2.432062 2.067576 -0.696815 -4.606919 0.805632 4.965316 -4.998775 -0.417178 -3.383469 1.087329 0.447860 -4.196638 -1.346268 -2.240082 0.854691 4.826315 -3.072985 -3.746727 -2.407228 1.447980
-3.947101 -0.824909 0.869187 2.216878 0.333444 -4.988117 -3.300000 4.111496 4.076606 -3.436169 -3.217964 0.417459 4.185204 -3.740443 -4.381770 -2.391259 0.760808 4.367152 -3.062828 -4.471094 -4.223259 -2.466594 -2.528676 2.946587 0.352759 -2.705785 -2.613998 2.306115 4.404245 -2.087644 1.851398 -0.085893 -0.809719 -0.229296 -2.097683 -1.371043 3.993552 -3.021377 1.940633 -0.272438 -2.656182 -0.043638 -1.745758 -1.686388 4.567670 2.147634 -4.555178 -2.435344 1.493548 -0.339443 -2.120464 1.621743 -3.297185 -0.460022 -3.487583 0.308935 2.885901 -3.872346 -0.831566 1.723339 3.194409 -0.631400 4.484341 4.619196 -1.343458 -0.889654 -2.702006 3.999651 0.785202 3.656802 -0.435252 -1.401890 -1.608275 1.526926 0.356730 -1.968747 2.432062 2.067576 -0.696815 -4.606919 0.805632 4.965316 -4.998775 -0.417178 -3.383469 1.087329 0.447860 -4.196638 -1.346268 -2.240082 0.854691 4.826315 -3.072985 -3.746727 -2.407228 1.447980
-3.947101 -0.824909 0.869187 2.216878 0.333444 -4.988117 -3.300000 4.111496 4.076606 -3.436169 -3.217964 0.417459 4.185204 -3.740443 -4.381770 -2.391259 0.760808 4.367152 -3.062828 -4.471094 -4.223259 -2.466594 -2.528676 2.946587 -0.324728 -2.705785 -2.613998 2.306115 4.404245 -2.087644 1.851398 -0.085893 -0.809719 -0.229296 -2.097683 -1.371043 3.993552 -3.021377 1.940633 -0.272438 -2.656182 -0.043638 -1.745758 -1.686388 4.567670 2.147634 -4.555178 -2.435344 -4.245901 -0.339443 -2.120464 1.621743 -3.297185 -0.460022 -3.487583 0.308935 0.886948 -3.872346 -0.831566 1.723339 3.194409 -0.631400 4.484341 4.619196 -1.343458 -0.889654 -1.263722 3.999651 3.973303 0.682517 -3.160280 -1.401890 -1.608275 1.433102 0.356730 3.546898 2.432062 2.067576 -0.696815 -4.606919 2.036383 4.965316 3.646137 -0.417178 -3.383469 1.087329 0.447860 -4.196638 -1.346268 -2.240082 0.854691 4.826315 -3.072985 -3.746727 -2.407228 1.447980
-3.947101 -0.824909 0.869187 -0.224962 0.333444 -4.988117 -3.300000 4.659042 4.076606 -3.436169 -3.217964 0.417459 4.185204 1.904631 2.447824 -3.884720 -2.064849 -0.457849 -0.775957 -4.471094 -4.223259 -1.363660 -0.853227 3.074160 -2.004036 -1.971901 0.769355 2.306115 4.404245 -2.087644 1.851398 -2.644290 3.022162 -0.229296 -0.286807 -1.371043 -2.304171 -1.092392 -0.813596 -0.272438 1.188364 -0.043638 -1.745758 -1.686388 4.567670 2.206855 -2.005882 -2.435344 1.493548 -0.339443 -2.120464 1.621743 -3.297185 -0.460022 -3.487583 -1.535165 0.886948 -3.872346 -0.831566 1.723339 -2.777220 -0.631400 4.484341 4.619196 -1.343458 -0.889654 -2.702006 3.999651 3.973303 0.682517 -0.435252 -1.401890 -1.608275 1.526926 0.356730 -1.968747 2.432062 2.067576 -0.696815 -4.606919 0.805632 4.965316 -4.998775 -0.417178 -3.383469 1.087329 0.447860 -4.196638 -1.346268 -2.240082 0.854691 4.826315 -3.072985 -3.746727 -2.407228 1.447980
-3.947101 -0.824909 0.869187 2.216878 0.333444 -4.988117 -3.300000 4.111496 -1.199398 -3.436169 -3.217964 0.417459 4.185204 -3.954792 2.447824 -4.512429 2.744468 -0.457849 -2.176982 -4.471094 -4.223259 -1.363660 -0.853227 2.946587 -3.069255 2.117936 3.599999 2.306115 -3.213356 -2.087644 -0.763753 -2.644290 3.022162 -0.229296 -0.286807 -1.371043 0.845838 -1.092392 -0.813596 -0.272438 1.188364 -0.043638 -1.745758 -1.686388 4.567670 4.447084 -4.555178 -2.435344 -4.245901 -0.339443 -2.120464 1.621743 -3.297185 -0.460022 -3.487583 0.308935 0.886948 -3.872346 -0.831566 1.723339 3.194409 -0.631400 4.484341 -2.776839 -1.343458 -0.889654 -2.702006 3.999651 0.785202 3.656802 -0.435252 -1.401890 -1.608275 1.526926 0.356730 -1.968747 2.432062 2.067576 -0.696815 -1.747753 0.805632 4.965316 -4.998775 -0.417178 -3.383469 1.087329 0.447860 -4.196638 -1.346268 -2.240082 0.854691 4.826315 -3.072985 -3.746727 -2.407228 1.447980
3.839296 -0.824909 0.869187 2.216878 0.333444 -4.988117 -3.300000 4.111496 4.076606 -3.436169 -3.217964 -1.738948 -4.489118 1.904631 1.402782 -3.610025 0.760808 4.367152 -0.775957 -4.471094 -4.223259 -1.363660 -0.853227 -2.468250 -0.324728 -3.672154 3.599999 2.306115 -3.213356 -2.087644 -0.763753 0.402248 0.817767 -0.229296 -2.097683 -1.371043 3.993552 -1.092392 -0.813596 -0.272438 1.188364 -0.043638 -1.745758 -1.686388 4.567670 4.447084 -4.555178 -2.435344 1.493548 -0.339443 -2.120464 1.621743 -3.297185 -0.460022 -3.487583 0.308935 0.886948 -3.872346 -0.831566 1.723339 3.194409 -0.631400 4.131296 4.619196 -1.343458 -0.889654 -2.702006 3.999651 0.785202 0.682517 -3.160280 -1.401890 -1.608275 1.433102 0.356730 3.546898 2.432062 2.067576 -0.696815 -4.606919 0.805632 4.965316 3.646137 -4.327313 -3.383469 1.087329 0.447860 -4.196638 -1.346268 -2.980206 0.305344 4.826315 -3.072985 -3.746727 -2.407228 1.447980
-3.947101 -0.824909 0.869187 2.216878 0.333444 -4.988117 -3.300000 4.111496 4.076606 -3.436169 -3.217964 -1.738948 -4.489118 1.904631 1.402782 -3.610025 0.760808 4.367152 -0.775957 -4.471094 -4.223259 -1.363660 -0.853227 -2.468250 -0.324728 0.448857 3.599999 2.306115 -3.213356 -2.087644 -0.763753 -3.174777 0.817767 -0.229296 -2.097683 -1.371043 3.993552 -1.092392 -0.813596 -0.272438 1.188364 -0.043638 -1.745758 -1.686388 4.567670 4.447084 -4.555178 -2.435344 1.493548 -0.339443 -2.120464 1.621743 -3.297185 -0.460022 -3.487583 0.308935 0.886948 -3.872346 -0.831566 1.723339 3.194409 -0.631400 4.131296 4.619196 -1.343458 -0.889654 -2.702006 3.999651 0.785202 0.682517 2.125125 -1.401890 -1.608275 1.433102 0.356730 3.546898 2.432062 2.067576 -0.696815 -4.606919 0.805632 4.965316 3.646137 -4.327313 -3.383469 1.087329 0.447860 -4.196638 -1.346268 -2.240082 0.854691 4.826315 -3.072985 -3.746727 -2.407228 1.447980
-3.947101 -1.919713 3.494456 2.216878 0.333444 -4.988117 -3.300000 4.111496 4.076606 4.307734 -3.217964 0.417459 4.185204 1.904631 2.447824 -4.512429 0.760808 4.367152 -0.775957 -4.471094 -4.223259 -0.772768 -0.659561 2.946587 -0.324728 -1.971901 -2.613998 2.306115 4.404245 -2.087644 1.851398 -2.644290 3.022162 -0.229296 -0.286807 -1.371043 0.845838 1.193510 -0.813596 -0.272438 1.188364 -0.043638 -1.745758 -1.686388 4.567670 4.447084 -4.555178 -2.435344 -4.245901 -0.339443 2.049367 1.621743 -3.297185 -0.460022 -3.487583 0.308935 3.650671 2.298576 -3.240441 0.226993 3.194409 -1.363751 4.484341 4.619196 -1.343458 -0.889654 -2.702006 3.999651 0.785202 0.682517 -3.160280 -1.401890 -1.608275 1.433102 0.356730 3.546898 -3.099088 2.067576 -0.696815 -3.449108 -1.003187 -2.339496 -4.998775 1.430133 -3.383469 1.087329 2.372382 -4.196638 -1.346268 -2.980206 0.305344 4.826315 -4.821783 -3.746727 -2.407228 1.447980
-3.947101 -1.919713 4.832975 2.216878 0.333444 -4.988117 -3.300000 4.111496 4.076606 -3.436169 -3.217964 0.417459 4.185204 1.904631 2.447824 -4.512429 0.760808 4.367152 -0.775957 3.334047 -4.223259 -1.363660 -0.659561 2.946587 -0.324728 -1.971901 0.995591 2.306115 4.404245 1.887533 1.851398 -3.174777 1.412617 -0.229296 -2.097683 -1.371043 3.993552 -1.092392 -0.813596 -0.272438 1.188364 -0.043638 -1.745758 -1.686388 -0.847710 4.447084 0.288904 -2.435344 1.282956 -0.339443 -2.120464 1.621743 -3.297185 -0.460022 -3.487583 0.308935 1.417465 -3.872346 -0.831566 1.723339 3.194409 -0.369674 4.484341 4.619196 -1.343458 -0.889654 -2.702006 3.999651 3.973303 0.682517 -3.160280 -1.401890 -1.608275 1.433102 0.356730 3.546898 2.432062 2.067576 -1.461292 -4.606919 0.805632 4.965316 -3.619970 1.430133 -3.383469 1.087329 0.447860 -4.196638 2.366846 -2.240082 1.579172 4.826315 -3.072985 -3.746727 -1.224076 1.447980
-3.947101 -0.824909 0.869187 2.216878 0.333444 -4.988117 -3.300000 4.111496 4.076606 -3.436169 -3.217964 0.417459 4.185204 0.471602 2.447824 -4.512429 2.744468 -0.457849 -0.775957 -4.471094 -4.223259 -1.363660 -0.853227 2.946587 -3.069255 2.117936 0.650083 2.306115 -3.213356 -2.087644 -0.763753 -3.174777 0.817767 -0.229296 -4.214886 -1.371043 1.960483 -1.092392 -0.813596 -1.390128 1.188364 -0.043638 -1.745758 -1.686388 1.192354 4.447084 -2.005882 -2.435344 1.493548 -0.339443 -2.120464 1.621743 -3.297185 -0.460022 -3.487583 0.308935 0.886948 -3.872346 -0.831566 1.723339 3.194409 -0.631400 4.484341 4.619196 -1.343458 -0.889654 -2.702006 3.999651 0.785202 3.656802 -0.435252 -1.401890 -1.608275 1.526926 0.356730 -1.968747 2.432062 2.067576 -0.696815 -4.606919 0.805632 4.965316 -4.998775 -0.417178 -3.383469 1.087329 0.447860 -4.196638 -1.346268 -2.240082 0.854691 4.826315 -3.072985 -3.746727 -2.407228 1.447980
-3.947101 -0.824909 -0.722161 2.216878 0.333444 -4.988117 -3.300000 4.111496 4.076606 -3.436169 -3.217964 0.417459 4.185204 1.904631 2.447824 -4.512429 0.760808 4.367152 -0.775957 -4.471094 -4.223259 -1.363660 -0.853227 2.946587 -0.324728 -1.971901 -2.613998 -0.016043 4.404245 -2.087644 3.565464 -3.174777 0.817767 -0.229296 -0.286807 -1.371043 1.960483 -1.092392 -0.813596 -1.390128 1.188364 -0.043638 -1.745758 -1.686388 1.192354 4.447084 -2.005882 -2.435344 1.493548 -0.339443 -2.120464 1.621743 -3.297185 -0.460022 -3.487583 0.308935 0.886948 -3.872346 -0.831566 1.723339 3.194409 -0.631400 4.484341 4.619196 -1.343458 -0.889654 -2.702006 3.999651 0.785202 0.682517 -3.160280 -1.401890 -1.608275 1.433102 0.356730 3.546898 -3.099088 2.067576 -0.696815 -3.449108 -1.003187 -2.339496 -4.998775 1.430133 -3.383469 1.087329 2.372382 -4.196638 -1.346268 -2.980206 0.305344 4.826315 -3.072985 -1.905473 -2.407228 1.447980
-3.947101 -1.919713 3.494456 2.216878 0.333444 -4.988117 -3.300000 4.111496 4.076606 -3.436169 -3.217964 0.417459 4.185204 1.904631 2.447824 -4.512429 0.760808 4.367152 -0.775957 -4.471094 -4.223259 -0.772768 -0.659561 2.946587 -0.324728 -1.971901 -2.613998 2.306115 4.404245 -2.087644 1.851398 -3.174777 -0.809719 -0.229296 -2.097683 -1.371043 3.993552 -1.092392 -2.699236 -0.272438 1.188364 -0.043638 -1.745758 -1.686388 4.567670 4.447084 -4.555178 -2.435344 -4.245901 -0.339443 -2.120464 1.621743 -3.297185 -0.460022 -3.487583 0.308935 0.886948 -3.872346 -0.831566 1.723339 3.194409 -0.631400 4.484341 4.619196 -1.343458 -0.889654 -2.702006 3.999651 0.785202 3.656802 -0.435252 -1.401890 -3.967887 1.526926 0.356730 2.410301 2.432062 -2.897342 -0.696815 -4.606919 -2.213130 4.965316 -4.998775 -0.417178 -3.383469 1.087329 0.447860 -4.196638 -1.346268 -2.240082 0.854691 4.826315 -3.072985 -3.746727 -2.407228 1.447980
-4.366937 -0.824909 0.869187 2.216878 0.333444 -4.988117 0.277288 4.111496 -1.199398 -3.436169 1.899135 0.417459 4.185204 0.471602 2.447824 -4.512429 2.744468 -0.457849 -0.775957 -4.471094 -4.223259 -1.363660 -0.853227 2.946587 -3.069255 2.117936 0.650083 2.306115 -3.213356 -2.087644 -0.763753 -3.174777 0.817767 -0.229296 -0.286807 -1.371043 1.960483 -1.092392 -0.813596 -1.390128 1.188364 -0.043638 -1.745758 -1.686388 -2.748790 4.447084 -2.005882 -2.435344 1.493548 -0.339443 -2.120464 1.621743 -3.297185 -0.460022 -3.487583 0.308935 0.886948 -3.872346 -0.831566 1.723339 3.194409 -0.631400 4.484341 4.619196 -1.343458 -0.889654 -2.702006 3.999651 0.785202 3.656802 -0.435252 -1.401890 -3.967887 1.526926 0.356730 2.410301 2.432062 -2.897342 -0.696815 -4.606919 -2.213130 4.965316 -4.998775 -0.417178 -3.383469 1.087329 0.447860 -4.196638 -1.346268 -2.240082 3.178840 4.826315 -3.072985 -3.746727 -2.407228 1.447980
-3.947101 -0.824909 0.869187 2.216878 0.333444 -4.988117 -3.300000 4.659042 4.076606 -3.436169 -3.217964 0.417459 4.185204 1.904631 2.447824 4.817553 2.744468 -0.457849 -0.775957 -4.471094 -4.223259 -1.363660 -0.853227 2.946587 -3.069255 -1.971901 1.834691 2.306115 4.404245 -2.087644 1.851398 -2.644290 4.451835 -0.229296 -2.097683 -1.371043 1.960483 -1.092392 -0.813596 -1.390128 1.188364 -0.043638 -1.745758 -1.686388 1.192354 4.447084 -2.005882 -2.435344 1.493548 -0.339443 -2.120464 1.621743 -3.297185 -0.460022 -3.487583 0.308935 0.886948 -3.872346 -0.831566 1.723339 3.194409 -0.631400 4.484341 4.619196 -1.343458 -0.889654 -2.702006 3.999651 0.785202 3.656802 -0.435252 -1.401890 -3.967887 1.526926 0.356730 2.410301 2.432062 -2.897342 -0.696815 -4.606919 -2.213130 4.965316 -4.998775 -0.417178 -3.383469 1.087329 0.447860 -4.196638 -1.346268 -2.240082 0.854691 4.826315 -3.072985 -3.746727 -2.407228 1.447980
-3.947101 -0.824909 0.869187 2.216878 0.333444 -4.988117 -3.300000 4.111496 -1.199398 -3.436169 -3.217964 0.417459 4.185204 -3.954792 2.447824 -4.512429 2.744468 -0.457849 -2.176982 -4.471094 -4.223259 -1.363660 -0.853227 2.946587 -3.069255 2.117936 3.599999 2.306115 -3.213356 -2.087644 -0.763753 -3.174777 0.817767 -0.229296 -0.286807 -1.371043 1.960483 -1.092392 -0.813596 -1.390128 1.188364 -0.043638 -1.745758 -1.686388 1.192354 4.447084 -2.005882 -2.435344 1.493548 -0.339443 -2.120464 1.621743 -3.297185 -0.460022 -3.487583 0.308935 0.886948 -3.872346 -0.831566 1.723339 3.194409 -0.631400 4.484341 4.619196 -1.343458 -0.889654 -2.702006 3.999651 0.785202 3.656802 -0.435252 -1.401890 -1.608275 1.526926 0.356730 -1.968747 2.432062 2.067576 -0.696815 -4.606919 0.805632 4.965316 -4.998775 -0.417178 -3.383469 1.087329 0.447860 -4.196638 -1.346268 -2.240082 0.854691 4.826315 -3.072985 -3.746727 -2.407228 1.447980
-3.947101 -0.824909 0.869187 2.216878 0.333444 -4.988117 -3.300000 4.111496 -1.199398 -3.436169 -3.217964 0.417459 4.185204 1.904631 2.447824 -3.884720 -2.064849 -0.457849 -0.775957 -4.471094 -4.223259 -1.363660 -0.853227 2.946587 -2.004036 -1.971901 0.769355 2.306115 4.404245 -2.087644 1.851398 -2.644290 3.022162 -0.229296 -0.286807 -1.371043 -2.304171 -1.092392 -0.813596 -0.272438 1.188364 -0.043638 -1.745758 -1.686388 4.567670 2.206855 -2.005882 -2.435344 1.493548 -0.339443 -2.120464 1.621743 -3.297185 -0.460022 -3.487583 0.308935 0.886948 -3.872346 -0.831566 1.723339 -2.777220 -0.631400 4.484341 4.619196 -1.343458 -0.889654 -2.702006 3.999651 3.973303 0.682517 -0.435252 -1.401890 -1.608275 1.526926 0.356730 -1.968747 2.432062 2.067576 -0.696815 -4.606919 0.805632 4.965316 -4.998775 -0.417178 -3.383469 1.087329 0.447860 -4.196638 -1.346268 -2.240082 0.854691 4.826315 -3.072985 -3.511973 -2.407228 1.447980
-3.947101 -3.364472 0.869187 2.216878 0.333444 -4.988117 -3.300000 4.111496 4.076606 -3.436169 -3.217964 0.417459 4.185204 1.904631 2.447824 -4.512429 0.760808 4.367152 -0.775957 -4.471094 -4.223259 -1.363660 -0.853227 2.946587 -0.324728 -1.971901 -2.613998 -0.016043 4.404245 -2.087644 3.565464 -3.174777 0.817767 -0.229296 -0.286807 -1.371043 1.960483 -0.063085 -0.813596 -1.390128 1.188364 -0.043638 -1.745758 -1.686388 1.192354 4.447084 -2.005882 -2.435344 1.493548 -0.339443 -2.120464 1.621743 -3.297185 -0.460022 -3.487583 0.308935 0.886948 -3.872346 -0.831566 -4.791579 3.194409 -0.631400 4.484341 4.619196 -1.343458 -0.889654 -2.702006 3.999651 0.785202 3.656802 -0.435252 -1.401890 -1.608275 1.526926 0.356730 -1.968747 2.432062 2.067576 -0.696815 -4.606919 0.805632 4.965316 0.267261 -0.417178 -3.383469 1.087329 0.447860 -4.196638 -1.346268 -2.240082 0.854691 4.826315 -3.072985 -3.746727 -2.407228 1.447980
