-4.765702 2.444395 -1.023197 2.258760 3.989336 -0.559892 2.820777 -0.500524 0.904938 -4.965647 3.695153 4.359681 -2.975510 0.476137 -4.974559 1.560261 1.611684 0.829778 0.821932 3.896654 -0.869812 -0.486399 3.213273 -0.891497 -4.964700 4.094105 2.389283 -2.787290 -4.721038 1.830589 -2.953886 4.315978 -1.545095 -1.189698 -4.264050 -1.933118 -3.502212 2.868522 -0.173836 -2.107253 0.343950 -0.249165 -4.231870 4.042404 1.959929 -4.560753 -3.279559 1.479679 -4.111502 -2.958774 -0.690089 -1.251383 -2.629290 -0.015468 4.652268 2.158225 3.300506 -3.734519 3.331027 0.984492 -3.978582 -2.519296 -0.012984 -0.438146 3.127503 -3.206412 -2.839026 3.926263 -3.868737 2.768811 0.642163 4.253136 1.375303 4.870114 0.590464 -1.067346 -1.125418 -2.375952 4.798170 -4.274539 4.581150 -3.587683 -3.748240 2.584272 -0.044388 2.759085 -2.169495 -3.005453 -0.852953 4.910414 -1.258227 4.741449 -4.410870 -2.496078 0.004447 1.448220
-2.282648 -0.178258 -0.125537 2.258760 -0.422704 3.670788 -4.347902 -0.500524 0.904938 -4.965647 3.695153 4.359681 -3.468213 0.476137 -4.974559 1.560261 1.611684 0.829778 0.821932 3.896654 -4.000801 -0.486399 3.213273 -4.900894 -4.964700 4.094105 3.550061 -2.787290 -4.721038 1.830589 -4.278186 4.315978 -1.545095 -1.189698 -4.264050 -1.933118 -3.502212 2.868522 -0.173836 -1.230810 0.343950 -3.628457 0.071139 4.042404 1.959929 2.447027 -3.279559 1.479679 -4.111502 -2.958774 -0.690089 -1.251383 -2.629290 -1.049358 4.652268 2.158225 3.300506 -3.734519 3.331027 2.828189 -3.978582 -2.519296 -0.012984 -0.141679 3.127503 0.375850 -2.839026 3.926263 1.570500 0.734377 1.480641 4.253136 -2.224643 4.870114 0.590464 -1.067346 -1.125418 -2.375952 3.427761 -4.274539 4.581150 4.194396 -2.672065 -1.532379 -0.044388 2.759085 -2.169495 -3.005453 -4.865466 4.910414 -1.258227 4.741449 -4.410870 -2.496078 0.004447 1.448220
-4.342356 -0.178258 -0.125537 2.258760 -0.422704 -0.559892 -4.347902 -0.500524 0.904938 -4.965647 3.695153 4.359681 -4.344677 0.476137 -1.226523 1.560261 1.611684 0.829778 0.821932 3.896654 1.168928 -0.486399 3.213273 -4.900894 -4.964700 4.094105 2.389283 -2.787290 -4.721038 1.830589 -2.953886 4.315978 -1.545095 -1.189698 -4.264050 -1.933118 -3.502212 2.868522 -0.173836 -2.107253 0.343950 -0.249165 0.071139 4.042404 1.959929 -4.560753 -3.279559 1.479679 -4.111502 -2.958774 -0.690089 -1.251383 -2.629290 -0.015468 4.652268 2.158225 3.300506 -3.734519 3.331027 0.984492 -3.978582 -2.519296 -0.012984 -0.141679 3.127503 -3.206412 -2.839026 3.926263 1.570500 0.734377 1.480641 4.253136 1.375303 4.870114 0.590464 -1.067346 -1.125418 -2.375952 -4.613821 -4.274539 0.219082 4.194396 -3.748240 0.281502 -0.044388 2.759085 -3.273813 -3.005453 -0.852953 4.910414 -1.258227 4.741449 -4.410870 -4.153905 0.004447 2.780981
-2.282648 -0.178258 -0.125537 2.258760 -0.422704 -0.559892 -4.347902 -0.500524 0.904938 -4.965647 3.695153 4.359681 -4.344677 0.476137 -4.974559 1.560261 1.611684 0.829778 0.821932 3.896654 1.168928 -0.486399 3.213273 -4.900894 2.646573 4.094105 2.389283 -2.787290 -4.721038 1.830589 -2.720367 4.315978 -1.545095 -4.290053 -4.264050 -1.933118 -3.502212 3.001785 -0.173836 -2.107253 0.343950 -0.249165 0.071139 4.042404 -1.278018 -4.560753 -3.279559 1.479679 -4.111502 -2.958774 -0.690089 -1.251383 -2.629290 -1.049358 4.652268 2.158225 3.300506 -3.734519 3.331027 0.984492 -3.978582 -2.519296 -0.012984 -2.204920 3.127503 -3.206412 -2.839026 3.926263 -3.389811 0.734377 1.480641 4.253136 -2.224643 4.870114 0.590464 -1.067346 -1.125418 4.115753 3.427761 -4.274539 4.618641 -2.187052 -3.748240 2.584272 -0.044388 2.759085 -2.169495 -3.005453 -0.852953 4.910414 -1.258227 4.741449 -4.410870 -2.496078 0.004447 2.780981
-2.282648 -0.178258 -0.125537 2.258760 -0.422704 -0.559892 -4.347902 -0.500524 0.904938 -4.965647 3.695153 4.359681 -4.344677 0.476137 -1.828090 1.560261 1.611684 0.829778 0.821932 3.896654 3.272156 -0.486399 3.213273 -4.900894 -3.019301 4.094105 2.389283 -2.787290 -4.721038 1.830589 -2.953886 4.315978 -1.545095 3.902505 -4.264050 -1.933118 -3.502212 2.868522 -0.173836 -2.107253 0.343950 -0.249165 0.071139 4.042404 -1.278018 -4.560753 -3.279559 1.479679 3.813544 -2.958774 -0.690089 -1.251383 -2.629290 -0.015468 -1.413919 2.158225 3.300506 1.434462 3.331027 0.984492 -3.978582 -2.519296 -0.012984 -0.141679 3.127503 -3.206412 -2.839026 3.926263 1.570500 0.734377 1.480641 4.253136 1.375303 4.870114 0.590464 -1.067346 -1.125418 -2.375952 3.427761 -4.274539 4.581150 4.194396 -3.748240 0.281502 -0.044388 2.759085 -3.273813 -3.005453 -0.852953 4.910414 -1.258227 4.741449 -4.410870 -4.153905 0.004447 2.780981
-2.282648 1.229878 -0.125537 2.258760 0.501426 -0.559892 -4.347902 -0.500524 0.904938 -4.965647 1.005026 4.359681 -4.344677 0.476137 -4.974559 1.560261 -3.379480 0.829778 0.821932 3.896654 1.168928 -0.486399 3.213273 -4.900894 -4.964700 4.094105 2.389283 -2.787290 -4.721038 1.830589 -2.953886 4.315978 -1.545095 -1.189698 -4.264050 -1.933118 -3.502212 2.868522 -0.173836 -2.107253 0.343950 -0.249165 -1.857124 4.042404 -1.278018 -4.560753 -3.279559 1.479679 -4.902977 -2.958774 -0.690089 -1.251383 -2.629290 -0.015468 0.528191 2.158225 3.300506 1.434462 3.331027 0.984492 -3.978582 -2.519296 -0.012984 -0.141679 3.127503 -3.206412 -2.839026 -1.289852 1.570500 0.734377 1.480641 4.253136 1.375303 4.870114 0.590464 4.431178 -1.125418 -2.375952 3.427761 -4.274539 4.581150 4.194396 -3.748240 0.281502 -0.044388 2.759085 -2.169495 -3.005453 3.163770 4.910414 -1.258227 4.741449 -4.410870 -2.496078 0.004447 2.780981
-2.282648 -0.178258 -0.125537 2.258760 -0.422704 3.670788 -4.347902 -0.500524 0.904938 -4.965647 3.695153 4.359681 -3.468213 0.476137 -4.974559 1.560261 1.611684 0.829778 0.821932 3.896654 -0.869812 -1.277601 3.213273 -0.891497 0.823384 4.094105 2.389283 -2.787290 -4.721038 1.830589 -4.278186 4.315978 -1.545095 -1.189698 -4.264050 -1.933118 -3.502212 2.868522 -0.173836 -2.107253 0.343950 -0.249165 0.071139 4.042404 -0.257740 -4.560753 -3.279559 1.479679 -4.111502 -2.958774 -0.690089 -1.251383 -2.629290 -0.015468 4.652268 2.158225 3.300506 1.434462 3.331027 2.828189 -3.978582 -2.519296 -0.012984 -0.141679 3.127503 -3.206412 -2.839026 3.926263 1.570500 0.734377 1.480641 4.253136 -2.224643 4.870114 0.590464 -1.067346 -1.125418 -2.375952 3.427761 -4.274539 4.581150 4.194396 -2.672065 -1.532379 -0.044388 2.759085 -2.169495 -3.005453 -0.852953 4.910414 -1.258227 4.741449 -4.410870 -2.496078 0.004447 1.448220
-2.282648 -0.178258 -0.125537 2.258760 -0.422704 -0.559892 -4.347902 -2.814945 -1.698511 -4.965647 3.695153 -1.689880 -4.344677 0.476137 -4.974559 1.560261 1.611684 0.829778 0.821932 3.896654 1.168928 -0.486399 3.213273 -4.900894 -4.964700 4.094105 2.389283 -2.787290 -4.721038 1.830589 -2.953886 4.315978 -1.545095 -1.189698 -4.264050 -1.933118 -3.502212 3.001785 -0.173836 -2.107253 0.343950 -0.249165 0.071139 4.042404 -1.278018 -4.560753 -3.279559 1.479679 -4.111502 -2.958774 -0.690089 -1.251383 -2.629290 -1.049358 4.652268 2.158225 3.300506 -3.734519 3.331027 2.828189 -3.978582 -2.519296 -0.012984 -0.141679 3.127503 -3.206412 -2.839026 3.926263 1.570500 0.734377 1.480641 4.253136 -2.224643 4.870114 1.426887 -1.067346 -1.125418 -2.375952 3.427761 -4.274539 4.581150 4.194396 -3.748240 -1.532379 -0.044388 2.759085 -2.169495 -3.005453 -0.852953 4.910414 -1.258227 4.741449 -4.410870 -4.153905 0.004447 2.780981
-4.765702 2.444395 -1.023197 2.258760 -0.422704 -0.559892 -4.347902 -0.500524 0.904938 -4.965647 3.695153 4.359681 -4.344677 0.476137 -4.974559 3.670869 1.611684 2.432829 0.821932 3.896654 2.220424 -0.486399 3.213273 -4.900894 -3.029022 4.094105 -1.288550 -2.787290 -4.721038 1.830589 -4.278186 4.315978 -1.545095 -1.189698 -4.264050 -1.985845 -3.502212 2.868522 0.826946 -1.230810 0.343950 -3.628457 0.071139 4.042404 1.959929 -4.560753 -3.279559 1.479679 -4.111502 -2.958774 -0.690089 -1.251383 -2.629290 -1.049358 4.652268 2.158225 3.300506 -3.734519 3.331027 0.984492 -3.978582 -2.519296 -0.012984 -0.141679 3.127503 -3.206412 -2.839026 3.926263 -2.838781 0.734377 1.480641 4.253136 -2.224643 4.870114 0.590464 2.152341 -1.125418 -2.375952 0.001333 -4.274539 4.581150 4.194396 -3.748240 -1.532379 -0.044388 2.759085 -2.169495 -3.005453 -0.852953 4.910414 -1.258227 4.741449 -4.410870 -2.496078 0.004447 1.448220
-2.282648 -0.178258 -0.125537 2.258760 -0.422704 -0.559892 -4.347902 -0.500524 0.904938 -4.965647 3.695153 4.359681 -4.344677 0.476137 -1.226523 1.560261 1.611684 0.829778 0.821932 3.896654 1.168928 -0.486399 3.213273 -4.900894 -4.964700 4.094105 2.389283 -2.787290 -4.721038 1.830589 -2.953886 4.315978 -1.545095 -1.189698 -4.264050 -1.933118 -3.502212 2.868522 -0.173836 2.980283 0.343950 -3.628457 0.071139 4.042404 1.959929 -4.560753 -3.279559 -0.080586 -4.111502 -2.958774 -0.690089 -1.251383 -2.629290 -1.049358 4.652268 2.158225 3.300506 3.865442 3.331027 0.984492 -3.978582 -2.519296 -0.012984 -0.141679 3.127503 -3.206412 -2.839026 3.926263 1.570500 0.734377 1.480641 4.253136 -2.224643 4.870114 -2.673008 2.152341 -1.125418 -2.375952 0.001333 -4.274539 -2.654609 4.194396 -3.748240 -1.532379 -0.044388 2.759085 -2.169495 -3.005453 -0.852953 4.910414 -1.258227 4.741449 -4.410870 -2.496078 0.004447 2.780981
-4.765702 2.444395 -1.023197 2.258760 -0.422704 -0.559892 -4.347902 -0.500524 0.904938 -4.965647 3.695153 4.359681 -4.344677 0.476137 -4.974559 3.670869 1.611684 2.432829 0.821932 3.896654 2.220424 -0.486399 3.213273 -4.900894 0.823384 4.094105 2.389283 -2.787290 -4.721038 1.830589 -4.278186 4.315978 -1.545095 -1.189698 -4.264050 -1.933118 -3.502212 2.868522 -0.173836 3.692375 0.343950 -3.628457 -4.231870 4.042404 1.959929 -4.560753 -3.279559 1.479679 -4.111502 -2.958774 -0.690089 -1.251383 -2.629290 -0.015468 4.652268 2.158225 3.300506 -3.734519 3.331027 0.984492 1.722117 -2.519296 -1.378639 -0.141679 3.127503 -3.206412 -2.839026 3.926263 1.570500 0.734377 1.480641 4.253136 1.375303 3.767643 0.590464 -1.067346 -1.125418 -2.375952 -4.613821 -4.274539 0.219082 4.194396 -3.748240 0.281502 -0.044388 2.759085 -3.273813 -3.005453 -0.852953 4.910414 -1.258227 4.741449 -4.410870 -4.153905 0.004447 2.780981
-2.282648 -0.178258 -0.125537 2.258760 -0.422704 3.670788 -4.347902 -0.500524 0.904938 -4.965647 3.695153 4.359681 -3.468213 0.476137 -4.974559 1.560261 1.611684 0.829778 0.821932 3.896654 -1.114242 -0.486399 3.213273 -4.900894 -4.964700 4.094105 -2.009687 -2.787290 -4.721038 1.830589 -2.953886 4.315978 -1.545095 -1.189698 -4.264050 -1.933118 -3.502212 2.868522 -0.173836 -2.107253 0.343950 -0.249165 -4.231870 4.042404 1.959929 -4.560753 -3.279559 1.479679 -4.111502 -2.958774 -0.690089 -1.251383 -2.629290 -0.015468 4.652268 2.158225 3.300506 -3.734519 3.331027 0.984492 -3.978582 -2.519296 -0.012984 -0.141679 3.127503 -3.206412 -2.839026 3.926263 1.570500 0.734377 1.480641 4.253136 1.375303 4.870114 0.590464 -1.067346 -1.125418 -2.375952 4.798170 -4.274539 4.581150 4.194396 -3.748240 2.584272 -0.044388 2.759085 -2.169495 -3.005453 -0.852953 4.910414 -1.258227 4.741449 -4.410870 -4.153905 0.004447 2.780981
-2.282648 -0.178258 -0.125537 2.258760 -0.422704 3.670788 -4.347902 -0.500524 0.904938 -4.965647 3.695153 4.359681 -3.468213 0.476137 -4.974559 1.560261 1.611684 0.829778 0.821932 3.896654 -1.114242 -0.486399 3.213273 -4.900894 -4.964700 4.094105 -2.009687 -2.787290 -4.721038 1.830589 -2.953886 4.315978 -1.545095 -1.189698 -4.264050 -1.933118 -3.502212 2.868522 -0.173836 2.980283 0.343950 -3.628457 0.071139 4.042404 1.959929 -4.560753 -3.279559 -0.080586 -4.111502 -2.958774 -0.690089 -1.251383 -2.629290 -0.015468 4.652268 2.158225 3.300506 -3.734519 3.331027 0.984492 -3.978582 -2.519296 -0.012984 -0.141679 3.127503 -3.206412 4.345005 3.926263 -0.977262 0.734377 1.480641 4.253136 -2.224643 0.518200 0.590464 -1.067346 -1.125418 -2.375952 1.180977 -4.274539 4.581150 4.194396 -3.748240 -1.532379 -0.044388 2.759085 -2.169495 -3.005453 -0.852953 4.910414 -1.258227 4.741449 -4.410870 -2.496078 0.004447 2.780981
-2.282648 -0.178258 -0.125537 2.258760 -0.422704 -0.559892 -4.347902 -0.500524 0.904938 -4.965647 3.695153 4.359681 -4.344677 0.476137 -4.974559 1.560261 1.611684 0.829778 0.821932 3.896654 1.168928 -0.486399 3.213273 -4.900894 -4.964700 4.094105 2.389283 -2.787290 -4.721038 1.830589 -2.953886 4.315978 -1.545095 -1.189698 -4.264050 -1.933118 -3.502212 2.868522 -0.173836 -2.107253 0.343950 -0.249165 0.071139 4.042404 -1.278018 -4.560753 -3.279559 1.479679 -4.111502 -2.958774 -0.690089 -1.251383 -2.629290 -0.015468 4.652268 2.158225 3.300506 1.434462 3.331027 0.984492 -3.978582 -2.519296 -0.012984 -0.141679 3.127503 -3.206412 2.027506 3.926263 1.570500 0.734377 1.480641 4.253136 -2.224643 4.870114 0.590464 2.152341 -1.125418 -2.375952 0.001333 -4.274539 4.581150 4.194396 -3.748240 -1.532379 -0.044388 2.759085 -2.169495 -3.005453 -0.852953 4.910414 -1.258227 4.741449 -4.410870 -2.496078 0.004447 2.780981
-4.765702 2.444395 -1.023197 2.258760 3.989336 0.736750 2.820777 -0.500524 0.904938 -4.965647 3.695153 -4.064176 -4.344677 0.476137 -4.974559 3.670869 1.611684 2.432829 0.821932 3.896654 -0.442423 -0.486399 3.213273 -4.900894 0.823384 4.094105 2.389283 -2.787290 -4.721038 1.830589 -4.278186 4.315978 -1.545095 -1.189698 -4.264050 -1.933118 -3.502212 2.868522 -0.173836 -1.230810 0.343950 -3.628457 0.071139 4.042404 1.959929 -4.560753 -3.279559 1.479679 -4.111502 -2.958774 -0.690089 -1.251383 -1.985201 -1.049358 4.652268 2.158225 3.300506 -3.734519 3.331027 0.984492 -3.978582 -2.519296 -0.012984 -2.204920 3.127503 -3.206412 -2.839026 3.926263 -3.389811 0.734377 1.480641 4.253136 1.375303 4.870114 0.590464 -1.067346 -1.125418 -2.375952 4.798170 -4.274539 4.581150 4.194396 -3.748240 2.584272 -0.044388 1.088786 -2.169495 -3.005453 -0.852953 2.029098 -1.258227 4.741449 -4.410870 -2.496078 0.004447 1.448220
-2.282648 -0.178258 -0.125537 2.258760 -0.422704 3.670788 -4.347902 -0.500524 0.904938 -4.965647 3.695153 4.359681 -3.468213 0.476137 -4.974559 1.560261 1.611684 0.829778 0.821932 3.896654 -4.000801 -0.486399 3.213273 -4.900894 -4.964700 4.094105 3.550061 -2.787290 -4.721038 1.830589 -2.953886 4.315978 -1.545095 -1.189698 -4.264050 -1.933118 -3.502212 3.001785 -0.173836 -2.107253 0.343950 -0.249165 0.071139 4.042404 -1.278018 -4.560753 -3.279559 1.479679 -4.111502 -2.958774 -0.690089 -1.251383 -2.629290 -1.049358 4.652268 2.158225 3.300506 -3.734519 3.331027 2.828189 -3.978582 -2.519296 -0.012984 -0.141679 3.127503 -3.206412 -2.839026 3.926263 1.570500 0.734377 1.480641 4.253136 -2.224643 4.870114 1.426887 -1.067346 -1.125418 -2.375952 3.427761 -4.274539 4.581150 2.978473 -3.748240 -1.532379 -0.044388 2.759085 -2.169495 -3.005453 -0.852953 4.910414 -1.258227 4.741449 -4.410870 -3.114006 0.004447 2.780981
-4.765702 2.444395 -1.023197 2.258760 -0.422704 -0.559892 -4.347902 -0.500524 0.904938 -4.965647 3.695153 4.359681 -4.344677 0.476137 -4.974559 1.560261 1.611684 0.829778 0.821932 3.896654 1.168928 -0.486399 3.213273 -4.900894 -4.964700 4.094105 2.389283 -2.787290 -4.721038 1.830589 -4.278186 4.315978 -1.545095 -1.189698 -4.264050 -1.933118 -3.502212 2.868522 -0.173836 -1.230810 0.343950 -3.628457 0.071139 4.042404 1.959929 -4.560753 -3.279559 1.479679 -4.111502 -2.958774 -0.690089 -1.251383 -2.629290 -1.049358 4.652268 2.158225 3.300506 -3.734519 3.331027 0.984492 -4.515544 -4.048227 3.583309 -0.141679 3.127503 -3.206412 2.809558 -4.331212 3.192898 0.734377 1.480641 4.253136 1.375303 4.870114 0.590464 -1.067346 -1.125418 4.438611 3.427761 -4.274539 4.581150 -2.187052 -3.748240 2.584272 -0.044388 2.759085 -2.169495 -3.005453 -0.852953 4.910414 -1.258227 4.741449 -1.471077 -2.496078 0.004447 1.448220
-4.765702 2.444395 -1.023197 2.258760 -0.422704 -0.559892 -4.347902 -0.500524 0.904938 -4.965647 3.695153 4.359681 -4.344677 0.476137 -4.974559 3.670869 1.611684 2.432829 0.821932 3.896654 2.220424 -0.486399 3.213273 -4.900894 -3.029022 4.094105 2.389283 -2.787290 -4.721038 1.830589 -4.278186 4.315978 -1.545095 -1.189698 -4.264050 -1.933118 -3.502212 2.868522 -0.173836 2.980283 0.343950 -3.628457 0.071139 4.042404 1.959929 -4.560753 -3.279559 2.513520 -4.111502 -2.958774 -0.690089 -1.251383 -0.320421 -1.049358 4.652268 2.158225 3.300506 -3.734519 3.331027 0.984492 -3.978582 -2.519296 -0.012984 -0.141679 3.127503 -3.206412 -2.839026 3.926263 1.570500 2.768811 1.480641 4.253136 1.375303 4.870114 0.590464 -1.067346 -1.125418 -2.375952 4.798170 -4.274539 4.581150 4.194396 -3.748240 2.584272 -0.044388 2.759085 -2.169495 -3.005453 -0.852953 4.910414 -1.258227 4.741449 -4.410870 -2.496078 0.004447 1.448220
-4.765702 2.444395 -1.023197 2.258760 -0.422704 -0.559892 -4.347902 -0.500524 0.904938 -4.965647 3.695153 4.359681 -4.344677 0.476137 -4.974559 1.560261 1.611684 0.829778 0.821932 3.896654 1.168928 0.258120 3.213273 -4.900894 -4.964700 4.094105 2.389283 -2.787290 -4.721038 1.830589 -4.278186 4.315978 -1.545095 -1.189698 -4.264050 -1.933118 -3.502212 2.868522 -0.173836 -1.230810 0.343950 -3.628457 0.071139 4.042404 1.959929 -4.560753 -3.279559 1.479679 -4.111502 -2.958774 -0.690089 -1.251383 -2.629290 -1.049358 4.652268 2.158225 3.300506 -3.734519 3.331027 0.984492 -3.978582 -2.519296 -0.012984 -0.141679 3.127503 -3.206412 -2.839026 3.926263 -2.936640 0.734377 1.480641 4.253136 -2.224643 4.870114 -2.673008 4.984469 -1.125418 -2.375952 4.798170 -4.274539 4.581150 4.194396 -3.748240 2.584272 -0.044388 2.759085 -2.169495 -3.005453 -0.852953 4.910414 -1.258227 4.741449 -4.410870 -2.496078 0.004447 1.448220
-2.282648 -0.178258 -0.125537 2.258760 -0.422704 -0.559892 -4.347902 -0.500524 0.904938 -4.965647 3.695153 4.359681 -4.344677 0.476137 -4.974559 1.560261 1.611684 0.829778 0.821932 3.896654 1.168928 -0.486399 3.213273 -4.900894 -4.964700 4.094105 2.389283 -2.787290 -4.721038 1.830589 -2.953886 4.315978 -1.545095 -1.189698 -4.264050 -1.933118 -3.502212 2.868522 -0.173836 -2.107253 0.343950 -0.249165 0.071139 4.042404 -1.278018 -4.560753 -3.279559 1.479679 -4.111502 -2.958774 -0.690089 -1.251383 -2.629290 -0.015468 4.652268 2.158225 -0.928894 1.434462 3.331027 0.984492 -3.978582 -2.519296 -0.012984 -0.141679 3.127503 -3.206412 2.027506 3.926263 1.570500 0.734377 1.480641 4.253136 1.375303 4.870114 0.590464 -1.067346 -1.125418 -2.375952 4.798170 -4.274539 4.581150 4.194396 -3.748240 2.584272 -0.044388 2.759085 -2.169495 -3.005453 -0.852953 4.910414 -1.258227 4.741449 -4.410870 -2.496078 0.004447 1.448220
-4.765702 2.444395 -1.023197 2.258760 -0.422704 -0.559892 -4.347902 -0.500524 0.904938 -4.965647 3.695153 4.359681 -4.344677 0.476137 -4.974559 1.560261 1.611684 0.829778 0.821932 3.896654 -0.442423 -0.486399 3.213273 -4.900894 0.823384 4.094105 2.389283 -2.787290 -4.721038 1.830589 -4.278186 4.315978 -1.545095 -1.189698 -4.264050 -1.933118 -3.502212 2.868522 -0.173836 -1.230810 0.343950 -3.628457 0.071139 4.042404 1.959929 -4.560753 -3.279559 1.479679 -4.111502 -2.958774 -0.690089 -1.251383 -1.985201 -1.049358 4.652268 2.158225 3.300506 -3.734519 3.331027 0.984492 -3.978582 -2.519296 -0.012984 -2.204920 3.127503 2.852388 -2.839026 -3.174590 1.570500 0.734377 1.480641 4.253136 -2.224643 4.870114 -2.673008 2.152341 -1.125418 -2.375952 0.001333 -4.274539 4.581150 4.194396 -3.748240 -1.532379 1.488826 2.759085 -2.169495 -3.005453 -0.852953 4.910414 -1.258227 4.741449 -4.410870 -2.496078 0.004447 2.780981
-2.282648 -0.178258 -0.125537 2.258760 -0.422704 -0.559892 -4.347902 -0.500524 0.904938 -4.965647 3.695153 4.359681 -4.344677 0.476137 -1.226523 1.560261 1.611684 0.829778 0.821932 3.896654 1.168928 -0.486399 3.213273 -4.900894 -4.964700 4.094105 2.389283 -2.787290 -4.721038 1.830589 -2.953886 4.315978 -1.545095 -1.189698 -4.264050 -1.933118 -3.502212 2.868522 -0.173836 2.980283 0.343950 -3.628457 0.071139 4.042404 1.959929 -4.560753 -3.279559 -0.080586 -4.111502 -2.958774 -0.690089 -1.251383 -2.629290 -0.015468 4.652268 2.158225 3.300506 -3.734519 3.331027 0.984492 -3.978582 -2.519296 -0.012984 -0.141679 3.127503 -3.206412 4.345005 3.926263 -0.977262 0.734377 1.480641 4.253136 -2.224643 0.518200 0.590464 -1.067346 -1.125418 -2.375952 3.427761 -4.274539 4.581150 4.194396 -3.748240 -1.532379 -0.044388 2.759085 -2.169495 -3.005453 3.163770 4.910414 -1.258227 4.741449 -4.410870 -2.496078 0.004447 2.780981
-2.282648 -0.178258 -0.125537 2.258760 -0.422704 -0.559892 -4.347902 -0.500524 0.904938 -4.965647 3.695153 4.359681 -4.344677 0.476137 -1.226523 1.560261 1.611684 0.829778 0.821932 3.896654 1.168928 -0.486399 3.213273 -4.900894 -4.964700 4.094105 -2.009687 -2.787290 -4.721038 1.830589 -2.953886 4.315978 -1.545095 -1.189698 -4.264050 -1.933118 -3.502212 2.868522 -0.173836 -2.107253 -4.941655 -0.249165 -4.231870 4.042404 1.959929 -4.560753 -3.279559 1.479679 -4.111502 -2.958774 -0.690089 -1.251383 -2.629290 -0.015468 4.652268 2.158225 3.300506 -3.734519 3.331027 0.984492 1.722117 -2.519296 -1.378639 -0.141679 3.127503 -3.206412 -2.839026 3.926263 1.570500 0.734377 1.480641 4.253136 1.375303 4.870114 0.590464 -1.067346 -1.125418 -2.375952 -4.613821 -4.274539 0.219082 4.194396 -3.748240 0.281502 -0.044388 2.759085 -3.273813 -3.005453 -0.852953 4.910414 -1.258227 4.741449 -4.410870 -4.153905 0.004447 2.780981
-4.765702 2.444395 -1.023197 2.258760 -0.422704 -0.559892 -4.347902 -0.500524 0.904938 4.149756 -1.920379 4.359681 -4.344677 0.476137 -4.974559 1.560261 1.611684 0.829778 0.821932 3.896654 1.168928 -0.486399 3.213273 -4.900894 -4.964700 4.094105 2.389283 -2.787290 -4.721038 1.830589 -4.278186 4.315978 -1.545095 -1.189698 -4.264050 -1.933118 -3.502212 2.868522 -0.173836 -1.230810 0.343950 -0.249165 -4.231870 4.042404 1.959929 -0.346505 -3.279559 1.479679 -4.111502 -2.958774 -0.690089 -1.251383 -0.298962 -0.015468 4.652268 2.158225 3.300506 -3.734519 3.331027 0.984492 -3.978582 -2.519296 -0.012984 -0.141679 3.127503 -3.206412 -2.839026 3.926263 1.570500 0.734377 1.480641 4.253136 1.375303 4.870114 0.590464 -1.067346 -1.125418 -2.375952 4.798170 -4.274539 4.581150 4.194396 -3.748240 2.584272 -0.044388 2.759085 -2.169495 -3.005453 -0.852953 4.910414 -1.258227 4.741449 -4.410870 -2.496078 0.004447 1.448220
-4.765702 2.444395 -1.023197 2.258760 -0.422704 -0.559892 -4.347902 -0.500524 0.904938 -4.965647 3.695153 4.359681 -4.344677 0.476137 -4.974559 3.670869 1.611684 2.432829 0.821932 -1.893175 2.220424 -0.486399 3.213273 -4.900894 0.823384 4.094105 2.389283 -2.787290 -4.721038 1.830589 -4.278186 4.315978 -1.545095 -1.189698 -4.264050 -1.933118 -3.502212 2.868522 -0.173836 -1.230810 0.343950 -3.628457 0.071139 4.042404 1.959929 -4.560753 -3.279559 1.479679 -4.111502 -2.958774 -0.690089 -1.251383 -2.629290 -1.049358 4.652268 2.158225 3.300506 -3.734519 3.331027 0.984492 1.722117 -2.519296 -1.378639 -0.141679 0.063636 -3.206412 -2.839026 3.926263 1.570500 0.734377 1.480641 4.253136 1.375303 4.870114 0.590464 2.152341 -1.125418 -2.375952 0.001333 -4.274539 4.581150 4.194396 -3.748240 -1.532379 -0.044388 2.759085 -2.169495 -3.005453 -0.852953 4.910414 -1.258227 4.741449 -4.410870 -2.496078 0.004447 2.780981
-2.282648 -0.178258 -0.125537 2.258760 -0.422704 -0.559892 -4.347902 -0.500524 0.904938 -4.965647 3.695153 4.359681 -4.344677 0.476137 -4.974559 1.560261 1.611684 0.829778 0.821932 3.896654 1.168928 -0.486399 3.213273 -4.900894 -4.964700 4.094105 2.389283 -2.787290 -4.721038 1.830589 -2.953886 4.315978 -1.545095 -1.189698 -4.264050 -1.933118 -3.502212 2.868522 -0.173836 -2.107253 0.343950 -0.249165 0.071139 4.042404 -1.278018 -4.560753 -3.279559 1.479679 -4.111502 -2.958774 -0.690089 -1.251383 -2.629290 -1.049358 4.652268 2.158225 3.300506 -3.734519 3.331027 0.984492 -3.978582 -2.519296 -0.012984 -0.141679 3.127503 -3.206412 -2.839026 3.926263 1.570500 0.734377 1.480641 4.253136 -2.224643 4.870114 0.590464 2.152341 2.225910 -2.375952 0.001333 -4.274539 -0.496372 4.194396 -3.748240 -1.532379 -0.044388 2.759085 -2.169495 -3.005453 -0.852953 4.910414 -1.258227 4.741449 -4.410870 -2.496078 0.004447 2.780981
-2.282648 -0.178258 -0.125537 2.258760 -0.422704 3.670788 -4.347902 -0.500524 0.904938 -4.965647 3.695153 4.359681 -3.468213 0.476137 -4.974559 1.560261 1.611684 0.829778 0.821932 3.896654 1.168928 -0.486399 3.213273 -4.900894 -4.964700 4.094105 2.389283 -2.787290 -4.721038 1.830589 -2.953886 4.315978 -1.545095 -1.189698 -4.264050 -1.933118 -3.502212 2.868522 -0.173836 -2.107253 0.343950 -0.249165 0.071139 3.421998 1.959929 -4.560753 -3.279559 1.479679 -4.111502 -2.958774 -0.690089 -1.251383 -2.629290 -1.049358 4.652268 -2.800154 3.300506 -3.734519 3.331027 0.984492 -4.515544 -4.048227 3.583309 3.838073 3.127503 -3.206412 2.809558 -4.331212 3.192898 0.734377 1.480641 4.253136 1.375303 -3.580266 0.590464 -1.067346 -1.125418 -2.375952 3.427761 -4.274539 4.581150 4.194396 -3.748240 0.281502 -0.044388 2.759085 -2.169495 -3.005453 -0.852953 4.910414 -1.258227 4.741449 -4.410870 -2.496078 0.004447 1.448220
-4.765702 2.444395 -1.023197 2.258760 -1.990328 0.736750 2.820777 -0.500524 0.904938 -4.965647 3.695153 4.359681 -4.344677 0.476137 -4.974559 3.670869 1.611684 2.432829 0.821932 3.896654 2.220424 -0.486399 3.213273 -4.900894 0.823384 4.094105 2.389283 -2.787290 -4.721038 1.830589 -2.953886 4.315978 -1.545095 -1.189698 -4.264050 -1.933118 -3.502212 2.868522 -0.173836 -2.107253 0.343950 -0.249165 0.071139 4.042404 -1.278018 -4.560753 -3.279559 1.479679 -4.111502 -2.958774 -0.690089 -1.251383 -2.629290 -0.015468 4.652268 2.158225 3.300506 1.434462 3.331027 0.984492 -3.978582 -2.519296 -0.012984 -0.141679 3.127503 -3.206412 -2.839026 3.926263 -1.454655 0.734377 1.480641 4.253136 1.375303 4.870114 0.590464 3.893427 -1.125418 -2.375952 3.427761 -4.274539 4.581150 4.194396 -3.748240 0.281502 -0.044388 2.759085 -2.169495 -3.005453 3.163770 4.910414 -1.258227 4.741449 -4.410870 -2.496078 0.004447 2.780981
-2.282648 -0.178258 -0.125537 2.258760 -0.422704 -0.559892 -4.347902 -0.500524 0.904938 -4.965647 3.695153 4.359681 -3.468213 0.476137 -4.974559 1.560261 1.611684 0.829778 0.821932 3.896654 -4.000801 -0.486399 3.213273 -4.900894 -4.964700 4.094105 -2.009687 -2.787290 -4.721038 1.830589 -2.953886 4.315978 -1.545095 -1.189698 -4.264050 -1.933118 -3.502212 2.868522 -0.173836 2.980283 0.343950 -3.628457 0.071139 4.042404 1.959929 -4.560753 -3.279559 -0.080586 -4.111502 -2.958774 -0.690089 -1.251383 -2.629290 -0.015468 4.652268 2.158225 3.300506 -3.734519 3.331027 0.984492 -3.978582 -2.519296 -0.012984 -0.141679 3.127503 -3.206412 4.345005 3.926263 -0.977262 0.734377 1.480641 4.253136 -2.224643 0.518200 0.590464 -1.067346 -1.125418 -1.038135 3.427761 -4.274539 4.581150 4.194396 -3.748240 -1.532379 -0.044388 2.759085 -2.169495 -3.005453 -0.852953 4.910414 -1.258227 4.741449 -4.410870 -2.496078 0.004447 2.780981
4.962493 -0.178258 -0.125537 2.258760 -0.422704 -0.559892 -4.347902 -0.500524 0.904938 -4.965647 3.695153 4.359681 0.317650 0.476137 -4.974559 1.560261 1.611684 0.829778 0.821932 3.896654 -1.114242 -0.486399 3.213273 -4.900894 -4.964700 4.094105 -2.009687 -2.787290 -4.721038 1.830589 -2.953886 4.315978 -1.545095 -1.189698 -4.264050 -1.933118 -3.502212 2.868522 -0.173836 -2.107253 0.343950 -0.249165 -4.231870 4.042404 1.959929 -4.560753 -3.279559 1.479679 -4.111502 -2.958774 -0.690089 -1.251383 -2.629290 -0.015468 4.652268 2.158225 3.300506 -3.734519 3.331027 0.984492 -3.978582 -2.519296 -0.012984 -0.141679 3.127503 -3.206412 -2.839026 3.926263 1.570500 0.734377 1.480641 4.253136 1.375303 4.870114 0.590464 -1.067346 -1.125418 -2.375952 -4.613821 -4.274539 0.219082 4.194396 -3.748240 0.281502 -0.044388 2.759085 -3.273813 -3.005453 -0.852953 4.910414 -1.258227 4.741449 -4.410870 -4.153905 0.004447 2.780981
-2.282648 -0.178258 -0.125537 2.258760 -0.422704 3.670788 -4.347902 -0.500524 0.904938 -4.965647 3.695153 4.359681 -3.468213 0.476137 -4.974559 1.560261 1.611684 0.829778 0.821932 3.896654 -4.000801 -0.486399 3.213273 -4.900894 -4.964700 4.094105 3.550061 -2.787290 0.915194 1.830589 -4.278186 4.315978 -1.545095 -1.189698 -4.264050 -1.933118 -3.502212 2.868522 -0.173836 -1.230810 0.343950 -3.628457 0.071139 4.042404 1.959929 -4.560753 -3.279559 1.479679 -4.111502 -2.958774 -0.690089 -1.251383 -2.629290 -1.049358 4.652268 2.158225 3.300506 -3.734519 3.331027 0.984492 -3.978582 -2.519296 -0.012984 -0.141679 3.127503 -3.206412 -2.839026 3.926263 1.570500 0.734377 1.480641 4.253136 -2.224643 4.870114 0.590464 2.152341 -1.125418 -2.375952 0.001333 -4.274539 4.581150 4.194396 -3.748240 -1.532379 -0.044388 2.759085 -2.169495 -3.005453 -0.852953 4.910414 -1.258227 4.741449 -4.410870 -2.496078 0.004447 -3.188913
-2.282648 0.661807 -0.125537 2.258760 -0.422704 3.670788 -4.347902 -0.500524 0.904938 -4.965647 3.695153 4.359681 -3.468213 0.476137 -4.974559 1.560261 1.611684 0.829778 0.821932 3.896654 -4.000801 -0.486399 3.213273 -4.900894 -4.964700 4.094105 -2.009687 -2.787290 -4.721038 1.830589 -2.953886 4.315978 -1.545095 -1.189698 -4.264050 -1.933118 -3.502212 2.868522 -0.173836 -2.107253 0.343950 -0.249165 -4.231870 4.042404 1.959929 -4.560753 -3.279559 1.479679 -4.111502 -2.958774 -0.690089 -1.251383 -2.629290 -0.015468 4.652268 2.158225 3.300506 -3.734519 3.331027 0.984492 1.722117 -2.519296 -1.378639 -0.141679 3.127503 -3.206412 -2.839026 3.926263 1.570500 0.734377 1.480641 4.253136 1.375303 4.870114 0.590464 -1.067346 -1.125418 -2.375952 -4.613821 -4.274539 4.581150 4.194396 -3.748240 2.584272 -0.044388 2.759085 -2.169495 -3.005453 -0.852953 4.910414 -1.258227 4.741449 -4.410870 -2.496078 0.004447 1.448220
-2.282648 -0.178258 -0.125537 2.258760 -0.422704 3.670788 -4.347902 -0.500524 0.674383 -4.965647 3.695153 4.359681 -3.468213 0.476137 -4.974559 1.560261 1.611684 0.829778 0.821932 3.896654 -4.000801 -0.486399 3.213273 -4.900894 -4.392708 4.094105 3.550061 -2.787290 -4.721038 1.830589 -2.953886 4.315978 -1.545095 -1.189698 -4.264050 -1.933118 -3.502212 -4.798583 -0.173836 -1.230810 0.343950 -3.628457 0.071139 4.042404 1.959929 -4.560753 -3.279559 1.479679 -4.111502 -2.958774 -0.690089 -1.251383 -2.629290 -1.049358 4.652268 2.158225 3.300506 -3.734519 3.331027 0.984492 -4.515544 -4.048227 3.583309 -0.141679 3.127503 -3.206412 2.809558 -4.331212 3.192898 0.734377 1.480641 4.253136 0.065038 4.870114 0.590464 -1.067346 -1.125418 -2.553657 3.427761 -4.274539 4.581150 4.194396 -3.748240 2.584272 -0.044388 2.759085 -2.169495 -3.005453 -0.852953 4.910414 -1.258227 4.741449 -4.410870 -2.496078 0.004447 1.448220
-4.765702 2.444395 -1.023197 2.258760 -0.422704 -0.559892 -4.347902 -0.500524 0.904938 -4.965647 3.695153 4.359681 -4.344677 0.476137 -4.974559 3.670869 1.611684 2.432829 0.821932 3.896654 2.220424 -0.486399 3.213273 -4.900894 0.823384 4.094105 2.389283 -2.787290 -4.721038 1.830589 -2.953886 4.315978 -1.545095 -1.189698 -4.264050 -1.933118 -3.502212 2.868522 -0.173836 -1.230810 0.343950 -3.628457 -1.545891 4.042404 1.959929 -4.560753 -3.279559 1.479679 -4.111502 -2.958774 -0.690089 -1.251383 -2.629290 -1.049358 4.652268 2.158225 3.300506 -3.734519 3.331027 0.984492 -3.978582 -2.519296 -0.012984 -0.141679 3.127503 -3.206412 -2.839026 3.926263 1.570500 0.734377 1.480641 4.253136 -2.224643 4.870114 0.590464 4.191375 -1.125418 -2.375952 0.001333 -4.274539 4.581150 4.194396 -3.748240 -1.532379 -0.044388 2.759085 -2.169495 -3.005453 -0.852953 4.910414 -1.258227 4.741449 -4.410870 -2.496078 0.004447 2.780981
-2.282648 -0.178258 -0.125537 2.258760 -0.422704 3.670788 -4.347902 -0.500524 0.904938 -4.965647 3.695153 4.359681 -3.468213 0.476137 -4.974559 1.560261 1.611684 0.829778 0.821932 3.896654 -1.114242 -0.486399 3.213273 -4.900894 -4.964700 -4.307369 -2.009687 -2.787290 -4.721038 1.830589 -2.953886 4.315978 -1.545095 -1.189698 -4.264050 -1.933118 -3.502212 2.868522 -0.173836 -2.107253 0.343950 -0.249165 -4.231870 4.042404 1.959929 -4.560753 -3.279559 -3.378363 -4.111502 -2.958774 -0.690089 -1.251383 -2.629290 -0.015468 4.652268 2.158225 3.300506 -3.734519 3.331027 0.984492 -3.978582 -2.519296 4.533415 -0.141679 3.127503 -3.206412 -2.839026 3.926263 1.570500 0.734377 1.480641 4.253136 -2.224643 4.870114 -2.673008 2.152341 -1.125418 -2.375952 0.001333 -4.274539 4.581150 4.194396 -3.748240 -1.532379 -0.044388 2.759085 -3.091338 -3.005453 -0.852953 4.910414 -1.258227 4.741449 -4.410870 -2.496078 0.004447 2.780981
-2.282648 -0.178258 -0.125537 2.258760 -0.422704 -0.559892 -4.347902 -0.500524 0.904938 -4.965647 3.695153 4.359681 -4.344677 0.476137 -4.974559 1.560261 1.611684 0.829778 0.821932 3.896654 1.168928 -0.486399 3.213273 -4.900894 -4.964700 4.094105 2.389283 -2.787290 -4.721038 1.830589 -2.953886 4.315978 -1.545095 -1.189698 -4.264050 -1.933118 -3.502212 2.868522 -0.173836 -2.107253 0.343950 -0.249165 0.071139 4.042404 -1.278018 -4.560753 -3.279559 1.479679 -2.790931 -2.958774 -0.690089 -4.290599 -2.629290 -0.015468 4.652268 2.158225 3.300506 1.434462 3.331027 0.984492 -3.978582 -2.519296 -0.012984 -0.141679 3.127503 -3.206412 2.027506 3.926263 1.570500 0.734377 1.480641 4.253136 -2.224643 4.870114 0.590464 2.152341 -1.125418 -2.375952 0.001333 -4.274539 4.581150 4.194396 -3.748240 -1.532379 -0.044388 2.759085 -2.169495 -3.005453 -0.852953 4.910414 -1.258227 4.741449 -4.410870 -2.496078 0.004447 1.683841
-2.282648 -0.178258 -0.125537 2.258760 -0.422704 -0.559892 -4.347902 -0.500524 0.904938 -4.965647 3.695153 4.359681 -4.344677 0.476137 -1.226523 1.560261 1.611684 0.829778 0.821932 3.896654 1.168928 -0.486399 3.213273 -4.900894 -4.964700 4.094105 2.389283 -2.787290 -4.721038 1.830589 -2.953886 4.315978 -1.545095 -1.189698 -4.264050 -1.933118 -3.502212 2.868522 -0.173836 2.980283 0.343950 -3.628457 0.071139 4.042404 1.959929 -4.560753 -3.279559 1.479679 -4.111502 -2.958774 -0.690089 -1.251383 -2.629290 -0.015468 4.652268 2.158225 3.300506 -3.734519 3.331027 0.984492 -3.978582 -2.519296 -0.012984 -0.141679 3.127503 -3.206412 4.345005 3.926263 -0.977262 0.734377 1.480641 4.253136 -2.224643 0.518200 0.590464 -1.067346 -1.125418 -2.375952 3.427761 -4.274539 4.581150 4.194396 -3.748240 -1.532379 -0.044388 2.759085 -2.169495 -3.005453 -0.852953 4.910414 -1.258227 4.741449 -4.410870 -2.496078 0.004447 2.780981
-2.282648 -0.178258 -0.125537 2.258760 -0.422704 -0.559892 -4.347902 -0.500524 0.904938 -4.965647 3.695153 4.359681 -4.344677 0.476137 -4.974559 1.560261 1.611684 0.829778 0.821932 3.896654 1.168928 -0.486399 3.213273 -4.900894 -4.964700 4.094105 2.389283 -2.787290 -4.721038 1.830589 -2.953886 4.315978 -1.545095 -1.189698 -4.264050 -1.933118 -3.502212 2.868522 -0.173836 -2.107253 0.343950 -0.249165 -3.047561 4.042404 -1.278018 -4.560753 -3.279559 1.479679 -4.111502 -2.958774 -0.690089 -1.251383 -2.629290 -0.015468 4.652268 2.158225 3.300506 1.434462 3.331027 0.984492 -3.978582 -2.519296 -0.012984 -0.141679 3.127503 -3.206412 2.027506 3.926263 1.570500 0.734377 1.480641 4.253136 -2.224643 4.870114 0.590464 2.152341 -1.125418 -2.375952 0.001333 -4.274539 4.581150 4.194396 -3.748240 -1.532379 -0.044388 2.759085 -2.169495 -3.005453 -0.852953 4.910414 -1.258227 4.741449 -4.410870 -2.496078 0.004447 2.780981
-2.282648 -0.178258 -0.125537 2.258760 -0.422704 -0.559892 -4.347902 -0.500524 0.904938 -4.965647 3.695153 4.359681 -4.344677 0.476137 -4.974559 1.560261 1.611684 0.829778 0.821932 3.896654 1.168928 -0.486399 3.213273 -4.900894 -4.964700 4.094105 2.389283 -2.787290 -4.721038 1.830589 -2.953886 4.315978 -1.545095 3.902505 -4.264050 -1.933118 -3.502212 2.868522 -0.173836 -2.107253 0.343950 -0.249165 0.945787 4.042404 -1.278018 -4.560753 -3.279559 1.479679 3.813544 -2.958774 -0.690089 -1.251383 -2.629290 -0.015468 -1.413919 2.158225 3.300506 1.434462 3.331027 0.984492 -3.978582 -2.519296 -0.012984 -0.141679 3.127503 -3.206412 -2.839026 3.926263 -3.389811 0.734377 1.480641 4.253136 1.520426 4.870114 0.590464 0.996244 -1.125418 4.115753 3.427761 -4.274539 4.581150 -2.187052 -3.748240 2.584272 -0.044388 2.759085 -2.169495 -3.005453 -0.852953 4.910414 -1.258227 4.741449 -4.410870 -2.496078 0.004447 1.448220
1.558333 -0.178258 -0.125537 2.258760 -0.422704 3.670788 -4.347902 -0.500524 0.904938 -4.965647 3.695153 4.359681 -3.468213 0.476137 -4.974559 1.560261 1.611684 0.829778 0.821932 3.896654 1.168928 -0.486399 3.213273 -4.900894 -4.964700 4.094105 -0.525123 -2.787290 -4.721038 1.830589 -2.953886 4.315978 -1.545095 -1.189698 -4.264050 -1.933118 -3.502212 2.868522 -0.173836 -2.107253 0.343950 -0.249165 0.071139 4.042404 1.959929 -4.560753 -3.279559 1.479679 -4.111502 -2.958774 -0.690089 -1.251383 -2.629290 -1.049358 4.652268 2.158225 3.300506 -3.734519 3.331027 0.984492 -4.515544 -4.048227 3.583309 -0.141679 3.127503 -3.206412 2.809558 -4.331212 3.192898 0.734377 1.480641 4.253136 1.375303 4.870114 0.590464 -1.067346 -1.125418 4.438611 3.427761 -4.274539 4.581150 -2.187052 -3.748240 2.584272 -0.044388 2.759085 -2.169495 -3.005453 -1.598412 4.910414 -1.258227 4.741449 -4.410870 -2.496078 0.004447 -3.710079
-2.282648 -0.178258 -0.125537 2.258760 -0.422704 3.670788 -4.347902 -0.500524 0.904938 -4.965647 3.695153 4.359681 -3.468213 0.476137 -4.974559 1.560261 1.611684 0.829778 0.821932 3.896654 -0.869812 -1.277601 3.213273 -0.891497 0.823384 4.094105 2.389283 -2.787290 -4.721038 1.830589 -4.278186 4.315978 -1.545095 -1.189698 -4.264050 -1.933118 -3.502212 2.868522 -0.173836 -2.107253 0.343950 -0.249165 -1.857124 4.042404 -1.278018 -4.560753 -3.279559 1.479679 -4.111502 -2.958774 -0.690089 -1.251383 -2.629290 -0.015468 0.528191 2.158225 3.300506 1.434462 3.331027 0.984492 -3.978582 -2.519296 -0.012984 -0.141679 3.127503 -3.206412 -2.839026 -1.289852 1.570500 0.734377 1.480641 -3.235552 1.375303 4.870114 0.590464 -1.067346 -1.125418 -2.375952 3.427761 -4.274539 4.581150 4.194396 -3.748240 0.281502 -0.044388 2.759085 -2.169495 -3.005453 -0.852953 4.910414 -1.258227 4.741449 -4.410870 -2.496078 0.004447 1.448220
-2.282648 -0.178258 -0.125537 2.258760 -0.422704 3.670788 -4.347902 -0.500524 0.674383 -4.965647 3.695153 4.359681 -3.468213 0.476137 -4.974559 1.560261 1.611684 0.829778 0.821932 3.896654 -4.000801 -0.486399 3.213273 -4.900894 -4.964700 4.094105 3.550061 -2.787290 -4.721038 1.830589 -2.953886 4.315978 -1.545095 -1.189698 1.108395 -1.933118 -3.502212 -4.798583 -0.173836 -1.230810 0.343950 -3.628457 0.071139 4.042404 1.959929 -4.560753 -3.279559 1.479679 -4.111502 -2.958774 -0.690089 -1.251383 -2.629290 -1.049358 4.652268 2.158225 3.300506 -3.734519 3.331027 0.984492 -4.515544 -4.048227 3.583309 -0.141679 3.127503 -3.206412 2.809558 -4.331212 -2.398932 0.734377 1.480641 4.253136 1.375303 4.870114 0.590464 -1.067346 -1.125418 -2.375952 -4.613821 -4.274539 0.219082 4.194396 -3.748240 0.281502 -0.044388 2.759085 -3.273813 -3.005453 -0.852953 4.910414 -1.258227 4.741449 -4.410870 -4.153905 0.004447 2.780981
-2.282648 -0.178258 -0.125537 2.258760 -0.422704 3.670788 -4.347902 -0.500524 0.904938 -4.965647 3.695153 4.359681 -3.468213 -4.521500 -4.974559 1.560261 1.611684 0.829778 0.821932 3.896654 -1.114242 -0.486399 3.213273 -4.900894 -4.964700 4.094105 -2.009687 -2.787290 -4.721038 1.830589 -2.953886 4.315978 -1.545095 -1.189698 -4.264050 -1.933118 -3.502212 2.868522 -0.173836 -2.107253 0.343950 -0.249165 -4.231870 4.042404 1.959929 -4.560753 -3.279559 1.479679 -4.111502 -2.958774 -0.690089 -1.251383 -2.629290 -0.015468 4.652268 2.158225 3.300506 -3.734519 3.331027 0.984492 -3.978582 -2.519296 -0.012984 -0.141679 3.127503 -3.206412 -2.839026 3.926263 1.570500 0.734377 1.480641 4.253136 1.375303 4.870114 0.590464 -1.067346 -1.125418 -2.375952 4.798170 -4.274539 4.581150 4.194396 -3.748240 2.584272 -0.044388 2.759085 -2.169495 -3.005453 -0.852953 4.910414 -1.258227 4.741449 -4.410870 -2.496078 0.004447 2.780981
-2.282648 -0.178258 -0.125537 2.258760 -0.422704 3.670788 -4.347902 -0.500524 0.904938 -4.965647 3.695153 4.359681 -3.468213 0.476137 -4.974559 1.560261 1.611684 0.829778 0.821932 3.896654 -4.000801 -0.486399 3.213273 -4.900894 -4.964700 4.094105 -2.009687 -2.787290 -4.721038 1.670336 -2.953886 4.315978 -1.545095 -1.189698 -4.264050 -1.933118 -3.502212 2.868522 -0.173836 -2.107253 0.343950 -0.249165 -4.231870 4.042404 1.959929 -4.560753 -1.989564 1.479679 -4.111502 -2.958774 -0.690089 -1.251383 -0.320421 -1.049358 4.652268 2.158225 3.300506 -3.734519 3.331027 0.984492 -3.978582 -2.519296 -0.012984 -0.141679 3.127503 -3.206412 -2.839026 3.926263 1.570500 2.768811 1.480641 4.253136 -2.224643 4.870114 -2.673008 2.152341 -1.125418 -2.375952 0.001333 -4.274539 4.581150 2.070087 -3.748240 3.795028 -0.044388 2.759085 -2.169495 -3.005453 -0.852953 4.910414 -1.258227 4.741449 -4.410870 -2.496078 0.004447 2.780981
-2.282648 -0.178258 -0.125537 2.258760 -0.422704 -0.559892 -4.347902 -0.500524 0.904938 -4.965647 3.695153 4.359681 -4.344677 0.476137 -4.974559 1.560261 1.611684 0.829778 0.821932 3.896654 1.168928 -0.486399 3.213273 -4.900894 -4.964700 4.094105 2.389283 -2.787290 -4.721038 1.830589 -2.953886 4.315978 -1.545095 -1.189698 -4.264050 -1.933118 -3.502212 2.868522 -0.173836 -2.107253 0.343950 -0.249165 -1.857124 4.042404 -1.278018 -4.560753 -3.279559 1.479679 -4.111502 -2.958774 -0.690089 -1.251383 -2.629290 -0.015468 0.528191 2.158225 3.300506 1.434462 3.331027 0.984492 -3.978582 -2.519296 -0.012984 -0.141679 3.127503 -3.206412 -2.839026 -1.289852 1.570500 0.734377 1.480641 4.253136 1.375303 4.870114 0.590464 -1.067346 -1.125418 -2.375952 3.427761 -4.274539 4.581150 4.194396 -3.748240 0.281502 -0.044388 2.759085 -2.169495 -3.005453 3.163770 4.910414 -1.258227 4.741449 -4.410870 -2.496078 0.004447 2.780981
-4.765702 2.444395 -1.023197 2.258760 3.989336 0.736750 2.820777 -0.500524 0.904938 -4.965647 3.695153 4.359681 -4.344677 0.476137 -4.974559 3.670869 1.611684 2.432829 0.821932 3.896654 2.220424 -0.486399 3.213273 -4.900894 0.823384 4.094105 2.389283 -2.787290 -4.721038 1.830589 -2.953886 4.315978 -1.545095 -1.189698 -4.264050 -1.933118 -3.502212 2.868522 -0.173836 -2.107253 0.343950 -0.249165 0.071139 4.042404 -1.278018 -4.560753 -3.279559 1.479679 -4.111502 -2.958774 -0.690089 -1.251383 -2.629290 -1.049358 4.652268 1.372612 3.300506 -3.734519 3.331027 2.828189 -3.978582 -2.519296 -0.012984 -0.141679 3.127503 -3.206412 -2.839026 3.926263 1.570500 0.734377 1.480641 4.253136 -2.224643 4.870114 0.590464 -1.067346 -1.125418 -2.375952 3.427761 -4.274539 4.581150 4.194396 -2.672065 -1.532379 -0.044388 2.759085 -2.169495 -3.005453 -0.852953 4.910414 -1.258227 4.741449 -4.410870 -2.496078 0.004447 1.448220
-2.282648 -0.178258 -0.125537 2.258760 -0.422704 3.670788 -4.347902 -0.500524 0.904938 -4.965647 3.695153 4.359681 -3.468213 0.476137 -4.974559 1.560261 1.611684 0.829778 0.821932 3.896654 -0.869812 -1.277601 3.213273 -0.891497 0.823384 4.094105 2.389283 -2.787290 -4.721038 1.830589 -4.278186 4.315978 -1.545095 -1.189698 -4.264050 -1.933118 -3.502212 2.868522 -0.173836 -1.230810 0.343950 -3.628457 0.071139 4.042404 1.959929 2.447027 -3.279559 1.479679 -4.111502 -2.958774 -0.690089 -1.251383 -2.629290 -1.049358 4.652268 2.158225 3.300506 -3.734519 3.331027 2.828189 -3.978582 -2.519296 -0.012984 -0.141679 3.127503 -3.206412 -2.839026 3.926263 1.570500 0.734377 1.480641 4.253136 -3.003707 4.870114 0.590464 -1.067346 -1.125418 -2.375952 3.427761 -4.274539 4.581150 4.194396 -2.672065 -1.532379 -0.044388 2.759085 -2.169495 -3.005453 -0.852953 4.910414 -1.258227 4.741449 -4.410870 -2.496078 0.004447 1.448220
-2.282648 -0.178258 -0.125537 2.258760 -0.422704 3.670788 -4.347902 -0.500524 0.904938 -4.965647 3.695153 4.359681 -3.468213 0.476137 -4.974559 1.560261 1.611684 0.829778 0.821932 3.896654 -4.000801 -0.486399 3.213273 -4.900894 -4.964700 4.094105 -2.009687 -2.787290 -4.721038 1.830589 -2.953886 4.315978 -1.545095 -1.189698 -4.264050 -1.933118 -3.502212 2.868522 -0.173836 -2.107253 0.343950 -0.249165 -4.231870 4.042404 1.959929 -4.560753 -1.989564 1.479679 -4.111502 -2.958774 -0.690089 -1.251383 -0.320421 -1.049358 4.652268 2.158225 3.300506 -3.734519 3.331027 0.984492 -3.978582 -2.519296 -0.012984 -0.141679 3.127503 -3.206412 -2.839026 3.926263 1.570500 2.768811 1.480641 4.253136 1.375303 4.870114 0.590464 -1.067346 -1.125418 -2.375952 4.798170 -4.274539 4.581150 4.194396 -3.748240 2.584272 -0.044388 2.759085 -2.169495 -3.005453 -0.852953 3.045337 -1.258227 2.083486 -4.410870 -2.496078 0.004447 1.448220
-2.282648 1.229878 -0.125537 2.258760 -0.422704 -0.559892 -4.347902 -0.500524 0.904938 -4.965647 1.005026 4.359681 -4.344677 0.476137 -4.974559 1.560261 1.611684 0.829778 0.821932 3.896654 1.168928 -0.486399 3.213273 -4.900894 -4.964700 4.094105 2.389283 -2.787290 -4.721038 1.830589 -2.953886 4.315978 -1.545095 -1.189698 -4.264050 -1.933118 -3.502212 2.868522 -0.173836 -2.107253 0.343950 -0.249165 -1.857124 4.042404 -1.278018 -4.560753 0.904682 1.479679 -4.111502 -2.958774 -0.690089 -1.251383 -2.629290 -0.015468 0.528191 2.158225 3.300506 1.434462 3.331027 0.984492 -3.978582 -2.519296 -0.012984 -0.141679 3.127503 -3.206412 -2.839026 -1.289852 1.570500 0.734377 1.480641 4.253136 1.375303 4.870114 0.590464 -1.067346 -1.125418 -2.375952 3.427761 -4.274539 4.581150 4.194396 -3.748240 0.281502 -0.044388 2.759085 -2.169495 -3.005453 3.163770 4.910414 -1.258227 4.741449 -4.410870 -1.950892 0.004447 2.780981
-2.282648 -0.178258 -0.125537 2.258760 -0.422704 -0.559892 -4.347902 -0.500524 0.904938 -4.965647 3.695153 4.359681 -4.344677 0.476137 -4.974559 1.560261 1.611684 0.829778 0.821932 3.896654 1.168928 -0.486399 3.213273 -4.900894 -4.964700 4.094105 2.389283 -2.787290 -4.721038 1.830589 -2.953886 4.315978 -1.545095 -1.189698 -4.264050 -1.933118 -3.502212 2.868522 -0.173836 -2.107253 0.343950 -0.249165 0.071139 4.042404 -1.278018 -4.560753 -3.279559 1.479679 -4.111502 -2.958774 -0.690089 -1.251383 -2.629290 -0.015468 4.652268 2.158225 3.300506 1.434462 3.331027 0.984492 -3.978582 -2.519296 -0.012984 -0.141679 3.127503 -3.206412 2.027506 3.926263 1.570500 0.734377 1.480641 4.253136 -2.224643 4.870114 0.590464 2.152341 -1.125418 -2.375952 0.001333 -4.274539 4.581150 4.194396 -3.748240 -1.532379 -0.044388 2.759085 -2.169495 -3.005453 -0.852953 4.910414 -1.258227 4.741449 -4.410870 -2.496078 0.004447 2.780981
