-2.282648 -0.178258 -0.125537 2.258760 -0.422704 -0.559892 -4.347902 -0.500524 0.904938 -4.965647 3.695153 4.359681 -4.344677 0.476137 -1.226523 1.560261 1.611684 0.829778 0.821932 3.896654 1.168928 -0.486399 3.213273 -4.900894 -4.964700 4.094105 2.389283 -2.787290 -4.721038 1.830589 -2.953886 4.315978 -1.545095 -1.189698 -4.264050 -1.933118 -3.502212 -3.949934 -0.173836 -2.107253 0.343950 -0.249165 0.071139 4.042404 -1.278018 -4.560753 -3.279559 1.479679 -4.111502 -2.958774 -0.690089 -1.251383 -2.629290 -0.015468 4.652268 2.158225 3.300506 1.434462 3.331027 0.984492 -3.978582 -2.519296 -0.012984 -0.141679 3.127503 -3.206412 -2.839026 3.926263 1.570500 0.734377 1.480641 4.253136 1.375303 4.870114 0.590464 -1.067346 -1.125418 -2.375952 3.427761 -4.274539 4.581150 4.194396 -3.748240 0.281502 -0.044388 2.759085 -2.169495 -3.005453 -0.852953 4.910414 -1.258227 4.741449 -4.410870 -2.496078 0.004447 2.780981
-2.282648 -0.178258 -0.125537 2.258760 -0.422704 3.670788 -4.347902 -0.500524 0.904938 -4.965647 3.695153 4.359681 -3.468213 0.476137 -4.974559 1.560261 1.611684 0.829778 0.821932 3.896654 2.800600 -0.486399 3.213273 -4.900894 -4.964700 4.094105 2.389283 -2.787290 -4.617044 1.830589 -2.953886 4.315978 -1.545095 -1.189698 -4.264050 -1.933118 -3.502212 2.868522 -0.173836 2.980283 0.343950 -3.628457 0.071139 4.042404 1.959929 -4.560753 -3.279559 -1.414861 -4.111502 -2.958774 -0.690089 -1.251383 -2.629290 -1.049358 4.652268 2.158225 3.300506 -3.734519 1.843803 0.984492 -3.978582 -2.519296 -0.012984 -0.141679 3.127503 -3.206412 -2.839026 3.926263 1.570500 0.734377 1.480641 4.253136 -2.224643 4.870114 0.590464 -1.067346 -1.125418 -2.375952 0.001333 -4.274539 4.581150 4.194396 -3.748240 -1.532379 -0.044388 2.759085 -2.169495 -3.005453 -0.852953 4.910414 -1.258227 4.741449 -4.410870 -2.496078 0.004447 1.448220
-2.282648 -0.178258 4.814849 2.258760 -0.422704 -0.559892 -4.347902 -0.500524 -1.698511 -4.965647 3.695153 4.359681 -4.344677 0.476137 -4.974559 1.560261 1.611684 1.826059 0.821932 3.896654 1.168928 -0.486399 3.213273 -4.900894 -4.964700 4.094105 2.389283 -2.787290 -4.721038 2.763999 -2.272529 4.315978 -1.545095 -1.189698 -4.264050 -1.933118 -3.502212 2.868522 -0.173836 -2.107253 0.343950 -0.249165 0.071139 4.042404 1.959929 -4.560753 -3.279559 1.479679 -4.111502 -2.958774 -0.690089 -1.251383 -2.629290 -0.015468 4.652268 2.158225 3.300506 -3.734519 3.331027 0.984492 -0.779382 -2.519296 -0.012984 -0.141679 3.127503 -3.206412 -2.731587 3.926263 1.570500 0.734377 1.480641 4.253136 1.375303 4.870114 0.590464 -1.067346 -1.125418 -2.375952 3.427761 -4.274539 4.581150 4.194396 -3.748240 0.281502 -0.044388 2.759085 -2.169495 0.414785 -0.852953 4.910414 -1.258227 4.741449 -4.410870 -2.496078 0.004447 2.780981
-2.282648 -0.178258 -0.125537 2.258760 -0.422704 -0.559892 -4.347902 -0.500524 0.904938 -4.965647 3.695153 4.359681 -4.344677 0.476137 -4.974559 1.560261 1.611684 0.829778 0.821932 3.896654 1.168928 -0.486399 3.213273 -4.900894 -4.964700 4.094105 2.389283 -2.787290 -4.721038 1.830589 -2.953886 4.315978 -1.545095 -1.189698 -4.264050 -1.933118 -3.502212 2.868522 -0.173836 -2.107253 0.343950 -0.249165 0.071139 4.042404 -1.278018 -4.560753 -3.279559 1.479679 -4.111502 -2.958774 -0.690089 -1.251383 -2.629290 -0.015468 4.652268 2.158225 3.300506 1.434462 3.331027 0.984492 -3.978582 -2.519296 -0.012984 -0.141679 3.127503 -3.206412 -2.839026 3.926263 1.570500 0.734377 1.480641 4.253136 1.375303 4.870114 0.590464 -1.067346 -1.125418 -2.375952 3.427761 4.560437 4.581150 4.194396 -3.748240 0.281502 -0.044388 2.759085 -2.169495 -3.005453 -0.852953 4.910414 -1.258227 -4.562039 -4.410870 -2.496078 0.004447 2.780981
-4.765702 2.444395 -1.023197 2.258760 -0.422704 -0.559892 -4.347902 -0.500524 0.904938 -4.965647 3.695153 4.359681 -4.344677 0.476137 -4.974559 3.670869 1.611684 2.432829 0.821932 3.896654 -3.693900 -0.486399 3.213273 -4.900894 0.823384 4.094105 2.389283 -2.787290 -4.721038 1.830589 -4.278186 4.315978 -1.545095 -1.189698 -4.264050 -1.933118 -3.502212 2.868522 -0.173836 -1.230810 0.343950 -3.628457 0.071139 4.042404 1.959929 -4.560753 -3.279559 1.479679 -4.111502 -2.958774 -0.690089 -1.251383 -2.629290 -1.049358 4.652268 2.158225 2.309280 -3.734519 3.331027 0.984492 3.383841 -2.519296 -0.012984 -0.141679 3.127503 -3.206412 -2.839026 3.926263 1.570500 0.734377 1.480641 4.253136 -2.224643 4.870114 0.590464 -1.067346 -1.125418 -2.375952 3.427761 -4.274539 4.581150 4.194396 -3.748240 -1.532379 -2.394473 2.759085 -2.169495 -3.005453 -0.852953 4.910414 -1.258227 4.741449 -4.410870 -2.496078 0.004447 1.448220
-2.282648 -0.178258 -0.125537 2.258760 -0.422704 3.670788 -4.347902 -0.500524 0.904938 -4.965647 3.695153 4.359681 -3.468213 0.476137 -4.974559 1.560261 1.611684 0.829778 0.821932 3.896654 -4.000801 -0.486399 3.213273 -4.900894 -4.964700 4.094105 3.550061 -2.787290 -4.721038 1.830589 -2.953886 4.315978 -1.545095 -1.189698 -4.264050 -1.933118 -3.502212 -4.798583 -0.173836 -1.230810 0.343950 -3.628457 0.071139 4.042404 1.959929 -4.560753 -3.279559 1.479679 -4.111502 -2.958774 -0.690089 -1.251383 -2.629290 -1.049358 4.652268 2.158225 3.300506 -3.734519 3.331027 0.984492 -4.515544 -4.048227 3.583309 -0.141679 3.127503 -3.206412 2.809558 -4.331212 3.192898 0.734377 1.480641 4.253136 1.375303 4.870114 0.590464 -1.067346 -1.125418 4.115753 3.427761 -4.274539 4.581150 -2.187052 -3.748240 2.584272 -0.044388 2.759085 -2.169495 -3.005453 -0.852953 4.910414 -1.258227 4.741449 -4.410870 -2.496078 0.004447 1.448220
-2.282648 -0.178258 -0.125537 2.258760 -2.597811 3.670788 -4.347902 -0.500524 0.904938 -4.965647 3.695153 4.359681 -3.468213 0.476137 -4.974559 1.560261 1.611684 0.829778 0.821932 3.896654 -4.000801 -0.486399 3.213273 -4.900894 -4.964700 4.094105 2.389283 -4.590172 -4.721038 1.830589 -2.953886 4.315978 -1.545095 -1.189698 3.140769 -1.933118 -3.502212 2.868522 -0.173836 2.980283 0.343950 -3.628457 0.071139 4.042404 1.959929 -4.560753 -3.279559 1.479679 -4.111502 -2.958774 -0.690089 -1.251383 -2.629290 -0.015468 -3.219799 -4.257598 -1.418313 3.611090 -1.930328 0.984492 -3.978582 -2.519296 -1.287303 4.164341 4.480458 -4.680924 4.695595 1.887970 2.265353 -1.013399 3.333077 3.358911 -4.740089 1.344522 -2.696639 -1.120425 -1.125418 1.296314 1.993241 0.966888 1.236042 -0.019355 1.228184 4.610065 4.523313 3.922231 2.868787 -0.793451 -0.993812 -3.066094 3.904697 0.132877 1.484718 -0.331744 -1.342043 -1.234236
-2.282648 -0.178258 -0.125537 2.258760 -0.422704 3.670788 -4.347902 -0.500524 0.904938 -4.965647 3.695153 4.359681 -3.468213 0.476137 -4.974559 1.560261 1.611684 0.829778 0.821932 3.896654 -4.000801 -0.486399 3.213273 -0.891497 -4.964700 4.094105 2.389283 -2.787290 -4.721038 1.830589 -2.953886 4.315978 -1.545095 -1.189698 -4.264050 -1.933118 -3.502212 2.868522 -0.173836 2.980283 0.343950 -3.628457 0.071139 4.042404 1.959929 -4.560753 -3.279559 -0.080586 -4.111502 -2.958774 -0.690089 -1.251383 -0.320421 -1.049358 4.652268 2.158225 3.300506 -3.734519 3.331027 0.984492 -3.978582 -2.519296 -0.012984 -0.141679 3.127503 -3.206412 -2.839026 3.926263 1.570500 2.768811 1.480641 4.253136 1.375303 4.870114 0.590464 -1.067346 -1.125418 -3.002636 3.427761 -4.274539 4.581150 4.194396 -3.748240 2.584272 -0.044388 2.759085 -2.169495 -3.005453 -0.852953 4.910414 -1.258227 -3.779095 -4.410870 -2.496078 0.004447 2.780981
-2.282648 -0.178258 -0.125537 2.258760 -0.422704 3.670788 -4.347902 -0.500524 0.904938 -4.965647 3.695153 4.359681 -3.468213 0.476137 -4.974559 1.560261 1.611684 0.829778 0.821932 3.896654 -4.000801 -0.486399 3.213273 -4.900894 -4.964700 4.094105 2.389283 -2.787290 -4.721038 1.830589 -2.953886 4.315978 -1.545095 -1.189698 -4.264050 0.498972 -3.502212 2.868522 -0.173836 2.980283 0.343950 -3.628457 0.071139 4.042404 1.959929 -4.560753 -3.279559 -0.080586 -4.111502 -2.958774 -0.690089 -1.251383 -2.629290 -1.049358 4.652268 2.158225 3.300506 -3.734519 3.331027 0.984492 -3.978582 -2.519296 -0.012984 -0.141679 3.127503 -3.206412 -2.839026 3.926263 1.570500 0.734377 1.480641 4.253136 1.375303 4.870114 0.590464 -1.067346 -1.125418 -2.375952 -4.613821 -4.274539 0.219082 4.194396 -3.748240 0.281502 -0.044388 2.759085 -2.169495 -3.005453 -0.852953 4.910414 -1.258227 4.741449 -4.410870 -4.153905 0.004447 2.780981
-2.282648 -0.178258 -0.125537 2.258760 -0.422704 -0.559892 -4.347902 -0.500524 -1.698511 -4.965647 3.695153 4.359681 -4.344677 0.476137 -4.974559 1.560261 1.611684 0.829778 0.821932 3.896654 1.168928 -0.486399 3.213273 -4.900894 -4.964700 4.094105 2.389283 -0.189956 -4.721038 2.763999 -2.953886 4.315978 -1.545095 -1.189698 -4.264050 -1.933118 -3.502212 2.868522 -0.173836 -2.107253 0.343950 -0.249165 0.071139 4.042404 1.959929 -4.560753 -3.279559 1.479679 -4.111502 -2.958774 -0.690089 -1.251383 -2.629290 -0.015468 4.652268 2.158225 3.300506 -3.734519 3.331027 0.984492 -3.978582 -2.519296 -0.012984 -0.141679 3.127503 -3.206412 -2.731587 3.926263 1.570500 0.734377 1.480641 -2.685277 1.375303 4.870114 0.590464 -1.067346 -1.125418 -2.375952 0.001333 -4.274539 4.581150 4.194396 -3.748240 -1.532379 -0.044388 2.759085 -2.169495 -3.005453 -0.852953 4.910414 -1.258227 4.741449 -4.410870 -2.496078 0.004447 1.448220
-2.282648 -0.178258 -0.125537 2.258760 -0.422704 -0.559892 -4.347902 -0.500524 -1.698511 -4.965647 3.695153 4.359681 -4.344677 0.476137 -4.974559 1.560261 1.611684 0.829778 0.821932 3.896654 1.168928 -0.486399 3.213273 -4.900894 -4.964700 4.094105 2.389283 -2.787290 -4.721038 2.763999 -2.953886 4.315978 -1.545095 -1.189698 -4.264050 -1.933118 -3.502212 2.868522 -0.173836 2.980283 0.343950 -3.628457 0.071139 4.042404 1.959929 -4.560753 -3.279559 -0.080586 -4.111502 -2.958774 -0.690089 -1.251383 -2.629290 -0.015468 4.652268 -1.829206 3.300506 -3.734519 3.331027 0.984492 -3.978582 -2.519296 -0.012984 1.189159 3.127503 -3.206412 -4.127649 3.926263 1.570500 0.734377 1.480641 4.253136 1.375303 4.870114 0.590464 -1.067346 -1.125418 -2.375952 3.427761 -4.274539 4.581150 4.194396 -3.748240 0.281502 -0.044388 2.759085 -0.647161 -3.005453 -0.852953 4.910414 -1.258227 4.741449 -4.410870 -2.496078 0.004447 2.780981
-4.765702 2.444395 -1.023197 2.258760 3.989336 0.736750 2.820777 -0.500524 0.904938 -4.965647 3.695153 4.359681 -4.344677 0.476137 -4.974559 3.670869 1.611684 2.432829 0.821932 3.896654 2.220424 -0.486399 3.213273 -4.900894 0.823384 4.094105 2.389283 -2.787290 -4.721038 1.830589 -4.278186 4.315978 -2.878265 -1.189698 -4.264050 -1.933118 -3.502212 2.868522 -0.173836 -1.230810 0.343950 -3.628457 0.071139 4.042404 1.959929 -4.560753 -3.279559 1.479679 -4.111502 -2.958774 -0.690089 -1.251383 -2.629290 -1.049358 4.652268 -3.167550 3.300506 -3.734519 3.331027 0.984492 -3.978582 -2.519296 -0.012984 -0.141679 3.127503 -3.206412 -2.839026 3.926263 1.570500 0.734377 1.480641 4.253136 -2.224643 4.870114 0.590464 -1.067346 -1.125418 -2.375952 3.427761 -4.274539 4.581150 4.194396 -3.748240 0.281502 -0.044388 2.759085 -2.169495 -3.005453 3.163770 4.910414 -1.258227 -3.671047 -4.410870 -2.496078 0.004447 2.780981
-4.765702 2.444395 -1.023197 2.258760 3.989336 0.736750 2.820777 -0.500524 0.904938 -4.965647 3.695153 4.359681 -4.344677 0.476137 -4.974559 3.670869 1.611684 2.432829 0.821932 3.896654 2.220424 -0.486399 3.213273 -4.900894 0.823384 4.094105 2.389283 -2.787290 -4.721038 1.830589 -4.278186 4.315978 -1.545095 -1.189698 -4.264050 -1.933118 -3.502212 2.868522 -0.173836 -1.230810 0.343950 -3.628457 0.071139 4.042404 1.959929 -4.560753 -3.279559 1.479679 -4.111502 -2.958774 -0.690089 -1.251383 -2.629290 -1.049358 4.652268 2.158225 3.300506 -3.734519 3.331027 0.984492 -3.978582 -2.519296 -0.012984 -2.204920 3.127503 -3.206412 -2.839026 3.926263 -3.389811 0.734377 1.480641 4.253136 -2.224643 4.870114 0.590464 -1.067346 -1.125418 -2.375952 3.427761 -4.274539 4.581150 4.194396 -0.659199 -1.532379 -0.044388 2.759085 -2.169495 -3.005453 -0.852953 -3.994305 -1.258227 4.741449 -4.410870 -2.496078 0.004447 2.780981
-2.282648 -0.178258 -0.125537 2.258760 -0.422704 3.670788 -4.347902 -0.500524 0.904938 -4.965647 3.695153 4.359681 -3.468213 0.476137 -4.974559 1.560261 1.611684 0.829778 0.821932 3.896654 -4.000801 -0.486399 3.213273 -4.900894 -4.964700 4.094105 2.389283 -2.787290 -4.721038 1.830589 -2.953886 4.315978 -1.545095 -1.189698 -4.264050 -1.933118 -3.502212 2.868522 -0.173836 2.980283 0.343950 -3.628457 0.071139 4.042404 1.959929 -4.560753 -3.279559 -0.080586 -4.111502 -2.958774 -1.019353 -1.251383 -2.629290 -1.049358 4.652268 2.158225 3.300506 -3.734519 3.331027 0.984492 -3.978582 -2.519296 -0.012984 -0.141679 3.127503 -3.206412 -2.839026 3.926263 1.570500 0.734377 1.480641 4.253136 1.375303 4.870114 0.590464 -1.067346 -1.125418 -2.375952 -4.613821 -4.274539 4.581150 4.194396 -3.748240 -1.532379 -0.044388 2.759085 -2.169495 -3.005453 -0.852953 -3.994305 -1.258227 4.741449 -4.410870 -4.153905 0.004447 2.780981
-2.282648 -0.178258 -0.125537 2.258760 -0.422704 3.670788 -4.347902 -0.500524 0.904938 -4.965647 3.695153 4.359681 -3.468213 0.476137 -4.974559 1.560261 1.611684 0.829778 0.821932 3.896654 1.168928 -0.486399 3.213273 -4.900894 -4.964700 4.094105 2.389283 -0.616624 -4.721038 2.475599 -2.953886 4.315978 -1.545095 -1.189698 -4.264050 -1.933118 -3.502212 2.868522 -0.173836 2.980283 0.343950 -3.628457 0.071139 4.042404 1.959929 -4.560753 -3.279559 1.479679 -2.290830 -2.958774 -0.690089 -1.251383 -0.404961 -1.049358 4.652268 2.158225 3.300506 -3.734519 3.331027 0.984492 -4.515544 -4.048227 3.583309 -0.141679 3.127503 -3.206412 2.809558 -4.331212 1.570500 0.734377 1.480641 4.253136 1.375303 4.870114 0.590464 -1.067346 -1.125418 -2.375952 3.427761 -4.274539 4.581150 4.194396 -3.748240 2.584272 -0.044388 2.759085 -2.169495 -3.005453 -0.852953 4.910414 -1.258227 4.741449 -4.410870 -2.496078 0.004447 1.448220
-2.282648 -0.178258 -0.125537 2.258760 -0.422704 -0.559892 -4.347902 -0.500524 0.904938 -4.965647 3.695153 4.359681 -4.344677 0.476137 -4.974559 -1.957486 1.611684 0.829778 0.821932 3.896654 2.800600 -0.486399 3.213273 -4.900894 4.146136 4.094105 2.389283 -2.787290 -4.721038 1.830589 -2.953886 4.315978 -1.545095 -1.189698 -4.264050 -1.933118 -3.502212 2.868522 -0.173836 2.980283 0.343950 -3.628457 2.626285 -4.257818 1.959929 -4.560753 -3.279559 1.479679 -4.111502 -2.958774 -0.690089 -1.251383 -2.629290 -1.049358 4.652268 2.158225 3.300506 -3.734519 3.331027 0.984492 -3.978582 -1.578895 -0.012984 -0.141679 3.127503 -3.206412 -2.839026 3.926263 1.570500 0.734377 1.480641 4.253136 1.375303 4.870114 0.590464 2.470619 -1.125418 -2.375952 3.427761 -4.274539 4.581150 4.194396 -3.748240 0.281502 -0.044388 2.759085 -2.169495 -3.005453 3.163770 4.910414 -1.258227 4.741449 -3.313632 -2.496078 0.004447 2.780981
-2.282648 -0.178258 -0.125537 2.258760 -0.422704 -0.559892 -4.347902 -0.500524 -1.698511 -4.965647 3.695153 4.359681 -4.344677 0.476137 -4.974559 1.560261 1.611684 0.829778 0.821932 3.896654 1.168928 -0.486399 3.213273 -4.900894 -4.964700 4.094105 2.389283 -2.787290 -4.721038 1.830589 -2.953886 4.315978 -1.545095 -1.189698 -4.264050 -1.933118 -3.502212 2.868522 -0.173836 -2.107253 0.343950 -0.249165 0.071139 4.042404 1.959929 -4.560753 -3.279559 1.479679 -4.111502 -2.958774 -0.690089 -1.251383 -2.629290 -0.015468 4.652268 2.158225 3.300506 -3.734519 3.331027 0.984492 -3.978582 -2.519296 -0.012984 -0.141679 -1.623846 -3.206412 -2.839026 3.926263 1.570500 0.734377 1.480641 4.253136 1.375303 0.518200 0.590464 -1.067346 -1.125418 -2.375952 3.427761 -4.274539 4.581150 4.194396 -3.748240 -1.532379 -0.044388 2.759085 -2.169495 -3.005453 -0.852953 4.910414 -1.258227 4.741449 -4.410870 -2.496078 0.004447 1.448220
-2.282648 -0.178258 -0.125537 2.258760 -0.422704 -0.559892 -4.347902 -0.500524 0.904938 -4.965647 3.695153 4.359681 -4.344677 0.476137 -4.974559 1.560261 1.611684 0.829778 0.821932 3.896654 1.168928 -0.486399 3.213273 -4.900894 -4.964700 4.094105 2.389283 -2.787290 -4.721038 1.830589 -2.953886 4.315978 -1.545095 -1.189698 -4.264050 -1.933118 -3.502212 2.868522 -0.173836 -2.107253 0.343950 -0.249165 0.071139 4.042404 -1.278018 -4.560753 -3.279559 1.479679 -4.111502 -2.958774 -0.690089 -1.251383 -2.629290 -0.015468 4.652268 2.158225 3.300506 1.434462 3.331027 0.984492 -3.978582 -2.519296 -0.012984 -0.141679 3.127503 -3.206412 -2.839026 3.926263 1.570500 0.734377 1.480641 4.253136 1.375303 4.870114 0.590464 -1.067346 -1.125418 -2.375952 3.427761 -4.274539 4.581150 4.194396 -3.748240 0.281502 -0.044388 2.759085 -2.169495 -3.005453 3.163770 4.910414 -1.258227 4.741449 -4.410870 -2.496078 0.004447 2.780981
-2.282648 -0.178258 -0.125537 2.258760 -0.422704 3.670788 -4.347902 -0.500524 0.904938 -4.965647 3.695153 4.359681 -3.468213 0.476137 -4.974559 1.560261 1.611684 0.829778 0.821932 3.896654 -4.000801 -0.486399 3.213273 -4.900894 -4.964700 4.094105 2.389283 -2.787290 -4.721038 1.830589 -2.953886 4.315978 -1.545095 -1.189698 -4.264050 -1.933118 -3.502212 2.868522 -0.173836 2.980283 0.343950 -3.628457 0.071139 4.042404 1.959929 -4.560753 -3.279559 -0.535522 -4.111502 -2.958774 -0.690089 -1.251383 -2.629290 -4.657271 4.652268 2.158225 3.300506 -4.677029 3.331027 0.984492 -3.978582 -2.519296 -0.012984 -0.141679 3.127503 -3.206412 -2.839026 3.926263 1.570500 0.734377 1.480641 4.253136 1.375303 4.870114 0.590464 1.182608 -1.125418 -2.375952 3.427761 -4.274539 4.581150 4.194396 -3.748240 0.281502 -0.044388 2.759085 -2.169495 -3.005453 -0.852953 4.910414 -1.258227 4.741449 -4.410870 -2.496078 0.004447 2.780981
-2.282648 -0.178258 -0.125537 2.258760 -0.422704 -0.559892 -4.347902 -0.500524 -1.698511 -4.965647 3.695153 -1.689880 -4.344677 0.476137 -4.974559 1.560261 1.611684 0.829778 0.821932 3.896654 1.168928 -0.486399 3.213273 -4.900894 -4.964700 4.094105 2.389283 -2.787290 -4.721038 1.830589 -2.953886 4.315978 -1.545095 -1.189698 -4.264050 -1.933118 -3.502212 2.868522 -0.173836 2.980283 0.343950 -3.628457 0.071139 4.042404 1.959929 -4.560753 -3.279559 -0.080586 -4.111502 -2.958774 -0.690089 -1.251383 -2.629290 -0.015468 4.652268 2.158225 3.300506 -3.734519 3.331027 0.984492 -3.978582 -2.519296 -0.012984 -0.141679 3.127503 -3.206412 4.345005 3.926263 -0.977262 0.734377 1.480641 4.253136 -2.224643 0.518200 0.590464 -1.067346 -1.125418 -2.375952 3.427761 -4.274539 4.581150 4.194396 -3.748240 -1.532379 -0.044388 2.759085 -2.169495 -3.005453 -0.852953 4.910414 -1.258227 4.741449 -4.410870 -2.496078 0.004447 1.448220
-2.282648 -0.178258 -0.125537 2.258760 -0.422704 3.670788 -4.347902 -0.500524 0.904938 -4.965647 3.695153 -1.421886 -4.344677 0.476137 -4.974559 3.670869 1.611684 0.829778 0.821932 3.896654 2.220424 -0.486399 3.213273 -4.900894 0.823384 4.094105 2.389283 -2.787290 -4.721038 1.830589 -4.278186 4.315978 -1.545095 -1.189698 -4.264050 -1.933118 -3.502212 2.868522 -0.173836 -1.230810 0.343950 -3.628457 0.071139 4.042404 1.959929 -4.560753 -3.279559 1.479679 -4.111502 -2.958774 -0.690089 -1.251383 -2.629290 -1.049358 4.652268 2.158225 3.300506 -3.734519 3.331027 2.828189 -3.978582 -2.519296 -0.012984 -0.141679 3.127503 -3.206412 -2.839026 3.926263 1.570500 0.734377 1.480641 4.253136 -2.224643 4.870114 0.590464 -1.067346 -1.125418 -2.375952 3.427761 -4.274539 4.581150 4.194396 -3.748240 -1.532379 -0.044388 2.759085 -2.169495 -3.005453 -0.852953 4.910414 -1.258227 4.741449 -4.410870 -2.496078 0.004447 2.780981
-2.282648 -0.178258 -0.125537 2.258760 -0.422704 3.670788 -4.347902 -0.500524 0.904938 -4.965647 3.695153 4.359681 -3.468213 0.476137 -4.974559 1.560261 1.611684 0.829778 0.821932 3.896654 -4.000801 -0.486399 3.213273 -4.900894 -4.964700 4.094105 2.389283 -2.787290 -4.721038 1.857644 -2.953886 4.315978 -1.545095 -1.189698 -4.264050 -1.933118 -3.502212 2.868522 -0.173836 2.980283 0.343950 -3.628457 0.071139 4.042404 1.959929 -4.560753 -3.279559 -0.080586 -4.111502 -2.958774 -0.690089 -1.251383 -2.629290 -1.049358 4.652268 2.158225 3.300506 -3.734519 3.331027 0.984492 -3.978582 -2.519296 -0.012984 -0.141679 3.127503 -3.206412 -2.839026 3.926263 1.570500 0.734377 1.480641 4.253136 1.375303 4.870114 0.590464 -1.067346 -1.125418 -2.375952 3.427761 -4.274539 4.581150 2.296721 -3.748240 0.281502 -0.044388 2.759085 -2.169495 -3.005453 3.163770 4.910414 -1.258227 4.741449 -4.410870 -2.496078 -2.877016 1.448220
-2.282648 -0.178258 -0.125537 2.258760 -0.422704 -0.559892 -4.347902 -0.500524 -1.698511 -4.965647 3.695153 4.359681 -4.344677 0.476137 -4.974559 1.560261 1.611684 0.829778 0.821932 3.896654 1.168928 -0.486399 3.213273 -4.900894 -4.964700 4.094105 2.389283 -2.787290 -4.721038 1.830589 -2.953886 4.315978 -1.545095 -1.189698 -4.264050 -1.933118 -3.502212 2.868522 -0.173836 -2.107253 0.343950 -0.249165 0.071139 4.042404 1.959929 -4.560753 -3.279559 1.479679 -4.111502 -2.958774 -0.690089 -1.251383 -2.629290 -0.015468 4.652268 2.158225 3.300506 -3.734519 3.331027 0.984492 -3.978582 -2.519296 -0.012984 -0.141679 3.127503 -3.206412 4.345005 3.926263 -0.977262 0.734377 1.480641 4.253136 -2.224643 0.518200 0.590464 -1.067346 -1.125418 -2.375952 4.040727 -4.274539 4.581150 4.194396 -3.748240 -1.532379 -0.044388 2.759085 -2.169495 -3.005453 -0.852953 4.910414 -1.258227 4.741449 -4.410870 -2.496078 0.004447 1.448220
4.424395 -0.178258 -0.125537 2.258760 -0.422704 3.670788 -4.347902 -0.500524 0.904938 -4.965647 3.695153 4.359681 -3.468213 0.476137 -4.974559 1.560261 1.611684 0.829778 0.821932 3.896654 -4.000801 -0.486399 3.213273 -4.900894 -4.964700 4.094105 2.389283 -2.787290 -4.721038 1.830589 -2.953886 4.315978 -1.545095 -1.189698 -4.264050 -1.933118 4.596151 2.868522 -0.173836 2.980283 0.343950 -3.628457 0.071139 4.042404 1.959929 -4.560753 -3.279559 -0.080586 -4.111502 -2.958774 -0.690089 -1.251383 -2.629290 -1.049358 4.652268 2.158225 3.300506 -3.734519 3.331027 0.984492 -4.515544 -4.048227 3.583309 -0.141679 3.127503 -3.206412 2.809558 -4.331212 1.570500 0.734377 1.480641 4.253136 1.375303 4.870114 0.590464 -1.067346 -1.125418 -2.375952 3.427761 -4.274539 4.581150 4.194396 -3.748240 2.584272 -0.044388 2.759085 -2.169495 -3.005453 -0.852953 4.910414 -1.258227 4.741449 -4.410870 -2.496078 0.004447 1.448220
-2.282648 -0.178258 -0.125537 2.258760 -0.422704 3.670788 -4.347902 -0.500524 0.904938 -4.965647 3.695153 4.359681 -3.468213 0.476137 -4.974559 1.560261 1.611684 0.829778 0.821932 3.896654 2.800600 -0.486399 3.213273 -4.900894 -4.964700 4.094105 2.389283 -2.787290 -4.721038 1.830589 -2.953886 4.315978 -1.545095 -1.189698 -4.264050 -1.933118 -3.502212 2.868522 -0.173836 2.980283 0.343950 -3.628457 0.071139 4.042404 1.959929 -4.560753 -3.279559 -0.535522 -4.111502 -2.958774 -0.690089 -1.251383 -2.629290 -1.049358 4.652268 2.158225 3.300506 -3.734519 3.331027 0.984492 -3.978582 -2.519296 -0.012984 -0.141679 3.127503 -3.206412 -2.839026 3.926263 1.570500 0.734377 1.480641 4.253136 1.375303 4.870114 0.590464 -1.067346 -1.125418 -2.375952 3.427761 -4.274539 4.581150 4.194396 -3.748240 0.281502 -0.044388 2.759085 -2.169495 -3.005453 -0.852953 4.910414 -1.258227 4.741449 -4.410870 -2.496078 0.004447 2.780981
-4.765702 2.444395 -1.023197 2.258760 -0.422704 -0.559892 -4.347902 -0.500524 0.904938 -4.965647 3.695153 4.359681 -4.344677 0.476137 -4.974559 3.670869 1.611684 2.432829 0.821932 3.896654 2.220424 -0.486399 3.213273 -4.900894 0.823384 4.094105 2.389283 -2.787290 -4.721038 1.830589 -4.278186 4.315978 -1.545095 -1.189698 -4.264050 -1.933118 -3.502212 2.868522 -0.173836 -1.230810 0.343950 -3.628457 0.071139 4.042404 1.959929 -4.560753 -3.279559 1.479679 -4.111502 -2.958774 -0.690089 -1.251383 -2.629290 -1.049358 4.652268 2.158225 3.300506 -3.734519 3.331027 0.984492 -3.978582 -2.519296 -0.012984 -0.141679 3.127503 -3.206412 -2.839026 3.926263 1.570500 0.734377 1.480641 4.253136 -2.224643 4.870114 0.590464 2.152341 -1.125418 -2.375952 0.001333 -4.274539 4.581150 4.194396 -3.748240 -1.532379 -0.044388 2.759085 -2.169495 -3.005453 -0.852953 4.910414 -1.258227 4.741449 -4.410870 -2.496078 0.004447 2.780981
-4.765702 2.444395 -1.023197 2.258760 -0.422704 -0.559892 -4.347902 -0.500524 0.904938 -4.965647 3.695153 4.359681 -4.344677 0.476137 -4.974559 3.670869 1.611684 2.432829 0.821932 3.896654 2.220424 -0.486399 3.213273 -4.900894 -4.964700 4.094105 2.389283 -2.787290 -4.721038 1.830589 -2.953886 4.315978 -1.545095 -1.189698 -4.264050 -1.933118 -3.502212 2.868522 -0.173836 2.980283 0.343950 -3.628457 2.626285 2.348252 1.959929 -4.560753 -3.279559 1.479679 -4.111502 -2.958774 0.940280 -1.251383 -2.629290 -1.049358 4.652268 2.158225 3.300506 -3.734519 1.030172 0.984492 -3.978582 -2.519296 -0.012984 -0.141679 3.127503 -3.206412 -2.839026 3.926263 1.570500 0.734377 1.480641 4.253136 1.375303 4.870114 0.590464 2.470619 -1.125418 -2.375952 3.427761 -4.274539 4.581150 4.194396 -3.748240 0.281502 -0.044388 2.759085 -2.169495 -3.005453 -0.852953 4.910414 -1.258227 4.741449 -4.410870 -2.496078 0.004447 1.448220
-4.765702 2.444395 -1.023197 2.258760 3.989336 -0.559892 2.820777 -0.500524 0.904938 -4.965647 3.695153 4.359681 -3.468213 0.476137 -4.141575 1.560261 1.611684 0.829778 0.821932 3.896654 -4.000801 -0.486399 3.213273 -4.900894 -4.964700 4.094105 2.389283 -2.787290 -4.721038 1.830589 -2.953886 4.315978 -1.545095 -1.189698 -4.264050 -1.933118 -3.502212 2.868522 -0.173836 2.980283 0.343950 -3.628457 0.071139 4.042404 1.959929 -1.042570 -3.279559 -0.080586 -4.111502 -2.958774 -0.690089 -1.251383 -2.629290 -1.049358 4.652268 4.281428 3.300506 -3.734519 3.331027 0.984492 -3.978582 -2.519296 -0.012984 -0.141679 3.127503 -3.206412 -2.839026 3.926263 1.570500 0.734377 1.480641 4.253136 1.375303 4.870114 0.590464 -1.067346 -1.125418 -2.375952 -4.613821 -4.274539 0.219082 4.194396 -3.748240 0.281502 -0.044388 2.759085 -2.169495 -3.005453 -0.852953 4.910414 -1.258227 4.741449 -4.410870 -4.153905 0.004447 2.780981
-2.282648 -0.178258 -0.125537 2.258760 -0.422704 -0.559892 -4.347902 -0.500524 0.904938 -4.965647 3.695153 4.359681 -4.344677 0.476137 -4.974559 1.560261 1.611684 0.829778 0.821932 3.896654 1.168928 -0.486399 3.213273 1.804885 -4.964700 4.094105 2.389283 -2.787290 -4.721038 1.830589 -2.953886 4.315978 -1.545095 -1.189698 -4.264050 -1.933118 -3.502212 2.868522 -0.173836 -2.107253 0.343950 -0.249165 0.071139 4.042404 -1.278018 -4.560753 -3.279559 1.479679 -4.111502 -2.958774 -0.690089 -1.251383 -2.629290 -0.015468 4.652268 2.158225 3.300506 1.434462 3.331027 0.984492 -3.978582 -2.519296 -0.012984 -0.141679 3.127503 -3.206412 -2.839026 3.926263 1.570500 0.734377 1.480641 4.253136 1.375303 4.870114 0.590464 -1.067346 -1.125418 -2.375952 3.427761 -4.274539 4.581150 4.194396 -3.748240 0.281502 -0.044388 2.759085 -2.169495 -3.005453 -0.852953 4.910414 -1.258227 4.741449 -4.410870 -4.153905 4.786444 2.780981
-4.765702 2.444395 -1.023197 2.258760 -0.422704 -0.559892 -4.347902 -0.500524 0.904938 -4.965647 3.695153 4.359681 -4.344677 -4.302985 -4.974559 1.560261 1.611684 0.829778 0.821932 3.896654 1.168928 -0.486399 3.213273 -4.900894 -3.049941 4.094105 2.389283 -2.787290 -4.721038 1.830589 -2.953886 4.315978 -1.545095 -1.189698 -4.264050 -1.933118 0.122992 2.868522 -0.173836 -2.107253 0.343950 -0.249165 -4.231870 4.042404 1.959929 -4.560753 -3.279559 1.479679 -4.111502 -2.958774 -0.690089 -1.251383 -2.629290 -0.015468 4.652268 2.158225 3.300506 -3.734519 3.331027 0.984492 -3.978582 -2.519296 -0.012984 -0.141679 3.127503 -3.206412 -2.839026 3.926263 1.570500 0.734377 1.480641 4.253136 1.375303 4.870114 -4.125034 -1.067346 -1.125418 -2.375952 3.427761 -4.274539 4.581150 4.194396 -3.748240 2.584272 -0.044388 2.759085 -2.169495 -3.005453 -0.852953 4.910414 -1.258227 4.741449 -4.410870 -2.496078 0.004447 1.448220
-2.282648 -0.178258 -0.125537 2.258760 -2.597811 3.670788 -4.347902 -0.500524 0.904938 -4.965647 3.695153 4.359681 -3.468213 0.476137 -4.974559 1.560261 1.611684 0.829778 0.821932 3.896654 -4.000801 -0.486399 3.213273 -4.900894 -4.964700 4.094105 2.389283 -2.787290 -4.721038 1.830589 -2.953886 4.315978 -1.545095 -1.189698 -4.264050 -1.933118 -3.502212 2.868522 -0.173836 -2.107253 0.343950 -0.249165 0.071139 4.042404 -1.278018 -4.560753 -3.279559 1.479679 -4.111502 -2.958774 -0.690089 -1.251383 -2.629290 -0.015468 4.652268 2.158225 3.300506 1.434462 3.331027 0.984492 -3.978582 -2.519296 -0.012984 -0.141679 3.127503 -3.206412 -2.839026 3.926263 1.570500 0.734377 1.480641 4.253136 1.375303 4.870114 0.590464 -1.067346 -1.125418 -2.375952 3.427761 2.851746 4.581150 -4.285248 -3.748240 0.281502 -0.044388 -1.260958 -2.169495 -3.005453 3.163770 4.910414 -1.258227 4.741449 -4.410870 -2.496078 0.004447 2.780981
-2.282648 -0.178258 -0.125537 2.258760 -0.422704 3.670788 -4.347902 -0.500524 0.904938 -4.965647 3.695153 4.359681 -3.468213 0.476137 -4.974559 1.560261 1.611684 0.829778 0.821932 3.896654 2.800600 -0.486399 3.213273 -4.900894 -4.964700 4.094105 2.389283 -2.787290 -4.721038 1.830589 -2.953886 4.315978 -1.545095 -1.189698 -4.264050 -1.933118 -3.502212 2.868522 -0.173836 2.980283 0.343950 -3.628457 0.071139 4.042404 1.959929 -4.560753 -3.279559 -0.535522 -4.111502 -2.958774 -0.690089 -1.251383 -2.629290 -1.049358 4.652268 2.158225 3.300506 -3.734519 3.331027 0.984492 -3.978582 -2.519296 -0.012984 -0.141679 3.127503 -3.206412 -2.839026 3.926263 1.570500 0.734377 1.480641 4.253136 1.375303 4.870114 -4.125034 -1.067346 -1.125418 -2.375952 3.427761 -4.274539 0.219082 4.194396 -3.748240 0.281502 -0.044388 2.759085 -2.169495 -3.005453 -0.852953 4.910414 -1.258227 4.741449 -4.410870 -4.153905 0.004447 2.780981
-4.765702 2.444395 -1.023197 2.258760 3.989336 0.736750 2.820777 -0.500524 0.904938 -4.965647 3.695153 4.359681 -4.344677 0.476137 -4.974559 3.670869 1.611684 2.432829 0.821932 3.896654 2.220424 -0.486399 3.213273 -4.900894 0.823384 4.094105 2.389283 -2.787290 1.601680 1.830589 -4.278186 4.315978 -1.545095 -1.189698 -4.264050 -1.933118 -3.502212 2.868522 -0.173836 -1.230810 3.223987 -3.628457 0.071139 4.042404 1.959929 -4.560753 -3.279559 1.479679 -4.111502 -2.958774 -0.690089 -1.251383 -2.629290 -1.049358 4.652268 2.158225 3.300506 -3.734519 3.331027 0.984492 -3.978582 -2.519296 -0.012984 -0.141679 3.127503 -3.206412 -2.839026 3.926263 1.570500 0.734377 1.480641 4.253136 -2.224643 4.870114 0.590464 -1.067346 -1.125418 -2.375952 3.427761 -4.274539 4.581150 4.194396 -3.748240 -1.532379 -0.044388 2.759085 -2.169495 -3.005453 -0.852953 -3.994305 -1.258227 4.741449 -4.410870 -2.496078 0.004447 2.780981
-4.765702 2.444395 -1.023197 2.258760 3.989336 0.736750 2.820777 -0.500524 0.904938 -4.965647 3.695153 4.359681 -4.344677 4.908213 -4.974559 3.670869 1.611684 0.829778 0.821932 3.896654 2.220424 -0.486399 3.213273 -4.900894 0.823384 -0.963446 2.389283 -2.787290 -4.721038 1.830589 -4.278186 4.315978 -1.545095 -1.189698 -4.264050 -1.933118 -3.502212 -4.798583 -0.173836 -1.230810 0.343950 -3.628457 0.071139 4.042404 1.959929 -4.560753 -3.279559 1.479679 -4.111502 -2.958774 -0.690089 -1.251383 -2.629290 -1.049358 4.652268 2.158225 3.300506 -3.734519 3.331027 0.984492 -4.515544 -4.048227 3.583309 -0.141679 3.127503 -3.206412 2.809558 -4.331212 1.570500 0.734377 1.480641 4.253136 1.375303 4.870114 0.590464 -1.067346 -1.125418 4.115753 3.427761 -4.274539 4.581150 4.194396 -3.748240 2.584272 -0.044388 3.922231 2.868787 -0.793451 -0.993812 -3.066094 3.904697 0.132877 1.484718 -0.331744 -1.342043 -1.234236
-2.282648 -0.178258 -0.125537 2.258760 -0.422704 -0.559892 -4.347902 -0.500524 -1.698511 -4.965647 3.695153 4.359681 -4.344677 0.476137 -4.974559 1.560261 1.611684 0.829778 0.821932 3.896654 1.168928 -0.486399 3.213273 -4.900894 -4.964700 4.094105 2.389283 -2.787290 -4.721038 1.830589 -2.953886 4.315978 -1.545095 -1.189698 -4.264050 -1.933118 -3.502212 2.868522 -0.173836 -2.107253 0.343950 -0.249165 0.071139 4.042404 1.959929 -4.560753 -3.279559 1.479679 -4.111502 -2.958774 -0.690089 -1.251383 -2.629290 -0.015468 4.652268 2.158225 3.300506 -3.734519 3.331027 0.984492 -3.978582 -2.519296 -0.012984 -0.141679 3.127503 -3.206412 -4.015067 3.926263 1.570500 0.734377 1.480641 4.253136 -2.224643 4.870114 0.590464 -1.067346 -1.125418 -2.375952 3.427761 -4.274539 4.581150 4.194396 -3.748240 -1.532379 -0.044388 2.759085 -2.169495 -3.005453 -0.852953 -3.994305 -1.258227 4.741449 -4.410870 -2.496078 0.004447 2.780981
-2.282648 -0.178258 -0.125537 2.258760 -0.422704 -0.559892 -4.347902 -0.500524 0.904938 -4.965647 3.695153 4.359681 -4.344677 0.476137 -4.974559 1.560261 1.611684 0.829778 0.821932 3.896654 1.168928 -0.486399 3.213273 -4.900894 -4.964700 4.094105 2.389283 -2.787290 -4.721038 1.830589 -2.953886 4.315978 -1.545095 -1.189698 -4.264050 -1.933118 -3.502212 2.868522 -0.173836 -2.107253 0.343950 -0.249165 0.071139 4.042404 1.959929 -4.560753 -3.279559 1.479679 -4.111502 -2.958774 -0.690089 -1.251383 -2.629290 3.646324 4.652268 2.158225 3.300506 1.434462 3.331027 0.984492 -3.978582 -2.519296 -0.012984 -0.141679 3.127503 -3.206412 -2.839026 3.926263 1.570500 0.734377 1.480641 4.253136 1.375303 4.870114 0.590464 -1.067346 -1.125418 -2.375952 3.427761 -4.274539 4.581150 4.194396 -3.748240 0.281502 -0.044388 2.759085 -2.169495 -3.005453 -0.852953 4.910414 -1.258227 4.741449 -4.410870 -2.496078 0.004447 2.780981
-2.282648 -0.178258 -0.125537 2.258760 2.669846 3.670788 -4.347902 -0.500524 0.904938 -4.965647 3.695153 4.359681 -3.468213 0.476137 -4.974559 1.560261 1.611684 0.829778 0.821932 3.896654 -4.000801 -0.486399 3.213273 -4.900894 -4.964700 4.094105 2.389283 -2.787290 -4.721038 1.830589 -2.953886 4.315978 -1.545095 -1.189698 -4.264050 -1.933118 -3.502212 2.868522 -0.173836 2.980283 0.343950 -3.628457 0.071139 4.042404 1.959929 -4.560753 -3.279559 -0.080586 -4.111502 -2.958774 -0.690089 -1.251383 -2.629290 -1.049358 4.652268 2.158225 3.300506 -3.734519 3.331027 0.984492 -4.515544 -4.048227 3.583309 -0.141679 3.127503 -3.206412 2.809558 3.926263 1.570500 0.734377 1.480641 4.253136 -2.224643 4.870114 0.590464 -1.067346 -1.125418 -2.375952 3.427761 -4.274539 4.581150 -0.932289 -3.748240 2.255467 -0.044388 2.759085 -2.169495 -3.005453 -0.852953 4.910414 -1.258227 4.741449 -4.410870 -2.496078 0.004447 2.780981
-2.282648 -0.178258 -0.125537 2.258760 -0.422704 3.670788 -4.347902 -0.500524 0.904938 -4.965647 3.695153 4.359681 -3.468213 0.476137 -4.974559 1.560261 1.611684 0.829778 0.821932 3.896654 -0.869812 -0.486399 3.213273 -0.891497 -4.964700 4.094105 2.389283 -2.787290 -4.721038 1.830589 -2.953886 4.315978 -1.545095 -1.189698 -4.264050 -1.933118 -3.502212 2.868522 -0.173836 2.980283 0.343950 -3.628457 0.071139 4.042404 1.959929 -4.560753 -3.279559 -0.080586 -4.111502 -2.958774 -0.690089 -1.251383 -0.320421 -1.049358 4.652268 2.158225 3.300506 -3.734519 3.331027 0.984492 -3.978582 -2.519296 -0.012984 -0.141679 3.127503 -3.206412 -2.839026 3.926263 1.570500 2.768811 1.480641 4.253136 1.375303 4.870114 0.590464 -1.067346 -1.125418 -2.375952 4.798170 -4.274539 4.581150 4.194396 -3.748240 2.584272 -0.044388 2.759085 -2.169495 -3.005453 -0.852953 4.910414 -1.258227 4.741449 -4.410870 -2.496078 0.004447 1.448220
-2.282648 -0.178258 -0.125537 2.258760 -0.422704 3.670788 -4.347902 -0.500524 0.904938 -4.965647 3.695153 4.359681 -3.468213 0.476137 -4.974559 1.560261 1.611684 0.829778 0.821932 3.896654 2.800600 -0.486399 3.213273 -4.900894 -4.964700 4.094105 2.389283 -2.787290 -4.721038 1.830589 -2.953886 -4.268713 -1.545095 -1.189698 -4.264050 -1.933118 -3.502212 2.868522 -0.173836 2.980283 0.343950 -3.628457 0.071139 4.042404 1.959929 -4.560753 -3.279559 -0.535522 -4.111502 -2.958774 -0.690089 -1.251383 -2.629290 -1.049358 4.652268 2.158225 3.300506 -3.734519 3.331027 0.984492 -3.978582 -2.519296 -0.012984 -0.141679 3.127503 -3.206412 -2.839026 3.926263 1.570500 0.734377 1.480641 4.253136 1.375303 4.870114 0.590464 1.182608 -1.125418 -2.375952 3.427761 -4.274539 4.581150 4.194396 -3.748240 0.281502 -0.044388 2.759085 -2.169495 -3.005453 -0.852953 4.910414 -1.258227 4.741449 -4.410870 -2.496078 0.004447 2.780981
4.424395 -0.178258 -0.125537 2.258760 -0.422704 3.670788 -4.347902 -0.500524 0.904938 -4.965647 3.695153 4.359681 -3.468213 0.476137 -4.974559 1.560261 1.611684 0.829778 0.821932 3.896654 -0.859137 -0.486399 3.213273 -4.900894 -4.964700 4.094105 2.389283 -2.787290 -4.721038 1.830589 -2.953886 4.315978 -1.545095 -1.189698 -4.264050 -1.933118 -3.502212 2.868522 -0.173836 2.980283 0.343950 -3.628457 0.071139 4.042404 1.959929 -4.560753 -3.279559 -0.080586 -4.111502 -2.958774 -0.690089 -1.251383 -2.629290 -1.049358 4.652268 2.158225 3.300506 -3.734519 3.331027 0.984492 -4.515544 -4.048227 3.583309 -0.141679 3.127503 -3.206412 2.809558 3.926263 1.570500 0.734377 1.480641 4.253136 -2.224643 4.870114 0.590464 -1.067346 -1.125418 -2.375952 -1.353035 -4.274539 4.581150 -0.932289 -3.748240 2.255467 -0.044388 2.072914 -2.169495 -3.005453 -0.852953 4.910414 -1.258227 -4.952841 -4.410870 -2.496078 0.004447 2.780981
-2.282648 -0.178258 -0.125537 2.258760 -0.422704 3.670788 -4.347902 -0.500524 0.904938 2.923214 3.695153 4.359681 -3.468213 0.476137 -4.974559 1.560261 1.611684 0.829778 0.821932 3.896654 1.168928 -0.486399 3.213273 -4.900894 -4.964700 4.094105 2.389283 -2.787290 -4.721038 2.763999 -2.953886 4.315978 -1.545095 -1.189698 -4.264050 -1.933118 -3.502212 2.868522 -0.173836 -2.107253 0.343950 -0.249165 0.071139 4.042404 1.959929 -4.560753 -3.279559 1.479679 -4.111502 -2.958774 -0.690089 -1.251383 -2.629290 -0.015468 4.652268 2.158225 3.300506 -3.734519 3.331027 0.984492 -3.978582 -2.519296 -0.012984 -0.141679 3.127503 -3.206412 -2.731587 3.926263 1.570500 0.734377 1.480641 4.253136 1.375303 4.870114 0.590464 -1.067346 -1.125418 -2.375952 3.427761 -4.274539 4.581150 4.194396 -3.748240 0.281502 -0.044388 2.759085 -2.169495 -3.005453 -0.852953 4.910414 -1.258227 4.741449 -4.410870 -2.496078 0.004447 2.780981
-4.765702 2.444395 -1.023197 2.258760 3.989336 -0.559892 2.820777 -0.500524 0.904938 -4.965647 -4.311421 4.359681 -4.344677 2.290975 -4.804319 -3.223682 2.457699 3.299708 -3.736315 1.784961 2.437482 2.961091 -2.784306 4.135135 4.024685 0.924641 2.389283 -2.787290 -4.721038 -2.853783 -2.953886 -0.602827 4.860626 0.336836 1.694297 -1.735867 -0.001088 0.966718 3.660468 4.916766 3.830723 -0.785164 2.572984 1.692177 2.502706 1.179152 -1.532120 4.603904 -0.867322 -3.564650 2.195282 3.120606 3.155418 -3.006757 -3.219799 -4.257598 -1.418313 2.313089 -1.930328 0.984492 -3.978582 -2.519296 -1.287303 4.164341 3.127503 -3.206412 -2.839026 3.926263 1.570500 0.734377 1.480641 4.253136 1.375303 4.870114 0.590464 -1.067346 -1.125418 1.296314 -0.377553 0.966888 1.236042 -0.019355 1.228184 4.610065 4.523313 3.922231 2.868787 -0.793451 -0.993812 -3.066094 3.904697 0.132877 1.484718 -0.331744 -1.342043 -1.234236
-2.282648 -0.178258 -0.125537 2.258760 -0.422704 3.670788 -4.347902 -0.500524 0.904938 -4.965647 3.695153 4.359681 -3.468213 0.476137 -4.974559 1.560261 1.611684 0.829778 0.821932 3.896654 -4.000801 -0.486399 3.213273 -4.900894 -4.964700 4.094105 -2.009687 -2.787290 -4.721038 1.830589 -2.953886 4.315978 -1.545095 -1.189698 -4.264050 -1.933118 -3.502212 2.868522 -0.173836 -2.107253 0.343950 -0.249165 -4.231870 4.042404 1.959929 -4.560753 -3.279559 1.479679 -4.111502 -2.958774 -0.690089 -1.251383 -2.629290 -0.015468 4.652268 2.158225 3.300506 -3.734519 3.331027 0.984492 -3.978582 -2.519296 -0.012984 -0.141679 3.127503 -3.206412 -2.839026 3.926263 1.570500 0.734377 1.480641 4.253136 1.375303 4.870114 0.590464 -1.067346 -1.125418 -2.375952 -4.613821 -4.274539 0.219082 4.194396 -3.748240 0.281502 -0.044388 2.759085 -3.273813 -3.005453 -0.852953 4.910414 -1.258227 4.741449 -4.410870 -4.153905 0.004447 2.780981
-2.282648 -0.178258 -0.125537 2.258760 -0.536550 -0.559892 -4.347902 -0.500524 -1.698511 -4.965647 3.695153 4.359681 -4.344677 0.476137 -4.974559 1.560261 1.611684 0.829778 0.821932 3.896654 1.168928 -0.486399 -1.857816 -4.900894 -4.964700 4.094105 2.389283 -2.787290 -4.721038 2.763999 -2.953886 4.315978 -1.545095 -1.189698 -4.264050 -1.933118 -3.502212 2.868522 -0.173836 -2.107253 0.343950 -0.249165 0.071139 4.042404 1.959929 -4.560753 -3.279559 1.479679 -4.111502 -2.958774 -0.690089 -1.251383 -3.138876 -0.015468 4.652268 2.158225 3.300506 -3.734519 3.331027 0.984492 -3.978582 -2.519296 -0.012984 -0.141679 3.127503 -3.206412 -2.839026 3.926263 1.570500 0.734377 1.480641 4.253136 1.375303 4.870114 0.590464 2.470619 -1.125418 -2.375952 3.427761 -4.825450 4.581150 4.194396 -3.748240 0.281502 -0.044388 2.759085 -2.169495 -3.005453 3.163770 4.910414 -1.258227 4.741449 -4.410870 -2.496078 0.004447 2.780981
-4.765702 2.444395 -1.023197 2.258760 3.989336 0.736750 2.820777 -0.500524 0.904938 -4.965647 3.695153 4.359681 -4.344677 4.908213 -4.974559 3.670869 1.611684 0.829778 0.821932 3.896654 2.220424 -0.486399 3.213273 -4.900894 0.823384 -0.963446 2.389283 -2.787290 -4.721038 1.830589 -4.278186 4.315978 0.957404 -1.189698 -4.264050 -1.933118 -3.502212 -4.798583 -0.173836 -1.230810 0.343950 -3.628457 0.071139 4.042404 1.959929 -4.560753 -3.279559 1.479679 -4.111502 -2.958774 -0.690089 -1.251383 -2.629290 -1.049358 4.652268 2.158225 3.300506 -3.734519 3.331027 0.984492 -4.515544 -4.048227 3.583309 -0.141679 3.127503 -3.206412 -3.674667 -4.331212 1.570500 0.734377 1.480641 4.253136 1.375303 4.870114 0.590464 -1.067346 -1.125418 -2.375952 3.427761 -4.274539 4.581150 4.194396 -4.280489 0.281502 -0.044388 2.759085 -2.169495 -3.005453 -0.852953 4.910414 -1.258227 4.741449 -4.410870 -2.496078 0.004447 2.780981
-2.282648 -0.178258 -0.125537 2.258760 -0.422704 -0.559892 -4.347902 -0.500524 0.904938 -4.965647 3.695153 4.359681 -4.344677 0.476137 -4.974559 1.560261 1.611684 0.829778 0.821932 3.896654 1.168928 -0.486399 3.213273 -4.900894 -4.964700 4.094105 2.389283 -2.787290 -4.721038 1.830589 -2.953886 4.315978 -1.545095 -1.189698 -4.264050 -1.933118 -3.502212 3.001785 -0.173836 -2.107253 0.343950 -0.249165 0.071139 4.042404 -1.278018 -4.560753 -3.279559 1.479679 -4.111502 -2.958774 -0.690089 -1.251383 -2.629290 -1.049358 4.652268 2.158225 3.300506 -3.734519 3.331027 2.828189 -3.978582 -2.519296 -0.012984 -0.141679 3.127503 -3.206412 -2.839026 3.926263 1.570500 0.734377 1.480641 4.253136 -2.224643 4.870114 1.426887 -1.067346 -1.125418 -2.375952 3.427761 -4.274539 4.581150 4.194396 -3.748240 -1.532379 -0.044388 2.759085 -2.169495 -3.005453 -0.852953 4.910414 -1.258227 4.741449 -4.410870 -2.496078 0.004447 2.780981
-2.282648 -0.178258 -0.125537 2.258760 -0.422704 -0.559892 -4.347902 -0.500524 0.904938 0.111923 3.695153 4.359681 -4.344677 0.476137 -4.974559 1.560261 1.611684 0.829778 0.821932 3.896654 1.168928 -0.486399 3.213273 -4.900894 -4.964700 4.094105 2.389283 -2.787290 -4.721038 2.475599 -2.953886 4.315978 -1.545095 -1.189698 -4.264050 -1.822707 -3.502212 2.868522 -0.173836 2.980283 0.343950 -3.628457 0.071139 4.042404 1.959929 -4.560753 -3.279559 1.479679 -4.111502 -2.958774 -0.690089 -1.251383 -2.629290 -1.049358 4.652268 2.158225 3.300506 -3.734519 3.331027 0.984492 -4.515544 -4.048227 3.583309 -0.141679 3.127503 -3.206412 2.809558 -4.331212 1.570500 0.734377 1.480641 4.253136 1.375303 4.870114 0.590464 -1.067346 -1.125418 -2.375952 3.427761 -4.274539 4.581150 4.194396 -3.748240 2.584272 -0.044388 2.759085 -2.169495 -3.005453 -0.852953 4.910414 -1.258227 4.741449 -4.410870 -2.496078 0.004447 1.448220
-2.282648 -0.178258 -0.125537 2.258760 -0.422704 3.670788 -4.347902 -0.500524 0.904938 -4.965647 3.695153 -1.421886 -4.344677 0.476137 -4.974559 3.670869 -1.427371 0.829778 0.821932 3.896654 -3.705326 -0.486399 3.213273 -4.900894 0.823384 4.094105 2.389283 -2.787290 -4.721038 1.830589 -4.278186 4.315978 -1.545095 -1.189698 -4.264050 -1.933118 -3.502212 2.868522 -0.173836 -1.230810 0.343950 -3.628457 0.071139 4.042404 1.959929 -4.560753 -3.279559 1.479679 -4.111502 -2.958774 -0.690089 -1.251383 -2.629290 -1.049358 4.652268 2.158225 3.300506 -3.734519 3.331027 0.984492 2.656489 -2.519296 -0.012984 -0.141679 3.127503 -3.206412 -2.839026 3.926263 1.570500 0.734377 1.480641 4.253136 -2.224643 1.334542 0.590464 -3.152912 0.319164 -2.375952 3.427761 -4.274539 4.581150 4.194396 -3.748240 -1.532379 2.682432 2.759085 -2.169495 -3.005453 -0.852953 4.910414 -1.258227 4.741449 -4.410870 -2.496078 0.004447 1.448220
-2.282648 -0.178258 -0.125537 2.258760 -0.422704 -0.559892 -4.347902 -0.500524 0.904938 -4.965647 3.695153 4.359681 -4.344677 0.476137 -4.974559 1.560261 1.611684 0.829778 0.821932 3.896654 1.168928 -0.486399 3.213273 -4.900894 -4.964700 4.094105 2.389283 -2.787290 -4.721038 1.830589 -2.953886 4.315978 -1.545095 -1.189698 -4.264050 -1.933118 -3.502212 2.868522 -0.173836 -2.107253 0.343950 -0.249165 0.071139 4.042404 -1.278018 -4.560753 -3.279559 1.479679 -4.111502 -2.958774 -0.690089 -1.251383 -2.629290 -0.015468 4.652268 2.158225 3.300506 1.434462 3.331027 0.984492 -3.978582 -2.519296 -0.012984 -0.141679 3.127503 -3.206412 -2.839026 3.926263 1.570500 0.734377 1.480641 4.253136 1.375303 4.870114 0.590464 -3.937489 -1.125418 -2.375952 3.427761 -4.274539 4.581150 4.194396 -3.739355 0.281502 -0.044388 2.759085 -2.169495 -3.005453 -0.852953 4.910414 -1.258227 4.741449 -4.410870 -2.496078 0.004447 2.780981
-2.609566 2.444395 -1.023197 2.258760 -0.422704 -0.559892 -4.347902 -0.500524 0.904938 -4.965647 3.695153 4.359681 -4.344677 -4.302985 -4.974559 1.560261 1.611684 0.829778 0.821932 3.896654 1.168928 -0.486399 3.213273 -4.900894 -4.964700 4.094105 2.389283 -2.787290 -4.721038 1.830589 -2.953886 4.315978 -1.545095 -1.189698 -4.264050 -1.933118 -3.502212 2.868522 -0.173836 -2.107253 0.343950 -0.249165 -4.231870 -2.036894 1.959929 -4.560753 -3.279559 1.479679 -4.111502 -2.958774 -0.690089 -1.251383 -2.629290 -0.015468 4.652268 2.158225 3.300506 -3.734519 3.331027 0.984492 -3.978582 -2.519296 -0.012984 -0.141679 4.569883 -3.206412 -2.839026 3.926263 1.570500 0.734377 1.480641 4.253136 1.375303 -4.053242 -4.125034 -1.067346 -1.125418 -2.375952 -1.065529 -4.274539 0.219082 4.194396 -3.748240 0.281502 -0.044388 2.759085 -2.169495 -3.005453 -0.852953 4.910414 1.749370 4.741449 -4.410870 -4.153905 0.004447 2.780981
