1.503152 1.856037 -1.429860 3.605050 1.556578 -1.692450 1.419325 -2.487882 -2.155717 2.693623 1.553588 2.703810 3.607738 -3.019558 0.279393 -0.902542 1.679534 3.320531 -4.647047 -0.285716 -0.929316 -3.224096 2.118609 0.610570 3.650931 -3.383010 -1.783436 -2.419195 4.044654 2.135637 -4.838938 0.225434 3.848490 -3.449641 -1.771504 4.359711 -4.941831 -1.782444 -3.203375 -4.121520 0.841460 0.769267 -2.317733 3.274617 4.521550 1.715064 -4.222844 -1.637002 -1.524846 3.493525 -3.114341 -1.319186 2.477604 1.936437 4.000948 -4.520108 2.345785 1.083332 -2.444393 -1.406499 -3.700518 -4.868788 -1.637382 2.212664 3.389241 0.971685 0.209527 -0.938742 -1.594553 3.752866 -0.382039 4.246098 1.001120 -1.937655 -4.179757 -2.898175 -2.136378 -2.047899 2.232746 -0.193368 -2.477513 -4.480075 4.544059 -1.586514 -4.525118 0.597058 4.498538 2.238022 1.772879 3.112120 -4.742887 -4.731130 -0.049519 -1.221368 3.106249 3.616206
1.503152 1.856037 -1.429860 3.605050 1.556578 -1.692450 1.419325 -2.487882 -2.155717 2.693623 1.553588 2.703810 3.607738 -3.019558 0.279393 -0.902542 1.679534 3.320531 -4.647047 -0.285716 -0.929316 -3.224096 2.118609 0.610570 3.650931 -3.383010 -1.783436 -2.419195 4.044654 4.268215 -4.838938 0.225434 3.848490 -3.449641 -1.771504 4.359711 -4.941831 -1.782444 -3.203375 -4.121520 0.841460 0.769267 -2.317733 3.274617 4.521550 1.715064 -4.222844 -1.637002 -1.524846 3.493525 -3.114341 -1.319186 2.477604 1.936437 4.000948 -4.520108 2.345785 1.083332 -2.444393 -1.406499 -3.700518 -4.868788 -1.637382 2.212664 3.389241 0.971685 0.209527 -0.938742 -1.594553 3.752866 -0.382039 4.246098 -3.461427 -1.937655 -4.179757 -2.775058 -2.136378 0.715897 -0.157191 -2.999376 -4.798309 -4.480075 -1.354466 -0.162351 -4.036570 0.597058 4.736920 2.238022 1.772879 3.112120 -4.742887 -4.731130 -0.049519 -1.221368 3.106249 3.616206
4.953954 1.856037 -1.429860 3.605050 1.556578 -1.692450 1.419325 -2.487882 -2.155717 2.693623 1.553588 2.703810 3.607738 -3.019558 0.279393 -4.067129 0.159737 2.329635 -2.414301 -3.066509 1.531541 -3.224096 2.118609 0.610570 3.650931 4.194286 -1.783436 -2.419195 4.044654 4.268215 -4.838938 0.225434 3.848490 -3.449641 0.522149 4.359711 -4.941831 -1.782444 -3.203375 -4.121520 0.841460 0.769267 -2.317733 3.274617 4.521550 1.715064 -4.222844 -1.637002 -1.524846 3.493525 -3.114341 -1.319186 2.477604 1.936437 4.000948 -4.520108 2.345785 1.083332 1.495759 -1.406499 -3.700518 -4.868788 -1.637382 2.212664 3.389241 0.971685 0.209527 -0.938742 -1.594553 1.745787 -0.382039 -0.174304 -3.461427 -1.937655 -4.935013 -2.775058 2.341997 2.322905 2.232746 1.448741 0.042978 -4.480075 2.426634 -1.586514 -3.106754 0.597058 3.353855 2.238022 1.772879 3.112120 -4.742887 -4.731130 -0.967922 -1.221368 3.106249 3.616206
1.503152 1.856037 -1.429860 3.605050 1.556578 -1.692450 1.419325 -2.487882 -2.155717 2.693623 1.553588 2.703810 3.607738 -3.019558 0.279393 -0.902542 1.679534 3.320531 -4.647047 -0.285716 -0.929316 -3.224096 2.118609 0.610570 3.650931 -3.383010 -1.783436 -2.419195 4.044654 4.268215 -4.838938 0.225434 3.848490 -3.449641 -1.771504 4.359711 -4.941831 -1.782444 -3.203375 -4.121520 0.841460 0.769267 -2.317733 3.274617 4.521550 1.715064 -4.222844 -1.637002 -1.524846 3.493525 -3.114341 -1.319186 2.477604 1.936437 4.000948 -1.461931 2.345785 1.083332 -2.444393 -1.406499 -3.700518 -4.868788 -1.637382 2.212664 3.389241 4.648185 0.209527 -0.938742 4.558406 3.752866 -0.382039 4.246098 -3.461427 -1.937655 -4.179757 -2.775058 -2.136378 0.715897 -0.157191 -2.999376 -4.798309 -4.480075 -1.354466 -0.162351 -3.106754 0.597058 4.736920 2.238022 1.772879 3.112120 -4.742887 -4.731130 -0.049519 -1.221368 3.106249 3.616206
1.503152 1.856037 -1.429860 3.605050 1.556578 -1.692450 1.419325 -2.487882 -2.155717 2.693623 1.553588 2.703810 3.607738 -3.019558 0.279393 -0.902542 1.679534 3.320531 -4.647047 -0.285716 -0.929316 -3.224096 2.118609 0.610570 3.650931 -3.383010 -1.783436 -2.419195 4.044654 4.268215 -4.838938 0.225434 3.848490 -3.449641 -1.771504 4.359711 -4.941831 -1.782444 -3.203375 -4.121520 0.841460 0.769267 -2.317733 3.274617 4.521550 1.715064 -4.222844 -1.637002 -1.524846 3.493525 -3.114341 -1.319186 2.477604 1.936437 4.000948 -4.520108 2.345785 1.083332 -2.444393 -1.406499 -3.700518 4.233988 -1.637382 2.212664 3.389241 0.971685 0.209527 -0.938742 -1.594553 3.752866 -0.382039 4.246098 -2.014726 -1.937655 -4.179757 -2.775058 -2.136378 2.533847 2.232746 1.448741 0.042978 -4.480075 2.835004 -1.586514 -4.525118 0.597058 4.498538 2.238022 1.772879 3.112120 -4.742887 -4.731130 -1.500610 -1.221368 3.106249 3.126790
4.953954 1.856037 1.165646 3.605050 1.556578 -1.692450 2.840744 -2.487882 -2.155717 2.693623 1.553588 2.375810 2.727967 -3.019558 0.279393 -1.397541 0.159737 3.320531 -4.647047 -0.285716 -0.929316 -3.609363 2.118609 0.610570 3.650931 -3.383010 -1.783436 -2.419195 4.044654 4.268215 -1.460432 0.225434 3.577693 -3.815962 -1.771504 4.359711 -4.941831 -1.782444 4.037680 -4.121520 0.841460 -2.375665 -2.317733 3.274617 4.521550 4.829305 -4.222844 -4.552978 -1.524846 4.670845 -1.596295 -1.319186 -4.883051 3.429918 1.764772 -4.520108 0.743763 -3.221887 1.495759 -1.406499 -3.700518 -4.868788 -1.909935 2.212664 3.389241 0.971685 0.209527 -0.938742 -1.594553 3.752866 -0.382039 4.246098 1.001120 -1.937655 -4.179757 -2.898175 -2.136378 -2.047899 2.232746 -0.193368 -2.477513 -4.480075 4.544059 -1.586514 -4.525118 0.597058 4.498538 2.238022 1.772879 3.112120 -4.742887 -4.731130 -0.967922 -1.221368 3.106249 3.616206
0.816187 -0.297965 -3.294530 3.605050 1.556578 0.644349 1.419325 -0.018774 -2.155717 1.272281 1.553588 1.802111 2.059758 -3.019558 0.279393 1.148951 0.159737 -0.286016 -4.647047 -0.285716 -0.929316 -3.224096 2.118609 1.383012 3.856228 -3.383010 -1.783436 -2.419195 4.044654 4.268215 -4.838938 0.225434 -2.909389 -3.815962 -4.336410 4.359711 -4.941831 4.707694 4.037680 -4.121520 0.841460 0.769267 -2.317733 3.274617 4.521550 1.715064 -4.222844 -4.552978 -1.524846 4.670845 -1.596295 -1.319186 -4.883051 3.429918 1.764772 -4.520108 0.743763 -3.221887 1.495759 -0.247343 -3.700518 -4.868788 -1.909935 2.212664 3.389241 0.971685 0.209527 -0.938742 -1.594553 3.752866 -0.382039 4.246098 -3.461427 -1.937655 -4.935013 -2.898175 -1.557876 2.322905 2.232746 1.448741 0.042978 -4.480075 2.835004 -1.586514 -3.106754 0.597058 3.353855 2.238022 1.772879 3.112120 -4.742887 -4.731130 -4.054841 -1.221368 3.106249 3.616206
0.816187 -0.297965 -3.294530 3.605050 1.556578 0.463182 1.419325 -0.018774 -2.155717 1.272281 1.553588 1.802111 2.059758 -3.019558 0.279393 1.148951 0.159737 3.320531 -4.647047 -0.285716 -0.929316 -3.609363 2.118609 0.610570 3.650931 -2.299313 -1.783436 -2.419195 4.044654 4.268215 -4.838938 0.225434 3.848490 -3.449641 -1.771504 4.359711 -4.941831 -1.782444 -3.203375 -4.121520 0.841460 0.769267 -2.317733 3.274617 4.521550 0.480397 -4.222844 -1.637002 -1.524846 3.493525 -3.114341 -1.319186 2.477604 1.936437 4.000948 -4.520108 2.345785 1.083332 1.495759 2.089279 -3.700518 -4.868788 -1.637382 2.212664 3.389241 1.525584 -4.345546 -0.938742 -2.281445 3.752866 -0.382039 -0.174304 4.185402 -1.937655 -4.935013 -2.775058 2.341997 2.322905 2.232746 1.448741 0.042978 -4.480075 2.835004 -1.586514 -3.106754 0.597058 3.353855 2.238022 1.772879 3.112120 -4.742887 -4.731130 -0.967922 -1.221368 3.106249 3.616206
-2.380518 -0.297965 2.666665 3.605050 1.556578 0.644349 1.419325 -3.150249 -2.155717 3.007993 3.375201 -3.986285 -4.554826 1.327032 0.279393 4.558091 0.159737 2.329635 -2.414301 -3.066509 1.531541 -3.224096 2.118609 0.610570 2.365041 -3.383010 -1.783436 -2.419195 4.044654 4.268215 -1.460432 2.151883 3.848490 -3.815962 -0.108892 4.084354 -4.941831 -1.782444 -2.450923 -4.121520 0.841460 -1.890276 -2.317733 3.274617 -4.199021 4.829305 -4.222844 -4.552978 -1.524846 4.670845 -1.596295 -1.319186 -4.883051 3.429918 1.764772 -4.520108 0.743763 -3.221887 1.495759 -0.895173 -3.700518 -4.868788 -1.909935 2.212664 3.389241 4.356260 0.209527 -0.938742 4.558406 3.752866 -3.239242 4.246098 0.770116 -1.937655 -4.935013 -2.898175 -2.136378 -2.526498 -0.801678 -2.999376 -4.798309 -4.480075 4.544059 -1.586514 -4.623792 0.597058 4.498538 2.238022 1.772879 3.112120 -4.742887 -4.731130 -0.967922 -1.221368 3.106249 3.616206
4.953954 1.856037 -1.429860 3.605050 1.556578 -1.692450 1.419325 -2.487882 -2.155717 2.693623 1.553588 2.703810 3.607738 -3.019558 0.279393 -4.067129 0.159737 3.320531 -4.647047 -0.285716 -0.929316 -3.224096 2.118609 0.610570 3.650931 -3.383010 -1.783436 -2.419195 4.044654 4.268215 -4.838938 0.225434 3.848490 -3.449641 0.522149 4.359711 -4.941831 -1.782444 -3.203375 -4.121520 0.841460 0.769267 -2.317733 3.274617 4.521550 0.480397 -4.222844 -1.637002 -1.524846 3.493525 -3.114341 -1.514198 2.477604 1.936437 4.000948 -4.520108 2.345785 1.083332 1.495759 2.089279 -3.700518 -4.868788 -1.637382 2.212664 3.389241 1.525584 -4.345546 -0.938742 -2.281445 3.752866 -0.382039 -0.174304 4.185402 -1.937655 -4.935013 -2.775058 2.341997 2.322905 -3.064764 1.448741 0.042978 -4.480075 4.544059 -2.937698 -3.106754 0.597058 4.498538 2.238022 1.772879 3.112120 -4.742887 -4.731130 -0.967922 -1.221368 3.106249 3.616206
4.953954 1.856037 -1.429860 3.605050 1.556578 -1.692450 1.419325 -2.487882 -2.155717 2.693623 1.553588 2.703810 3.607738 -3.019558 0.279393 -4.067129 0.159737 2.329635 -2.414301 -3.066509 1.531541 -3.224096 2.118609 0.610570 3.650931 -3.383010 -1.783436 -2.419195 4.044654 2.767018 -4.838938 0.225434 3.848490 -3.449641 0.522149 4.359711 -4.941831 -1.782444 -3.203375 -4.121520 0.841460 0.769267 -2.317733 3.274617 4.521550 4.829305 -4.222844 -4.552978 -1.524846 4.670845 -1.596295 3.308862 -4.883051 -4.653414 1.764772 -4.520108 0.743763 -1.648135 1.495759 -1.406499 -3.700518 -4.868788 -1.909935 2.212664 4.267879 1.525584 -4.345546 -0.938742 -2.281445 1.745787 -0.382039 -0.174304 -3.461427 -1.937655 -4.935013 -2.775058 2.341997 2.322905 2.232746 1.448741 0.042978 -4.480075 2.426634 -1.586514 -3.106754 0.597058 3.353855 2.238022 1.772879 3.112120 -4.224520 -4.731130 -0.967922 -1.221368 3.106249 3.616206
1.899719 1.856037 -1.429860 3.605050 1.556578 -1.692450 1.419325 -2.487882 -2.155717 -4.029140 1.553588 2.703810 3.607738 -3.019558 0.279393 -4.067129 0.159737 2.329635 -2.414301 -3.066509 1.531541 -3.224096 2.118609 0.610570 3.650931 -3.383010 -1.783436 -2.419195 4.044654 4.268215 -4.838938 0.225434 3.848490 -3.449641 0.522149 4.359711 -4.941831 -1.782444 -3.203375 -4.121520 0.841460 0.769267 -2.317733 3.274617 4.521550 4.829305 -4.222844 -4.552978 -1.524846 4.670845 -1.596295 3.308862 -4.883051 3.429918 1.764772 -4.520108 0.743763 -3.221887 1.495759 -1.406499 -3.700518 -4.868788 3.155928 2.212664 4.267879 1.525584 -4.345546 -0.938742 -2.281445 1.745787 -0.382039 4.246098 -4.955783 -1.937655 -4.935013 -2.898175 -1.557876 2.322905 2.232746 1.448741 0.042978 -4.480075 2.835004 -0.162351 -4.899634 0.597058 3.353855 2.238022 1.772879 -1.328604 -4.742887 -4.731130 -0.967922 -1.221368 3.106249 3.616206
-3.405750 1.856037 -1.429860 3.605050 1.556578 -1.692450 1.419325 -2.487882 -2.155717 2.693623 1.553588 -0.744713 3.607738 -3.019558 0.279393 -4.067129 0.159737 3.320531 -4.647047 -0.285716 -0.929316 -3.224096 2.118609 0.610570 3.650931 -3.383010 -1.783436 -2.419195 4.044654 4.268215 -4.838938 -2.049695 3.848490 -3.449641 0.522149 4.359711 -4.941831 -1.782444 -3.203375 -4.121520 0.841460 0.769267 -2.317733 3.274617 4.521550 4.829305 2.554085 -4.552978 -1.524846 4.670845 -1.596295 3.308862 -4.883051 -4.653414 1.764772 -4.520108 0.743763 -3.221887 1.495759 -1.406499 -3.700518 -4.868788 -1.909935 2.212664 4.267879 1.525584 -4.345546 -0.938742 -2.281445 1.745787 -0.382039 -0.174304 -3.461427 -1.937655 -4.935013 -2.775058 2.341997 2.322905 2.232746 1.448741 0.042978 -4.480075 2.426634 -1.586514 -3.106754 0.597058 3.353855 2.238022 1.772879 3.112120 -4.742887 -4.731130 -0.967922 -1.221368 3.106249 3.616206
4.953954 -3.871089 -1.429860 3.605050 1.556578 -1.692450 1.419325 -2.487882 -2.155717 -4.298933 1.553588 2.703810 3.607738 -3.019558 4.538819 -0.902542 0.159737 3.320531 -4.647047 -0.285716 -0.929316 -3.224096 2.118609 0.610570 3.650931 -3.383010 -1.783436 -2.419195 4.044654 4.268215 -4.838938 0.225434 3.848490 -3.449641 -1.771504 -1.496483 -4.941831 -1.782444 -3.873926 -4.121520 0.841460 4.477353 -2.317733 3.276828 4.521550 4.829305 -4.222844 -4.552978 -1.524846 0.178288 -1.596295 -1.319186 -4.883051 3.429918 1.764772 -4.520108 0.743763 -3.221887 -0.093782 -1.406499 -3.700518 -4.868788 -1.909935 2.212664 4.267879 4.648185 0.209527 -0.938742 -1.594553 -0.002257 -0.382039 1.790362 -3.461427 -1.937655 1.079343 -2.775058 -2.136378 0.715897 -0.157191 -2.999376 -4.798309 -4.480075 -1.354466 -0.162351 -2.994018 0.597058 4.736920 2.238022 1.772879 3.112120 -4.742887 -4.731130 -0.049519 -1.221368 3.106249 3.616206
4.953954 1.856037 -1.429860 3.605050 1.556578 -1.692450 1.419325 -2.487882 -2.155717 2.693623 1.553588 2.703810 3.607738 -3.019558 2.337539 -4.067129 0.159737 3.320531 -4.647047 -0.285716 -0.929316 -3.224096 2.118609 0.610570 3.650931 -3.383010 -1.783436 -2.419195 4.044654 4.268215 -4.838938 0.225434 3.848490 -3.449641 0.522149 4.359711 -4.941831 -1.782444 -3.203375 -4.121520 0.841460 0.769267 -2.317733 3.274617 4.521550 4.829305 -4.222844 -4.552978 -1.524846 4.670845 -1.596295 -1.319186 -4.883051 3.429918 1.764772 -4.520108 0.743763 -3.221887 1.495759 -1.406499 -3.700518 -4.868788 -1.909935 2.212664 4.267879 1.525584 -4.345546 -0.938742 -2.281445 1.745787 -0.382039 -0.174304 -3.461427 -1.937655 -4.935013 -2.775058 2.341997 2.322905 2.232746 1.448741 0.042978 -4.480075 2.835004 -1.503500 -3.106754 0.597058 3.353855 2.238022 1.772879 3.112120 -4.742887 -4.731130 -0.967922 -1.221368 3.106249 3.616206
-2.380518 -0.297965 -3.294530 3.605050 1.556578 0.644349 1.419325 -1.091565 -2.155717 3.007993 3.375201 -3.986285 3.331331 1.327032 0.279393 4.558091 0.159737 2.329635 -2.414301 -3.066509 1.531541 -3.224096 2.118609 0.610570 2.365041 -3.383010 -1.783436 -2.419195 4.044654 4.268215 -1.460432 2.151883 3.848490 -3.815962 -0.108892 4.084354 -4.941831 -1.782444 -2.450923 -4.121520 0.841460 0.769267 -2.317733 3.274617 -4.199021 4.829305 -4.222844 -4.552978 -1.524846 4.670845 -1.596295 -1.319186 -4.883051 3.429918 1.764772 -4.520108 0.743763 -3.221887 1.495759 -0.895173 -3.700518 -4.868788 0.439221 2.212664 3.389241 4.356260 0.209527 -0.938742 4.558406 3.752866 -0.382039 4.246098 -4.955783 -1.937655 -4.935013 -2.898175 -1.557876 2.322905 2.232746 1.448741 0.042978 -4.480075 2.835004 -1.586514 -4.525118 0.597058 4.498538 2.238022 1.772879 3.112120 -4.742887 -4.731130 -1.507379 -1.221368 3.106249 3.126790
-2.380518 -0.297965 -3.294530 3.605050 1.556578 0.644349 1.419325 -0.018774 -2.155717 1.272281 1.553588 1.802111 2.059758 -3.019558 0.279393 1.148951 0.159737 -0.286016 -4.647047 -0.285716 -4.064794 -3.224096 2.118609 1.383012 3.856228 -3.383010 -1.783436 -2.419195 4.044654 4.268215 -4.838938 0.225434 -2.909389 -3.449641 -1.771504 4.359711 -4.941831 -1.782444 4.037680 -3.926790 0.841460 4.477353 -2.317733 3.274617 4.521550 1.715064 -4.222844 -4.552978 -1.524846 3.493525 -3.114341 -1.319186 2.477604 1.936437 4.000948 -4.520108 2.345785 1.083332 1.495759 -3.719843 1.272574 -4.868788 -1.637382 2.212664 0.412871 4.648185 0.209527 -0.938742 4.558406 3.752866 -0.382039 4.246098 -4.955783 -1.937655 -4.935013 -2.898175 -1.557876 2.322905 2.232746 1.448741 0.042978 1.549701 2.835004 -1.586514 -4.525118 0.597058 4.498538 2.238022 1.772879 3.112120 -4.742887 -4.731130 -0.967922 -1.221368 3.106249 3.616206
-2.380518 -0.297965 -3.294530 3.605050 1.556578 0.644349 1.419325 -0.018774 -2.155717 2.693623 1.553588 2.703810 3.607738 -3.019558 0.279393 -0.902542 0.159737 3.320531 -4.647047 -0.285716 -0.929316 -3.224096 2.118609 0.610570 3.650931 -3.383010 -1.783436 -2.419195 4.044654 4.268215 -3.174739 0.225434 3.848490 -3.449641 -1.771504 4.359711 -4.941831 -0.196450 -3.873926 -4.121520 0.841460 4.477353 -2.317733 3.274617 4.521550 4.829305 -4.222844 -4.552978 -1.524846 0.178288 4.111362 -0.575176 -4.883051 3.429918 1.764772 -4.520108 0.743763 -3.221887 1.495759 -1.406499 -3.700518 -4.868788 -1.909935 -1.959716 4.267879 1.525584 0.625422 2.628466 -2.281445 3.752866 -0.382039 -0.174304 -3.461427 -1.937655 -4.935013 -2.898175 -2.136378 0.715897 0.327464 1.448741 -3.679405 -4.480075 2.835004 -1.065458 -3.106754 0.597058 3.353855 2.238022 1.772879 3.112120 -4.742887 -4.731130 -0.967922 -1.221368 3.106249 3.616206
-2.380518 -0.297965 -3.294530 3.605050 1.556578 0.644349 -4.356905 -0.018774 -2.155717 4.170972 1.553588 1.802111 2.059758 -1.108359 0.279393 1.148951 0.159737 -0.286016 -4.647047 -0.285716 -0.929316 -3.224096 2.118609 1.383012 3.856228 -3.383010 -1.783436 -2.419195 4.044654 4.268215 -4.838938 0.225434 -2.909389 -3.815962 -4.336410 4.359711 -4.941831 -1.782444 4.037680 -4.121520 0.841460 0.769267 -2.317733 3.274617 4.521550 4.829305 -4.222844 -4.552978 -1.524846 4.670845 -1.596295 -1.319186 -4.883051 3.429918 1.764772 -4.520108 0.743763 -3.221887 1.495759 -1.406499 -3.700518 -4.868788 -1.909935 2.212664 4.267879 4.648185 0.209527 -0.938742 4.558406 3.752866 -0.382039 4.246098 -4.955783 -1.937655 -4.935013 -2.898175 -1.557876 2.322905 2.232746 1.448741 0.042978 -4.480075 2.835004 -1.586514 -4.525118 0.597058 4.498538 2.238022 1.772879 3.112120 -4.742887 -4.731130 -1.507379 -1.221368 3.106249 3.126790
4.953954 1.856037 -1.429860 3.605050 1.556578 -1.692450 1.419325 -2.487882 -1.857135 2.693623 1.553588 2.703810 3.607738 -3.019558 0.279393 -4.067129 0.159737 2.329635 -2.414301 -3.066509 1.531541 -3.224096 2.118609 0.610570 3.650931 -3.383010 -1.783436 -2.419195 4.044654 4.268215 -4.838938 0.225434 3.848490 -3.449641 0.522149 4.359711 -4.941831 -1.782444 -3.203375 -4.121520 0.841460 0.769267 -2.317733 3.274617 -0.366398 4.829305 -4.222844 -4.552978 -1.524846 4.670845 -1.596295 3.308862 -4.883051 3.429918 1.764772 -4.520108 0.743763 -3.221887 1.495759 -1.406499 -1.648891 -4.868788 -1.909935 2.212664 4.267879 1.525584 -4.345546 -0.938742 -2.281445 1.745787 -0.382039 4.246098 -4.955783 -1.937655 -4.935013 -2.898175 -1.557876 2.322905 2.232746 1.448741 0.042978 -4.480075 2.835004 -0.162351 -4.899634 0.597058 3.353855 2.238022 1.772879 -1.328604 -4.742887 -4.731130 -0.967922 -0.589998 3.106249 3.616206
4.953954 1.856037 -1.429860 3.605050 1.556578 -1.692450 1.419325 -2.487882 -2.155717 2.693623 1.553588 2.703810 3.607738 -3.019558 0.279393 -4.067129 0.159737 2.329635 -2.414301 -3.066509 1.531541 -3.224096 2.118609 0.610570 3.650931 -3.383010 -1.783436 -2.419195 4.044654 4.268215 -4.838938 0.225434 3.848490 -3.449641 0.522149 4.359711 -4.941831 -1.782444 -3.203375 -4.121520 0.841460 0.769267 -2.317733 3.274617 4.521550 4.829305 -4.222844 -4.552978 -1.524846 4.670845 -1.596295 3.308862 -4.883051 3.429918 1.764772 -4.520108 0.743763 -3.221887 1.495759 -1.406499 -3.700518 -4.868788 -1.909935 2.212664 4.267879 1.525584 -4.345546 -0.938742 -2.281445 1.745787 -0.382039 4.246098 -4.955783 -1.937655 -4.935013 -2.898175 -1.557876 2.322905 2.232746 1.448741 0.042978 -4.480075 2.835004 -0.162351 -4.899634 0.597058 4.736920 2.238022 1.772879 3.112120 -4.742887 -4.731130 -0.049519 -1.221368 3.106249 3.616206
4.953954 1.856037 1.165646 3.605050 1.556578 1.826317 -0.715173 -2.487882 -2.155717 2.693623 1.553588 2.703810 3.607738 -3.019558 0.593231 -4.067129 0.159737 3.320531 -4.647047 -0.285716 -0.929316 -3.224096 2.118609 0.610570 3.650931 -3.383010 -1.783436 -2.419195 3.063809 4.268215 -4.838938 0.225434 3.848490 -3.449641 0.522149 4.359711 -4.941831 -1.782444 4.037680 -2.174979 4.415261 3.994217 -2.317733 3.274617 4.521550 4.829305 -4.222844 -4.552978 -1.524846 4.670845 -1.596295 -1.319186 -4.883051 3.429918 -3.052226 -4.520108 0.743763 -3.221887 1.495759 -1.406499 -3.700518 -4.868788 -3.611883 2.212664 4.267879 1.525584 -4.345546 -0.938742 -2.281445 1.745787 -0.382039 4.246098 -4.955783 -1.937655 -4.935013 -2.898175 -1.557876 2.322905 2.232746 1.448741 0.042978 -4.480075 2.835004 -0.162351 -4.899634 0.597058 3.353855 2.238022 1.772879 2.393420 -4.742887 -4.731130 -0.967922 -0.589998 3.106249 3.616206
0.816187 -0.297965 -3.294530 3.605050 1.556578 0.644349 1.419325 -0.018774 -2.155717 1.272281 1.553588 1.802111 2.059758 -3.019558 0.279393 1.148951 0.159737 -0.286016 -4.647047 -0.285716 -0.929316 -3.224096 2.118609 1.383012 3.856228 -3.383010 -1.783436 -2.419195 4.044654 4.268215 -4.838938 0.225434 -2.909389 -3.815962 -4.336410 4.359711 -4.941831 -1.743515 4.037680 -4.121520 0.841460 0.769267 -2.317733 3.274617 4.521550 1.715064 -4.222844 -4.552978 -1.524846 4.670845 -1.596295 -1.319186 -4.883051 3.429918 1.764772 -4.520108 0.743763 -3.221887 1.495759 -0.247343 -3.700518 -4.868788 -1.909935 2.212664 3.389241 0.971685 0.209527 -0.938742 -1.594553 3.752866 -0.382039 4.246098 -3.461427 -1.937655 -4.935013 -2.898175 -1.557876 2.322905 2.232746 1.448741 0.042978 -4.480075 2.835004 -1.586514 -3.106754 0.597058 4.736920 2.238022 1.772879 3.112120 -4.742887 -4.731130 -0.967922 -1.221368 3.106249 3.616206
-2.380518 -0.297965 -3.294530 3.605050 1.556578 0.644349 1.419325 -1.062154 -2.155717 1.272281 1.553588 1.802111 2.059758 -3.019558 0.279393 1.148951 0.159737 -0.286016 -4.647047 -0.285716 -4.064794 0.567200 2.118609 1.383012 3.856228 -3.383010 -1.783436 -2.419195 4.044654 4.268215 -4.838938 0.225434 -2.909389 -3.089398 -1.771504 4.359711 -4.941831 -1.782444 4.037680 -4.121520 0.841460 4.477353 -2.317733 3.274617 4.521550 4.829305 -4.222844 -4.552978 -1.524846 0.178288 4.111362 -0.575176 -4.883051 3.429918 1.764772 -4.520108 0.743763 -3.221887 1.495759 -1.406499 -3.700518 -4.868788 -1.909935 2.212664 4.267879 1.525584 -0.548456 2.628466 -2.281445 3.752866 -0.382039 -0.174304 -3.461427 -1.937655 -4.935013 -2.898175 -2.136378 0.715897 0.327464 1.448741 -3.679405 -4.480075 2.835004 -1.503500 -3.106754 0.597058 3.353855 2.238022 1.772879 3.112120 -4.742887 -4.731130 -0.967922 -1.221368 3.106249 3.616206
4.953954 1.856037 -1.429860 3.605050 1.556578 -1.692450 1.419325 -2.487882 -2.155717 2.693623 1.553588 -0.744713 3.607738 -3.019558 0.279393 4.558091 0.159737 2.329635 -4.647047 -0.285716 -0.929316 -3.224096 2.118609 0.610570 3.650931 -3.383010 -1.783436 -2.419195 4.044654 4.268215 -4.838938 -2.049695 3.848490 -3.449641 0.522149 4.359711 -4.941831 -1.782444 -3.203375 -4.121520 0.841460 0.769267 -2.317733 3.274617 4.521550 4.829305 -4.222844 -4.552978 -1.524846 0.178288 -1.596295 -1.319186 -4.883051 3.429918 1.764772 -4.520108 0.743763 -3.221887 1.495759 -1.406499 -3.700518 -4.868788 -1.909935 2.212664 4.267879 1.525584 -4.345546 -0.938742 -2.281445 3.752866 -0.382039 -0.174304 -3.461427 -1.937655 -4.935013 -2.898175 -2.136378 -2.526498 -0.157191 -2.999376 -4.798309 -4.480075 -3.427938 -1.586514 -4.525118 0.597058 4.498538 2.238022 1.772879 3.112120 -4.742887 -4.731130 -0.967922 -1.221368 3.106249 3.616206
1.503152 1.856037 -1.429860 3.605050 1.556578 -1.692450 1.419325 -2.487882 -2.155717 2.693623 1.553588 2.703810 3.607738 -3.019558 2.713535 -0.902542 1.679534 3.320531 -4.647047 -0.285716 -0.929316 -3.224096 2.118609 0.610570 3.650931 -3.383010 -1.783436 2.320384 4.044654 4.268215 -4.838938 0.225434 3.848490 -3.449641 -1.771504 4.359711 -4.941831 -1.782444 -3.203375 -4.121520 0.841460 0.769267 -2.317733 3.274617 4.521550 1.715064 -4.222844 -1.637002 -1.524846 3.493525 -3.114341 -1.319186 2.477604 1.936437 4.000948 -4.520108 2.345785 1.083332 -2.444393 -1.406499 -3.700518 -4.868788 -1.637382 2.212664 4.267879 1.525584 0.625422 2.628466 -2.281445 3.752866 -0.382039 -0.174304 -3.461427 -1.937655 -4.935013 -2.898175 -2.136378 0.715897 0.327464 1.448741 -3.679405 -4.480075 2.835004 -1.503500 -3.106754 0.597058 3.353855 2.238022 1.772879 3.112120 -4.742887 -4.731130 -0.967922 -1.221368 3.106249 3.616206
0.816187 -0.297965 -3.294530 3.605050 1.556578 0.644349 1.419325 -0.018774 -2.155717 1.272281 1.553588 1.802111 2.059758 -3.019558 0.279393 1.148951 0.159737 -0.286016 -4.647047 -0.285716 -0.929316 -3.224096 2.118609 1.383012 3.856228 -3.383010 -1.783436 -2.419195 4.044654 4.268215 -4.838938 0.225434 -2.909389 -3.815962 -4.336410 4.359711 -4.941831 -1.782444 4.037680 -4.121520 0.841460 0.769267 -2.317733 3.274617 4.521550 1.715064 -4.222844 -4.552978 -1.524846 4.670845 -1.596295 -1.319186 -4.883051 3.429918 1.764772 -4.520108 0.743763 -3.221887 1.495759 -0.247343 -3.700518 -4.868788 -1.909935 2.212664 3.389241 0.971685 0.209527 -0.938742 -1.594553 3.752866 -0.382039 4.246098 -3.461427 -1.937655 -4.935013 -2.898175 -1.557876 2.322905 2.232746 1.448741 0.042978 -4.480075 2.835004 -1.586514 -3.106754 0.597058 1.729356 2.238022 1.772879 3.112120 -4.742887 -4.731130 -0.967922 -1.221368 3.106249 3.616206
-2.380518 -0.297965 -3.294530 3.605050 1.556578 0.644349 1.419325 -3.150249 -2.155717 3.007993 3.375201 -1.517738 3.331331 1.327032 -3.919706 4.558091 0.159737 2.329635 -2.414301 -3.066509 1.531541 -3.224096 2.118609 0.610570 3.650931 -3.383010 -1.783436 -2.419195 4.044654 -4.572303 -4.838938 0.225434 3.848490 -3.449641 0.522149 4.359711 -4.941831 -1.782444 -3.203375 -4.121520 0.841460 0.769267 -2.317733 3.274617 4.521550 4.829305 -4.222844 -4.552978 -1.524846 4.670845 -1.596295 3.308862 -4.883051 3.429918 1.764772 -4.520108 0.743763 -3.221887 1.495759 -1.406499 -3.700518 -4.868788 -1.909935 1.123315 4.267879 1.525584 -4.345546 -0.938742 -2.281445 1.745787 -0.382039 -0.174304 -3.461427 -0.424032 -0.364819 -2.775058 2.341997 2.322905 2.232746 1.448741 0.042978 -4.480075 2.426634 -1.586514 -3.106754 0.597058 3.353855 2.238022 1.772879 3.112120 -4.742887 -4.731130 -0.967922 -1.221368 3.106249 3.616206
4.953954 1.856037 -1.429860 3.605050 -2.214268 -1.692450 1.419325 -2.487882 -2.155717 2.693623 1.553588 2.703810 3.607738 -3.019558 0.279393 -4.067129 0.159737 2.329635 -2.414301 -3.066509 1.531541 -3.224096 2.118609 0.610570 3.650931 -3.383010 -1.783436 -2.419195 4.044654 4.268215 -1.460432 2.151883 3.848490 -3.815962 -0.108892 4.084354 -4.941831 -1.782444 -2.450923 -4.121520 0.841460 0.769267 -2.317733 3.274617 -4.199021 4.829305 -0.105701 -4.552978 -1.524846 4.670845 -1.596295 -1.319186 -4.883051 3.429918 1.764772 -4.520108 0.743763 -3.221887 1.495759 -0.895173 -3.700518 -4.868788 -1.909935 2.212664 3.389241 4.356260 0.209527 -0.938742 4.558406 3.752866 -3.239242 4.246098 0.770116 -1.937655 -4.935013 -2.898175 -2.136378 -2.526498 -0.801678 -2.999376 -4.798309 -4.480075 4.544059 -1.586514 -4.623792 0.597058 4.498538 2.238022 1.772879 -1.883214 -4.742887 -4.731130 -0.967922 -1.221368 3.106249 3.616206
4.953954 1.856037 1.165646 3.605050 1.556578 1.826317 -0.715173 -2.487882 -2.155717 2.693623 1.553588 2.703810 3.607738 -3.019558 0.279393 -0.902542 0.159737 3.320531 -4.647047 -0.285716 -0.929316 -3.609363 2.118609 0.610570 3.650931 -3.383010 -1.783436 -2.419195 4.044654 4.268215 -4.838938 0.225434 3.848490 -3.449641 -1.771504 4.359711 -4.941831 -1.782444 -3.203375 -4.121520 0.841460 0.769267 -2.317733 3.274617 4.521550 0.480397 -4.222844 -1.637002 -1.524846 3.493525 -3.114341 -1.319186 2.477604 1.936437 4.000948 -4.520108 2.448718 1.083332 1.495759 2.089279 -3.700518 -4.868788 -1.637382 2.212664 3.389241 1.525584 -4.345546 -0.938742 -2.281445 3.752866 -0.382039 -0.174304 4.185402 -1.937655 -4.935013 3.065881 2.341997 2.322905 2.232746 1.448741 0.042978 -4.480075 4.544059 -2.937698 -3.106754 0.597058 4.498538 2.238022 1.772879 3.112120 -4.742887 -4.731130 -0.967922 -1.221368 3.106249 3.616206
4.961546 -3.871089 -1.429860 3.605050 1.556578 -1.692450 1.419325 -2.487882 -2.155717 2.693623 1.553588 2.703810 3.607738 -3.019558 -1.020266 -0.902542 0.159737 3.320531 -4.647047 -0.285716 -0.929316 -3.224096 2.118609 0.610570 3.650931 -3.383010 -1.783436 -2.419195 4.044654 4.268215 -4.838938 0.225434 3.848490 -3.449641 -1.771504 4.359711 -4.941831 -0.196450 -3.873926 -4.121520 0.841460 4.477353 -2.317733 3.274617 4.521550 4.829305 -4.222844 -4.552978 -1.524846 0.178288 4.111362 -0.575176 -4.883051 3.429918 1.764772 -4.520108 0.743763 -3.221887 -1.775717 -1.406499 -3.700518 -4.868788 -1.909935 1.123315 4.267879 1.525584 0.625422 2.628466 -2.281445 3.752866 -0.382039 -0.174304 -3.461427 -1.937655 -4.935013 -2.898175 -4.548851 0.715897 0.327464 1.448741 -3.679405 -4.480075 -1.354466 -0.162351 -3.106754 0.597058 3.353855 2.238022 1.772879 3.112120 -4.742887 -4.731130 -0.967922 -1.221368 3.106249 3.616206
4.953954 1.856037 -1.429860 3.605050 1.556578 -1.692450 1.419325 -2.487882 -2.155717 2.693623 1.553588 2.703810 3.607738 -3.019558 0.279393 -0.902542 0.159737 3.320531 -4.647047 -0.285716 -0.929316 -3.609363 2.118609 0.610570 3.650931 -3.383010 -1.783436 -2.419195 4.044654 4.268215 -4.838938 0.225434 3.848490 -3.449641 -1.771504 0.326661 -4.941831 -1.782444 -3.203375 -4.121520 0.841460 0.769267 -2.317733 3.274617 4.521550 0.480397 -4.222844 -1.637002 -1.524846 3.493525 2.492639 -1.319186 2.477604 1.936437 4.000948 -4.520108 2.345785 1.083332 1.495759 1.349550 -3.700518 -4.868788 -1.637382 2.212664 3.389241 1.525584 -4.345546 -0.938742 -2.281445 3.752866 -0.382039 -0.174304 4.185402 -1.937655 -4.935013 -2.775058 2.341997 2.322905 2.232746 1.448741 0.042978 -4.480075 4.544059 -2.937698 -3.106754 0.597058 4.498538 2.238022 1.772879 3.112120 -4.742887 -4.731130 -0.967922 -1.221368 3.106249 3.616206
4.953954 1.856037 1.165646 3.605050 1.556578 1.826317 -0.715173 -2.487882 -2.155717 2.693623 1.553588 2.703810 3.607738 -3.019558 0.593231 -4.067129 0.159737 3.320531 -4.647047 -0.285716 -0.929316 -3.224096 2.118609 0.610570 3.650931 -3.383010 -1.783436 -2.419195 4.044654 4.268215 -4.838938 0.225434 3.848490 -3.449641 0.522149 -4.045926 -4.941831 -1.782444 4.037680 -2.174979 2.896159 3.994217 -2.317733 3.274617 4.521550 4.829305 -4.222844 -4.552978 -1.524846 0.178288 -1.596295 -1.319186 -4.883051 3.429918 1.764772 -4.520108 1.854238 -3.221887 1.495759 -1.406499 -3.700518 -4.868788 -1.909935 2.212664 4.267879 1.525584 -4.345546 -0.938742 -2.281445 3.752866 -0.382039 -0.174304 -3.461427 -1.937655 -4.935013 -2.898175 -2.136378 -2.526498 -0.157191 -2.999376 -1.020211 -4.480075 -3.427938 -1.586514 -4.525118 0.597058 4.498538 2.238022 1.772879 3.112120 -4.742887 -4.731130 -0.967922 -1.221368 3.106249 3.616206
-2.380518 -0.297965 -3.294530 3.605050 1.556578 0.644349 1.419325 -2.182140 -2.155717 4.170972 1.553588 1.802111 2.059758 -3.019558 0.279393 1.148951 0.159737 -0.286016 -4.647047 -0.285716 -0.929316 -3.224096 2.118609 0.610570 3.650931 -3.383010 -1.783436 -2.419195 4.044654 4.268215 -4.838938 0.225434 3.848490 -3.449641 -1.771504 4.359711 -4.941831 -0.196450 -3.873926 -4.121520 0.841460 4.477353 -2.317733 3.274617 4.521550 4.829305 -4.222844 -4.552978 -1.524846 0.178288 4.111362 -1.350911 -4.883051 3.429918 1.764772 -4.520108 0.743763 -3.221887 1.495759 -1.406499 -3.700518 -4.868788 -1.909935 2.212664 4.267879 1.525584 0.625422 2.628466 -2.281445 3.752866 -0.382039 -0.174304 -3.461427 -1.937655 -4.935013 -2.898175 -1.557876 2.322905 2.232746 1.448741 0.042978 -4.480075 2.835004 -1.586514 -4.525118 0.597058 4.498538 2.238022 1.772879 3.112120 -4.742887 -4.731130 -1.507379 -1.221368 3.106249 3.126790
-2.380518 -0.297965 -3.294530 3.605050 1.556578 0.644349 1.419325 -0.018774 -2.155717 1.272281 1.553588 1.802111 2.059758 -3.019558 0.279393 1.148951 0.159737 -0.286016 -4.647047 1.990333 -4.064794 -3.224096 2.118609 1.383012 3.856228 -3.383010 -1.783436 -2.419195 4.044654 4.268215 -4.838938 0.225434 -3.837606 -3.815962 -4.336410 4.359711 -4.941831 -1.782444 4.037680 -4.121520 0.841460 0.769267 -2.317733 3.274617 4.521550 1.715064 -4.222844 -4.552978 -1.524846 -1.232385 -3.114341 -1.319186 2.477604 1.936437 4.000948 -4.520108 2.345785 1.083332 1.495759 -3.719843 1.272574 -4.868788 -1.637382 2.212664 0.412871 4.648185 0.209527 -0.938742 4.558406 3.752866 -0.382039 4.246098 -4.955783 -1.937655 -4.935013 -2.898175 -1.557876 2.322905 2.232746 1.448741 0.042978 -4.480075 2.835004 -1.586514 -4.525118 0.597058 4.498538 2.238022 1.772879 3.112120 -4.742887 -4.731130 -1.507379 -1.221368 3.106249 3.126790
4.953954 1.856037 -1.429860 3.605050 1.556578 -1.692450 1.419325 -2.487882 -2.155717 2.693623 1.553588 -0.744713 3.607738 -3.019558 0.279393 -4.067129 0.159737 3.320531 -4.647047 -0.285716 -0.929316 -3.224096 2.118609 0.610570 3.650931 -3.383010 -1.783436 -2.419195 4.044654 4.268215 -4.838938 -2.049695 3.848490 -3.449641 0.522149 4.359711 -4.941831 -1.782444 -3.203375 -4.121520 0.841460 0.769267 -2.317733 3.274617 4.521550 4.829305 -4.222844 -4.552978 -1.524846 0.178288 -1.596295 -1.319186 2.477604 1.936437 4.000948 -4.520108 2.345785 1.083332 1.495759 2.089279 3.113583 -4.868788 -1.637382 2.212664 3.389241 1.525584 -4.345546 -0.938742 -2.281445 3.752866 -0.382039 -0.174304 -3.461427 -1.937655 -4.935013 -2.898175 -2.136378 -2.526498 -0.157191 -2.999376 -4.798309 -4.480075 -3.427938 -1.586514 -4.525118 0.597058 4.498538 2.238022 1.772879 3.112120 -4.742887 -4.731130 -0.967922 -1.221368 3.106249 3.616206
4.953954 1.856037 -1.429860 3.605050 1.556578 -1.692450 1.419325 -2.487882 -2.155717 2.693623 1.553588 2.703810 3.607738 -3.019558 0.279393 -4.067129 0.159737 2.329635 -2.414301 -3.066509 1.531541 -3.224096 2.118609 0.610570 3.650931 -3.383010 -1.783436 -2.419195 4.044654 4.268215 -4.838938 0.225434 3.848490 -3.449641 0.522149 4.359711 -4.941831 -1.782444 -3.203375 -4.121520 0.841460 0.769267 -2.317733 3.274617 4.521550 4.829305 -4.222844 -4.552978 -1.524846 4.670845 -1.596295 -1.319186 -4.883051 3.429918 1.764772 -4.520108 2.345785 1.083332 1.495759 -3.719843 1.272574 -4.868788 -1.637382 2.212664 0.412871 4.648185 0.209527 -0.938742 4.558406 3.752866 -0.382039 4.246098 -4.955783 -1.937655 -4.935013 -2.898175 -1.557876 2.322905 1.120796 1.448741 0.042978 -4.480075 2.835004 -1.586514 -4.525118 0.597058 4.498538 2.238022 1.772879 3.112120 -4.742887 -4.731130 -0.967922 -1.221368 3.106249 3.616206
4.953954 -3.871089 -1.429860 3.605050 1.556578 -1.692450 1.419325 -2.487882 -2.155717 2.693623 1.553588 2.703810 3.607738 -3.019558 0.279393 -0.902542 0.159737 3.320531 -4.647047 -0.285716 -0.929316 -3.224096 2.118609 0.610570 3.650931 -3.383010 -1.783436 -2.419195 2.888699 4.268215 -4.838938 0.225434 3.848490 -3.449641 -1.771504 -1.496483 -4.941831 -1.782444 -3.873926 -4.121520 0.841460 4.477353 -2.317733 3.276828 4.521550 4.829305 -4.222844 -4.552978 -1.524846 0.178288 -1.596295 -1.319186 -4.883051 3.429918 1.764772 -4.520108 3.583181 -3.221887 1.495759 1.512060 -3.700518 -4.868788 -1.909935 1.123315 4.267879 1.525584 0.625422 2.628466 -2.281445 3.752866 -0.382039 -0.174304 -3.461427 -1.937655 -4.935013 -2.898175 -4.548851 0.715897 2.232746 1.448741 0.042978 -4.480075 4.544059 -1.586514 -3.106754 0.597058 4.498538 2.238022 1.772879 3.112120 -4.742887 -4.731130 -0.967922 -1.221368 3.106249 3.616206
-2.380518 -0.297965 -3.294530 3.605050 1.556578 0.644349 1.419325 -0.018774 -2.155717 1.272281 1.553588 1.802111 2.059758 -3.019558 0.279393 1.148951 0.159737 -0.286016 -4.647047 -0.285716 -4.064794 -3.224096 2.118609 1.383012 3.856228 -3.383010 -1.783436 -2.419195 4.044654 4.268215 -4.838938 0.225434 -2.909389 -3.449641 -1.771504 4.359711 -4.941831 -1.782444 4.037680 -4.121520 0.841460 4.477353 -2.317733 3.274617 4.521550 1.715064 -4.222844 -4.552978 -1.524846 3.493525 -3.114341 -1.319186 2.477604 3.429918 1.764772 -4.520108 0.743763 -3.221887 1.495759 -1.406499 -3.700518 -4.868788 -1.909935 2.212664 4.267879 1.525584 -4.345546 -0.938742 -2.281445 3.752866 -0.382039 -0.174304 -3.461427 -1.937655 -4.935013 -2.898175 -2.136378 -2.526498 -0.157191 -2.999376 -4.798309 -4.480075 -3.427938 -1.586514 -4.525118 0.597058 4.498538 2.238022 1.772879 3.112120 -4.742887 -4.731130 -0.967922 -1.221368 3.106249 3.616206
4.953954 1.856037 1.165646 3.605050 1.556578 1.826317 -0.715173 -2.487882 -2.155717 2.693623 1.553588 -0.744713 3.607738 -3.019558 0.279393 -4.067129 0.159737 3.320531 -4.647047 4.112472 -0.929316 -3.224096 2.118609 0.610570 3.650931 -3.383010 -1.783436 -2.419195 0.295572 4.268215 -4.838938 -2.049695 3.848490 -3.449641 0.522149 4.359711 -4.941831 -1.782444 -3.203375 -4.121520 0.841460 0.769267 -2.317733 3.274617 4.521550 4.829305 -4.222844 -4.552978 -1.524846 0.178288 -1.596295 -1.319186 -4.883051 3.429918 -3.791883 -4.520108 0.743763 -3.221887 1.495759 -1.406499 -3.700518 -4.868788 -1.909935 2.212664 4.267879 1.525584 -4.345546 -0.938742 -2.675219 3.752866 -0.382039 -0.174304 -3.461427 -1.937655 -4.935013 -2.898175 -2.136378 -2.526498 -0.157191 -2.999376 -4.798309 -4.480075 -3.427938 -1.586514 -4.525118 0.597058 4.498538 2.238022 1.772879 3.112120 -4.742887 -4.731130 -0.967922 -1.221368 3.106249 3.616206
4.953954 1.856037 -1.429860 3.605050 1.556578 -1.692450 1.419325 -2.487882 -2.155717 2.693623 1.553588 2.703810 3.607738 -3.019558 0.279393 -4.067129 0.159737 3.320531 -4.647047 -0.285716 -0.929316 -3.224096 2.118609 0.610570 3.650931 -3.383010 -1.783436 -2.419195 4.044654 4.268215 -4.838938 0.225434 3.848490 -3.449641 -1.771504 -1.496483 -4.941831 -1.782444 -3.873926 -4.121520 0.841460 4.477353 -2.317733 3.276828 4.521550 4.829305 -4.222844 -4.552978 -1.524846 0.178288 -1.596295 -1.319186 -4.883051 3.429918 1.764772 -4.520108 0.743763 -3.221887 1.495759 1.512060 -3.700518 -4.868788 -1.909935 1.123315 4.267879 1.525584 0.625422 2.628466 -2.281445 3.752866 -0.382039 -0.174304 -3.461427 -1.937655 -4.935013 -2.898175 -4.548851 0.715897 2.232746 1.448741 0.042978 -4.480075 4.544059 -1.586514 -3.106754 0.597058 4.498538 2.238022 1.772879 3.112120 -4.742887 -4.731130 -0.967922 -1.221368 3.106249 3.616206
4.953954 1.856037 -1.429860 3.605050 1.556578 -1.692450 1.419325 -2.487882 -2.155717 2.693623 1.553588 2.703810 3.607738 -3.019558 0.279393 -4.067129 0.159737 3.320531 -4.647047 -0.285716 -0.929316 -3.224096 2.118609 0.610570 3.650931 -3.383010 -1.783436 -2.419195 4.044654 4.268215 -4.838938 0.225434 3.848490 -3.449641 0.522149 4.359711 -4.941831 -1.782444 -3.203375 -4.121520 0.841460 0.769267 -2.317733 3.274617 4.521550 4.829305 -4.222844 -4.552978 -1.524846 4.670845 -1.596295 -1.319186 -2.253702 3.429918 1.764772 -4.520108 0.743763 -3.221887 1.495759 -1.406499 -3.700518 -4.968917 -1.909935 2.212664 4.267879 1.525584 -4.345546 -0.938742 -2.281445 3.752866 -0.382039 -0.174304 4.185402 -1.937655 -4.935013 -2.775058 2.341997 2.322905 2.232746 1.448741 0.042978 -4.480075 2.426634 -1.586514 -3.106754 0.597058 4.498538 2.238022 1.772879 3.112120 -4.742887 -4.731130 -0.967922 -1.221368 3.106249 3.616206
0.816187 -0.297965 -3.294530 3.605050 1.556578 0.644349 1.419325 2.113073 -2.155717 1.272281 1.553588 1.802111 2.059758 -3.019558 0.279393 1.148951 0.159737 -0.286016 -4.647047 -0.285716 -0.929316 -3.224096 2.118609 1.383012 3.856228 -3.383010 -1.783436 -2.419195 4.044654 4.268215 -4.838938 0.225434 -2.909389 -3.815962 -4.336410 4.359711 -4.941831 -1.782444 4.037680 -4.121520 0.841460 0.769267 -2.317733 3.274617 4.521550 1.715064 -4.222844 -4.552978 -1.524846 4.670845 -1.596295 -1.319186 -4.883051 3.429918 1.764772 -4.520108 0.743763 -3.221887 1.495759 -1.406499 -3.700518 -4.868788 -1.909935 2.212664 4.267879 1.525584 -4.345546 -0.938742 -2.281445 1.745787 -0.382039 4.246098 -4.955783 -1.937655 -4.935013 -2.898175 -1.557876 2.322905 2.232746 1.448741 0.042978 -4.480075 2.835004 -0.162351 -4.899634 0.597058 3.353855 2.238022 1.772879 -1.328604 -4.742887 2.202363 -0.967922 -0.589998 3.106249 3.616206
2.328517 1.856037 -1.429860 3.605050 1.556578 -1.692450 1.419325 -2.487882 -2.155717 2.693623 1.553588 2.703810 3.607738 -3.019558 0.279393 -4.067129 0.159737 3.320531 -4.647047 -0.285716 -0.929316 -3.224096 2.118609 0.610570 3.650931 -3.383010 -1.783436 -2.419195 4.044654 4.268215 -4.838938 0.225434 3.848490 -3.449641 0.522149 4.359711 -4.941831 -1.782444 4.037680 -2.174979 4.415261 3.994217 -2.317733 3.274617 4.521550 4.829305 -4.222844 -4.552978 -1.524846 4.670845 -1.596295 -1.319186 -4.883051 3.429918 1.764772 -4.520108 -2.408603 -3.221887 1.495759 -1.406499 -3.700518 -4.868788 -3.611883 2.212664 4.267879 1.525584 -4.345546 -0.938742 -2.281445 1.745787 -0.382039 -0.174304 -3.461427 -1.937655 -4.935013 -2.775058 2.341997 2.322905 2.232746 1.448741 0.042978 3.995042 2.426634 -1.586514 -3.106754 0.597058 3.353855 2.238022 1.772879 -2.656936 -4.742887 -4.731130 -0.967922 -1.221368 3.106249 3.616206
4.953954 1.856037 -1.429860 3.605050 1.556578 -1.692450 1.419325 -2.487882 -2.155717 2.693623 1.553588 -0.744713 3.607738 -3.019558 0.279393 -4.067129 0.159737 3.320531 -4.647047 -0.285716 -0.929316 -3.609363 2.118609 0.610570 3.650931 -3.383010 -1.783436 -2.419195 4.044654 4.268215 -4.838938 0.225434 3.848490 -3.449641 0.522149 4.359711 -4.941831 -1.782444 -3.203375 -4.121520 0.841460 0.769267 -2.317733 3.274617 4.521550 4.829305 -4.222844 -4.552978 -1.524846 0.178288 -1.596295 -1.319186 -4.883051 3.429918 1.764772 -4.520108 0.743763 -3.221887 1.495759 -1.406499 -3.700518 -4.868788 -1.909935 2.212664 4.267879 1.525584 -4.345546 -0.938742 -2.281445 3.752866 -0.382039 -0.174304 -3.461427 -1.937655 -4.935013 -2.898175 -2.136378 -2.526498 -0.157191 -2.999376 -4.798309 -4.480075 -3.427938 -1.586514 -4.525118 0.597058 4.498538 2.238022 1.772879 3.112120 -4.742887 -4.731130 -0.967922 -1.221368 3.106249 3.616206
4.953954 1.856037 -1.429860 3.605050 1.556578 -1.692450 1.419325 -2.487882 -2.155717 2.693623 1.553588 2.703810 3.607738 -3.019558 0.279393 -4.067129 0.159737 2.329635 -2.414301 -3.066509 1.531541 -3.224096 2.118609 0.610570 3.650931 -3.383010 -1.783436 -2.419195 4.044654 4.268215 -4.838938 0.225434 3.848490 -3.449641 0.522149 4.359711 -4.941831 -1.782444 -3.203375 -4.121520 0.841460 0.769267 -2.317733 3.274617 4.521550 4.829305 -4.222844 -4.552978 -1.524846 4.670845 -1.596295 3.308862 -4.883051 -2.686253 1.764772 -4.520108 0.743763 -3.221887 1.495759 -1.406499 -3.700518 -4.868788 -1.909935 2.212664 4.267879 1.525584 -4.345546 -0.938742 -2.281445 1.745787 -0.382039 4.246098 -3.461427 -1.937655 -4.935013 -2.775058 2.341997 2.322905 2.232746 1.448741 0.042978 -4.480075 2.426634 -1.586514 -3.106754 0.597058 3.353855 2.238022 1.772879 -2.656936 -4.742887 -4.731130 -0.967922 -1.221368 3.106249 3.616206
4.953954 1.856037 -1.429860 3.605050 1.556578 -1.692450 1.419325 -2.487882 -2.155717 2.693623 -3.843191 2.703810 3.607738 -3.019558 0.279393 -4.067129 0.159737 3.320531 -4.647047 -0.285716 -0.929316 -3.224096 2.118609 0.610570 3.650931 -3.383010 -1.783436 -2.419195 4.044654 4.268215 -4.838938 0.225434 3.848490 -3.449641 0.522149 4.359711 -4.941831 4.816329 -3.203375 -4.121520 0.841460 0.769267 -2.317733 3.274617 4.521550 4.829305 -4.222844 -4.552978 -1.524846 4.670845 -1.596295 -1.319186 -4.883051 3.429918 1.764772 -4.520108 0.743763 -3.221887 1.495759 -1.406499 1.607806 -4.868788 -1.909935 2.212664 4.267879 1.525584 -4.345546 -0.938742 -2.281445 1.745787 -0.382039 -0.174304 -3.461427 -1.937655 -4.935013 -2.775058 2.341997 2.322905 2.232746 1.448741 0.042978 -4.480075 2.426634 -1.586514 -3.106754 0.597058 3.353855 2.238022 1.772879 -2.656936 -4.742887 -4.731130 -0.967922 -1.221368 3.106249 3.616206
4.953954 1.856037 -1.429860 3.605050 1.556578 -1.692450 1.419325 -2.487882 -2.155717 2.693623 1.553588 2.703810 3.607738 -3.019558 0.279393 -4.067129 -4.221666 2.329635 -2.414301 -3.066509 1.531541 -3.224096 2.118609 0.610570 3.650931 -3.383010 -1.783436 -2.419195 4.044654 4.268215 -4.838938 0.225434 3.848490 -3.449641 0.522149 4.359711 -4.941831 -1.782444 -3.203375 -4.121520 0.841460 0.769267 -2.317733 3.274617 4.521550 4.829305 -4.222844 -4.552978 -1.524846 4.670845 -1.596295 3.308862 3.873881 3.429918 1.764772 -4.520108 0.743763 -3.221887 1.495759 -1.406499 -3.700518 -4.868788 -1.909935 1.123315 4.267879 1.525584 -4.345546 -0.938742 -2.281445 1.745787 -0.382039 -0.174304 -3.461427 -1.937655 -0.364819 -2.775058 2.341997 2.322905 2.232746 1.448741 0.042978 -4.480075 2.426634 -1.586514 -3.106754 0.597058 3.353855 2.238022 1.772879 0.357014 -4.742887 -4.731130 -0.967922 -1.221368 3.106249 3.616206
4.961546 -3.871089 -1.429860 3.605050 1.556578 -1.692450 1.419325 -2.487882 -2.155717 2.693623 1.553588 2.703810 3.607738 -3.019558 0.279393 -0.902542 0.159737 3.320531 -4.647047 -0.285716 -0.929316 -3.224096 2.118609 0.610570 3.650931 -3.383010 -1.783436 -2.419195 4.044654 4.268215 -4.838938 0.225434 3.848490 -3.449641 -1.771504 4.359711 -4.941831 -0.196450 -3.873926 -4.121520 0.841460 4.477353 -2.317733 3.274617 4.521550 4.829305 -4.222844 -4.552978 -1.524846 0.178288 4.111362 -0.575176 -4.883051 3.429918 1.764772 -4.520108 0.743763 -3.221887 1.495759 -1.406499 -3.700518 -4.868788 -1.909935 2.212664 1.026352 1.525584 0.625422 2.628466 -2.281445 3.752866 -0.382039 -0.174304 -3.461427 -1.937655 -4.935013 -2.898175 -2.136378 0.715897 0.327464 1.448741 -3.679405 -4.480075 2.835004 -1.503500 -3.106754 0.597058 3.353855 2.238022 1.772879 3.112120 -4.742887 -4.731130 -0.967922 -1.221368 3.106249 3.616206
-2.380518 -0.297965 -3.294530 3.605050 1.556578 -1.473069 1.419325 -3.150249 -2.155717 1.272281 3.375201 -3.986285 3.053465 1.327032 0.279393 4.558091 0.159737 2.329635 -2.414301 -3.066509 1.531541 -3.224096 2.118609 0.610570 2.365041 4.687631 -1.783436 -2.419195 4.044654 4.268215 -1.460432 0.225434 3.848490 -3.449641 -1.771504 4.359711 -4.941831 -1.782444 -3.203375 -4.121520 0.841460 0.769267 -2.317733 3.274617 4.521550 1.715064 -4.222844 -1.637002 -1.524846 3.493525 -3.114341 -1.319186 0.652750 1.936437 4.000948 -4.520108 2.345785 1.083332 1.495759 -1.406499 -1.773074 -4.868788 -1.909935 2.212664 4.267879 1.525584 -4.345546 -4.611072 -2.281445 1.745787 -0.382039 -0.174304 -3.461427 -1.937655 -4.935013 -2.775058 2.341997 2.322905 2.232746 1.448741 0.042978 -4.480075 2.426634 -1.586514 -3.106754 0.597058 3.353855 1.422712 1.772879 3.112120 -4.742887 -4.731130 -0.967922 -1.221368 3.106249 3.616206
