-2.380518 1.856037 -3.294530 3.605050 1.556578 -2.785884 1.419325 -0.018774 -2.155717 1.272281 1.553588 2.703810 3.053465 -3.019558 0.279393 4.558091 0.159737 2.329635 -4.647047 -0.285716 -0.929316 -3.224096 2.118609 0.610570 4.245879 -3.383010 -1.783436 -2.419195 4.044654 4.268215 -4.838938 0.225434 3.848490 -3.815962 -1.771504 4.359711 -4.941831 -1.782444 4.037680 -4.121520 0.841460 0.769267 -2.317733 3.274617 4.521550 4.829305 -1.218879 -4.552978 -1.524846 4.670845 -1.596295 -1.319186 0.974969 3.429918 1.764772 -4.520108 0.743763 -3.221887 1.495759 -1.406499 1.272574 -4.868788 -1.637382 2.212664 -1.271277 0.971685 0.209527 -0.938742 -1.594553 3.752866 -0.382039 4.246098 -3.461427 -1.937655 -4.935013 -3.576567 -2.136378 2.322905 2.232746 1.448741 -0.203449 -4.480075 -1.354466 -1.586514 -3.106754 0.597058 4.736920 2.238022 1.772879 3.112120 -4.742887 -4.731130 -0.967922 -1.221368 3.106249 3.616206
-2.380518 1.856037 -3.294530 3.605050 1.556578 -2.785884 4.070715 -0.018774 -2.155717 1.272281 1.553588 2.703810 3.053465 -3.019558 0.279393 4.558091 0.159737 2.329635 -4.647047 -0.285716 -0.929316 -3.224096 2.118609 0.610570 4.245879 -3.383010 -1.783436 -2.419195 4.044654 4.268215 -4.838938 0.225434 3.848490 -3.815962 -1.771504 4.359711 -4.941831 -1.782444 4.037680 -4.121520 0.841460 0.769267 -2.317733 3.274617 4.521550 4.829305 -1.218879 -4.552978 -1.524846 4.670845 -3.590816 -1.319186 -4.883051 3.429918 1.764772 -4.520108 0.743763 -3.221887 1.495759 -1.406499 1.272574 -4.868788 -1.637382 2.212664 -1.271277 4.648185 2.913726 2.628466 -1.594553 3.752866 -0.382039 -0.174304 -3.461427 -1.937655 -2.813218 -1.932537 -4.456377 0.298740 -4.619598 -0.478245 -3.679405 -0.178823 4.984697 0.817221 -2.682777 -4.969194 3.244012 2.922335 0.820152 0.706664 -3.221143 3.795691 -0.632300 -3.586077 3.184544 -3.226901
-2.380518 -0.297965 -3.294530 3.605050 1.556578 -2.785884 1.419325 -0.018774 -2.155717 1.272281 1.553588 -3.986285 3.053465 -4.833930 0.279393 4.558091 0.159737 2.329635 -2.414301 -3.066509 1.531541 -3.224096 2.118609 0.610570 4.245879 0.525322 -1.783436 -3.501594 4.044654 4.268215 -4.838938 0.225434 3.848490 -3.815962 -0.876057 4.359711 3.795774 -1.782444 4.037680 -4.121520 0.841460 0.769267 -2.317733 3.274617 2.523867 4.829305 -1.218879 -4.552978 -1.524846 4.670845 -3.590816 -1.319186 -4.883051 3.429918 1.764772 -4.520108 0.743763 -3.221887 1.495759 -1.406499 1.272574 -4.868788 -1.637382 2.212664 -1.271277 4.648185 2.913726 2.628466 -1.594553 3.752866 -0.382039 -0.174304 -3.461427 -1.937655 -2.813218 -1.932537 -4.456377 0.298740 -4.619598 -0.478245 -3.679405 -4.480075 -1.354466 -1.586514 -3.106754 0.597058 4.736920 2.238022 1.772879 3.112120 -4.742887 3.795691 -0.632300 -3.586077 3.184544 -3.226901
-2.421546 1.856037 -3.294530 3.605050 1.556578 -2.785884 1.419325 -0.018774 -2.445578 1.272281 1.553588 -3.986285 3.053465 -4.833930 0.279393 4.558091 0.159737 2.329635 -2.414301 -0.285716 1.531541 -3.224096 0.009523 0.610570 4.245879 0.525322 -1.783436 -2.419195 4.044654 4.268215 -4.838938 0.225434 3.848490 -3.815962 -0.876057 3.734927 -4.941831 -1.782444 4.037680 -4.121520 0.841460 0.769267 -2.317733 1.597088 4.521550 4.829305 -1.218879 -4.552978 -1.524846 4.670845 -1.596295 -1.319186 -4.883051 3.429918 1.764772 -4.520108 0.743763 -3.221887 1.495759 -1.406499 1.721964 -4.868788 0.246887 2.212664 -3.491588 1.525584 0.625422 2.628466 -1.594553 3.752866 -0.382039 -0.174304 -3.461427 -1.937655 3.702418 -2.775058 -2.136378 2.322905 2.232746 1.448741 -4.401920 -4.480075 -4.896809 -1.586514 -3.106754 -2.518882 4.736920 2.238022 1.772879 4.672559 -4.742887 -4.322769 -0.967922 -1.221368 3.106249 3.616206
-2.380518 -0.297965 -3.294530 3.605050 1.556578 -2.785884 1.419325 -0.018774 -2.155717 0.778166 1.553588 2.703810 3.053465 -3.019558 0.279393 4.558091 0.159737 4.193028 -2.414301 -0.285716 1.531541 -2.615602 2.118609 0.610570 4.245879 0.525322 -1.783436 -2.419195 0.834587 4.268215 -4.838938 0.225434 -4.161234 -3.815962 -1.771504 4.359711 -4.941831 -1.782444 4.037680 -4.121520 0.841460 0.769267 -2.317733 3.274617 4.521550 4.829305 -1.218879 -0.724677 -1.524846 4.670845 -1.596295 -1.319186 -4.883051 3.429918 1.764772 -4.520108 0.743763 -3.221887 1.495759 -1.406499 1.272574 -4.868788 -1.637382 2.212664 -1.271277 0.971685 2.913726 2.628466 1.696867 3.253030 -0.637906 -3.024302 -3.461427 -1.937655 -4.935013 1.002006 -2.136378 2.322905 2.232746 1.448741 0.293613 -4.480075 -1.354466 -1.586514 -3.106754 0.597058 4.736920 2.922335 0.820152 0.706664 -2.657305 -1.662617 -2.073003 -3.586077 3.106249 3.616206
-2.380518 -0.297965 -3.294530 3.605050 1.556578 -2.785884 1.419325 -0.018774 -2.155717 1.272281 1.553588 -3.986285 3.053465 -4.833930 0.279393 4.558091 0.159737 2.329635 -2.414301 -3.066509 1.531541 -3.224096 0.228874 0.610570 4.245879 0.525322 -1.783436 -3.501594 4.044654 4.268215 -4.838938 0.225434 3.848490 -3.815962 -0.876057 4.359711 -4.941831 -1.782444 4.037680 -4.121520 0.841460 0.769267 -2.317733 3.274617 4.521550 4.829305 -1.218879 -4.552978 -1.524846 4.670845 -3.590816 -1.319186 -4.883051 3.429918 1.764772 -4.520108 0.743763 -3.221887 1.495759 -1.406499 1.272574 -4.868788 -1.637382 2.212664 -1.271277 0.971685 2.913726 2.628466 1.696867 3.253030 -0.637906 -3.024302 -3.461427 -1.937655 1.775032 -2.775058 -2.136378 2.322905 2.232746 1.448741 0.293613 -4.480075 -1.354466 -1.586514 -3.106754 0.597058 4.736920 2.922335 0.820152 -2.047413 -4.890071 -4.820277 -0.632300 -4.771524 3.184544 -3.226901
-2.380518 -0.297965 -3.294530 3.605050 1.556578 -2.785884 1.419325 -0.018774 -2.155717 1.272281 -4.307531 2.703810 3.053465 -2.831916 0.279393 4.558091 0.159737 2.329635 -2.414301 -0.285716 1.531541 -3.224096 2.118609 0.610570 4.245879 0.525322 -1.783436 -2.419195 0.834587 4.268215 -4.838938 0.225434 -4.161234 -3.815962 -1.771504 4.359711 -4.941831 -1.782444 4.037680 -4.121520 0.841460 0.769267 -2.317733 3.274617 4.521550 4.829305 0.357083 -4.552978 -1.524846 4.670845 -1.596295 -1.319186 -4.883051 3.429918 1.764772 -4.520108 0.743763 -3.221887 1.495759 -1.406499 -0.664439 -4.868788 -1.637382 2.212664 -1.271277 4.648185 2.913726 2.628466 -1.594553 3.752866 -0.382039 -0.174304 -3.461427 -1.937655 -2.813218 -1.932537 -4.456377 0.298740 -4.619598 -0.478245 -3.679405 -4.480075 -1.354466 -1.586514 -3.106754 0.597058 4.736920 2.238022 1.772879 3.112120 -4.742887 -4.731130 -0.967922 -1.221368 3.106249 3.616206
-2.380518 -0.297965 -3.294530 3.605050 1.556578 0.956085 1.419325 -0.018774 -2.155717 1.272281 1.553588 2.703810 3.053465 -3.019558 0.279393 4.558091 0.159737 2.329635 -2.414301 -0.285716 1.531541 -3.224096 2.118609 -4.053665 4.245879 0.525322 -1.783436 -2.419195 4.044654 4.268215 -4.838938 0.225434 3.848490 -3.815962 -1.771504 4.359711 -4.941831 -1.782444 4.037680 -4.121520 0.841460 0.769267 -2.317733 3.274617 4.521550 4.829305 -1.218879 -4.552978 -1.524846 4.670845 -1.596295 -1.319186 0.974969 3.429918 1.764772 -4.520108 0.743763 -3.221887 1.495759 -1.406499 1.272574 -4.868788 -1.637382 2.212664 -1.271277 0.971685 0.209527 -0.938742 -1.594553 3.752866 -0.382039 4.246098 -3.461427 -1.937655 -4.935013 -2.775058 -2.136378 2.322905 2.232746 1.448741 -0.203449 -4.480075 -1.354466 -1.586514 -3.106754 0.597058 4.736920 2.238022 1.772879 3.112120 -4.742887 -4.731130 -0.967922 -1.221368 3.106249 3.616206
-2.380518 -0.297965 -3.294530 3.605050 1.556578 -2.785884 1.419325 -0.018774 -2.155717 0.778166 1.553588 2.703810 3.053465 -1.398374 0.279393 4.558091 0.159737 2.329635 0.240265 -0.285716 1.531541 -3.224096 2.118609 0.610570 4.245879 0.525322 -1.783436 -2.419195 0.834587 4.268215 -4.838938 0.225434 -4.161234 -3.815962 -1.771504 4.359711 -4.941831 -1.782444 4.037680 -4.121520 0.841460 0.769267 -2.317733 3.274617 4.521550 4.829305 -1.218879 -4.552978 -1.524846 4.670845 -1.596295 -1.319186 0.974969 3.429918 1.764772 -4.520108 0.743763 -3.221887 1.495759 -1.406499 1.272574 -4.868788 -1.637382 2.212664 -1.271277 0.971685 0.209527 -0.938742 -1.594553 3.752866 -0.382039 4.246098 -3.461427 -1.937655 -4.935013 -2.775058 -2.136378 2.322905 2.232746 1.448741 -0.203449 -4.480075 -1.354466 -1.586514 -3.106754 0.597058 4.736920 2.238022 1.772879 3.112120 -4.742887 -4.731130 -0.967922 -1.221368 3.106249 3.616206
-2.380518 -0.297965 -3.294530 3.605050 1.556578 -2.785884 1.419325 -0.018774 -2.155717 0.778166 1.553588 2.703810 3.053465 -3.019558 0.279393 4.558091 0.159737 2.329635 -2.414301 -0.285716 1.531541 -3.224096 2.118609 0.610570 4.245879 0.525322 -1.783436 -2.419195 4.044654 4.268215 -4.838938 0.225434 3.848490 -3.815962 -1.771504 4.359711 -4.941831 -1.782444 4.037680 -4.121520 0.841460 0.769267 -2.317733 3.274617 4.521550 4.829305 -1.218879 -4.552978 -1.524846 4.670845 -1.596295 -1.319186 -4.883051 3.429918 1.764772 -4.520108 0.743763 -3.221887 1.495759 -2.664030 2.986509 -4.868788 -1.637382 2.212664 -1.271277 0.971685 2.913726 2.628466 1.696867 3.253030 -0.637906 -3.024302 -3.461427 -1.937655 -4.935013 -2.775058 -2.136378 2.322905 2.232746 1.448741 0.293613 -4.480075 -1.354466 -1.586514 -3.106754 0.597058 -4.321999 2.922335 0.820152 0.706664 -4.890071 -1.662617 -2.073003 -3.586077 3.184544 -2.001840
-2.380518 -0.297965 -3.294530 3.605050 1.556578 -2.785884 1.419325 -0.018774 -2.155717 1.272281 -4.307531 2.703810 3.053465 -2.831916 0.279393 2.340292 0.159737 2.329635 -2.414301 -0.285716 1.531541 -3.224096 2.118609 0.610570 4.245879 0.525322 -1.783436 -2.419195 0.834587 4.268215 -4.838938 0.225434 -4.161234 -3.815962 -1.771504 4.359711 -4.941831 -1.782444 4.037680 -4.121520 0.841460 0.769267 -2.317733 3.274617 4.521550 4.829305 0.357083 -4.552978 -1.524846 4.670845 -1.596295 -1.319186 -4.883051 3.429918 1.764772 -4.520108 0.743763 -3.221887 1.495759 -1.406499 -0.664439 -4.542600 -1.637382 2.212664 -1.271277 0.971685 2.913726 -0.938742 1.696867 3.253030 -0.637906 -3.024302 -3.461427 -1.937655 -4.935013 -2.775058 -2.136378 2.322905 2.232746 1.448741 -4.401920 -4.480075 -4.896809 -1.586514 -3.106754 0.597058 4.736920 2.238022 1.772879 3.112120 -4.742887 -4.322769 -1.666518 -1.221368 3.106249 3.616206
-2.380518 -0.297965 -3.294530 3.605050 1.556578 -2.785884 1.419325 4.439744 -2.155717 1.272281 1.553588 2.703810 3.053465 -3.019558 0.279393 4.558091 0.159737 2.329635 -2.414301 -0.285716 1.531541 -3.224096 2.118609 -4.053665 4.245879 0.525322 -3.923413 -2.419195 -2.575903 4.268215 -4.838938 4.296686 3.848490 -3.815962 -0.876057 4.359711 -4.941831 -1.782444 4.037680 -4.121520 0.841460 0.769267 -2.317733 3.274617 4.521550 4.829305 -1.218879 -4.552978 -1.524846 4.670845 -1.596295 -1.319186 -0.913520 3.429918 1.764772 -0.451233 0.743763 -3.221887 1.495759 -1.406499 1.272574 -4.868788 -1.637382 2.212664 -1.271277 0.971685 2.913726 2.628466 -1.594553 3.752866 -0.382039 -0.174304 -3.461427 -1.937655 -2.813218 -1.932537 -4.456377 0.298740 -4.619598 -0.478245 -3.679405 -4.480075 -1.354466 -1.586514 -4.117691 0.597058 4.736920 2.238022 1.772879 3.112120 -4.742887 -4.731130 -0.967922 -1.221368 3.106249 3.616206
-2.380518 -0.297965 -3.294530 3.605050 1.556578 -2.785884 1.419325 -0.018774 -2.155717 1.272281 -4.938233 2.703810 -4.229193 -3.019558 0.279393 4.558091 0.159737 2.329635 -2.414301 -0.285716 1.531541 2.021403 2.118609 -4.053665 4.245879 0.525322 -1.783436 -2.419195 4.044654 4.268215 -4.838938 0.225434 3.848490 -3.815962 -1.771504 4.359711 -4.941831 -1.782444 4.037680 -4.121520 0.841460 0.769267 -2.317733 3.274617 4.521550 3.285777 -4.454574 -4.552978 -1.524846 4.670845 -1.596295 -0.720278 -4.883051 3.429918 0.378097 -4.520108 0.743763 -3.221887 1.495759 -1.406499 1.272574 -4.868788 -1.637382 2.212664 -1.271277 4.648185 2.913726 2.628466 -1.594553 3.752866 -0.382039 -0.174304 -3.916513 -1.937655 -2.813218 -1.932537 -4.456377 0.298740 -4.619598 -0.478245 -3.679405 -4.480075 -4.896809 -1.586514 -3.106754 0.597058 4.736920 2.238022 1.772879 3.112120 -4.742887 -4.731130 -0.967922 -1.221368 3.106249 3.616206
-2.380518 -0.297965 -3.294530 3.605050 1.556578 -2.785884 -1.662376 -1.800390 -2.155717 1.272281 1.553588 2.703810 3.053465 -3.019558 0.279393 4.558091 0.159737 2.329635 -2.414301 -0.285716 1.531541 -3.224096 2.118609 -4.053665 4.245879 0.525322 -3.923413 -2.419195 4.044654 4.268215 -4.838938 0.225434 1.420417 -3.815962 -0.876057 4.359711 -4.941831 -1.782444 4.037680 -4.121520 0.841460 0.769267 -2.317733 3.274617 4.521550 4.829305 -1.218879 -4.552978 -1.524846 4.670845 -1.596295 -1.319186 -4.883051 3.429918 1.764772 -0.182374 0.743763 -3.221887 1.495759 -1.406499 1.845067 -4.868788 0.246887 2.212664 4.267879 1.525584 0.625422 2.628466 -1.594553 3.752866 -0.382039 -0.174304 -3.461427 -1.937655 3.702418 -2.775058 -2.136378 4.271708 2.232746 1.448741 -4.401920 -4.480075 -4.896809 -1.586514 -3.106754 0.597058 3.353855 2.238022 1.772879 3.112120 -4.742887 -4.322769 -1.666518 -1.221368 3.106249 3.616206
-2.380518 -0.297965 -3.294530 3.605050 1.556578 -2.785884 1.419325 -0.018774 -2.155717 1.272281 1.553588 -3.986285 3.053465 -4.833930 0.279393 4.558091 0.159737 2.329635 -4.647047 -0.285716 -0.929316 -3.224096 2.118609 0.610570 4.245879 -3.383010 -1.783436 -2.419195 4.044654 4.268215 -4.838938 0.225434 3.848490 -3.815962 -1.771504 4.359711 -4.941831 -1.782444 4.037680 -4.121520 0.841460 0.769267 -2.317733 3.274617 4.521550 4.829305 -1.218879 -4.552978 -1.524846 4.670845 -1.596295 -1.319186 -4.883051 3.429918 1.764772 -0.182374 0.743763 -3.221887 1.495759 -1.406499 1.272574 -4.868788 -1.637382 2.212664 -1.271277 0.971685 2.913726 2.628466 -1.594553 3.752866 -0.382039 -0.174304 -3.461427 -1.937655 -2.813218 -1.932537 -4.456377 0.298740 -4.619598 -0.478245 -3.679405 -4.480075 -1.354466 -1.586514 -3.106754 0.597058 4.736920 2.238022 1.772879 3.112120 -4.742887 -4.731130 -0.967922 -1.221368 3.106249 3.616206
-2.380518 -0.297965 -3.294530 3.605050 1.556578 -2.785884 1.419325 -0.018774 -2.155717 1.272281 1.553588 -3.986285 3.053465 -4.833930 0.279393 4.558091 0.159737 2.329635 -3.334181 -3.066509 1.531541 -3.224096 2.118609 0.610570 4.245879 0.525322 -1.783436 -3.501594 4.044654 4.268215 -4.838938 0.225434 3.848490 -3.815962 -1.771504 4.359711 -4.941831 -1.782444 4.037680 -4.121520 0.841460 0.769267 -2.317733 3.274617 4.521550 4.829305 -1.218879 -4.552978 -1.524846 4.670845 -1.596295 -1.319186 -4.883051 3.429918 1.764772 -4.520108 0.743763 -3.221887 1.495759 -1.406499 1.272574 -4.868788 0.246887 2.212664 4.267879 1.525584 0.625422 2.628466 -1.594553 3.752866 -0.382039 -0.174304 -3.461427 -1.937655 3.702418 -2.775058 -2.136378 2.322905 2.232746 1.448741 -4.401920 -4.480075 -4.896809 -1.586514 -3.106754 0.597058 4.736920 2.922335 0.820152 0.706664 -4.890071 -1.662617 -0.632300 -3.586077 3.184544 1.554604
-0.980408 -0.297965 -3.294530 3.605050 1.556578 -2.785884 1.419325 -0.018774 -2.155717 1.272281 4.763019 2.703810 3.053465 -3.019558 0.279393 4.558091 0.159737 2.329635 -2.414301 -0.285716 3.457106 -3.224096 2.118609 0.610570 4.245879 0.525322 -1.783436 -2.419195 4.044654 4.268215 -4.838938 0.225434 -4.161234 -3.815962 -1.771504 4.359711 -4.941831 -1.782444 4.037680 -4.121520 0.841460 0.769267 -2.317733 3.274617 4.521550 -0.955600 -4.454574 -4.552978 -1.524846 4.670845 -1.596295 -0.720278 -4.883051 3.429918 1.764772 -4.520108 0.743763 -3.221887 1.495759 -1.406499 -1.112613 -4.868788 -1.637382 2.212664 -1.271277 4.648185 2.913726 2.628466 -1.594553 3.752866 -0.382039 -0.174304 -3.461427 -1.937655 -4.935013 -2.775058 -2.136378 2.322905 2.232746 1.448741 -0.203449 -4.480075 -1.354466 -1.586514 -3.106754 -4.969194 3.244012 1.897330 0.820152 0.706664 -3.221143 3.795691 -0.632300 -3.586077 3.184544 -3.226901
0.040735 -2.909283 -1.730709 3.035192 -3.323337 -3.551418 4.944721 -0.018774 -2.155717 1.272281 1.553588 2.703810 3.053465 -3.019558 0.279393 4.558091 0.159737 2.329635 -2.414301 1.718132 1.531541 -3.224096 0.470253 0.610570 4.245879 2.355401 -1.783436 -2.419195 0.834587 4.268215 -4.838938 0.225434 -4.161234 -3.815962 -1.771504 4.359711 -4.941831 -1.782444 4.037680 -4.121520 0.841460 0.769267 -2.317733 3.274617 4.521550 4.829305 -1.218879 -4.552978 -1.524846 4.670845 -1.596295 -1.319186 -4.883051 3.429918 1.764772 -4.520108 0.743763 -3.221887 1.495759 -1.406499 1.272574 -4.868788 -1.637382 2.212664 -1.271277 0.971685 0.209527 2.628466 -1.594553 3.752866 -0.382039 -0.174304 -3.461427 -1.937655 -4.935013 -2.775058 -2.136378 2.322905 2.232746 1.448741 -0.203449 -4.480075 -1.354466 -1.586514 -3.106754 0.597058 4.736920 2.238022 1.772879 3.112120 -4.742887 -4.731130 -2.140904 -1.221368 3.106249 3.616206
-2.380518 2.959142 -3.294530 3.605050 1.556578 -2.785884 1.419325 -0.018774 -2.155717 1.272281 1.553588 -3.986285 3.053465 -4.833930 4.030485 4.558091 0.159737 2.329635 -2.414301 4.404228 1.531541 -3.224096 2.118609 0.610570 4.245879 0.525322 -1.783436 -3.501594 4.044654 4.268215 -4.838938 0.225434 3.848490 -3.815962 -0.876057 4.359711 -4.941831 -1.782444 4.037680 -4.121520 0.841460 0.769267 -2.317733 3.274617 4.521550 4.829305 -1.218879 -4.552978 -1.524846 4.670845 -3.590816 -1.319186 -4.883051 3.429918 1.764772 -4.520108 0.743763 -3.221887 -4.102783 -1.406499 1.272574 -4.868788 -1.637382 2.212664 -1.271277 0.971685 2.913726 2.628466 -1.594553 3.752866 -0.382039 -0.174304 -2.454289 -1.937655 -4.935013 -2.775058 4.937413 2.322905 2.232746 1.448741 0.293613 -4.480075 -1.354466 -1.586514 -3.106754 0.597058 4.736920 2.922335 0.820152 0.706664 -4.890071 0.309393 -0.632300 -3.586077 3.106249 3.616206
-2.380518 1.856037 -3.294530 3.605050 1.556578 -2.785884 1.419325 -0.018774 -2.155717 1.272281 1.553588 2.703810 3.053465 -3.019558 0.279393 4.558091 0.159737 2.329635 -4.647047 -0.285716 -0.929316 -3.224096 2.118609 0.610570 4.245879 -3.383010 -1.783436 -2.419195 4.044654 4.268215 -4.838938 0.225434 3.848490 -3.815962 1.343523 4.359711 -4.941831 -1.782444 4.037680 -4.121520 0.841460 0.769267 -2.317733 3.274617 4.521550 4.829305 -1.218879 -4.552978 -0.398263 4.670845 -1.596295 -1.319186 -4.883051 3.429918 1.764772 -4.520108 0.743763 -3.221887 1.495759 -1.406499 1.272574 -4.137154 0.246887 2.212664 4.267879 1.525584 2.913726 2.628466 -1.594553 3.752866 -0.382039 -0.174304 -3.461427 -1.937655 -2.813218 -1.932537 -4.456377 0.298740 -4.619598 -0.478245 -3.679405 -4.480075 -1.354466 -1.586514 -3.106754 0.597058 3.691399 2.238022 1.772879 3.112120 -4.742887 -4.731130 -0.967922 -1.221368 3.106249 3.616206
-2.380518 -0.297965 -3.294530 3.605050 1.556578 -2.785884 1.419325 -0.018774 -2.155717 1.272281 1.553588 2.703810 3.053465 -3.019558 0.279393 4.558091 0.159737 2.329635 -2.414301 -0.285716 1.531541 -3.224096 2.118609 -4.053665 4.245879 0.525322 -1.783436 -2.419195 4.044654 4.268215 -4.838938 0.225434 3.848490 -3.815962 -1.771504 4.359711 -4.941831 -1.782444 4.037680 -4.121520 0.841460 0.769267 -2.317733 3.274617 4.521550 3.285777 -4.454574 -4.552978 -1.524846 4.670845 -1.596295 -0.720278 -4.883051 3.429918 1.764772 -4.520108 0.743763 -3.221887 1.495759 -1.406499 1.272574 -4.868788 -1.637382 2.212664 -1.271277 4.648185 2.913726 2.628466 -1.594553 3.752866 -0.382039 -0.174304 -3.461427 -1.937655 -2.813218 -1.932537 -4.456377 0.298740 -4.619598 -0.478245 -3.679405 -4.480075 -1.354466 -1.586514 -3.106754 0.597058 4.736920 2.238022 1.772879 3.112120 -4.742887 -4.731130 -0.967922 -1.221368 3.106249 3.616206
-2.380518 1.856037 -3.294530 3.605050 1.556578 -2.785884 1.419325 -0.018774 -2.155717 1.272281 1.553588 2.703810 3.053465 -3.019558 0.279393 4.558091 0.159737 2.329635 -4.647047 -0.285716 -0.929316 -3.224096 2.118609 0.610570 4.245879 1.557509 -1.783436 -2.419195 4.044654 4.268215 -4.838938 0.225434 3.848490 -3.815962 -1.771504 4.359711 -4.941831 -1.782444 4.037680 -4.121520 0.841460 0.769267 -2.317733 3.274617 4.521550 4.829305 -1.218879 -4.552978 -1.524846 4.670845 -1.596295 -1.319186 -4.883051 3.429918 -3.454073 -4.520108 0.743763 -3.221887 1.495759 -3.417798 -0.664439 -4.542600 -1.637382 2.212664 -1.271277 0.971685 0.209527 2.628466 -1.594553 3.752866 -0.382039 -0.174304 -3.461427 -1.937655 -4.935013 -2.775058 -2.136378 2.322905 2.232746 1.448741 -0.203449 -4.480075 -1.354466 -1.586514 -4.117691 0.597058 4.736920 2.238022 1.772879 3.112120 -4.742887 -4.731130 -0.967922 -1.221368 3.184544 -3.226901
-2.380518 1.856037 -3.294530 3.605050 1.556578 -2.785884 1.419325 -0.018774 -2.445578 1.272281 1.553588 -3.986285 3.053465 -4.833930 0.279393 4.558091 0.159737 2.329635 -2.414301 -0.285716 1.531541 -3.224096 -4.666363 0.610570 4.245879 0.525322 -1.783436 -2.419195 4.044654 4.268215 -4.838938 0.225434 3.848490 -3.815962 -0.876057 4.359711 -4.941831 -1.782444 4.037680 -4.121520 0.841460 0.769267 -2.317733 3.274617 4.521550 4.829305 -4.222844 -4.552978 -1.524846 4.670845 -1.596295 -1.319186 -4.883051 3.429918 1.764772 -4.520108 0.743763 1.083332 1.495759 -1.406499 1.272574 -4.868788 0.246887 2.212664 4.267879 1.525584 0.625422 2.628466 -1.594553 3.752866 -0.382039 -0.174304 -3.461427 -1.937655 3.702418 -2.775058 -2.136378 4.271708 2.232746 1.448741 -4.401920 -4.480075 -4.896809 -1.586514 -3.710207 0.597058 3.353855 2.238022 1.772879 3.112120 -4.742887 -4.322769 -1.666518 -1.221368 3.106249 3.616206
0.040735 -2.909283 -1.730709 -3.382512 -3.323337 -3.551418 4.944721 -0.018774 -2.155717 1.272281 1.553588 2.703810 3.053465 -3.019558 0.279393 4.558091 0.159737 2.329635 -2.414301 -0.285716 1.531541 -3.224096 0.470253 0.610570 2.963197 -3.383010 -1.783436 -2.419195 4.044654 4.268215 -4.838938 0.225434 3.848490 -3.815962 1.343523 4.359711 -4.941831 -1.782444 4.037680 -4.121520 0.841460 0.769267 -2.317733 3.274617 4.521550 4.829305 -1.218879 -4.552978 -0.398263 4.670845 -1.596295 -1.319186 -4.883051 3.429918 1.764772 -4.520108 0.743763 -3.221887 1.495759 -1.406499 1.272574 -4.868788 0.246887 2.212664 4.267879 1.525584 0.625422 2.628466 -1.594553 3.752866 -0.382039 -0.174304 -3.461427 -1.937655 3.702418 -2.775058 -2.136378 2.322905 2.232746 1.448741 -4.401920 -4.480075 -4.896809 -1.586514 -3.106754 -2.518882 4.736920 2.238022 1.772879 3.112120 -4.742887 -4.322769 -0.967922 -1.221368 3.106249 3.616206
-2.380518 -0.297965 -3.294530 3.605050 1.556578 -2.785884 1.419325 -0.018774 -2.155717 1.272281 1.553588 2.703810 3.053465 -3.019558 0.279393 4.558091 0.159737 2.329635 -2.414301 -0.285716 1.531541 -3.224096 2.118609 -4.053665 4.245879 0.525322 -1.783436 -2.419195 4.044654 4.268215 -4.838938 0.225434 3.848490 -3.815962 -1.771504 4.359711 -4.941831 -1.782444 4.037680 -4.121520 0.841460 0.769267 -2.317733 3.274617 4.521550 3.285777 -4.454574 -4.552978 -1.524846 4.670845 -1.596295 -0.720278 -4.883051 3.429918 1.764772 -4.520108 0.743763 -3.221887 1.495759 -1.406499 1.272574 -4.868788 -1.637382 2.212664 -1.271277 4.648185 2.913726 2.628466 -1.594553 3.752866 -0.382039 -0.174304 -3.461427 -1.937655 -2.813218 -1.932537 -4.456377 0.298740 -4.619598 -0.478245 -3.679405 -4.480075 -1.354466 -1.586514 -3.106754 0.597058 4.736920 2.238022 1.772879 3.112120 -4.742887 -4.731130 -0.967922 -1.221368 3.106249 3.616206
-2.380518 1.856037 -3.294530 3.605050 1.556578 -2.785884 1.419325 -0.018774 -2.445578 1.272281 1.553588 -3.986285 3.053465 -4.833930 0.279393 4.558091 0.159737 2.329635 -2.414301 -0.285716 1.531541 -3.224096 2.118609 0.610570 4.245879 0.525322 -1.783436 -2.419195 4.044654 4.268215 -4.838938 0.225434 3.848490 -3.815962 -0.876057 4.359711 -4.941831 -1.782444 4.037680 -4.121520 0.841460 0.769267 -2.317733 1.597088 4.521550 4.829305 -1.218879 -4.552978 -1.524846 4.670845 -1.596295 -1.319186 -4.883051 3.429918 4.751335 -4.520108 0.743763 -3.221887 1.495759 -1.406499 1.272574 -4.868788 -1.637382 2.212664 -1.271277 4.648185 2.913726 2.628466 -1.594553 3.752866 -0.382039 -0.174304 -3.461427 -1.937655 -2.813218 -1.932537 -4.456377 0.298740 -4.619598 -0.478245 -3.679405 -0.178823 4.984697 -3.385100 -2.682777 -4.969194 3.244012 2.922335 0.820152 0.706664 -0.466780 3.795691 -0.632300 -4.771524 -3.650258 -3.226901
-2.380518 -0.297965 -3.294530 3.605050 1.556578 -2.785884 1.419325 -0.018774 -2.155717 1.272281 1.553588 -3.986285 3.053465 -4.833930 0.279393 4.558091 0.159737 2.329635 -2.414301 -3.066509 1.531541 -3.224096 2.118609 0.610570 4.245879 0.525322 -1.783436 -3.501594 4.044654 4.268215 -4.838938 0.225434 3.848490 -3.815962 -0.876057 4.359711 -4.941831 -1.782444 4.875668 -4.121520 0.841460 0.769267 -2.317733 3.274617 4.521550 4.829305 -1.218879 -4.552978 -1.524846 4.670845 -3.590816 -1.319186 -4.883051 4.391244 1.764772 -4.520108 0.743763 -3.221887 1.495759 -1.406499 1.272574 -4.868788 -1.637382 2.212664 -1.271277 0.971685 0.209527 2.628466 -1.594553 3.752866 -0.382039 -0.174304 -3.461427 -1.937655 -4.935013 -2.775058 -2.136378 2.322905 2.232746 1.448741 -0.203449 -4.480075 -1.354466 -1.586514 -4.117691 0.597058 4.736920 2.238022 1.772879 3.112120 -4.742887 -4.731130 -0.967922 -1.221368 3.106249 3.616206
-2.380518 -0.297965 -3.294530 3.605050 1.556578 -2.785884 1.419325 -0.018774 -2.155717 1.272281 -4.307531 2.703810 3.053465 -2.831916 0.279393 4.558091 0.159737 2.329635 -2.414301 -0.285716 1.531541 -3.224096 2.118609 0.610570 4.245879 0.525322 -1.783436 -2.419195 0.834587 4.268215 -4.838938 0.225434 -4.161234 -3.815962 -1.771504 4.359711 -4.941831 -1.782444 4.037680 -4.121520 0.841460 0.769267 -2.317733 3.274617 4.521550 4.829305 0.357083 -4.552978 -1.524846 4.670845 -1.596295 -1.319186 -4.883051 3.429918 1.764772 -4.520108 0.743763 -3.221887 1.495759 -1.406499 -0.664439 -4.542600 -1.637382 2.212664 -1.271277 0.971685 2.913726 -0.938742 1.696867 3.253030 -0.637906 -3.024302 -3.461427 -1.937655 -4.935013 -2.775058 -2.136378 2.322905 2.232746 1.448741 -4.401920 -4.480075 -4.896809 -1.586514 -3.106754 0.597058 4.736920 2.238022 1.772879 3.112120 -4.742887 -1.662617 -2.073003 -3.586077 3.184544 -2.001840
-2.380518 -0.297965 -3.294530 3.605050 1.556578 -2.785884 1.419325 -0.018774 -2.155717 1.272281 1.553588 -3.986285 3.053465 -4.833930 0.279393 4.558091 0.159737 2.329635 -2.414301 -3.066509 1.531541 -3.224096 0.228874 0.610570 4.245879 0.525322 -1.783436 -3.501594 4.044654 4.268215 -4.838938 0.225434 3.848490 -3.815962 -0.876057 4.359711 -4.941831 -1.782444 4.037680 -4.121520 0.841460 0.769267 -2.317733 3.274617 4.521550 4.829305 -1.218879 -4.552978 -1.524846 4.670845 -3.590816 -1.319186 -4.883051 3.429918 1.764772 -4.520108 0.743763 -3.221887 1.495759 -1.406499 1.272574 -4.868788 -1.637382 2.212664 -1.271277 0.971685 2.913726 2.628466 1.696867 3.253030 -0.637906 -3.024302 -3.461427 -1.937655 1.775032 -2.775058 -2.136378 2.322905 2.232746 1.448741 0.293613 -4.480075 -1.354466 -1.586514 -3.106754 0.597058 4.736920 2.922335 0.820152 0.706664 -4.890071 3.795691 -0.632300 -3.586077 3.184544 -3.226901
-2.380518 -0.297965 -3.294530 3.605050 1.556578 -2.785884 1.419325 -0.018774 -2.155717 1.272281 1.553588 4.725077 3.053465 -3.019558 0.279393 4.558091 0.159737 2.329635 -2.414301 -0.285716 1.531541 -3.224096 2.118609 -4.053665 4.245879 0.525322 -1.783436 -3.501594 4.044654 4.268215 -4.838938 0.225434 3.848490 -3.815962 -0.876057 4.359711 -4.941831 -1.782444 4.037680 -4.121520 0.841460 0.769267 -2.317733 3.274617 4.521550 4.829305 -1.218879 -4.552978 -1.524846 4.670845 -3.590816 -1.319186 -4.883051 3.429918 1.764772 -4.520108 0.743763 -3.221887 1.495759 -1.406499 1.272574 -4.868788 -1.637382 2.212664 -1.271277 0.971685 2.913726 2.628466 -1.594553 3.752866 -0.382039 -0.174304 -3.461427 -1.937655 -2.813218 -1.932537 -4.456377 0.298740 -4.619598 -0.478245 -3.679405 -4.480075 -1.354466 -1.586514 -3.106754 -3.004842 4.736920 2.238022 1.772879 3.112120 -4.742887 -4.731130 -0.967922 -1.221368 3.106249 3.616206
-2.380518 -0.297965 -3.294530 3.605050 1.556578 -2.785884 1.419325 -0.018774 -2.155717 1.272281 1.553588 -3.986285 3.053465 -4.833930 -3.718910 4.558091 0.159737 2.329635 -2.414301 -3.066509 1.531541 -3.224096 2.118609 0.610570 4.245879 0.525322 -1.783436 -3.501594 4.044654 4.268215 -4.838938 0.225434 3.848490 -3.815962 -1.771504 4.296808 -4.941831 -1.782444 4.037680 -4.121520 0.841460 0.769267 -2.317733 3.274617 -2.677185 4.829305 -1.218879 -4.552978 -1.524846 4.670845 -1.596295 -1.319186 -4.883051 3.429918 1.764772 -4.520108 0.743763 -3.221887 1.495759 -1.406499 1.272574 -4.868788 -1.637382 2.212664 -1.271277 0.971685 2.913726 2.628466 -1.594553 3.752866 -0.382039 -2.501662 -3.461427 -1.937655 -4.079545 -2.775058 -2.136378 2.322905 2.232746 1.448741 -4.401920 -4.480075 -4.896809 -1.586514 -3.106754 0.597058 4.736920 2.238022 1.772879 3.112120 -4.890071 -4.820277 2.779297 -1.165875 -1.887615 2.388335
-2.380518 -0.297965 -3.294530 3.605050 1.556578 -2.785884 1.419325 -0.018774 -2.155717 0.778166 1.553588 2.703810 3.053465 -3.019558 0.279393 4.558091 0.159737 -1.148830 -2.414301 -0.285716 1.531541 -3.224096 2.118609 0.610570 4.245879 0.525322 -1.783436 -2.419195 0.834587 4.268215 -4.838938 0.225434 -4.161234 -3.815962 -1.771504 4.359711 -4.941831 -1.782444 4.037680 -4.121520 0.841460 0.769267 -2.317733 -1.793458 4.521550 4.829305 -1.218879 -4.552978 -1.524846 4.670845 -1.596295 -1.319186 -4.883051 3.429918 1.764772 -4.520108 0.743763 -3.221887 1.495759 -2.664030 1.272574 -4.868788 -1.637382 2.212664 -1.271277 0.971685 2.913726 2.628466 1.696867 3.253030 -0.637906 -3.024302 -3.461427 -1.937655 -4.935013 -2.775058 -2.136378 2.322905 2.232746 1.448741 0.293613 -4.480075 -1.354466 -1.586514 -3.106754 0.597058 4.736920 2.922335 0.820152 0.706664 -4.890071 -1.662617 -2.073003 -3.586077 3.184544 -2.001840
-2.380518 -0.297965 -3.294530 3.605050 1.556578 -2.785884 1.419325 -0.018774 -2.155717 1.272281 1.553588 -3.986285 3.053465 -4.833930 0.279393 4.558091 0.159737 2.329635 -2.414301 -3.066509 1.531541 -3.224096 2.118609 0.610570 4.245879 0.525322 -1.783436 -3.501594 4.044654 4.268215 -4.838938 0.225434 3.848490 -3.815962 -1.771504 4.359711 -4.941831 -1.782444 4.037680 -3.441193 0.841460 0.769267 -2.317733 3.274617 4.521550 4.829305 -1.218879 1.884679 -1.524846 4.670845 -1.596295 -1.319186 -4.883051 3.429918 1.764772 -4.520108 0.743763 -3.221887 1.495759 -1.406499 1.272574 -4.868788 0.246887 2.212664 4.267879 -2.195279 0.625422 2.628466 -1.594553 3.752866 -0.382039 -0.174304 -3.461427 -1.937655 3.702418 -1.932537 -4.456377 0.298740 -4.619598 -0.478245 -3.679405 -4.480075 -1.354466 -1.586514 -3.106754 0.597058 4.736920 2.238022 1.772879 3.112120 -4.742887 -4.731130 -0.967922 -1.221368 3.106249 3.616206
-2.380518 -0.297965 -3.294530 3.605050 1.556578 -2.785884 1.419325 -0.018774 -2.155717 1.272281 1.553588 1.442705 3.053465 4.997499 0.279393 4.558091 0.159737 2.329635 -4.647047 -0.285716 -0.929316 -3.224096 -2.598702 0.610570 4.245879 -3.383010 -1.783436 -2.419195 4.044654 4.268215 -4.838938 0.225434 3.848490 -3.815962 -1.771504 -0.748386 -4.941831 -1.782444 4.037680 -4.121520 0.841460 0.769267 -2.317733 3.274617 4.521550 4.829305 -1.218879 -4.552978 -1.524846 4.670845 -1.596295 -0.720278 -3.367905 3.429918 1.764772 0.032892 0.743763 -3.221887 1.495759 -1.406499 1.272574 -4.868788 -1.637382 2.212664 -1.271277 0.971685 2.913726 2.628466 -1.594553 3.752866 -0.382039 -0.174304 -3.461427 -1.937655 3.702418 -2.775058 -2.136378 2.322905 2.232746 1.448741 -4.401920 -4.480075 -4.896809 -1.586514 -3.106754 0.597058 4.736920 2.238022 1.772879 3.112120 -4.890071 -4.820277 2.779297 -1.165875 -1.887615 2.388335
-2.380518 -0.297965 -3.294530 3.605050 1.556578 -2.785884 1.419325 -0.018774 -2.155717 1.272281 1.553588 -3.986285 3.053465 -4.833930 0.279393 4.558091 0.159737 2.329635 -2.414301 -3.066509 1.531541 -3.224096 2.118609 0.610570 4.245879 0.525322 -1.783436 -3.501594 4.044654 4.268215 -4.838938 0.225434 3.848490 -3.815962 -1.771504 4.359711 -4.941831 -1.782444 4.037680 -4.121520 0.841460 0.769267 -2.317733 3.274617 4.521550 4.829305 -1.218879 -4.552978 -1.524846 4.670845 -3.590816 -1.319186 -4.883051 3.429918 1.764772 -4.520108 0.743763 -3.221887 1.495759 -1.406499 1.272574 -4.868788 -1.637382 2.212664 -1.271277 0.971685 2.913726 2.628466 -1.594553 3.752866 0.947300 -0.174304 -2.454289 -1.937655 -4.935013 -2.775058 4.937413 2.322905 2.232746 1.448741 0.293613 -4.480075 -1.354466 -1.586514 -3.106754 0.597058 4.736920 2.922335 0.820152 0.706664 -4.890071 0.309393 -0.632300 -3.586077 3.184544 1.554604
-2.380518 -0.297965 -3.294530 3.605050 1.556578 -2.785884 1.419325 -0.018774 -2.155717 1.272281 1.553588 -3.986285 0.471960 -4.833930 0.279393 4.558091 0.159737 2.670288 -2.414301 -3.066509 1.531541 -3.224096 2.118609 0.610570 4.245879 0.525322 -1.783436 -2.419195 4.044654 4.268215 -4.838938 0.225434 3.848490 -3.815962 -1.771504 4.359711 -4.941831 -1.782444 4.037680 -4.121520 0.841460 0.769267 -2.317733 3.274617 4.521550 3.285777 -4.454574 -4.552978 -1.524846 4.670845 -1.596295 -0.720278 -4.883051 3.429918 1.764772 -4.520108 0.743763 0.390784 1.495759 -1.406499 -0.982908 -4.868788 -1.637382 2.212664 -1.271277 4.648185 2.913726 2.628466 -1.594553 3.752866 4.274025 -0.174304 -3.461427 -1.937655 -2.813218 -1.932537 -4.456377 0.298740 -4.619598 -0.478245 -3.679405 -4.480075 -1.354466 -1.586514 -3.106754 0.597058 4.736920 2.238022 2.142638 3.112120 -4.742887 -4.731130 -0.967922 -1.221368 3.106249 3.616206
-2.380518 1.856037 -3.294530 3.605050 1.556578 -2.785884 1.419325 -0.018774 -2.445578 1.272281 1.553588 -3.986285 3.053465 -4.833930 0.279393 4.558091 0.159737 2.329635 -2.414301 -0.285716 1.531541 -3.224096 2.118609 0.610570 4.245879 0.525322 -1.783436 -2.419195 4.044654 4.268215 -4.838938 0.225434 3.848490 -3.815962 -0.876057 4.359711 -4.941831 -1.782444 4.037680 -4.121520 0.841460 4.289103 -2.317733 1.597088 4.521550 4.829305 -1.218879 -4.552978 -1.524846 4.670845 -1.596295 -1.319186 -4.280165 -0.007650 1.764772 -4.520108 0.743763 -3.221887 1.495759 -1.406499 1.272574 -4.868788 -1.637382 2.212664 -1.271277 4.648185 2.913726 2.628466 -1.594553 3.752866 -0.382039 -0.174304 -3.461427 -1.937655 3.702418 -2.775058 -2.136378 0.298740 -4.619598 -0.478245 -3.679405 -0.178823 4.984697 -3.385100 -2.682777 -4.969194 3.244012 2.922335 0.820152 0.706664 -3.221143 3.795691 -0.632300 -3.586077 3.184544 -3.226901
-2.380518 1.856037 -3.294530 3.605050 1.556578 -2.785884 1.419325 -0.018774 -2.155717 1.272281 1.553588 2.703810 3.053465 -3.019558 0.279393 4.558091 0.159737 2.329635 -4.647047 -0.285716 -0.929316 -3.224096 2.118609 0.610570 4.245879 0.525322 -1.783436 -3.501594 4.044654 4.268215 -4.838938 0.225434 3.848490 -3.815962 -0.876057 4.359711 -4.941831 -1.782444 4.037680 -4.121520 0.841460 0.769267 -2.317733 3.274617 4.521550 4.829305 -1.218879 -4.552978 1.793484 4.670845 -3.590816 -1.319186 -4.883051 3.429918 1.764772 -4.520108 0.743763 -3.221887 1.495759 -1.406499 1.272574 -4.868788 -1.637382 2.212664 -1.271277 0.971685 0.209527 2.628466 -1.594553 3.752866 -0.382039 -0.174304 -3.461427 -1.937655 -4.935013 -2.775058 -2.136378 2.322905 2.232746 1.448741 -0.203449 -4.480075 -1.354466 -1.586514 -4.117691 0.597058 0.146938 2.238022 1.772879 3.112120 -4.742887 -4.731130 -0.967922 -1.221368 3.106249 3.616206
-2.380518 -0.297965 -3.294530 3.605050 1.556578 -2.785884 1.419325 -0.018774 -2.155717 1.272281 1.553588 2.703810 3.053465 -3.019558 0.279393 4.558091 0.159737 2.329635 -2.414301 -0.285716 1.531541 -3.224096 2.118609 -4.053665 4.245879 0.525322 -1.783436 -2.419195 4.044654 4.268215 -4.838938 0.225434 3.848490 -3.815962 -1.771504 4.359711 -4.941831 -1.782444 4.037680 -4.121520 0.841460 0.769267 -2.317733 -1.816935 4.521550 3.285777 -4.454574 -4.552978 -1.524846 4.670845 -1.596295 -0.720278 -4.883051 3.429918 1.764772 -4.520108 0.743763 -3.221887 1.495759 -1.406499 1.272574 -4.868788 -1.637382 2.212664 -1.271277 4.648185 2.913726 2.628466 -1.594553 3.752866 -0.382039 -0.174304 -3.461427 -1.937655 -2.813218 -1.932537 -4.456377 0.298740 2.232746 1.448741 -0.203449 -4.480075 -1.354466 -1.586514 -3.106754 0.597058 4.736920 2.238022 1.772879 3.112120 -4.742887 -4.731130 -2.140904 -1.221368 3.106249 3.616206
-2.380518 2.959142 -3.294530 3.605050 1.556578 -2.785884 1.419325 -0.018774 -2.155717 1.272281 1.553588 2.703810 3.053465 -3.019558 0.279393 4.558091 0.159737 2.329635 -2.414301 -0.285716 1.531541 -3.224096 0.470253 0.610570 4.245879 2.355401 -1.783436 -2.419195 0.834587 4.268215 -4.838938 0.225434 -4.161234 -3.815962 -1.771504 4.359711 -4.941831 -1.782444 4.037680 -4.121520 0.841460 0.769267 -2.317733 3.274617 4.521550 4.829305 -1.218879 -4.552978 -1.524846 4.670845 -1.596295 -1.319186 -4.883051 3.429918 1.764772 -4.520108 0.743763 -3.221887 1.495759 -1.406499 1.272574 -4.868788 -1.637382 2.212664 -1.271277 0.971685 2.913726 2.628466 -1.594553 3.752866 -0.382039 -0.174304 -2.454289 -1.937655 -4.935013 -2.775058 4.937413 2.322905 2.232746 1.448741 0.293613 -4.480075 -1.354466 -1.586514 -3.106754 0.597058 4.736920 2.922335 0.820152 0.706664 -4.890071 0.309393 -0.632300 -3.586077 3.184544 -3.226901
-2.380518 -0.297965 -3.294530 3.605050 1.556578 -2.785884 1.419325 -0.018774 -2.155717 1.272281 1.553588 -3.986285 3.053465 -4.833930 0.279393 4.558091 0.159737 2.329635 -2.414301 -0.285716 1.531541 -3.224096 0.470253 0.610570 4.245879 2.355401 -1.783436 -2.419195 0.834587 4.268215 -4.838938 0.225434 -4.161234 -3.815962 -1.771504 4.359711 -4.154460 -1.782444 4.037680 -4.121520 0.841460 3.080331 -2.317733 3.274617 4.521550 4.829305 -1.218879 -4.552978 -1.524846 4.670845 -3.590816 -1.319186 -4.883051 3.429918 -2.100850 -4.520108 0.743763 -3.221887 1.495759 -1.406499 1.272574 -4.868788 -1.637382 2.212664 -1.271277 0.971685 2.913726 2.628466 1.696867 3.253030 -0.637906 -3.024302 -3.461427 -1.937655 1.775032 -2.775058 4.571259 2.322905 2.232746 1.448741 0.293613 -4.480075 -1.354466 -1.586514 -3.106754 0.597058 2.425053 2.922335 0.820152 0.706664 -4.890071 -4.820277 -0.632300 -4.771524 3.184544 -3.226901
-2.380518 -0.297965 -3.294530 3.605050 1.556578 -2.785884 1.419325 -0.018774 -2.155717 1.272281 1.553588 -3.986285 3.053465 -4.833930 0.279393 4.558091 0.159737 2.329635 -2.414301 -3.066509 1.531541 -3.224096 2.118609 0.610570 4.245879 0.525322 -1.783436 -3.501594 4.044654 4.268215 -4.838938 0.225434 3.848490 -3.815962 -1.771504 4.359711 -4.941831 -1.782444 4.037680 -4.121520 0.841460 0.769267 -2.317733 3.274617 4.521550 4.829305 -1.218879 -4.552978 -1.524846 4.670845 -1.596295 -1.319186 -4.883051 3.429918 1.764772 -4.520108 0.743763 -3.221887 1.495759 -1.406499 1.272574 -0.473454 0.246887 2.212664 4.267879 1.525584 0.625422 2.628466 -1.594553 3.752866 -0.382039 -0.174304 -3.461427 -1.937655 3.702418 -0.255928 -2.136378 2.322905 2.232746 1.448741 -4.401920 -4.480075 -4.896809 -1.586514 -3.106754 0.597058 4.736920 2.238022 1.772879 3.112120 -4.742887 -4.731130 -0.967922 -1.221368 3.106249 3.616206
-2.380518 -0.297965 -3.294530 3.605050 1.556578 -2.785884 1.419325 -0.018774 -2.155717 0.778166 1.553588 2.703810 3.053465 -3.019558 0.279393 4.558091 0.159737 2.329635 -2.414301 -0.285716 1.531541 -3.224096 2.118609 -4.053665 4.245879 0.525322 -1.783436 -2.419195 4.044654 4.268215 -4.838938 0.225434 3.848490 -3.815962 -1.771504 4.359711 -4.941831 -1.782444 4.037680 -4.121520 0.841460 0.769267 -2.317733 3.274617 4.521550 4.829305 -1.218879 -0.724677 -2.091508 4.670845 -1.596295 -1.319186 -4.883051 3.429918 1.764772 -4.520108 0.743763 -3.221887 1.495759 -2.664030 1.272574 -4.868788 -1.637382 2.212664 -1.271277 0.971685 2.913726 2.628466 1.696867 3.253030 -0.637906 -3.024302 -3.461427 -1.937655 -4.935013 1.002006 -2.136378 2.322905 2.874302 1.448741 0.293613 -4.480075 -1.354466 -1.586514 -3.106754 0.597058 4.736920 2.922335 0.820152 0.706664 -4.890071 -1.662617 -2.073003 -3.586077 3.106249 3.616206
0.040735 -2.909283 -1.730709 -3.382512 -3.323337 -3.551418 4.944721 -0.018774 -2.155717 1.272281 1.553588 0.125884 3.053465 -3.019558 -3.595069 4.558091 0.159737 2.329635 -2.414301 -0.285716 1.531541 -3.224096 0.470253 0.610570 4.245879 2.355401 -1.783436 -2.419195 0.834587 4.268215 -4.838938 0.225434 -4.161234 -3.815962 -1.771504 4.359711 -4.941831 -1.782444 4.037680 -4.121520 0.841460 0.769267 -2.317733 3.274617 4.521550 4.829305 0.506994 -4.552978 -1.524846 4.670845 -1.596295 -0.720278 -3.367905 3.429918 1.764772 0.032892 0.743763 -3.221887 1.495759 -1.406499 1.272574 -4.868788 -1.637382 2.212664 -1.271277 0.971685 2.913726 2.628466 -1.594553 3.752866 -0.382039 -0.174304 -3.461427 -1.937655 -4.935013 -2.775058 -2.136378 2.322905 2.232746 1.448741 -0.203449 -4.480075 -1.354466 -1.586514 -4.117691 0.597058 4.736920 2.238022 1.772879 3.112120 -4.742887 -4.731130 -0.967922 -1.221368 3.106249 3.616206
-2.380518 -0.297965 -3.294530 3.605050 1.556578 -2.785884 1.419325 4.509114 -2.155717 1.272281 -0.736593 1.442705 3.053465 -3.019558 0.279393 4.558091 0.159737 2.329635 -4.647047 -0.285716 -0.929316 -3.224096 -2.598702 0.610570 4.245879 -3.383010 -1.783436 -2.419195 4.044654 4.268215 -4.838938 0.225434 3.848490 -3.815962 -1.771504 -0.748386 -4.941831 -1.782444 4.037680 -4.121520 0.841460 0.769267 -2.317733 3.274617 4.521550 4.829305 -1.218879 -4.552978 -1.524846 4.670845 -1.596295 -1.319186 -4.883051 3.429918 1.764772 -4.520108 0.743763 -3.221887 1.495759 -1.406499 -0.664439 -4.542600 -1.637382 2.212664 -1.271277 0.971685 0.209527 2.628466 -1.594553 3.752866 -0.382039 -0.174304 -3.461427 -1.937655 3.702418 -2.775058 -2.136378 2.322905 2.232746 1.448741 -4.401920 -4.480075 -4.896809 -1.586514 -3.106754 0.597058 4.736920 2.238022 1.772879 3.112120 -4.742887 -4.731130 -1.666518 -1.221368 3.106249 3.616206
-2.380518 -0.297965 -3.294530 3.605050 1.556578 -2.785884 1.419325 -0.018774 -2.155717 1.272281 1.553588 -3.986285 3.053465 -4.833930 0.279393 4.558091 0.159737 2.329635 -2.414301 -3.066509 1.531541 -3.224096 0.228874 0.610570 4.245879 0.525322 -1.783436 -3.501594 4.044654 4.268215 -4.838938 0.225434 3.848490 -3.815962 -0.876057 4.359711 -4.941831 -1.782444 4.037680 -4.121520 0.841460 0.769267 -2.317733 3.274617 4.521550 4.829305 -1.218879 -4.552978 -1.524846 4.670845 -1.596295 -1.319186 -4.883051 1.569613 1.764772 -4.520108 0.743763 -3.221887 1.495759 -1.406499 -0.664439 -4.542600 -1.637382 2.212664 -1.271277 0.971685 2.913726 -0.938742 1.696867 3.253030 -0.637906 -3.024302 -3.461427 -1.937655 -4.935013 -2.775058 -2.136378 2.322905 2.232746 1.448741 -4.401920 -4.480075 -4.896809 -1.586514 -3.106754 0.597058 4.736920 2.238022 1.772879 3.112120 -4.742887 -4.820277 -0.632300 -4.771524 3.184544 -3.226901
-2.380518 1.856037 -3.294530 3.605050 1.556578 -2.785884 1.419325 -0.018774 -2.155717 1.272281 1.553588 2.703810 3.053465 -3.019558 0.279393 -0.902542 0.159737 2.329635 -4.647047 -0.285716 -0.929316 -3.224096 2.118609 0.610570 3.650931 -3.383010 -1.783436 -2.419195 4.044654 4.268215 -4.838938 0.225434 3.848490 -3.815962 -1.771504 4.359711 -4.941831 -1.782444 4.037680 -4.121520 0.841460 0.769267 -2.317733 3.274617 4.521550 4.829305 -4.222844 -4.552978 -1.524846 4.670845 -1.596295 -1.319186 -4.883051 3.429918 4.000948 -4.520108 0.743763 1.083332 1.495759 -1.406499 1.272574 -4.868788 0.246887 2.212664 4.267879 1.525584 0.625422 2.628466 -1.594553 3.752866 -0.382039 -0.174304 -3.461427 -1.937655 3.702418 -2.775058 -2.136378 4.271708 2.232746 1.448741 -4.798309 -4.480075 -4.896809 -1.586514 -4.525118 0.597058 3.353855 2.238022 1.772879 3.112120 -4.742887 -4.322769 -1.666518 -1.221368 3.106249 3.616206
-2.380518 1.856037 -3.294530 3.605050 1.556578 -2.785884 1.419325 -0.018774 -2.155717 1.272281 1.553588 2.703810 3.053465 -3.019558 0.279393 4.558091 0.159737 2.329635 -4.647047 -0.285716 -0.929316 -3.224096 2.118609 0.610570 4.245879 -3.383010 -1.783436 -2.419195 4.044654 4.268215 -4.838938 0.225434 3.848490 -3.815962 -1.771504 4.359711 -4.941831 -1.782444 4.037680 -4.121520 0.841460 0.769267 -2.317733 3.274617 4.521550 4.829305 -1.218879 -4.552978 -1.524846 4.670845 -1.596295 -1.319186 0.974969 3.429918 1.764772 -4.520108 0.743763 -3.221887 1.495759 -1.406499 1.272574 -4.868788 -1.637382 2.212664 -1.271277 0.971685 0.209527 -0.938742 -1.594553 3.752866 -0.382039 4.246098 -3.461427 -1.937655 -4.935013 -2.775058 -2.136378 2.322905 2.232746 -2.999376 -0.203449 -4.480075 -1.354466 -1.586514 -3.106754 0.597058 4.736920 2.238022 1.772879 3.112120 -4.742887 -4.731130 -0.967922 -1.221368 3.106249 3.616206
-2.380518 -0.297965 -3.294530 3.605050 1.556578 -2.785884 1.419325 -0.018774 -2.155717 1.272281 1.553588 -3.986285 3.053465 -4.833930 0.279393 4.558091 0.159737 2.329635 -2.414301 -3.066509 1.531541 -3.224096 2.118609 0.610570 4.245879 0.525322 -1.783436 -3.501594 4.044654 4.268215 -4.838938 0.225434 3.848490 -3.815962 -0.876057 4.359711 -4.941831 -1.782444 4.037680 -4.121520 0.841460 0.769267 -2.317733 3.274617 4.521550 4.829305 -1.218879 -4.552978 -1.524846 4.670845 -3.590816 -1.319186 -4.883051 3.429918 1.764772 -4.520108 0.743763 -3.221887 1.495759 -1.406499 1.272574 -4.868788 -1.637382 2.212664 -1.271277 4.648185 2.913726 2.628466 -1.594553 3.752866 -0.382039 -0.174304 -3.461427 -1.937655 -2.813218 -1.932537 -4.456377 0.298740 -4.619598 -0.478245 -3.679405 -0.178823 4.984697 0.817221 -2.682777 -4.969194 3.244012 2.922335 0.820152 0.706664 -3.221143 3.795691 -0.632300 -3.586077 3.184544 -3.226901
-2.380518 1.856037 -3.294530 3.605050 1.556578 -2.785884 1.419325 -0.018774 -2.155717 1.272281 1.553588 2.703810 3.053465 -3.019558 0.279393 4.558091 0.159737 2.329635 -4.647047 -0.285716 -0.929316 -3.224096 2.118609 0.610570 4.245879 -3.383010 -1.783436 -2.419195 4.044654 1.308830 -4.838938 0.225434 3.848490 -3.815962 1.343523 4.359711 -4.941831 -1.782444 4.037680 -1.825231 0.841460 0.769267 -2.317733 3.274617 4.521550 4.829305 -1.218879 -4.552978 -0.398263 4.670845 -1.596295 -1.319186 -4.883051 3.429918 1.764772 -4.520108 0.743763 -3.221887 1.495759 -1.406499 1.272574 -4.868788 0.246887 2.212664 4.267879 1.525584 0.625422 2.628466 -1.594553 3.752866 -0.382039 -0.174304 -3.461427 -1.937655 3.702418 -2.775058 -2.136378 0.437231 2.232746 1.448741 -4.401920 -4.480075 -4.896809 -1.586514 -3.106754 -2.518882 4.736920 2.238022 1.772879 3.112120 -4.742887 -4.322769 -0.967922 -1.221368 3.106249 3.616206
