2.896428246322715339e-01 -1.697584599057835320e-01 3.499654894738020161e+00 -2.651165466751606914e+00 4.182403990359279788e+00 4.167592327646314487e-01 1.266324248338023040e+00 3.480313105009928520e+00 -3.466484612304357782e+00 -9.792908777900146688e-01 -5.726042776474162821e-01 -3.484610626230341346e+00 3.306159830235444019e+00 2.528176173556281547e+00 1.174815588674103850e+00 -5.229519491646321683e-01 -6.198545839681104397e-01 -3.445155001379327508e+00 -3.411608489301042546e+00 -3.338203850410668139e-01 2.133402093188939475e+00 -1.884919819995374279e+00 3.028830394835734907e+00 -4.197869554773381751e+00 -3.251747370276525384e+00 -3.667816042997176229e+00 1.745132956933156620e+00 3.556637878451201829e+00 -3.708447778300252295e+00 4.906279407317072128e+00 1.995777079039430468e+00 1.790605273943891795e+00 -1.919714661653024734e-01 3.704234590128693938e+00 2.326094424626914403e+00 -4.858002818369242526e+00 -2.727987666010570855e+00 -1.553795684772918406e-01 -1.633117518287918735e+00 -2.159593439371381152e+00 4.102429693233721864e+00 -1.840147887628083012e+00 1.668626307454070812e+00 3.603149209121491836e+00 -2.598291841336775043e+00 -3.534665959098854948e+00 -2.175920125314789733e+00 3.848424459132804287e-02 -4.534876336989690060e+00 1.979398659444058239e+00 -2.237463464623252740e+00 3.341084604435891947e+00 -7.736266542439231841e-01 -2.115524000975828045e-01 -4.966557816893645061e+00 4.012461306397756999e+00 1.349076714489970463e+00 3.064216468064447696e+00 -8.833976189033396764e-01 3.351558711402219615e+00 -1.555232799349960615e+00 -3.214167906589905144e+00 -3.280132957796213500e+00 -1.186496597497406214e-01 -3.469828052826873233e-01 -5.137768986408399741e-01 -5.142659578535235809e-01 3.200884271076457566e+00 4.891279079591246415e-01 -2.365072456608277029e+00 -4.087922623112218545e+00 -4.194214692020982405e+00 -3.882974237917059313e+00 1.064149670126504965e+00 -4.934194471774546287e+00 -3.370874518289178390e+00 5.643707908309902876e-01 2.040049888555443225e+00 -4.459074158357282158e+00 1.452155453229604376e-01 -4.359371717891718845e+00 -2.468907166214417970e+00 -3.990006929169637395e+00 4.799971236430449650e+00 -2.115761649987587312e+00 -2.224479118760541496e+00 -6.832974558038369395e-01 3.845420353951388037e+00 -1.969501665409760793e+00 -3.775097980456737723e+00 3.482378875263007600e+00 3.769805448606520670e+00 3.619039079274013915e+00 2.248475632882295017e+00 1.211967259288338816e+00 -1.438101667266360462e+00
-3.626088080244556977e+00 2.424320861111145753e+00 1.788803325125336130e+00 -1.731072350816856620e+00 1.292798752821376240e+00 2.925230570483052794e+00 3.550398763898815702e+00 -3.068894692209760411e+00 -5.515017831638857615e-02 2.811638424406044834e+00 -1.881106717180784038e+00 -4.737252707869087587e+00 -1.555301673346884961e+00 3.239969842170063785e+00 1.174815588674103850e+00 -5.229519491646321683e-01 1.216217454504796791e+00 1.601871150004737565e+00 4.213104457611452247e+00 -3.338203850410668139e-01 2.133402093188939475e+00 -1.884919819995374279e+00 3.028830394835734907e+00 -4.197869554773381751e+00 4.830612385133093767e+00 4.062324638450199643e+00 3.253069074175131803e+00 -3.165214642023736147e+00 1.752696211037801710e+00 8.190123684607932830e-01 2.117382236673075013e+00 5.295616947449266476e-01 -3.417704330918499345e+00 -2.690610116723649803e+00 2.386894445117819785e+00 3.279566332990807354e+00 -2.727987666010570855e+00 -1.553795684772918406e-01 1.253984969453512122e-01 -7.578366546543673365e-01 4.102429693233721864e+00 2.765853979225726178e+00 1.668626307454070812e+00 3.603149209121491836e+00 -2.598291841336775043e+00 -3.534665959098854948e+00 -2.175920125314789733e+00 3.848424459132804287e-02 -4.534876336989690060e+00 1.979398659444058239e+00 -2.612244210015034263e+00 3.341084604435891947e+00 -7.736266542439231841e-01 2.450434896739067447e+00 -4.966557816893645061e+00 4.012461306397756999e+00 2.859125385259072338e+00 -2.676388419206459979e+00 4.778741350172273528e+00 -1.313070649205331009e+00 -1.555232799349960615e+00 -3.214167906589905144e+00 -3.280132957796213500e+00 -1.186496597497406214e-01 -3.469828052826873233e-01 -5.137768986408399741e-01 -5.142659578535235809e-01 3.200884271076457566e+00 4.891279079591246415e-01 -2.365072456608277029e+00 -4.087922623112218545e+00 -4.194214692020982405e+00 -3.882974237917059313e+00 1.064149670126504965e+00 -4.934194471774546287e+00 -3.370874518289178390e+00 5.643707908309902876e-01 2.040049888555443225e+00 -4.459074158357282158e+00 1.452155453229604376e-01 3.874843770831539302e+00 -2.468907166214417970e+00 -3.990006929169637395e+00 4.799971236430449650e+00 2.238526060417969532e+00 8.717065759096600530e-01 -6.832974558038369395e-01 3.845420353951388037e+00 -1.969501665409760793e+00 -3.775097980456737723e+00 3.482378875263007600e+00 3.769805448606520670e+00 3.619039079274013915e+00 2.248475632882295017e+00 1.211967259288338816e+00 -1.438101667266360462e+00
2.896428246322715339e-01 -1.697584599057835320e-01 3.499654894738020161e+00 -2.651165466751606914e+00 9.957074001216836834e-01 4.167592327646314487e-01 1.266324248338023040e+00 3.480313105009928520e+00 -3.466484612304357782e+00 -9.792908777900146688e-01 -2.822354107827433900e+00 -3.484610626230341346e+00 1.894214563251956029e+00 6.852956375802854438e-02 1.174815588674103850e+00 -5.229519491646321683e-01 -6.198545839681104397e-01 1.601871150004737565e+00 -3.411608489301042546e+00 -1.160571844600359892e+00 2.133402093188939475e+00 -1.884919819995374279e+00 3.894745460637697221e+00 -4.197869554773381751e+00 -3.251747370276525384e+00 -3.667816042997176229e+00 1.745132956933156620e+00 3.556637878451201829e+00 -3.708447778300252295e+00 4.906279407317072128e+00 1.995777079039430468e+00 2.957065542404954783e+00 -1.919714661653024734e-01 3.704234590128693938e+00 2.326094424626914403e+00 -4.858002818369242526e+00 -2.011578571146492855e+00 -1.553795684772918406e-01 -1.633117518287918735e+00 -2.159593439371381152e+00 4.102429693233721864e+00 2.765853979225726178e+00 1.668626307454070812e+00 3.603149209121491836e+00 -2.598291841336775043e+00 -3.534665959098854948e+00 -2.175920125314789733e+00 3.848424459132804287e-02 -2.122869585883977450e+00 1.979398659444058239e+00 -2.612244210015034263e+00 3.341084604435891947e+00 -7.736266542439231841e-01 2.450434896739067447e+00 -4.966557816893645061e+00 -2.397604723855902620e+00 1.349076714489970463e+00 -2.676388419206459979e+00 4.388136665221752608e+00 3.351558711402219615e+00 2.764670749634939639e+00 -3.214167906589905144e+00 -3.280132957796213500e+00 -1.186496597497406214e-01 -3.469828052826873233e-01 -5.137768986408399741e-01 2.409232831313158130e+00 -3.879354705191389030e-01 4.891279079591246415e-01 -2.365072456608277029e+00 -4.087922623112218545e+00 -4.194214692020982405e+00 -4.766156110688078762e+00 1.369207213416317792e+00 -4.934194471774546287e+00 -3.370874518289178390e+00 5.643707908309902876e-01 9.163322296054934313e-01 -3.656590295791617429e+00 1.452155453229604376e-01 -4.359371717891718845e+00 1.384723047033238785e+00 4.525697010027554867e+00 4.799971236430449650e+00 -1.409463314481744778e+00 8.717065759096600530e-01 -2.333008857483052090e+00 3.845420353951388037e+00 -1.969501665409760793e+00 -3.775097980456737723e+00 3.482378875263007600e+00 3.769805448606520670e+00 3.619039079274013915e+00 2.248475632882295017e+00 1.211967259288338816e+00 3.125044048861841617e+00
2.896428246322715339e-01 2.202120800617116458e+00 3.499654894738020161e+00 -2.651165466751606914e+00 4.182403990359279788e+00 2.177136804363469125e+00 1.266324248338023040e+00 -1.173069339477911477e+00 -3.466484612304357782e+00 -9.792908777900146688e-01 -1.569478702643962720e+00 -3.484610626230341346e+00 -2.492992931940761991e+00 6.852956375802854438e-02 1.174815588674103850e+00 -5.229519491646321683e-01 -6.198545839681104397e-01 1.601871150004737565e+00 4.213104457611452247e+00 -3.338203850410668139e-01 2.133402093188939475e+00 -1.884919819995374279e+00 3.028830394835734907e+00 -4.197869554773381751e+00 -3.251747370276525384e+00 3.826703612686277012e+00 1.745132956933156620e+00 3.556637878451201829e+00 -3.708447778300252295e+00 4.906279407317072128e+00 -2.238105008585905331e+00 -2.947682189918653606e+00 -1.919714661653024734e-01 3.704234590128693938e+00 2.326094424626914403e+00 -4.858002818369242526e+00 1.859442578837215088e+00 -1.553795684772918406e-01 -1.633117518287918735e+00 -2.159593439371381152e+00 4.102429693233721864e+00 2.765853979225726178e+00 3.396230087244367368e+00 3.609607654379225039e+00 -1.834944662326679854e+00 -3.534665959098854948e+00 -2.175920125314789733e+00 3.848424459132804287e-02 -4.534876336989690060e+00 -4.064216676546898555e+00 -2.612244210015034263e+00 3.341084604435891947e+00 -7.736266542439231841e-01 2.450434896739067447e+00 -4.966557816893645061e+00 -2.397604723855902620e+00 -3.983722436520462651e-01 -2.676388419206459979e+00 4.388136665221752608e+00 3.351558711402219615e+00 2.764670749634939639e+00 -3.214167906589905144e+00 -3.280132957796213500e+00 -1.186496597497406214e-01 -3.469828052826873233e-01 -5.137768986408399741e-01 2.409232831313158130e+00 -3.879354705191389030e-01 4.891279079591246415e-01 -2.365072456608277029e+00 -4.087922623112218545e+00 -4.194214692020982405e+00 -4.766156110688078762e+00 1.369207213416317792e+00 -4.934194471774546287e+00 -3.370874518289178390e+00 5.643707908309902876e-01 9.163322296054934313e-01 -3.656590295791617429e+00 1.452155453229604376e-01 -4.359371717891718845e+00 1.384723047033238785e+00 4.525697010027554867e+00 4.799971236430449650e+00 -1.409463314481744778e+00 8.717065759096600530e-01 -2.333008857483052090e+00 3.845420353951388037e+00 -2.187372337539831513e+00 -3.775097980456737723e+00 3.482378875263007600e+00 3.769805448606520670e+00 3.619039079274013915e+00 2.248475632882295017e+00 1.625695447128986615e+00 2.260396229681651548e-01
2.896428246322715339e-01 -1.697584599057835320e-01 3.499654894738020161e+00 -2.651165466751606914e+00 4.182403990359279788e+00 4.167592327646314487e-01 -1.117310295982976154e+00 3.480313105009928520e+00 -3.466484612304357782e+00 -9.792908777900146688e-01 -5.726042776474162821e-01 -3.484610626230341346e+00 2.291936179266214957e+00 6.852956375802854438e-02 1.174815588674103850e+00 -5.229519491646321683e-01 -6.198545839681104397e-01 1.601871150004737565e+00 -3.411608489301042546e+00 -3.338203850410668139e-01 2.133402093188939475e+00 -1.884919819995374279e+00 -3.652608903077240399e+00 -4.197869554773381751e+00 -3.251747370276525384e+00 -3.667816042997176229e+00 1.745132956933156620e+00 -4.467392203465289313e+00 -3.708447778300252295e+00 4.906279407317072128e+00 1.995777079039430468e+00 2.211872864533556360e+00 -1.919714661653024734e-01 3.704234590128693938e+00 2.326094424626914403e+00 -4.858002818369242526e+00 -2.727987666010570855e+00 -1.553795684772918406e-01 -1.633117518287918735e+00 -2.159593439371381152e+00 4.102429693233721864e+00 -1.840147887628083012e+00 1.668626307454070812e+00 3.603149209121491836e+00 -2.598291841336775043e+00 -3.534665959098854948e+00 -2.175920125314789733e+00 3.848424459132804287e-02 -4.534876336989690060e+00 1.979398659444058239e+00 -2.612244210015034263e+00 3.341084604435891947e+00 -7.736266542439231841e-01 2.450434896739067447e+00 -4.966557816893645061e+00 4.012461306397756999e+00 2.859125385259072338e+00 -2.676388419206459979e+00 4.235855000435190476e+00 3.351558711402219615e+00 -1.555232799349960615e+00 4.591710884995572783e+00 -3.262046668418789874e+00 -1.186496597497406214e-01 -3.469828052826873233e-01 -5.137768986408399741e-01 -5.142659578535235809e-01 3.200884271076457566e+00 4.891279079591246415e-01 -9.994627919351994905e-02 8.363582535190872136e-01 -2.864787075729760879e+00 -3.882974237917059313e+00 1.369207213416317792e+00 -3.017134658023232774e+00 -3.370874518289178390e+00 5.643707908309902876e-01 2.040049888555443225e+00 -4.459074158357282158e+00 5.950882203273719639e-01 -4.359371717891718845e+00 -2.468907166214417970e+00 -3.990006929169637395e+00 4.799971236430449650e+00 -1.409463314481744778e+00 8.717065759096600530e-01 -2.333008857483052090e+00 3.845420353951388037e+00 -1.969501665409760793e+00 -3.775097980456737723e+00 3.482378875263007600e+00 3.769805448606520670e+00 3.619039079274013915e+00 2.248475632882295017e+00 1.211967259288338816e+00 3.125044048861841617e+00
2.896428246322715339e-01 -1.697584599057835320e-01 3.499654894738020161e+00 -2.651165466751606914e+00 4.182403990359279788e+00 4.167592327646314487e-01 1.266324248338023040e+00 3.480313105009928520e+00 -3.466484612304357782e+00 -9.792908777900146688e-01 -5.726042776474162821e-01 -3.484610626230341346e+00 -2.492992931940761991e+00 6.852956375802854438e-02 1.174815588674103850e+00 -5.229519491646321683e-01 -6.198545839681104397e-01 -3.445155001379327508e+00 -3.411608489301042546e+00 -3.338203850410668139e-01 2.133402093188939475e+00 -1.884919819995374279e+00 3.028830394835734907e+00 -4.197869554773381751e+00 -3.251747370276525384e+00 -3.667816042997176229e+00 1.745132956933156620e+00 3.556637878451201829e+00 -3.708447778300252295e+00 4.906279407317072128e+00 1.995777079039430468e+00 1.790605273943891795e+00 -1.919714661653024734e-01 3.704234590128693938e+00 2.326094424626914403e+00 -4.858002818369242526e+00 -2.727987666010570855e+00 -1.553795684772918406e-01 -1.633117518287918735e+00 -2.159593439371381152e+00 4.102429693233721864e+00 -1.840147887628083012e+00 1.668626307454070812e+00 3.603149209121491836e+00 -2.598291841336775043e+00 -3.534665959098854948e+00 -2.175920125314789733e+00 3.848424459132804287e-02 -4.534876336989690060e+00 1.979398659444058239e+00 -2.237463464623252740e+00 3.341084604435891947e+00 -7.736266542439231841e-01 2.450434896739067447e+00 -4.966557816893645061e+00 4.012461306397756999e+00 2.859125385259072338e+00 -2.676388419206459979e+00 4.778741350172273528e+00 3.351558711402219615e+00 -1.555232799349960615e+00 -3.214167906589905144e+00 -3.280132957796213500e+00 -1.186496597497406214e-01 -3.469828052826873233e-01 -5.137768986408399741e-01 -5.142659578535235809e-01 3.200884271076457566e+00 4.891279079591246415e-01 -2.365072456608277029e+00 -4.087922623112218545e+00 -4.194214692020982405e+00 -3.882974237917059313e+00 1.064149670126504965e+00 -4.934194471774546287e+00 -3.370874518289178390e+00 5.643707908309902876e-01 2.040049888555443225e+00 -2.047272329733316187e+00 1.452155453229604376e-01 -3.129739340122662306e+00 1.384723047033238785e+00 -3.990006929169637395e+00 4.799971236430449650e+00 3.116787870082308842e+00 8.717065759096600530e-01 -2.333008857483052090e+00 3.845420353951388037e+00 -1.969501665409760793e+00 -3.775097980456737723e+00 3.482378875263007600e+00 3.769805448606520670e+00 3.619039079274013915e+00 2.248475632882295017e+00 1.211967259288338816e+00 3.125044048861841617e+00
2.896428246322715339e-01 -1.697584599057835320e-01 3.499654894738020161e+00 -4.527733252513280959e+00 4.182403990359279788e+00 4.167592327646314487e-01 1.266324248338023040e+00 3.480313105009928520e+00 -3.466484612304357782e+00 -9.792908777900146688e-01 -5.726042776474162821e-01 6.081522987226914978e-01 -2.492992931940761991e+00 6.852956375802854438e-02 1.174815588674103850e+00 -5.229519491646321683e-01 -6.198545839681104397e-01 1.601871150004737565e+00 -3.435852085552333346e+00 7.343993279010714303e-01 -3.748180396996902974e+00 -1.884919819995374279e+00 3.028830394835734907e+00 -4.197869554773381751e+00 -3.251747370276525384e+00 3.837386846795132200e+00 1.745132956933156620e+00 3.556637878451201829e+00 -3.979736441439909456e+00 -1.247489274717736851e+00 1.864014706077000483e+00 3.674430446634310954e+00 1.406804004912260098e+00 3.704234590128693938e+00 2.326094424626914403e+00 -4.858002818369242526e+00 -2.727987666010570855e+00 -1.553795684772918406e-01 -1.633117518287918735e+00 -2.159593439371381152e+00 1.612839201453525106e+00 2.765853979225726178e+00 1.668626307454070812e+00 3.603149209121491836e+00 -4.934988934288140783e+00 -3.534665959098854948e+00 -2.175920125314789733e+00 3.848424459132804287e-02 -4.534876336989690060e+00 1.979398659444058239e+00 1.255979491647995161e+00 3.341084604435891947e+00 -7.736266542439231841e-01 2.450434896739067447e+00 -4.966557816893645061e+00 4.012461306397756999e+00 2.859125385259072338e+00 -2.676388419206459979e+00 4.778741350172273528e+00 3.351558711402219615e+00 2.764670749634939639e+00 -3.214167906589905144e+00 -3.280132957796213500e+00 -2.008232043627078411e+00 -3.469828052826873233e-01 -5.137768986408399741e-01 4.815913643838559466e+00 3.200884271076457566e+00 4.891279079591246415e-01 4.511818371456485011e+00 -4.087922623112218545e+00 -4.194214692020982405e+00 -3.882974237917059313e+00 1.064149670126504965e+00 -4.934194471774546287e+00 -3.370874518289178390e+00 5.643707908309902876e-01 2.040049888555443225e+00 -2.047272329733316187e+00 1.452155453229604376e-01 -3.129739340122662306e+00 1.384723047033238785e+00 -3.990006929169637395e+00 4.799971236430449650e+00 3.116787870082308842e+00 8.717065759096600530e-01 -2.333008857483052090e+00 3.845420353951388037e+00 -1.969501665409760793e+00 -3.775097980456737723e+00 3.482378875263007600e+00 3.769805448606520670e+00 3.619039079274013915e+00 2.248475632882295017e+00 1.211967259288338816e+00 3.125044048861841617e+00
2.896428246322715339e-01 2.202120800617116458e+00 3.499654894738020161e+00 -2.651165466751606914e+00 4.182403990359279788e+00 4.167592327646314487e-01 -6.183142775335772612e-01 3.480313105009928520e+00 -3.466484612304357782e+00 3.815856704159328316e+00 -1.569478702643962720e+00 -3.484610626230341346e+00 -2.492992931940761991e+00 6.852956375802854438e-02 1.174815588674103850e+00 -5.229519491646321683e-01 -6.198545839681104397e-01 1.601871150004737565e+00 4.213104457611452247e+00 -3.338203850410668139e-01 2.133402093188939475e+00 -1.884919819995374279e+00 3.028830394835734907e+00 -1.754774412918549409e+00 -3.251747370276525384e+00 3.826703612686277012e+00 1.745132956933156620e+00 3.556637878451201829e+00 -3.708447778300252295e+00 4.906279407317072128e+00 -2.238105008585905331e+00 2.748663816125560544e+00 -1.919714661653024734e-01 3.704234590128693938e+00 2.326094424626914403e+00 -4.858002818369242526e+00 1.859442578837215088e+00 -1.553795684772918406e-01 -1.633117518287918735e+00 -2.159593439371381152e+00 4.102429693233721864e+00 2.765853979225726178e+00 3.396230087244367368e+00 3.609607654379225039e+00 -1.834944662326679854e+00 -4.007139335569176453e+00 -2.175920125314789733e+00 3.848424459132804287e-02 -4.534876336989690060e+00 1.979398659444058239e+00 -2.612244210015034263e+00 3.341084604435891947e+00 -7.736266542439231841e-01 2.450434896739067447e+00 -4.966557816893645061e+00 4.012461306397756999e+00 2.859125385259072338e+00 -2.676388419206459979e+00 4.778741350172273528e+00 2.418533462515020993e+00 2.764670749634939639e+00 -3.214167906589905144e+00 -3.280132957796213500e+00 -1.186496597497406214e-01 -3.469828052826873233e-01 -5.137768986408399741e-01 -5.142659578535235809e-01 3.200884271076457566e+00 4.891279079591246415e-01 2.277748335854486328e+00 -4.087922623112218545e+00 -4.194214692020982405e+00 -3.882974237917059313e+00 2.469331730607388309e+00 -4.934194471774546287e+00 -3.370874518289178390e+00 5.643707908309902876e-01 2.040049888555443225e+00 -4.459074158357282158e+00 1.452155453229604376e-01 -4.359371717891718845e+00 -2.468907166214417970e+00 -3.990006929169637395e+00 4.799971236430449650e+00 -1.409463314481744778e+00 8.717065759096600530e-01 -2.333008857483052090e+00 3.845420353951388037e+00 -1.969501665409760793e+00 -3.775097980456737723e+00 3.482378875263007600e+00 3.769805448606520670e+00 3.619039079274013915e+00 2.964000532219934314e+00 1.625695447128986615e+00 2.260396229681651548e-01
1.216946800995193811e+00 2.424320861111145753e+00 1.788803325125336130e+00 -1.731072350816856620e+00 1.292798752821376240e+00 2.925230570483052794e+00 3.550398763898815702e+00 -8.987012298295606882e-01 -5.515017831638857615e-02 2.811638424406044834e+00 -1.881106717180784038e+00 -4.737252707869087587e+00 -1.555301673346884961e+00 3.239969842170063785e+00 1.174815588674103850e+00 -5.229519491646321683e-01 1.216217454504796791e+00 1.601871150004737565e+00 4.213104457611452247e+00 -3.338203850410668139e-01 2.133402093188939475e+00 -1.884919819995374279e+00 3.028830394835734907e+00 -4.197869554773381751e+00 4.830612385133093767e+00 4.062324638450199643e+00 3.253069074175131803e+00 -3.165214642023736147e+00 1.752696211037801710e+00 8.190123684607932830e-01 2.117382236673075013e+00 5.295616947449266476e-01 -3.417704330918499345e+00 -2.690610116723649803e+00 2.386894445117819785e+00 3.279566332990807354e+00 -2.727987666010570855e+00 -1.553795684772918406e-01 -1.633117518287918735e+00 -7.578366546543673365e-01 4.102429693233721864e+00 2.765853979225726178e+00 1.668626307454070812e+00 3.603149209121491836e+00 -2.598291841336775043e+00 -3.534665959098854948e+00 -2.175920125314789733e+00 3.848424459132804287e-02 -4.534876336989690060e+00 1.979398659444058239e+00 -2.612244210015034263e+00 3.341084604435891947e+00 -7.736266542439231841e-01 2.450434896739067447e+00 -4.966557816893645061e+00 4.012461306397756999e+00 2.859125385259072338e+00 -2.676388419206459979e+00 4.778741350172273528e+00 -1.313070649205331009e+00 -1.555232799349960615e+00 -3.214167906589905144e+00 -3.280132957796213500e+00 -1.186496597497406214e-01 -3.469828052826873233e-01 -5.137768986408399741e-01 -5.142659578535235809e-01 3.200884271076457566e+00 4.891279079591246415e-01 -2.365072456608277029e+00 -4.087922623112218545e+00 -4.194214692020982405e+00 -3.882974237917059313e+00 1.064149670126504965e+00 -4.934194471774546287e+00 -3.370874518289178390e+00 5.643707908309902876e-01 2.040049888555443225e+00 -4.459074158357282158e+00 1.452155453229604376e-01 -4.359371717891718845e+00 -2.468907166214417970e+00 -3.990006929169637395e+00 4.799971236430449650e+00 2.238526060417969532e+00 8.717065759096600530e-01 -6.832974558038369395e-01 3.845420353951388037e+00 -1.969501665409760793e+00 -3.775097980456737723e+00 3.482378875263007600e+00 3.769805448606520670e+00 3.619039079274013915e+00 2.248475632882295017e+00 1.211967259288338816e+00 3.125044048861841617e+00
1.216946800995193811e+00 2.424320861111145753e+00 1.788803325125336130e+00 -1.731072350816856620e+00 4.182403990359279788e+00 4.167592327646314487e-01 1.266324248338023040e+00 3.480313105009928520e+00 -3.466484612304357782e+00 -9.792908777900146688e-01 -5.726042776474162821e-01 -3.484610626230341346e+00 1.894214563251956029e+00 6.852956375802854438e-02 1.174815588674103850e+00 -5.229519491646321683e-01 2.403427666909307092e+00 1.601871150004737565e+00 -3.411608489301042546e+00 -3.338203850410668139e-01 2.133402093188939475e+00 -1.884919819995374279e+00 3.028830394835734907e+00 4.693949014892604410e-01 -3.251747370276525384e+00 -6.670861934237457547e-01 -5.024235244555352864e-01 3.556637878451201829e+00 -3.708447778300252295e+00 4.906279407317072128e+00 1.995777079039430468e+00 3.674430446634310954e+00 -1.919714661653024734e-01 3.704234590128693938e+00 2.326094424626914403e+00 -4.858002818369242526e+00 -2.727987666010570855e+00 -1.553795684772918406e-01 -1.633117518287918735e+00 -2.159593439371381152e+00 4.102429693233721864e+00 2.765853979225726178e+00 1.668626307454070812e+00 3.603149209121491836e+00 -2.598291841336775043e+00 -3.534665959098854948e+00 -2.175920125314789733e+00 -2.576507115231552181e+00 -4.534876336989690060e+00 1.979398659444058239e+00 -2.612244210015034263e+00 3.341084604435891947e+00 -7.736266542439231841e-01 2.450434896739067447e+00 -4.966557816893645061e+00 -2.397604723855902620e+00 1.349076714489970463e+00 -2.676388419206459979e+00 4.778741350172273528e+00 3.351558711402219615e+00 -2.929349907610973247e+00 4.099902660369304286e+00 -3.280132957796213500e+00 -1.186496597497406214e-01 -3.469828052826873233e-01 -5.137768986408399741e-01 -5.142659578535235809e-01 -3.879354705191389030e-01 4.891279079591246415e-01 -2.365072456608277029e+00 -4.661463059405073217e+00 -4.194214692020982405e+00 -3.882974237917059313e+00 1.966793332406132855e+00 -4.934194471774546287e+00 -3.370874518289178390e+00 1.896987417484834459e+00 2.040049888555443225e+00 -4.459074158357282158e+00 5.950882203273719639e-01 -4.359371717891718845e+00 -2.468907166214417970e+00 -3.990006929169637395e+00 4.799971236430449650e+00 -2.115761649987587312e+00 8.717065759096600530e-01 -6.832974558038369395e-01 3.845420353951388037e+00 -1.969501665409760793e+00 -3.775097980456737723e+00 3.482378875263007600e+00 3.769805448606520670e+00 3.619039079274013915e+00 2.248475632882295017e+00 1.211967259288338816e+00 -1.438101667266360462e+00
2.896428246322715339e-01 2.202120800617116458e+00 3.499654894738020161e+00 -2.651165466751606914e+00 4.182403990359279788e+00 2.177136804363469125e+00 1.266324248338023040e+00 -1.173069339477911477e+00 -3.466484612304357782e+00 -9.792908777900146688e-01 -1.569478702643962720e+00 -3.484610626230341346e+00 -2.492992931940761991e+00 6.852956375802854438e-02 1.174815588674103850e+00 -5.229519491646321683e-01 -6.198545839681104397e-01 1.601871150004737565e+00 4.213104457611452247e+00 -3.338203850410668139e-01 2.133402093188939475e+00 -1.884919819995374279e+00 3.028830394835734907e+00 -4.197869554773381751e+00 -3.251747370276525384e+00 3.826703612686277012e+00 1.745132956933156620e+00 3.556637878451201829e+00 -3.708447778300252295e+00 4.906279407317072128e+00 -2.238105008585905331e+00 3.674430446634310954e+00 -1.919714661653024734e-01 3.704234590128693938e+00 2.326094424626914403e+00 -4.858002818369242526e+00 1.859442578837215088e+00 -1.553795684772918406e-01 -1.633117518287918735e+00 -2.159593439371381152e+00 4.102429693233721864e+00 2.765853979225726178e+00 3.396230087244367368e+00 3.609607654379225039e+00 -1.834944662326679854e+00 -3.534665959098854948e+00 -2.175920125314789733e+00 3.848424459132804287e-02 -4.534876336989690060e+00 3.984304830460214220e+00 -2.612244210015034263e+00 3.341084604435891947e+00 -7.736266542439231841e-01 2.450434896739067447e+00 -4.966557816893645061e+00 -2.397604723855902620e+00 -3.983722436520462651e-01 -2.676388419206459979e+00 4.388136665221752608e+00 3.351558711402219615e+00 2.764670749634939639e+00 1.266779676657915132e+00 -3.280132957796213500e+00 -1.186496597497406214e-01 -3.469828052826873233e-01 -5.137768986408399741e-01 2.409232831313158130e+00 -3.879354705191389030e-01 4.387263042955078518e+00 -2.365072456608277029e+00 -4.087922623112218545e+00 -4.194214692020982405e+00 -3.882974237917059313e+00 1.369207213416317792e+00 -4.934194471774546287e+00 -3.370874518289178390e+00 5.643707908309902876e-01 9.163322296054934313e-01 -2.047272329733316187e+00 5.950882203273719639e-01 -4.359371717891718845e+00 -2.468907166214417970e+00 -3.990006929169637395e+00 4.799971236430449650e+00 -1.409463314481744778e+00 8.717065759096600530e-01 -2.333008857483052090e+00 3.845420353951388037e+00 -1.969501665409760793e+00 -3.775097980456737723e+00 3.482378875263007600e+00 3.769805448606520670e+00 3.619039079274013915e+00 2.248475632882295017e+00 1.692514973761946706e+00 3.125044048861841617e+00
2.896428246322715339e-01 -1.697584599057835320e-01 3.499654894738020161e+00 -2.651165466751606914e+00 4.182403990359279788e+00 4.167592327646314487e-01 1.266324248338023040e+00 3.480313105009928520e+00 -3.466484612304357782e+00 -9.792908777900146688e-01 -5.726042776474162821e-01 -3.484610626230341346e+00 1.894214563251956029e+00 6.852956375802854438e-02 1.174815588674103850e+00 -5.229519491646321683e-01 -6.198545839681104397e-01 1.601871150004737565e+00 -3.411608489301042546e+00 -3.338203850410668139e-01 2.133402093188939475e+00 -1.884919819995374279e+00 3.028830394835734907e+00 -4.197869554773381751e+00 -3.251747370276525384e+00 -6.670861934237457547e-01 -5.024235244555352864e-01 3.556637878451201829e+00 -3.708447778300252295e+00 4.906279407317072128e+00 1.995777079039430468e+00 3.674430446634310954e+00 -1.919714661653024734e-01 3.704234590128693938e+00 2.326094424626914403e+00 -4.858002818369242526e+00 -2.727987666010570855e+00 -1.553795684772918406e-01 -1.633117518287918735e+00 -2.159593439371381152e+00 4.102429693233721864e+00 2.765853979225726178e+00 1.668626307454070812e+00 3.603149209121491836e+00 -2.598291841336775043e+00 -3.534665959098854948e+00 -2.175920125314789733e+00 3.848424459132804287e-02 -4.534876336989690060e+00 3.666865417013553952e-03 -2.612244210015034263e+00 3.341084604435891947e+00 9.525813209493172451e-01 2.450434896739067447e+00 -4.966557816893645061e+00 -2.397604723855902620e+00 1.349076714489970463e+00 -2.676388419206459979e+00 4.778741350172273528e+00 3.351558711402219615e+00 2.764670749634939639e+00 -3.214167906589905144e+00 -3.280132957796213500e+00 -1.186496597497406214e-01 -3.469828052826873233e-01 -5.137768986408399741e-01 -5.142659578535235809e-01 -3.879354705191389030e-01 4.891279079591246415e-01 -2.365072456608277029e+00 -4.087922623112218545e+00 -4.194214692020982405e+00 -3.882974237917059313e+00 1.966793332406132855e+00 -4.934194471774546287e+00 -3.370874518289178390e+00 5.643707908309902876e-01 2.040049888555443225e+00 -4.459074158357282158e+00 5.950882203273719639e-01 -4.359371717891718845e+00 -2.468907166214417970e+00 -3.990006929169637395e+00 4.799971236430449650e+00 -1.409463314481744778e+00 8.717065759096600530e-01 -2.333008857483052090e+00 3.845420353951388037e+00 -1.969501665409760793e+00 -3.775097980456737723e+00 3.482378875263007600e+00 3.769805448606520670e+00 3.619039079274013915e+00 2.248475632882295017e+00 1.211967259288338816e+00 3.125044048861841617e+00
2.896428246322715339e-01 -1.697584599057835320e-01 -3.677955828977541586e+00 -2.651165466751606914e+00 4.182403990359279788e+00 4.167592327646314487e-01 1.266324248338023040e+00 3.480313105009928520e+00 -3.466484612304357782e+00 -9.792908777900146688e-01 -5.726042776474162821e-01 -3.484610626230341346e+00 1.577922708489010617e+00 6.852956375802854438e-02 1.174815588674103850e+00 -5.229519491646321683e-01 -6.198545839681104397e-01 1.601871150004737565e+00 3.851511975232371654e+00 -3.338203850410668139e-01 2.133402093188939475e+00 -1.884919819995374279e+00 3.028830394835734907e+00 -4.197869554773381751e+00 -3.251747370276525384e+00 -3.667816042997176229e+00 1.745132956933156620e+00 3.556637878451201829e+00 -3.708447778300252295e+00 4.906279407317072128e+00 1.995777079039430468e+00 3.674430446634310954e+00 -1.919714661653024734e-01 3.704234590128693938e+00 2.326094424626914403e+00 -4.858002818369242526e+00 -2.727987666010570855e+00 -1.553795684772918406e-01 -1.633117518287918735e+00 -2.159593439371381152e+00 -4.039308069709265148e+00 2.765853979225726178e+00 1.668626307454070812e+00 3.603149209121491836e+00 -2.598291841336775043e+00 -3.534665959098854948e+00 -2.175920125314789733e+00 3.848424459132804287e-02 -4.534876336989690060e+00 3.984304830460214220e+00 -2.612244210015034263e+00 3.341084604435891947e+00 -7.736266542439231841e-01 2.450434896739067447e+00 -4.966557816893645061e+00 -2.397604723855902620e+00 1.349076714489970463e+00 -2.676388419206459979e+00 4.388136665221752608e+00 3.351558711402219615e+00 2.764670749634939639e+00 -3.214167906589905144e+00 -3.262046668418789874e+00 -1.186496597497406214e-01 -3.469828052826873233e-01 -5.137768986408399741e-01 -5.142659578535235809e-01 3.200884271076457566e+00 4.891279079591246415e-01 -2.964786903346992020e-01 -4.087922623112218545e+00 -4.194214692020982405e+00 -3.882974237917059313e+00 2.469331730607388309e+00 4.861765584466100520e+00 -3.370874518289178390e+00 5.643707908309902876e-01 2.040049888555443225e+00 -4.459074158357282158e+00 1.452155453229604376e-01 -4.359371717891718845e+00 -2.468907166214417970e+00 1.856653339315790241e+00 4.252899171433792702e-01 4.027485920162888533e+00 8.717065759096600530e-01 -2.361434864416287471e+00 8.296166153065840376e-01 -1.549271089981862914e-01 -3.775097980456737723e+00 3.482378875263007600e+00 3.769805448606520670e+00 3.619039079274013915e+00 2.248475632882295017e+00 1.211967259288338816e+00 3.125044048861841617e+00
2.896428246322715339e-01 3.519033641177932381e+00 3.499654894738020161e+00 -2.651165466751606914e+00 4.182403990359279788e+00 2.177136804363469125e+00 1.266324248338023040e+00 -1.173069339477911477e+00 -3.466484612304357782e+00 -9.792908777900146688e-01 -5.726042776474162821e-01 -3.484610626230341346e+00 1.894214563251956029e+00 6.852956375802854438e-02 1.174815588674103850e+00 -5.229519491646321683e-01 -6.198545839681104397e-01 1.601871150004737565e+00 -3.411608489301042546e+00 -3.338203850410668139e-01 2.133402093188939475e+00 -1.884919819995374279e+00 3.028830394835734907e+00 -4.197869554773381751e+00 -3.251747370276525384e+00 -6.670861934237457547e-01 -5.024235244555352864e-01 9.548767215134992270e-01 -3.708447778300252295e+00 4.906279407317072128e+00 1.995777079039430468e+00 3.674430446634310954e+00 3.573822679494293553e+00 3.704234590128693938e+00 2.326094424626914403e+00 -4.858002818369242526e+00 -2.727987666010570855e+00 -1.553795684772918406e-01 -1.633117518287918735e+00 -4.226722672667079017e+00 -2.719297607355367852e+00 2.765853979225726178e+00 1.668626307454070812e+00 3.603149209121491836e+00 -2.598291841336775043e+00 -3.534665959098854948e+00 -2.175920125314789733e+00 3.848424459132804287e-02 -4.534876336989690060e+00 1.979398659444058239e+00 -2.612244210015034263e+00 3.341084604435891947e+00 9.525813209493172451e-01 2.450434896739067447e+00 -4.966557816893645061e+00 -2.397604723855902620e+00 1.349076714489970463e+00 -2.676388419206459979e+00 4.778741350172273528e+00 3.351558711402219615e+00 2.764670749634939639e+00 -3.214167906589905144e+00 -3.280132957796213500e+00 -1.186496597497406214e-01 -3.469828052826873233e-01 -5.137768986408399741e-01 -5.142659578535235809e-01 -3.879354705191389030e-01 4.891279079591246415e-01 -2.365072456608277029e+00 -4.087922623112218545e+00 -4.194214692020982405e+00 -3.882974237917059313e+00 1.966793332406132855e+00 -4.934194471774546287e+00 -3.370874518289178390e+00 5.643707908309902876e-01 2.040049888555443225e+00 -4.459074158357282158e+00 5.950882203273719639e-01 -4.359371717891718845e+00 -2.468907166214417970e+00 1.705705241745874012e+00 4.799971236430449650e+00 -3.559123179448947738e+00 8.717065759096600530e-01 -2.333008857483052090e+00 3.845420353951388037e+00 -1.969501665409760793e+00 -3.775097980456737723e+00 3.482378875263007600e+00 3.769805448606520670e+00 3.619039079274013915e+00 2.248475632882295017e+00 1.211967259288338816e+00 3.125044048861841617e+00
1.216946800995193811e+00 2.424320861111145753e+00 1.788803325125336130e+00 -1.731072350816856620e+00 1.292798752821376240e+00 2.925230570483052794e+00 3.550398763898815702e+00 -8.987012298295606882e-01 -5.515017831638857615e-02 2.811638424406044834e+00 -1.881106717180784038e+00 -4.737252707869087587e+00 -1.555301673346884961e+00 3.239969842170063785e+00 1.174815588674103850e+00 -5.229519491646321683e-01 1.216217454504796791e+00 1.601871150004737565e+00 4.213104457611452247e+00 -3.338203850410668139e-01 2.133402093188939475e+00 -1.884919819995374279e+00 3.028830394835734907e+00 -4.197869554773381751e+00 4.830612385133093767e+00 3.744258804781656735e+00 3.253069074175131803e+00 -3.165214642023736147e+00 1.752696211037801710e+00 8.190123684607932830e-01 2.117382236673075013e+00 5.295616947449266476e-01 -3.417704330918499345e+00 -2.690610116723649803e+00 2.386894445117819785e+00 3.279566332990807354e+00 -2.727987666010570855e+00 -1.553795684772918406e-01 -1.633117518287918735e+00 -7.578366546543673365e-01 4.102429693233721864e+00 2.765853979225726178e+00 1.668626307454070812e+00 3.603149209121491836e+00 -2.598291841336775043e+00 3.550377406813742809e+00 -2.175920125314789733e+00 3.848424459132804287e-02 -4.534876336989690060e+00 1.979398659444058239e+00 -2.612244210015034263e+00 3.341084604435891947e+00 -7.736266542439231841e-01 2.450434896739067447e+00 -4.966557816893645061e+00 4.012461306397756999e+00 2.859125385259072338e+00 -2.676388419206459979e+00 4.778741350172273528e+00 -1.313070649205331009e+00 -1.555232799349960615e+00 -3.214167906589905144e+00 -3.280132957796213500e+00 -1.186496597497406214e-01 -3.469828052826873233e-01 -5.137768986408399741e-01 -5.142659578535235809e-01 3.200884271076457566e+00 4.891279079591246415e-01 -2.365072456608277029e+00 -4.087922623112218545e+00 -4.194214692020982405e+00 -3.882974237917059313e+00 1.064149670126504965e+00 -4.934194471774546287e+00 4.034476777838857942e-01 5.643707908309902876e-01 2.040049888555443225e+00 -4.459074158357282158e+00 1.452155453229604376e-01 -4.359371717891718845e+00 -2.468907166214417970e+00 -3.990006929169637395e+00 4.799971236430449650e+00 -2.115761649987587312e+00 8.717065759096600530e-01 -6.832974558038369395e-01 3.845420353951388037e+00 -1.969501665409760793e+00 -3.775097980456737723e+00 3.482378875263007600e+00 3.769805448606520670e+00 3.619039079274013915e+00 2.248475632882295017e+00 1.211967259288338816e+00 -1.438101667266360462e+00
2.896428246322715339e-01 -1.697584599057835320e-01 3.499654894738020161e+00 -2.651165466751606914e+00 4.182403990359279788e+00 4.167592327646314487e-01 1.266324248338023040e+00 3.480313105009928520e+00 1.477309350427078449e+00 -8.615456559581700091e-01 -5.726042776474162821e-01 -3.484610626230341346e+00 -2.492992931940761991e+00 6.852956375802854438e-02 1.174815588674103850e+00 -5.229519491646321683e-01 -6.198545839681104397e-01 1.601871150004737565e+00 -3.411608489301042546e+00 -3.338203850410668139e-01 2.133402093188939475e+00 -1.884919819995374279e+00 5.831700001212229978e-01 -4.197869554773381751e+00 -3.251747370276525384e+00 -3.667816042997176229e+00 1.745132956933156620e+00 3.556637878451201829e+00 -3.708447778300252295e+00 4.906279407317072128e+00 1.995777079039430468e+00 1.790605273943891795e+00 -1.919714661653024734e-01 3.704234590128693938e+00 2.326094424626914403e+00 -4.858002818369242526e+00 -2.727987666010570855e+00 -1.553795684772918406e-01 -1.633117518287918735e+00 -2.159593439371381152e+00 4.102429693233721864e+00 -1.840147887628083012e+00 1.668626307454070812e+00 3.603149209121491836e+00 -2.598291841336775043e+00 -3.534665959098854948e+00 -2.175920125314789733e+00 3.848424459132804287e-02 -4.534876336989690060e+00 1.979398659444058239e+00 -2.237463464623252740e+00 3.341084604435891947e+00 -7.736266542439231841e-01 2.450434896739067447e+00 -4.966557816893645061e+00 4.012461306397756999e+00 2.859125385259072338e+00 -2.676388419206459979e+00 4.778741350172273528e+00 3.351558711402219615e+00 -1.555232799349960615e+00 -3.214167906589905144e+00 -3.280132957796213500e+00 -1.186496597497406214e-01 -3.469828052826873233e-01 -5.137768986408399741e-01 -5.142659578535235809e-01 -3.879354705191389030e-01 4.891279079591246415e-01 -2.365072456608277029e+00 -4.661463059405073217e+00 -4.194214692020982405e+00 -3.882974237917059313e+00 1.966793332406132855e+00 -4.934194471774546287e+00 -3.370874518289178390e+00 1.896987417484834459e+00 2.040049888555443225e+00 -4.459074158357282158e+00 5.950882203273719639e-01 -4.359371717891718845e+00 -2.468907166214417970e+00 -3.990006929169637395e+00 4.799971236430449650e+00 -2.115761649987587312e+00 8.717065759096600530e-01 -6.832974558038369395e-01 3.845420353951388037e+00 -1.969501665409760793e+00 -3.775097980456737723e+00 3.482378875263007600e+00 3.769805448606520670e+00 3.619039079274013915e+00 2.248475632882295017e+00 1.211967259288338816e+00 -1.438101667266360462e+00
1.216946800995193811e+00 2.424320861111145753e+00 1.788803325125336130e+00 -1.731072350816856620e+00 1.292798752821376240e+00 2.925230570483052794e+00 3.550398763898815702e+00 -8.987012298295606882e-01 -5.515017831638857615e-02 2.811638424406044834e+00 -1.881106717180784038e+00 -4.737252707869087587e+00 -1.555301673346884961e+00 3.239969842170063785e+00 1.174815588674103850e+00 -5.229519491646321683e-01 1.216217454504796791e+00 1.601871150004737565e+00 4.213104457611452247e+00 3.774851156874298397e+00 2.133402093188939475e+00 -1.884919819995374279e+00 3.028830394835734907e+00 -4.197869554773381751e+00 -3.251747370276525384e+00 -3.667816042997176229e+00 1.745132956933156620e+00 3.556637878451201829e+00 -3.708447778300252295e+00 4.906279407317072128e+00 1.995777079039430468e+00 2.211872864533556360e+00 -1.919714661653024734e-01 3.704234590128693938e+00 2.326094424626914403e+00 -4.858002818369242526e+00 -2.727987666010570855e+00 -1.553795684772918406e-01 -1.633117518287918735e+00 -2.159593439371381152e+00 4.102429693233721864e+00 -1.840147887628083012e+00 1.668626307454070812e+00 3.603149209121491836e+00 -2.598291841336775043e+00 -3.534665959098854948e+00 -2.175920125314789733e+00 3.848424459132804287e-02 -4.534876336989690060e+00 1.979398659444058239e+00 -2.612244210015034263e+00 3.341084604435891947e+00 -7.736266542439231841e-01 2.450434896739067447e+00 -4.966557816893645061e+00 4.012461306397756999e+00 2.859125385259072338e+00 -2.676388419206459979e+00 4.778741350172273528e+00 3.351558711402219615e+00 -1.555232799349960615e+00 4.591710884995572783e+00 -3.262046668418789874e+00 -1.186496597497406214e-01 -3.469828052826873233e-01 -5.137768986408399741e-01 -5.142659578535235809e-01 3.200884271076457566e+00 4.891279079591246415e-01 -9.994627919351994905e-02 8.363582535190872136e-01 -2.864787075729760879e+00 -3.882974237917059313e+00 1.369207213416317792e+00 -3.017134658023232774e+00 -3.370874518289178390e+00 5.643707908309902876e-01 2.040049888555443225e+00 -2.047272329733316187e+00 -1.319600470798139025e+00 -4.359371717891718845e+00 1.384723047033238785e+00 4.525697010027554867e+00 4.799971236430449650e+00 3.116787870082308842e+00 1.485728099438876626e-01 -6.832974558038369395e-01 3.845420353951388037e+00 -1.969501665409760793e+00 -3.775097980456737723e+00 3.482378875263007600e+00 3.769805448606520670e+00 3.619039079274013915e+00 2.248475632882295017e+00 1.211967259288338816e+00 3.125044048861841617e+00
2.896428246322715339e-01 -1.697584599057835320e-01 3.499654894738020161e+00 -2.651165466751606914e+00 4.182403990359279788e+00 4.167592327646314487e-01 1.266324248338023040e+00 3.480313105009928520e+00 -3.466484612304357782e+00 -9.792908777900146688e-01 3.678503333020891830e+00 -3.484610626230341346e+00 2.291936179266214957e+00 6.852956375802854438e-02 1.174815588674103850e+00 -5.229519491646321683e-01 -6.198545839681104397e-01 -2.417917358016319351e+00 4.213104457611452247e+00 -3.338203850410668139e-01 2.133402093188939475e+00 -1.884919819995374279e+00 3.028830394835734907e+00 8.381682438877593455e-01 -3.251747370276525384e+00 -3.667816042997176229e+00 1.745132956933156620e+00 2.848531280953911171e+00 -3.708447778300252295e+00 4.906279407317072128e+00 1.995777079039430468e+00 3.674430446634310954e+00 -1.919714661653024734e-01 3.704234590128693938e+00 2.326094424626914403e+00 -4.858002818369242526e+00 -2.727987666010570855e+00 -1.553795684772918406e-01 -1.633117518287918735e+00 -2.159593439371381152e+00 4.102429693233721864e+00 -2.574812873561257653e+00 1.668626307454070812e+00 3.603149209121491836e+00 -2.598291841336775043e+00 -3.534665959098854948e+00 -2.175920125314789733e+00 3.848424459132804287e-02 -2.122869585883977450e+00 1.979398659444058239e+00 -2.612244210015034263e+00 3.341084604435891947e+00 -7.736266542439231841e-01 2.450434896739067447e+00 -4.966557816893645061e+00 -2.397604723855902620e+00 1.349076714489970463e+00 -2.676388419206459979e+00 4.388136665221752608e+00 3.351558711402219615e+00 2.764670749634939639e+00 -3.214167906589905144e+00 -3.280132957796213500e+00 -1.186496597497406214e-01 -3.469828052826873233e-01 -5.137768986408399741e-01 -5.142659578535235809e-01 -3.879354705191389030e-01 4.891279079591246415e-01 -2.365072456608277029e+00 -4.087922623112218545e+00 -4.194214692020982405e+00 -3.882974237917059313e+00 1.369207213416317792e+00 -4.934194471774546287e+00 -3.370874518289178390e+00 5.643707908309902876e-01 9.163322296054934313e-01 -2.047272329733316187e+00 5.950882203273719639e-01 -4.359371717891718845e+00 -2.468907166214417970e+00 -3.990006929169637395e+00 4.799971236430449650e+00 -1.409463314481744778e+00 8.717065759096600530e-01 -2.333008857483052090e+00 3.845420353951388037e+00 -1.969501665409760793e+00 -3.775097980456737723e+00 3.482378875263007600e+00 3.769805448606520670e+00 3.619039079274013915e+00 2.248475632882295017e+00 1.211967259288338816e+00 3.125044048861841617e+00
2.896428246322715339e-01 -1.697584599057835320e-01 3.499654894738020161e+00 -2.651165466751606914e+00 1.292798752821376240e+00 2.925230570483052794e+00 3.550398763898815702e+00 -8.987012298295606882e-01 -5.515017831638857615e-02 2.811638424406044834e+00 -1.881106717180784038e+00 -4.737252707869087587e+00 -1.555301673346884961e+00 3.239969842170063785e+00 1.174815588674103850e+00 -5.229519491646321683e-01 1.216217454504796791e+00 1.601871150004737565e+00 4.213104457611452247e+00 -3.338203850410668139e-01 2.133402093188939475e+00 -1.884919819995374279e+00 3.028830394835734907e+00 -4.197869554773381751e+00 4.830612385133093767e+00 4.062324638450199643e+00 3.253069074175131803e+00 -3.165214642023736147e+00 1.752696211037801710e+00 8.190123684607932830e-01 2.117382236673075013e+00 5.295616947449266476e-01 -3.417704330918499345e+00 -2.690610116723649803e+00 2.386894445117819785e+00 3.279566332990807354e+00 -2.727987666010570855e+00 -1.553795684772918406e-01 -1.633117518287918735e+00 -7.578366546543673365e-01 4.102429693233721864e+00 2.765853979225726178e+00 1.668626307454070812e+00 3.603149209121491836e+00 -2.598291841336775043e+00 -3.534665959098854948e+00 -2.175920125314789733e+00 3.848424459132804287e-02 -4.534876336989690060e+00 1.979398659444058239e+00 -2.612244210015034263e+00 3.341084604435891947e+00 -7.736266542439231841e-01 2.450434896739067447e+00 -4.966557816893645061e+00 4.012461306397756999e+00 2.859125385259072338e+00 -2.676388419206459979e+00 4.778741350172273528e+00 -1.313070649205331009e+00 -1.555232799349960615e+00 -3.214167906589905144e+00 -3.280132957796213500e+00 -1.186496597497406214e-01 -3.469828052826873233e-01 -5.137768986408399741e-01 -5.142659578535235809e-01 3.200884271076457566e+00 4.891279079591246415e-01 -2.365072456608277029e+00 -4.087922623112218545e+00 -4.194214692020982405e+00 -3.882974237917059313e+00 1.064149670126504965e+00 -4.934194471774546287e+00 -3.370874518289178390e+00 -5.916301542084410059e-01 2.040049888555443225e+00 -4.459074158357282158e+00 1.452155453229604376e-01 -4.359371717891718845e+00 -2.468907166214417970e+00 -3.990006929169637395e+00 4.799971236430449650e+00 2.238526060417969532e+00 8.717065759096600530e-01 -6.832974558038369395e-01 3.845420353951388037e+00 -1.969501665409760793e+00 -3.775097980456737723e+00 3.482378875263007600e+00 3.769805448606520670e+00 3.619039079274013915e+00 2.248475632882295017e+00 1.211967259288338816e+00 -1.438101667266360462e+00
2.896428246322715339e-01 -1.697584599057835320e-01 3.499654894738020161e+00 -2.651165466751606914e+00 4.182403990359279788e+00 4.167592327646314487e-01 1.266324248338023040e+00 3.480313105009928520e+00 -3.466484612304357782e+00 -9.792908777900146688e-01 -5.726042776474162821e-01 -3.484610626230341346e+00 -2.492992931940761991e+00 3.563669231571916285e+00 1.174815588674103850e+00 -5.229519491646321683e-01 -6.198545839681104397e-01 -3.445155001379327508e+00 -3.411608489301042546e+00 -3.338203850410668139e-01 2.133402093188939475e+00 -1.884919819995374279e+00 3.028830394835734907e+00 -4.197869554773381751e+00 -3.251747370276525384e+00 -3.667816042997176229e+00 1.745132956933156620e+00 2.848531280953911171e+00 -3.708447778300252295e+00 4.906279407317072128e+00 1.995777079039430468e+00 3.674430446634310954e+00 -1.919714661653024734e-01 3.704234590128693938e+00 2.326094424626914403e+00 -4.858002818369242526e+00 -2.727987666010570855e+00 -1.553795684772918406e-01 -1.633117518287918735e+00 -2.159593439371381152e+00 4.102429693233721864e+00 2.765853979225726178e+00 1.668626307454070812e+00 3.603149209121491836e+00 -1.834944662326679854e+00 -3.534665959098854948e+00 -2.175920125314789733e+00 3.848424459132804287e-02 -4.534876336989690060e+00 1.979398659444058239e+00 -2.612244210015034263e+00 3.341084604435891947e+00 -7.736266542439231841e-01 2.450434896739067447e+00 -4.966557816893645061e+00 4.012461306397756999e+00 2.859125385259072338e+00 -2.676388419206459979e+00 4.778741350172273528e+00 2.418533462515020993e+00 2.764670749634939639e+00 -3.214167906589905144e+00 -3.280132957796213500e+00 -1.186496597497406214e-01 -3.469828052826873233e-01 -5.137768986408399741e-01 -5.142659578535235809e-01 3.200884271076457566e+00 4.891279079591246415e-01 2.277748335854486328e+00 -4.087922623112218545e+00 -4.194214692020982405e+00 -3.882974237917059313e+00 1.369207213416317792e+00 -4.934194471774546287e+00 -3.370874518289178390e+00 5.643707908309902876e-01 9.163322296054934313e-01 -2.047272329733316187e+00 1.452155453229604376e-01 -4.359371717891718845e+00 -2.468907166214417970e+00 -3.990006929169637395e+00 4.799971236430449650e+00 -2.115761649987587312e+00 -2.224479118760541496e+00 -6.832974558038369395e-01 3.845420353951388037e+00 -1.969501665409760793e+00 -3.775097980456737723e+00 3.482378875263007600e+00 3.769805448606520670e+00 3.619039079274013915e+00 2.248475632882295017e+00 1.211967259288338816e+00 -1.438101667266360462e+00
2.896428246322715339e-01 -1.697584599057835320e-01 3.499654894738020161e+00 -2.651165466751606914e+00 4.182403990359279788e+00 4.167592327646314487e-01 1.266324248338023040e+00 3.480313105009928520e+00 -3.466484612304357782e+00 -9.792908777900146688e-01 -5.726042776474162821e-01 -3.484610626230341346e+00 1.894214563251956029e+00 6.852956375802854438e-02 1.174815588674103850e+00 -5.229519491646321683e-01 -6.198545839681104397e-01 1.601871150004737565e+00 -3.411608489301042546e+00 -3.338203850410668139e-01 2.133402093188939475e+00 -1.884919819995374279e+00 3.028830394835734907e+00 -4.197869554773381751e+00 -3.251747370276525384e+00 -6.670861934237457547e-01 -5.024235244555352864e-01 3.556637878451201829e+00 -3.708447778300252295e+00 4.906279407317072128e+00 1.995777079039430468e+00 3.674430446634310954e+00 -1.919714661653024734e-01 3.704234590128693938e+00 2.326094424626914403e+00 -4.858002818369242526e+00 -2.727987666010570855e+00 -1.553795684772918406e-01 -1.633117518287918735e+00 -2.159593439371381152e+00 4.102429693233721864e+00 2.765853979225726178e+00 1.668626307454070812e+00 3.603149209121491836e+00 -2.598291841336775043e+00 -3.534665959098854948e+00 -2.175920125314789733e+00 -2.576507115231552181e+00 -4.534876336989690060e+00 1.979398659444058239e+00 -2.612244210015034263e+00 3.341084604435891947e+00 -7.736266542439231841e-01 2.450434896739067447e+00 -4.966557816893645061e+00 -2.397604723855902620e+00 1.349076714489970463e+00 -2.676388419206459979e+00 4.778741350172273528e+00 3.351558711402219615e+00 -2.929349907610973247e+00 -3.214167906589905144e+00 -3.280132957796213500e+00 -1.186496597497406214e-01 -3.469828052826873233e-01 -3.613574899018691333e+00 -5.142659578535235809e-01 3.200884271076457566e+00 4.891279079591246415e-01 -8.029360910531018192e-01 -4.087922623112218545e+00 -4.194214692020982405e+00 -3.882974237917059313e+00 1.064149670126504965e+00 -4.934194471774546287e+00 -3.370874518289178390e+00 5.643707908309902876e-01 2.040049888555443225e+00 -4.459074158357282158e+00 1.452155453229604376e-01 -4.359371717891718845e+00 -2.468907166214417970e+00 -3.990006929169637395e+00 4.799971236430449650e+00 2.238526060417969532e+00 8.717065759096600530e-01 -6.832974558038369395e-01 3.845420353951388037e+00 -1.969501665409760793e+00 -3.775097980456737723e+00 3.482378875263007600e+00 3.769805448606520670e+00 3.619039079274013915e+00 2.248475632882295017e+00 1.211967259288338816e+00 -1.438101667266360462e+00
1.216946800995193811e+00 2.424320861111145753e+00 1.788803325125336130e+00 -1.731072350816856620e+00 1.292798752821376240e+00 2.925230570483052794e+00 3.550398763898815702e+00 -8.987012298295606882e-01 -5.515017831638857615e-02 2.086320821510306622e+00 -1.881106717180784038e+00 -4.737252707869087587e+00 -1.555301673346884961e+00 3.239969842170063785e+00 1.174815588674103850e+00 -5.229519491646321683e-01 1.216217454504796791e+00 1.601871150004737565e+00 4.213104457611452247e+00 -3.338203850410668139e-01 2.133402093188939475e+00 -1.884919819995374279e+00 3.028830394835734907e+00 -4.197869554773381751e+00 -3.251747370276525384e+00 3.826703612686277012e+00 1.745132956933156620e+00 3.556637878451201829e+00 -3.708447778300252295e+00 4.906279407317072128e+00 -2.238105008585905331e+00 3.674430446634310954e+00 -1.919714661653024734e-01 3.704234590128693938e+00 2.326094424626914403e+00 -4.858002818369242526e+00 1.859442578837215088e+00 -1.553795684772918406e-01 -1.633117518287918735e+00 -2.159593439371381152e+00 4.102429693233721864e+00 2.765853979225726178e+00 3.396230087244367368e+00 3.609607654379225039e+00 -1.834944662326679854e+00 -3.534665959098854948e+00 -2.175920125314789733e+00 3.848424459132804287e-02 -4.534876336989690060e+00 3.984304830460214220e+00 -2.612244210015034263e+00 3.341084604435891947e+00 -7.736266542439231841e-01 2.450434896739067447e+00 -4.966557816893645061e+00 -2.397604723855902620e+00 -3.983722436520462651e-01 -2.676388419206459979e+00 4.388136665221752608e+00 3.351558711402219615e+00 2.764670749634939639e+00 -3.214167906589905144e+00 -3.280132957796213500e+00 -1.186496597497406214e-01 -3.469828052826873233e-01 -5.137768986408399741e-01 2.409232831313158130e+00 -3.879354705191389030e-01 4.891279079591246415e-01 -2.365072456608277029e+00 -4.087922623112218545e+00 -4.194214692020982405e+00 -3.882974237917059313e+00 1.369207213416317792e+00 -4.934194471774546287e+00 -3.370874518289178390e+00 5.643707908309902876e-01 9.163322296054934313e-01 -2.047272329733316187e+00 5.950882203273719639e-01 -4.359371717891718845e+00 3.978917952689194237e+00 -3.990006929169637395e+00 4.799971236430449650e+00 -1.409463314481744778e+00 8.717065759096600530e-01 -2.333008857483052090e+00 3.845420353951388037e+00 -1.969501665409760793e+00 -3.775097980456737723e+00 3.482378875263007600e+00 3.769805448606520670e+00 3.619039079274013915e+00 2.248475632882295017e+00 1.692514973761946706e+00 3.125044048861841617e+00
2.896428246322715339e-01 -1.697584599057835320e-01 3.499654894738020161e+00 -2.651165466751606914e+00 4.182403990359279788e+00 4.167592327646314487e-01 1.266324248338023040e+00 3.480313105009928520e+00 1.477309350427078449e+00 -8.615456559581700091e-01 -5.726042776474162821e-01 -3.484610626230341346e+00 -2.492992931940761991e+00 6.852956375802854438e-02 1.174815588674103850e+00 -5.229519491646321683e-01 -6.198545839681104397e-01 1.601871150004737565e+00 -3.411608489301042546e+00 -3.338203850410668139e-01 2.133402093188939475e+00 -1.884919819995374279e+00 3.028830394835734907e+00 -4.197869554773381751e+00 -3.251747370276525384e+00 -3.667816042997176229e+00 1.745132956933156620e+00 3.556637878451201829e+00 -3.708447778300252295e+00 4.906279407317072128e+00 1.995777079039430468e+00 1.790605273943891795e+00 -1.919714661653024734e-01 3.704234590128693938e+00 2.326094424626914403e+00 -4.858002818369242526e+00 -2.727987666010570855e+00 -1.553795684772918406e-01 -1.633117518287918735e+00 -2.159593439371381152e+00 4.102429693233721864e+00 -1.840147887628083012e+00 1.668626307454070812e+00 3.603149209121491836e+00 8.927097202482254801e-01 -3.534665959098854948e+00 -2.175920125314789733e+00 3.848424459132804287e-02 -4.534876336989690060e+00 1.979398659444058239e+00 -2.237463464623252740e+00 3.341084604435891947e+00 -7.736266542439231841e-01 2.450434896739067447e+00 -4.966557816893645061e+00 4.012461306397756999e+00 2.859125385259072338e+00 -2.676388419206459979e+00 4.778741350172273528e+00 3.351558711402219615e+00 -1.555232799349960615e+00 -3.214167906589905144e+00 -3.280132957796213500e+00 -1.186496597497406214e-01 -3.469828052826873233e-01 -5.137768986408399741e-01 -5.142659578535235809e-01 3.200884271076457566e+00 4.891279079591246415e-01 -2.365072456608277029e+00 -4.087922623112218545e+00 -4.194214692020982405e+00 -3.882974237917059313e+00 1.064149670126504965e+00 -4.934194471774546287e+00 -3.370874518289178390e+00 5.643707908309902876e-01 2.040049888555443225e+00 -4.459074158357282158e+00 1.452155453229604376e-01 -4.359371717891718845e+00 -2.468907166214417970e+00 -3.990006929169637395e+00 4.799971236430449650e+00 -2.115761649987587312e+00 8.717065759096600530e-01 -2.361434864416287471e+00 8.296166153065840376e-01 -1.549271089981862914e-01 -3.775097980456737723e+00 3.482378875263007600e+00 3.769805448606520670e+00 3.619039079274013915e+00 2.248475632882295017e+00 1.692514973761946706e+00 3.125044048861841617e+00
2.896428246322715339e-01 -1.697584599057835320e-01 3.499654894738020161e+00 -2.651165466751606914e+00 4.182403990359279788e+00 4.167592327646314487e-01 1.266324248338023040e+00 3.480313105009928520e+00 -3.466484612304357782e+00 -9.792908777900146688e-01 -5.726042776474162821e-01 -3.484610626230341346e+00 -2.492992931940761991e+00 6.852956375802854438e-02 1.174815588674103850e+00 -5.229519491646321683e-01 -6.198545839681104397e-01 -3.445155001379327508e+00 -3.411608489301042546e+00 -3.338203850410668139e-01 2.133402093188939475e+00 -1.884919819995374279e+00 3.028830394835734907e+00 3.038701787406314025e+00 -3.251747370276525384e+00 -3.667816042997176229e+00 1.745132956933156620e+00 3.556637878451201829e+00 -3.708447778300252295e+00 4.906279407317072128e+00 1.995777079039430468e+00 1.790605273943891795e+00 -1.919714661653024734e-01 3.704234590128693938e+00 2.326094424626914403e+00 -4.858002818369242526e+00 -2.727987666010570855e+00 -1.553795684772918406e-01 -1.633117518287918735e+00 -2.159593439371381152e+00 4.102429693233721864e+00 -1.840147887628083012e+00 1.668626307454070812e+00 3.603149209121491836e+00 -2.598291841336775043e+00 -3.534665959098854948e+00 -2.175920125314789733e+00 3.848424459132804287e-02 -4.534876336989690060e+00 1.979398659444058239e+00 -2.237463464623252740e+00 3.341084604435891947e+00 -7.736266542439231841e-01 2.450434896739067447e+00 -4.966557816893645061e+00 4.012461306397756999e+00 -3.983722436520462651e-01 -2.676388419206459979e+00 4.388136665221752608e+00 3.351558711402219615e+00 2.764670749634939639e+00 -3.214167906589905144e+00 -3.280132957796213500e+00 -1.186496597497406214e-01 -3.469828052826873233e-01 -5.137768986408399741e-01 2.409232831313158130e+00 -3.879354705191389030e-01 4.891279079591246415e-01 -2.365072456608277029e+00 -4.087922623112218545e+00 -4.194214692020982405e+00 -3.882974237917059313e+00 1.369207213416317792e+00 -4.934194471774546287e+00 -3.370874518289178390e+00 5.643707908309902876e-01 9.163322296054934313e-01 -2.047272329733316187e+00 5.950882203273719639e-01 -4.359371717891718845e+00 -2.468907166214417970e+00 -3.990006929169637395e+00 4.799971236430449650e+00 -1.409463314481744778e+00 8.717065759096600530e-01 -2.333008857483052090e+00 3.845420353951388037e+00 -1.969501665409760793e+00 -3.775097980456737723e+00 3.482378875263007600e+00 3.769805448606520670e+00 3.619039079274013915e+00 2.248475632882295017e+00 1.211967259288338816e+00 3.125044048861841617e+00
2.896428246322715339e-01 2.202120800617116458e+00 3.499654894738020161e+00 -2.651165466751606914e+00 4.182403990359279788e+00 4.167592327646314487e-01 -6.183142775335772612e-01 3.480313105009928520e+00 -3.466484612304357782e+00 -9.792908777900146688e-01 -1.569478702643962720e+00 -3.484610626230341346e+00 -2.492992931940761991e+00 6.852956375802854438e-02 1.174815588674103850e+00 -5.229519491646321683e-01 -6.198545839681104397e-01 1.601871150004737565e+00 4.213104457611452247e+00 -3.338203850410668139e-01 2.133402093188939475e+00 -1.884919819995374279e+00 3.028830394835734907e+00 -1.754774412918549409e+00 -3.251747370276525384e+00 3.826703612686277012e+00 1.745132956933156620e+00 3.556637878451201829e+00 -3.708447778300252295e+00 4.906279407317072128e+00 -2.238105008585905331e+00 2.748663816125560544e+00 -1.919714661653024734e-01 3.704234590128693938e+00 2.326094424626914403e+00 -4.858002818369242526e+00 1.859442578837215088e+00 -1.553795684772918406e-01 -1.633117518287918735e+00 -2.159593439371381152e+00 4.102429693233721864e+00 2.765853979225726178e+00 -5.785287120371407354e-02 3.609607654379225039e+00 -1.834944662326679854e+00 -4.007139335569176453e+00 -2.175920125314789733e+00 -1.004071710435943121e+00 -4.534876336989690060e+00 4.846493736282701192e+00 -2.612244210015034263e+00 3.341084604435891947e+00 -7.736266542439231841e-01 2.450434896739067447e+00 -4.966557816893645061e+00 4.012461306397756999e+00 2.859125385259072338e+00 -2.676388419206459979e+00 4.778741350172273528e+00 3.351558711402219615e+00 2.764670749634939639e+00 -3.214167906589905144e+00 -3.280132957796213500e+00 -1.186496597497406214e-01 -3.469828052826873233e-01 -5.137768986408399741e-01 1.852355381237380527e+00 -3.879354705191389030e-01 4.891279079591246415e-01 -2.365072456608277029e+00 -4.087922623112218545e+00 -4.194214692020982405e+00 -3.882974237917059313e+00 1.369207213416317792e+00 -4.934194471774546287e+00 -3.370874518289178390e+00 5.643707908309902876e-01 9.163322296054934313e-01 -2.047272329733316187e+00 5.950882203273719639e-01 -4.359371717891718845e+00 -2.468907166214417970e+00 -3.990006929169637395e+00 4.799971236430449650e+00 -2.115761649987587312e+00 -2.224479118760541496e+00 -2.333008857483052090e+00 3.845420353951388037e+00 -1.969501665409760793e+00 -3.775097980456737723e+00 3.482378875263007600e+00 3.769805448606520670e+00 3.619039079274013915e+00 2.248475632882295017e+00 1.211967259288338816e+00 3.125044048861841617e+00
2.896428246322715339e-01 2.202120800617116458e+00 3.499654894738020161e+00 -2.651165466751606914e+00 4.182403990359279788e+00 2.177136804363469125e+00 1.266324248338023040e+00 -1.173069339477911477e+00 -3.466484612304357782e+00 -9.792908777900146688e-01 -1.569478702643962720e+00 -3.484610626230341346e+00 -2.492992931940761991e+00 6.852956375802854438e-02 1.174815588674103850e+00 -5.229519491646321683e-01 -6.198545839681104397e-01 1.601871150004737565e+00 4.213104457611452247e+00 -8.132412595063183147e-01 2.133402093188939475e+00 -1.884919819995374279e+00 3.028830394835734907e+00 -4.197869554773381751e+00 -3.251747370276525384e+00 3.826703612686277012e+00 1.745132956933156620e+00 3.556637878451201829e+00 -3.708447778300252295e+00 4.906279407317072128e+00 -2.238105008585905331e+00 -2.947682189918653606e+00 -1.919714661653024734e-01 3.704234590128693938e+00 2.326094424626914403e+00 -4.858002818369242526e+00 3.349676182972324057e+00 -1.553795684772918406e-01 -1.633117518287918735e+00 -2.159593439371381152e+00 4.102429693233721864e+00 2.765853979225726178e+00 3.396230087244367368e+00 3.609607654379225039e+00 -1.834944662326679854e+00 -3.534665959098854948e+00 -2.175920125314789733e+00 3.848424459132804287e-02 -4.534876336989690060e+00 3.984304830460214220e+00 -2.612244210015034263e+00 3.341084604435891947e+00 -7.736266542439231841e-01 2.450434896739067447e+00 -4.966557816893645061e+00 -2.397604723855902620e+00 -3.983722436520462651e-01 -2.676388419206459979e+00 4.388136665221752608e+00 3.351558711402219615e+00 2.764670749634939639e+00 -3.214167906589905144e+00 -3.280132957796213500e+00 -1.186496597497406214e-01 -3.469828052826873233e-01 3.919095354007986032e+00 2.409232831313158130e+00 -3.879354705191389030e-01 4.891279079591246415e-01 -2.365072456608277029e+00 -4.087922623112218545e+00 -4.194214692020982405e+00 -3.882974237917059313e+00 1.369207213416317792e+00 -4.934194471774546287e+00 -3.370874518289178390e+00 5.643707908309902876e-01 9.163322296054934313e-01 -2.047272329733316187e+00 5.950882203273719639e-01 -4.359371717891718845e+00 -2.468907166214417970e+00 -3.990006929169637395e+00 4.799971236430449650e+00 -1.409463314481744778e+00 8.717065759096600530e-01 -2.333008857483052090e+00 3.845420353951388037e+00 -1.969501665409760793e+00 -3.775097980456737723e+00 3.482378875263007600e+00 3.769805448606520670e+00 3.619039079274013915e+00 2.248475632882295017e+00 1.211967259288338816e+00 3.125044048861841617e+00
2.896428246322715339e-01 2.202120800617116458e+00 3.499654894738020161e+00 -2.651165466751606914e+00 4.182403990359279788e+00 4.167592327646314487e-01 -6.183142775335772612e-01 3.480313105009928520e+00 -3.466484612304357782e+00 -9.792908777900146688e-01 -1.569478702643962720e+00 -3.484610626230341346e+00 -2.492992931940761991e+00 6.852956375802854438e-02 1.174815588674103850e+00 -5.229519491646321683e-01 -6.198545839681104397e-01 1.601871150004737565e+00 4.213104457611452247e+00 -3.338203850410668139e-01 2.133402093188939475e+00 -1.884919819995374279e+00 3.028830394835734907e+00 -1.754774412918549409e+00 -3.251747370276525384e+00 3.826703612686277012e+00 3.784248574998782644e+00 3.556637878451201829e+00 -3.708447778300252295e+00 4.906279407317072128e+00 -2.755301840835108429e+00 2.748663816125560544e+00 -1.919714661653024734e-01 3.704234590128693938e+00 2.326094424626914403e+00 -4.858002818369242526e+00 1.859442578837215088e+00 -1.553795684772918406e-01 -1.633117518287918735e+00 -2.159593439371381152e+00 1.612839201453525106e+00 2.765853979225726178e+00 1.668626307454070812e+00 3.603149209121491836e+00 -4.934988934288140783e+00 -3.534665959098854948e+00 -2.175920125314789733e+00 3.848424459132804287e-02 -4.534876336989690060e+00 1.979398659444058239e+00 1.255979491647995161e+00 3.341084604435891947e+00 -7.736266542439231841e-01 2.450434896739067447e+00 -4.966557816893645061e+00 4.012461306397756999e+00 2.859125385259072338e+00 -2.676388419206459979e+00 4.778741350172273528e+00 3.351558711402219615e+00 2.764670749634939639e+00 -3.214167906589905144e+00 -3.280132957796213500e+00 -1.186496597497406214e-01 -3.469828052826873233e-01 -5.137768986408399741e-01 4.815913643838559466e+00 3.200884271076457566e+00 4.891279079591246415e-01 -2.365072456608277029e+00 -4.087922623112218545e+00 -4.194214692020982405e+00 -3.882974237917059313e+00 1.064149670126504965e+00 -4.934194471774546287e+00 -3.370874518289178390e+00 5.643707908309902876e-01 2.040049888555443225e+00 -2.047272329733316187e+00 1.452155453229604376e-01 -3.129739340122662306e+00 1.384723047033238785e+00 -3.990006929169637395e+00 4.799971236430449650e+00 3.116787870082308842e+00 8.717065759096600530e-01 -2.333008857483052090e+00 3.845420353951388037e+00 -1.969501665409760793e+00 -3.775097980456737723e+00 3.482378875263007600e+00 3.769805448606520670e+00 3.619039079274013915e+00 2.248475632882295017e+00 1.211967259288338816e+00 3.125044048861841617e+00
2.896428246322715339e-01 -1.697584599057835320e-01 3.499654894738020161e+00 -2.651165466751606914e+00 4.182403990359279788e+00 4.167592327646314487e-01 1.266324248338023040e+00 3.480313105009928520e+00 1.477309350427078449e+00 -8.615456559581700091e-01 -5.726042776474162821e-01 -3.484610626230341346e+00 -2.492992931940761991e+00 6.852956375802854438e-02 1.174815588674103850e+00 -5.229519491646321683e-01 -6.198545839681104397e-01 1.601871150004737565e+00 -3.411608489301042546e+00 -3.338203850410668139e-01 2.133402093188939475e+00 -1.884919819995374279e+00 3.028830394835734907e+00 -4.197869554773381751e+00 -3.251747370276525384e+00 -3.667816042997176229e+00 1.745132956933156620e+00 3.556637878451201829e+00 -3.708447778300252295e+00 4.906279407317072128e+00 1.995777079039430468e+00 1.790605273943891795e+00 -1.919714661653024734e-01 3.704234590128693938e+00 2.326094424626914403e+00 -4.858002818369242526e+00 -2.727987666010570855e+00 -1.553795684772918406e-01 -1.633117518287918735e+00 -2.159593439371381152e+00 4.102429693233721864e+00 -1.840147887628083012e+00 1.668626307454070812e+00 3.603149209121491836e+00 -2.598291841336775043e+00 -3.534665959098854948e+00 -2.175920125314789733e+00 3.848424459132804287e-02 -4.534876336989690060e+00 1.979398659444058239e+00 -2.237463464623252740e+00 3.341084604435891947e+00 -4.612913713505010449e+00 2.450434896739067447e+00 -4.966557816893645061e+00 4.012461306397756999e+00 2.859125385259072338e+00 -2.676388419206459979e+00 4.778741350172273528e+00 3.351558711402219615e+00 -1.555232799349960615e+00 -3.214167906589905144e+00 1.549361324763989245e-01 -1.186496597497406214e-01 -3.469828052826873233e-01 -5.137768986408399741e-01 2.409232831313158130e+00 -3.879354705191389030e-01 4.891279079591246415e-01 -2.365072456608277029e+00 -4.087922623112218545e+00 -4.194214692020982405e+00 -3.882974237917059313e+00 1.369207213416317792e+00 -4.934194471774546287e+00 -3.370874518289178390e+00 5.643707908309902876e-01 9.163322296054934313e-01 -2.047272329733316187e+00 5.950882203273719639e-01 -4.359371717891718845e+00 -2.468907166214417970e+00 -3.990006929169637395e+00 4.799971236430449650e+00 -1.409463314481744778e+00 8.717065759096600530e-01 -2.333008857483052090e+00 3.845420353951388037e+00 -1.969501665409760793e+00 -3.775097980456737723e+00 3.482378875263007600e+00 3.769805448606520670e+00 3.619039079274013915e+00 2.248475632882295017e+00 1.211967259288338816e+00 3.125044048861841617e+00
2.896428246322715339e-01 -7.007821500737145826e-01 -5.844811880125142523e-01 -2.651165466751606914e+00 -2.766862263562648305e+00 4.167592327646314487e-01 -2.677283186181335317e+00 3.480313105009928520e+00 2.123682709327145091e+00 -9.792908777900146688e-01 -5.726042776474162821e-01 6.081522987226914978e-01 -2.492992931940761991e+00 6.852956375802854438e-02 1.174815588674103850e+00 -5.229519491646321683e-01 -6.198545839681104397e-01 1.601871150004737565e+00 -3.435852085552333346e+00 7.343993279010714303e-01 -3.748180396996902974e+00 -1.884919819995374279e+00 3.028830394835734907e+00 -4.197869554773381751e+00 -3.251747370276525384e+00 3.837386846795132200e+00 1.745132956933156620e+00 3.556637878451201829e+00 -3.979736441439909456e+00 -1.247489274717736851e+00 1.864014706077000483e+00 3.674430446634310954e+00 1.406804004912260098e+00 3.704234590128693938e+00 2.326094424626914403e+00 -4.858002818369242526e+00 -2.727987666010570855e+00 -1.553795684772918406e-01 -1.633117518287918735e+00 -2.159593439371381152e+00 1.612839201453525106e+00 2.765853979225726178e+00 1.668626307454070812e+00 3.603149209121491836e+00 -4.934988934288140783e+00 -3.534665959098854948e+00 -2.175920125314789733e+00 3.848424459132804287e-02 -4.534876336989690060e+00 1.979398659444058239e+00 1.255979491647995161e+00 3.341084604435891947e+00 -7.736266542439231841e-01 2.450434896739067447e+00 -4.966557816893645061e+00 4.012461306397756999e+00 2.859125385259072338e+00 -2.676388419206459979e+00 4.778741350172273528e+00 3.351558711402219615e+00 2.764670749634939639e+00 -3.214167906589905144e+00 -3.280132957796213500e+00 -1.186496597497406214e-01 -3.469828052826873233e-01 -5.137768986408399741e-01 4.815913643838559466e+00 3.200884271076457566e+00 4.891279079591246415e-01 -2.365072456608277029e+00 -4.087922623112218545e+00 -4.194214692020982405e+00 -3.882974237917059313e+00 1.064149670126504965e+00 -4.934194471774546287e+00 -3.370874518289178390e+00 5.643707908309902876e-01 2.040049888555443225e+00 -2.047272329733316187e+00 1.452155453229604376e-01 -3.129739340122662306e+00 1.384723047033238785e+00 -3.990006929169637395e+00 4.799971236430449650e+00 3.116787870082308842e+00 8.717065759096600530e-01 -2.333008857483052090e+00 3.845420353951388037e+00 -1.969501665409760793e+00 -3.775097980456737723e+00 3.482378875263007600e+00 3.769805448606520670e+00 3.959995813524621155e+00 2.248475632882295017e+00 1.211967259288338816e+00 3.125044048861841617e+00
2.896428246322715339e-01 2.202120800617116458e+00 3.499654894738020161e+00 -2.651165466751606914e+00 4.182403990359279788e+00 4.167592327646314487e-01 -6.183142775335772612e-01 3.480313105009928520e+00 -3.466484612304357782e+00 -1.711656799556529052e-01 -1.569478702643962720e+00 -3.484610626230341346e+00 -2.492992931940761991e+00 6.852956375802854438e-02 1.174815588674103850e+00 -5.229519491646321683e-01 -6.198545839681104397e-01 1.601871150004737565e+00 4.213104457611452247e+00 -3.338203850410668139e-01 2.133402093188939475e+00 -1.884919819995374279e+00 3.028830394835734907e+00 -1.754774412918549409e+00 -3.251747370276525384e+00 3.826703612686277012e+00 1.745132956933156620e+00 3.556637878451201829e+00 -3.708447778300252295e+00 4.906279407317072128e+00 -2.238105008585905331e+00 2.748663816125560544e+00 -1.919714661653024734e-01 3.704234590128693938e+00 2.326094424626914403e+00 -4.858002818369242526e+00 1.859442578837215088e+00 -1.553795684772918406e-01 -1.633117518287918735e+00 -2.159593439371381152e+00 4.102429693233721864e+00 2.765853979225726178e+00 3.396230087244367368e+00 3.609607654379225039e+00 -1.834944662326679854e+00 -4.007139335569176453e+00 -2.175920125314789733e+00 -1.004071710435943121e+00 -4.534876336989690060e+00 4.846493736282701192e+00 -2.612244210015034263e+00 3.341084604435891947e+00 -7.736266542439231841e-01 2.450434896739067447e+00 -4.966557816893645061e+00 4.012461306397756999e+00 2.859125385259072338e+00 -2.676388419206459979e+00 4.778741350172273528e+00 3.351558711402219615e+00 2.764670749634939639e+00 -3.214167906589905144e+00 -3.280132957796213500e+00 -1.186496597497406214e-01 -3.469828052826873233e-01 -5.137768986408399741e-01 -5.142659578535235809e-01 -3.879354705191389030e-01 4.891279079591246415e-01 -2.365072456608277029e+00 -4.087922623112218545e+00 -4.194214692020982405e+00 -3.882974237917059313e+00 1.369207213416317792e+00 -4.934194471774546287e+00 -3.370874518289178390e+00 5.643707908309902876e-01 9.163322296054934313e-01 -2.047272329733316187e+00 5.950882203273719639e-01 -4.359371717891718845e+00 -2.468907166214417970e+00 -3.990006929169637395e+00 4.799971236430449650e+00 -1.409463314481744778e+00 8.717065759096600530e-01 -2.333008857483052090e+00 3.845420353951388037e+00 -1.969501665409760793e+00 -3.775097980456737723e+00 3.482378875263007600e+00 3.769805448606520670e+00 3.619039079274013915e+00 2.248475632882295017e+00 1.211967259288338816e+00 3.125044048861841617e+00
