-2.282648 -0.178258 -0.125537 2.258760 -0.615479 3.670788 -4.347902 -0.500524 0.904938 -4.965647 3.695153 4.359681 -3.468213 0.476137 -4.974559 1.560261 1.611684 0.829778 0.821932 3.896654 -4.000801 -4.089607 3.213273 -4.900894 -4.964700 4.094105 -2.009687 -2.787290 -4.721038 1.670336 -2.953886 4.315978 -1.545095 -1.189698 -2.428247 -1.933118 -3.502212 2.868522 -0.173836 -2.107253 0.343950 -0.249165 -4.231870 4.042404 1.959929 -4.560753 -3.279559 1.479679 -0.103151 -2.958774 -0.690089 -1.251383 -2.629290 -0.015468 4.652268 2.158225 4.609604 -3.734519 3.331027 0.984492 1.722117 -2.519296 -1.378639 -0.141679 3.127503 -3.206412 -2.839026 3.926263 -3.389811 0.734377 1.480641 4.253136 -1.621200 3.645244 0.590464 -1.067346 -1.125418 4.115753 3.427761 -0.566132 4.581150 4.194396 -3.748240 4.438536 -0.044388 2.759085 -2.169495 -3.005453 -0.852953 2.029098 -1.258227 4.741449 -4.410870 -2.496078 2.729067 2.780981
-2.282648 -0.178258 -0.125537 2.258760 -0.422704 3.670788 -4.347902 -0.500524 0.904938 -4.965647 3.695153 4.001249 -3.468213 0.476137 -4.974559 1.560261 1.611684 2.288167 0.821932 3.896654 -4.000801 -4.089607 3.213273 -4.900894 -4.964700 4.094105 -2.009687 -2.787290 -4.721038 1.670336 -2.953886 4.315978 -1.545095 -1.189698 -2.428247 -1.933118 -3.502212 2.868522 -0.173836 -2.107253 0.343950 -0.249165 -4.231870 4.042404 1.959929 -4.560753 -3.279559 1.479679 -4.111502 -0.273514 -0.690089 -1.251383 -2.629290 -0.015468 0.528191 2.158225 4.609604 -3.734519 3.331027 0.984492 1.722117 -2.519296 -1.378639 -0.141679 3.127503 -3.206412 -2.839026 3.926263 -3.868737 2.768811 0.642163 4.253136 1.375303 4.870114 0.590464 -1.067346 4.514910 -2.375952 4.798170 -4.274539 4.581150 -3.587683 -3.748240 2.584272 -0.044388 2.759085 -2.169495 -3.005453 -0.852953 3.771168 -1.258227 4.741449 -4.410870 -2.496078 0.004447 2.780981
-2.282648 1.229878 -0.125537 -0.755989 -0.422704 -0.559892 -4.347902 -0.500524 0.904938 -4.965647 1.005026 2.239821 -4.344677 0.476137 -0.374304 1.560261 1.611684 0.829778 2.910865 3.896654 1.168928 -0.486399 3.213273 -4.900894 -4.964700 4.094105 2.389283 -2.787290 -4.721038 1.830589 -2.953886 4.315978 -1.545095 -1.189698 -4.264050 -1.933118 -3.502212 2.868522 -0.173836 -2.107253 0.343950 -0.249165 -1.857124 4.042404 -1.278018 -4.560753 0.904682 1.479679 -4.111502 -2.958774 -0.690089 -1.251383 -2.629290 -0.015468 0.528191 2.158225 3.300506 -3.734519 3.331027 0.984492 -0.367537 -2.519296 -0.012984 -2.204920 3.127503 -3.206412 -2.839026 3.926263 -3.389811 0.734377 1.480641 4.253136 -1.621200 3.645244 0.341006 -1.067346 -1.125418 4.115753 3.427761 -4.274539 4.581150 -3.587683 -3.748240 2.584272 -0.044388 1.088786 -2.169495 -3.005453 -0.852953 4.173766 -1.258227 4.741449 -4.410870 -2.496078 -1.521909 1.448220
-2.282648 -0.178258 -0.125537 2.258760 -0.422704 3.670788 -4.347902 -0.500524 0.904938 -4.965647 3.695153 4.001249 -3.468213 0.476137 -1.180778 1.560261 1.611684 2.288167 0.821932 3.896654 -4.000801 -4.089607 3.213273 -4.900894 -4.964700 4.094105 -2.009687 -2.787290 -4.721038 1.670336 -2.953886 4.315978 -1.545095 -1.189698 -2.428247 -1.933118 -3.502212 2.868522 -0.173836 -2.107253 0.343950 -0.249165 0.071139 4.042404 -1.278018 -4.560753 -3.279559 1.479679 -4.111502 -2.958774 -0.690089 -2.746305 -2.629290 -1.049358 4.652268 2.158225 3.300506 -0.139129 3.331027 0.984492 -3.978582 -2.519296 -0.012984 -2.204920 2.132417 -3.206412 -2.839026 0.437078 -3.389811 0.734377 1.480641 -1.822637 0.463712 4.870114 0.590464 2.152341 3.957393 -2.375952 0.001333 -4.274539 4.581150 4.194396 -3.748240 2.584272 -0.044388 2.759085 -2.169495 -3.005453 -0.852953 4.910414 -1.258227 4.741449 -4.410870 -2.496078 0.004447 2.780981
-2.282648 -0.178258 -0.125537 2.258760 -0.422704 3.670788 -4.347902 -0.500524 0.904938 -4.965647 3.695153 4.359681 -3.468213 0.476137 -4.974559 1.560261 1.611684 0.829778 0.821932 3.896654 -1.207501 -4.089607 3.213273 -4.900894 -4.964700 4.094105 -2.009687 -2.787290 -4.721038 1.219373 -2.953886 4.315978 -1.545095 -1.189698 -2.428247 -1.933118 -3.502212 2.868522 -0.173836 -2.107253 0.343950 -0.249165 -4.231870 4.042404 1.959929 -4.560753 -3.279559 1.479679 -0.103151 -2.958774 -0.690089 3.605955 -2.629290 -0.015468 4.652268 2.158225 4.609604 -3.734519 3.331027 0.984492 1.722117 -2.519296 -1.378639 -0.141679 3.127503 -3.640715 -2.839026 3.926263 -3.868737 2.768811 0.642163 4.253136 1.375303 4.870114 0.590464 -1.067346 -1.125418 4.115753 3.427761 -0.566132 4.618641 -2.369417 -3.748240 2.584272 -0.044388 1.088786 -2.169495 -3.005453 -0.852953 2.029098 -1.258227 4.741449 -4.410870 -2.496078 0.004447 2.780981
-2.282648 -0.178258 -0.125537 2.258760 -3.908552 3.670788 -4.347902 -0.500524 0.904938 -4.965647 3.695153 4.001249 -3.468213 0.476137 -4.974559 1.560261 1.611684 2.288167 0.821932 3.896654 -4.000801 -4.089607 3.213273 -4.900894 -4.964700 4.094105 -2.009687 -2.787290 -4.721038 1.670336 -2.953886 4.315978 -1.545095 -1.189698 -2.428247 -1.933118 -3.502212 2.868522 -0.173836 -2.107253 0.343950 -0.249165 -4.231870 4.042404 1.959929 -4.560753 -1.989564 1.479679 -4.111502 -2.958774 -0.690089 -1.251383 -0.320421 -1.049358 4.652268 2.049184 3.300506 -3.734519 3.331027 0.984492 -3.978582 -2.519296 -0.012984 -0.141679 3.127503 -3.206412 -2.839026 3.926263 -3.389811 0.734377 1.480641 4.253136 -1.621200 3.645244 -4.148852 -1.067346 -1.125418 4.115753 3.427761 -4.274539 4.581150 -3.587683 -3.748240 2.584272 -0.044388 2.759085 -2.169495 -3.005453 -0.852953 3.771168 -1.258227 4.741449 -4.410870 -2.496078 0.004447 -1.892405
-2.282648 -0.178258 -0.125537 2.258760 -0.422704 3.670788 -4.347902 -0.500524 0.904938 -4.965647 3.695153 4.001249 -3.468213 0.476137 -4.974559 1.560261 1.611684 2.288167 0.821932 3.896654 -4.000801 -4.089607 3.213273 -4.900894 -4.964700 4.094105 -2.009687 -2.787290 -4.721038 1.670336 -2.953886 4.315978 -1.545095 -1.189698 -2.428247 -1.933118 -3.502212 2.868522 -0.173836 -2.107253 0.343950 -0.249165 -4.231870 4.042404 1.959929 -4.560753 -1.989564 1.479679 -4.111502 -2.958774 -0.690089 -1.251383 -0.320421 -1.049358 4.652268 2.049184 3.300506 -3.734519 3.331027 0.984492 -3.978582 -2.519296 -0.012984 -0.141679 3.127503 -3.206412 -2.839026 3.926263 1.570500 2.768811 1.480641 -0.780926 -2.224643 4.576763 -3.733823 2.152341 -1.125418 -2.375952 0.001333 -4.274539 4.581150 2.070087 -3.748240 3.795028 -0.044388 2.759085 -2.169495 -3.005453 -0.852953 4.910414 -1.258227 4.741449 -4.410870 -2.496078 0.004447 2.780981
-2.282648 1.229878 -0.125537 2.258760 -0.422704 -0.559892 -4.347902 -0.500524 0.904938 -4.965647 1.005026 4.359681 -4.344677 0.476137 -0.374304 1.560261 1.611684 0.829778 1.260238 3.896654 1.168928 -0.486399 3.213273 -4.900894 -4.964700 4.094105 2.389283 -2.787290 -4.721038 1.830589 -2.953886 4.315978 -1.545095 -1.189698 -4.264050 -1.933118 -3.502212 2.868522 -0.173836 -2.107253 0.343950 -0.249165 -1.857124 4.042404 -1.278018 -4.560753 0.904682 1.479679 -4.111502 -2.958774 -0.690089 -1.251383 -2.629290 -0.015468 0.528191 2.158225 3.300506 -3.734519 3.331027 0.984492 -0.367537 -2.519296 -0.012984 -2.204920 3.127503 -3.206412 -2.839026 3.926263 -3.389811 0.734377 2.058417 4.253136 -1.621200 -1.137850 -4.148852 -1.067346 -1.125418 4.115753 3.427761 -4.274539 4.581150 -3.587683 -3.748240 2.584272 -0.044388 2.759085 -2.169495 -3.005453 -0.852953 3.771168 -1.258227 4.741449 -4.410870 -2.496078 0.004447 2.780981
-2.282648 1.229878 -0.125537 2.258760 -0.422704 -0.559892 -4.347902 -0.500524 0.904938 -2.856378 1.005026 4.359681 -4.344677 0.476137 -0.374304 1.560261 1.611684 0.829778 2.910865 3.896654 1.168928 -0.486399 3.213273 -4.900894 -4.964700 -1.471421 2.389283 -2.787290 -4.721038 1.830589 -2.953886 4.315978 -1.545095 -1.189698 -4.264050 -1.933118 -3.502212 2.868522 -0.173836 -2.107253 0.343950 -0.249165 -1.857124 4.042404 -1.278018 -4.560753 0.904682 1.479679 -4.111502 -2.958774 -0.690089 -1.251383 -2.629290 -1.049358 4.652268 2.158225 3.300506 -3.734519 3.331027 -1.686793 -0.367537 -2.519296 -0.012984 -2.204920 3.127503 -3.206412 -2.839026 3.926263 1.570500 2.768811 1.480641 4.253136 -2.224643 4.870114 -2.673008 2.152341 -1.125418 -2.375952 0.001333 -4.274539 4.581150 2.070087 -0.685521 3.795028 -0.044388 2.759085 -2.169495 -3.005453 -0.852953 4.910414 -1.258227 4.741449 -4.410870 -2.496078 0.004447 2.780981
-2.282648 1.229878 -0.125537 2.258760 -0.422704 -0.559892 -4.347902 -0.500524 0.904938 -4.965647 1.005026 4.359681 -4.344677 0.476137 -0.374304 1.560261 1.611684 0.829778 2.910865 3.896654 1.168928 -0.486399 3.213273 -4.900894 -4.964700 4.094105 2.389283 -2.787290 -4.721038 1.830589 -2.953886 4.315978 -1.545095 -1.189698 -4.264050 -1.933118 -3.502212 2.868522 -0.173836 -2.107253 0.343950 -0.249165 -1.857124 4.042404 -1.278018 -4.560753 0.904682 1.479679 -4.111502 -2.958774 -0.690089 -1.033095 -2.629290 -0.015468 0.528191 2.158225 3.300506 -3.734519 3.331027 0.984492 -0.367537 -2.519296 -0.012984 -2.204920 3.127503 -3.206412 -2.839026 3.926263 -3.389811 0.734377 1.480641 4.253136 -1.621200 3.645244 -0.178845 -1.067346 -1.125418 4.115753 3.427761 -4.274539 4.581150 -3.587683 -3.748240 2.584272 -0.044388 2.759085 -2.169495 -3.005453 -0.852953 3.771168 -1.258227 4.741449 -4.410870 -2.496078 0.004447 2.780981
-2.282648 -0.178258 -0.125537 2.258760 -0.422704 -0.489535 -4.347902 -0.500524 0.904938 -4.965647 3.695153 4.359681 -3.468213 0.476137 -4.974559 1.560261 1.611684 0.829778 0.821932 3.896654 -4.000801 -4.089607 3.213273 -4.900894 -4.964700 -0.722475 -2.009687 -2.787290 -4.721038 1.670336 -2.953886 4.315978 -1.545095 -1.189698 -4.264050 -1.933118 -3.502212 2.868522 -3.636736 -2.107253 0.343950 -0.249165 -4.231870 4.042404 1.959929 -4.560753 -1.989564 1.479679 -4.111502 -2.958774 -0.690089 -1.251383 -0.320421 -1.049358 4.652268 2.158225 3.300506 -3.734519 3.331027 0.984492 -3.978582 -2.519296 -0.012984 -2.204920 2.132417 -3.206412 -2.839026 0.437078 -3.389811 2.768811 1.480641 0.704478 1.375303 4.870114 0.590464 -1.067346 -1.125418 -2.375952 0.001333 -4.274539 4.581150 3.435383 -3.748240 2.584272 -0.044388 2.759085 -2.169495 -3.005453 -0.852953 4.910414 -1.258227 4.741449 -4.410870 -2.496078 0.004447 2.780981
-2.282648 1.229878 -0.125537 2.258760 -0.422704 -0.559892 -4.347902 -0.500524 0.904938 -2.856378 1.005026 -0.286842 -4.344677 0.476137 -0.374304 1.560261 1.611684 0.829778 2.910865 3.896654 1.168928 -0.486399 3.213273 -4.900894 -4.964700 4.094105 2.389283 -2.787290 -4.721038 1.830589 -2.953886 4.315978 -1.545095 -1.189698 -4.264050 -1.933118 -3.502212 2.868522 -0.173836 -2.107253 0.343950 -0.249165 -1.857124 4.042404 -1.278018 -4.560753 0.904682 1.388098 -4.111502 -2.958774 -0.690089 -1.251383 -2.629290 -1.049358 4.652268 2.158225 3.300506 -3.734519 3.331027 -0.581992 -0.367537 -2.519296 -0.012984 -2.204920 3.127503 -3.206412 3.868875 3.926263 -3.389811 0.734377 1.480641 4.253136 -2.224643 4.870114 0.590464 -1.067346 -1.125418 4.115753 3.427761 -0.566132 4.618641 4.194396 -3.748240 2.584272 -0.044388 2.115257 -2.169495 -3.457570 -0.852953 4.910414 -1.258227 4.741449 -4.410870 -2.496078 0.004447 2.780981
-2.282648 -0.178258 -0.125537 3.883350 -0.422704 -0.559892 -4.559821 -0.500524 0.904938 4.418520 3.695153 4.359681 -4.344677 0.476137 -1.226523 1.560261 1.611684 0.829778 0.821932 3.896654 -0.833090 -0.486399 3.213273 -4.900894 1.098666 4.094105 -2.009687 -2.787290 -4.721038 1.670336 -2.953886 4.315978 -1.545095 -1.189698 -2.428247 -1.933118 -3.502212 2.868522 -1.280979 -2.107253 0.343950 -0.249165 0.071139 4.042404 -1.278018 -4.560753 -3.279559 1.479679 -4.111502 -2.958774 -0.690089 -2.746305 -2.629290 -1.049358 4.652268 2.158225 3.300506 -0.139129 3.331027 0.984492 -3.978582 -2.519296 -0.012984 -2.204920 2.132417 -3.206412 -2.839026 0.437078 -3.389811 0.734377 1.480641 -1.822637 0.463712 4.870114 0.590464 2.152341 3.957393 -2.375952 0.001333 -4.274539 4.581150 4.194396 -3.748240 -1.532379 -0.044388 2.759085 -2.169495 -3.005453 -0.852953 4.910414 -1.258227 4.741449 -4.410870 -2.496078 0.004447 2.780981
-2.282648 1.229878 -0.125537 2.258760 -0.422704 -0.559892 -4.347902 -0.500524 0.904938 1.620768 1.005026 4.359681 -4.278696 0.476137 -0.374304 1.560261 1.611684 0.829778 2.910865 3.896654 1.168928 -0.486399 3.213273 -4.900894 -4.964700 4.094105 2.389283 -2.787290 -4.721038 1.830589 -2.953886 4.315978 -1.545095 -1.189698 -4.264050 -1.933118 -3.502212 2.868522 -0.173836 -2.107253 0.343950 -0.249165 -1.857124 4.042404 -1.278018 -4.560753 0.904682 1.479679 -4.111502 -2.958774 -0.690089 -1.251383 -2.629290 -0.015468 0.528191 2.158225 3.300506 -3.734519 3.142628 0.984492 -0.367537 -2.519296 -0.012984 -2.204920 3.127503 -3.206412 -2.839026 3.926263 -3.389811 0.734377 1.480641 4.253136 -1.621200 3.645244 0.590464 -1.067346 -1.125418 4.115753 3.427761 -0.566132 4.618641 4.194396 -3.748240 2.584272 -0.044388 1.088786 -2.169495 -3.005453 -0.852953 2.029098 -1.258227 4.741449 -4.410870 -2.496078 0.004447 2.780981
-2.282648 0.661807 -0.125537 2.258760 -0.422704 3.670788 -4.347902 -0.500524 0.904938 -4.965647 3.695153 4.359681 -3.468213 0.476137 -4.974559 1.560261 1.611684 0.829778 0.821932 3.896654 -4.000801 -0.486399 3.213273 -4.900894 -4.964700 4.094105 -2.009687 -2.787290 -4.721038 1.830589 -2.953886 -3.717188 -1.545095 -1.189698 -4.264050 -1.933118 -3.502212 2.868522 -0.173836 -2.107253 0.343950 -0.249165 -4.231870 4.042404 1.959929 -4.560753 -3.279559 1.479679 -4.111502 -2.958774 -0.690089 -1.251383 -2.629290 -0.015468 4.652268 2.158225 4.609604 -3.734519 3.331027 0.984492 1.722117 -2.519296 -1.378639 -0.141679 3.127503 -3.206412 -2.839026 3.926263 -3.868737 2.768811 1.480641 4.253136 1.375303 4.870114 0.590464 -1.067346 -1.125418 4.391806 0.001333 -0.566132 4.581150 4.194396 -3.748240 4.438536 -0.044388 2.759085 -2.169495 -3.005453 -0.852953 2.029098 -1.258227 4.741449 -4.410870 -2.496078 0.004447 2.780981
-2.282648 1.229878 -0.125537 2.258760 -0.422704 -0.489535 -4.347902 -0.500524 0.904938 -4.965647 3.695153 4.359681 -3.468213 -1.947005 -4.974559 1.560261 1.611684 0.829778 3.498588 3.896654 -4.000801 -4.089607 3.213273 -4.900894 -4.964700 4.094105 -2.009687 -2.787290 -4.721038 1.670336 -2.953886 4.315978 -1.545095 -1.189698 -2.428247 -1.933118 -3.502212 2.868522 -0.173836 -2.107253 0.343950 -0.249165 -4.231870 4.042404 1.959929 -4.560753 -3.279559 1.479679 -0.103151 -2.958774 -0.690089 -1.251383 -2.629290 -0.015468 4.652268 2.158225 3.300506 -3.734519 3.331027 0.984492 -3.978582 -2.519296 -0.012984 -0.141679 3.127503 -3.206412 -2.839026 3.926263 1.570500 2.768811 1.480641 -0.658031 -2.224643 4.870114 -2.673008 2.152341 -1.125418 -2.375952 -0.679203 -4.274539 4.581150 2.070087 -3.748240 3.795028 -0.044388 2.759085 -2.169495 -3.005453 -0.852953 4.910414 -1.258227 4.741449 -4.410870 -2.496078 0.004447 2.780981
-2.282648 0.661807 -0.125537 2.258760 -0.422704 3.670788 -4.347902 -0.500524 0.904938 -4.965647 3.695153 4.359681 -3.468213 0.476137 -4.974559 1.560261 1.611684 0.829778 0.821932 3.896654 -4.000801 -0.486399 3.213273 -4.900894 -4.964700 4.094105 -2.009687 -2.787290 -4.721038 1.830589 -2.953886 -3.902656 -1.545095 -1.189698 -4.264050 -1.933118 -3.502212 2.868522 -0.173836 -2.107253 0.343950 -0.249165 -4.231870 4.042404 1.959929 -4.560753 -3.279559 1.479679 -4.111502 -2.958774 -0.690089 -1.251383 -2.629290 -0.015468 4.652268 2.158225 4.609604 -3.734519 3.331027 0.984492 1.722117 -2.519296 -1.378639 -2.204920 2.132417 -3.206412 -2.839026 0.437078 -3.389811 0.734377 1.480641 4.253136 -1.477098 4.870114 0.590464 -1.067346 -1.125418 4.115753 3.427761 -4.274539 4.581150 2.070087 -3.748240 3.795028 -0.044388 2.759085 -2.169495 1.825377 -0.852953 4.910414 -1.258227 4.741449 -4.410870 -2.496078 0.004447 2.780981
-2.282648 -0.178258 -0.125537 2.258760 -0.422704 2.039190 -4.347902 -0.500524 0.904938 -4.965647 3.695153 4.359681 -3.468213 0.476137 -4.974559 1.560261 1.611684 0.829778 0.821932 3.896654 -4.000801 -4.089607 3.213273 -4.900894 -4.964700 -0.722475 -2.009687 -2.787290 -4.721038 1.670336 -2.953886 4.315978 -1.545095 -1.189698 -4.264050 -1.933118 -3.502212 2.868522 -3.636736 -2.107253 0.343950 -0.249165 -4.231870 4.042404 1.959929 -4.560753 -1.989564 1.479679 -4.111502 -2.958774 -0.690089 -1.251383 -0.320421 -1.049358 4.652268 2.158225 3.300506 -3.734519 3.331027 0.984492 -3.978582 -2.519296 -1.378639 -0.141679 3.127503 -3.206412 -2.839026 3.926263 -3.868737 2.768811 1.480641 4.253136 1.375303 -4.302389 0.590464 -1.067346 -1.125418 -2.375952 0.001333 -4.274539 4.581150 2.070087 -3.748240 3.795028 -0.044388 2.759085 -2.169495 -3.005453 -0.852953 4.910414 -1.258227 4.741449 -4.410870 -2.496078 0.004447 2.780981
-2.282648 -0.178258 -0.125537 2.258760 -0.422704 3.670788 -4.347902 1.233179 0.904938 -4.965647 3.695153 4.359681 -3.468213 0.476137 -4.974559 1.560261 1.611684 0.829778 0.821932 3.896654 -4.000801 -4.089607 3.213273 -4.900894 -4.964700 -0.583929 0.962048 -2.787290 -4.721038 1.670336 -2.953886 4.315978 -1.545095 4.528130 -2.428247 -1.933118 -3.502212 2.868522 -0.173836 -2.107253 0.343950 -0.249165 -1.857124 4.042404 -1.278018 -4.560753 0.904682 1.479679 -4.111502 -2.958774 -0.690089 -1.033095 -2.629290 -0.015468 0.528191 2.158225 3.300506 -3.734519 3.331027 0.984492 -0.367537 -2.519296 -0.012984 -2.204920 3.127503 -3.206412 -2.839026 4.297203 -3.389811 0.734377 1.480641 4.253136 -3.201984 3.645244 0.590464 -1.067346 -1.125418 4.100316 3.427761 -0.566132 4.618641 -2.369417 -3.748240 2.584272 -0.044388 1.088786 -2.169495 -3.005453 -0.852953 2.029098 -1.195689 4.741449 -4.410870 -2.496078 0.004447 2.780981
-2.282648 -0.178258 -0.125537 -0.044457 -0.422704 3.670788 -4.347902 -0.500524 0.904938 -4.965647 3.695153 -1.520089 -3.468213 0.476137 -1.180778 1.560261 1.611684 2.288167 0.821932 3.896654 -4.000801 -4.089607 3.213273 -4.900894 -4.964700 -1.903404 -2.009687 -2.787290 -4.721038 1.670336 -2.953886 4.315978 -1.545095 -1.189698 -2.428247 -1.933118 -3.502212 2.868522 -0.173836 -2.107253 0.343950 -0.249165 0.071139 4.042404 -1.278018 -4.560753 -3.279559 1.479679 -4.111502 -2.958774 -0.690089 -2.746305 -2.629290 -1.049358 4.652268 2.158225 3.300506 -0.139129 3.331027 0.984492 -3.978582 -2.519296 -0.012984 -2.204920 2.132417 -3.206412 -2.839026 0.437078 -3.389811 0.734377 1.480641 -1.822637 0.463712 4.870114 0.590464 -1.067346 4.514910 -2.375952 4.798170 -4.274539 4.581150 -3.587683 -3.748240 2.584272 -0.044388 2.759085 -2.169495 -3.005453 -0.852953 -1.580940 -1.258227 4.741449 -4.410870 -2.496078 0.004447 2.780981
-2.282648 -0.178258 -0.125537 2.258760 -0.422704 1.987044 -4.347902 -0.500524 0.904938 -4.965647 3.695153 4.359681 -3.468213 0.476137 -4.974559 1.560261 1.611684 0.829778 0.821932 3.896654 -4.000801 -4.089607 3.213273 -4.900894 -4.964700 4.094105 -2.009687 -2.787290 -4.721038 1.670336 -2.953886 4.315978 -1.545095 -1.189698 -2.428247 -1.933118 -3.502212 2.868522 -0.173836 -2.107253 0.343950 -0.249165 -4.231870 4.042404 1.959929 -4.560753 -3.279559 1.479679 -0.103151 -2.958774 -0.690089 -1.251383 -2.629290 -0.015468 4.652268 2.158225 3.300506 -3.734519 3.331027 0.984492 -0.367537 -2.519296 -0.012984 -2.204920 3.127503 -3.206412 -2.839026 3.926263 -3.389811 0.734377 1.480641 -3.281616 1.375303 4.870114 0.590464 -1.067346 -1.125418 -2.375952 4.798170 -4.274539 2.124657 -3.587683 -3.748240 -2.362032 -0.044388 2.759085 -2.169495 -3.005453 -0.852953 4.910414 -1.258227 4.741449 -4.410870 -2.496078 0.004447 -0.847831
-2.282648 -0.178258 -0.125537 3.883350 -0.422704 -0.559892 -4.559821 -0.500524 0.904938 4.418520 3.695153 4.359681 -4.344677 0.476137 -1.226523 1.560261 1.611684 0.829778 0.821932 -3.566615 -0.833090 -0.486399 3.213273 -4.900894 1.098666 4.094105 -2.009687 -2.787290 -4.721038 1.670336 0.009731 -0.759337 -1.545095 -1.189698 -3.713744 -1.933118 -3.502212 2.868522 -0.173836 -2.107253 0.343950 -0.249165 -4.231870 4.042404 1.959929 -4.560753 -1.989564 1.479679 -4.111502 -2.958774 -0.690089 -1.251383 -0.320421 -1.049358 4.652268 2.158225 3.300506 -1.438099 3.331027 0.984492 -3.978582 -2.519296 -0.012984 -0.141679 3.127503 -3.206412 -2.839026 3.926263 1.570500 2.768811 1.480641 4.253136 -2.224643 4.870114 -2.673008 2.152341 -1.125418 4.115753 3.427761 -4.274539 4.618641 -2.187052 -4.331061 2.584272 -0.044388 2.759085 -2.169495 -3.005453 -0.852953 4.910414 -1.258227 4.741449 -4.410870 -2.496078 0.004447 2.780981
-2.282648 -0.178258 -0.125537 -4.567369 -0.422704 -0.559892 -4.559821 -0.500524 0.904938 -4.965647 3.695153 4.359681 -3.468213 0.476137 -4.974559 1.560261 1.611684 0.829778 0.821932 3.896654 -4.000801 -4.089607 3.213273 -4.900894 -4.964700 4.094105 -2.009687 -2.787290 -4.721038 1.670336 -2.953886 4.315978 -1.545095 -1.189698 3.482023 -1.933118 -3.502212 2.868522 -0.173836 -2.107253 0.343950 -0.249165 -4.231870 4.042404 1.959929 -4.560753 -3.279559 1.479679 -0.103151 -2.958774 -0.690089 -1.251383 -2.629290 -0.015468 4.652268 2.158225 4.609604 -3.734519 3.331027 0.984492 1.722117 -2.519296 -1.378639 -0.141679 3.127503 -3.206412 -2.839026 3.926263 -3.868737 2.768811 0.642163 4.253136 1.375303 4.870114 0.590464 -1.067346 -1.125418 -2.375952 4.798170 -4.274539 2.124657 -3.587683 -3.748240 -2.362032 -0.044388 2.759085 -2.169495 -3.005453 -0.852953 4.910414 -1.258227 4.741449 -4.410870 -2.496078 3.988525 -0.847831
-2.282648 -0.178258 -0.125537 2.258760 -0.422704 3.670788 -4.347902 -0.500524 0.904938 4.371080 3.695153 4.359681 -3.468213 0.476137 -4.974559 1.560261 1.611684 0.829778 0.821932 3.896654 -4.000801 -4.089607 3.213273 -4.900894 -4.964700 4.094105 -2.009687 -2.787290 -4.721038 1.670336 -2.953886 -1.042297 -1.545095 -1.189698 -2.428247 -1.933118 -3.502212 2.868522 -0.173836 -2.107253 0.343950 -0.249165 -4.231870 4.042404 1.959929 -4.560753 -3.279559 1.479679 -0.103151 -2.958774 -0.690089 -1.251383 -2.629290 -0.015468 4.652268 2.158225 4.609604 -3.734519 3.331027 0.984492 1.722117 -2.519296 -1.378639 -0.141679 3.127503 -3.206412 -2.839026 3.926263 -3.868737 2.768811 -2.146294 4.253136 1.375303 4.870114 0.590464 -1.067346 4.514910 -2.375952 4.798170 -4.274539 4.581150 -3.587683 -3.748240 2.584272 -0.044388 2.759085 -2.169495 -3.005453 -0.852953 3.771168 -1.258227 4.741449 -4.410870 -1.950892 0.004447 2.780981
-2.282648 -0.178258 -0.125537 2.258760 -0.422704 -0.489535 -4.347902 -0.500524 0.904938 -4.965647 3.695153 4.359681 -3.468213 0.476137 -4.974559 1.560261 1.611684 0.829778 2.910865 3.896654 1.168928 -0.486399 3.213273 -4.900894 -4.964700 4.094105 2.389283 -2.787290 -4.721038 1.830589 -2.953886 4.315978 -1.545095 -1.189698 -4.264050 -1.933118 -3.502212 2.868522 -0.173836 -2.107253 0.343950 -0.249165 -1.857124 4.042404 -1.278018 -4.560753 0.904682 1.479679 -4.111502 -2.958774 -0.690089 -1.251383 -2.629290 -0.015468 -2.570665 2.158225 3.300506 -3.734519 3.331027 0.984492 -0.367537 -2.519296 -0.012984 -2.204920 3.127503 -3.206412 -2.839026 3.926263 -3.389811 0.734377 1.480641 4.253136 -2.224643 4.870114 -2.673008 2.152341 -1.125418 -2.375952 0.001333 -4.274539 4.581150 2.070087 -3.748240 3.795028 -0.044388 2.759085 -2.169495 -3.005453 -0.852953 4.910414 -1.258227 4.741449 -4.410870 -2.496078 0.004447 2.780981
-2.282648 -0.178258 -0.125537 2.258760 -0.422704 -0.489535 -4.347902 -0.500524 0.904938 -4.965647 3.695153 1.084756 -3.468213 0.476137 -4.974559 1.560261 1.611684 0.829778 0.821932 3.896654 -4.000801 -4.089607 3.213273 -4.900894 -4.964700 4.094105 -2.009687 -2.787290 -4.721038 -4.210935 -2.953886 4.315978 -1.545095 -1.189698 -4.264050 -1.933118 -3.502212 2.868522 -3.636736 -2.107253 0.343950 -0.249165 -4.231870 4.042404 1.959929 -4.560753 -1.989564 1.479679 -4.111502 -2.958774 -0.690089 -1.251383 -0.320421 -1.049358 4.652268 -1.974253 3.300506 -3.734519 3.331027 0.984492 -3.978582 -2.519296 -0.012984 -0.141679 3.127503 -3.206412 -2.839026 3.926263 1.570500 2.768811 1.480641 4.253136 -2.224643 4.870114 -2.673008 2.152341 -0.351780 4.115753 3.427761 -0.566132 4.618641 4.194396 -3.748240 2.584272 -0.044388 1.088786 -2.169495 -3.005453 -0.852953 2.029098 -1.258227 4.741449 -4.410870 -2.496078 0.004447 2.780981
-2.282648 -0.178258 -0.125537 -4.567369 -0.422704 -0.559892 -4.559821 -0.500524 0.904938 -4.965647 3.695153 4.359681 -3.468213 0.476137 -4.974559 1.560261 1.611684 0.829778 0.821932 3.896654 -4.000801 -0.486399 3.213273 -4.900894 -4.964700 4.094105 -2.009687 -2.787290 -4.721038 1.830589 -2.953886 -2.720786 -1.545095 -1.189698 -3.713744 -1.933118 1.184090 2.868522 -0.173836 -2.107253 0.343950 -0.249165 -2.698144 4.042404 1.959929 -4.560753 -1.989564 1.479679 -4.111502 -2.958774 -0.690089 -1.251383 -0.320421 -1.049358 4.652268 2.049184 3.300506 -3.734519 3.331027 0.984492 -3.978582 -2.519296 -0.012984 -2.204920 3.127503 -3.206412 -2.839026 3.926263 -3.389811 0.734377 1.480641 4.253136 1.375303 4.870114 0.590464 -1.067346 -1.125418 -2.375952 0.029540 -4.274539 4.618641 4.194396 -3.748240 2.584272 -0.044388 1.088786 -2.169495 -3.005453 -0.852953 2.029098 -1.258227 4.741449 -4.410870 -2.496078 0.004447 2.780981
-1.770898 -0.178258 -0.125537 2.258760 -0.422704 -0.489535 -4.347902 -0.500524 0.904938 -4.965647 3.695153 4.359681 -3.468213 0.476137 -4.974559 1.560261 1.611684 0.829778 0.821932 3.896654 -4.000801 -4.089607 3.213273 -4.900894 -4.964700 -0.722475 -2.009687 -2.787290 -4.721038 1.670336 -2.953886 4.315978 -1.545095 -1.189698 -4.264050 -1.933118 -3.502212 2.868522 -3.636736 -2.107253 0.343950 -0.249165 -4.231870 4.042404 1.959929 -4.560753 -1.989564 1.479679 -4.111502 -2.958774 -0.690089 -1.251383 -2.629290 -0.015468 4.652268 2.158225 4.609604 -3.734519 3.331027 0.984492 1.722117 -2.519296 -1.378639 1.494853 3.127503 -3.206412 -2.839026 3.926263 -3.868737 2.768811 1.480641 4.253136 1.375303 4.870114 0.590464 -1.067346 -1.125418 -2.375952 3.427761 -4.274539 4.618641 3.435383 -3.748240 2.584272 -0.044388 2.759085 -2.169495 -3.005453 -0.852953 4.910414 -1.258227 4.741449 -4.410870 -2.496078 0.004447 2.780981
-2.282648 0.661807 -0.125537 2.258760 -0.422704 3.670788 -4.347902 -0.500524 0.904938 3.549791 3.695153 4.359681 -3.468213 0.476137 -4.974559 1.560261 1.611684 0.829778 0.821932 3.896654 -4.000801 -0.486399 -4.648796 -4.900894 -4.964700 4.094105 -2.009687 -2.787290 -4.721038 1.830589 -2.953886 -3.717188 -1.545095 -1.189698 -4.264050 -1.933118 -3.502212 2.868522 -0.173836 -2.107253 0.343950 -0.249165 -4.231870 4.042404 1.959929 -4.560753 -3.279559 1.479679 -4.111502 -2.958774 -0.690089 -1.251383 -2.629290 -0.015468 0.528191 2.158225 4.609604 -3.734519 3.331027 0.984492 1.722117 -2.519296 -0.012984 -0.141679 3.127503 -3.206412 -2.839026 3.926263 1.570500 2.768811 1.480641 4.253136 -2.224643 4.870114 -2.673008 2.152341 -1.125418 -2.375952 4.798170 -4.274539 4.581150 -3.587683 -3.748240 2.584272 -0.044388 2.759085 -2.169495 2.105374 -0.852953 3.771168 -1.258227 4.741449 -4.410870 -2.496078 0.004447 2.780981
-2.282648 -0.178258 -0.125537 2.258760 -0.422704 3.670788 -4.347902 -0.500524 0.904938 -4.965647 3.695153 4.001249 -3.468213 0.476137 -1.180778 1.560261 1.611684 2.288167 0.821932 3.896654 -4.000801 -4.089607 3.213273 -4.900894 -4.964700 4.094105 -2.009687 -2.787290 -4.721038 1.670336 -2.953886 4.315978 -1.545095 -1.189698 -2.428247 -1.933118 -3.502212 2.868522 -0.173836 -2.107253 0.343950 -0.249165 0.071139 4.042404 -1.278018 -4.560753 -3.279559 1.479679 -4.111502 -2.958774 -0.690089 -2.746305 -2.629290 -1.049358 4.652268 2.158225 3.300506 -0.139129 3.331027 0.984492 -3.978582 -2.519296 -0.012984 -2.204920 2.132417 -3.206412 -2.839026 0.437078 -3.389811 0.734377 1.480641 -1.822637 0.463712 -0.882396 0.590464 -1.067346 -2.839456 -2.375952 0.001333 -4.274539 4.581150 2.070087 -3.748240 3.795028 -0.044388 2.759085 -2.169495 -3.005453 -0.852953 4.910414 -1.258227 4.741449 -4.410870 -2.496078 0.004447 2.780981
-2.282648 -0.178258 -0.125537 2.258760 -0.422704 -0.489535 -1.403289 -0.500524 0.904938 -4.965647 3.695153 4.359681 -3.468213 0.476137 -4.974559 1.560261 1.611684 0.829778 0.821932 3.896654 -4.000801 -4.089607 3.213273 -4.900894 -4.964700 4.094105 -2.009687 -2.787290 -4.721038 -4.210935 -2.953886 4.315978 -1.545095 -1.189698 -4.264050 -1.933118 -3.502212 2.868522 -3.636736 -2.107253 0.343950 -0.249165 -4.231870 4.042404 1.959929 -4.560753 -1.989564 1.479679 -4.111502 -2.958774 -0.545289 -1.251383 -0.320421 -1.049358 4.652268 -1.974253 3.300506 -3.734519 3.331027 -3.536344 -3.978582 -2.519296 -0.012984 -0.141679 3.127503 -3.206412 -2.839026 3.926263 1.570500 2.768811 1.480641 4.253136 -2.224643 4.870114 -2.673008 2.152341 -1.125418 -2.375952 4.798170 -4.274539 4.581150 4.194396 1.869556 -1.532379 -0.044388 2.759085 -2.169495 -3.005453 -0.852953 4.910414 -1.258227 4.741449 -4.410870 -1.950892 0.004447 2.780981
-2.282648 -0.178258 -0.125537 2.258760 -0.422704 -0.489535 -4.347902 -0.500524 0.904938 -4.965647 3.695153 4.359681 -3.468213 0.476137 -4.974559 1.560261 1.611684 0.829778 0.821932 3.896654 -4.000801 -4.089607 3.213273 -4.900894 -4.964700 4.094105 -2.009687 -2.787290 -4.721038 -4.210935 -2.953886 4.315978 -1.545095 -1.189698 -4.264050 -1.933118 -3.502212 2.868522 -3.636736 -2.107253 0.343950 -0.249165 -4.231870 4.042404 1.959929 -4.560753 -1.989564 1.479679 -4.111502 -2.958774 -0.690089 -1.251383 -0.320421 -1.049358 4.652268 -1.974253 3.300506 -3.734519 3.331027 0.984492 -3.978582 -2.519296 -0.012984 -0.141679 3.127503 -3.206412 -2.839026 3.926263 1.570500 0.734377 1.480641 4.253136 -3.201984 3.645244 0.590464 -1.067346 -1.125418 4.100316 3.427761 -0.566132 4.618641 -2.369417 -3.748240 2.584272 -0.044388 1.088786 -2.169495 -3.005453 -0.852953 2.029098 -1.195689 4.741449 -4.410870 -2.496078 0.004447 2.780981
-2.282648 1.229878 -0.125537 2.258760 -0.422704 -0.559892 -4.347902 -0.500524 0.904938 -4.965647 1.005026 4.359681 -4.344677 0.476137 -0.374304 1.560261 1.611684 0.829778 2.910865 3.896654 1.168928 -0.486399 3.213273 -4.900894 -4.964700 4.094105 2.389283 -2.811079 -4.721038 1.830589 -2.953886 4.315978 -1.545095 -1.189698 -4.264050 -1.933118 -3.502212 2.868522 -0.173836 -2.107253 0.343950 -0.249165 -1.857124 4.042404 -1.278018 4.116658 0.904682 1.479679 -4.111502 -2.958774 -0.690089 -1.033095 -2.629290 -0.015468 0.528191 2.158225 3.300506 -3.734519 3.331027 0.984492 -0.367537 -2.519296 -0.012984 -2.204920 3.127503 -3.206412 -2.839026 4.297203 -3.389811 0.734377 1.480641 4.996770 -1.477098 4.870114 0.590464 -1.067346 -1.125418 4.115753 3.427761 -4.274539 4.618641 3.435383 -3.748240 2.584272 -0.044388 2.759085 -2.169495 -3.005453 -0.852953 4.910414 -1.258227 3.106020 -4.410870 -2.496078 0.004447 2.780981
-2.282648 3.489052 -0.125537 2.258760 -0.422704 3.670788 -4.347902 -0.500524 0.904938 -4.965647 3.695153 4.359681 -3.468213 0.476137 -4.974559 1.560261 1.611684 0.829778 0.821932 3.896654 -4.000801 -4.089607 3.213273 -4.900894 -4.964700 4.094105 -2.009687 -2.787290 -4.721038 1.670336 -2.953886 4.315978 -1.545095 -1.189698 -2.428247 -1.933118 -3.502212 2.868522 -0.173836 -2.107253 0.343950 -0.249165 -4.231870 4.042404 1.959929 -4.560753 -3.279559 1.479679 -0.103151 -2.958774 -0.690089 -1.251383 -2.629290 -0.015468 4.652268 2.158225 4.609604 -3.734519 3.331027 0.984492 1.722117 -2.519296 -1.378639 -0.141679 3.127503 -3.206412 -2.839026 3.926263 -3.868737 2.768811 0.642163 4.253136 -2.224643 4.870114 -2.673008 2.152341 2.637411 4.115753 3.427761 -4.274539 4.618641 -2.187052 -4.331061 2.584272 -0.044388 2.759085 -2.169495 -3.005453 -0.852953 3.771168 -1.258227 4.741449 -4.410870 -2.496078 0.004447 2.780981
-2.282648 1.229878 4.228215 4.340292 -0.422704 -0.559892 -4.347902 -0.500524 0.904938 -4.965647 3.695153 4.359681 -3.468213 0.476137 -4.974559 1.560261 1.611684 0.829778 0.821932 3.896654 -4.000801 -4.089607 3.213273 -4.900894 -4.964700 4.094105 -2.009687 -2.787290 -4.721038 1.830589 -2.953886 -3.717188 -1.545095 -1.189698 -4.264050 -1.933118 -3.502212 2.868522 -0.173836 -2.107253 0.343950 -0.249165 -4.231870 4.042404 1.959929 -4.560753 -3.279559 1.479679 -4.111502 -2.958774 -0.690089 -1.251383 -2.629290 -0.015468 4.652268 2.158225 4.609604 -3.734519 3.331027 0.984492 1.722117 -2.519296 -1.378639 -0.141679 3.127503 -3.206412 -2.839026 3.926263 -3.868737 2.768811 1.480641 4.253136 1.375303 4.870114 0.590464 -1.067346 -1.125418 -2.375952 0.001333 -4.274539 4.581150 2.070087 -3.748240 3.795028 -0.044388 2.759085 -2.169495 -3.005453 -0.852953 4.910414 -1.258227 4.741449 -4.410870 -2.496078 0.004447 2.780981
-2.282648 -0.178258 -0.125537 2.258760 -0.422704 3.670788 -4.347902 -0.500524 0.904938 -4.965647 3.695153 4.359681 -3.468213 2.002733 -4.974559 1.560261 1.611684 0.829778 0.821932 3.896654 -4.000801 -4.089607 3.213273 -4.900894 -4.964700 0.958891 -2.009687 0.014587 -4.721038 1.101595 -2.953886 4.315978 -1.545095 -1.189698 -4.264050 -1.933118 -3.502212 2.868522 -0.173836 -2.107253 0.343950 -0.249165 -4.231870 4.042404 1.959929 -4.560753 -1.989564 1.479679 -4.111502 -2.958774 4.131411 -1.251383 -2.629290 -0.015468 4.652268 2.158225 4.609604 -3.734519 3.331027 0.984492 1.722117 -2.519296 -1.378639 -0.141679 3.127503 -3.206412 -2.839026 3.926263 -3.868737 2.768811 0.642163 4.253136 1.375303 4.870114 0.590464 -1.067346 -1.125418 -2.375952 4.798170 -4.274539 2.124657 -3.587683 -3.748240 -2.362032 -0.044388 2.759085 -2.169495 -3.005453 -0.852953 4.910414 -1.258227 4.741449 -4.410870 -2.496078 0.004447 -0.847831
-2.282648 1.229878 4.228215 2.258760 -0.422704 -0.559892 2.375399 -0.500524 0.904938 -4.965647 3.695153 4.359681 -3.468213 0.476137 -4.974559 1.560261 1.611684 0.829778 -0.671940 3.896654 -4.000801 -4.089607 3.213273 -4.900894 -4.964700 4.094105 -2.009687 -2.787290 -4.721038 1.670336 -2.953886 4.315978 -1.545095 -1.189698 -2.428247 -1.933118 -3.502212 2.868522 -0.173836 -2.107253 0.343950 -0.249165 -4.231870 4.042404 1.959929 -4.560753 -3.279559 1.479679 -0.103151 -2.958774 -0.690089 3.605955 -2.629290 -0.015468 4.652268 2.158225 4.609604 -3.734519 3.331027 0.984492 1.722117 -2.519296 -1.378639 -0.141679 3.127503 4.680779 -2.839026 3.926263 -3.868737 2.768811 0.642163 4.253136 1.375303 4.870114 0.590464 -1.067346 -1.125418 4.115753 3.427761 -0.566132 4.618641 -2.369417 -3.748240 2.584272 -0.044388 1.088786 -2.169495 -3.005453 -0.852953 2.029098 -1.258227 4.741449 -4.410870 -2.496078 0.004447 -0.847831
-2.282648 -0.178258 -0.125537 2.258760 -0.422704 3.670788 -4.347902 -0.500524 0.904938 -4.965647 3.695153 4.001249 -3.468213 0.476137 -1.180778 1.560261 1.611684 2.288167 0.821932 3.896654 -4.000801 -4.089607 3.213273 -4.900894 -4.964700 4.094105 -2.009687 -2.787290 -4.721038 1.670336 -2.953886 4.315978 -1.545095 -1.189698 -2.428247 -1.933118 -3.502212 2.868522 -0.173836 -2.107253 0.343950 -0.249165 0.071139 4.042404 -1.278018 -4.560753 -3.279559 1.479679 -4.111502 -2.958774 -0.690089 -2.746305 -2.629290 -1.049358 4.652268 2.158225 3.300506 -0.139129 3.331027 0.984492 -3.978582 -2.519296 -0.012984 -2.204920 2.132417 -3.206412 -2.839026 0.437078 -3.389811 0.734377 1.480641 -1.822637 0.463712 4.870114 0.590464 2.152341 3.957393 -2.375952 0.001333 -4.274539 4.581150 4.194396 -3.748240 -1.532379 -0.044388 2.759085 -2.169495 -3.005453 -0.852953 4.910414 -1.258227 4.741449 -4.410870 -2.496078 0.004447 1.448220
-2.282648 0.661807 -0.125537 2.258760 -0.422704 3.670788 -4.347902 -0.500524 0.904938 -4.965647 3.695153 4.359681 -3.468213 0.476137 -4.974559 1.560261 1.611684 0.829778 0.821932 3.896654 -4.000801 -0.486399 3.213273 -4.900894 -4.964700 4.094105 -2.009687 -2.787290 -4.721038 1.830589 -2.953886 -3.717188 -1.545095 -1.189698 -4.264050 -1.933118 -3.502212 2.868522 -0.173836 -2.107253 0.343950 -0.249165 -4.231870 4.042404 1.959929 -4.560753 -3.279559 1.479679 -4.111502 -2.958774 -0.690089 -1.251383 -2.629290 -2.544494 1.746336 2.158225 4.609604 -3.734519 3.331027 0.984492 1.722117 -2.519296 -1.378639 -0.141679 3.127503 -3.206412 -2.839026 3.926263 -3.868737 2.768811 0.642163 4.253136 1.375303 4.870114 0.590464 -1.067346 4.514910 -2.375952 4.798170 -4.274539 4.581150 -3.587683 -3.748240 2.584272 -0.044388 1.088786 -2.169495 -3.005453 -0.852953 2.029098 -1.195689 4.741449 -4.410870 -2.496078 0.004447 2.780981
-2.282648 -0.178258 -0.125537 2.258760 -0.422704 3.670788 -4.347902 -0.500524 0.904938 -4.965647 3.695153 4.001249 -3.468213 0.476137 -4.974559 1.560261 1.611684 2.288167 0.821932 3.896654 -4.000801 -4.089607 3.213273 -4.900894 -4.964700 4.094105 -2.009687 -2.787290 -4.721038 1.670336 -2.953886 4.315978 -1.545095 -1.189698 -2.428247 -1.933118 -3.502212 2.868522 -0.173836 -2.107253 0.343950 -0.249165 0.071139 4.042404 -1.278018 -4.560753 -3.279559 1.479679 -4.111502 -2.958774 -0.690089 3.944925 -2.629290 -1.049358 4.652268 2.158225 3.300506 -0.139129 3.331027 0.984492 -3.978582 -2.519296 -0.012984 -2.204920 2.132417 -3.206412 -2.839026 -2.039615 -3.389811 0.734377 1.480641 -1.822637 0.463712 4.870114 0.590464 2.152341 3.957393 -2.375952 0.001333 -4.274539 4.581150 4.194396 -3.748240 -1.532379 -0.044388 2.759085 -2.169495 -3.005453 -0.852953 4.910414 -1.258227 4.741449 -4.410870 -2.496078 0.004447 2.780981
-2.282648 1.229878 -0.125537 2.258760 -0.422704 -0.559892 -4.347902 -0.500524 0.904938 -4.965647 1.005026 2.864995 -4.344677 0.476137 -0.374304 1.560261 1.611684 0.829778 2.910865 3.896654 1.168928 -0.486399 3.213273 -4.900894 -4.964700 4.094105 2.389283 -2.787290 -4.721038 1.830589 -2.953886 4.315978 -1.545095 -1.189698 -4.264050 -1.933118 -3.502212 2.868522 -0.173836 -2.107253 0.343950 -0.249165 -1.857124 4.042404 -1.278018 -4.560753 0.904682 1.479679 -4.111502 -2.958774 -0.690089 -1.251383 -2.629290 -0.015468 0.528191 2.158225 3.300506 -3.734519 3.331027 2.410247 -0.367537 -2.519296 -0.012984 -2.204920 3.127503 -3.206412 -2.839026 3.926263 -3.389811 0.734377 -0.185142 4.253136 -1.621200 3.645244 0.590464 -1.067346 -1.125418 4.115753 3.427761 -0.566132 4.581150 2.070087 -3.748240 3.795028 -0.044388 2.759085 -2.169495 -3.005453 -0.852953 4.910414 -1.258227 4.741449 -4.410870 -2.496078 3.970416 2.780981
-2.282648 -0.178258 -0.125537 2.258760 -0.422704 3.670788 -4.347902 -0.500524 0.904938 -4.965647 3.695153 4.001249 -3.468213 0.476137 -1.180778 1.560261 1.611684 2.288167 0.821932 3.896654 -4.000801 -4.089607 3.213273 -4.900894 -4.964700 4.094105 -2.009687 -2.787290 -4.721038 1.670336 -2.953886 4.315978 -1.545095 -1.189698 -2.428247 -1.933118 -3.502212 2.868522 -0.173836 -2.107253 0.343950 -0.249165 0.071139 4.042404 -1.278018 -4.560753 -3.279559 1.479679 2.899511 -2.958774 -0.690089 -2.746305 -2.629290 -1.049358 4.652268 2.158225 3.300506 -0.139129 3.331027 0.984492 -3.978582 -2.519296 -0.012984 -2.204920 2.132417 -3.206412 -2.839026 0.437078 -3.389811 0.645415 1.480641 -1.822637 0.463712 4.870114 0.590464 2.152341 3.957393 -2.375952 0.001333 -4.274539 4.581150 4.194396 -3.748240 -1.532379 -0.044388 2.759085 -2.169495 -3.005453 -0.852953 4.910414 -1.258227 4.741449 -4.410870 -2.496078 0.004447 1.448220
-2.282648 1.229878 -0.125537 2.258760 -0.422704 -0.559892 -4.347902 -0.500524 0.904938 -4.965647 1.005026 4.359681 -4.344677 0.476137 -0.374304 1.560261 1.611684 0.829778 2.910865 3.896654 1.168928 -0.486399 3.213273 -4.900894 -4.964700 4.094105 2.389283 -2.787290 -4.721038 1.830589 -2.953886 4.315978 -1.545095 -1.189698 -4.264050 -1.933118 -3.502212 2.868522 -0.173836 -2.107253 0.343950 -0.249165 -1.857124 4.042404 -1.278018 -4.560753 0.904682 1.479679 -4.111502 -2.958774 -0.690089 -1.251383 -2.629290 -0.015468 0.528191 2.158225 3.300506 -3.734519 3.331027 0.984492 -0.367537 -2.519296 -0.012984 -2.204920 3.127503 -3.206412 -2.839026 3.926263 -3.389811 0.734377 1.480641 4.253136 -1.621200 3.645244 -4.148852 -1.067346 -1.125418 4.115753 3.427761 -4.274539 4.581150 -3.587683 -3.748240 2.584272 -0.044388 2.759085 -2.169495 -3.005453 -0.852953 3.771168 -1.258227 4.741449 -4.410870 -2.496078 0.004447 2.780981
-2.282648 1.229878 -0.125537 2.258760 -0.422704 -0.559892 -4.347902 -0.500524 0.904938 -4.965647 1.005026 4.359681 -4.344677 0.476137 -0.374304 1.560261 1.611684 0.829778 2.910865 3.896654 1.168928 -0.486399 3.213273 -4.900894 -4.964700 4.094105 2.389283 -2.787290 -4.721038 1.830589 -2.953886 4.315978 -1.545095 -1.189698 -4.264050 -1.933118 1.057731 2.868522 -0.173836 -2.107253 0.343950 -0.249165 -1.857124 4.042404 -1.278018 -4.560753 0.904682 1.479679 -4.111502 -2.958774 -0.690089 -1.033095 -2.629290 -0.015468 0.528191 2.158225 3.300506 -3.734519 3.331027 0.984492 -0.367537 -2.519296 -0.012984 -2.204920 3.127503 -3.206412 -2.839026 4.297203 -3.389811 0.734377 1.480641 4.253136 -3.201984 3.645244 0.590464 -1.067346 -1.125418 4.100316 3.427761 -0.566132 4.618641 -2.369417 -3.748240 2.584272 -0.044388 1.088786 -2.169495 -3.005453 -0.852953 2.029098 -1.195689 4.741449 -4.410870 -2.496078 0.004447 2.780981
-2.282648 0.661807 -0.125537 2.258760 -0.422704 3.670788 -4.347902 -0.500524 0.904938 -4.965647 3.695153 4.359681 -3.468213 0.476137 -4.974559 1.560261 1.611684 0.829778 0.821932 3.896654 -4.000801 -0.486399 3.213273 -3.350557 -4.964700 4.094105 -2.009687 -2.787290 -4.721038 1.830589 -2.953886 -3.717188 -1.545095 -1.189698 -4.264050 -1.933118 -3.502212 2.868522 -0.173836 -2.107253 0.343950 -0.249165 -4.231870 4.042404 1.959929 -4.560753 -3.279559 1.479679 -4.111502 -2.958774 -0.690089 -1.251383 -2.629290 -0.015468 0.528191 2.158225 4.609604 -3.734519 3.331027 0.984492 1.722117 -2.519296 -1.378639 -0.141679 3.127503 -3.206412 -2.839026 3.926263 -3.868737 2.768811 0.642163 4.253136 1.375303 4.870114 0.590464 -1.067346 -4.483316 -2.375952 4.798170 -4.274539 4.581150 -3.587683 -3.748240 2.584272 -0.044388 2.759085 -2.169495 -3.005453 -0.852953 3.771168 -1.258227 4.741449 -4.410870 -2.496078 0.004447 2.780981
-2.282648 -0.178258 -0.125537 2.258760 -0.422704 3.670788 -4.347902 -0.500524 0.904938 -4.965647 3.695153 4.001249 -3.468213 0.476137 -4.974559 1.560261 1.611684 2.288167 0.821932 3.896654 -4.000801 -4.089607 3.213273 -4.900894 -4.964700 4.094105 -2.009687 -2.787290 -4.721038 1.670336 -2.953886 4.315978 -1.545095 -1.189698 -2.428247 -1.933118 -3.502212 2.868522 -0.173836 -2.107253 0.343950 -0.249165 -4.231870 4.042404 1.959929 -4.560753 -1.989564 1.479679 -4.111502 -2.958774 -0.690089 -1.251383 -0.320421 -1.049358 4.652268 2.049184 3.300506 -3.734519 3.331027 0.984492 -3.978582 -2.519296 -0.012984 -0.141679 3.127503 -3.206412 -2.839026 3.926263 1.570500 2.768811 1.480641 4.253136 -2.224643 4.870114 -2.673008 2.152341 -1.125418 1.564432 -3.358338 -4.274539 4.618641 -2.187052 -4.331061 2.584272 -0.044388 2.759085 -2.169495 -3.005453 -0.852953 4.910414 -1.258227 4.741449 -4.410870 -2.496078 0.004447 2.780981
-2.282648 0.661807 -0.125537 2.258760 -0.422704 3.670788 -4.347902 -0.500524 0.904938 -4.965647 3.695153 4.359681 -3.468213 0.157778 -4.974559 1.560261 1.611684 0.829778 0.821932 3.896654 -4.000801 -0.486399 3.213273 -4.900894 -4.964700 4.094105 -2.009687 -2.787290 -4.721038 1.830589 -2.953886 -3.717188 -1.545095 -1.189698 -4.264050 -1.933118 -3.502212 2.868522 -0.173836 -2.107253 0.343950 -0.249165 -4.231870 4.042404 1.959929 -4.560753 -1.989564 1.479679 -4.111502 -2.958774 -2.583205 -1.251383 -0.320421 -1.049358 4.652268 2.049184 3.300506 -3.734519 3.331027 0.984492 -3.978582 -2.519296 -0.012984 -2.204920 3.127503 -3.206412 -2.839026 3.926263 -3.389811 0.734377 1.480641 4.253136 1.375303 2.895248 0.590464 -1.067346 4.514910 -2.375952 4.798170 -4.274539 4.581150 -3.587683 -3.748240 2.584272 -0.044388 2.759085 -2.169495 -3.005453 -0.852953 3.771168 -1.258227 4.741449 -4.410870 -2.496078 0.004447 2.780981
-2.282648 -0.178258 -0.125537 2.258760 -0.422704 3.670788 -4.347902 -0.500524 0.904938 -4.965647 3.695153 4.001249 -3.468213 0.476137 -1.180778 1.560261 1.611684 2.288167 0.821932 3.896654 -4.000801 -4.266817 3.213273 -4.900894 -4.964700 4.094105 -2.009687 -2.787290 -4.721038 1.670336 -2.953886 4.315978 -1.545095 -1.189698 -2.428247 -1.933118 -3.502212 2.868522 -0.173836 -2.107253 0.343950 -0.249165 0.071139 4.042404 -1.278018 -4.560753 -3.279559 -3.678548 -4.111502 -2.958774 -4.031386 -2.746305 -2.629290 -1.049358 4.652268 2.158225 3.300506 -0.139129 3.331027 0.984492 -3.978582 -2.519296 -0.012984 -2.204920 2.132417 -3.206412 -2.839026 0.437078 -3.389811 0.734377 1.480641 -1.822637 0.463712 4.870114 0.590464 2.152341 3.957393 -2.375952 0.001333 -4.274539 4.581150 4.194396 -3.748240 -1.532379 -0.044388 2.759085 -2.169495 -3.005453 -0.852953 4.910414 -1.258227 4.741449 -4.410870 -2.496078 0.004447 2.780981
-2.282648 -0.178258 -0.125537 2.258760 -0.422704 3.670788 -4.347902 -0.500524 0.904938 -4.965647 3.695153 4.359681 -3.468213 0.476137 -4.974559 1.560261 1.611684 0.829778 0.821932 3.896654 -4.000801 -4.089607 3.213273 -4.900894 -4.964700 4.094105 -2.009687 -2.787290 -4.721038 1.670336 -2.953886 4.315978 -1.545095 -1.189698 -2.428247 -1.933118 -3.502212 2.868522 -0.173836 -2.107253 0.343950 -0.249165 -4.231870 4.042404 1.959929 -4.560753 -3.279559 1.479679 -0.103151 -2.958774 -0.690089 -1.251383 -2.629290 -0.015468 4.652268 2.158225 4.609604 -3.734519 3.331027 0.984492 1.722117 -2.519296 -1.378639 -0.141679 3.127503 -3.206412 -2.839026 3.926263 -3.868737 2.768811 0.642163 4.253136 1.375303 4.870114 0.590464 -1.067346 4.514910 -2.375952 4.798170 -4.274539 4.581150 -3.587683 -3.748240 2.584272 -0.044388 2.759085 -2.169495 -3.005453 -0.852953 3.771168 -1.258227 4.741449 -4.410870 -2.496078 0.004447 2.780981
-2.282648 -0.178258 -0.125537 2.258760 -0.422704 3.670788 -4.347902 -0.500524 0.904938 -4.965647 3.695153 4.001249 -3.468213 0.476137 -4.974559 1.560261 1.611684 2.288167 0.821932 3.896654 -4.000801 -4.089607 3.213273 -4.900894 -4.964700 4.094105 -2.009687 -2.787290 -4.721038 1.670336 -2.953886 4.315978 -1.545095 -1.189698 -2.428247 -1.933118 -3.502212 2.868522 -0.173836 -2.107253 0.343950 -0.249165 -4.231870 4.042404 1.959929 -4.560753 -1.989564 1.479679 -4.111502 -2.958774 -0.690089 -1.251383 -0.320421 -1.049358 4.652268 2.049184 3.300506 -3.734519 3.331027 0.984492 -3.978582 -2.519296 -0.012984 -0.141679 3.127503 -3.206412 -2.839026 3.926263 1.570500 2.768811 1.480641 3.280621 -2.224643 4.870114 -2.673008 4.889407 -1.125418 -2.375952 0.001333 -4.274539 4.581150 4.194396 -3.748240 -1.532379 -0.044388 2.759085 -2.169495 -3.005453 -0.852953 4.910414 -1.258227 4.741449 -4.410870 -2.496078 0.004447 2.780981
