-2.282648 3.489052 -1.883408 2.258760 -0.422704 -0.765718 -0.113289 -0.500524 0.904938 -4.965647 3.695153 4.164341 -3.468213 0.476137 -3.042024 1.560261 1.611684 2.288167 0.821932 3.896654 -4.000801 -4.089607 3.213273 -4.900894 -1.064655 -4.414432 -4.500900 -2.787290 -4.721038 1.670336 -2.953886 4.315978 -1.545095 -1.189698 -2.428247 -3.596262 -3.502212 2.868522 -0.173836 3.958421 -0.198072 -2.188378 0.071139 0.038262 -1.278018 -4.560753 -3.279559 1.479679 -4.111502 -2.958774 -0.690089 -2.746305 -2.629290 -1.049358 4.652268 2.158225 3.300506 -0.139129 3.331027 0.984492 -3.978582 -2.515441 -0.012984 -0.141679 3.127503 -3.206412 -2.839026 -1.735409 -3.868737 2.768811 1.480641 -0.970772 1.375303 4.870114 -0.066564 -1.067346 1.562669 -2.375952 3.427761 -4.274539 0.926959 3.435383 -3.748240 1.695428 -2.161667 2.759085 4.971044 -3.005453 -0.852953 4.910414 -1.258227 4.741449 -4.410870 -2.496078 0.004447 2.780981
-2.282648 -0.178258 -0.125537 2.258760 -0.422704 -3.907317 -4.347902 -0.500524 -4.080311 -4.965647 3.695153 4.001249 -3.468213 0.476137 -4.974559 1.560261 1.611684 2.288167 0.821932 3.896654 -4.000801 -4.089607 3.213273 -4.900894 -4.964700 4.094105 -1.083324 -2.787290 -4.721038 1.670336 -2.953886 4.315978 -1.545095 -1.189698 -2.428247 4.206751 0.039940 2.868522 -0.173836 -2.107253 -0.268835 -0.249165 -4.231870 4.042404 -1.278018 -4.560753 -3.279559 1.479679 -4.111502 -2.958774 3.463444 -2.746305 -2.629290 -1.049358 4.652268 2.158225 3.300506 -3.734519 3.331027 0.984492 -3.978582 -2.515441 -0.012984 -0.141679 3.127503 2.886102 -2.839026 -1.735409 -3.868737 2.768811 1.480641 4.253136 1.375303 1.799140 0.590464 2.152341 3.957393 3.756263 0.001333 -4.274539 4.095155 -2.187052 -4.331061 4.928405 -0.044388 2.759085 -2.169495 -3.005453 -0.852953 4.910414 -0.112766 4.530634 -4.410870 -2.277656 0.004447 2.780981
-2.282648 3.489052 -1.883408 2.258760 -0.422704 -0.765718 -0.113289 -0.500524 0.904938 -4.965647 3.695153 4.164341 -3.468213 0.660600 -0.869695 1.560261 1.611684 2.288167 0.821932 3.896654 -4.000801 -4.089607 3.213273 -4.900894 -1.064655 4.094105 -4.500900 -2.787290 -4.721038 1.670336 -1.395550 4.820726 -1.545095 -1.189698 -2.428247 -1.933118 -3.502212 2.868522 -0.173836 3.958421 0.343950 -0.249165 0.071139 0.038262 -1.278018 -4.560753 -3.279559 1.479679 -4.111502 -2.958774 3.924851 -2.746305 -2.629290 -1.049358 4.652268 2.158225 3.300506 -0.139129 3.331027 0.984492 -3.978582 1.008914 -0.012984 -0.141679 3.127503 -3.206412 -1.248690 3.820211 -3.389811 -2.776125 1.480641 -1.822637 -2.224643 4.870114 -2.673008 2.152341 4.536100 -2.375952 0.001333 -4.274539 4.095155 4.194396 -3.748240 -1.532379 -0.044388 2.759085 -2.169495 -3.005453 -0.852953 4.910414 -1.258227 4.741449 -4.410870 -2.496078 0.004447 2.780981
-2.282648 -0.178258 4.818916 0.676448 -0.422704 3.670788 -3.082716 4.819762 -4.080311 -4.965647 3.695153 4.001249 -3.468213 0.476137 -4.974559 1.560261 1.611684 2.288167 0.821932 3.896654 -4.000801 -4.089607 3.213273 -4.900894 -4.964700 3.610437 -1.083324 -2.787290 -4.721038 1.670336 -2.953886 4.315978 -1.545095 -1.189698 -2.428247 4.206751 -4.006163 2.868522 -0.173836 -2.107253 -0.268835 -0.249165 -4.231870 -2.050083 -1.278018 -4.560753 -3.279559 1.479679 -4.111502 -2.958774 -1.449561 -2.746305 -2.629290 -1.049358 -4.452475 2.158225 3.300506 -0.139129 3.331027 -1.634537 -3.978582 -2.519296 -0.012984 -2.314188 2.132417 0.962151 -2.839026 2.533616 -3.389811 0.734377 1.480641 0.316060 -2.481060 4.870114 -2.673008 2.152341 3.957393 -2.375952 3.427761 -4.274539 0.926959 3.435383 -3.748240 1.695428 -0.044388 2.759085 -2.169495 -3.005453 -0.852953 4.910414 -1.258227 4.741449 -4.410870 -2.496078 0.004447 1.448220
-2.282648 3.489052 -1.883408 2.258760 -0.422704 -0.765718 -0.113289 -0.500524 0.904938 -4.965647 3.695153 4.164341 -3.468213 0.476137 -0.869695 1.560261 1.611684 2.288167 0.821932 3.896654 -4.000801 -4.089607 3.213273 -4.900894 -1.064655 4.094105 -4.500900 -2.787290 -4.721038 1.670336 -2.953886 4.820726 -1.545095 -1.189698 -2.428247 -1.933118 -3.502212 2.868522 -0.173836 3.958421 0.343950 -0.249165 0.071139 0.038262 -1.278018 -4.560753 -3.279559 1.479679 -4.111502 -2.958774 -3.814098 -2.746305 -2.629290 -1.049358 4.652268 2.158225 3.300506 -0.139129 3.331027 0.984492 -3.978582 1.008914 -0.012984 -2.204920 2.132417 -3.206412 -2.839026 -2.039615 -3.389811 -2.776125 1.480641 -1.822637 -2.224643 1.799140 0.590464 2.152341 3.957393 -2.375952 0.001333 -4.274539 4.095155 -2.187052 -4.331061 2.584272 -0.044388 2.759085 -2.169495 -3.005453 -0.852953 4.910414 -0.112766 4.741449 -4.410870 -2.496078 0.004447 2.780981
-1.770898 -0.178258 1.765806 2.258760 -0.422704 3.670788 0.523917 -0.500524 0.904938 -4.277542 3.695153 4.001249 -3.468213 -2.337348 -4.974559 1.560261 1.611684 -1.333017 0.821932 3.896654 -4.000801 -4.089607 3.213273 -3.395392 -4.964700 4.094105 -2.009687 -4.725945 -4.721038 1.670336 -4.064570 4.315978 -1.545095 -1.189698 -2.428247 4.206751 0.039940 2.868522 -0.173836 -2.107253 0.343950 -0.249165 -4.231870 4.042404 -1.278018 -4.560753 -3.279559 1.479679 -4.111502 -2.958774 0.667290 -2.746305 -2.629290 -1.049358 4.652268 2.049184 3.300506 -3.734519 3.331027 0.984492 -3.978582 -2.515441 -0.012984 -0.141679 -1.758956 2.886102 -2.839026 -1.735409 -3.868737 2.768811 1.480641 -0.970772 1.375303 -2.469628 0.590464 -1.067346 -1.125418 -2.375952 3.077033 -4.274539 4.581150 2.070087 -3.748240 2.584272 -0.044388 2.759085 -2.169495 -3.005453 -0.852953 4.910414 -1.258227 4.741449 -4.410870 -2.496078 0.004447 2.780981
-1.770898 -0.178258 1.765806 2.258760 -0.422704 3.670788 -4.347902 -0.500524 0.904938 -4.277542 3.695153 4.001249 -3.468213 0.664329 -4.974559 1.560261 1.611684 -1.333017 0.821932 3.896654 -4.000801 -4.089607 3.213273 -3.395392 -4.964700 4.094105 -2.009687 -0.845273 -4.721038 1.670336 -2.953886 4.315978 -1.545095 -1.189698 -2.428247 4.206751 0.039940 1.241352 -0.173836 -2.107253 0.343950 -0.249165 -4.231870 -1.288251 -1.278018 -4.560753 -0.543836 1.479679 -4.111502 -2.958774 -0.690089 -1.251383 -0.320421 -1.049358 4.652268 2.049184 3.300506 0.347310 3.331027 0.984492 -3.978582 -2.519296 -0.012984 -1.464032 3.127503 -3.206412 -2.839026 -4.058223 -3.868737 2.768811 1.480641 4.253136 1.375303 1.799140 0.590464 2.152341 3.957393 -2.375952 3.427761 -4.274539 0.926959 3.435383 -3.748240 1.695428 -0.044388 2.759085 -2.169495 -3.005453 -0.852953 4.910414 -1.258227 4.741449 -4.410870 -2.496078 0.004447 2.780981
-2.282648 3.489052 -1.883408 0.642672 -0.422704 -0.765718 -4.347902 -0.500524 0.904938 -4.965647 3.695153 4.164341 -3.468213 0.476137 -4.974559 1.560261 1.611684 2.288167 0.821932 3.896654 -4.000801 -4.089607 3.213273 -4.900894 -4.964700 4.094105 -4.500900 -2.787290 -4.721038 1.670336 -2.953886 4.315978 -1.545095 -1.189698 -2.428247 4.206751 0.039940 2.868522 -0.173836 -2.107253 -0.268835 -0.249165 -4.231870 -2.050083 -1.278018 -4.560753 -3.279559 1.479679 -4.111502 -2.958774 -1.449561 -2.746305 -2.629290 -1.049358 -4.452475 2.158225 1.204491 -0.139129 3.331027 -1.634537 -3.978582 -2.519296 -0.012984 -2.314188 2.132417 0.962151 -2.839026 2.533616 -3.389811 0.734377 1.480641 0.316060 -2.481060 4.870114 -2.673008 2.152341 3.957393 -2.375952 3.427761 -4.274539 0.926959 3.435383 -3.748240 1.695428 -0.044388 2.759085 -2.169495 -3.005453 -0.852953 4.910414 -1.258227 4.741449 -4.410870 -2.496078 0.004447 2.039474
-1.292489 3.489052 -1.883408 0.642672 -0.422704 -0.765718 -4.347902 -0.500524 0.904938 -4.965647 3.695153 4.164341 -3.468213 0.476137 -4.974559 1.560261 1.611684 2.288167 0.821932 3.896654 -4.000801 -4.089607 3.213273 -4.900894 -4.964700 4.094105 -4.500900 -2.787290 -4.721038 1.670336 -2.953886 4.315978 -1.545095 -1.189698 3.747887 -3.596262 -3.502212 2.868522 -0.173836 3.958421 -0.198072 -0.249165 0.071139 0.038262 -1.278018 -4.560753 -3.279559 1.479679 -4.111502 -2.958774 -0.690089 -2.746305 -2.629290 -1.049358 4.652268 2.158225 3.300506 -0.139129 3.331027 0.984492 -3.978582 -2.519296 -0.012984 -4.671621 2.132417 -3.206412 -2.839026 -2.039615 -3.389811 0.734377 1.480641 -1.822637 -2.224643 4.870114 -2.673008 2.152341 3.957393 -2.375952 0.001333 1.006307 4.095155 4.194396 -4.331061 2.584272 -0.044388 2.759085 -2.169495 -3.005453 -0.852953 4.910414 -1.258227 4.741449 -4.410870 -2.496078 0.004447 2.524739
-2.282648 3.489052 -1.883408 2.258760 -0.422704 -0.765718 -0.113289 -0.500524 0.904938 -4.965647 3.695153 4.164341 -3.468213 0.476137 -0.869695 1.560261 1.611684 2.288167 0.821932 3.896654 -4.000801 -4.089607 -1.873440 -4.900894 -1.064655 4.094105 -4.500900 -2.787290 -4.721038 1.670336 -2.953886 4.820726 -1.545095 -1.189698 -2.428247 -1.933118 -3.502212 2.868522 -0.173836 3.958421 0.343950 -0.249165 0.071139 0.038262 -1.278018 -4.560753 -3.279559 1.187317 -4.111502 -2.958774 3.843517 -2.746305 -2.629290 -1.049358 4.652268 2.158225 3.300506 -0.139129 3.331027 0.984492 -3.978582 -2.519296 -0.012984 -4.671621 2.132417 -3.206412 -2.839026 -2.039615 -3.389811 0.734377 1.480641 -1.822637 -2.224643 4.870114 -2.673008 2.152341 3.957393 -2.375952 0.001333 -4.274539 4.095155 4.194396 -4.331061 2.584272 -0.044388 2.759085 -2.169495 -3.005453 -0.852953 4.910414 -1.258227 4.741449 -4.410870 -2.496078 0.004447 2.780981
-1.770898 -0.178258 1.765806 2.258760 -0.422704 3.235727 -4.347902 -0.500524 0.904938 -4.277542 3.695153 4.001249 -3.468213 0.476137 -4.974559 1.560261 1.611684 -1.333017 0.821932 3.896654 -4.000801 -4.089607 3.213273 -3.395392 0.075394 4.094105 -2.009687 -2.787290 -4.721038 1.670336 -2.953886 4.315978 -1.545095 -1.189698 -2.428247 4.206751 0.039940 2.868522 -0.173836 -2.107253 0.343950 -0.249165 -4.231870 4.042404 -1.278018 -4.560753 -3.279559 1.479679 -4.111502 -2.958774 -0.690089 -2.746305 -2.629290 -1.049358 4.652268 2.049184 3.300506 -3.734519 3.331027 0.984492 -3.978582 -2.519296 -0.012984 -1.047432 3.127503 -3.206412 -2.839026 -1.735409 -3.868737 2.768811 1.480641 -0.970772 1.375303 4.870114 -0.066564 -1.067346 1.562669 -2.375952 3.427761 -4.274539 4.581150 2.070087 -3.748240 2.584272 -0.044388 2.759085 -2.169495 -3.005453 -0.852953 4.910414 -1.258227 4.741449 -4.410870 -2.496078 0.004447 2.780981
-2.282648 3.489052 -1.883408 2.258760 -0.422704 -0.765718 -0.113289 -0.500524 0.904938 -4.965647 3.695153 4.164341 -3.468213 0.476137 -0.869695 1.560261 1.611684 2.288167 0.821932 3.896654 -4.000801 -4.089607 3.213273 -4.900894 -1.064655 4.094105 -4.500900 -2.787290 -4.721038 1.670336 -2.953886 4.820726 -1.642683 -1.189698 -2.428247 -1.933118 -3.502212 2.868522 -0.173836 2.647755 0.343950 -0.249165 -4.231870 4.042404 -1.278018 -4.560753 -3.279559 1.479679 -4.111502 -2.958774 -0.690089 -2.746305 2.839340 -1.049358 4.652268 2.158225 3.300506 -0.139129 3.331027 0.984492 -3.978582 0.937222 -0.012984 -2.204920 2.132417 -3.206412 -3.028146 3.926263 -3.465597 1.956495 1.480641 4.253136 1.375303 4.870114 -0.066564 -1.067346 1.562669 -2.375952 0.001333 -4.274539 4.095155 4.194396 -3.748240 -1.532379 -0.044388 2.759085 -2.169495 -3.005453 -0.852953 4.910414 -1.258227 4.741449 -4.410870 -2.496078 0.004447 2.780981
-1.292489 4.091375 -1.883408 0.642672 -0.422704 -0.765718 -4.347902 -0.500524 0.904938 -4.965647 3.695153 4.164341 -3.468213 0.476137 -4.974559 1.560261 1.611684 2.288167 0.821932 3.896654 -4.000801 -4.089607 2.215266 -4.900894 -4.964700 4.094105 3.391381 -2.787290 -4.721038 1.670336 -2.953886 4.315978 -1.545095 -1.189698 -2.428247 -3.596262 -3.502212 2.868522 -0.173836 3.958421 -0.198072 -0.249165 0.071139 0.038262 -1.278018 -4.560753 -3.279559 1.479679 -4.111502 -2.958774 -0.690089 -2.746305 -2.629290 -1.049358 4.652268 2.158225 3.300506 -0.139129 3.331027 0.984492 -3.978582 -2.519296 -0.012984 -4.671621 2.132417 -3.206412 -2.839026 -2.039615 -3.389811 0.734377 1.480641 -1.822637 -2.224643 4.870114 -2.673008 2.152341 3.957393 -2.375952 0.001333 -4.274539 4.095155 -3.170371 -4.331061 2.584272 -0.044388 2.759085 -2.169495 -3.005453 -0.852953 4.910414 -1.258227 4.741449 -4.410870 -2.496078 0.004447 -3.652197
-2.282648 3.489052 -1.883408 2.258760 -0.422704 -0.765718 -3.869127 -0.500524 0.904938 -4.965647 3.695153 4.164341 -3.468213 0.476137 -0.869695 1.560261 1.611684 -1.333017 0.821932 3.896654 -4.000801 -4.089607 3.213273 -3.395392 -4.964700 4.094105 -2.009687 -0.845273 -4.721038 1.670336 -2.953886 4.315978 -1.545095 -1.189698 -2.428247 -1.039543 0.039940 2.868522 -0.173836 -2.107253 0.343950 -0.249165 -4.231870 4.042404 -1.278018 -4.560753 -3.279559 1.479679 -4.111502 -2.958774 -0.690089 -2.746305 -2.629290 -1.049358 4.652268 -2.903925 3.300506 -0.139129 3.331027 4.396203 -3.978582 1.008914 -0.012984 -2.204920 2.132417 -3.206412 -2.839026 3.820211 -3.389811 -2.776125 1.480641 -1.822637 -2.224643 4.870114 -2.673008 2.152341 4.536100 -2.375952 0.001333 -4.274539 4.095155 4.194396 -3.748240 -1.532379 -0.044388 2.759085 -2.169495 -3.005453 -0.852953 4.910414 -1.258227 4.741449 -4.410870 -2.496078 0.004447 2.780981
-2.282648 -0.178258 -0.125537 2.258760 -0.422704 -3.907317 -4.347902 -0.500524 -4.080311 -4.965647 3.695153 4.001249 -3.468213 0.476137 -4.974559 1.560261 1.611684 2.288167 0.821932 3.896654 -4.000801 -0.437994 3.213273 -4.900894 -4.964700 4.094105 -1.083324 -2.787290 -4.721038 1.670336 -2.953886 4.315978 -1.545095 -1.189698 -2.428247 4.206751 0.039940 2.868522 -0.173836 -2.107253 -0.268835 -0.249165 -4.231870 4.042404 -1.278018 -4.560753 -3.279559 1.479679 -4.111502 -2.958774 3.463444 -2.746305 -2.629290 1.560913 4.652268 2.158225 3.300506 -3.734519 3.331027 0.984492 -3.978582 -2.519296 -0.012984 -1.464032 3.127503 -3.206412 -2.839026 -4.058223 -3.868737 2.768811 1.480641 4.253136 1.375303 1.799140 0.590464 2.152341 3.957393 -2.375952 0.001333 -4.274539 4.095155 -2.187052 -4.331061 -1.532379 -0.044388 2.759085 -2.169495 -3.005453 -0.852953 4.910414 -0.112766 4.530634 -4.410870 -2.496078 0.004447 2.780981
-1.770898 3.489052 1.765806 2.258760 -0.422704 3.670788 -4.347902 -0.500524 0.904938 -4.277542 3.695153 4.001249 -3.468213 0.664329 -4.974559 1.560261 1.611684 -1.333017 0.821932 3.896654 -4.000801 -4.089607 -1.035873 -3.395392 0.075394 1.684082 0.287941 -2.787290 -4.721038 1.670336 -2.953886 4.315978 -1.545095 -1.189698 -2.428247 4.206751 0.039940 2.868522 -0.173836 -2.107253 0.343950 -0.249165 -4.231870 4.042404 -1.278018 -4.560753 -3.279559 1.479679 -4.111502 -2.958774 -0.690089 -2.746305 -2.629290 -1.049358 4.652268 2.049184 3.300506 -3.734519 3.331027 0.984492 -3.978582 -2.519296 -0.012984 -1.047432 3.127503 -3.206412 -2.839026 -1.735409 -3.868737 2.768811 1.480641 -0.970772 1.375303 4.870114 -0.066564 -1.067346 1.562669 -2.375952 3.427761 -4.274539 0.926959 3.435383 -3.748240 1.695428 -0.044388 2.759085 -2.169495 -3.005453 -0.852953 4.910414 -1.258227 4.741449 -4.410870 -2.496078 0.004447 1.448220
-1.770898 -0.178258 1.765806 2.258760 -0.422704 3.235727 -4.347902 -0.500524 0.904938 -4.277542 3.695153 4.001249 -3.468213 0.476137 -4.974559 1.560261 1.611684 -1.333017 0.821932 3.896654 -4.000801 -4.089607 3.213273 -3.395392 0.075394 4.094105 -2.009687 -2.787290 -4.721038 1.670336 -2.953886 4.315978 -1.545095 -1.189698 -2.428247 4.206751 0.039940 2.868522 -0.173836 -2.107253 0.343950 -0.249165 -4.231870 4.042404 -1.278018 -4.560753 -3.279559 1.479679 -4.111502 -2.958774 -0.690089 -2.746305 -2.629290 -1.049358 4.652268 2.049184 3.300506 -3.734519 3.331027 0.984492 -3.978582 -2.519296 -0.012984 -1.047432 3.127503 -3.206412 -2.839026 -1.735409 -3.868737 2.768811 1.480641 -0.970772 1.375303 4.870114 -0.066564 -1.067346 1.562669 -2.375952 3.427761 -4.274539 0.926959 3.435383 -3.748240 1.695428 -0.044388 2.759085 -2.169495 -3.005453 -0.852953 4.910414 -1.258227 4.741449 -4.410870 -2.496078 0.004447 2.780981
-1.770898 -0.178258 1.765806 2.258760 -0.422704 3.670788 -4.347902 -0.500524 0.904938 -4.277542 3.695153 4.001249 -3.468213 0.664329 -4.974559 1.560261 1.611684 -1.333017 0.821932 3.896654 -4.000801 -4.089607 3.213273 -3.395392 -4.964700 4.094105 -2.009687 -0.845273 -4.721038 1.670336 2.795325 4.315978 -1.545095 -1.189698 -2.428247 4.206751 0.039940 2.868522 -0.173836 -2.107253 0.343950 -0.249165 -4.231870 4.042404 -1.278018 -4.560753 -3.279559 1.479679 -4.111502 -2.958774 -0.690089 -2.746305 -2.629290 -2.392229 4.652268 2.049184 -4.074848 -3.734519 3.331027 0.984492 -3.978582 1.008914 -0.012984 -2.204920 2.132417 -3.206412 -2.839026 3.820211 -3.389811 -2.776125 1.480641 -1.822637 -2.224643 4.870114 -2.673008 -1.067346 1.562669 -2.375952 3.427761 -4.274539 0.926959 3.435383 -3.748240 1.695428 -0.044388 2.759085 -2.169495 -3.005453 -0.852953 4.910414 -1.258227 4.741449 -4.410870 -2.039095 0.004447 1.448220
-1.770898 -0.178258 1.765806 2.258760 -0.422704 3.670788 -4.347902 -0.500524 0.904938 -4.277542 3.695153 4.001249 -3.468213 0.664329 -4.974559 1.560261 1.611684 -1.333017 0.821932 3.896654 -4.000801 -4.089607 3.213273 -3.395392 -4.964700 4.094105 -2.009687 -0.845273 -4.721038 1.670336 -2.953886 4.315978 -1.545095 -1.189698 -2.428247 4.206751 0.039940 1.241352 -0.173836 -2.107253 0.343950 -0.249165 -4.231870 4.042404 -1.278018 -4.560753 -3.279559 1.479679 -4.111502 -2.958774 -0.690089 3.977497 -0.320421 -1.049358 4.652268 2.049184 3.300506 -3.734519 3.331027 0.984492 -3.978582 -2.519296 -0.012984 -1.464032 3.127503 -3.206412 -1.727643 -4.058223 -3.868737 2.768811 1.480641 4.253136 1.375303 1.799140 3.727733 2.152341 3.957393 1.422011 3.427761 -4.274539 0.926959 3.435383 -3.748240 1.695428 -0.044388 2.759085 -2.169495 -3.005453 -0.852953 4.910414 -1.258227 4.741449 -4.410870 2.126463 0.004447 2.780981
-1.770898 -0.178258 1.765806 2.258760 -0.422704 3.670788 -4.347902 -0.500524 0.904938 -1.137107 3.695153 4.164341 4.538605 0.476137 -4.974559 1.560261 1.611684 2.288167 0.821932 3.896654 -4.000801 -4.089607 3.213273 -4.900894 -4.964700 0.611796 -4.500900 -2.787290 -4.721038 1.670336 -2.953886 4.315978 4.252287 -1.189698 -2.428247 -1.933118 -3.502212 2.868522 -0.173836 3.958421 -0.647497 -0.249165 0.071139 4.042404 -1.278018 -4.560753 -3.279559 1.479679 -4.111502 1.605323 -0.690089 -2.746305 -2.629290 -1.049358 4.652268 2.049184 3.300506 -3.734519 3.331027 0.984492 -3.978582 -2.519296 -0.012984 -1.047432 3.127503 -3.206412 -2.839026 -1.735409 -3.868737 2.768811 1.480641 -0.970772 1.375303 4.870114 -0.066564 -1.067346 1.562669 -2.375952 3.427761 -4.274539 0.926959 3.435383 -3.748240 1.695428 -0.044388 2.759085 -2.169495 -3.005453 -0.852953 4.910414 -1.258227 4.741449 -4.410870 -2.496078 0.004447 1.448220
-2.282648 3.489052 -1.883408 -4.584951 -0.422704 -3.972037 -4.347902 -3.377654 0.904938 -4.965647 3.695153 4.164341 -3.468213 0.476137 -4.974559 1.560261 1.611684 2.288167 0.821932 3.896654 -4.000801 -4.089607 3.213273 -2.066973 -4.964700 4.094105 -4.500900 -2.787290 -4.721038 1.670336 -2.953886 4.315978 -1.545095 -1.189698 -2.428247 -1.933118 -3.502212 2.868522 -0.173836 3.958421 0.343950 -0.249165 -4.231870 4.042404 -1.278018 -4.560753 -3.279559 1.479679 -4.111502 -2.958774 -0.690089 -2.746305 -2.629290 -2.392229 4.652268 2.049184 3.300506 -3.734519 3.331027 0.984492 -3.978582 -2.515441 -0.012984 -0.141679 3.127503 -3.206412 -2.839026 -1.735409 -3.868737 2.768811 1.480641 -0.970772 1.375303 4.870114 -0.066564 -1.067346 1.562669 -2.375952 3.427761 -4.274539 0.926959 3.435383 -3.748240 1.695428 -0.044388 2.759085 -2.169495 -3.005453 -0.852953 4.910414 -1.258227 4.741449 -4.410870 -2.496078 0.004447 2.780981
-2.282648 3.489052 1.765806 2.258760 -0.422704 3.670788 -4.347902 -0.500524 0.904938 -0.679868 3.695153 4.164341 -3.468213 0.476137 -0.869695 2.754114 1.611684 2.288167 0.821932 3.896654 -4.000801 -4.089607 3.213273 -4.900894 -1.064655 4.094105 -4.500900 -2.787290 -4.721038 1.670336 -2.953886 4.820726 -1.545095 -1.189698 -2.428247 4.206751 0.039940 2.868522 -0.173836 -2.107253 0.343950 -0.249165 -4.231870 4.042404 -1.278018 -4.560753 -3.279559 1.479679 -4.111502 -2.958774 -0.690089 -2.746305 -2.629290 -2.392229 4.652268 2.049184 3.300506 -3.734519 3.331027 0.984492 -3.978582 -2.515441 -0.012984 -0.141679 3.127503 -3.206412 -2.839026 -4.788484 -3.868737 2.768811 1.480641 -0.970772 1.375303 4.870114 4.306419 3.415669 1.562669 -2.375952 3.427761 -4.274539 0.926959 3.435383 -3.748240 1.695428 -3.816462 -2.385145 -2.169495 -3.005453 -0.852953 4.910414 -1.258227 4.741449 -4.410870 -2.496078 0.004447 2.780981
-2.282648 3.489052 -1.883408 2.258760 -0.422704 -0.765718 -0.113289 -0.500524 0.904938 -4.965647 3.695153 4.164341 -3.468213 0.476137 -0.869695 1.560261 1.611684 2.288167 0.821932 3.896654 -4.000801 -4.089607 -2.669650 -2.066973 -4.964700 4.094105 -4.500900 -2.787290 -4.721038 1.670336 -2.953886 4.315978 -1.545095 -1.189698 -2.428247 -1.933118 -3.502212 2.868522 -0.173836 3.958421 0.343950 -0.249165 0.071139 0.038262 -1.278018 -4.560753 -3.279559 1.479679 -4.111502 -2.958774 -0.690089 -1.251383 -0.320421 -1.049358 4.652268 2.049184 3.300506 -3.734519 0.419766 0.984492 -3.978582 -2.519296 -0.012984 -3.981621 3.127503 -3.206412 -2.839026 -1.735409 -3.868737 2.768811 1.480641 -0.970772 1.375303 4.870114 -0.066564 -1.067346 1.562669 -2.375952 3.077033 -0.218060 4.581150 2.070087 -3.748240 2.584272 -0.044388 2.759085 -2.169495 -3.005453 -0.852953 4.910414 -1.258227 4.741449 -4.410870 -2.496078 0.004447 2.780981
-2.282648 3.489052 -1.883408 2.258760 -0.422704 -0.765718 -0.113289 -0.500524 0.904938 -4.965647 3.695153 4.164341 -3.468213 0.476137 -0.869695 1.560261 1.611684 2.288167 0.821932 3.896654 -4.000801 -4.089607 3.213273 -4.900894 -1.064655 4.094105 -4.500900 -2.787290 -4.721038 1.670336 -2.953886 4.820726 -1.545095 -1.189698 -2.428247 -1.933118 -3.502212 2.868522 -0.173836 3.958421 0.343950 -0.249165 0.071139 0.038262 -1.278018 -4.560753 -3.279559 1.479679 -4.111502 -2.958774 3.843517 -2.746305 -2.629290 -1.049358 4.652268 2.158225 3.300506 -0.139129 3.331027 0.984492 -3.978582 1.008914 -0.012984 -2.204920 2.132417 -3.206412 -2.839026 -2.039615 -3.389811 -2.776125 1.480641 -1.822637 -2.224643 4.870114 -2.673008 2.152341 3.957393 -2.375952 3.427761 -4.274539 0.926959 -3.043395 -3.748240 1.695428 -0.044388 2.759085 -2.169495 -3.005453 -0.852953 4.910414 -1.258227 4.741449 -4.410870 -2.496078 0.004447 2.780981
-2.282648 3.489052 -1.883408 0.642672 -0.422704 -0.765718 -4.347902 -0.500524 0.904938 -4.965647 3.695153 4.164341 -3.468213 0.476137 -4.974559 1.560261 1.611684 2.288167 0.821932 1.023111 -4.000801 -4.089607 3.213273 -4.900894 -4.964700 4.193906 -4.500900 -2.787290 -4.721038 1.670336 -2.953886 4.315978 -1.545095 -1.189698 -2.428247 4.206751 0.039940 2.868522 -0.173836 -2.107253 0.343950 -0.249165 -4.231870 4.042404 -1.278018 -4.560753 -3.279559 1.479679 -4.111502 -2.958774 -0.690089 -2.746305 -2.629290 -1.049358 4.652268 2.049184 3.300506 -3.734519 3.331027 0.984492 -3.978582 -2.519296 -0.012984 -1.047432 3.127503 -3.206412 -2.839026 -1.735409 -3.868737 2.768811 1.480641 -0.970772 1.375303 4.870114 -0.066564 -1.067346 1.562669 -2.375952 3.427761 -4.274539 0.926959 2.070087 -3.748240 2.584272 -0.044388 2.759085 -2.169495 -3.005453 -0.852953 4.910414 -1.258227 4.741449 -4.410870 -2.496078 0.004447 2.780981
-2.282648 3.489052 -1.883408 0.642672 -0.422704 -0.765718 -4.347902 -0.500524 0.904938 -4.965647 3.695153 4.164341 -3.468213 0.476137 -4.974559 1.560261 1.611684 2.288167 0.821932 3.896654 -4.000801 -4.089607 3.213273 -4.900894 -4.964700 4.193906 -4.500900 -2.787290 -4.721038 1.670336 -2.953886 4.315978 -1.545095 -1.189698 -2.428247 4.206751 0.039940 2.868522 -0.173836 -3.810458 0.343950 -0.249165 -4.231870 4.042404 -1.278018 -0.391019 -3.279559 1.479679 -4.111502 -2.958774 -0.690089 -2.746305 -2.629290 -1.049358 4.652268 2.049184 3.300506 1.034425 3.331027 0.984492 -3.978582 -2.519296 -0.012984 -1.047432 3.127503 -3.206412 -2.839026 -1.735409 -3.868737 2.768811 1.480641 -0.970772 1.375303 4.870114 -0.066564 -1.067346 1.562669 -2.375952 0.001333 -4.274539 4.095155 4.194396 -4.331061 2.584272 -0.044388 2.759085 -2.169495 -3.005453 -0.852953 4.910414 -1.258227 4.741449 -4.410870 -2.496078 0.004447 2.780981
-2.282648 -0.178258 -0.125537 2.258760 -0.422704 -3.907317 -4.347902 -0.500524 -4.080311 -1.816001 3.695153 4.001249 -3.468213 0.476137 -4.974559 1.560261 1.611684 2.288167 0.821932 3.936426 -4.000801 -4.089607 3.213273 1.257995 1.150314 4.094105 -2.009687 -2.787290 -4.721038 1.670336 -2.953886 4.315978 -1.545095 -1.189698 -2.428247 -2.994901 0.039940 2.868522 -0.173836 2.647755 0.343950 -0.249165 -4.231870 4.042404 -1.278018 -4.560753 -3.279559 1.479679 -4.111502 -2.958774 3.463444 -2.746305 -2.629290 -1.049358 4.652268 2.158225 3.300506 -3.734519 3.331027 0.984492 -3.978582 -2.519296 -0.012984 -1.464032 3.127503 -3.206412 -2.839026 -4.058223 -3.868737 2.768811 1.480641 4.253136 1.375303 1.799140 0.590464 2.152341 3.957393 -2.375952 0.001333 -4.274539 4.095155 -2.187052 -4.331061 2.584272 -0.044388 2.759085 -2.169495 -3.005453 -0.852953 4.910414 -0.112766 4.530634 -4.410870 -2.496078 0.004447 2.780981
-2.282648 -0.178258 -0.125537 0.676448 -0.422704 3.670788 -3.082716 4.819762 -4.080311 -4.965647 3.695153 4.001249 3.883840 0.476137 -4.974559 1.560261 1.611684 2.288167 0.821932 3.896654 -4.000801 -4.089607 3.213273 -4.900894 -4.964700 4.094105 -4.500900 -2.787290 -4.721038 1.670336 -2.953886 4.315978 -1.545095 -1.189698 -2.428247 -3.596262 -3.502212 2.868522 -0.173836 3.958421 -0.198072 -0.249165 0.071139 0.038262 -1.278018 -4.560753 -3.279559 1.479679 -4.111502 -2.958774 -0.690089 -2.746305 -2.629290 -1.049358 4.652268 2.158225 3.300506 -0.139129 3.331027 0.984492 -3.978582 -2.519296 -0.012984 -4.671621 2.132417 -3.206412 -2.839026 -2.039615 -3.389811 0.734377 1.480641 -1.822637 -2.224643 4.870114 -2.673008 2.152341 3.957393 -2.375952 0.001333 -4.274539 4.095155 4.194396 -4.331061 2.584272 -0.044388 2.759085 -2.169495 -3.005453 -0.852953 4.910414 -1.258227 4.741449 -4.410870 -2.496078 0.004447 2.780981
-1.770898 3.479029 1.765806 2.258760 -0.422704 3.670788 -4.347902 -0.500524 0.904938 -4.277542 3.695153 4.001249 -3.468213 0.476137 -4.974559 1.560261 1.611684 -1.333017 0.821932 3.896654 -4.000801 -4.089607 3.213273 -3.395392 -4.964700 4.094105 -2.009687 -0.845273 -4.721038 1.670336 -2.953886 4.315978 -1.545095 -1.189698 -2.428247 -1.039543 0.039940 2.868522 -0.173836 -2.107253 0.343950 -0.249165 -4.231870 4.042404 -1.278018 -4.560753 -3.279559 1.479679 -4.111502 -2.958774 -0.690089 -2.746305 -2.629290 -1.049358 4.652268 2.049184 3.300506 -3.734519 3.331027 0.984492 -3.978582 -2.515441 -0.012984 -0.141679 3.127503 -3.206412 -2.839026 -1.735409 -3.868737 2.768811 1.480641 -0.970772 1.375303 4.870114 -0.066564 -1.067346 1.562669 -2.375952 3.427761 -4.274539 0.926959 -3.043395 -3.748240 1.695428 -0.044388 2.759085 -2.169495 -3.005453 -0.852953 4.910414 -1.258227 4.452430 -4.410870 -2.496078 0.004447 1.448220
-2.282648 3.489052 -1.883408 0.642672 -0.422704 -0.765718 -4.347902 -0.500524 0.904938 -4.965647 3.695153 4.164341 -3.468213 0.476137 -4.974559 1.560261 1.611684 2.288167 0.821932 3.896654 -4.000801 -4.089607 -4.207409 -4.900894 -4.964700 4.094105 -4.500900 -2.787290 -4.721038 1.670336 -2.953886 4.315978 -1.545095 -1.189698 -2.428247 -3.596262 -3.502212 2.868522 -0.173836 3.958421 0.343950 -0.249165 0.071139 4.747022 -1.278018 -4.560753 -3.279559 1.479679 -4.111502 -2.958774 -0.690089 -2.746305 -2.629290 -1.049358 4.652268 2.049184 3.300506 -3.734519 3.331027 0.984492 -3.978582 -2.519296 -0.012984 -0.141679 3.127503 -3.206412 -2.839026 3.926263 -0.138555 2.768811 1.480641 4.253136 1.375303 4.870114 -0.066564 -1.067346 1.562669 -2.375952 3.427761 -4.274539 0.926959 3.435383 -3.748240 1.695428 -0.044388 2.759085 -1.163060 -3.005453 -0.852953 4.910414 -1.258227 4.452430 -4.410870 -2.496078 0.004447 1.448220
-1.770898 -0.178258 -0.125537 0.676448 4.672295 3.670788 -3.082716 4.819762 -4.080311 -4.965647 3.695153 4.001249 -3.468213 0.476137 -4.974559 1.560261 1.611684 2.288167 0.821932 3.896654 -4.000801 -4.089607 3.213273 -4.900894 -4.964700 3.610437 -1.083324 -2.787290 -4.721038 1.670336 -2.953886 4.315978 -1.545095 -1.189698 -2.428247 4.206751 0.039940 -2.031184 -0.173836 -2.107253 0.343950 -0.249165 -4.231870 4.042404 -1.278018 -4.560753 -3.279559 1.479679 -4.111502 -2.958774 -0.690089 -2.746305 -2.629290 -1.049358 4.652268 2.049184 3.300506 -3.734519 3.331027 0.984492 -3.978582 -2.515441 -0.012984 -0.141679 3.127503 -3.206412 -2.839026 -1.735409 -3.868737 2.768811 1.480641 -0.970772 1.375303 4.870114 -0.066564 -1.067346 1.562669 -2.375952 3.427761 -4.274539 0.926959 -3.043395 -3.748240 1.695428 -0.044388 2.759085 -2.169495 -3.005453 -0.852953 4.910414 -1.258227 4.741449 -4.410870 -2.496078 0.004447 2.780981
-1.770898 -0.178258 1.765806 2.258760 -0.422704 3.235727 -4.347902 -0.500524 0.904938 -4.277542 3.695153 4.001249 -3.468213 0.476137 -4.974559 1.560261 1.611684 0.237756 2.444461 3.896654 -4.000801 -4.089607 3.213273 -3.395392 0.075394 4.094105 -2.009687 -2.787290 -4.721038 1.670336 -2.953886 4.315978 -1.545095 -1.189698 -2.428247 4.206751 0.039940 2.868522 -0.173836 -2.107253 0.343950 -0.249165 -4.231870 4.042404 -1.278018 -4.560753 -3.279559 1.479679 -4.111502 -2.958774 -0.690089 -2.746305 -2.629290 -1.049358 4.652268 2.049184 3.300506 -3.734519 3.331027 0.984492 -3.978582 -2.519296 -0.012984 -1.047432 3.127503 -3.206412 -2.839026 -1.735409 -3.868737 2.768811 1.480641 3.802554 -2.481060 4.870114 -0.066564 -1.067346 1.562669 -2.375952 3.427761 -4.274539 0.926959 3.435383 -3.748240 1.695428 -0.044388 2.759085 -2.169495 -3.005453 -0.852953 4.910414 -1.258227 4.741449 -4.410870 -2.496078 0.004447 1.448220
-2.282648 3.489052 -1.883408 2.258760 -0.422704 -0.765718 -0.113289 -0.500524 0.904938 -4.965647 3.695153 4.164341 -3.468213 0.476137 -0.869695 1.560261 1.611684 2.288167 0.821932 3.896654 -4.000801 -4.089607 3.213273 -4.900894 -1.064655 4.094105 -4.500900 -2.787290 -4.721038 1.670336 -2.953886 4.820726 -1.545095 -1.189698 -2.428247 -1.933118 -3.502212 2.868522 -0.173836 3.958421 0.343950 -0.249165 0.071139 0.038262 -1.278018 -4.560753 -3.279559 1.479679 -4.111502 -2.958774 -3.701832 -2.746305 -2.629290 -1.049358 4.652268 2.158225 3.300506 -0.139129 3.331027 0.984492 -3.978582 1.008914 -0.012984 -2.204920 2.132417 -3.206412 -2.839026 3.820211 -3.389811 -2.776125 1.480641 -1.822637 -2.224643 4.870114 -2.673008 2.152341 4.536100 -2.375952 0.001333 -4.274539 4.095155 4.194396 -3.748240 -1.532379 -0.044388 2.759085 -2.169495 -3.005453 -0.852953 4.910414 -1.258227 4.741449 -4.410870 -2.496078 0.004447 2.780981
-2.282648 -0.178258 -0.125537 0.676448 -0.422704 3.670788 -3.082716 4.819762 -4.080311 -4.965647 3.695153 4.001249 -3.468213 0.476137 -4.974559 1.560261 1.611684 2.288167 0.821932 3.896654 -4.000801 -4.089607 3.213273 -4.900894 3.229465 3.610437 -1.083324 -2.787290 -4.721038 1.670336 -2.953886 4.315978 -1.545095 -1.189698 -2.428247 4.206751 0.039940 2.868522 -0.173836 -2.107253 -0.268835 -0.249165 -4.231870 4.042404 -1.278018 -4.560753 -3.279559 1.479679 -4.111502 -2.958774 -0.690089 -2.746305 -2.629290 -1.049358 4.652268 2.158225 3.300506 -0.139129 3.331027 0.984492 -3.978582 -2.519296 -0.012984 -4.671621 2.132417 -3.206412 -2.839026 -2.039615 -3.389811 0.734377 1.480641 -1.822637 -2.224643 4.870114 -2.673008 2.152341 3.957393 -2.375952 0.001333 -4.274539 4.095155 4.194396 -4.331061 2.584272 -0.044388 2.759085 -2.169495 -3.005453 -0.852953 4.910414 -1.258227 4.741449 -4.410870 -2.496078 0.004447 2.780981
-2.282648 3.489052 -1.883408 -4.584951 -0.422704 4.798164 -4.347902 -3.377654 0.904938 -4.965647 3.695153 4.164341 -3.468213 0.476137 -4.974559 1.560261 1.611684 2.288167 0.821932 3.896654 -4.000801 -4.089607 3.213273 -2.066973 -4.964700 4.094105 -4.500900 -2.787290 -4.721038 1.670336 -2.953886 4.315978 -1.545095 -1.189698 -2.428247 -1.933118 -3.502212 2.868522 -0.173836 3.958421 0.343950 -0.249165 0.071139 0.038262 -1.278018 -4.560753 -3.279559 1.479679 -4.111502 -2.958774 -0.690089 -2.746305 -2.629290 -1.049358 4.652268 2.049184 3.300506 -3.734519 3.331027 0.984492 -3.978582 -2.515441 -0.012984 -0.141679 3.127503 2.886102 -2.839026 -1.735409 -3.868737 2.768811 1.480641 -0.970772 1.375303 -2.469628 0.590464 -1.067346 -1.125418 -2.375952 3.077033 -4.274539 4.581150 2.070087 -3.748240 2.584272 -0.044388 2.759085 -2.169495 -3.005453 -0.852953 4.910414 -1.258227 4.741449 -4.410870 -2.496078 0.004447 2.780981
-2.282648 -0.178258 -0.125537 2.258760 -0.422704 -3.907317 -4.347902 -0.500524 -4.080311 -1.816001 3.695153 4.001249 -0.717829 0.476137 -4.974559 1.560261 1.611684 2.288167 0.821932 3.936426 -4.000801 -4.089607 3.213273 1.257995 1.150314 4.094105 -2.009687 -2.787290 -4.721038 1.670336 -2.953886 4.315978 -1.545095 -1.189698 -2.428247 -2.994901 0.039940 2.868522 -0.173836 2.647755 0.343950 -0.249165 -4.231870 4.042404 -1.278018 -4.560753 -3.279559 1.479679 -4.111502 -2.958774 -0.690089 -1.251383 -0.320421 -1.049358 3.426656 2.049184 3.300506 -3.734519 3.331027 0.984492 -3.978582 -2.519296 -0.012984 -1.464032 3.127503 -3.206412 -2.839026 -4.058223 -3.868737 2.768811 1.480641 4.253136 1.375303 1.799140 -4.980083 2.152341 3.957393 -2.375952 3.427761 -4.274539 0.926959 3.435383 -3.748240 1.695428 -0.044388 2.759085 -2.169495 -3.005453 -0.852953 4.910414 -1.258227 4.741449 3.821960 1.203333 0.004447 2.780981
-2.282648 3.489052 -1.883408 2.258760 -0.422704 -0.765718 -0.113289 -0.500524 0.904938 -4.965647 3.695153 4.164341 -3.468213 0.476137 -0.869695 1.560261 -0.566861 2.288167 0.821932 3.896654 -4.000801 -4.089607 3.213273 -4.900894 -1.064655 4.094105 -4.500900 -2.787290 -4.721038 1.670336 -2.953886 4.820726 -1.545095 -1.189698 -2.428247 -1.933118 -3.502212 2.868522 -0.173836 3.958421 0.343950 -0.249165 0.071139 0.038262 -1.278018 -4.560753 -3.279559 1.479679 -4.111502 -2.958774 3.843517 -2.746305 -2.629290 -1.049358 4.652268 2.158225 3.300506 -0.139129 3.331027 0.984492 -3.978582 1.008914 -0.012984 -2.204920 2.132417 -3.206412 -2.839026 -2.039615 -3.389811 -2.776125 1.480641 -1.822637 -2.224643 4.870114 -2.673008 2.152341 -3.478482 -2.375952 3.427761 -4.274539 4.095155 4.194396 -3.748240 -1.532379 -0.044388 2.759085 -2.169495 -3.005453 -0.852953 4.910414 -1.258227 4.741449 -4.410870 -2.496078 0.004447 2.780981
-1.770898 -0.178258 1.765806 2.258760 -0.422704 3.670788 -4.347902 -0.500524 0.904938 -1.137107 3.695153 4.164341 4.538605 0.476137 -4.974559 1.560261 1.611684 2.288167 0.821932 3.896654 -4.000801 -4.089607 3.213273 -4.900894 -4.964700 0.611796 -4.500900 -2.787290 -4.721038 1.670336 -2.953886 4.315978 -1.545095 -1.189698 -2.428247 -1.933118 -3.502212 2.868522 -0.173836 -3.890643 -0.647497 -0.249165 0.071139 4.042404 -1.278018 -4.560753 -1.770144 1.479679 -4.111502 -2.958774 -0.690089 -2.746305 -0.965986 -1.049358 4.652268 2.158225 3.300506 -0.139129 3.331027 0.984492 -3.978582 -2.519296 -0.012984 -0.141679 3.127503 -3.206412 -2.839026 3.926263 -3.868737 2.768811 1.480641 3.802554 1.375303 -4.749577 0.590464 -1.067346 -1.125418 -2.375952 -0.892979 -4.274539 4.581150 2.070087 -3.748240 2.584272 -0.044388 2.759085 -2.169495 -3.005453 -0.852953 4.910414 -1.258227 4.741449 -4.410870 -2.496078 0.004447 2.780981
-2.282648 -0.178258 -0.125537 2.258760 -0.422704 -3.907317 -4.347902 -0.500524 -4.080311 -4.965647 3.695153 4.001249 -3.468213 0.476137 -4.974559 1.560261 1.611684 2.288167 0.821932 3.896654 -4.000801 -4.089607 3.213273 -4.900894 -4.964700 4.094105 -1.083324 -2.787290 -4.721038 1.670336 -2.953886 4.315978 -1.545095 -1.189698 -2.428247 4.206751 0.039940 2.868522 -0.173836 -2.107253 -0.268835 -0.249165 0.735244 4.042404 -1.278018 -4.560753 -3.279559 1.479679 -4.111502 -2.958774 3.463444 -2.746305 -2.629290 -1.049358 4.652268 2.158225 3.300506 -3.734519 3.331027 -2.953136 -3.978582 -2.519296 -0.012984 -1.464032 3.127503 -3.206412 -2.839026 -4.058223 -3.868737 2.768811 1.480641 4.253136 1.375303 1.799140 0.590464 2.152341 3.957393 -2.375952 0.001333 -4.274539 4.095155 -2.187052 -4.331061 2.584272 -0.044388 2.759085 -2.169495 -3.005453 -0.852953 4.910414 -0.112766 4.530634 -4.410870 -2.496078 0.004447 1.448220
-2.282648 -0.178258 -0.125537 2.258760 -0.422704 -3.907317 -4.347902 -0.500524 -4.080311 -4.965647 3.695153 4.001249 -3.468213 0.476137 -4.974559 1.560261 1.611684 2.288167 0.821932 3.896654 -4.000801 -4.089607 3.213273 -4.900894 -4.964700 4.094105 -1.083324 -2.787290 -4.721038 1.670336 -2.953886 4.315978 -1.545095 -1.189698 -2.428247 -1.933118 -3.502212 2.868522 -0.173836 3.958421 -0.647497 -0.249165 0.071139 4.042404 -1.278018 -4.560753 -1.770144 1.479679 -4.111502 -2.958774 -0.690089 -2.746305 -0.965986 -1.049358 4.652268 2.158225 3.300506 -0.149626 3.331027 0.984492 -3.978582 -2.519296 -0.012984 -0.141679 3.127503 -3.206412 -2.839026 3.926263 -3.868737 2.768811 1.480641 3.802554 1.375303 -4.749577 0.590464 -1.067346 -1.125418 -2.375952 3.077033 -4.274539 4.581150 2.070087 -3.748240 2.584272 -0.044388 2.759085 -2.169495 -3.005453 -0.852953 4.910414 -0.112766 4.530634 -4.410870 -2.496078 0.004447 2.780981
-1.770898 -0.178258 1.765806 2.258760 -0.422704 3.670788 -4.347902 3.853811 4.711258 -4.277542 3.695153 4.001249 -3.468213 0.476137 -4.974559 1.560261 1.611684 -1.333017 0.821932 3.896654 -4.000801 -4.089607 3.213273 -3.395392 -4.964700 4.094105 -2.009687 -0.845273 -4.721038 1.670336 -2.953886 4.315978 -1.545095 -1.189698 -2.428247 -1.039543 -3.502212 2.868522 -0.173836 3.958421 0.343950 -0.249165 0.071139 4.747022 -1.278018 -0.847390 -3.279559 1.479679 -4.111502 -2.958774 -0.690089 -2.746305 -2.629290 -1.049358 4.652268 2.049184 3.300506 -3.734519 3.331027 0.984492 -3.978582 -2.515441 -0.012984 -0.141679 3.127503 -3.206412 -2.839026 -1.735409 -3.868737 2.768811 1.480641 -0.970772 1.375303 4.870114 -0.066564 -1.067346 1.562669 -2.375952 3.427761 -4.274539 0.926959 -3.043395 -3.748240 1.695428 -0.044388 2.759085 -2.169495 -3.005453 -0.852953 4.910414 -1.258227 4.741449 -4.410870 -2.496078 0.004447 2.780981
-1.770898 -0.178258 1.765806 2.258760 -0.422704 3.670788 -4.347902 -0.500524 0.904938 -4.277542 3.695153 4.001249 -3.468213 0.664329 -4.974559 1.560261 1.611684 -1.333017 0.821932 3.896654 -4.000801 -4.089607 3.213273 -3.395392 -4.964700 4.094105 -2.009687 -0.845273 -4.721038 1.670336 -2.953886 4.315978 -1.545095 -1.189698 -2.428247 4.206751 0.039940 2.868522 -0.173836 -2.107253 -0.268835 -0.249165 -4.231870 4.042404 -1.278018 -4.560753 -3.279559 1.479679 -2.224612 -2.958774 -0.690089 -2.746305 -2.629290 -1.049358 -4.452475 2.158225 3.300506 -0.139129 3.331027 -1.634537 -3.978582 -2.519296 -0.012984 -2.314188 2.132417 0.962151 -2.839026 2.533616 -3.389811 0.734377 1.480641 4.253136 1.375303 1.799140 0.590464 2.152341 3.957393 -2.375952 3.427761 -4.274539 0.926959 3.435383 -3.748240 1.695428 -0.044388 2.759085 -2.169495 -3.005453 -0.852953 4.910414 -1.258227 4.741449 -4.410870 -2.496078 0.004447 2.780981
-2.282648 -0.178258 -0.125537 2.258760 -0.422704 -3.907317 -4.347902 -0.500524 -4.080311 -1.816001 3.695153 4.001249 -3.468213 0.476137 -4.974559 1.560261 1.611684 2.288167 0.821932 3.936426 -4.000801 -4.089607 3.213273 1.257995 1.150314 4.094105 -2.009687 -2.787290 2.563341 1.670336 -2.953886 4.315978 -1.545095 -1.189698 -2.428247 -3.596262 -3.502212 2.868522 -0.173836 3.958421 -0.198072 -0.249165 0.071139 0.038262 -1.278018 -4.560753 -3.279559 1.479679 -4.111502 -2.958774 -0.690089 -2.746305 -2.629290 -1.049358 4.652268 2.158225 3.300506 -0.139129 3.331027 0.984492 -3.978582 -2.519296 -0.012984 -4.671621 2.132417 -3.206412 -2.839026 -2.039615 -3.389811 0.734377 1.480641 -1.822637 -2.224643 4.870114 -2.673008 2.152341 3.957393 -2.375952 0.001333 -4.274539 4.095155 4.194396 -4.331061 2.584272 -0.044388 2.759085 -2.169495 -3.005453 -0.852953 4.910414 -1.258227 4.741449 -4.410870 -2.496078 0.004447 2.780981
-2.282648 3.489052 -1.883408 2.258760 -0.422704 -0.765718 -0.113289 -0.500524 0.904938 -4.965647 3.695153 4.164341 -3.468213 0.476137 -0.869695 1.560261 1.611684 2.288167 0.821932 3.896654 -4.000801 -4.089607 3.213273 -4.900894 -1.064655 4.094105 -4.500900 -2.787290 -4.721038 1.670336 -2.953886 4.820726 -1.545095 -1.189698 -2.428247 -1.933118 -3.502212 2.868522 -0.173836 3.958421 0.343950 -0.249165 0.071139 0.038262 -1.278018 -4.560753 -3.279559 1.479679 -4.111502 -2.958774 -3.701832 -2.746305 -2.629290 3.275064 4.652268 2.158225 3.300506 -0.139129 3.331027 0.984492 -3.978582 1.008914 -0.012984 -2.204920 2.132417 -3.206412 -2.839026 3.820211 -3.389811 -2.776125 1.480641 -1.822637 -2.224643 4.870114 -2.673008 2.152341 4.536100 -2.375952 0.001333 -4.274539 4.095155 -2.187052 -4.331061 2.584272 -0.044388 2.759085 -2.169495 -3.005453 -0.852953 4.910414 -1.258227 4.741449 -4.410870 -2.496078 0.004447 2.780981
-1.770898 -0.178258 1.765806 2.258760 -0.422704 3.670788 -4.347902 -0.500524 0.904938 -4.277542 3.695153 4.001249 -3.468213 0.476137 -4.974559 1.560261 1.611684 -1.333017 0.821932 3.896654 -4.000801 -4.089607 3.213273 -3.395392 -4.964700 4.094105 -2.009687 -0.845273 -4.721038 1.670336 -2.953886 4.315978 -1.545095 -1.189698 -2.428247 -1.039543 0.039940 2.868522 -0.173836 -2.107253 0.343950 -0.249165 -4.231870 4.042404 -1.278018 -4.560753 -3.279559 1.479679 -4.111502 -2.958774 -0.690089 -2.746305 -2.629290 -1.049358 4.652268 2.049184 3.300506 -3.734519 3.331027 0.984492 -3.978582 -2.515441 -0.012984 -0.141679 3.127503 -3.206412 -2.839026 -1.735409 -3.868737 2.768811 1.480641 -0.970772 1.375303 4.870114 -0.066564 -1.067346 1.562669 -2.375952 3.427761 -4.274539 0.926959 -2.187052 -4.331061 2.584272 -0.044388 2.759085 -2.169495 -3.005453 -0.852953 4.910414 -1.258227 4.741449 -4.410870 -2.496078 0.004447 2.780981
-2.282648 -0.178258 -0.125537 0.676448 -0.422704 3.670788 -3.082716 4.819762 -4.080311 -4.965647 3.695153 4.001249 -3.468213 0.476137 -4.974559 1.560261 1.611684 2.288167 0.821932 3.896654 -4.000801 -4.089607 3.213273 -4.900894 -4.964700 3.610437 -2.960714 -2.787290 -4.721038 1.670336 -2.953886 4.315978 -1.545095 -1.189698 -2.428247 4.206751 0.039940 2.868522 -1.128492 -2.107253 -0.268835 -0.249165 -3.249231 4.042404 -1.278018 -4.560753 -3.279559 1.479679 -4.111502 -2.958774 -0.690089 -2.746305 -2.629290 -1.049358 -4.452475 2.158225 3.300506 -0.139129 3.331027 -1.634537 -3.978582 -2.519296 -0.012984 -2.314188 2.132417 0.962151 -2.839026 2.533616 -3.389811 0.734377 1.480641 0.316060 -2.481060 4.870114 -2.673008 2.152341 3.957393 -2.375952 0.001333 -0.435955 4.095155 -2.187052 -3.748240 1.695428 -0.044388 2.759085 -1.163060 -3.005453 -0.852953 4.910414 -1.258227 4.741449 -4.410870 -2.496078 0.004447 1.448220
-1.770898 -0.178258 1.765806 2.258760 -0.422704 3.670788 -4.347902 -0.500524 0.904938 -4.277542 3.695153 4.001249 -3.468213 0.664329 -4.974559 1.560261 1.611684 -1.333017 0.821932 3.896654 -4.000801 -4.089607 3.213273 -3.395392 -4.964700 4.094105 -2.009687 -0.845273 -4.721038 1.670336 2.795325 4.315978 -1.545095 -1.189698 -2.428247 4.206751 0.039940 2.868522 -0.173836 -2.107253 0.343950 -0.249165 -4.231870 4.042404 -1.278018 -4.560753 -3.279559 1.479679 -4.111502 -2.958774 -0.690089 -2.746305 -2.629290 -2.392229 4.652268 2.049184 3.300506 -3.734519 3.331027 0.984492 -3.978582 -2.519296 -0.012984 -2.314188 2.132417 0.962151 -2.839026 2.533616 -3.389811 0.734377 1.480641 0.316060 -2.481060 4.870114 -2.673008 2.152341 3.957393 -2.375952 3.427761 -4.274539 0.926959 3.435383 -3.748240 1.695428 -0.044388 2.759085 -1.407920 -3.005453 -0.852953 4.910414 -1.258227 4.741449 -4.410870 -2.496078 0.004447 1.448220
-2.282648 -0.178258 -0.125537 0.676448 -0.422704 3.670788 -3.082716 4.819762 -4.080311 -4.965647 3.695153 4.001249 -3.468213 0.476137 -4.974559 1.560261 1.611684 2.288167 0.821932 3.896654 -4.000801 -4.089607 3.213273 -4.900894 -4.964700 3.610437 -1.083324 -2.787290 -4.721038 1.670336 -2.953886 4.315978 -1.545095 -1.189698 -2.428247 4.206751 0.039940 2.868522 -0.173836 -2.107253 -0.268835 -0.249165 -4.231870 -2.050083 -1.278018 -4.560753 -3.279559 1.479679 -4.111502 -2.958774 -1.449561 -2.746305 -2.629290 -1.049358 -4.452475 2.158225 3.300506 -0.139129 3.331027 -1.634537 -3.978582 -2.519296 -0.012984 -2.314188 2.132417 0.962151 -2.839026 2.533616 -3.389811 0.734377 1.480641 0.316060 -2.481060 4.870114 -2.673008 2.152341 3.957393 -2.375952 3.427761 -4.274539 0.926959 3.435383 -3.748240 1.695428 -0.044388 2.759085 -2.169495 -3.005453 -0.852953 4.910414 -1.258227 4.741449 -4.410870 -2.496078 0.004447 1.448220
-1.292489 3.489052 -1.883408 0.642672 -0.422704 -0.765718 -4.347902 -0.500524 0.904938 -4.965647 3.695153 4.164341 -3.468213 0.476137 -4.974559 -1.407572 1.611684 2.288167 0.821932 3.896654 -4.000801 -4.089607 3.213273 -4.900894 -4.964700 4.094105 -4.500900 -2.787290 -4.721038 1.670336 -2.953886 4.315978 -1.545095 -1.189698 -2.428247 -3.596262 -3.502212 2.868522 -0.173836 3.958421 -0.198072 -0.249165 0.071139 0.038262 -1.278018 -4.560753 -3.279559 1.479679 -0.919709 -2.958774 -0.690089 -2.746305 -2.629290 -1.049358 4.652268 2.158225 3.300506 -0.139129 3.331027 0.984492 -3.978582 -2.519296 -0.012984 -4.671621 2.132417 -3.206412 -2.839026 -2.039615 -3.389811 0.734377 1.480641 -1.822637 -2.224643 4.870114 -2.673008 2.152341 3.957393 -2.375952 0.001333 -4.274539 4.095155 4.194396 -4.331061 2.584272 -0.044388 2.759085 -2.169495 -3.005453 -0.852953 4.910414 -1.258227 4.741449 -4.410870 1.155716 0.004447 2.780981
-2.282648 -0.178258 -0.125537 0.676448 -0.422704 3.670788 -3.082716 4.819762 -4.080311 -4.965647 3.695153 4.001249 -3.468213 0.476137 -4.974559 1.560261 1.611684 2.288167 0.821932 3.896654 -4.000801 -4.089607 3.213273 -4.900894 -4.964700 3.610437 -1.083324 -2.787290 -4.721038 1.670336 -2.953886 4.315978 -1.545095 -1.189698 -2.428247 4.206751 0.039940 2.868522 -0.173836 -2.107253 -3.848918 -0.249165 0.071139 4.042404 -1.278018 -4.560753 -1.770144 1.479679 -4.111502 -2.958774 -0.690089 -2.746305 -0.965986 -1.049358 4.652268 2.158225 3.300506 -0.139129 3.331027 0.984492 -3.978582 -2.519296 -0.012984 -0.141679 3.127503 -3.206412 -1.248690 3.926263 -3.868737 2.768811 1.480641 3.802554 -2.481060 4.870114 -2.673008 2.152341 3.957393 -2.375952 0.001333 -4.274539 4.095155 -2.187052 -3.748240 -2.075129 -0.044388 2.759085 -2.169495 -3.005453 -0.852953 4.910414 -1.258227 4.741449 -4.410870 -2.496078 0.004447 2.524739
