2.563960 1.651667 -2.243861 0.425822 -4.291402 -2.895706 -2.310766 -1.029525 -1.858878 2.921291 -0.548868 0.627559 2.889712 -0.644650 -2.436819 -0.306847 -2.028356 2.719874 2.548591 4.627364 2.156208 -4.726421 -0.926116 3.554481 3.502623 -4.104715 -4.817439 3.157639 2.856483 4.092774 0.350162 3.631714 -3.441919 -2.954664 -0.178628 3.994354 0.075389 0.201707 -3.515176 0.809255 -1.286896 0.897377 -2.419458 4.259741 -4.785917 2.001766 2.667021 -1.870973 1.537959 -4.054928 -2.561604 4.483876 -3.111206 2.841537 1.884242 1.504403 2.050170 2.564531 -4.986869 4.648806 -1.684015 0.008304 -1.776647 -4.641766 -0.878293 -3.682743 4.444472 -2.819735 1.497877 -3.451416 -0.579786 -2.789340 4.212346 -0.735257 2.654234 -0.279636 -4.338647 4.143174 -4.627412 -0.581195 0.583382 4.334275 -0.461534 2.991456 3.209843 -2.643629 3.612639 -4.581956 4.526325 0.051541 -2.285435 3.026594 -0.217891 -3.139534 4.391427 -2.745614
3.846505 -1.063388 -0.102065 -2.208215 4.678620 4.180756 -4.788107 -1.095039 -2.165483 3.244153 -3.896452 -4.412389 -4.548906 2.541632 3.893423 3.701910 -1.902163 -4.662158 2.862757 -4.312551 -2.233423 4.651320 3.926096 0.590898 1.550893 1.283201 -1.543524 -0.217219 1.497960 -1.269404 3.298371 3.660734 4.359462 -2.876082 -2.207993 3.580995 2.971153 -1.750405 -0.268697 2.287517 -1.161038 -4.580786 -1.408548 2.714885 2.969792 0.204002 -2.215643 3.492098 -4.326707 -1.718885 -1.818336 2.473071 -0.701656 2.825629 -2.912842 -0.482000 3.377992 1.484505 -3.437388 3.150935 2.152189 -3.478538 -4.774078 -0.620110 -2.965100 2.572485 -3.810065 -0.711535 3.397776 -3.593267 -2.988069 3.405994 -4.090671 1.775106 -3.381753 -0.107678 1.850166 3.705751 0.127359 4.167194 -1.679580 -2.060580 -0.075204 4.409281 4.561922 1.353175 -0.512973 -0.386982 -3.887265 -0.051538 -4.795171 4.589977 -3.062991 3.407354 -2.741008 -2.954500
-2.389083 -2.468764 -3.929198 -3.477975 -3.785731 1.358802 -1.002821 -4.675344 -3.229676 -3.406286 3.158493 -3.694354 -1.152069 0.341933 1.876284 3.525502 -3.136327 4.085420 -3.775875 -4.221111 2.451662 -0.371485 -0.971582 -0.317058 3.992781 -4.739731 -2.935562 1.681192 -2.588697 0.049644 -2.687366 -3.963310 -0.667849 -2.775463 3.351304 -2.519888 2.549823 3.339151 -3.050495 4.802703 2.159308 0.726381 -0.149564 -4.781444 -1.944380 -3.076489 -3.795623 0.625956 -2.672985 -0.133367 -1.831562 2.727608 -4.762226 -1.478446 -0.893637 2.674306 -1.157838 -0.677347 -2.284509 4.595153 0.404999 -4.779666 3.527945 4.567201 0.197175 2.846062 3.452897 -4.581925 1.821719 -1.800670 -1.323128 2.827684 -3.379371 3.268280 3.779398 2.290233 -0.453424 3.781017 0.712379 2.947198 1.443496 -1.635680 2.266507 3.078979 -2.419529 -3.434138 1.519393 3.369266 -0.511381 -1.695431 4.014380 2.323091 4.047445 0.169473 4.440562 2.839172
0.630173 -2.322278 1.897999 2.047805 2.632277 4.311566 -2.248122 3.037347 3.144479 -2.345706 1.914770 -3.696287 -3.152874 2.265276 -4.610185 0.470860 1.308689 0.235464 -2.442521 0.203996 2.868853 1.088763 -3.675081 4.930503 0.323182 2.555214 -0.306384 2.673224 -4.613588 3.055299 0.009397 3.348353 3.940793 2.099396 -4.325811 3.660696 2.522002 4.772608 -3.492650 3.610215 -1.751808 -4.801558 -4.240112 3.110693 3.907244 4.802609 3.481366 4.771267 -2.206893 0.159640 -2.310999 -2.348625 -1.201875 -3.939558 4.554400 0.014933 2.997200 1.954824 2.289936 1.579046 -3.339615 -0.848231 -3.847996 -0.016606 3.560400 2.977815 1.269858 0.971489 4.150591 -4.228012 -3.988101 4.383613 3.279130 -4.460968 -0.607482 -2.278183 -1.063844 3.774217 0.410568 2.466419 4.265339 -1.100288 1.355039 -3.707297 -3.953596 -2.451755 -3.254143 0.920828 -4.439859 -0.177787 -1.856960 2.547155 3.070800 3.472074 -2.549037 -2.892705
-4.515810 -3.631544 1.340514 4.581432 4.906730 -1.712410 2.872461 2.308578 -2.907090 2.795650 -2.212195 1.828373 0.745505 2.572873 -2.599894 -2.767879 4.060791 3.253357 -4.287983 -4.801745 -0.390162 4.936146 4.708773 -1.708799 -0.418676 3.989157 -0.220132 -4.203370 0.921516 -2.286206 -0.026694 -0.871782 -0.427308 1.740331 1.526557 0.990729 -2.201245 0.866390 -0.269990 -2.516968 2.087670 -2.822506 -1.375543 -3.640950 -1.355773 -2.488627 3.671691 4.695957 -4.775743 3.477859 -3.535189 2.151055 -4.439047 -3.585164 0.116328 -1.359954 3.789147 1.381673 -1.801660 -1.144221 -4.449414 2.674533 -4.854026 3.972253 -1.649273 3.051073 -4.576494 3.827001 -3.096228 -0.754208 -1.693563 -2.290677 -2.081683 -1.637035 3.906786 0.652529 -1.315584 -2.028443 1.474357 1.302003 -2.395267 -0.829778 2.866590 -1.028945 -0.549401 -1.095949 0.898882 -2.150782 0.869141 -1.076163 -0.362975 -3.142828 -2.204073 -1.806760 3.105775 2.214970
-0.478368 0.434117 -2.899107 4.643123 4.465995 1.252683 -3.385604 -3.261034 -0.835060 -0.393941 4.079654 4.529577 -2.738642 -2.301952 -3.564954 4.550159 -2.941450 3.232967 1.870315 -0.410578 -4.981415 -0.370720 1.555558 -0.242586 -3.745774 4.338570 -1.805678 -2.001994 1.545714 3.628715 2.929046 -0.602827 4.860626 3.265936 1.694297 -1.735867 -0.001088 0.966718 3.660468 -0.419143 3.830723 -0.785164 2.572984 1.692177 2.502706 1.179152 -0.071349 4.603904 -0.867322 -3.564650 0.255662 3.120606 3.155418 -3.006757 -2.031480 -4.257598 0.238694 3.611090 -1.930328 3.876775 -4.515544 -4.048227 0.709939 4.164341 4.480458 -4.680924 4.152293 1.887970 2.265353 -1.013399 3.333077 3.358911 -4.740089 1.344522 -2.696639 -1.120425 -2.815131 1.296314 1.993241 0.966888 1.236042 -0.019355 1.228184 4.610065 4.523313 3.922231 4.313292 -2.744295 0.460867 1.253343 -3.346248 -0.139742 -1.199346 -1.962941 -3.841758 -1.195403
-3.701091 -4.354695 -2.523395 1.113061 0.166464 3.040346 4.272696 2.531684 -0.141000 -1.376901 -0.109112 4.064497 -4.906522 -4.354292 -4.072716 1.484316 -4.239200 -0.473169 2.509955 4.389652 -4.041735 3.031399 1.578976 -2.580902 -0.206480 0.500586 -0.733049 -4.774644 -3.219879 1.302021 0.138782 3.576111 2.049322 -2.591868 -1.282542 -0.412372 4.128705 0.589216 -3.623962 4.122379 -4.049736 3.404411 -2.768192 1.910912 4.778957 0.366876 -3.850118 -0.833279 -4.409868 1.364218 0.581493 -1.327310 0.129590 0.509562 1.339047 -2.520032 1.383580 -2.028743 -3.055610 2.003175 -0.554361 0.113098 0.780743 3.994004 0.119863 -0.351442 1.146382 0.621568 1.837197 1.505678 1.572035 0.240161 -3.331375 2.648312 1.708837 0.907681 -0.703594 -2.955167 -1.914126 2.646926 -3.280824 -1.962289 -3.348235 3.207325 2.881937 4.059192 -4.844181 2.488701 -0.286928 4.269061 -3.932335 -2.937400 0.689164 -0.811947 -3.861011 3.511275
-0.687353 -4.079667 -2.343515 3.062313 -3.878405 0.033442 2.386660 -2.041780 3.248668 2.509838 2.006979 -3.509813 -1.889288 4.710233 -4.146738 -4.937532 2.911176 -1.072741 -2.647079 -3.201184 4.901271 -3.131696 1.670019 -3.230943 0.019939 -3.799152 1.001331 -4.434790 -1.752744 -2.418666 3.523003 -3.420581 -1.674768 -2.550482 -3.031413 -0.050890 2.185629 2.140447 -1.592108 -3.079179 -3.264563 -2.992128 2.407961 1.995835 3.265268 4.056168 -0.659908 -4.044529 -2.681143 -0.688485 -3.066443 0.585702 2.305494 3.256362 2.697430 -0.628190 -4.498817 -3.871057 -0.637657 -4.888623 3.844288 -3.182119 2.885431 -4.963276 4.422820 -0.350427 -1.015995 4.953578 1.698611 -2.222736 1.180691 3.364001 3.797854 -3.073946 2.601836 -1.824549 2.925309 4.040721 -3.258970 4.668232 -4.729533 3.162002 -2.272174 1.536351 -4.135877 0.361680 3.154485 4.392862 4.533441 -0.979226 -3.670088 -3.207317 0.929568 1.432067 -1.798473 0.548522
1.580339 -3.519514 2.271631 -1.238298 -3.347309 -1.171874 3.700486 -3.824032 1.095176 -3.356442 -2.281002 0.120254 -4.194678 -3.578624 4.561273 -0.183642 -3.164991 2.932732 -4.945557 1.477998 -0.206432 -2.940272 -1.625510 -2.235865 -4.278283 -2.134947 3.048328 1.684456 2.776705 -4.276216 3.525319 -2.633886 3.650320 -1.003460 0.804799 -1.040404 -1.473990 -0.384080 -2.518755 0.748999 1.823105 2.629898 -4.737056 2.313476 -0.023874 -0.568455 -4.359872 -3.164612 1.431075 4.457133 3.291087 3.604723 1.592846 2.466549 -3.195113 -0.995730 3.914710 -1.211993 -2.470683 3.977598 -3.775681 2.349793 -4.299880 3.176634 4.882147 0.423983 1.345339 -3.675269 -1.829773 -1.471169 -4.311452 4.013469 2.178003 -0.989709 2.918322 -0.262407 -4.272030 -4.881379 0.966052 -0.673122 3.124040 -0.563075 -2.820247 2.500980 1.485795 -4.755511 -2.361530 -2.400182 -1.448582 -2.198512 3.689360 -1.436826 4.480434 -1.340012 3.520128 -3.168811
3.520601 -4.746141 2.198362 -3.998300 -0.453014 -4.161979 3.443460 -2.411296 0.286849 1.645274 3.284882 1.810645 -0.471738 3.670561 1.580349 -2.390753 -2.543222 -1.711540 -4.193168 2.993028 -2.219060 -0.711330 4.902798 -2.766106 2.221104 -1.668615 0.257445 -4.597088 -4.123789 2.434629 4.242577 0.258412 0.589441 3.061021 -1.818684 2.019794 -0.170252 4.511666 2.117129 2.374256 1.208361 -4.637619 -2.786634 -3.087756 1.150949 -3.866055 -3.393831 -3.234867 -3.626797 1.028393 -4.449200 -0.368168 3.210874 -0.536503 0.774606 -3.045940 -0.758628 2.264225 4.143417 -4.073448 2.300672 3.362600 -4.213290 -1.645989 2.562363 4.328871 3.279637 -1.782125 1.533514 -4.761125 3.808044 1.725641 2.441003 -3.655258 2.653372 -2.136528 -3.345252 -2.034096 0.095216 -2.250075 -0.402859 -1.052835 -0.457244 -0.811941 1.578521 4.542251 -0.505460 1.331562 -1.626901 0.309243 -4.791443 3.777468 2.450033 3.552156 4.964745 4.301688
4.437066 -4.533585 4.598173 -3.035230 0.221997 -1.181413 -4.288468 0.088863 -3.568034 -4.670914 0.270401 -3.064403 -3.783416 0.642327 -3.526773 -4.663061 1.472788 0.789552 -3.390901 -1.130125 4.318041 -0.692178 2.705986 0.693162 3.387627 -3.570994 -4.958151 -3.880752 2.409061 2.947182 -0.776909 0.449373 -0.188664 1.189063 0.812169 2.426644 4.853089 -1.880219 -2.023266 2.573052 -2.630896 -2.808083 -1.295623 0.878059 2.657039 0.046253 -2.094925 -2.713646 3.436907 -3.967897 -1.106109 -1.433854 0.360726 -1.103022 1.569882 1.099529 -2.453178 4.809097 -4.631603 -4.073563 -2.092055 4.965532 1.507467 0.486926 3.404512 -4.400188 -1.657783 0.627930 0.493413 1.776276 4.687680 1.445762 -4.742100 -1.141428 -4.522632 -4.840197 4.667366 -4.945686 3.402365 -3.553593 0.191109 -2.217370 -3.474372 4.599879 -2.349163 1.506739 0.865177 -2.501298 -4.071750 -4.780197 4.084129 1.523030 -3.576143 4.381629 -2.604113 0.321805
4.128086 -3.482407 -1.581252 4.104381 -0.649050 -1.971254 -1.218437 3.536605 -2.286357 -2.106436 -4.483398 3.661019 0.235151 4.858207 2.454198 3.219100 0.776973 3.083512 2.498777 -1.364836 0.104282 -3.883936 1.794708 2.799276 4.368860 0.253585 -1.746953 2.142279 1.670410 4.709259 4.480874 -4.147823 -2.127273 3.454714 -4.000657 -4.420212 -2.377727 -1.865962 -0.668243 -4.324584 0.122627 -1.386998 1.773514 -1.217155 -1.131088 1.603481 -0.643956 4.990947 1.029733 -2.363496 -3.347412 -3.922594 1.473958 3.032235 -2.457594 -1.621019 -4.590420 3.179496 -0.963697 2.256959 2.731760 3.882948 -3.874557 0.617655 -2.912855 -0.051612 1.314745 -1.475639 -4.407597 -2.560733 0.329846 -0.108937 -2.109603 3.497860 0.588154 -3.233129 2.228675 1.008200 4.929308 -0.756705 3.338122 -1.496920 -3.260797 -1.177123 -3.813513 1.200884 4.245647 4.425408 3.608590 -4.316475 -4.379225 -0.236024 -2.110235 -4.302265 -3.254313 -4.024180
-1.610073 -1.717428 0.833878 4.892769 -2.858353 -1.531052 3.606547 3.544350 0.798518 1.095413 0.181439 4.272031 4.778548 4.039013 0.646814 0.189154 1.749290 3.671460 -2.995086 0.337095 -2.176584 4.169196 -0.190444 -0.028795 -0.500431 1.022836 -2.854898 1.195362 -4.589083 0.914278 -3.406208 -0.492969 -4.262070 -3.906479 3.107861 3.375620 2.837322 2.023380 -2.625964 -2.312606 3.240681 -1.233968 1.084537 -0.519464 2.858081 -1.732515 0.261258 4.242750 0.672656 -0.069113 -1.474113 0.038287 -4.481650 -0.205038 3.579683 2.947469 -2.853022 -3.683521 -3.617966 2.656026 1.137867 -3.852262 3.769574 2.718568 1.254491 4.324115 2.061813 4.716863 -0.128863 2.142161 1.592283 4.063112 4.979990 -0.242848 1.390871 -4.444849 3.644590 0.070082 -0.495595 3.153029 -2.271768 -3.926315 -0.308827 -4.566037 -1.178341 -4.623169 0.017080 -2.205236 -4.562344 -3.112516 4.189044 3.389232 3.084904 1.696557 -4.654543 3.494523
-0.106505 -4.452576 -2.909213 -3.543289 -2.105371 3.192231 -3.718384 -2.578335 4.453142 -4.483647 3.028470 -3.317742 -2.385936 3.810452 3.713865 -3.386754 -2.126532 -3.439688 -3.552543 -4.378236 2.279652 -4.554159 0.970294 -2.744795 -0.508642 2.547315 -2.696071 -2.708388 -0.586880 3.172079 -3.491768 3.971285 -0.622650 -3.317961 -4.130072 -4.536035 3.896981 2.455863 -4.528813 4.886320 -3.818877 -2.371137 -3.238133 -3.438413 -4.766547 -2.671006 -2.814949 -0.227362 -3.461645 -4.206992 -4.182660 4.789950 -4.503221 3.255216 0.910938 0.979527 3.921323 -1.631616 -4.708612 2.308395 3.544481 -0.544957 4.030833 1.887367 -4.730436 -1.805284 1.396876 1.320454 -2.181561 -1.797300 3.585928 0.900590 -1.292983 -0.863950 1.329057 2.449414 4.683995 2.267561 -0.039498 3.281884 -2.425936 -4.556111 2.169720 -0.027901 -0.545925 3.236914 -1.231669 0.608658 3.016342 3.804809 -3.412198 -0.443247 3.570640 0.614964 -4.918024 4.185709
4.346039 2.440867 1.420335 3.870261 0.144632 -1.895022 0.146198 4.141238 -3.833678 -0.129660 1.009983 -1.763131 -2.304223 -1.596832 3.286252 -2.860767 -1.728181 1.860628 -0.447471 4.316085 -1.894218 2.806247 1.376372 4.505848 4.687719 -2.201618 -4.324255 -1.283610 1.074098 1.004238 1.847756 -2.841382 -1.094058 1.669528 0.306206 -2.744766 0.816968 -0.982619 0.369971 -3.625797 -1.239409 -3.818198 1.807199 4.372277 4.382320 3.002424 2.397125 4.697430 3.993899 -2.733787 4.375312 4.076066 1.631358 2.277260 -3.261652 3.093026 -2.911829 -1.205114 2.236438 4.838904 3.164496 -0.571923 -4.064465 -1.494887 -2.554995 -1.237692 -2.886998 -0.100287 -2.611012 -2.724257 -4.523267 4.452745 -1.004216 1.513011 2.487741 4.626799 3.621353 3.057654 3.733316 -0.047271 2.089013 -3.176752 3.062955 2.059103 -0.784160 4.010314 -3.716371 4.450157 -4.732614 -3.798220 -2.438916 -4.581368 -4.678071 -3.735110 -1.535387 -3.655679
3.454805 2.656559 1.911939 1.914649 3.359061 -3.777341 3.315769 -0.642177 1.063920 1.665258 3.046673 -3.098555 4.522317 0.543782 -0.205769 3.283474 -2.898058 -2.903332 -1.199657 2.960790 -4.978190 2.904772 -2.238174 1.905398 -4.494561 1.953369 1.079667 1.220269 0.150134 4.716123 3.260660 -3.960502 1.098429 1.241088 3.404230 0.138917 0.886984 0.279402 -4.964185 1.520149 1.704783 4.714765 4.304508 0.770361 1.864284 1.060608 -4.652189 0.502247 0.710008 2.746755 3.929306 -2.436241 3.550034 -2.647622 -4.249722 1.373190 2.643467 3.810505 4.597551 4.458568 -2.557916 -3.571415 3.294411 3.272337 1.985139 -0.101254 -0.870039 -0.965697 2.778829 -3.894410 4.936426 -1.623013 0.704587 -1.831756 -1.781048 0.098523 -2.295992 -2.233337 1.404382 -2.863006 1.689156 -4.493194 2.598722 -1.583274 -2.040751 2.227724 -4.287725 -2.573599 2.143110 -1.043867 2.038836 -4.020871 -2.557981 -2.559018 2.019369 2.461067
-3.118254 -1.941697 -4.648796 -4.585004 2.649414 -4.119797 -0.562383 -3.030560 2.348090 1.859663 3.445359 -4.478878 -2.940367 4.560877 -1.368339 -0.614798 4.262402 3.079274 1.829111 -0.402453 0.020136 -0.551907 -4.483851 -3.737145 -0.501137 1.725781 -3.770589 -0.013367 1.088561 -2.612108 -2.473400 -2.445897 -1.424125 -2.465608 -2.410398 -3.272254 1.622838 -1.205373 0.631605 2.451286 2.574100 4.790687 2.396334 -2.040648 -2.665158 1.695627 1.740947 4.622347 4.209787 -0.310278 2.029840 -0.026426 -3.990255 2.545705 -0.093144 4.386911 -3.944233 4.062801 1.378646 -3.367792 1.558556 1.435400 4.366697 2.319676 3.171186 1.475410 -0.310116 0.646270 -3.453380 -2.939534 3.403493 -4.179666 1.901347 -2.351517 -4.591692 -1.584178 3.813402 4.416185 3.998135 3.319745 3.602343 -2.924302 -2.817087 3.828155 -3.639884 -0.249267 -0.974163 0.472875 1.214115 2.635692 0.696824 -1.287687 -2.279858 -4.936919 2.174392 2.948533
-4.186067 4.914888 -1.039772 -1.876867 3.528381 3.415254 -2.862940 -0.282776 -0.361227 0.810652 0.463869 -3.180821 2.736278 4.669826 -4.563484 0.554316 -4.885036 1.940743 -2.542584 -0.493658 -4.075458 -0.015256 -0.516471 3.815961 3.933610 3.158433 0.888752 -4.282030 -0.740922 -3.904203 -3.333082 4.048334 4.696106 -4.367306 1.036749 -2.963603 4.958495 0.425496 4.057361 1.606744 -4.452064 2.871900 -4.245700 2.772600 -1.514650 0.450898 -4.091759 1.846669 -2.736597 3.921134 0.547731 0.168527 4.380767 -3.924623 4.107374 2.229539 -1.601086 -0.376349 2.556125 4.189044 4.147176 -2.406251 2.085618 -1.440177 3.985643 -1.505579 1.446169 3.080120 1.444715 1.425365 -0.904574 -2.568912 1.600140 1.353052 0.179369 0.749504 0.164231 3.106341 1.826791 -2.569485 2.291831 3.083055 -2.018037 -3.508763 3.876413 -2.411069 -4.091018 1.326700 -1.538410 2.206271 -1.908270 -4.140654 -0.061365 1.580113 -4.922345 3.279498
1.773027 1.018644 -4.174488 4.591024 -4.011963 -0.521445 1.839528 3.268628 1.081416 -4.140975 -0.186472 -0.466369 2.347338 3.568442 1.000106 4.048737 4.631164 3.704836 -4.116958 4.921124 4.362248 3.999680 2.544739 -3.904213 -1.501984 2.394364 -1.065523 -1.076681 -3.370909 2.799089 2.064442 0.842828 0.705515 -3.061027 4.926147 -0.229682 4.274459 0.522995 -1.222233 -2.670384 2.033075 -1.967729 -2.079587 2.060886 1.604432 -0.519391 4.024524 -2.472483 3.685723 -4.798034 0.691443 3.197637 -4.369507 -1.950134 -0.735908 -4.615362 -0.745903 2.972088 1.107416 -4.496791 0.512366 -3.345917 1.337722 -4.540360 -3.483030 -1.822723 -2.110709 -3.635106 2.783096 2.694305 -2.162328 -4.464557 -1.854289 -4.069143 4.790997 0.864481 -4.017915 0.731060 -2.483609 -2.447308 -0.081303 -0.496344 1.075984 2.649976 0.221785 4.058130 -0.060032 -2.506503 -3.788691 -3.514069 -1.135046 -1.420522 -0.484329 -3.586749 -3.543581 -4.611082
3.108026 2.653826 -0.751892 3.568256 0.348461 1.975714 3.714804 -4.425786 -3.509405 -2.251234 0.074407 -0.614764 -2.520677 -4.180417 3.027576 2.744904 0.125326 -4.159071 4.763268 -3.295039 3.701903 1.162698 -2.985303 3.239011 -2.979289 1.011445 -1.411262 1.964427 -0.111543 -2.499840 4.660967 0.685568 0.649098 3.710947 -2.866113 -2.406032 4.669811 1.068574 2.716691 2.104776 -4.680796 3.729142 -3.786674 3.126458 2.966049 -3.439280 0.884359 -3.630321 4.949738 1.428026 -2.651130 -3.269212 1.343832 -2.865261 0.354472 0.993526 -0.904134 0.329881 3.989890 -2.813977 -0.792404 0.599841 0.543334 -3.841645 -1.248163 -0.947059 -3.985687 -2.605630 -2.043790 4.748050 -4.607111 -0.093324 4.879658 -4.734468 -4.119639 0.890607 3.255649 -1.037078 -4.832002 -3.677354 3.140578 -2.986618 2.068616 2.772423 -3.918935 -3.982683 2.164157 0.079709 0.528490 2.195723 -1.733974 4.425244 -2.105474 4.810862 3.206932 3.766833
-3.136918 4.750480 -3.409658 -2.973505 2.734562 -3.656068 -1.186205 -0.413357 -0.392016 4.778795 0.598043 2.597947 2.606529 2.775437 4.466503 -1.787481 4.688549 -4.959165 4.762919 -4.941642 -1.230470 2.007297 1.624871 4.982444 1.192692 -4.698055 0.186909 -3.662949 -1.636677 2.100759 -1.769324 0.405949 1.059562 -2.313014 -0.723381 1.475371 -2.716845 -1.823577 4.899985 -0.533442 3.763283 -3.138692 3.458842 -1.055088 -1.022273 -1.047405 2.241887 -4.543692 -3.221418 3.168417 -0.397535 -4.581222 -2.201946 -1.253843 -2.053915 -0.847444 0.892917 -3.691328 -1.376908 0.193163 -2.369220 3.908994 3.668787 0.679025 -1.719423 -4.665198 0.259767 -4.242056 0.650202 4.273223 4.928667 -1.465270 1.227957 3.688388 4.785657 2.668407 -0.130984 -1.204927 0.159164 3.454321 2.338369 1.726824 -2.488067 2.173319 4.379599 -3.290455 -4.296029 0.159077 -4.050132 -2.200728 4.510099 0.304891 1.901382 3.265557 -4.626345 -4.618118
-4.422835 -3.705998 -0.334717 1.500194 -2.216377 0.741456 2.533892 -3.523988 0.753352 0.094106 -1.458663 2.515663 -2.618018 -2.304966 -3.175390 -0.320419 4.545999 -4.176330 -3.756614 -3.316589 -1.753199 2.437947 -4.118925 0.552448 4.481227 -2.680255 -4.845280 1.258529 -4.706791 -0.953806 3.809515 1.330065 1.511487 -4.881083 4.332253 1.733702 -0.880613 4.595388 -2.399790 -4.012861 -3.977427 2.618912 0.200752 1.214388 2.763983 -0.207406 -3.112594 2.933288 0.784737 -2.338029 -1.133147 -4.161375 -3.530053 4.309405 1.270946 -0.092427 1.111910 3.610275 0.385842 2.061353 2.495340 -0.572209 4.090025 -4.901024 -2.876480 -2.396684 -1.614459 1.592271 -0.420407 1.876675 -0.080859 -1.708806 3.148109 -1.049154 4.527415 -3.473503 4.480547 -4.293726 2.283915 0.682631 2.348942 -3.272602 -1.017339 2.225859 1.484974 -3.517395 1.795586 2.378601 4.869825 2.999396 2.646386 3.309133 -0.530673 -0.832248 -0.691614 -0.309985
-2.809305 2.129715 -3.870804 -1.043824 2.630621 3.887521 2.357536 -1.006925 0.478422 -0.671016 -1.273458 3.980541 3.982703 -1.953681 4.059756 2.104531 1.475226 -3.900661 1.929471 3.379036 3.131047 -4.395559 -2.742428 -3.083125 2.586547 2.647312 4.508341 0.367345 4.340446 -0.191760 3.984046 -3.952815 1.105420 3.359160 -1.677573 3.465452 -2.930723 -2.770614 1.857621 -1.841803 0.901570 -3.147449 1.382299 1.736185 -1.404665 4.154817 2.800727 -3.694249 0.447409 2.673686 3.054163 3.387764 4.345272 0.317020 -2.627448 -3.276805 3.488469 1.442631 3.955029 2.973347 -1.319617 -2.519981 -2.357190 -2.671762 1.505104 -4.125806 -4.169228 -2.860653 1.597180 -1.271045 2.098080 1.567557 3.060828 -1.814171 1.234127 -4.713089 -0.084480 0.547080 1.556877 2.580789 -3.419615 -0.150782 -1.534450 -2.563929 3.429912 -4.219173 -4.485018 1.833969 -2.788690 -3.675828 3.452546 -3.775198 2.025247 4.914579 0.928785 -2.525901
-2.924593 -2.691078 -2.181347 1.651678 4.464829 -0.376407 -3.157882 2.774145 -3.325808 2.830362 4.204960 3.394065 2.972974 -3.054613 -2.437549 -3.537141 4.244973 -0.517308 1.911840 2.641342 1.429324 -1.924340 3.179713 3.214012 4.948559 2.691314 0.101186 2.916573 -3.148579 -1.239264 -0.739003 -2.094790 1.858200 1.070116 4.794711 4.104930 -3.763540 -0.106162 3.921533 -0.127998 -3.162569 1.355191 -4.787687 4.775087 -0.432874 -3.854174 3.341153 -0.054736 -0.399478 2.974793 -0.801895 -2.739565 -3.421007 -4.647298 -3.112365 1.260905 -2.514106 0.860340 -4.774935 -4.534034 1.285324 -4.201613 1.711360 0.631861 1.544909 -3.908717 -3.412440 0.327639 3.013067 -4.973339 -2.880537 1.598693 4.504170 -1.332431 -2.487627 3.557721 0.275241 1.264485 2.576905 3.590281 -3.573349 -4.253259 3.354289 1.834295 3.684679 -0.162273 2.874536 -4.710257 -0.985195 4.773577 -2.945300 2.632330 -1.561903 2.965807 2.378885 -3.530041
1.864465 4.227373 -1.408553 3.699067 2.426491 0.891350 2.434597 0.621564 2.998589 -1.424003 -0.561946 1.762055 -3.088716 2.011464 -0.716257 -3.577337 2.233368 2.812826 0.420737 4.404458 4.338192 -0.482677 3.377025 1.913736 -3.859755 -0.453334 -3.148021 3.977768 3.880066 0.798129 -4.243051 -2.776778 -2.583910 4.480081 -3.078257 -4.243824 -0.791468 -4.731544 3.594199 2.891370 -4.098325 -1.824332 -0.052738 -3.147144 4.384354 -0.543710 1.519795 2.870050 -2.627464 0.255170 -3.939077 -0.651600 -3.056622 4.824231 -3.326625 -0.669581 0.806476 2.195760 4.350160 1.068085 -1.697308 0.113717 1.678476 -0.406795 -0.118557 4.534998 0.457722 1.839353 2.358371 -4.669066 -4.580792 2.064725 4.220853 0.085142 -0.132111 -3.400498 2.127998 -2.900449 -2.680694 4.160267 -4.127360 -3.844446 -0.149095 -3.884690 -0.597864 4.295832 2.825665 -0.208221 0.467153 1.565115 -2.026191 2.657544 -2.432822 -4.813763 -0.447567 3.554249
0.970014 -2.292939 -3.282694 2.259935 -1.490992 4.845497 4.375568 -4.586256 1.625865 -3.915912 3.935020 0.773546 4.096721 2.527584 -0.562995 0.441796 -1.167716 -4.888176 4.572299 3.975418 0.479729 1.480524 1.093429 4.105442 -4.082616 -4.945419 3.748484 -3.839821 -2.420120 4.205455 0.222157 -1.320032 4.224571 3.537762 -2.473844 -3.974736 0.556743 2.608340 1.147073 -4.488555 -0.786974 3.650124 -3.345171 4.538677 0.489616 3.345881 -3.006731 3.805352 -4.575568 -1.219442 -1.173195 -2.605017 4.097239 0.911433 4.870088 4.291344 -0.825202 3.730468 -2.354472 4.109890 -0.211304 0.838367 4.337626 4.907237 -3.922758 1.550878 0.410921 4.787613 -1.970660 0.741297 -4.881457 1.208923 0.633065 3.035452 4.336321 -1.073092 4.509530 -2.049682 -0.172908 -2.521325 0.404608 -4.791369 0.960362 -3.959328 -0.081789 4.531867 1.877882 0.910798 -1.685882 3.008430 -1.251870 -2.556974 -3.895089 2.201488 4.212605 -4.111965
-0.492151 1.440684 -2.961053 4.181488 -3.050367 -4.002246 3.851080 4.257779 -0.408694 2.993195 -3.946104 -0.734966 -0.067360 -2.621286 -0.388409 -3.275423 -1.964322 3.964315 0.384823 -1.718013 2.840591 -3.506245 0.844723 1.677151 2.917542 4.595471 -4.158489 -0.585264 4.550171 0.853176 2.176011 -2.375459 4.934555 -1.953315 -2.036229 3.484554 2.096576 1.406116 3.450385 0.240961 3.632427 -2.229461 3.557464 2.171783 4.735767 -1.434707 -0.788773 3.173338 -3.760319 -4.240929 3.381662 2.969479 3.729715 -4.167902 2.823429 1.266281 -4.451158 1.172665 -0.351668 1.726238 -1.387212 0.700099 2.267002 0.979553 4.978588 1.394197 -3.569366 -3.552225 -1.450686 4.575428 4.901160 3.602323 2.315224 -4.234902 -2.362144 -4.160191 4.366473 0.922534 -1.945817 -0.411208 2.946365 1.183455 0.277825 0.405538 -2.824954 -3.898813 2.001731 -2.708505 -4.169884 -0.305164 0.145820 -1.277237 -1.133012 -1.462424 -4.387135 -1.483879
-3.184809 2.664526 3.285840 4.444073 -0.071713 -1.160079 4.889395 -4.375686 1.903154 4.238266 -1.212972 -1.568306 3.717245 -2.499496 1.958088 0.436085 -0.780104 -2.829991 -4.864530 -1.424386 3.652691 0.283692 -1.143823 4.535452 -1.943992 -4.727716 -2.188788 -0.720624 -1.669959 3.037303 -4.906535 -4.990050 -0.882769 3.730010 -4.742397 -2.204032 -3.235916 -4.207127 2.474635 0.423486 -3.506910 -4.717664 -3.135212 2.177070 0.809109 -3.087799 1.885260 -2.011679 4.635398 1.997754 -0.231382 4.801799 -0.992154 4.901886 0.552304 1.921943 -3.960172 -3.755157 -0.317209 -1.132690 -1.924066 2.543055 -3.929015 4.297609 0.465246 -4.439826 -3.057820 0.901782 3.023463 3.665087 -2.478628 3.376071 2.097652 3.051494 2.153289 -1.315796 -1.982412 -1.626812 -4.276962 -1.605619 -2.101757 -2.553577 -1.657473 -4.002200 -2.553006 3.212703 4.096978 2.133541 -2.301052 -3.930507 -0.924479 3.480355 -2.213296 -3.920985 2.366822 2.299410
-3.511633 2.441277 -0.532964 2.683860 0.321505 4.271711 2.772192 -4.146952 -3.449388 -1.244186 -4.379014 2.700628 4.569375 -1.199244 4.276721 2.845087 -0.668696 1.594647 4.859673 3.521583 -2.755864 -1.676798 3.967836 -0.155643 -2.290277 2.484984 3.185131 3.346469 4.612184 1.633217 0.347418 -1.673522 0.023203 2.157605 3.361198 3.865800 1.667472 3.266667 -2.854516 -3.703389 -4.927858 -0.139454 2.755925 -2.892146 -2.809694 -1.613226 -4.231133 2.430308 -1.179931 3.312110 -0.250560 2.647507 -1.127704 -1.148746 3.493177 2.563678 3.418160 3.889686 -2.332237 0.972770 -4.121013 -0.852522 4.032149 1.234212 1.055842 3.118211 2.423432 0.334691 -4.953789 -3.349592 -3.896083 -3.237960 -3.754769 -1.258203 2.971482 0.803378 2.197784 3.663646 -3.496404 4.910857 3.603865 4.597236 4.408890 -0.854072 -0.126827 1.737881 0.926806 -3.625513 -2.979843 -3.775799 -4.161436 -1.148459 -0.234787 -4.763084 1.996168 3.676177
4.949182 -4.870095 1.418088 -2.670501 1.115711 1.270107 -4.071133 -3.903076 -1.709137 3.730479 -3.486327 4.632714 -2.918742 0.637161 0.284724 2.086446 -3.996696 0.061183 -4.865756 -2.864204 2.162699 -4.010997 3.626053 4.769036 0.340909 -4.016175 -0.892016 2.122394 -1.067694 -2.657886 2.752156 3.756034 2.100532 -1.141118 3.342089 1.397661 -4.411695 3.589655 1.744603 4.019276 -2.742876 -2.132803 0.724111 -0.383600 0.678315 3.827839 1.548290 2.449616 1.113978 3.510332 -2.604360 0.478020 -1.733471 3.340586 3.090920 -0.270374 2.225186 1.112031 -1.031658 3.051280 -1.697101 -3.896132 3.640494 0.181008 -1.950375 -3.759265 -2.395709 -2.745217 4.280062 -0.988186 3.448418 4.459390 4.978124 -4.231737 3.219084 0.234589 0.840254 -2.446299 3.923434 0.451800 1.540702 -4.176026 -4.936432 -4.664879 4.258672 2.222083 -4.089470 -2.961850 1.032267 4.288689 3.820405 4.476417 -1.785634 0.064373 -4.267766 -2.380288
-4.765702 2.444395 -1.023197 2.258760 3.989336 -0.559892 2.820777 -0.500524 0.904938 -4.965647 3.695153 4.359681 -4.344677 0.476137 -4.974559 3.740009 1.611684 0.829778 0.821932 3.896654 1.168928 -0.486399 3.213273 -4.900894 0.823384 4.094105 2.389283 -2.787290 -4.721038 1.830589 -2.953886 -1.638449 -1.545095 -1.189698 -4.264050 -1.933118 -3.502212 2.868522 -0.173836 2.980283 0.343950 -0.249165 0.071139 4.042404 1.959929 -4.560753 -3.279559 1.479679 -4.111502 -2.958774 -0.690089 -1.251383 -2.629290 -1.049358 4.652268 2.158225 3.300506 -3.734519 2.888288 0.984492 -3.978582 -2.519296 -0.012984 -0.141679 3.127503 -3.206412 -2.839026 3.926263 1.570500 0.734377 1.480641 4.253136 1.375303 4.870114 0.590464 -1.067346 -1.125418 -2.375952 3.427761 -4.274539 4.581150 4.194396 -3.748240 0.281502 -0.044388 2.759085 -2.169495 -3.005453 -0.852953 4.910414 -1.258227 4.741449 -4.410870 -2.496078 0.004447 1.448220
-2.282648 -0.178258 -0.125537 -0.299471 -3.457224 2.183017 0.937517 1.131956 -1.619629 0.641076 -2.036231 -1.390987 -3.983624 -4.671587 -4.804319 -3.223682 3.537710 3.299708 -3.736315 1.784961 2.437482 2.961091 -2.784306 4.135135 4.024685 0.924641 0.992385 -3.543738 1.123377 -2.225730 0.327138 3.568323 4.977228 1.565318 2.622519 -4.072698 0.565170 -1.290110 3.780585 -2.107253 2.921835 3.040360 2.298375 -3.274998 1.017833 3.682912 1.883009 -1.049769 -2.313172 -1.498073 4.194722 4.824258 4.769391 -2.261165 0.900034 2.269510 -1.097962 4.215518 3.801062 -2.452608 -0.100297 -3.529661 -0.902461 2.888023 -0.025951 -1.491144 3.101855 -3.466755 -1.948145 -2.540830 -2.951236 -3.940352 -0.422075 2.107449 -3.109957 -1.850902 -2.895467 1.886328 -2.435214 -2.235057 -0.131557 -1.300714 3.461048 -2.558516 -1.495989 1.539185 2.868787 -0.793451 -0.993812 -3.066094 3.904697 0.132877 1.484718 -0.331744 -1.342043 -1.234236
1.881363 4.398553 -2.861516 4.884958 0.174859 2.832400 4.888938 -0.430284 4.961147 4.888516 -4.677148 3.320034 2.879535 -3.097549 -3.687804 -1.058237 3.990116 3.652925 0.794169 -1.371229 2.431844 -0.222105 3.990736 -3.940166 -1.797928 1.162215 -4.063694 1.486310 4.810996 -1.818432 -4.882347 2.534965 0.880345 -4.500169 -3.866455 2.128975 0.848444 0.252127 2.890358 3.258023 1.465586 -0.879457 -1.303177 2.304314 -0.199007 3.063955 2.149229 -2.370477 3.000452 0.046697 2.945013 -1.701858 1.035758 2.895625 -1.502380 -4.562611 -2.211104 4.940451 -3.638624 3.986549 4.211952 0.704288 -3.283441 3.213867 1.734660 -0.710215 1.304819 0.512689 1.420636 2.343750 -2.489954 -3.791558 1.205794 0.962477 4.930163 3.630801 3.262741 -4.319399 2.690210 3.973446 4.497559 1.607474 -3.786492 -2.981057 2.970828 1.920795 2.336859 -1.161515 -2.981656 -4.180309 1.754579 -0.029474 0.994750 1.144502 -4.950998 3.599338
-1.987166 4.446110 1.481014 2.162321 2.055094 -3.422490 4.966707 -2.632461 -2.603359 0.327199 -1.008433 -4.097831 -0.368241 2.871194 -2.268917 1.431612 2.423223 -2.551697 -4.272234 -3.415243 4.978875 -4.680900 -3.373089 -4.037317 -4.489430 -4.959154 -2.599432 -1.000398 -4.252294 -1.178834 2.831663 4.330485 4.303697 4.613306 -0.896975 -4.411558 -2.813433 2.308657 4.267721 0.464188 4.398119 1.302473 -1.900513 1.361214 0.685944 -4.773049 1.330823 -1.446509 4.103469 3.460174 3.383762 -0.297384 2.644034 -4.216584 -1.135833 -2.705674 2.632558 -4.218998 3.922188 -3.694287 -4.075233 3.262408 2.351585 3.622179 -0.130847 2.714887 1.363069 2.631306 -0.797068 -1.607256 4.271986 -2.638937 -2.201816 -3.819512 -3.041742 -3.963771 1.160247 -0.269982 3.388524 -2.342570 4.161102 -3.220277 -3.809618 3.467413 -4.342196 -1.899710 4.802186 3.758500 3.939097 -0.678623 2.271309 3.405177 4.110892 -1.557301 -3.826172 3.190378
-0.376007 0.408505 2.755299 2.674547 -4.884954 3.711161 -3.964426 -0.003617 2.559026 1.713513 4.586030 -2.571223 0.426738 -4.299931 -1.093133 3.927105 3.694226 -4.408824 -0.579771 1.061557 4.754289 2.297683 -1.798462 -0.977527 3.410558 1.007348 3.198589 -4.507720 4.774478 4.883198 2.284791 -3.691106 0.479798 1.768647 -4.739224 4.235200 0.789172 -4.134190 0.791972 4.103138 -3.091910 -0.885533 -3.741702 2.922210 -1.734754 0.670957 3.366609 -1.738639 4.979212 3.195339 -3.155805 0.512274 -2.952628 2.079596 -3.486330 0.054567 1.376918 1.247915 -0.921472 1.559923 -4.691970 -3.586487 -2.445382 -0.714971 -4.565910 3.840557 -0.801543 -3.192706 -1.754987 -0.792368 4.018259 -2.905367 2.623773 1.136019 3.035164 -4.416597 -2.193951 2.349416 -0.714390 3.102337 0.245511 -0.865265 -3.293202 1.284253 1.042342 -0.951398 -0.479777 -1.792313 2.294172 3.102480 -2.787373 -4.283140 -0.447464 -1.279106 2.451906 3.255872
1.194118 1.208224 3.577769 -1.155527 1.095825 4.960630 -1.224930 0.257046 -4.940885 -2.830386 -1.980336 -1.625350 2.240726 2.214172 -3.632801 -1.047486 3.002416 4.964160 3.086020 -0.215876 0.418236 -4.911387 -4.326867 1.967724 -0.083326 0.610227 3.253334 4.646625 -0.213625 3.833220 -3.426946 -4.872387 4.265636 2.872513 -2.284698 -3.818422 3.665931 -2.672435 3.130992 -3.253723 4.612354 -0.716815 3.285834 -0.803234 3.386980 2.025846 -1.714944 4.309882 -0.991507 0.357963 -4.342397 1.956202 1.934660 -2.573900 -3.341845 -0.565482 -1.622907 3.694889 -0.098849 -3.575564 2.692739 0.107923 -3.934144 -3.228275 0.683057 -3.601451 2.093671 -1.384265 3.086923 -1.894468 -3.158535 -2.462743 -0.178142 -3.563715 2.200671 2.507016 -2.273702 0.623669 1.209088 4.037765 -1.045092 2.208193 4.976604 3.276221 3.166325 -0.994396 2.976307 3.707190 3.190320 -1.486431 0.180190 -1.485245 1.127438 4.121445 3.391203 3.689389
-3.873840 3.005119 -4.556880 -1.430198 -0.526693 -0.719252 -1.102415 -0.263303 -4.489817 -4.194571 3.789174 -0.215360 0.246168 -2.192249 -4.431304 -4.610266 4.813550 -0.859307 -2.194050 2.091571 -4.595264 -4.498217 -1.175055 -1.023811 4.319804 4.137597 2.099257 4.860342 1.021973 -4.245744 3.310789 -3.457483 3.283745 -0.459635 -0.733177 2.739421 4.491824 -1.688726 -3.567464 -3.157516 0.064489 3.119014 -1.824150 2.545125 0.619824 1.771499 -2.462751 -2.045889 2.509533 3.754521 2.074043 -4.033139 -1.679475 1.471422 4.653426 -4.188289 2.125408 -3.754666 -0.251108 2.559820 4.205743 4.998582 3.161038 0.276382 4.892923 -0.201260 2.553638 -4.121437 -1.711660 3.690762 -1.631820 0.823517 2.316637 3.236812 -4.739510 -3.110453 -2.447822 1.901760 1.817995 3.788628 1.080539 -1.650116 -3.964137 4.136032 0.036606 -1.744897 1.650294 2.200832 -0.816852 4.322438 -1.439254 -2.803954 -1.053225 -4.697062 -2.722640 3.242932
3.919706 2.600799 2.505614 -3.062524 4.550909 -3.826812 -0.153116 1.245533 -2.073985 -3.003487 -4.150425 -0.122570 -2.015898 0.658707 -1.905263 2.451685 -2.774723 0.887111 -3.454648 -2.543560 -4.998649 -4.570261 -0.867497 1.698087 1.647860 -0.200065 4.453818 -0.470021 -3.472527 0.272529 3.129832 -4.170426 -4.788269 1.108004 4.394242 -2.466752 3.672880 2.456014 2.689415 4.315090 -3.196009 -1.392428 4.390829 -1.034153 -0.782977 2.567981 3.462741 -0.893980 2.401186 -1.773903 3.826378 -3.138281 -0.431577 4.427655 -0.185598 0.640846 -0.565344 -4.505615 -1.796941 -4.338985 2.022156 -1.694048 -0.827035 2.616492 -1.091398 4.300529 -2.223482 -0.591513 2.407605 1.050465 0.470872 2.971045 4.726170 1.465370 4.820550 -1.203211 -3.121372 1.371605 3.372361 -3.901482 1.693514 -2.069768 0.817215 1.897409 1.395757 -0.025718 4.254128 -3.271755 -2.080318 -3.943889 -0.366796 -3.173126 0.703782 -3.044174 3.055961 3.969982
-4.601643 -0.522374 -1.187635 -0.776994 4.527621 4.165971 -0.028517 1.044753 -0.782959 2.289730 0.475571 3.172687 -0.267409 1.700130 3.030643 -2.858354 4.329482 -2.599024 -4.658455 -0.853302 -4.958962 -2.584852 3.864775 1.273306 -0.348895 -4.472073 4.399074 2.955183 -1.080962 3.898975 -2.982892 -0.480796 -3.590959 0.552254 2.961343 -1.921080 -0.822238 4.192317 0.531602 -1.448717 -2.819130 -1.008071 -4.494657 -4.527198 0.812713 -2.357293 -1.720770 -2.737150 2.199038 4.286849 4.525719 -3.991126 -1.227647 0.860890 -1.287162 0.838587 -2.030648 -2.583995 0.747333 2.101686 -1.839043 -3.976213 -1.067938 4.531618 4.410677 2.574942 1.469049 3.031280 -2.937135 0.983173 -2.962364 -2.806140 2.341973 1.733052 -3.113009 -1.143797 -2.784185 -3.898747 -1.349143 -0.103194 0.369149 -0.110790 -2.770412 4.151491 0.310133 -4.723656 -1.572793 -2.203510 -2.412655 -4.420190 1.832149 -4.834665 3.242186 0.587333 0.419607 -0.263022
-4.892341 -4.906381 0.488843 -3.319152 2.225964 -1.759607 4.318027 -3.422930 -1.530909 -1.538419 -1.844782 -4.955921 4.511257 0.134609 2.360403 2.766046 -3.256589 1.086767 0.702032 1.073530 1.551280 -4.481835 3.310178 -1.938882 4.306980 -1.856352 -3.864203 -2.570748 -4.616975 -4.293615 -3.708452 -0.090894 -2.438014 2.176773 3.121897 -3.377763 1.209680 -3.742663 0.325413 -0.764322 1.758703 4.712429 -4.206698 1.788156 1.532901 2.157128 -3.762195 -1.832670 4.247305 -2.595741 -4.599637 0.328743 4.954166 -2.917231 -3.980076 -1.277859 4.417486 -3.321677 0.045700 -0.049646 2.151542 1.711542 0.625688 0.753240 3.572520 -1.477454 -4.611342 -1.061642 0.212084 -3.060657 4.604075 -2.888121 -2.445732 0.073932 2.344690 -1.322758 -1.463535 -0.815600 4.307705 -1.267158 -3.195061 -2.638604 -0.380288 4.919289 -4.620229 -4.223122 2.202419 1.659053 4.770108 4.174648 -2.838660 -0.837107 -1.090364 3.573276 0.472825 -3.037285
4.158432 0.526839 0.093335 -3.680103 1.756893 0.674021 -2.549253 1.749439 -2.176209 -3.194562 4.659509 -0.693986 -2.938365 0.059605 0.548103 1.476740 3.202117 4.242718 2.564417 2.761473 -4.652490 -2.823620 4.468820 -3.058301 0.614257 -0.981275 -0.695427 -4.493745 2.603845 -4.569752 -3.639119 -1.970448 3.369503 3.848048 -3.414708 4.390629 3.945449 3.519279 -4.313611 -4.278019 -3.220204 2.934021 -1.925455 3.127925 -4.803683 -4.248981 2.463037 1.078880 3.047786 3.843043 -0.949509 -4.862523 -1.489664 -4.435435 1.781488 0.960574 1.758226 4.257270 2.184170 0.766557 -2.098168 -1.481096 2.560715 4.336497 -2.394145 2.040136 0.939788 2.075933 -3.926247 2.757837 -1.011894 -2.672098 -2.184625 -3.835210 -2.906848 -4.380104 -4.363260 -2.318811 0.587443 4.782926 1.633194 0.351813 -2.095228 -3.727742 -4.251761 -2.428530 2.852345 -0.156770 -4.496399 2.505195 -2.955279 4.470958 -1.692259 -1.853440 -0.941297 -0.311650
4.194251 3.870292 2.031997 2.142066 -4.466896 -3.854288 4.892034 -1.932022 0.828980 -2.974240 4.153023 -4.872664 -1.887253 -0.851565 2.662265 -3.529909 -1.463439 -2.852925 3.483865 1.161187 -3.710295 -2.373222 -0.456612 2.033992 4.279657 -2.746810 -0.087314 -3.827053 -2.757446 0.817589 3.386302 -0.115215 -1.169965 -0.095723 -4.921856 1.028772 2.955136 -0.293552 1.563051 4.707420 -4.467241 -1.323495 -3.205007 3.615982 4.793162 0.267949 4.193266 2.188077 -2.349005 -1.419558 4.073529 -3.840422 2.412807 -2.415356 -1.620113 2.344391 1.462252 -0.902198 3.016124 -2.836812 -4.753873 -3.397009 2.427512 -4.392226 4.295144 -4.287618 1.935036 0.018614 -1.719592 -0.300903 1.265627 -1.542320 -4.718469 2.101972 3.868767 -4.222396 0.093424 0.056652 -4.322015 -1.422325 2.300168 -3.311233 -4.229043 -1.605441 -1.820723 1.854270 -1.904590 -3.472169 -4.299326 2.991803 3.479528 2.900666 2.232212 -0.127209 0.601964 -1.649476
-1.741979 1.461015 -1.527820 3.781845 -2.216079 -0.513014 0.330288 4.066276 2.434217 3.863121 -4.019555 -2.564058 -1.054168 2.414390 -0.573786 -2.556676 1.396357 1.210136 -4.362672 -3.647177 2.947583 -2.379278 -2.985275 -1.115198 0.678483 -0.831149 -2.574418 2.884326 -2.836104 3.152897 4.651176 -1.067948 -1.114766 -0.106778 1.467353 2.336787 1.527197 -0.994534 -3.485678 2.135694 1.029269 -2.250467 -2.543911 -4.642320 4.399061 -2.794868 -0.990662 -1.654858 1.600492 0.617569 -2.372698 -0.599860 4.641847 -3.324954 0.370561 4.238889 -2.761247 -2.596535 1.402750 0.856098 1.363652 1.668371 1.456214 -0.111710 -1.126841 4.225428 4.419987 3.567123 3.679888 0.935661 0.967696 0.971754 -4.680275 2.046172 3.114291 -4.080481 -2.554342 -2.932255 1.623569 -4.630468 4.668350 3.174297 -3.660515 -4.349862 4.353783 -3.743779 -1.118270 -0.960781 4.611006 1.737742 -4.339071 -2.270584 -4.687429 0.830559 -3.903916 4.316462
-2.189324 -0.958021 3.564553 3.507584 -4.120893 3.141568 2.366127 4.017579 0.607242 1.456875 0.309960 -0.854420 2.738848 -0.203906 -4.123570 -4.273230 2.006280 3.919211 -4.794244 0.276075 2.378394 1.624183 2.121972 4.894536 1.808991 -4.061567 0.385854 -4.588758 -3.716329 3.766462 1.702501 -4.921835 0.383918 3.208975 -1.121387 -0.673869 -1.817878 3.585160 1.349776 1.432073 0.700994 -0.915343 -2.416370 1.669759 -2.137717 -0.716004 1.575444 0.320717 -0.068843 4.566425 -4.938779 -3.419630 4.378170 -2.221632 0.088891 4.715716 -1.629903 -0.564657 4.875679 -2.605223 -1.769455 -2.886592 0.181451 -4.188885 0.288546 3.440099 1.285999 -2.184575 -1.806964 2.335940 -2.576566 3.887378 -1.699584 -3.557389 -3.558042 -2.144105 -2.991283 -4.963827 -0.283360 -3.296258 -0.874003 1.240562 1.435304 -1.306502 1.816260 1.050722 -3.247415 -2.971825 2.356402 4.545623 1.229676 4.946393 -0.638057 -0.481363 3.488588 -1.597386
-1.957212 -4.198848 -3.734675 4.651963 -2.396755 -0.411311 -4.155862 -2.250084 2.112550 -0.439086 -3.211437 1.982951 4.745535 -3.231808 1.280387 3.362966 -3.451341 3.397335 2.341242 -2.196613 -2.116072 3.201950 2.397456 0.986753 4.229306 1.806918 4.709822 0.415840 -2.209280 1.027940 -3.339480 1.062044 -1.873709 1.547691 0.342900 -2.926545 2.548776 3.867727 -3.321059 -0.681079 -2.896047 1.738525 -0.983675 -3.243093 0.982506 -0.103779 -2.778152 -3.174009 2.430347 -0.300519 -2.666063 -4.396766 -1.583393 -3.786196 -0.683838 -4.947955 -3.395761 -1.676089 -4.656561 2.667997 2.654788 4.203161 -3.681974 4.112022 1.838776 2.514038 0.397348 4.511698 1.921106 -1.025034 3.147732 -3.441727 3.293378 0.583284 1.904933 -2.437300 2.980336 -0.280693 3.469645 4.958673 1.730980 -4.576870 0.505531 -3.339448 -0.146980 -1.039254 -1.023142 -2.327065 2.425652 1.910428 2.208677 4.092987 1.007115 1.338069 -3.171829 2.403332
4.923863 3.758212 1.647029 2.147562 -1.163771 2.795008 -4.576507 -2.865091 4.950644 -0.705644 2.124989 0.524262 -3.935714 0.159661 -3.293737 2.751923 3.460891 1.395994 -1.975027 -1.651483 -3.320783 -4.404250 0.436961 -1.597480 -3.359153 4.935464 3.896198 1.817745 -4.373203 -3.364417 -2.710804 -4.371809 -1.769383 4.275821 -0.472494 -0.639558 -2.369113 4.884303 1.784305 -3.263573 3.970408 0.553886 4.771376 3.782375 -3.879206 4.409735 1.983269 3.864882 -3.022748 0.945477 -3.215314 3.955777 -2.325840 4.127229 0.690883 4.229253 -4.133459 3.608760 -1.975349 3.253688 -1.684913 0.854563 -0.711290 1.451106 1.417453 3.771889 1.328833 -0.702606 0.583936 4.823833 -1.885280 -4.920680 1.569555 -2.524456 3.950066 -3.972971 -0.035798 -1.857247 4.618211 3.014665 -1.885764 -3.166033 -1.399080 -3.645076 2.605451 -0.740188 -2.674730 3.627851 3.595040 -2.101743 4.853874 -2.064893 -2.959844 3.044515 -2.432610 2.879071
-2.270463 -2.613182 -0.133403 -4.647785 2.900459 4.251545 -3.224225 -1.437769 4.420404 4.582616 2.296247 -1.014170 -4.936755 -1.722149 -0.580601 1.244027 3.155057 -4.691859 -4.137805 -2.729329 -4.390383 -3.577943 -2.764904 -4.916216 1.030686 0.160194 -4.522094 0.035444 1.840752 -1.323127 -0.348411 -3.485597 -1.730924 0.871183 2.490157 -2.567285 -0.044142 2.897902 1.359362 -1.842041 1.659965 -0.481473 1.163219 -1.653177 0.124051 -2.858709 4.355981 -1.966438 -0.377926 -1.933798 -2.826970 -4.926852 4.263820 0.752234 -0.638686 1.889733 -4.919668 4.787450 0.019751 -3.179320 1.071190 -3.145757 -3.031847 3.078023 -3.205663 2.059379 -4.192444 3.219228 -3.750762 4.640737 4.208710 0.178422 0.967370 2.612224 -1.344785 2.222653 2.792159 -1.396658 -3.100203 0.823006 -1.384812 -2.720373 0.287235 1.541280 -4.046833 -4.715809 -1.189309 1.495157 -3.466366 1.858806 -2.487061 -2.474484 4.443332 -1.363453 -1.445481 -4.418679
-1.952386 -1.939159 0.917926 3.461115 -4.191253 1.137142 2.423407 3.461915 -1.827419 0.162419 -2.671068 0.945152 1.660624 -2.893068 1.565688 -2.674983 -1.311776 -2.632302 -4.627428 2.859192 -1.823856 -2.180715 0.530850 -1.620265 4.547384 3.860658 2.529541 4.881383 -1.403072 -4.311742 -4.468211 -3.642036 1.314100 0.155221 0.536012 -1.645884 -2.397553 0.789550 4.726142 4.446049 -4.262583 -2.197961 -0.391542 -0.453817 -0.116167 1.157505 1.654610 -1.917884 -1.771251 -3.031332 1.829610 -0.355632 -3.191256 -4.922955 -2.791391 0.419492 -1.067496 -3.908686 1.709117 4.245099 4.553726 -3.866009 2.860537 -3.375383 2.612277 -3.781278 -4.977529 2.585388 -3.356420 -1.254232 0.010880 0.535876 -1.781683 -1.515525 1.600370 0.318496 4.362170 -3.850364 3.100373 3.742446 3.225838 -2.904970 1.090644 2.801524 1.522565 -2.675711 -2.290633 -1.297667 4.196388 4.839702 4.356632 2.310727 0.449792 -4.143272 0.415228 -3.396078
2.178736 4.320046 4.926326 -0.175711 1.125733 -0.197130 2.731755 4.302965 4.450900 -1.958390 2.335750 -2.427711 3.856552 -3.733493 -0.514112 4.041962 4.407744 3.699247 -1.694913 2.821134 4.712470 3.405610 0.468564 -4.688575 3.071205 -1.677711 4.695804 1.972373 -3.301608 -3.813182 -2.296500 1.610526 1.376875 -4.117693 1.955521 2.973482 -4.383293 -4.006250 0.423479 0.092104 4.242767 -3.434608 -3.464797 -1.262441 -0.259928 -0.620947 1.357856 -1.216423 3.778750 3.175479 1.391546 3.056237 3.159101 1.607618 0.561503 -2.857697 -1.149479 3.084413 -2.340908 2.900335 2.763809 -3.269897 3.585112 3.768557 -3.953635 2.075156 -1.492391 -3.161666 2.017203 -3.042581 2.361287 0.980032 1.131834 1.297714 4.235260 4.666210 2.028786 -3.459967 1.162618 1.551009 -0.560235 -3.159606 2.424726 4.797734 4.176723 -2.477884 4.890562 3.096205 2.749722 -1.801516 4.779663 -2.123374 -3.005928 1.980063 -0.640911 -2.459649
-4.110456 2.287755 -4.034054 -0.383502 4.189336 -1.756581 -1.011083 1.486947 4.180502 -4.539335 1.187279 0.908571 0.918699 -0.271708 3.952105 1.658537 4.972998 1.472173 -2.167916 0.396104 4.274942 -3.767939 4.623587 -4.224551 0.105282 2.206103 2.367126 2.078522 -1.883475 -4.081529 3.252248 0.294006 4.419328 2.383702 -0.421676 -3.342031 -0.455290 -4.571135 -1.647494 -2.602765 -1.563083 4.516466 -4.087511 1.686655 -4.489014 2.835167 -1.561621 2.467846 -4.800414 -4.168017 -0.744866 -2.712453 -1.039724 4.066154 2.656051 0.045429 -2.795213 1.726445 3.889859 -0.737983 -2.404978 -4.030187 1.137473 -4.452513 0.522396 0.510844 3.349786 -2.275858 -3.775690 -4.756986 2.216357 -0.933052 -3.686866 4.086080 1.442893 2.000529 1.776910 -0.705523 2.390516 -2.930004 -2.068150 4.229053 2.648772 1.659250 -4.577537 0.938551 -0.996957 2.814137 -0.428126 0.061414 1.995284 1.015269 1.060123 -3.612006 2.296262 -4.843239
