2.632817 0.109203 2.622958 -4.097293 4.915701 -1.361742 -4.957325 -4.194823 0.108732 0.003603 -3.159305 -1.262051 -4.225994 -4.369637 1.156153 2.115152 -1.016155 -4.976343 2.040331 0.912965 4.983280 -2.122343 2.211957 0.030992 -0.688792 1.707313 2.045099 1.917329 -2.496236 -0.246400 1.904140 -1.297272 0.581451 -4.488739 0.738422 -3.824600 -1.486847 -3.610322 1.188305 -1.340264 -1.314455 -4.779425 -0.332656 3.607917 3.142197 2.092249 -1.406590 -0.802888 2.632741 3.249124 1.227036 -4.418837 -2.988199 -1.128358 3.773321 -3.040617 0.792102 3.823193 3.366588 0.037566 2.108758 -0.970708 3.065249 -2.488754 3.488215 2.342636 2.240163 -3.780161 3.299149 -4.060471 0.651031 -4.963529 0.800010 4.244218 0.393216 -0.632756 1.680549 -2.432498 -0.620120 0.069523 1.190736 -1.147211 4.093366 -0.874925 -1.024618 -1.763711 4.310662 2.896144 0.538573 -3.284853 -3.182354 -1.073474 -2.470149 -1.635631 0.979162 4.925579
2.632817 0.109203 0.297612 -4.097293 4.915701 -1.361742 -4.957325 -4.194823 0.108732 0.003603 1.286543 -1.262051 -4.225994 -4.369637 1.156153 2.115152 -1.016155 -4.976343 2.040331 0.912965 4.983280 -2.122343 2.211957 0.030992 -0.688792 1.707313 2.045099 1.917329 -2.496236 -0.246400 1.904140 -1.297272 0.581451 -4.622451 0.236008 -3.824600 0.717923 1.753965 1.188305 -0.382524 1.829447 2.390288 -0.332656 3.135205 3.142197 2.092249 -1.406590 -0.802888 2.882946 3.249124 1.227036 -4.418837 -2.988199 -1.128358 -4.998130 -3.040617 0.792102 3.823193 1.447545 -0.886559 2.108758 -4.873315 3.135972 -0.042191 4.670421 2.342636 2.240163 0.810239 3.299149 -4.060471 0.651031 -4.745933 0.800010 4.244218 0.393216 -0.632756 -3.682680 -0.328798 -0.620120 0.069523 -2.779689 -1.147211 4.093366 -0.874925 -1.024618 -3.874960 4.310662 2.896144 0.538573 -3.284853 -3.182354 -0.877348 -2.470149 -1.635631 0.979162 4.822730
2.632817 0.109203 2.622958 -4.097293 4.915701 -1.361742 0.976307 -4.194823 0.108732 0.003603 1.286543 -4.462485 -4.225994 -4.369637 1.156153 2.115152 -1.016155 -4.976343 1.070839 0.912965 4.983280 -2.122343 2.211957 0.030992 -0.688792 1.707313 2.045099 1.917329 -2.496236 -0.246400 1.904140 -1.297272 0.581451 -4.488739 0.738422 -3.824600 -1.486847 -3.610322 1.188305 -1.340264 -1.314455 -4.779425 -0.332656 3.135205 3.142197 2.092249 -1.406590 -0.802888 2.632741 -1.259311 1.227036 -4.418837 -2.988199 -1.128358 3.773321 -3.040617 0.792102 3.823193 3.366588 0.037566 2.108758 -0.970708 3.065249 -2.488754 3.488215 2.342636 2.240163 -3.780161 3.299149 -4.060471 0.651031 3.970823 0.800010 4.244218 0.393216 -0.703385 -3.682680 -0.328798 -0.620120 0.069523 -2.779689 -1.147211 4.093366 -0.874925 -1.024618 -0.577654 4.310662 2.896144 0.538573 -3.284853 -3.182354 -0.162063 -2.470149 -1.635631 0.979162 4.925579
2.632817 0.109203 -0.529914 -4.097293 4.915701 -1.361742 0.976307 -4.194823 0.108732 0.003603 1.286543 -4.462485 -4.225994 -4.369637 1.156153 2.115152 -1.016155 -4.976343 2.040331 0.912965 2.160024 -2.122343 2.211957 0.030992 -0.688792 1.707313 2.045099 1.917329 -2.496236 -3.666369 1.904140 -1.297272 0.581451 -4.622451 0.236008 -3.824600 0.717923 1.753965 1.188305 -0.382524 1.829447 -4.779425 -0.332656 3.135205 3.142197 2.092249 -1.406590 -0.802888 2.882946 3.249124 1.227036 -4.418837 -2.988199 -1.128358 -3.768108 -3.040617 0.792102 3.823193 3.366588 -0.886559 2.108758 -0.970708 3.135972 -0.042191 4.670421 2.342636 -3.851577 -3.780161 3.299149 -1.615956 0.651031 3.970823 0.800010 0.449579 0.393216 -0.632756 -3.682680 0.846223 -0.620120 0.069523 -2.307465 3.745173 3.663913 -0.874925 -1.024618 -3.874960 4.310662 0.767330 0.538573 -3.284853 -3.182354 -0.162063 -2.470149 -1.635631 0.979162 4.822730
2.632817 2.580999 2.622958 -4.097293 4.915701 -1.361742 0.976307 -4.194823 0.108732 0.003603 1.286543 -4.462485 -4.225994 -4.369637 1.156153 2.115152 -1.016155 -4.976343 2.040331 0.912965 2.160024 -2.122343 2.211957 0.030992 -0.688792 1.707313 2.045099 1.917329 -2.496236 -3.666369 1.904140 -1.297272 0.581451 -4.622451 0.236008 -3.824600 0.717923 1.753965 1.188305 -0.382524 1.829447 -4.779425 -0.332656 3.135205 3.142197 2.092249 -1.406590 -0.802888 2.882946 3.249124 1.227036 -4.418837 -2.988199 -1.128358 -4.998130 -3.040617 0.792102 3.823193 1.447545 -0.886559 2.108758 -4.873315 3.135972 -0.042191 4.670421 2.342636 -3.851577 -3.780161 3.299149 -1.615956 0.651031 3.970823 0.800010 0.449579 0.393216 -0.632756 -3.682680 0.846223 -0.620120 0.069523 -2.779689 -1.147211 4.093366 -2.942686 -1.024618 -3.874960 4.310662 2.896144 0.538573 -3.284853 -3.182354 0.470068 -2.470149 -1.635631 0.979162 4.822730
2.632817 0.109203 2.622958 -4.097293 4.915701 -1.361742 -4.957325 -4.194823 0.108732 0.003603 1.286543 -1.262051 -4.225994 -4.369637 1.156153 2.115152 -1.016155 -4.976343 2.040331 0.912965 4.983280 -2.122343 2.211957 0.030992 -0.688792 1.707313 2.045099 1.917329 -2.496236 -0.246400 1.904140 -1.297272 1.110297 -4.488739 0.738422 -3.824600 -1.486847 -3.610322 1.188305 -1.340264 -1.314455 -4.779425 -0.332656 3.135205 3.142197 2.092249 -1.406590 -0.802888 2.632741 3.249124 1.227036 -4.239376 -2.988199 -1.128358 -3.768108 -3.040617 0.792102 3.823193 3.366588 -0.886559 2.108758 -0.970708 3.135972 -0.042191 4.670421 2.342636 -3.851577 -3.780161 3.299149 -1.615956 0.651031 3.970823 0.800010 0.449579 0.393216 -0.632756 -3.682680 0.846223 -0.620120 0.069523 -2.307465 3.745173 3.663913 0.056573 -1.024618 -3.874960 4.310662 0.767330 0.538573 -3.284853 -3.182354 -0.162063 -2.470149 -1.635631 0.979162 4.822730
2.632817 0.109203 -4.713725 -4.097293 4.915701 -1.361742 -4.957325 -4.194823 0.108732 0.003603 1.286543 -1.262051 -1.810556 -4.369637 1.156153 2.115152 -1.016155 -0.341666 2.040331 0.912965 0.619432 -2.122343 1.224105 0.030992 -0.688792 1.707313 2.045099 1.917329 -2.496236 -3.666369 1.904140 -1.297272 2.265367 -4.622451 0.236008 -3.824600 0.717923 1.753965 1.188305 -0.382524 1.829447 -4.779425 -0.332656 3.135205 3.142197 2.092249 -1.406590 -0.802888 2.882946 3.249124 1.227036 -4.418837 -2.988199 -1.128358 -3.768108 -3.040617 0.792102 3.823193 3.366588 -0.886559 2.108758 -0.970708 3.135972 -0.042191 4.670421 2.342636 -3.851577 -3.780161 3.299149 -1.615956 0.651031 3.970823 0.800010 0.449579 0.393216 -0.632756 -3.682680 0.846223 -0.620120 0.069523 -2.307465 3.745173 3.663913 -0.874925 -1.024618 -3.874960 4.310662 0.767330 0.116814 -3.284853 -3.182354 -1.747600 -2.470149 -1.635631 0.979162 4.822730
2.632817 0.109203 2.067437 -4.097293 4.915701 -1.361742 -4.957325 -4.194823 0.108732 0.003603 1.286543 -1.262051 -4.225994 -4.369637 1.156153 2.115152 -1.016155 -3.144928 2.040331 0.912965 4.983280 -2.122343 2.211957 0.030992 -0.688792 1.707313 2.045099 1.917329 3.128997 -0.246400 1.904140 -1.297272 1.110297 -4.488739 0.738422 -2.751664 -1.486847 -3.610322 1.188305 -1.340264 -1.314455 -4.779425 -0.332656 3.135205 3.142197 2.092249 -2.675335 -0.802888 2.632741 3.249124 1.227036 -3.614320 -2.988199 -1.128358 -3.768108 -3.040617 0.792102 3.823193 3.366588 -0.886559 2.108758 -0.970708 3.135972 -0.042191 4.670421 2.342636 -3.851577 -3.780161 3.299149 -1.615956 0.651031 3.970823 0.800010 0.449579 0.393216 -0.632756 -3.682680 0.846223 -0.620120 0.069523 -2.307465 3.745173 3.663913 -0.874925 -1.024618 -3.874960 4.310662 2.896144 0.538573 -3.284853 -3.182354 -0.162063 -2.470149 -1.635631 0.979162 4.822730
2.632817 0.109203 2.622958 -4.097293 4.915701 -1.361742 -4.957325 -4.194823 0.108732 0.003603 1.286543 -1.262051 -1.810556 -4.369637 1.156153 2.115152 -1.016155 -4.976343 2.040331 0.912965 2.160024 -2.122343 2.211957 0.030992 -0.688792 1.707313 2.045099 1.917329 -2.496236 -3.666369 1.904140 -1.297272 0.581451 -4.622451 0.236008 -3.824600 0.717923 1.753965 1.188305 -0.382524 1.829447 -4.779425 -0.332656 3.135205 3.142197 2.092249 -1.406590 -0.802888 2.882946 3.249124 1.227036 -4.418837 -2.988199 -1.128358 -4.998130 -3.040617 0.792102 3.823193 1.447545 -0.886559 2.108758 -4.873315 3.135972 -0.042191 4.670421 2.342636 -3.851577 -3.780161 3.299149 -1.615956 0.651031 3.970823 0.800010 0.449579 0.393216 -0.632756 -3.682680 -0.328798 -0.620120 0.069523 -2.779689 -1.147211 4.093366 -2.942686 -0.912309 -3.874960 4.310662 2.896144 0.538573 -3.284853 -3.182354 -1.073474 -2.470149 -1.635631 0.979162 4.822730
4.580098 0.109203 2.622958 1.039576 0.261697 -1.361742 -4.957325 -4.194823 0.108732 0.003603 1.286543 -1.262051 -4.225994 -4.581975 4.763368 2.115152 -1.016155 -0.341666 2.040331 0.912965 3.894157 -2.122343 2.211957 0.030992 -0.688792 1.707313 2.045099 1.917329 -2.496236 -0.246400 1.904140 -1.297272 0.581451 -4.622451 0.236008 -3.824600 0.717923 1.753965 1.188305 -0.382524 1.829447 -4.779425 -0.332656 3.135205 3.142197 2.092249 -1.406590 -0.802888 2.882946 3.249124 1.227036 -4.418837 -2.988199 -1.128358 -4.998130 -3.040617 0.792102 3.823193 -0.343187 -0.886559 2.108758 -4.873315 -1.674958 -0.042191 4.670421 2.342636 2.240163 -2.992151 3.570380 -0.277743 0.651031 -4.963529 0.800010 4.244218 0.393216 -0.632756 1.680549 -0.328798 -0.620120 0.069523 -2.779689 -1.147211 4.093366 -0.874925 -1.024618 -3.874960 4.310662 2.896144 0.538573 -3.284853 -3.182354 0.470068 -2.470149 -1.635631 0.979162 4.925579
2.632817 0.109203 2.622958 -4.097293 4.915701 -1.361742 -4.957325 -4.194823 0.108732 0.003603 1.286543 -1.262051 -1.810556 -4.369637 1.156153 2.115152 -1.016155 -0.341666 2.040331 0.912965 4.983280 -2.122343 2.211957 0.030992 -0.688792 -4.609021 2.045099 1.917329 -2.496236 -3.666369 1.904140 -1.297272 0.581451 -4.622451 0.236008 -3.824600 -1.486847 -3.610322 1.188305 -1.340264 -1.314455 -4.779425 -0.332656 3.135205 3.142197 -3.878244 -1.406590 -0.802888 2.632741 3.249124 1.227036 -4.418837 -2.988199 -1.128358 3.773321 -3.040617 0.792102 3.823193 3.366588 0.037566 2.108758 -4.873315 2.335015 -0.042191 4.670421 2.342636 -3.851577 1.248238 3.299149 -1.615956 0.973243 -4.745933 0.800010 4.244218 0.393216 -0.632756 -3.682680 -0.328798 -0.620120 0.069523 -2.779689 -1.147211 4.093366 -2.942686 -0.912309 -3.874960 4.310662 2.896144 -4.892053 -3.284853 -3.182354 -1.073474 -2.470149 -1.635631 0.979162 4.822730
4.580098 0.109203 2.622958 -1.047162 4.915701 -1.361742 -4.957325 -4.194823 0.108732 0.003603 1.286543 -1.262051 -4.225994 -4.369637 -2.765279 2.115152 -1.016155 -0.341666 2.040331 0.912965 4.983280 -2.122343 2.211957 0.030992 -0.688792 1.707313 2.045099 1.917329 -2.496236 -0.246400 1.904140 -1.297272 0.581451 -4.622451 0.738422 -4.674817 -1.486847 -2.727540 1.188305 -1.340264 -1.314455 -4.779425 -0.332656 3.135205 3.142197 2.092249 -1.406590 -0.802888 2.632741 3.249124 1.227036 -4.239376 -2.988199 -1.128358 -3.768108 -3.040617 0.792102 3.823193 3.366588 -0.886559 -2.337852 -0.970708 3.135972 -0.042191 4.670421 2.342636 -3.637884 0.810239 3.299149 -4.060471 0.651031 -4.745933 0.800010 4.244218 0.393216 -0.632756 2.547360 -0.328798 -0.620120 0.069523 -2.779689 -1.147211 4.093366 -0.874925 -1.024618 -3.874960 4.310662 2.896144 0.538573 -3.284853 -3.182354 -0.877348 -2.470149 -1.635631 0.979162 4.822730
4.580098 -4.139592 2.622958 -4.097293 4.915701 -4.823865 -4.957325 -4.194823 0.108732 0.003603 1.286543 -1.262051 -4.225994 -4.369637 4.763368 2.115152 -1.016155 -0.341666 2.040331 0.912965 4.983280 -2.122343 2.211957 0.030992 -0.688792 1.707313 2.045099 1.917329 -2.496236 -0.246400 1.904140 -1.297272 0.581451 -4.622451 0.738422 -4.674817 -1.486847 -2.727540 1.188305 -1.340264 -1.314455 -4.779425 -0.332656 3.135205 3.142197 2.092249 -1.406590 -0.802888 2.091847 3.249124 1.227036 2.053909 -2.988199 -1.128358 3.773321 -3.040617 0.792102 3.823193 -0.343187 4.690770 2.108758 -4.873315 3.135972 -0.042191 1.327471 1.750293 2.240163 0.810239 3.299149 -4.060471 -2.990698 -4.745933 0.800010 4.244218 0.393216 -0.632756 -3.682680 -0.328798 -0.620120 0.069523 -2.779689 -1.147211 4.093366 -0.874925 -1.024618 -3.874960 4.310662 2.896144 0.538573 -3.284853 -3.182354 -0.877348 -2.470149 -1.635631 0.979162 4.822730
4.580098 0.109203 2.622958 -1.047162 4.915701 -1.361742 -4.957325 -4.194823 0.108732 0.003603 1.286543 -1.262051 -4.225994 -4.369637 -2.765279 2.115152 -1.016155 -0.341666 2.040331 0.912965 4.983280 -2.122343 2.211957 0.030992 -0.688792 1.707313 2.045099 1.917329 -2.496236 -0.246400 1.904140 -1.297272 0.581451 -4.622451 0.738422 -4.674817 -1.486847 -2.727540 1.188305 -1.340264 -3.870612 -4.779425 -0.332656 3.135205 3.142197 2.092249 -1.406590 -0.802888 2.091847 3.249124 1.227036 2.053909 -2.988199 -1.128358 3.773321 -3.040617 -3.271950 3.823193 1.636569 0.737939 2.108758 -1.790480 4.593136 -3.398077 3.488215 1.750293 2.240163 0.810239 3.299149 -4.060471 0.651031 -4.745933 0.800010 4.244218 0.393216 -0.632756 -3.682680 -0.328798 -0.620120 0.069523 -2.779689 -1.147211 4.093366 -0.874925 -1.024618 -3.874960 4.310662 2.896144 0.538573 -3.284853 -3.182354 -0.877348 -2.470149 -1.635631 0.979162 4.822730
2.632817 0.109203 2.622958 -4.097293 4.915701 -1.361742 0.976307 -4.194823 0.108732 0.003603 1.286543 -4.462485 -4.225994 -4.369637 -1.210616 2.115152 -1.016155 -4.976343 2.040331 0.912965 2.160024 -2.122343 2.211957 0.030992 -0.688792 1.707313 2.045099 1.917329 -2.496236 -3.666369 1.904140 -1.297272 0.581451 -4.622451 0.236008 -3.824600 0.717923 1.753965 1.188305 -0.382524 1.829447 0.520187 -0.332656 3.135205 3.142197 2.092249 -1.406590 -0.802888 2.882946 3.249124 1.227036 -4.418837 -2.988199 -1.128358 -4.998130 -3.040617 0.792102 3.823193 1.447545 -0.886559 -0.530927 -4.873315 3.135972 -0.042191 4.670421 2.342636 2.240163 -2.992151 3.168769 -0.277743 0.651031 3.970823 0.800010 4.244218 0.393216 -0.632756 -0.347628 -2.432498 -0.620120 0.069523 -2.779689 -1.147211 4.093366 -0.874925 -1.024618 -3.874960 4.310662 2.896144 0.538573 -3.284853 -3.182354 -0.877348 -2.470149 -1.635631 0.979162 4.822730
2.632817 0.109203 -4.713725 -4.097293 4.915701 -1.361742 -4.957325 -4.194823 0.108732 0.003603 1.286543 -1.262051 -1.810556 -4.369637 1.156153 2.115152 -1.016155 -0.341666 2.040331 0.912965 4.983280 -2.122343 2.211957 0.030992 -0.688792 1.707313 2.045099 1.917329 -2.496236 -0.246400 1.904140 -1.297272 0.581451 -4.622451 0.738422 -3.824600 4.186090 1.753965 -2.541833 -0.382524 1.829447 -4.779425 -0.332656 3.135205 3.142197 2.092249 -1.406590 -0.802888 2.882946 -4.816274 2.787328 -4.418837 -2.988199 -1.128358 -4.998130 -3.040617 0.792102 3.823193 3.366588 -0.886559 2.108758 -1.790480 -1.674958 -0.321769 4.670421 2.342636 2.240163 -2.992151 3.299149 -0.277743 0.651031 3.970823 0.800010 4.244218 0.393216 -0.632756 1.680549 -2.432498 -0.620120 0.069523 -2.779689 -1.147211 4.093366 -0.874925 -1.024618 -4.467853 4.310662 2.896144 0.538573 -3.284853 4.593629 -0.162063 -2.470149 -1.635631 0.979162 4.822730
2.632817 0.109203 2.622958 -4.097293 4.915701 -1.361742 0.976307 -4.194823 0.108732 0.003603 1.286543 -1.262051 -4.225994 -4.581975 4.763368 2.115152 -1.016155 -0.341666 2.040331 -3.879351 3.894157 -2.122343 2.211957 0.030992 -0.688792 1.707313 2.045099 1.917329 -2.496236 -0.246400 1.904140 -1.297272 0.581451 -4.622451 0.738422 -3.824600 -1.486847 -2.795342 -3.117745 -0.382524 -1.314455 -4.779425 -0.332656 3.135205 3.142197 -4.592116 -1.406590 -0.802888 2.632741 -1.259311 1.227036 -4.418837 -2.988199 -1.128358 3.773321 -3.040617 0.792102 3.823193 3.366588 0.037566 2.108758 -0.970708 3.065249 -2.488754 3.488215 2.342636 2.240163 -3.780161 3.299149 -4.060471 0.651031 3.970823 0.800010 4.244218 0.393216 -0.632756 -3.682680 -0.328798 -0.620120 0.069523 -2.779689 -1.147211 4.093366 -0.874925 -1.024618 -0.577654 4.310662 2.896144 0.538573 -3.284853 -3.182354 -0.162063 -2.470149 -1.635631 0.979162 4.822730
4.580098 0.109203 2.622958 1.039576 0.261697 -1.361742 -4.957325 -4.194823 0.108732 0.003603 1.286543 -1.262051 -4.225994 -4.581975 4.763368 2.115152 -1.016155 -0.341666 2.040331 0.912965 3.894157 -2.122343 2.211957 0.030992 -0.688792 1.707313 2.045099 1.917329 -2.496236 -0.246400 1.904140 -1.297272 0.581451 -4.622451 0.738422 -3.824600 -1.486847 -2.795342 1.188305 -0.382524 -1.314455 -4.779425 -0.332656 3.135205 3.142197 2.092249 -1.406590 -0.802888 -0.159096 3.249124 1.227036 -4.418837 -2.988199 -1.128358 3.773321 -3.040617 0.792102 3.823193 3.366588 0.037566 2.108758 -0.970708 3.065249 -2.488754 3.488215 2.342636 2.240163 -3.780161 3.299149 2.473863 0.651031 3.970823 0.800010 4.244218 0.393216 -0.632756 -3.682680 -0.328798 -0.620120 0.069523 -2.779689 -1.147211 4.093366 -0.874925 -1.688806 -0.577654 4.310662 2.896144 0.538573 -3.284853 -3.182354 -1.073474 -2.470149 -1.635631 0.979162 4.822730
2.632817 0.109203 2.622958 -4.097293 4.915701 -1.361742 -4.957325 -4.194823 0.108732 0.003603 -3.159305 -1.262051 -4.225994 -4.369637 1.156153 2.115152 -1.016155 -4.976343 2.040331 0.912965 4.983280 -2.122343 2.211957 0.030992 -0.688792 1.707313 2.045099 1.917329 -2.496236 -0.246400 1.904140 -1.297272 0.581451 -4.488739 0.738422 -3.824600 -1.486847 -3.610322 1.188305 -1.340264 -1.314455 -4.779425 -0.332656 3.135205 3.142197 2.092249 -1.406590 -0.802888 2.632741 3.249124 1.227036 -4.418837 -2.988199 -1.128358 3.773321 -3.040617 0.792102 3.823193 3.366588 0.037566 2.108758 -0.970708 3.065249 -2.488754 3.488215 2.342636 2.240163 -3.780161 3.299149 -4.060471 0.651031 -4.745933 0.800010 4.244218 0.393216 -0.632756 -3.682680 -0.328798 -0.620120 0.069523 -2.779689 -1.147211 4.093366 -0.874925 -1.024618 -3.874960 4.310662 2.896144 0.538573 -3.284853 -3.182354 0.470068 -2.470149 -1.635631 0.979162 4.925579
2.632817 0.109203 2.622958 -4.097293 4.915701 -1.361742 -4.957325 -4.194823 0.108732 0.003603 1.286543 -1.262051 -4.225994 -4.369637 4.763368 2.115152 -1.016155 -0.341666 2.040331 0.912965 3.894157 -2.122343 2.211957 0.030992 -0.688792 1.707313 2.045099 1.917329 -2.496236 -0.246400 1.904140 -1.297272 0.581451 -4.622451 0.738422 -3.824600 4.186090 1.753965 -2.541833 -0.382524 1.829447 -4.779425 -0.332656 3.135205 3.142197 2.092249 -1.406590 -0.802888 2.882946 -4.816274 2.787328 -4.418837 -2.988199 -1.128358 -4.998130 -3.040617 0.792102 3.823193 3.366588 -0.886559 1.741075 -1.790480 -1.674958 -0.321769 4.670421 2.342636 2.240163 -2.992151 3.299149 -0.277743 0.651031 3.970823 0.800010 4.244218 0.393216 -0.632756 -3.682680 0.846223 -0.620120 0.069523 -2.307465 3.745173 3.663913 -0.874925 -1.024618 -3.874960 4.310662 0.767330 0.538573 -3.284853 -3.182354 -0.162063 -2.470149 -1.635631 0.979162 4.822730
4.580098 0.109203 2.622958 1.039576 0.261697 -1.361742 -4.957325 -4.194823 0.108732 0.003603 1.286543 -1.262051 -4.225994 -4.581975 4.763368 2.115152 -1.016155 -0.341666 2.040331 0.912965 3.894157 -2.122343 2.211957 0.030992 -0.688792 1.707313 2.045099 1.917329 -2.496236 -0.246400 1.904140 -1.297272 0.581451 -4.622451 0.738422 -3.824600 -1.486847 -3.610322 1.188305 -1.340264 -1.314455 -4.779425 -0.332656 3.135205 3.142197 2.092249 -1.406590 -0.802888 2.632741 3.249124 1.227036 -4.418837 -2.988199 -1.128358 3.773321 -3.040617 0.792102 3.823193 3.366588 0.037566 2.108758 -0.970708 -0.219967 -2.488754 3.488215 2.342636 2.240163 0.810239 3.299149 -4.060471 0.651031 -4.745933 0.800010 4.244218 0.393216 -0.632756 -3.682680 -0.328798 -0.620120 0.069523 -2.779689 -1.147211 4.093366 -0.874925 -1.024618 -3.874960 4.310662 2.896144 0.538573 -3.284853 -3.182354 -1.073474 -2.470149 -1.635631 0.979162 4.925579
2.632817 0.109203 0.297612 -4.097293 4.915701 -1.361742 -4.957325 -4.194823 0.108732 0.003603 1.286543 -1.262051 -4.225994 -4.369637 1.156153 2.115152 -1.016155 -0.341666 2.040331 0.912965 3.894157 -2.122343 2.211957 0.030992 -0.688792 1.707313 2.045099 1.917329 -2.496236 -0.246400 1.904140 -1.297272 0.581451 -4.622451 0.738422 -3.824600 -1.486847 -2.795342 1.188305 -0.382524 -1.314455 -4.779425 -0.332656 3.135205 3.142197 2.092249 -1.406590 -0.802888 2.632741 3.249124 1.227036 -4.418837 -2.988199 -1.128358 3.773321 -3.040617 0.792102 3.823193 3.366588 0.037566 2.108758 -0.970708 -0.219967 -2.488754 3.488215 2.342636 2.240163 0.810239 3.299149 -4.060471 0.651031 -4.745933 0.800010 4.244218 0.393216 -0.632756 -3.682680 -0.328798 -0.620120 0.069523 -2.779689 -1.147211 4.093366 -0.874925 -1.024618 -3.874960 4.310662 2.896144 0.538573 -3.284853 -3.182354 -0.877348 -2.470149 -1.635631 0.979162 4.822730
2.632817 0.109203 2.622958 -4.267471 4.915701 -1.361742 -4.957325 -4.194823 0.108732 0.003603 1.286543 -4.462485 -4.225994 -4.369637 1.156153 2.115152 -1.016155 -4.976343 2.040331 0.912965 2.160024 -2.122343 2.211957 0.030992 -0.688792 3.864984 2.045099 1.917329 -2.496236 -3.666369 1.904140 -1.297272 0.581451 -4.622451 0.236008 -3.824600 0.717923 1.753965 1.188305 -0.382524 1.829447 -4.779425 -0.332656 3.135205 3.142197 2.092249 -1.406590 -0.802888 2.882946 3.249124 1.227036 -4.418837 -2.988199 -1.128358 -4.998130 -3.040617 0.792102 3.823193 1.636569 -2.804955 2.108758 -1.790480 -1.674958 -0.042191 4.670421 2.342636 2.240163 -2.992151 3.570380 -0.277743 4.793784 -4.963529 0.800010 4.244218 0.393216 -0.632756 1.680549 -2.432498 -0.620120 0.069523 -2.779689 -1.147211 4.093366 -0.874925 -1.024618 -3.874960 4.310662 2.896144 0.538573 -3.284853 -3.182354 -1.073474 0.066306 -1.635631 0.979162 4.925579
2.632817 0.109203 0.297612 -4.097293 4.915701 -1.361742 -4.957325 -4.194823 0.108732 0.003603 1.286543 -1.262051 -4.225994 -4.369637 1.156153 2.115152 -1.016155 -4.976343 -4.651216 0.912965 4.983280 -2.122343 2.211957 0.030992 -0.688792 1.707313 2.045099 1.917329 -2.496236 -0.246400 1.904140 -1.297272 0.581451 -4.488739 0.738422 -3.824600 -1.486847 -3.610322 1.188305 -1.340264 -1.314455 -4.779425 -0.332656 3.135205 3.142197 2.092249 -1.406590 -0.802888 2.632741 3.249124 1.227036 -4.418837 -2.988199 -1.128358 3.773321 -3.040617 0.792102 3.823193 3.366588 0.037566 2.108758 -0.970708 -0.219967 -2.488754 3.488215 2.342636 -2.190271 0.810239 3.299149 -4.060471 0.651031 -4.745933 0.800010 4.244218 0.393216 -0.632756 -3.682680 -0.328798 -0.620120 0.069523 -2.779689 -1.147211 4.093366 -0.874925 -1.024618 -3.874960 4.310662 2.896144 0.538573 -3.284853 -3.182354 -1.073474 -2.470149 -1.635631 0.979162 4.822730
4.580098 0.109203 2.622958 1.039576 0.261697 -1.361742 -4.957325 -4.194823 0.108732 0.003603 1.286543 -1.262051 -4.225994 -4.581975 4.763368 2.115152 -1.016155 -0.341666 -1.044689 0.912965 3.894157 -2.122343 2.211957 0.030992 -0.688792 1.707313 2.045099 1.917329 -2.496236 -0.246400 1.904140 -1.297272 0.581451 -4.622451 0.236008 -3.824600 0.717923 1.753965 1.188305 -0.382524 1.829447 -4.779425 -0.332656 3.135205 3.142197 2.092249 -1.406590 -0.802888 2.882946 3.249124 1.227036 -4.418837 -2.988199 -1.466769 -4.998130 -3.040617 0.792102 3.823193 -0.343187 -0.886559 2.108758 -4.873315 -1.674958 -0.042191 4.670421 2.342636 2.240163 -2.992151 3.570380 -0.277743 0.651031 -4.963529 0.800010 4.244218 0.393216 -3.785315 1.680549 -2.432498 -0.620120 0.069523 3.994497 -1.147211 4.093366 -0.874925 -1.024618 -1.763711 4.310662 2.896144 0.538573 -3.284853 -3.182354 -1.073474 -2.470149 -1.635631 0.979162 4.925579
2.632817 0.109203 2.622958 -4.097293 4.915701 -1.361742 -4.957325 -4.194823 0.108732 0.003603 -3.159305 -1.262051 -1.059639 -4.369637 1.156153 2.115152 -1.016155 -4.976343 2.040331 0.912965 4.983280 -2.122343 2.211957 0.030992 -0.688792 1.707313 2.045099 1.917329 -2.496236 -0.246400 1.904140 -1.297272 0.581451 -4.622451 0.738422 -3.824600 4.186090 1.753965 -2.541833 -0.382524 3.462330 -4.779425 -0.332656 3.135205 3.142197 4.932936 -1.406590 -0.802888 2.882946 -4.816274 2.787328 -4.418837 -2.988199 -1.128358 -4.998130 -3.040617 0.792102 3.823193 3.366588 -0.886559 2.108758 -1.790480 -1.674958 -0.321769 4.670421 2.342636 2.240163 -2.992151 3.299149 -0.277743 0.651031 3.970823 0.800010 4.244218 0.393216 -0.632756 1.680549 -2.432498 -0.620120 0.069523 -2.779689 -1.147211 4.093366 -0.874925 -1.024618 -0.577654 4.310662 2.896144 0.538573 -3.284853 -3.182354 -0.162063 -2.470149 -1.635631 0.979162 4.822730
2.632817 0.109203 2.622958 -4.097293 4.915701 -1.361742 -4.957325 -4.194823 0.108732 0.003603 1.286543 -1.262051 -4.225994 -4.369637 1.156153 2.115152 -1.016155 -4.976343 2.040331 0.912965 4.983280 -2.122343 2.211957 0.030992 -0.688792 1.707313 2.045099 1.917329 -2.496236 -1.927834 1.904140 -1.297272 1.110297 -4.488739 0.738422 -3.824600 -1.486847 -3.610322 1.188305 -1.340264 -1.314455 -4.779425 -0.332656 3.135205 3.142197 2.092249 -1.406590 -0.802888 2.632741 3.249124 1.227036 -4.239376 -2.988199 -1.128358 -3.768108 -3.040617 0.792102 3.823193 3.366588 -0.886559 2.108758 -2.385181 3.135972 -0.042191 4.670421 2.342636 -3.851577 -3.780161 3.299149 -1.615956 0.651031 3.970823 0.800010 0.449579 0.393216 -0.632756 -3.682680 0.846223 -0.620120 0.069523 -2.307465 3.745173 3.663913 -0.874925 -1.024618 -3.874960 4.310662 2.896144 0.538573 -3.284853 -3.182354 0.470068 -2.470149 -1.635631 0.979162 4.925579
2.632817 0.109203 2.622958 -4.097293 4.915701 -1.361742 0.976307 -4.194823 0.108732 0.003603 1.286543 -4.462485 -4.225994 -4.369637 1.156153 2.115152 -1.016155 -4.976343 2.040331 0.912965 4.983280 -2.122343 2.211957 0.030992 -0.688792 1.707313 2.045099 1.917329 -2.496236 -0.246400 1.904140 -1.297272 0.581451 -4.488739 0.738422 -3.824600 -1.486847 -3.610322 1.188305 -1.340264 -1.314455 -4.779425 -0.332656 3.135205 3.142197 2.092249 -1.406590 -0.802888 2.632741 -1.259311 1.227036 -4.418837 -2.988199 -1.128358 3.773321 -3.040617 0.792102 3.823193 3.366588 0.037566 2.108758 0.859342 3.065249 -2.488754 3.488215 2.342636 2.240163 -3.780161 3.299149 -1.615956 0.651031 3.970823 0.800010 0.449579 0.393216 -0.632756 -4.525665 -2.432498 -0.620120 0.069523 -2.779689 -1.147211 4.093366 -0.874925 -1.024618 -3.874960 4.310662 2.896144 0.538573 -3.284853 -3.182354 -1.073474 -2.470149 -1.635631 0.979162 4.925579
2.632817 2.580999 2.622958 -4.097293 4.915701 -1.361742 0.976307 -4.194823 0.108732 0.003603 1.286543 -4.462485 -4.225994 -4.369637 1.156153 2.115152 -1.016155 -4.976343 2.040331 0.912965 2.160024 -2.122343 2.211957 0.030992 -0.688792 1.707313 2.045099 1.917329 -2.496236 -3.666369 1.904140 -1.297272 0.581451 -4.622451 0.236008 -3.824600 0.717923 1.753965 1.188305 -0.382524 1.829447 -4.779425 -0.332656 3.135205 3.142197 2.092249 -1.406590 1.815150 2.882946 3.249124 1.227036 -4.418837 -2.988199 -1.128358 -4.998130 -3.040617 0.792102 3.823193 1.447545 -0.886559 2.108758 -4.873315 3.135972 -0.042191 4.670421 2.342636 -3.851577 -3.780161 3.299149 -1.615956 0.651031 3.970823 0.800010 0.449579 0.393216 -0.632756 -3.682680 0.846223 -0.620120 0.069523 -2.779689 -1.147211 4.093366 -2.942686 -1.024618 -3.874960 4.310662 2.896144 0.538573 -3.284853 -3.182354 -0.162063 -2.470149 -1.635631 0.979162 4.822730
2.632817 2.580999 2.622958 -4.097293 4.915701 -1.361742 0.976307 -4.194823 0.108732 0.003603 1.286543 -4.462485 -4.225994 -4.369637 1.156153 2.115152 -1.016155 -4.976343 -1.687374 0.912965 2.160024 -2.122343 2.211957 0.030992 -0.688792 1.707313 2.045099 1.917329 -2.496236 -3.666369 1.904140 -1.297272 0.581451 -4.622451 0.236008 -3.824600 0.717923 1.753965 1.188305 -0.382524 1.829447 0.520187 -0.332656 3.135205 3.142197 2.092249 -1.406590 -0.802888 2.882946 3.249124 1.227036 -4.418837 1.261909 -1.128358 -4.998130 -3.040617 0.792102 3.823193 1.447545 -0.886559 -0.530927 -4.873315 3.135972 -0.042191 4.670421 2.342636 2.240163 -2.992151 3.168769 -0.277743 0.651031 3.970823 0.800010 4.244218 0.393216 -0.632756 -0.347628 -2.432498 -0.620120 0.069523 -2.779689 -1.147211 4.093366 -0.874925 -1.024618 -3.874960 4.310662 2.896144 0.538573 -3.284853 -3.182354 0.470068 -2.470149 -1.635631 0.979162 4.925579
4.580098 0.109203 2.622958 -1.047162 4.915701 -1.361742 -4.957325 -4.194823 -4.877091 0.003603 1.286543 -1.262051 -4.225994 -4.369637 1.156153 2.115152 -1.016155 -0.341666 2.040331 0.912965 4.983280 -2.122343 2.211957 0.030992 -0.688792 1.707313 3.612684 1.917329 -2.496236 -0.246400 1.904140 -1.297272 0.581451 -4.622451 0.738422 -4.674817 -1.486847 -2.727540 1.188305 -0.382524 1.829447 0.520187 -0.332656 3.135205 3.142197 2.092249 -1.406590 -0.802888 2.882946 3.249124 1.227036 -4.418837 -2.988199 -1.128358 -4.998130 -3.040617 0.792102 3.823193 1.447545 -0.886559 -0.530927 -4.873315 3.135972 -0.042191 4.670421 2.342636 2.240163 -2.992151 3.168769 -0.277743 0.651031 3.970823 0.800010 4.244218 0.393216 -0.632756 -0.347628 -2.432498 -0.620120 0.069523 -2.779689 -1.147211 4.093366 -0.874925 -1.024618 -3.874960 4.310662 2.896144 0.538573 -3.284853 -3.182354 -1.073474 -2.470149 -1.635631 0.979162 4.925579
2.632817 0.109203 2.622958 -4.097293 -2.464966 -1.361742 -4.957325 -4.194823 0.108732 0.003603 1.286543 -1.262051 -1.810556 -4.369637 1.156153 2.115152 -1.016155 -0.341666 2.040331 -2.157879 4.983280 -2.122343 2.211957 0.030992 -0.688792 1.707313 2.045099 1.917329 -2.496236 -3.666369 1.904140 -1.297272 0.581451 -4.622451 3.581195 -3.824600 2.299536 1.753965 1.188305 -0.382524 1.829447 -4.779425 -0.332656 3.135205 3.142197 2.092249 -1.406590 -0.802888 2.882946 3.249124 1.227036 -4.418837 -2.988199 -1.128358 -4.998130 -3.040617 0.792102 3.823193 1.447545 -0.886559 2.108758 -4.873315 2.335015 -0.042191 4.670421 2.342636 -3.851577 1.248238 3.299149 -4.060471 0.651031 3.970823 0.800010 4.244218 0.393216 -0.632756 -3.682680 -0.328798 -0.620120 0.069523 -2.779689 -1.147211 4.093366 -2.942686 3.754909 -3.874960 4.310662 2.896144 0.538573 -3.284853 3.458154 -1.073474 -2.470149 -1.635631 0.979162 4.822730
4.580098 0.109203 2.622958 -1.047162 4.915701 -1.361742 -4.957325 -4.194823 0.108732 0.003603 1.286543 -1.262051 -4.225994 -4.369637 1.156153 2.115152 -1.016155 -0.341666 2.040331 0.912965 4.983280 -2.122343 2.211957 0.030992 -0.688792 1.707313 3.612684 1.917329 -2.496236 -0.246400 1.904140 -1.297272 0.581451 -4.622451 0.738422 -4.674817 -1.486847 -2.727540 1.188305 -1.340264 -1.314455 -4.779425 -0.332656 3.135205 3.142197 2.092249 -1.406590 -0.802888 2.882946 3.249124 1.227036 -4.418837 -2.988199 -1.128358 3.773321 -3.040617 -3.271950 3.823193 1.636569 0.737939 2.108758 -1.790480 4.593136 -3.398077 3.488215 1.750293 2.240163 0.810239 3.299149 -4.060471 0.651031 -4.745933 0.800010 4.244218 0.393216 -0.632756 -3.682680 -0.328798 -0.620120 0.069523 -2.779689 -1.147211 4.093366 -0.874925 -1.024618 -3.874960 4.310662 3.800518 0.538573 -3.284853 -3.182354 -0.877348 -2.470149 -1.635631 0.979162 4.822730
2.632817 0.109203 2.622958 -1.047162 4.915701 -1.361742 -1.298168 -4.194823 0.108732 2.827234 1.286543 -1.262051 -4.225994 -4.369637 1.156153 2.115152 -1.016155 -0.341666 2.040331 0.912965 4.983280 -2.122343 2.211957 0.030992 -0.688792 1.707313 3.612684 1.917329 -2.496236 -0.246400 1.904140 -1.297272 0.581451 -4.622451 0.738422 -4.674817 -1.486847 -2.727540 1.188305 -1.340264 -1.314455 -4.779425 -0.332656 3.135205 3.142197 2.092249 -1.406590 -0.802888 2.882946 3.249124 1.227036 -4.418837 -2.988199 -1.128358 3.773321 -3.040617 -3.271950 3.823193 1.636569 0.737939 2.108758 -1.790480 4.593136 -3.398077 3.488215 2.342636 2.240163 0.810239 3.299149 -4.060471 0.651031 -4.745933 0.800010 4.244218 0.393216 -0.632756 -3.682680 -0.328798 -0.620120 0.069523 -2.779689 -1.147211 4.093366 -0.874925 -1.024618 -3.874960 4.310662 2.896144 0.538573 -3.284853 -3.182354 0.470068 -2.470149 -1.635631 0.979162 4.925579
2.632817 0.109203 2.622958 -4.097293 4.915701 -1.361742 0.976307 -4.194823 0.108732 0.003603 1.286543 -4.462485 -4.225994 -4.369637 1.156153 2.115152 -1.016155 -4.976343 2.040331 0.912965 4.983280 -2.122343 2.211957 0.030992 -0.688792 1.707313 2.045099 1.917329 -2.496236 -0.246400 1.904140 -1.297272 0.581451 -4.488739 0.738422 -3.824600 -1.486847 -3.610322 1.188305 -1.340264 -1.314455 -4.779425 -0.332656 3.135205 3.142197 2.092249 -1.406590 -0.802888 2.632741 -1.259311 1.227036 -4.418837 -2.988199 -1.128358 3.773321 -3.040617 0.792102 3.823193 3.366588 0.037566 2.108758 -0.970708 3.065249 -2.488754 3.488215 2.342636 2.240163 -3.780161 3.299149 -1.615956 0.651031 3.970823 0.800010 0.449579 0.393216 -0.632756 -3.682680 0.846223 -0.620120 0.069523 -2.307465 3.745173 3.663913 -0.874925 -3.960387 -3.874960 4.310662 0.767330 0.538573 -3.284853 -3.182354 -0.162063 -2.470149 -1.635631 0.979162 4.822730
4.580098 0.109203 2.622958 1.039576 0.261697 -1.361742 -4.957325 -4.194823 0.108732 0.003603 1.286543 -1.262051 -4.225994 -4.581975 4.763368 2.115152 -1.016155 -0.341666 2.040331 0.912965 3.894157 -2.122343 2.211957 0.030992 -0.688792 1.707313 2.045099 1.917329 -2.496236 -0.246400 1.904140 -1.297272 0.581451 -4.622451 0.236008 -3.824600 0.717923 1.753965 1.188305 -0.382524 1.829447 -4.779425 -0.332656 3.135205 3.142197 2.092249 -1.406590 -0.802888 2.882946 3.249124 1.227036 -4.418837 -2.988199 -1.128358 -4.998130 1.427068 0.792102 3.823193 -0.343187 -0.886559 2.108758 -4.873315 -1.674958 -0.042191 -4.290804 2.342636 2.240163 -2.992151 3.570380 -0.277743 0.651031 -4.963529 0.800010 4.244218 0.393216 -0.632756 1.680549 -2.432498 -0.620120 0.069523 3.994497 -1.147211 4.093366 -0.874925 -1.024618 -1.763711 -3.155350 2.896144 0.538573 -3.284853 -3.182354 -1.073474 -2.470149 -1.635631 0.979162 4.822730
2.632817 0.109203 -4.713725 -4.097293 4.915701 -1.361742 -4.957325 -4.194823 0.108732 0.003603 1.286543 -1.262051 -1.810556 -4.369637 1.156153 2.115152 -1.016155 -0.341666 2.040331 0.912965 3.894157 -2.122343 2.211957 0.030992 -0.688792 1.707313 2.045099 1.917329 -2.496236 -0.246400 1.904140 -1.297272 0.581451 -4.622451 0.236008 -3.824600 0.717923 1.753965 1.188305 -0.382524 1.829447 -4.779425 -0.332656 3.135205 3.142197 2.092249 -1.406590 -0.802888 2.882946 3.249124 1.227036 -4.418837 -2.988199 -1.128358 -4.998130 -3.040617 0.792102 3.823193 -0.343187 -0.886559 2.108758 -4.873315 -1.674958 -0.042191 4.670421 2.342636 2.240163 -2.992151 3.570380 -0.277743 0.651031 -4.963529 0.800010 4.244218 0.393216 -0.632756 1.680549 -2.432498 -0.620120 0.069523 3.994497 -1.147211 4.093366 -0.874925 -1.024618 -1.763711 4.310662 2.896144 0.538573 -3.284853 -3.182354 -1.073474 -2.470149 -1.635631 0.979162 4.925579
2.632817 0.109203 2.622958 -4.097293 4.915701 -1.361742 0.976307 -4.194823 0.108732 0.003603 1.286543 -4.462485 -4.225994 -4.369637 1.156153 2.115152 -1.016155 -4.976343 2.040331 0.912965 2.160024 -2.122343 2.211957 0.030992 -0.688792 1.707313 2.045099 1.917329 -2.176425 -3.666369 1.904140 -4.378253 0.581451 -4.622451 0.236008 -3.824600 0.717923 1.753965 1.188305 -0.382524 1.829447 0.520187 -0.332656 3.135205 3.142197 2.092249 -1.406590 4.616946 2.882946 3.249124 1.227036 -4.418837 -2.988199 -1.128358 -4.998130 -3.040617 0.792102 3.823193 1.447545 -0.886559 -0.530927 -4.873315 3.135972 -0.042191 4.670421 2.342636 2.240163 -2.992151 3.168769 -0.277743 0.651031 3.970823 0.800010 4.244218 0.393216 4.185669 1.680549 -2.432498 -0.620120 0.069523 -2.779689 -1.147211 4.093366 -0.874925 -1.024618 -3.874960 4.310662 2.896144 0.538573 -3.284853 -3.182354 -1.073474 -2.470149 -1.635631 0.979162 4.925579
4.580098 0.109203 2.622958 1.039576 0.261697 -1.361742 -4.957325 -4.194823 0.108732 0.003603 1.286543 -1.262051 -4.225994 -4.581975 4.763368 2.115152 -1.016155 -0.341666 2.040331 0.912965 3.894157 -2.122343 2.211957 0.030992 -0.688792 1.707313 2.045099 1.917329 -2.496236 -0.246400 1.904140 -1.297272 0.581451 -4.622451 0.236008 -3.824600 0.717923 1.753965 1.188305 -4.674271 1.829447 -4.779425 -0.332656 3.135205 3.142197 2.092249 -1.406590 -0.802888 2.882946 3.249124 1.227036 -4.418837 -2.988199 -1.128358 -1.671943 -3.040617 0.792102 3.823193 -0.343187 -0.886559 2.108758 -4.873315 -1.674958 -0.042191 4.670421 2.342636 2.240163 -2.992151 3.570380 -0.277743 0.651031 -4.963529 0.800010 4.244218 0.393216 -0.632756 1.680549 -2.432498 -0.620120 0.069523 3.994497 -1.147211 4.093366 -0.874925 -1.024618 -0.577654 4.310662 2.896144 0.538573 -3.284853 -3.182354 -0.162063 -2.470149 -1.635631 0.979162 -4.558447
2.632817 0.109203 2.622958 -4.097293 4.915701 -1.361742 -4.957325 -4.194823 0.108732 0.003603 1.286543 -4.462485 -4.225994 -4.369637 1.156153 2.115152 -1.016155 -4.976343 2.040331 0.912965 2.160024 -2.122343 2.211957 0.030992 -0.688792 1.707313 2.045099 1.917329 -2.496236 -3.666369 1.904140 -1.297272 0.581451 -4.622451 0.236008 -3.824600 0.717923 1.753965 1.188305 -0.382524 1.829447 -4.779425 -0.332656 3.135205 3.142197 2.092249 -1.406590 -0.802888 2.882946 3.249124 1.227036 -4.418837 -2.988199 -1.128358 -4.998130 -3.040617 0.792102 3.823193 1.636569 -2.804955 2.108758 -1.790480 -1.674958 -0.042191 4.670421 2.342636 2.240163 -2.992151 3.570380 -0.277743 0.651031 -4.963529 0.800010 4.244218 0.393216 -0.632756 1.680549 -2.432498 -0.620120 0.069523 -2.779689 -1.147211 4.093366 -0.874925 -1.024618 -3.874960 4.310662 0.767330 0.538573 -3.284853 -3.182354 -0.162063 -2.470149 -3.530510 0.979162 4.822730
4.580098 0.109203 2.622958 -1.047162 4.915701 -1.361742 -4.957325 -4.194823 0.108732 0.003603 1.286543 -1.262051 -4.225994 -4.369637 -2.765279 2.115152 -1.016155 -0.341666 2.040331 0.912965 4.983280 -2.122343 2.211957 0.030992 -0.688792 1.707313 2.045099 1.917329 -2.496236 -0.246400 1.904140 -1.297272 0.581451 -4.622451 0.738422 -4.674817 -1.486847 -2.727540 1.188305 -1.340264 -1.314455 -4.779425 -0.332656 3.135205 3.142197 2.092249 -1.406590 -0.802888 2.091847 3.249124 1.227036 2.053909 -2.988199 -1.128358 3.773321 -3.040617 -3.271950 3.823193 1.636569 0.737939 2.108758 -1.790480 4.593136 -3.398077 3.488215 1.750293 2.240163 0.810239 3.299149 -4.060471 0.651031 -4.745933 0.800010 4.244218 0.393216 -0.632756 -3.682680 -0.328798 -0.620120 -0.160290 -2.779689 -1.147211 4.093366 -0.874925 -0.912309 -3.874960 4.310662 2.896144 0.538573 -3.284853 -3.182354 -0.877348 -2.470149 -1.635631 0.979162 4.822730
4.580098 -3.748285 2.622958 -1.047162 4.915701 -1.361742 -4.957325 -4.194823 0.108732 0.003603 1.286543 -1.262051 -4.225994 -4.369637 -2.765279 2.115152 3.133415 -0.341666 2.040331 0.912965 4.983280 -2.122343 2.211957 0.030992 -0.688792 1.707313 2.045099 1.917329 -2.496236 -0.246400 1.904140 -1.297272 0.581451 -4.622451 0.738422 -4.674817 -1.486847 -2.727540 1.188305 -1.340264 -1.314455 -4.779425 -0.332656 3.135205 3.142197 2.092249 -1.406590 -0.802888 2.091847 3.249124 1.227036 2.053909 -2.988199 -1.128358 3.773321 -3.040617 -3.271950 3.823193 1.636569 0.737939 2.108758 -1.790480 -0.219967 2.446494 3.488215 2.342636 2.240163 0.810239 3.299149 -4.060471 0.651031 -4.745933 0.800010 4.244218 0.393216 -0.632756 -3.682680 -0.328798 -0.620120 0.069523 -2.779689 -1.147211 4.093366 -0.874925 -1.024618 -3.874960 4.310662 2.896144 0.538573 -3.284853 -3.182354 -0.877348 -2.470149 -1.635631 0.979162 4.822730
2.632817 0.109203 2.622958 -1.047162 4.915701 -1.361742 -1.298168 -4.194823 0.108732 2.827234 1.286543 -1.262051 -4.225994 -4.369637 1.156153 2.115152 -1.016155 -4.976343 2.040331 0.912965 2.160024 -2.122343 2.211957 0.030992 -0.688792 1.707313 2.045099 1.917329 -2.496236 1.422142 1.904140 -1.297272 0.581451 -4.622451 0.738422 -0.194255 -1.486847 1.086913 0.679017 -1.340264 -1.314455 -1.978966 2.078653 3.135205 3.142197 2.092249 -1.406590 -0.802888 -0.159096 3.249124 1.227036 -4.418837 -2.988199 -1.128358 3.773321 -3.040617 -3.271950 3.823193 1.636569 1.916994 2.108758 -1.790480 -1.674958 -0.042191 4.670421 -3.523102 2.240163 -2.992151 3.299149 -0.277743 0.651031 -4.963529 0.800010 4.244218 0.393216 -0.632756 1.680549 -2.432498 -0.620120 0.069523 -2.779689 -1.147211 4.093366 -0.874925 -1.024618 -3.874960 4.310662 2.896144 0.538573 -3.284853 -3.182354 -1.073474 -2.470149 -1.635631 0.979162 4.925579
4.580098 0.109203 2.622958 -1.047162 4.915701 -1.361742 -4.957325 -4.194823 -4.877091 0.003603 1.286543 -1.262051 -4.225994 -4.581975 4.763368 2.115152 -1.016155 -0.341666 2.040331 -3.879351 3.894157 -2.122343 2.211957 0.030992 -0.688792 1.707313 2.045099 1.917329 -2.496236 -0.246400 1.904140 -1.297272 0.581451 -4.622451 0.738422 -3.824600 -1.486847 -2.795342 1.188305 -0.382524 -1.314455 -4.779425 -0.332656 3.135205 3.142197 -4.592116 -1.406590 -0.802888 -0.159096 3.249124 1.227036 -4.418837 0.177731 -1.128358 -4.998130 -3.040617 0.792102 3.823193 1.636569 -2.804955 2.108758 -1.790480 -1.674958 -0.042191 4.670421 2.342636 -3.851577 1.248238 3.299149 -1.615956 0.651031 -4.745933 0.800010 4.244218 0.393216 -0.632756 -3.682680 -0.328798 -0.620120 0.069523 -2.779689 -1.147211 4.093366 -0.874925 -1.024618 -3.874960 4.310662 2.896144 0.538573 -3.284853 -3.182354 0.470068 -2.470149 -1.635631 0.979162 4.925579
2.632817 0.109203 2.622958 -4.097293 -3.513782 -1.361742 0.976307 -4.194823 0.108732 0.003603 1.286543 -4.462485 -4.225994 -4.369637 1.156153 2.115152 -1.016155 -4.976343 2.040331 0.912965 2.160024 -2.122343 2.211957 0.030992 -0.688792 1.707313 2.045099 1.917329 -2.496236 -3.666369 1.904140 -1.297272 0.581451 -4.622451 0.236008 -3.824600 0.717923 1.753965 1.188305 -0.382524 1.829447 0.520187 -0.332656 4.131331 3.142197 2.092249 -1.406590 -0.802888 2.632741 -1.259311 1.227036 -4.418837 -2.988199 -1.128358 3.773321 -3.040617 0.792102 3.823193 1.447545 -0.886559 -0.530927 -4.873315 3.135972 -0.042191 4.670421 2.342636 2.240163 -2.992151 3.168769 -0.277743 0.651031 3.970823 0.800010 4.244218 0.393216 -0.632756 -0.347628 -2.432498 -0.620120 0.069523 -2.779689 -1.147211 4.093366 -0.874925 -1.024618 -3.874960 4.310662 2.896144 0.538573 -3.284853 -3.182354 -1.073474 -2.470149 -1.635631 0.979162 4.925579
2.632817 0.109203 2.622958 -4.097293 4.915701 -1.361742 -4.957325 -4.194823 0.108732 0.003603 1.286543 -1.262051 -4.225994 -4.369637 4.763368 2.115152 -1.016155 -0.341666 2.040331 0.912965 3.894157 -2.122343 2.211957 0.030992 -0.688792 1.707313 2.045099 1.917329 -2.496236 -0.246400 1.904140 -1.297272 0.581451 -4.622451 0.738422 -3.824600 4.186090 1.753965 -2.541833 -0.382524 1.829447 -4.779425 -0.332656 3.135205 3.142197 2.092249 -1.406590 -0.802888 2.882946 -4.816274 2.787328 -4.418837 -2.988199 -1.128358 -4.998130 -3.040617 0.792102 3.823193 3.366588 -0.886559 2.108758 -1.790480 -1.674958 -0.321769 4.670421 2.342636 2.240163 -2.992151 3.299149 -0.277743 0.651031 3.970823 0.800010 4.244218 0.393216 -0.632756 -3.682680 -0.328798 -0.620120 0.069523 -2.779689 -1.147211 4.093366 -0.874925 -1.024618 -0.577654 4.310662 2.896144 0.538573 -3.284853 -3.182354 -0.162063 -2.470149 -1.635631 0.979162 4.822730
2.632817 0.109203 2.622958 -1.047162 4.915701 -1.361742 -1.298168 -4.194823 0.108732 2.827234 1.286543 -4.702219 -4.225994 -4.369637 1.156153 2.115152 -1.016155 -4.976343 2.040331 0.912965 2.160024 -2.122343 2.211957 0.030992 -0.688792 1.707313 2.045099 1.917329 -2.496236 -0.246400 1.904140 -1.297272 0.581451 -4.622451 0.738422 -0.194255 -1.486847 1.086913 0.679017 -1.340264 -1.314455 -1.978966 2.078653 3.135205 3.142197 2.092249 -1.406590 -0.802888 -0.159096 3.249124 1.227036 -4.418837 -2.988199 -4.141450 3.773321 -3.040617 -3.271950 3.823193 1.636569 1.916994 2.108758 -1.790480 -1.674958 -0.042191 4.670421 -3.523102 2.240163 -3.780161 3.299149 -4.060471 0.651031 3.970823 0.800010 4.244218 0.393216 -0.632756 -3.682680 -0.328798 -0.620120 0.069523 -2.779689 -1.147211 4.093366 -0.874925 -1.024618 -0.577654 4.310662 2.896144 0.538573 -3.284853 -3.182354 -0.162063 -2.470149 -1.635631 0.979162 4.822730
4.580098 0.109203 2.622958 1.039576 0.261697 -1.361742 -4.957325 -4.194823 0.108732 0.003603 1.286543 -1.262051 -4.225994 -4.581975 4.763368 2.115152 -1.016155 -0.341666 2.040331 0.912965 3.894157 -2.122343 2.211957 0.030992 -0.688792 1.707313 2.045099 1.917329 -2.496236 -0.246400 1.904140 -1.297272 0.581451 -4.622451 0.738422 -3.824600 -1.486847 -2.795342 1.188305 -0.382524 -1.314455 -4.779425 -0.332656 1.714011 3.142197 2.092249 -1.406590 -0.802888 -0.159096 3.249124 1.227036 -4.418837 -2.988199 -1.128358 3.773321 -3.040617 0.792102 3.823193 3.366588 0.037566 2.108758 -0.970708 3.065249 -2.488754 3.488215 2.342636 2.240163 -3.780161 3.299149 -4.060471 0.651031 3.970823 0.800010 4.244218 0.393216 -0.632756 -3.682680 -0.328798 -0.620120 0.069523 -2.779689 -1.147211 4.093366 -0.874925 -1.024618 -0.577654 4.310662 2.896144 0.538573 -3.284853 -3.182354 -0.162063 -2.470149 -1.635631 0.979162 4.822730
2.632817 0.109203 2.622958 -4.097293 4.915701 -1.361742 -4.957325 -4.194823 0.108732 0.003603 1.286543 -4.462485 -4.225994 -4.369637 1.156153 2.115152 -1.016155 -4.976343 2.040331 0.912965 2.160024 -2.122343 2.211957 0.030992 -0.688792 1.707313 2.045099 1.917329 -2.496236 -3.666369 1.904140 -1.297272 0.581451 -4.622451 0.236008 -3.824600 0.717923 1.753965 1.188305 -0.382524 1.829447 -4.779425 -0.332656 3.135205 3.142197 2.092249 -1.406590 -0.802888 -3.301310 3.249124 1.227036 -4.418837 -1.883643 -1.128358 -4.998130 -3.040617 0.792102 3.823193 1.636569 -2.804955 2.108758 -1.790480 -1.674958 -0.042191 4.670421 2.342636 2.240163 -2.992151 3.570380 -0.277743 0.651031 -4.963529 0.800010 4.244218 0.393216 -0.632756 1.680549 -2.432498 -0.620120 0.069523 -2.779689 -1.147211 4.093366 -0.874925 -1.024618 -3.874960 4.310662 2.896144 0.538573 -3.284853 -3.182354 -1.073474 -2.470149 -1.635631 0.979162 4.925579
4.580098 0.109203 2.622958 1.039576 -0.115036 -1.361742 -4.957325 -4.194823 0.108732 0.003603 1.286543 -1.262051 -4.225994 -4.581975 -4.535667 2.115152 -1.016155 -0.341666 2.040331 0.912965 3.894157 -2.122343 2.211957 0.030992 -0.688792 1.707313 2.045099 1.917329 -2.496236 -0.246400 1.904140 -1.297272 0.581451 -4.622451 0.738422 -3.824600 -1.486847 -2.795342 1.188305 -0.382524 -1.314455 -4.779425 -0.332656 3.135205 3.142197 2.092249 -1.406590 -0.802888 -0.159096 3.249124 1.227036 0.340719 -2.988199 -1.128358 -4.998130 -3.040617 0.792102 3.823193 1.636569 -2.804955 2.108758 -1.790480 -1.674958 -0.042191 4.670421 2.342636 2.240163 -2.992151 3.570380 -0.277743 0.651031 3.970823 0.800010 3.016188 0.393216 -0.632756 -3.682680 0.846223 -0.620120 0.069523 -2.779689 -1.147211 4.093366 -0.874925 -1.024618 -3.874960 4.310662 2.896144 0.538573 -3.284853 -3.182354 -1.073474 -2.470149 -1.635631 0.979162 4.925579
